1 1 100 2 0.999745
2 1 100 2 0.000254672
1 2 100 2 1
2 3 100 2 1
1 4 100 2 1.49366e-05
2 4 100 2 0.999985
2 0 100 3 0.999982
3 0 100 3 1.80883e-05
1 1 100 3 0.77137
3 1 100 3 0.22863
2 2 100 3 0.337706
3 2 100 3 0.662294
1 3 100 3 0.249994
2 3 100 3 0.495234
3 3 100 3 0.254772
1 4 100 3 0.160151
2 4 100 3 0.419924
3 4 100 3 0.419924
2 5 100 3 0.115793
3 5 100 3 0.884207
2 0 100 4 1
1 1 100 4 0.989244
2 1 100 4 0.0100158
3 1 100 4 0.000740129
1 2 100 4 0.500095
2 2 100 4 0.499905
1 3 100 4 0.200502
2 3 100 4 0.398493
3 3 100 4 0.200503
4 3 100 4 0.200503
1 4 100 4 0.333333
3 4 100 4 0.666667
2 5 100 4 7.72655e-05
4 5 100 4 0.999923
1 6 100 4 0.266349
2 6 100 4 0.00205526
3 6 100 4 0.373901
4 6 100 4 0.357695
2 7 100 4 0.350829
3 7 100 4 0.296486
4 7 100 4 0.352685
2 0 100 5 0.329024
4 0 100 5 0.670976
1 1 100 5 0.369817
4 1 100 5 0.210158
5 1 100 5 0.420025
1 2 100 5 0.386905
2 2 100 5 0.212052
3 2 100 5 0.401043
1 3 100 5 0.198342
2 3 100 5 0.293583
3 3 100 5 0.239545
4 3 100 5 0.133846
5 3 100 5 0.134684
1 4 100 5 0.117266
2 4 100 5 0.123548
3 4 100 5 0.234757
4 4 100 5 0.202102
5 4 100 5 0.322327
4 5 100 5 0.499808
5 5 100 5 0.500192
1 6 100 5 0.250964
2 6 100 5 0.247119
3 6 100 5 0.250965
4 6 100 5 0.250952
3 7 100 5 1.51343e-06
4 7 100 5 0.0456263
5 7 100 5 0.954372
2 8 100 5 0.0439845
4 8 100 5 0.956016
1 0 100 6 0.131375
2 0 100 6 0.184611
3 0 100 6 0.126307
4 0 100 6 0.381138
5 0 100 6 0.176566
6 0 100 6 3.68247e-06
1 1 100 6 0.885231
2 1 100 6 0.11476
4 1 100 6 9.86954e-06
1 2 100 6 0.20863
2 2 100 6 0.438688
3 2 100 6 0.327737
4 2 100 6 0.00125282
5 2 100 6 0.000215697
6 2 100 6 0.0234763
1 3 100 6 4.88646e-06
2 3 100 6 0.22276
3 3 100 6 0.332676
4 3 100 6 0.196828
5 3 100 6 0.130902
6 3 100 6 0.116829
1 4 100 6 0.188516
2 4 100 6 0.00823045
3 4 100 6 0.300059
4 4 100 6 0.188744
5 4 100 6 0.251402
6 4 100 6 0.0630495
1 5 100 6 0.0961788
2 5 100 6 0.190574
3 5 100 6 0.16801
4 5 100 6 0.160556
5 5 100 6 0.160362
6 5 100 6 0.22432
1 6 100 6 2.21467e-05
2 6 100 6 0.223621
3 6 100 6 0.0730784
4 6 100 6 0.232616
5 6 100 6 0.172396
6 6 100 6 0.298267
2 7 100 6 0.167211
3 7 100 6 0.0836653
4 7 100 6 0.163638
5 7 100 6 0.167159
6 7 100 6 0.418326
1 8 100 6 0.060993
2 8 100 6 0.000115957
3 8 100 6 0.117846
4 8 100 6 0.121763
5 8 100 6 0.49589
6 8 100 6 0.203392
1 9 100 6 0.0215742
2 9 100 6 0.939811
3 9 100 6 0.00667265
4 9 100 6 0.0319423
3 10 100 6 0.0013695
5 10 100 6 1.92903e-06
6 10 100 6 0.998629
1 0 100 7 0.0855179
2 0 100 7 0.080445
3 0 100 7 0.175217
4 0 100 7 0.00896259
5 0 100 7 0.307791
6 0 100 7 0.34206
7 0 100 7 6.19275e-06
1 1 100 7 0.70444
2 1 100 7 0.222627
3 1 100 7 0.0704536
5 1 100 7 4.77528e-06
7 1 100 7 0.00247436
1 2 100 7 0.000373658
2 2 100 7 0.536686
3 2 100 7 0.277054
4 2 100 7 0.184702
6 2 100 7 8.16186e-06
7 2 100 7 0.00117626
1 3 100 7 0.0536783
2 3 100 7 0.118348
3 3 100 7 0.21208
4 3 100 7 0.214713
5 3 100 7 0.186862
6 3 100 7 0.107352
7 3 100 7 0.106966
1 4 100 7 0.0916444
2 4 100 7 0.189306
3 4 100 7 0.177136
4 4 100 7 0.2661
5 4 100 7 0.091938
7 4 100 7 0.183876
3 5 100 7 0.010147
4 5 100 7 0.222792
5 5 100 7 0.321906
6 5 100 7 0.333868
7 5 100 7 0.111287
2 6 100 7 4.36565e-05
3 6 100 7 0.215229
5 6 100 7 0.220368
6 6 100 7 0.135746
7 6 100 7 0.428612
2 7 100 7 7.08586e-06
4 7 100 7 0.166617
6 7 100 7 0.17251
7 7 100 7 0.660867
1 8 100 7 0.218385
2 8 100 7 0.0899486
3 8 100 7 0.1092
4 8 100 7 0.218278
5 8 100 7 0.1092
6 8 100 7 0.145635
7 8 100 7 0.109352
1 9 100 7 4.41856e-06
2 9 100 7 0.0158001
3 9 100 7 0.0361062
4 9 100 7 0.0454705
5 9 100 7 0.324551
6 9 100 7 0.387352
7 9 100 7 0.190717
2 10 100 7 1.3941e-06
3 10 100 7 0.13364
4 10 100 7 0.21961
5 10 100 7 0.219636
6 10 100 7 0.207477
7 10 100 7 0.219636
2 11 100 7 0.000171718
3 11 100 7 3.6561e-05
7 11 100 7 0.999792
1 0 100 8 0.0891273
2 0 100 8 1.49835e-05
3 0 100 8 0.128681
4 0 100 8 0.202265
5 0 100 8 0.227771
6 0 100 8 0.0969013
7 0 100 8 0.255228
8 0 100 8 1.1193e-05
1 1 100 8 0.610492
2 1 100 8 0.09262
3 1 100 8 0.0780635
6 1 100 8 0.0798804
7 1 100 8 0.0463422
8 1 100 8 0.0926021
1 2 100 8 0.00463581
2 2 100 8 0.28628
3 2 100 8 0.198019
4 2 100 8 0.114331
5 2 100 8 0.168145
6 2 100 8 0.114147
7 2 100 8 0.0571839
8 2 100 8 0.0572593
1 3 100 8 0.0733128
2 3 100 8 0.224751
3 3 100 8 0.212428
4 3 100 8 0.143567
5 3 100 8 0.0718415
6 3 100 8 0.0717687
7 3 100 8 0.0623798
8 3 100 8 0.139951
1 4 100 8 0.10347
2 4 100 8 0.146631
3 4 100 8 0.168935
4 4 100 8 0.154465
5 4 100 8 0.0516039
6 4 100 8 0.0143045
7 4 100 8 0.15478
8 4 100 8 0.20581
1 5 100 8 0.0369723
2 5 100 8 0.104356
3 5 100 8 0.134492
4 5 100 8 0.170074
5 5 100 8 0.177793
6 5 100 8 0.138372
7 5 100 8 0.101871
8 5 100 8 0.136069
1 6 100 8 0.07128
2 6 100 8 0.209147
4 6 100 8 0.142056
5 6 100 8 0.151085
6 6 100 8 0.213077
7 6 100 8 0.142056
8 6 100 8 0.0712986
1 7 100 8 0.0442188
2 7 100 8 0.0493879
3 7 100 8 0.148161
4 7 100 8 0.0901627
5 7 100 8 0.148161
6 7 100 8 0.21021
7 7 100 8 0.190774
8 7 100 8 0.118924
5 8 100 8 0.358851
6 8 100 8 0.641149
2 9 100 8 1.79405e-06
4 9 100 8 0.347716
6 9 100 8 0.208024
8 9 100 8 0.444258
2 10 100 8 0.13293
3 10 100 8 0.132281
4 10 100 8 0.00172882
5 10 100 8 0.133115
6 10 100 8 0.0786975
7 10 100 8 0.213014
8 10 100 8 0.308234
3 11 100 8 0.164584
7 11 100 8 0.00233553
8 11 100 8 0.83308
1 12 100 8 0.0186141
3 12 100 8 0.0115724
5 12 100 8 0.000517773
7 12 100 8 0.969296
1 13 100 8 0.315108
2 13 100 8 0.334973
3 13 100 8 0.00102359
4 13 100 8 0.000538384
5 13 100 8 1.11638e-05
6 13 100 8 1.59671e-05
7 13 100 8 0.000303409
8 13 100 8 0.348027
1 0 100 9 0.00507618
2 0 100 9 0.0320008
3 0 100 9 0.0819202
4 0 100 9 0.0749742
5 0 100 9 0.146674
6 0 100 9 0.259031
7 0 100 9 0.236673
8 0 100 9 0.163649
9 0 100 9 7.6323e-07
1 1 100 9 0.610112
2 1 100 9 0.19109
3 1 100 9 0.0299018
4 1 100 9 0.000846178
5 1 100 9 0.0280251
7 1 100 9 1.99382e-05
8 1 100 9 0.0840035
9 1 100 9 0.0560013
1 2 100 9 0.0781031
2 2 100 9 0.464658
3 2 100 9 0.114789
4 2 100 9 0.0781031
5 2 100 9 0.0390493
6 2 100 9 0.0781031
7 2 100 9 0.069091
9 2 100 9 0.0781031
1 3 100 9 0.1352
2 3 100 9 0.050009
3 3 100 9 0.349554
4 3 100 9 0.103719
5 3 100 9 0.0450779
6 3 100 9 0.0450665
7 3 100 9 0.136166
8 3 100 9 0.0901334
9 3 100 9 0.0450745
1 4 100 9 0.0393263
2 4 100 9 0.0390249
3 4 100 9 0.153948
4 4 100 9 0.22051
5 4 100 9 0.195115
6 4 100 9 0.117024
7 4 100 9 0.0390767
8 4 100 9 0.11793
9 4 100 9 0.0780459
1 5 100 9 0.0707885
2 5 100 9 0.142657
3 5 100 9 0.00095664
4 5 100 9 0.244029
5 5 100 9 0.196167
6 5 100 9 0.246773
7 5 100 9 0.0494462
8 5 100 9 0.0491826
1 6 100 9 0.0626236
2 6 100 9 0.119924
3 6 100 9 0.120061
4 6 100 9 0.0852029
5 6 100 9 0.240255
6 6 100 9 0.0615555
7 6 100 9 0.110257
8 6 100 9 0.0400209
9 6 100 9 0.1601
2 7 100 9 0.159527
3 7 100 9 0.204713
4 7 100 9 0.0645843
5 7 100 9 0.0908859
6 7 100 9 0.10635
7 7 100 9 0.214414
8 7 100 9 0.0531753
9 7 100 9 0.106351
1 8 100 9 3.14109e-05
3 8 100 9 0.153844
4 8 100 9 0.212689
5 8 100 9 0.148486
6 8 100 9 0.113532
7 8 100 9 0.0742526
8 8 100 9 0.148679
9 8 100 9 0.148485
3 9 100 9 0.0346998
4 9 100 9 0.138823
5 9 100 9 0.0501701
6 9 100 9 0.174986
7 9 100 9 0.20647
8 9 100 9 0.186687
9 9 100 9 0.208164
5 10 100 9 4.55369e-06
7 10 100 9 4.59148e-05
8 10 100 9 0.338012
9 10 100 9 0.661938
1 11 100 9 0.068505
2 11 100 9 0.0688708
3 11 100 9 0.0688982
4 11 100 9 0.068031
5 11 100 9 0.0688009
6 11 100 9 2.0636e-05
7 11 100 9 0.0689049
8 11 100 9 0.243749
9 11 100 9 0.34422
1 12 100 9 4.27332e-06
3 12 100 9 0.991659
6 12 100 9 0.00145709
8 12 100 9 2.34712e-05
9 12 100 9 0.00685628
1 13 100 9 0.999885
2 13 100 9 0.000111066
8 13 100 9 3.92239e-06
1 14 100 9 4.38487e-05
2 14 100 9 0.259057
3 14 100 9 0.259084
4 14 100 9 0.259084
5 14 100 9 0.222732
1 15 100 9 1.18108e-05
6 15 100 9 0.998433
8 15 100 9 0.00155557
4 16 100 9 1.03451e-06
5 16 100 9 3.77083e-06
6 16 100 9 4.68754e-07
7 16 100 9 0.388476
8 16 100 9 0.223044
9 16 100 9 0.388475
1 0 100 10 0.0471612
2 0 100 10 0.103389
3 0 100 10 0.069026
4 0 100 10 0.149328
5 0 100 10 0.124513
6 0 100 10 0.0838272
7 0 100 10 0.0947069
8 0 100 10 0.174406
9 0 100 10 0.15364
10 0 100 10 1.51775e-06
1 1 100 10 0.750056
2 1 100 10 0.163925
3 1 100 10 0.0848948
4 1 100 10 0.000526733
6 1 100 10 5.40746e-05
9 1 100 10 8.363e-06
10 1 100 10 0.000534766
1 2 100 10 0.0684245
2 2 100 10 0.587144
3 2 100 10 0.129569
4 2 100 10 0.0431758
6 2 100 10 7.52092e-05
8 2 100 10 0.0431758
9 2 100 10 8.83574e-07
10 2 100 10 0.128435
1 3 100 10 0.000249919
2 3 100 10 0.217096
3 3 100 10 0.31515
4 3 100 10 0.0932507
5 3 100 10 0.0933044
6 3 100 10 0.031109
7 3 100 10 0.0622159
8 3 100 10 0.0622479
9 3 100 10 0.0933263
10 3 100 10 0.0320506
2 4 100 10 0.0352724
3 4 100 10 0.141608
4 4 100 10 0.229718
5 4 100 10 0.20736
6 4 100 10 0.0350945
7 4 100 10 0.105267
8 4 100 10 0.0701943
9 4 100 10 0.0701871
10 4 100 10 0.105299
1 5 100 10 1.11216e-06
2 5 100 10 6.1386e-06
4 5 100 10 0.0719077
5 5 100 10 0.215059
6 5 100 10 0.498748
8 5 100 10 0.143033
10 5 100 10 0.0712458
1 6 100 10 0.0236737
3 6 100 10 0.171002
4 6 100 10 0.0297582
5 6 100 10 0.1629
6 6 100 10 0.17862
7 6 100 10 0.197999
8 6 100 10 0.0295102
9 6 100 10 0.0885109
10 6 100 10 0.118026
1 7 100 10 1.09515e-05
2 7 100 10 0.000894269
3 7 100 10 0.0409002
4 7 100 10 0.335774
5 7 100 10 0.0395291
6 7 100 10 0.135921
7 7 100 10 0.122645
8 7 100 10 0.0817742
9 7 100 10 0.122661
10 7 100 10 0.119891
1 8 100 10 0.0383142
2 8 100 10 0.0383142
3 8 100 10 6.98322e-07
4 8 100 10 0.0686675
5 8 100 10 0.0776477
6 8 100 10 0.031263
7 8 100 10 0.267968
8 8 100 10 0.165477
9 8 100 10 0.159447
10 8 100 10 0.152901
2 9 100 10 7.23821e-06
4 9 100 10 0.0741376
5 9 100 10 0.111819
6 9 100 10 0.188047
7 9 100 10 0.111252
8 9 100 10 0.217484
9 9 100 10 0.186051
10 9 100 10 0.111202
3 10 100 10 0.0439182
4 10 100 10 0.0337872
5 10 100 10 0.131798
6 10 100 10 0.175671
7 10 100 10 0.0878574
8 10 100 10 0.131754
9 10 100 10 0.0869835
10 10 100 10 0.308231
2 11 100 10 4.90845e-06
3 11 100 10 0.121899
4 11 100 10 0.062037
5 11 100 10 0.062037
6 11 100 10 0.0619375
7 11 100 10 0.129
8 11 100 10 0.0646467
9 11 100 10 0.248141
10 11 100 10 0.250296
1 12 100 10 0.462671
4 12 100 10 0.00089577
5 12 100 10 0.00553862
7 12 100 10 0.0001047
8 12 100 10 0.530748
10 12 100 10 4.13808e-05
1 0 100 11 0.119054
2 0 100 11 0.0629939
3 0 100 11 0.0726094
4 0 100 11 0.0739477
5 0 100 11 0.12324
6 0 100 11 0.100559
7 0 100 11 0.0948017
8 0 100 11 0.150593
9 0 100 11 0.130679
10 0 100 11 0.0715216
11 0 100 11 9.8439e-07
1 1 100 11 0.643997
2 1 100 11 0.160541
3 1 100 11 0.0341398
6 1 100 11 6.79254e-06
7 1 100 11 0.000451881
8 1 100 11 0.0324272
9 1 100 11 0.0321098
10 1 100 11 0.096327
1 2 100 11 0.000278832
2 2 100 11 0.403341
3 2 100 11 0.311345
4 2 100 11 0.11139
6 2 100 11 0.0890448
7 2 100 11 6.54137e-06
8 2 100 11 0.0440184
9 2 100 11 0.0405748
1 3 100 11 4.2111e-06
2 3 100 11 0.165017
3 3 100 11 0.264275
4 3 100 11 0.3624
5 3 100 11 0.106403
7 3 100 11 0.0353643
8 3 100 11 2.13762e-06
10 3 100 11 4.40904e-05
11 3 100 11 0.0664898
1 4 100 11 0.000425681
2 4 100 11 0.0706456
3 4 100 11 0.0728151
4 4 100 11 0.217566
5 4 100 11 0.291358
6 4 100 11 0.128345
7 4 100 11 0.0726492
8 4 100 11 0.000897738
10 4 100 11 0.0726492
11 4 100 11 0.0726489
1 5 100 11 0.0481312
2 5 100 11 0.0523135
3 5 100 11 0.0474807
4 5 100 11 0.0744197
5 5 100 11 0.211074
6 5 100 11 0.284891
7 5 100 11 0.138372
8 5 100 11 0.143316
10 5 100 11 2.235e-06
1 6 100 11 1.90327e-05
2 6 100 11 0.0146722
3 6 100 11 0.0300871
4 6 100 11 0.0300871
5 6 100 11 0.0601741
6 6 100 11 0.154968
7 6 100 11 0.184871
8 6 100 11 0.14557
9 6 100 11 0.19904
10 6 100 11 0.12031
11 6 100 11 0.0602022
1 7 100 11 0.000445446
2 7 100 11 0.151657
3 7 100 11 8.76112e-05
4 7 100 11 0.000170981
5 7 100 11 0.108514
6 7 100 11 0.108514
7 7 100 11 0.163272
8 7 100 11 0.13785
9 7 100 11 0.220974
11 7 100 11 0.108514
3 8 100 11 0.0692483
4 8 100 11 0.0695671
5 8 100 11 0.053574
6 8 100 11 0.0690545
7 8 100 11 0.138111
8 8 100 11 0.150886
9 8 100 11 0.0697653
10 8 100 11 0.241708
11 8 100 11 0.138086
1 9 100 11 0.0355976
2 9 100 11 0.00129299
3 9 100 11 0.106611
4 9 100 11 0.0356032
5 9 100 11 0.106373
6 9 100 11 0.0355906
7 9 100 11 0.106793
8 9 100 11 0.0747593
9 9 100 11 0.106802
10 9 100 11 0.177985
11 9 100 11 0.212593
1 10 100 11 0.0048551
2 10 100 11 5.49529e-06
4 10 100 11 0.124423
5 10 100 11 0.173215
6 10 100 11 0.186739
7 10 100 11 0.062303
8 10 100 11 8.73065e-06
9 10 100 11 0.0678275
10 10 100 11 0.130614
11 10 100 11 0.250009
1 11 100 11 0.0668602
2 11 100 11 0.0668543
3 11 100 11 0.0668309
4 11 100 11 0.0639539
6 11 100 11 2.52241e-05
8 11 100 11 0.0668602
9 11 100 11 0.13372
10 11 100 11 0.200579
11 11 100 11 0.334315
1 12 100 11 2.5722e-05
5 12 100 11 0.000189427
6 12 100 11 0.142826
7 12 100 11 0.285653
8 12 100 11 0.285653
9 12 100 11 0.142826
11 12 100 11 0.142826
4 13 100 11 1.20263e-06
5 13 100 11 1.65841e-05
6 13 100 11 3.72981e-05
7 13 100 11 4.40511e-05
8 13 100 11 0.00104718
9 13 100 11 0.430385
10 13 100 11 0.0514505
11 13 100 11 0.517018
1 0 100 12 0.111648
2 0 100 12 0.0737241
3 0 100 12 0.121275
4 0 100 12 0.116119
5 0 100 12 0.117605
6 0 100 12 0.0653238
7 0 100 12 0.0644767
8 0 100 12 0.0663792
9 0 100 12 0.104656
10 0 100 12 0.0769995
11 0 100 12 0.0817911
12 0 100 12 3.41026e-06
1 1 100 12 0.698231
2 1 100 12 0.0836568
3 1 100 12 0.0284868
6 1 100 12 0.0557633
7 1 100 12 2.27942e-06
8 1 100 12 0.00114944
9 1 100 12 0.0214514
10 1 100 12 0.027701
11 1 100 12 0.0556525
12 1 100 12 0.0279055
1 2 100 12 0.0793719
2 2 100 12 0.20473
3 2 100 12 0.116054
4 2 100 12 0.13577
5 2 100 12 0.0271755
6 2 100 12 0.0289838
7 2 100 12 0.136334
8 2 100 12 0.0543598
9 2 100 12 0.0271783
10 2 100 12 0.0271755
11 2 100 12 0.0814811
12 2 100 12 0.0813848
1 3 100 12 0.000155086
2 3 100 12 0.247371
3 3 100 12 0.138356
4 3 100 12 0.195206
5 3 100 12 0.113878
6 3 100 12 0.0630603
7 3 100 12 0.0564592
8 3 100 12 0.0486604
9 3 100 12 0.0595922
10 3 100 12 0.0284854
11 3 100 12 0.0486256
12 3 100 12 0.000150408
1 4 100 12 0.0969771
2 4 100 12 0.145659
3 4 100 12 0.11641
4 4 100 12 0.137211
5 4 100 12 0.133131
6 4 100 12 0.117683
7 4 100 12 0.0446475
8 4 100 12 8.96371e-07
9 4 100 12 0.0616764
10 4 100 12 0.000692767
11 4 100 12 0.0486274
12 4 100 12 0.0972829
1 5 100 12 1.58325e-05
2 5 100 12 0.0951208
3 5 100 12 0.168715
4 5 100 12 0.0745085
5 5 100 12 0.0475346
6 5 100 12 0.0206887
7 5 100 12 0.071331
8 5 100 12 0.096732
9 5 100 12 0.0951197
10 5 100 12 0.141514
11 5 100 12 0.0937247
12 5 100 12 0.0949955
1 6 100 12 0.0460769
2 6 100 12 0.0877962
3 6 100 12 0.0812473
4 6 100 12 0.0878171
5 6 100 12 0.0882264
6 6 100 12 0.257105
7 6 100 12 0.0444198
8 6 100 12 0.0877934
9 6 100 12 0.0439168
10 6 100 12 0.17559
12 6 100 12 1.13916e-05
1 7 100 12 0.0276222
2 7 100 12 0.0552443
3 7 100 12 0.0552396
4 7 100 12 0.0552531
5 7 100 12 0.111377
6 7 100 12 0.195634
7 7 100 12 0.221298
8 7 100 12 0.165736
9 7 100 12 0.0572102
11 7 100 12 0.0276222
12 7 100 12 0.0277622
1 8 100 12 0.00653992
2 8 100 12 0.0783983
3 8 100 12 0.0261328
4 8 100 12 0.123829
5 8 100 12 0.104528
6 8 100 12 0.100674
7 8 100 12 0.104531
8 8 100 12 0.026132
9 8 100 12 0.0741795
10 8 100 12 0.0522655
11 8 100 12 0.172228
12 8 100 12 0.130561
1 9 100 12 0.0315356
3 9 100 12 0.126006
4 9 100 12 0.0645869
5 9 100 12 0.0946112
6 9 100 12 0.070461
7 9 100 12 0.126146
8 9 100 12 0.0630773
9 9 100 12 0.0315606
10 9 100 12 0.0967825
11 9 100 12 0.137554
12 9 100 12 0.157678
2 10 100 12 0.00194714
3 10 100 12 0.0417037
4 10 100 12 0.0419688
5 10 100 12 0.124571
6 10 100 12 0.124986
7 10 100 12 0.124576
8 10 100 12 0.290446
9 10 100 12 0.00143597
11 10 100 12 0.0822202
12 10 100 12 0.166146
1 11 100 12 0.0255182
2 11 100 12 0.0753769
3 11 100 12 0.0765649
4 11 100 12 0.0584204
5 11 100 12 0.127591
6 11 100 12 0.0765485
7 11 100 12 0.000399907
8 11 100 12 0.10207
9 11 100 12 0.154488
10 11 100 12 0.0511713
11 11 100 12 0.124286
12 11 100 12 0.127565
2 12 100 12 1.41208e-06
4 12 100 12 0.0332974
5 12 100 12 0.0665948
6 12 100 12 0.0998359
7 12 100 12 0.0994971
8 12 100 12 0.0985413
9 12 100 12 0.202868
10 12 100 12 0.166311
11 12 100 12 0.0998627
12 12 100 12 0.13319
2 13 100 12 4.79853e-07
3 13 100 12 0.0380063
4 13 100 12 0.076014
5 13 100 12 0.0760129
6 13 100 12 0.0483479
7 13 100 12 0.076014
8 13 100 12 0.114013
9 13 100 12 0.150676
10 13 100 12 0.263435
11 13 100 12 0.00546544
12 13 100 12 0.152015
1 14 100 12 0.0010039
2 14 100 12 1.4095e-06
3 14 100 12 0.000203602
4 14 100 12 2.25298e-05
5 14 100 12 1.99076e-05
6 14 100 12 9.27032e-07
7 14 100 12 0.000286191
8 14 100 12 0.000280528
9 14 100 12 0.167032
10 14 100 12 0.327887
11 14 100 12 0.32494
12 14 100 12 0.178322
1 15 100 12 0.000455456
2 15 100 12 1.40342e-05
3 15 100 12 0.020663
4 15 100 12 1.70672e-05
5 15 100 12 0.00376526
6 15 100 12 0.179765
7 15 100 12 0.262375
8 15 100 12 0.3481
9 15 100 12 0.000402612
10 15 100 12 0.00426777
11 15 100 12 0.000290541
12 15 100 12 0.179884
2 16 100 12 0.216765
3 16 100 12 0.231442
4 16 100 12 0.0262048
5 16 100 12 0.00049226
6 16 100 12 0.0298091
7 16 100 12 0.00434143
8 16 100 12 0.00492657
9 16 100 12 0.00050304
10 16 100 12 0.226171
11 16 100 12 0.0279815
12 16 100 12 0.231364
7 17 100 12 1.5091e-06
8 17 100 12 2.23537e-06
9 17 100 12 0.000219972
10 17 100 12 0.49987
11 17 100 12 0.499869
12 17 100 12 3.70566e-05
1 18 100 12 0.332928
2 18 100 12 0.332886
3 18 100 12 0.000216118
4 18 100 12 0.000580115
5 18 100 12 6.02095e-07
6 18 100 12 1.82905e-06
7 18 100 12 0.00159647
8 18 100 12 0.000254834
9 18 100 12 0.0314824
11 18 100 12 1.36103e-06
12 18 100 12 0.300052
2 19 100 12 4.94005e-06
4 19 100 12 1.9785e-06
5 19 100 12 2.01284e-05
6 19 100 12 0.00317462
7 19 100 12 0.246183
8 19 100 12 0.250962
9 19 100 12 0.496845
10 19 100 12 0.0022619
11 19 100 12 5.43758e-05
12 19 100 12 0.000492242
3 20 100 12 0.000128546
5 20 100 12 3.9133e-05
6 20 100 12 0.0348244
7 20 100 12 1.2809e-05
8 20 100 12 9.75365e-05
9 20 100 12 1.37017e-05
10 20 100 12 0.959039
11 20 100 12 0.0058452
2 21 100 12 6.70519e-07
6 21 100 12 1.10897e-05
7 21 100 12 3.8149e-05
8 21 100 12 4.73957e-05
9 21 100 12 0.053616
10 21 100 12 0.224006
11 21 100 12 0.270755
12 21 100 12 0.451526
9 24 100 12 1
8 25 100 12 1
1 0 100 13 0.0876413
2 0 100 13 0.0530603
3 0 100 13 0.0495914
4 0 100 13 0.0943078
5 0 100 13 0.0705686
6 0 100 13 0.0412267
7 0 100 13 0.114233
8 0 100 13 0.0923411
9 0 100 13 0.0529307
10 0 100 13 0.0350159
11 0 100 13 0.200599
12 0 100 13 0.108483
13 0 100 13 5.14373e-07
1 1 100 13 0.717851
2 1 100 13 0.146949
3 1 100 13 5.00215e-06
5 1 100 13 0.089517
6 1 100 13 5.84762e-05
7 1 100 13 2.03942e-06
8 1 100 13 2.51178e-06
9 1 100 13 0.000470234
10 1 100 13 0.0447399
11 1 100 13 0.00035737
12 1 100 13 4.70037e-05
1 2 100 13 0.19707
2 2 100 13 0.0989619
3 2 100 13 0.299554
4 2 100 13 0.0984331
5 2 100 13 0.000103378
6 2 100 13 0.0989713
8 2 100 13 0.00942242
10 2 100 13 0.0985752
11 2 100 13 0.0989057
12 2 100 13 3.13224e-06
2 3 100 13 0.113175
3 3 100 13 0.199503
4 3 100 13 0.0889698
5 3 100 13 0.0565776
6 3 100 13 0.113167
7 3 100 13 0.0851938
8 3 100 13 0.0286383
9 3 100 13 0.0565831
10 3 100 13 0.0848746
11 3 100 13 0.0878906
12 3 100 13 0.0571353
13 3 100 13 0.0282915
2 4 100 13 0.357728
3 4 100 13 0.190157
4 4 100 13 0.0954972
6 4 100 13 0.0783905
9 4 100 13 0.0927355
10 4 100 13 0.0463678
11 4 100 13 0.0463788
12 4 100 13 9.7744e-06
13 4 100 13 0.0927356
1 5 100 13 0.0544195
2 5 100 13 0.108826
3 5 100 13 2.69352e-06
4 5 100 13 0.181858
5 5 100 13 0.169018
7 5 100 13 0.108857
8 5 100 13 0.109643
9 5 100 13 0.217678
10 5 100 13 0.0496801
11 5 100 13 1.73905e-05
2 6 100 13 0.114443
3 6 100 13 0.0464068
4 6 100 13 0.138742
5 6 100 13 0.184292
6 6 100 13 0.0926023
7 6 100 13 0.0924832
8 6 100 13 0.0991221
9 6 100 13 0.0462011
10 6 100 13 0.0462489
11 6 100 13 0.0462489
12 6 100 13 0.0464334
13 6 100 13 0.0467765
1 7 100 13 0.0735648
3 7 100 13 0.0837539
4 7 100 13 0.118636
5 7 100 13 0.143902
6 7 100 13 0.147148
7 7 100 13 0.0741176
8 7 100 13 0.17528
9 7 100 13 0.0732183
10 7 100 13 0.110358
11 7 100 13 8.94862e-07
13 7 100 13 2.08939e-05
1 8 100 13 0.0549798
2 8 100 13 0.0549798
3 8 100 13 0.0549771
4 8 100 13 0.0510883
5 8 100 13 0.219919
6 8 100 13 0.164939
7 8 100 13 0.165601
8 8 100 13 0.0549798
9 8 100 13 0.0550027
10 8 100 13 0.0597861
11 8 100 13 0.00876818
13 8 100 13 0.0549798
1 9 100 13 5.80057e-06
2 9 100 13 0.09053
3 9 100 13 0.0430808
4 9 100 13 0.000574991
5 9 100 13 0.059777
7 9 100 13 0.0594956
8 9 100 13 0.0829289
9 9 100 13 0.119372
10 9 100 13 0.0147338
11 9 100 13 0.122573
12 9 100 13 0.168971
13 9 100 13 0.237957
3 10 100 13 0.0374105
4 10 100 13 0.0745134
5 10 100 13 0.0374515
6 10 100 13 0.14875
7 10 100 13 0.0374437
8 10 100 13 0.0374233
10 10 100 13 0.21538
11 10 100 13 0.186616
12 10 100 13 0.112388
13 10 100 13 0.112623
1 11 100 13 0.0467605
3 11 100 13 0.140279
4 11 100 13 0.092068
5 11 100 13 0.0934801
6 11 100 13 0.0467597
7 11 100 13 0.209
8 11 100 13 0.0935213
9 11 100 13 0.0467597
11 11 100 13 0.0439447
12 11 100 13 0.187428
6 12 100 13 0.104358
7 12 100 13 1.65168e-05
8 12 100 13 0.0522403
9 12 100 13 0.208987
10 12 100 13 0.156715
11 12 100 13 0.0577388
12 12 100 13 0.156279
13 12 100 13 0.263665
4 13 100 13 2.1951e-06
7 13 100 13 0.0939443
8 13 100 13 0.221237
9 13 100 13 0.187879
10 13 100 13 0.0939421
11 13 100 13 0.0272271
12 13 100 13 0.0939421
13 13 100 13 0.281826
3 14 100 13 0.100114
4 14 100 13 0.100114
6 14 100 13 0.100114
8 14 100 13 0.100114
9 14 100 13 0.100114
12 14 100 13 0.200227
13 14 100 13 0.299204
2 15 100 13 6.11932e-05
3 15 100 13 5.14974e-06
4 15 100 13 0.00100503
5 15 100 13 0.00157714
6 15 100 13 0.000381403
7 15 100 13 0.000297692
9 15 100 13 1.95299e-06
10 15 100 13 0.619296
11 15 100 13 0.0617615
12 15 100 13 0.000114192
13 15 100 13 0.315499
4 16 100 13 0.000110187
5 16 100 13 2.52387e-05
7 16 100 13 0.000329091
11 16 100 13 0.000349181
12 16 100 13 0.00249638
13 16 100 13 0.99669
1 17 100 13 6.32004e-06
2 17 100 13 0.131924
3 17 100 13 0.145106
4 17 100 13 0.177882
5 17 100 13 0.00369631
6 17 100 13 0.240509
7 17 100 13 0.148098
8 17 100 13 0.14723
9 17 100 13 0.00449285
10 17 100 13 0.000543662
11 17 100 13 4.47153e-06
12 17 100 13 3.40012e-06
13 17 100 13 0.000503411
1 18 100 13 0.00087947
2 18 100 13 0.00140069
3 18 100 13 0.00105261
4 18 100 13 0.018956
5 18 100 13 0.1861
6 18 100 13 0.0594429
7 18 100 13 0.112365
8 18 100 13 0.307401
9 18 100 13 0.310482
10 18 100 13 0.00141513
11 18 100 13 0.000448341
12 18 100 13 4.60461e-05
13 18 100 13 1.09143e-05
1 19 100 13 6.19795e-06
2 19 100 13 3.61551e-05
3 19 100 13 1.4445e-05
4 19 100 13 2.03847e-05
5 19 100 13 1.12355e-05
6 19 100 13 9.09578e-06
7 19 100 13 7.05873e-05
8 19 100 13 0.0991892
9 19 100 13 0.127237
10 19 100 13 0.251033
11 19 100 13 0.0218055
12 19 100 13 0.251198
13 19 100 13 0.249369
10 20 100 13 1
10 21 100 13 1
2 22 100 13 0.999991
8 22 100 13 8.66571e-06
8 23 100 13 0.00205655
9 23 100 13 0.995759
10 23 100 13 0.000796092
11 23 100 13 0.00138801
8 24 100 13 2.54309e-05
9 24 100 13 0.000143603
10 24 100 13 0.240465
11 24 100 13 0.759366
8 25 100 13 0.000234717
9 25 100 13 2.22731e-05
10 25 100 13 4.02879e-06
11 25 100 13 0.320971
12 25 100 13 0.615364
13 25 100 13 0.0634038
1 0 100 14 0.071369
2 0 100 14 0.0227873
3 0 100 14 0.0667711
4 0 100 14 0.0887729
5 0 100 14 0.0919811
6 0 100 14 0.103626
7 0 100 14 0.113657
8 0 100 14 0.0793509
9 0 100 14 0.0627192
10 0 100 14 0.0630878
11 0 100 14 0.116427
12 0 100 14 0.0860454
13 0 100 14 0.0334026
14 0 100 14 2.70507e-06
1 1 100 14 0.642028
2 1 100 14 0.214682
3 1 100 14 0.0301716
5 1 100 14 9.92064e-07
6 1 100 14 4.46619e-06
7 1 100 14 0.0272718
11 1 100 14 0.0545658
12 1 100 14 0.0040033
13 1 100 14 0.0272718
1 2 100 14 0.102528
2 2 100 14 0.310592
3 2 100 14 0.215015
4 2 100 14 0.0744827
5 2 100 14 4.51541e-05
6 2 100 14 3.47818e-06
7 2 100 14 0.0371217
8 2 100 14 0.0371217
9 2 100 14 0.0745883
10 2 100 14 5.07705e-06
11 2 100 14 0.0371217
12 2 100 14 0.0371237
13 2 100 14 0.0369392
14 2 100 14 0.0373122
2 3 100 14 0.160812
3 3 100 14 0.163707
4 3 100 14 0.225118
5 3 100 14 0.160759
6 3 100 14 0.128641
7 3 100 14 0.0321592
8 3 100 14 5.21004e-06
11 3 100 14 2.70305e-06
12 3 100 14 0.0321593
13 3 100 14 0.0323182
14 3 100 14 0.0643185
1 4 100 14 0.0233536
2 4 100 14 0.0467066
3 4 100 14 0.113857
4 4 100 14 0.0687726
5 4 100 14 0.0233577
6 4 100 14 0.116384
7 4 100 14 0.0468937
8 4 100 14 0.140121
9 4 100 14 0.0934143
10 4 100 14 0.116768
11 4 100 14 0.116768
12 4 100 14 0.07025
13 4 100 14 0.0233535
1 5 100 14 0.00922626
2 5 100 14 1.22923e-06
3 5 100 14 0.00506791
4 5 100 14 0.197871
5 5 100 14 0.21025
6 5 100 14 0.153607
7 5 100 14 0.0641066
8 5 100 14 0.101632
9 5 100 14 0.101632
10 5 100 14 0.0508159
11 5 100 14 0.050825
12 5 100 14 0.0545114
14 5 100 14 0.000453913
3 6 100 14 0.180381
4 6 100 14 0.062726
5 6 100 14 0.0627269
6 6 100 14 0.181892
7 6 100 14 0.198234
10 6 100 14 0.125452
11 6 100 14 0.000286899
12 6 100 14 0.000110474
13 6 100 14 0.188177
14 6 100 14 1.35125e-05
1 7 100 14 0.0532936
2 7 100 14 0.106587
3 7 100 14 0.0266727
4 7 100 14 0.0554447
5 7 100 14 0.179798
6 7 100 14 0.0801721
7 7 100 14 0.108738
8 7 100 14 0.0799988
9 7 100 14 0.0532936
10 7 100 14 0.106587
11 7 100 14 0.0266486
12 7 100 14 0.0266467
13 7 100 14 0.0428567
14 7 100 14 0.0532627
1 8 100 14 3.60123e-06
2 8 100 14 0.0621535
3 8 100 14 0.0932543
4 8 100 14 0.062766
5 8 100 14 0.0935274
6 8 100 14 0.12678
7 8 100 14 0.031085
8 8 100 14 0.0934894
9 8 100 14 0.160148
10 8 100 14 0.0621659
11 8 100 14 0.0621858
12 8 100 14 0.0932545
13 8 100 14 0.0591855
14 8 100 14 3.12098e-07
2 9 100 14 0.0549716
3 9 100 14 0.0549716
4 9 100 14 0.0824574
5 9 100 14 0.0549716
6 9 100 14 0.0549716
7 9 100 14 0.109697
8 9 100 14 0.0872941
9 9 100 14 0.109943
10 9 100 14 0.137284
11 9 100 14 0.0275788
12 9 100 14 0.0554821
13 9 100 14 0.0878106
14 9 100 14 0.0825664
3 10 100 14 0.0292925
4 10 100 14 0.0643153
5 10 100 14 0.0878077
6 10 100 14 0.0292962
7 10 100 14 0.117136
8 10 100 14 0.117165
9 10 100 14 0.116207
10 10 100 14 0.0292925
11 10 100 14 0.0584751
12 10 100 14 0.087288
13 10 100 14 0.146795
14 10 100 14 0.116931
1 11 100 14 7.07251e-06
2 11 100 14 2.07913e-06
3 11 100 14 8.89529e-06
4 11 100 14 0.0456914
6 11 100 14 7.47773e-06
7 11 100 14 0.0841646
8 11 100 14 0.136972
9 11 100 14 0.136874
10 11 100 14 0.0515791
11 11 100 14 0.137076
12 11 100 14 0.091385
13 11 100 14 0.0457106
14 11 100 14 0.270523
1 12 100 14 0.0330148
2 12 100 14 0.0660295
4 12 100 14 7.94527e-06
5 12 100 14 0.0660295
6 12 100 14 0.0660172
7 12 100 14 0.0660295
8 12 100 14 0.0886583
9 12 100 14 0.100338
10 12 100 14 0.0990441
11 12 100 14 0.0997033
12 12 100 14 0.079461
13 12 100 14 0.101265
14 12 100 14 0.134402
2 13 100 14 0.0518883
3 13 100 14 0.103776
4 13 100 14 0.0518887
5 13 100 14 4.94361e-05
7 13 100 14 0.045453
8 13 100 14 1.75244e-06
10 13 100 14 0.155664
11 13 100 14 0.18114
12 13 100 14 0.254482
13 13 100 14 0.10379
14 13 100 14 0.0518662
5 14 100 14 5.30509e-06
8 14 100 14 0.0794387
9 14 100 14 0.0787152
10 14 100 14 0.0794407
11 14 100 14 0.0775102
12 14 100 14 0.0794369
13 14 100 14 0.287699
14 14 100 14 0.317754
1 15 100 14 1.09812e-05
3 15 100 14 2.67383e-06
8 15 100 14 9.86619e-06
10 15 100 14 0.199951
11 15 100 14 0.000213284
12 15 100 14 0.0990853
13 15 100 14 0.201374
14 15 100 14 0.499353
2 16 100 14 9.73212e-07
3 16 100 14 5.15172e-06
4 16 100 14 2.99316e-07
5 16 100 14 3.12537e-07
6 16 100 14 1.2689e-06
8 16 100 14 0.00108335
9 16 100 14 0.000459563
10 16 100 14 0.000205299
11 16 100 14 0.206729
12 16 100 14 0.000693967
13 16 100 14 0.562186
14 16 100 14 0.228635
1 17 100 14 3.25706e-06
2 17 100 14 1.05182e-05
3 17 100 14 1.30411e-05
4 17 100 14 0.000313271
5 17 100 14 0.000186992
6 17 100 14 1.66777e-05
9 17 100 14 0.000300642
10 17 100 14 0.000259293
11 17 100 14 6.82798e-06
12 17 100 14 0.995564
13 17 100 14 5.89374e-06
14 17 100 14 0.00331986
1 18 100 14 0.0511825
2 18 100 14 0.00260079
3 18 100 14 0.602107
4 18 100 14 0.00238094
5 18 100 14 0.00132866
6 18 100 14 0.0140689
7 18 100 14 0.000184967
8 18 100 14 0.00221488
9 18 100 14 0.000658942
10 18 100 14 7.69632e-05
11 18 100 14 9.54779e-05
12 18 100 14 0.320031
13 18 100 14 0.00288422
14 18 100 14 0.000184702
1 19 100 14 0.000118362
2 19 100 14 0.0653
3 19 100 14 0.158653
4 19 100 14 0.111004
5 19 100 14 0.109498
6 19 100 14 0.103955
7 19 100 14 5.6756e-06
8 19 100 14 0.109454
9 19 100 14 0.0124804
10 19 100 14 2.08477e-05
11 19 100 14 0.000190605
12 19 100 14 0.00145395
13 19 100 14 0.000242538
14 19 100 14 0.327625
1 20 100 14 0.0003456
7 20 100 14 0.996374
9 20 100 14 0.00218703
10 20 100 14 0.00109381
1 21 100 14 1.2357e-06
9 21 100 14 0.982152
10 21 100 14 0.0178469
1 22 100 14 0.996815
3 22 100 14 0.00229994
10 22 100 14 0.000885446
1 23 100 14 0.000571336
5 23 100 14 0.90249
9 23 100 14 4.76302e-06
10 23 100 14 0.0200136
11 23 100 14 0.062377
13 23 100 14 0.0145397
14 23 100 14 3.3203e-06
1 24 100 14 0.950462
9 24 100 14 0.00279779
10 24 100 14 0.0467399
3 25 100 14 1.9321e-06
4 25 100 14 0.00937175
5 25 100 14 0.000421549
6 25 100 14 1.23842e-06
9 25 100 14 6.72488e-05
10 25 100 14 0.234838
11 25 100 14 0.233681
12 25 100 14 0.240466
13 25 100 14 0.233685
14 25 100 14 0.0474663
1 26 100 14 0.997787
5 26 100 14 6.00574e-05
7 26 100 14 0.000345994
10 26 100 14 0.000135454
13 26 100 14 0.00167122
1 0 100 15 0.0513102
2 0 100 15 0.0399616
3 0 100 15 0.0733504
4 0 100 15 0.0555259
5 0 100 15 0.0545982
6 0 100 15 0.0691455
7 0 100 15 0.0903736
8 0 100 15 0.0843672
9 0 100 15 0.0837891
10 0 100 15 0.111046
11 0 100 15 0.0587277
12 0 100 15 0.0585253
13 0 100 15 0.10126
14 0 100 15 0.0680197
15 0 100 15 3.19654e-07
1 1 100 15 0.642793
2 1 100 15 0.150458
3 1 100 15 0.0257792
4 1 100 15 0.000422632
5 1 100 15 0.000141614
7 1 100 15 4.36989e-05
9 1 100 15 0.00479847
10 1 100 15 0.0250767
11 1 100 15 0.0251115
12 1 100 15 0.0250767
13 1 100 15 0.0501415
14 1 100 15 0.0501535
15 1 100 15 3.72263e-06
1 2 100 15 0.149836
2 2 100 15 0.399365
3 2 100 15 0.270439
4 2 100 15 0.0299555
5 2 100 15 0.0305729
6 2 100 15 0.0299351
8 2 100 15 4.65499e-06
9 2 100 15 9.96738e-07
12 2 100 15 0.0299582
14 2 100 15 0.0299768
15 2 100 15 0.0299561
1 3 100 15 0.0903502
2 3 100 15 0.223872
3 3 100 15 0.1345
4 3 100 15 0.274013
5 3 100 15 0.0349727
6 3 100 15 0.0360206
7 3 100 15 0.0642208
8 3 100 15 1.77792e-05
9 3 100 15 0.00449929
10 3 100 15 8.81144e-06
11 3 100 15 0.0362745
12 3 100 15 0.0321095
13 3 100 15 0.0370305
15 3 100 15 0.0321104
1 4 100 15 0.0256376
2 4 100 15 0.103271
3 4 100 15 0.206471
4 4 100 15 0.219581
5 4 100 15 0.129075
6 4 100 15 0.0773222
7 4 100 15 0.000186661
8 4 100 15 0.10325
9 4 100 15 0.0516016
10 4 100 15 0.0748331
11 4 100 15 3.35787e-06
13 4 100 15 0.00876843
1 5 100 15 0.0616222
2 5 100 15 0.082213
3 5 100 15 0.0788765
4 5 100 15 0.0822109
5 5 100 15 0.186572
6 5 100 15 0.137065
7 5 100 15 0.0688978
8 5 100 15 0.0274048
9 5 100 15 0.0235648
10 5 100 15 0.0548289
11 5 100 15 0.0549749
12 5 100 15 0.033147
13 5 100 15 1.08984e-05
14 5 100 15 0.0274297
15 5 100 15 0.0811813
1 6 100 15 0.0360112
2 6 100 15 0.14404
3 6 100 15 0.103895
4 6 100 15 0.0718723
5 6 100 15 0.180025
6 6 100 15 0.242444
7 6 100 15 0.0723558
8 6 100 15 0.0373725
9 6 100 15 5.4366e-05
10 6 100 15 0.0036507
11 6 100 15 0.0360123
13 6 100 15 0.0720223
14 6 100 15 1.74305e-05
15 6 100 15 0.000227381
3 7 100 15 0.0316628
4 7 100 15 0.0512056
5 7 100 15 0.0820109
6 7 100 15 0.0285622
7 7 100 15 0.17045
8 7 100 15 0.170867
9 7 100 15 0.142289
10 7 100 15 0.0853293
11 7 100 15 0.0853623
12 7 100 15 0.0224977
13 7 100 15 0.0442516
14 7 100 15 0.0285929
15 7 100 15 0.0569179
3 8 100 15 0.0512539
4 8 100 15 0.0821795
5 8 100 15 0.122503
6 8 100 15 0.0516204
7 8 100 15 0.076881
8 8 100 15 0.000184372
9 8 100 15 0.0976814
10 8 100 15 0.0960695
11 8 100 15 0.102618
12 8 100 15 0.153768
13 8 100 15 0.0370779
14 8 100 15 0.051282
15 8 100 15 0.0768809
2 9 100 15 5.14198e-07
3 9 100 15 0.0265444
5 9 100 15 0.0265825
6 9 100 15 0.132728
7 9 100 15 0.10714
8 9 100 15 0.159267
9 9 100 15 0.111532
10 9 100 15 0.0377885
11 9 100 15 0.132722
12 9 100 15 0.0530889
13 9 100 15 0.0530903
14 9 100 15 0.0798825
15 9 100 15 0.0796333
2 10 100 15 2.86908e-05
3 10 100 15 3.26315e-05
4 10 100 15 0.0171271
6 10 100 15 0.0410534
7 10 100 15 0.142227
8 10 100 15 0.287387
9 10 100 15 0.0710404
10 10 100 15 0.0754076
11 10 100 15 0.123166
12 10 100 15 0.081332
13 10 100 15 0.0383152
14 10 100 15 0.0407627
15 10 100 15 0.0821195
1 11 100 15 0.00871041
2 11 100 15 3.24057e-07
3 11 100 15 0.0319773
4 11 100 15 0.0319912
5 11 100 15 0.0959162
6 11 100 15 0.0690874
7 11 100 15 0.0639451
8 11 100 15 0.000305939
9 11 100 15 0.158048
10 11 100 15 0.0306448
11 11 100 15 0.157159
12 11 100 15 0.0325548
13 11 100 15 0.095927
14 11 100 15 0.159828
15 11 100 15 0.0639042
1 12 100 15 0.00023423
3 12 100 15 2.73141e-06
4 12 100 15 0.0537847
5 12 100 15 0.0537526
6 12 100 15 0.0763886
7 12 100 15 0.0903219
8 12 100 15 0.0808058
9 12 100 15 0.108173
10 12 100 15 0.160279
11 12 100 15 0.0809771
12 12 100 15 0.080676
13 12 100 15 0.0532513
14 12 100 15 0.0537859
15 12 100 15 0.107568
1 13 100 15 0.0321915
2 13 100 15 0.0321915
3 13 100 15 0.064383
4 13 100 15 0.128766
5 13 100 15 0.0965742
6 13 100 15 0.0965746
7 13 100 15 0.128767
10 13 100 15 0.0321915
11 13 100 15 0.0654117
12 13 100 15 0.0973834
13 13 100 15 0.0646082
14 13 100 15 0.0965745
15 13 100 15 0.064383
2 14 100 15 4.05579e-07
3 14 100 15 1.08615e-06
5 14 100 15 0.0739502
8 14 100 15 0.00115457
9 14 100 15 0.0373381
10 14 100 15 0.0369914
11 14 100 15 0.0739795
12 14 100 15 0.220994
13 14 100 15 0.185704
14 14 100 15 0.147952
15 14 100 15 0.221935
8 15 100 15 0.167857
9 15 100 15 0.202671
10 15 100 15 0.0855627
11 15 100 15 0.0843187
12 15 100 15 0.122385
13 15 100 15 0.0843077
14 15 100 15 0.0842933
15 15 100 15 0.168604
6 16 100 15 0.0502795
7 16 100 15 0.050331
8 16 100 15 0.100194
9 16 100 15 0.112361
10 16 100 15 0.0502795
11 16 100 15 0.0502795
12 16 100 15 0.100559
13 16 100 15 0.23432
14 16 100 15 0.100558
15 16 100 15 0.150838
1 17 100 15 2.86184e-07
2 17 100 15 0.000598778
3 17 100 15 0.00625159
4 17 100 15 0.0956673
5 17 100 15 0.0113206
6 17 100 15 0.0545275
7 17 100 15 0.000141544
8 17 100 15 0.000592902
9 17 100 15 0.0359951
10 17 100 15 0.0591631
11 17 100 15 0.0543941
12 17 100 15 0.163705
13 17 100 15 0.101295
14 17 100 15 0.155464
15 17 100 15 0.260883
1 18 100 15 0.00174772
2 18 100 15 0.316006
3 18 100 15 0.00102079
4 18 100 15 0.00123314
5 18 100 15 0.000287358
6 18 100 15 0.000860603
7 18 100 15 0.166732
8 18 100 15 0.157163
9 18 100 15 0.0196393
10 18 100 15 0.164936
11 18 100 15 0.00223263
12 18 100 15 0.00326401
13 18 100 15 0.00436271
14 18 100 15 0.160395
15 18 100 15 0.00012013
1 19 100 15 2.76676e-06
2 19 100 15 0.000239379
3 19 100 15 0.0822918
4 19 100 15 0.0154284
5 19 100 15 6.62509e-05
6 19 100 15 0.000189172
7 19 100 15 2.01561e-06
8 19 100 15 0.00442917
9 19 100 15 0.00651487
10 19 100 15 0.146841
11 19 100 15 0.137952
12 19 100 15 0.159164
13 19 100 15 0.0772405
14 19 100 15 0.213005
15 19 100 15 0.156634
1 20 100 15 4.1748e-06
2 20 100 15 2.3167e-05
3 20 100 15 1.22477e-05
4 20 100 15 0.143935
5 20 100 15 0.211814
6 20 100 15 0.144675
7 20 100 15 0.0171287
8 20 100 15 0.0830611
9 20 100 15 0.000278227
10 20 100 15 6.88283e-07
11 20 100 15 7.80911e-07
13 20 100 15 0.000985419
14 20 100 15 0.141159
15 20 100 15 0.256922
2 21 100 15 0.017514
6 21 100 15 0.00390182
8 21 100 15 1.06756e-05
9 21 100 15 0.00643062
10 21 100 15 0.000347132
11 21 100 15 4.04396e-06
13 21 100 15 5.70732e-06
14 21 100 15 0.00142058
15 21 100 15 0.970365
3 22 100 15 0.706722
6 22 100 15 0.198836
15 22 100 15 0.0944426
1 0 100 16 0.0562972
2 0 100 16 0.0549572
3 0 100 16 0.0429054
4 0 100 16 0.0712553
5 0 100 16 0.0593599
6 0 100 16 0.094264
7 0 100 16 0.067279
8 0 100 16 0.0773765
9 0 100 16 0.070582
10 0 100 16 0.0759196
11 0 100 16 0.0932558
12 0 100 16 0.0487226
13 0 100 16 0.0552824
14 0 100 16 0.0520103
15 0 100 16 0.0805291
16 0 100 16 3.70615e-06
1 1 100 16 0.532579
2 1 100 16 0.159984
3 1 100 16 0.159882
4 1 100 16 0.076376
5 1 100 16 3.93285e-06
6 1 100 16 0.0177675
7 1 100 16 0.0177678
8 1 100 16 1.99971e-07
9 1 100 16 7.41328e-05
10 1 100 16 2.86076e-05
11 1 100 16 1.45677e-06
14 1 100 16 0.0177678
15 1 100 16 0.0177678
1 2 100 16 0.0576502
2 2 100 16 0.388297
3 2 100 16 0.135482
4 2 100 16 0.073764
5 2 100 16 0.181131
7 2 100 16 2.26724e-06
10 2 100 16 0.0818303
11 2 100 16 0.0272773
14 2 100 16 1.24568e-05
15 2 100 16 0.0272766
16 2 100 16 0.0272766
1 3 100 16 0.0557725
2 3 100 16 0.057404
3 3 100 16 0.242402
4 3 100 16 0.216174
5 3 100 16 0.117406
6 3 100 16 0.0873281
7 3 100 16 0.056107
8 3 100 16 0.0557489
9 3 100 16 0.0279657
10 3 100 16 0.0278846
11 3 100 16 9.32075e-06
12 3 100 16 8.22253e-07
13 3 100 16 0.0278873
14 3 100 16 2.57162e-05
16 3 100 16 0.0278846
1 4 100 16 0.0252796
2 4 100 16 0.0759215
3 4 100 16 0.102977
4 4 100 16 0.127336
5 4 100 16 0.253008
6 4 100 16 0.0614586
7 4 100 16 0.100869
8 4 100 16 0.0506007
9 4 100 16 0.10118
10 4 100 16 0.050613
11 4 100 16 1.37978e-06
12 4 100 16 1.07419e-06
13 4 100 16 0.000105535
14 4 100 16 0.0253229
15 4 100 16 0.0253004
16 4 100 16 2.66015e-05
1 5 100 16 6.31841e-06
2 5 100 16 0.130965
3 5 100 16 0.104775
4 5 100 16 0.0456106
5 5 100 16 0.0785823
6 5 100 16 0.143319
7 5 100 16 0.0776376
8 5 100 16 0.104775
9 5 100 16 0.0785842
10 5 100 16 0.104775
11 5 100 16 0.0261938
12 5 100 16 0.0523876
13 5 100 16 0.0261938
16 5 100 16 0.0261938
1 6 100 16 0.0268474
2 6 100 16 2.42749e-05
3 6 100 16 0.0535653
4 6 100 16 0.0853054
5 6 100 16 0.0267828
6 6 100 16 0.109529
7 6 100 16 0.160553
8 6 100 16 0.189651
9 6 100 16 0.0268062
10 6 100 16 5.533e-06
11 6 100 16 0.107172
12 6 100 16 0.0535656
13 6 100 16 0.0539842
14 6 100 16 0.0803545
15 6 100 16 0.0258523
16 6 100 16 1.51491e-06
1 7 100 16 0.0213731
2 7 100 16 0.0216216
3 7 100 16 0.0634717
4 7 100 16 0.0443509
5 7 100 16 0.0854852
6 7 100 16 0.0475452
7 7 100 16 0.0636166
8 7 100 16 0.0641139
9 7 100 16 0.126056
10 7 100 16 0.173668
11 7 100 16 0.072932
12 7 100 16 0.0234462
13 7 100 16 0.0854851
14 7 100 16 0.0213713
15 7 100 16 0.0640922
16 7 100 16 0.0213713
2 8 100 16 1.78032e-05
3 8 100 16 0.0327834
5 8 100 16 0.0319707
6 8 100 16 0.0957589
7 8 100 16 0.1917
8 8 100 16 0.0955244
9 8 100 16 0.0640259
10 8 100 16 0.0596216
11 8 100 16 0.081082
12 8 100 16 0.0910143
13 8 100 16 0.094984
14 8 100 16 0.0955245
15 8 100 16 0.00230974
16 8 100 16 0.063683
1 9 100 16 0.0478031
2 9 100 16 0.0708478
3 9 100 16 0.0478034
4 9 100 16 0.119469
5 9 100 16 0.0677717
6 9 100 16 0.106243
7 9 100 16 0.0867666
8 9 100 16 0.119506
9 9 100 16 0.0478051
10 9 100 16 0.0704956
11 9 100 16 0.0956535
12 9 100 16 0.0478276
13 9 100 16 6.66112e-05
14 9 100 16 0.0239229
15 9 100 16 0.0241164
16 9 100 16 0.0239017
1 10 100 16 1.05844e-05
2 10 100 16 0.0341929
3 10 100 16 0.0341938
4 10 100 16 0.0675213
5 10 100 16 0.0579989
6 10 100 16 0.0683659
7 10 100 16 0.0685337
8 10 100 16 0.000194461
9 10 100 16 0.173445
10 10 100 16 0.0140347
11 10 100 16 0.102387
12 10 100 16 0.102579
13 10 100 16 0.136772
14 10 100 16 0.0691231
15 10 100 16 0.0364561
16 10 100 16 0.0341929
2 11 100 16 0.0243532
3 11 100 16 0.00633723
4 11 100 16 0.0240522
5 11 100 16 0.023459
6 11 100 16 0.023459
7 11 100 16 0.0234618
8 11 100 16 0.0469206
9 11 100 16 0.0941969
10 11 100 16 0.0823187
11 11 100 16 0.0235296
12 11 100 16 0.118359
13 11 100 16 0.0938845
14 11 100 16 0.180145
15 11 100 16 0.094154
16 11 100 16 0.14137
1 12 100 16 4.02863e-06
2 12 100 16 5.80689e-06
3 12 100 16 0.0221905
5 12 100 16 0.0445622
6 12 100 16 0.0665723
7 12 100 16 0.0444021
8 12 100 16 0.0443809
9 12 100 16 0.0027817
10 12 100 16 0.100148
11 12 100 16 0.110955
12 12 100 16 0.161432
13 12 100 16 0.0887146
14 12 100 16 0.0732398
15 12 100 16 0.151848
16 12 100 16 0.0887627
4 13 100 16 3.18924e-07
5 13 100 16 0.0301625
6 13 100 16 0.00026277
7 13 100 16 0.0904875
8 13 100 16 0.0301604
9 13 100 16 0.120647
10 13 100 16 0.0301683
11 13 100 16 0.0904875
12 13 100 16 0.12065
13 13 100 16 0.0690088
15 13 100 16 0.146502
16 13 100 16 0.271462
1 14 100 16 0.0331986
4 14 100 16 1.60476e-06
6 14 100 16 0.000343561
7 14 100 16 1.06856e-06
8 14 100 16 0.0320481
11 14 100 16 0.160231
12 14 100 16 0.101777
13 14 100 16 0.224081
14 14 100 16 0.128184
15 14 100 16 0.159946
16 14 100 16 0.160188
1 15 100 16 2.63693e-05
2 15 100 16 0.0322391
3 15 100 16 0.0322392
4 15 100 16 0.104685
5 15 100 16 0.0322391
6 15 100 16 0.0644783
7 15 100 16 0.0645139
8 15 100 16 0.128814
9 15 100 16 0.0322401
11 15 100 16 0.0321805
12 15 100 16 0.0616176
13 15 100 16 0.0975891
14 15 100 16 0.155976
15 15 100 16 0.0322391
16 15 100 16 0.128922
9 16 100 16 0.127465
10 16 100 16 0.0637212
11 16 100 16 1.00195e-05
12 16 100 16 0.191163
13 16 100 16 0.173216
14 16 100 16 0.127442
16 16 100 16 0.316982
9 17 100 16 0.0773784
10 17 100 16 0.232135
12 17 100 16 0.144422
13 17 100 16 0.0773783
14 17 100 16 0.236551
15 17 100 16 0.154757
16 17 100 16 0.0773783
2 18 100 16 8.06862e-06
3 18 100 16 9.3229e-05
4 18 100 16 0.00128976
5 18 100 16 0.0926009
6 18 100 16 0.119809
7 18 100 16 0.000205327
8 18 100 16 0.189767
9 18 100 16 0.000354019
10 18 100 16 2.11985e-05
11 18 100 16 0.0017148
12 18 100 16 0.00579235
13 18 100 16 0.00625894
14 18 100 16 0.121543
15 18 100 16 0.220666
16 18 100 16 0.239876
1 19 100 16 2.163e-07
3 19 100 16 2.89346e-06
5 19 100 16 2.11392e-06
6 19 100 16 1.27973e-06
7 19 100 16 4.03883e-06
8 19 100 16 1.20832e-05
9 19 100 16 0.171018
10 19 100 16 4.18268e-05
11 19 100 16 0.0355254
12 19 100 16 0.169233
13 19 100 16 0.2651
14 19 100 16 0.17069
15 19 100 16 0.0172922
16 19 100 16 0.171078
4 20 100 16 6.47659e-05
5 20 100 16 9.92305e-07
7 20 100 16 0.00387005
8 20 100 16 5.24884e-06
9 20 100 16 0.493295
10 20 100 16 9.92914e-06
11 20 100 16 5.20095e-05
12 20 100 16 7.37694e-06
13 20 100 16 2.27465e-06
14 20 100 16 8.41397e-06
15 20 100 16 0.00209956
16 20 100 16 0.500584
1 21 100 16 0.000175871
3 21 100 16 0.486147
6 21 100 16 1.62948e-06
7 21 100 16 2.40235e-05
9 21 100 16 0.000182678
10 21 100 16 5.33505e-05
12 21 100 16 0.000227514
13 21 100 16 0.019103
14 21 100 16 0.494085
1 22 100 16 1.66875e-06
10 22 100 16 0.499979
13 22 100 16 3.12049e-05
15 22 100 16 0.499982
16 22 100 16 6.2838e-06
5 23 100 16 3.7154e-07
8 23 100 16 6.13126e-07
9 23 100 16 1.41981e-06
11 23 100 16 0.199722
12 23 100 16 0.19967
13 23 100 16 0.00256666
14 23 100 16 0.199548
15 23 100 16 0.198513
16 23 100 16 0.199976
3 24 100 16 0.00212024
7 24 100 16 0.000384075
9 24 100 16 0.000632097
13 24 100 16 0.996864
8 25 100 16 3.31514e-06
9 25 100 16 7.36075e-05
12 25 100 16 1.96472e-05
13 25 100 16 0.00131741
14 25 100 16 0.000144193
15 25 100 16 0.00255569
16 25 100 16 0.995886
1 0 100 17 0.0476989
2 0 100 17 0.0362797
3 0 100 17 0.0552641
4 0 100 17 0.0515111
5 0 100 17 0.0623534
6 0 100 17 0.0480186
7 0 100 17 0.048049
8 0 100 17 0.0786423
9 0 100 17 0.0743128
10 0 100 17 0.0763101
11 0 100 17 0.0726148
12 0 100 17 0.0695592
13 0 100 17 0.0791475
14 0 100 17 0.0600955
15 0 100 17 0.0747496
16 0 100 17 0.0653929
17 0 100 17 6.17568e-07
1 1 100 17 0.526109
2 1 100 17 0.174942
3 1 100 17 0.0997973
4 1 100 17 0.0239723
5 1 100 17 0.0249593
6 1 100 17 0.0124795
7 1 100 17 0.0124795
9 1 100 17 3.03465e-06
11 1 100 17 2.44717e-05
12 1 100 17 0.00828357
13 1 100 17 0.045242
14 1 100 17 0.0249591
15 1 100 17 0.0217774
16 1 100 17 0.0249591
17 1 100 17 1.23492e-05
1 2 100 17 0.0381388
2 2 100 17 0.390102
3 2 100 17 0.227832
4 2 100 17 0.115261
5 2 100 17 0.114712
6 2 100 17 5.08889e-05
7 2 100 17 0.0379231
8 2 100 17 0.0189626
9 2 100 17 2.26906e-07
10 2 100 17 1.95203e-06
13 2 100 17 3.0042e-06
14 2 100 17 0.0189604
15 2 100 17 0.0190903
16 2 100 17 0.0189604
1 3 100 17 0.0232977
2 3 100 17 0.103705
3 3 100 17 0.218204
4 3 100 17 0.165476
5 3 100 17 0.06993
6 3 100 17 0.139437
7 3 100 17 0.0232988
8 3 100 17 0.0465987
9 3 100 17 0.0234238
10 3 100 17 0.023299
11 3 100 17 4.01132e-07
12 3 100 17 0.000194532
13 3 100 17 4.81579e-06
14 3 100 17 0.0232988
15 3 100 17 3.81696e-05
16 3 100 17 0.0465976
17 3 100 17 0.0931951
1 4 100 17 0.0530316
2 4 100 17 0.0707068
3 4 100 17 0.0883753
4 4 100 17 0.176768
5 4 100 17 0.138545
6 4 100 17 0.141381
7 4 100 17 0.0671087
8 4 100 17 0.0504627
9 4 100 17 0.0366687
10 4 100 17 0.0530424
11 4 100 17 0.0176704
12 4 100 17 0.0176812
13 4 100 17 0.0176771
14 4 100 17 0.0530306
16 4 100 17 0.000161263
17 4 100 17 0.0176893
1 5 100 17 0.106624
2 5 100 17 0.0265773
3 5 100 17 0.0266461
4 5 100 17 0.127487
5 5 100 17 0.21852
6 5 100 17 0.159904
7 5 100 17 0.0650919
8 5 100 17 0.0799362
9 5 100 17 0.05292
10 5 100 17 2.80238e-06
12 5 100 17 1.57658e-05
13 5 100 17 0.000199004
14 5 100 17 0.0266461
15 5 100 17 0.109431
1 6 100 17 0.0239833
2 6 100 17 0.0717823
3 6 100 17 0.0719504
4 6 100 17 0.0959205
5 6 100 17 0.095888
6 6 100 17 0.166551
7 6 100 17 0.117154
8 6 100 17 0.0507958
9 6 100 17 0.054071
10 6 100 17 0.012064
11 6 100 17 0.036019
12 6 100 17 0.0362623
13 6 100 17 0.0236758
14 6 100 17 0.0239834
15 6 100 17 0.0121028
16 6 100 17 0.0598538
17 6 100 17 0.047943
1 7 100 17 0.0447624
2 7 100 17 0.0840171
3 7 100 17 0.0336109
4 7 100 17 0.0506719
5 7 100 17 0.0333314
6 7 100 17 0.0472217
7 7 100 17 0.214847
8 7 100 17 0.143278
9 7 100 17 0.117676
10 7 100 17 0.0504599
11 7 100 17 0.0504565
12 7 100 17 0.0724295
13 7 100 17 2.02104e-07
14 7 100 17 0.00681977
15 7 100 17 1.63834e-05
16 7 100 17 3.06472e-07
17 7 100 17 0.0504017
1 8 100 17 1.05657e-06
2 8 100 17 9.64577e-05
3 8 100 17 0.0851213
4 8 100 17 0.0676786
5 8 100 17 0.0850838
6 8 100 17 0.0340502
7 8 100 17 0.101628
8 8 100 17 0.119167
9 8 100 17 0.0729146
10 8 100 17 0.102173
11 8 100 17 0.0658877
12 8 100 17 0.0616513
13 8 100 17 0.0170314
14 8 100 17 0.0510777
15 8 100 17 0.0506582
16 8 100 17 0.068093
17 8 100 17 0.0176862
2 9 100 17 0.019471
3 9 100 17 0.0584121
4 9 100 17 0.0390346
5 9 100 17 0.0389378
6 9 100 17 0.0583997
7 9 100 17 0.0389763
8 9 100 17 0.0804764
9 9 100 17 0.114917
10 9 100 17 0.0970513
11 9 100 17 0.0801947
12 9 100 17 0.136126
13 9 100 17 0.141355
14 9 100 17 0.0194709
15 9 100 17 0.0194714
16 9 100 17 0.0194707
17 9 100 17 0.0382354
4 10 100 17 0.0495304
5 10 100 17 0.0495304
6 10 100 17 0.0165101
7 10 100 17 0.115571
8 10 100 17 0.114071
9 10 100 17 0.0828223
10 10 100 17 0.148957
11 10 100 17 0.0987776
12 10 100 17 0.0660382
13 10 100 17 0.0459907
14 10 100 17 0.115571
15 10 100 17 0.0470926
16 10 100 17 0.0165101
17 10 100 17 0.033028
1 11 100 17 2.50572e-07
2 11 100 17 0.0331712
3 11 100 17 0.0166877
4 11 100 17 0.0166299
5 11 100 17 0.0665189
6 11 100 17 0.0501553
7 11 100 17 0.0665535
8 11 100 17 0.0679721
9 11 100 17 0.133147
10 11 100 17 0.0832562
11 11 100 17 0.116407
12 11 100 17 0.0498897
13 11 100 17 0.0831188
14 11 100 17 0.066759
15 11 100 17 0.0665498
16 11 100 17 0.0166326
17 11 100 17 0.0665506
1 12 100 17 0.0230378
2 12 100 17 5.07929e-05
3 12 100 17 0.0230289
4 12 100 17 0.0512001
5 12 100 17 1.438e-06
6 12 100 17 0.0950344
7 12 100 17 0.0230378
8 12 100 17 0.0493766
9 12 100 17 0.0691181
10 12 100 17 0.0522109
11 12 100 17 0.13811
12 12 100 17 0.138514
13 12 100 17 0.0460941
14 12 100 17 0.0606225
15 12 100 17 0.0853049
16 12 100 17 0.0991796
17 12 100 17 0.0460778
2 13 100 17 0.0221915
4 13 100 17 0.0222406
5 13 100 17 0.0436366
6 13 100 17 0.0444793
7 13 100 17 2.9393e-07
9 13 100 17 0.000147235
10 13 100 17 0.044821
11 13 100 17 0.0444978
12 13 100 17 0.0445805
13 13 100 17 0.200154
14 13 100 17 0.141714
15 13 100 17 0.113006
16 13 100 17 0.127984
17 13 100 17 0.150548
1 14 100 17 3.95444e-07
5 14 100 17 0.0247479
6 14 100 17 0.0714735
7 14 100 17 0.0714916
8 14 100 17 0.0476731
9 14 100 17 0.0699535
10 14 100 17 0.142544
11 14 100 17 0.023836
12 14 100 17 0.000289732
13 14 100 17 0.0808
14 14 100 17 0.145484
15 14 100 17 0.0537446
16 14 100 17 0.0773316
17 14 100 17 0.19063
1 15 100 17 2.02534e-06
3 15 100 17 0.0204791
6 15 100 17 0.0178255
7 15 100 17 2.64371e-07
8 15 100 17 0.020451
9 15 100 17 0.081502
10 15 100 17 0.0207397
11 15 100 17 0.102237
12 15 100 17 0.0987116
13 15 100 17 0.0970841
14 15 100 17 0.0612669
15 15 100 17 0.184271
16 15 100 17 0.131872
17 15 100 17 0.163559
4 16 100 17 0.0454984
6 16 100 17 0.0454981
9 16 100 17 5.96987e-07
10 16 100 17 0.181993
11 16 100 17 0.137442
12 16 100 17 0.0963546
13 16 100 17 0.000127287
14 16 100 17 0.0454999
15 16 100 17 0.0909966
16 16 100 17 0.228157
17 16 100 17 0.128433
2 17 100 17 9.39202e-05
3 17 100 17 0.0444441
4 17 100 17 0.044444
5 17 100 17 5.55425e-07
6 17 100 17 3.12122e-06
8 17 100 17 0.0888844
9 17 100 17 0.0891514
10 17 100 17 0.00166368
11 17 100 17 0.000382555
12 17 100 17 0.0910747
13 17 100 17 0.0888858
14 17 100 17 0.044444
15 17 100 17 0.0888874
16 17 100 17 0.177343
17 17 100 17 0.240298
6 18 100 17 4.72257e-05
7 18 100 17 0.0455511
8 18 100 17 1.75221e-05
9 18 100 17 6.66558e-05
10 18 100 17 0.0455834
11 18 100 17 0.136653
12 18 100 17 0.089291
13 18 100 17 0.136834
14 18 100 17 0.0904482
15 18 100 17 0.1822
16 18 100 17 0.136654
17 18 100 17 0.136653
1 19 100 17 0.000687209
2 19 100 17 0.0494969
3 19 100 17 0.0484798
4 19 100 17 0.0474397
5 19 100 17 0.0463852
6 19 100 17 0.0315561
7 19 100 17 0.000144345
8 19 100 17 0.000409749
9 19 100 17 2.15604e-06
10 19 100 17 0.00175004
11 19 100 17 0.126207
12 19 100 17 0.156919
13 19 100 17 0.100066
14 19 100 17 0.128673
15 19 100 17 0.101684
16 19 100 17 0.0599334
17 19 100 17 0.100167
2 20 100 17 4.24855e-06
3 20 100 17 2.63001e-07
4 20 100 17 6.72718e-07
5 20 100 17 8.99423e-05
6 20 100 17 0.000941273
7 20 100 17 1.56602e-06
8 20 100 17 2.95851e-05
9 20 100 17 0.0830152
10 20 100 17 0.0856561
11 20 100 17 0.0805991
12 20 100 17 0.270047
13 20 100 17 0.0871082
14 20 100 17 0.0794963
15 20 100 17 0.0781885
16 20 100 17 1.72824e-05
17 20 100 17 0.234805
2 21 100 17 1.1448e-05
3 21 100 17 3.50274e-06
4 21 100 17 1.02158e-06
5 21 100 17 0.000126767
6 21 100 17 0.00359357
7 21 100 17 7.47366e-06
8 21 100 17 4.29952e-05
9 21 100 17 6.72791e-05
10 21 100 17 0.0565395
11 21 100 17 0.000593454
12 21 100 17 0.000791494
13 21 100 17 0.00128874
14 21 100 17 0.265168
15 21 100 17 0.265352
16 21 100 17 0.405773
17 21 100 17 0.000640305
1 22 100 17 0.00100695
2 22 100 17 5.9507e-06
6 22 100 17 0.00033999
9 22 100 17 0.000721722
10 22 100 17 0.000370685
11 22 100 17 0.00058207
12 22 100 17 0.000760107
13 22 100 17 0.000392691
14 22 100 17 0.000214507
15 22 100 17 0.000422447
16 22 100 17 0.00115871
17 22 100 17 0.994024
6 23 100 17 0.292456
8 23 100 17 3.96682e-05
9 23 100 17 0.000306741
10 23 100 17 0.000439904
11 23 100 17 2.5571e-05
12 23 100 17 4.96964e-05
15 23 100 17 0.706682
16 23 100 17 1.24477e-06
5 24 100 17 1.37471e-05
6 24 100 17 0.0003189
7 24 100 17 0.908279
8 24 100 17 0.0876224
9 24 100 17 0.000174131
10 24 100 17 2.80827e-05
11 24 100 17 0.000128148
12 24 100 17 1.15666e-06
13 24 100 17 0.00117363
15 24 100 17 0.00226042
2 25 100 17 2.4308e-06
3 25 100 17 1.87592e-06
6 25 100 17 0.000450133
8 25 100 17 1.01267e-06
9 25 100 17 0.000482923
10 25 100 17 0.000492316
11 25 100 17 0.00014824
12 25 100 17 0.130722
13 25 100 17 0.216497
14 25 100 17 0.216498
15 25 100 17 0.00170654
16 25 100 17 0.216499
17 25 100 17 0.216498
5 26 100 17 4.3791e-06
6 26 100 17 0.000416123
7 26 100 17 5.80814e-06
8 26 100 17 0.000634271
9 26 100 17 0.00210927
10 26 100 17 0.0314823
11 26 100 17 0.186018
12 26 100 17 0.181842
14 26 100 17 0.181337
15 26 100 17 0.0534777
16 26 100 17 0.181337
17 26 100 17 0.181337
5 27 100 17 2.90775e-05
6 27 100 17 4.98388e-05
7 27 100 17 6.81001e-06
8 27 100 17 0.996922
9 27 100 17 0.000130574
10 27 100 17 3.28297e-05
11 27 100 17 0.000187809
12 27 100 17 5.38307e-06
13 27 100 17 0.0026306
14 27 100 17 4.90015e-06
6 28 100 17 0.190701
9 28 100 17 0.693498
12 28 100 17 0.0828273
13 28 100 17 0.0305376
15 28 100 17 0.00243648
6 29 100 17 0.00223473
9 29 100 17 0.997151
12 29 100 17 0.0004618
15 29 100 17 0.000152907
6 30 100 17 5.12625e-06
8 30 100 17 9.06501e-05
9 30 100 17 0.000798038
10 30 100 17 0.982188
11 30 100 17 0.0167731
12 30 100 17 1.53819e-05
13 30 100 17 6.39548e-05
14 30 100 17 6.61351e-05
6 31 100 17 7.02519e-05
9 31 100 17 0.00363509
10 31 100 17 0.995896
12 31 100 17 0.000374463
13 31 100 17 1.69155e-05
15 31 100 17 7.27133e-06
6 32 100 17 1.91763e-05
8 32 100 17 2.48935e-05
9 32 100 17 2.29037e-05
10 32 100 17 0.00154336
11 32 100 17 0.290269
12 32 100 17 0.00911077
13 32 100 17 0.695671
14 32 100 17 0.00333933
6 33 100 17 3.80602e-06
8 33 100 17 3.10244e-05
9 33 100 17 1.20724e-05
10 33 100 17 3.76506e-05
11 33 100 17 0.000755367
12 33 100 17 0.00028724
13 33 100 17 0.00201166
14 33 100 17 0.996861
6 34 100 17 0.106707
9 34 100 17 0.115964
12 34 100 17 0.630948
15 34 100 17 0.146382
15 35 100 17 1
16 36 100 17 0.500003
17 36 100 17 0.499998
6 37 100 17 0.123023
9 37 100 17 0.100788
12 37 100 17 0.0732352
15 37 100 17 0.702953
6 38 100 17 0.000107711
8 38 100 17 4.67118e-05
9 38 100 17 5.60667e-05
10 38 100 17 1.72735e-05
11 38 100 17 0.0467335
12 38 100 17 8.62062e-05
13 38 100 17 0.942553
14 38 100 17 0.010381
17 38 100 17 1.86155e-05
6 39 100 17 0.000424491
8 39 100 17 0.00015111
9 39 100 17 0.000184466
10 39 100 17 3.26637e-05
11 39 100 17 0.985972
12 39 100 17 0.000278117
13 39 100 17 0.0101653
14 39 100 17 0.00279237
6 40 100 17 0.474302
9 40 100 17 0.193998
12 40 100 17 0.328973
15 40 100 17 0.0027266
1 0 100 18 0.0517236
2 0 100 18 0.0231109
3 0 100 18 0.0336647
4 0 100 18 0.045321
5 0 100 18 0.0764185
6 0 100 18 0.0599927
7 0 100 18 0.0430859
8 0 100 18 0.0684787
9 0 100 18 0.0642897
10 0 100 18 0.0538918
11 0 100 18 0.0495266
12 0 100 18 0.0744663
13 0 100 18 0.0755367
14 0 100 18 0.080156
15 0 100 18 0.0556365
16 0 100 18 0.0929179
17 0 100 18 0.051782
18 0 100 18 4.981e-07
1 1 100 18 0.630188
2 1 100 18 0.228698
3 1 100 18 0.0526597
4 1 100 18 0.0174283
5 1 100 18 0.0523253
7 1 100 18 0.0174851
8 1 100 18 5.01467e-07
9 1 100 18 2.96288e-05
10 1 100 18 6.94804e-07
11 1 100 18 3.67075e-07
12 1 100 18 4.75608e-07
13 1 100 18 0.00116208
14 1 100 18 1.0037e-05
16 1 100 18 2.9622e-07
17 1 100 18 2.65852e-06
18 1 100 18 8.70592e-06
1 2 100 18 0.0455546
2 2 100 18 0.443313
3 2 100 18 0.19487
4 2 100 18 0.0268414
5 2 100 18 0.0542237
6 2 100 18 0.0271945
8 2 100 18 0.0813356
9 2 100 18 0.0453155
10 2 100 18 0.054224
11 2 100 18 0.0271119
12 2 100 18 3.30886e-07
14 2 100 18 7.08096e-06
16 2 100 18 9.26828e-06
1 3 100 18 0.0172895
2 3 100 18 0.172839
3 3 100 18 0.190122
4 3 100 18 0.126018
5 3 100 18 0.0945971
6 3 100 18 0.0864248
7 3 100 18 0.0879848
8 3 100 18 0.0345706
9 3 100 18 0.0172839
10 3 100 18 0.0172839
11 3 100 18 0.0518521
12 3 100 18 0.0518518
15 3 100 18 0.0172839
16 3 100 18 0.0172839
17 3 100 18 3.00119e-05
18 3 100 18 0.0172839
1 4 100 18 0.0704241
2 4 100 18 0.0219441
3 4 100 18 0.175086
4 4 100 18 0.176445
5 4 100 18 0.182653
6 4 100 18 0.199238
7 4 100 18 0.0645021
8 4 100 18 0.0438895
9 4 100 18 0.0219774
10 4 100 18 0.0219697
12 4 100 18 6.29164e-07
15 4 100 18 9.84778e-06
16 4 100 18 0.0215249
18 4 100 18 0.000335909
1 5 100 18 0.000125993
2 5 100 18 0.0500072
3 5 100 18 0.116687
4 5 100 18 0.198803
5 5 100 18 0.183263
6 5 100 18 0.146922
7 5 100 18 0.0874477
8 5 100 18 0.0166692
9 5 100 18 0.0166637
10 5 100 18 4.40689e-05
11 5 100 18 0.0342931
12 5 100 18 0.0166565
13 5 100 18 0.0166695
14 5 100 18 0.0333384
15 5 100 18 0.0333361
16 5 100 18 0.00033275
17 5 100 18 0.0320716
18 5 100 18 0.0166692
1 6 100 18 0.0268672
2 6 100 18 0.0268688
3 6 100 18 0.134344
4 6 100 18 0.134344
5 6 100 18 0.0806064
6 6 100 18 0.0521999
7 6 100 18 0.100968
8 6 100 18 0.107455
9 6 100 18 0.0302178
11 6 100 18 0.0268688
12 6 100 18 0.064311
13 6 100 18 0.0537376
14 6 100 18 1.57112e-06
15 6 100 18 0.053739
17 6 100 18 0.0268688
18 6 100 18 0.0806025
1 7 100 18 0.024404
3 7 100 18 0.0487345
4 7 100 18 0.0705057
5 7 100 18 0.0496588
6 7 100 18 0.119457
7 7 100 18 0.184518
8 7 100 18 0.0243945
9 7 100 18 0.121798
10 7 100 18 0.144724
11 7 100 18 0.0243659
12 7 100 18 0.0397079
13 7 100 18 0.0988769
14 7 100 18 0.0243758
15 7 100 18 4.46884e-05
16 7 100 18 4.86739e-05
17 7 100 18 1.81906e-05
18 7 100 18 0.0243681
2 8 100 18 0.0493851
3 8 100 18 0.0486319
4 8 100 18 0.0486324
5 8 100 18 0.047686
6 8 100 18 0.000443786
7 8 100 18 0.121652
8 8 100 18 0.169644
9 8 100 18 0.0729079
10 8 100 18 0.0486863
11 8 100 18 0.145468
12 8 100 18 0.024322
13 8 100 18 0.024316
14 8 100 18 0.0280002
15 8 100 18 0.0972756
16 8 100 18 0.024316
17 8 100 18 0.024316
18 8 100 18 0.0243164
1 9 100 18 0.0220286
2 9 100 18 0.00287194
3 9 100 18 0.0220312
4 9 100 18 0.000734528
6 9 100 18 0.0220643
7 9 100 18 0.0660964
8 9 100 18 0.132187
9 9 100 18 0.136043
10 9 100 18 0.0804051
11 9 100 18 0.0660881
12 9 100 18 0.129006
14 9 100 18 0.0220369
15 9 100 18 0.0501376
16 9 100 18 0.0918957
17 9 100 18 0.0902775
18 9 100 18 0.066096
1 10 100 18 0.000524019
2 10 100 18 0.0282569
3 10 100 18 2.77706e-07
4 10 100 18 0.0565194
6 10 100 18 0.0282578
7 10 100 18 0.0141278
8 10 100 18 0.0694699
9 10 100 18 0.0961333
10 10 100 18 0.0991533
11 10 100 18 0.112969
12 10 100 18 0.0561462
13 10 100 18 0.112965
14 10 100 18 0.0988797
15 10 100 18 0.0423854
16 10 100 18 0.042973
17 10 100 18 0.0853068
18 10 100 18 0.0559321
1 11 100 18 6.5601e-07
3 11 100 18 0.0524691
4 11 100 18 0.0262895
5 11 100 18 0.0263992
6 11 100 18 0.0869708
7 11 100 18 0.106822
8 11 100 18 0.0310866
9 11 100 18 0.163808
10 11 100 18 1.03258e-05
11 11 100 18 0.081999
12 11 100 18 0.161305
13 11 100 18 0.105859
14 11 100 18 0.052798
15 11 100 18 0.0788834
16 11 100 18 0.0252955
17 11 100 18 3.06112e-06
3 12 100 18 0.0197216
4 12 100 18 0.0379686
5 12 100 18 0.0130286
6 12 100 18 0.0753092
7 12 100 18 0.0197216
8 12 100 18 0.0591648
9 12 100 18 0.0197954
10 12 100 18 0.138155
11 12 100 18 0.0448251
12 12 100 18 0.118346
13 12 100 18 0.0784447
14 12 100 18 0.197255
15 12 100 18 0.0788878
16 12 100 18 0.057809
17 12 100 18 0.0213896
18 12 100 18 0.0201791
1 13 100 18 8.56698e-05
3 13 100 18 6.9186e-05
4 13 100 18 0.00162086
5 13 100 18 2.36391e-05
6 13 100 18 0.0433808
7 13 100 18 0.0864632
8 13 100 18 0.0433695
9 13 100 18 0.0650592
10 13 100 18 0.0216847
11 13 100 18 0.130067
12 13 100 18 1.51841e-05
13 13 100 18 0.128854
14 13 100 18 0.0650427
15 13 100 18 0.154335
16 13 100 18 0.0867982
17 13 100 18 0.0652102
18 13 100 18 0.10792
1 14 100 18 0.0366091
2 14 100 18 0.0296124
3 14 100 18 0.0186689
5 14 100 18 0.0221531
6 14 100 18 3.20133e-06
7 14 100 18 0.0360486
8 14 100 18 0.0559302
9 14 100 18 0.0188913
10 14 100 18 0.0569704
11 14 100 18 0.0186789
12 14 100 18 0.0746024
13 14 100 18 0.0186411
14 14 100 18 0.0746022
15 14 100 18 0.0932641
16 14 100 18 0.183132
17 14 100 18 0.11144
18 14 100 18 0.150752
1 15 100 18 0.000191441
2 15 100 18 0.0221246
4 15 100 18 0.0466462
5 15 100 18 0.0233231
6 15 100 18 0.0240109
7 15 100 18 0.0692391
8 15 100 18 0.048967
9 15 100 18 0.0466481
10 15 100 18 0.0466461
11 15 100 18 0.0932923
12 15 100 18 0.0468703
13 15 100 18 0.114106
14 15 100 18 0.0466462
15 15 100 18 0.116597
16 15 100 18 0.02332
17 15 100 18 0.13809
18 15 100 18 0.0932818
1 16 100 18 0.0271423
2 16 100 18 0.0227664
4 16 100 18 3.71689e-06
5 16 100 18 0.0271442
6 16 100 18 0.0271433
7 16 100 18 0.027047
8 16 100 18 0.0543157
9 16 100 18 0.0814762
10 16 100 18 0.135714
11 16 100 18 0.0815571
12 16 100 18 0.0814031
13 16 100 18 0.0814297
14 16 100 18 0.0542865
16 16 100 18 0.0542865
17 16 100 18 0.108571
18 16 100 18 0.135714
1 17 100 18 6.31773e-06
2 17 100 18 0.0353778
3 17 100 18 0.0353778
4 17 100 18 0.0353778
5 17 100 18 0.0407066
6 17 100 18 0.0353778
10 17 100 18 0.144381
11 17 100 18 0.0707556
13 17 100 18 0.0353778
14 17 100 18 0.0707474
15 17 100 18 0.106068
16 17 100 18 0.107083
17 17 100 18 0.0710998
18 17 100 18 0.212263
8 18 100 18 0.0356121
9 18 100 18 0.0595304
10 18 100 18 0.0691291
11 18 100 18 0.0356121
12 18 100 18 0.040755
13 18 100 18 0.0356121
14 18 100 18 0.0712256
15 18 100 18 0.106836
16 18 100 18 0.155985
17 18 100 18 0.213672
18 18 100 18 0.17603
6 19 100 18 0.00727963
7 19 100 18 9.11936e-07
8 19 100 18 5.13293e-05
9 19 100 18 0.0805236
10 19 100 18 0.0668771
11 19 100 18 0.0680533
12 19 100 18 0.200615
13 19 100 18 0.133754
14 19 100 18 0.0669565
15 19 100 18 0.0668771
16 19 100 18 0.0414501
17 19 100 18 0.0668788
18 19 100 18 0.200682
1 20 100 18 2.27566e-07
3 20 100 18 1.13861e-06
4 20 100 18 4.90152e-07
5 20 100 18 0.0602609
6 20 100 18 0.0135434
7 20 100 18 7.81799e-05
8 20 100 18 6.16851e-05
9 20 100 18 8.23943e-06
10 20 100 18 1.05806e-05
11 20 100 18 1.15779e-05
12 20 100 18 0.000152441
13 20 100 18 0.0745745
14 20 100 18 0.142174
15 20 100 18 0.0884184
16 20 100 18 0.101152
17 20 100 18 0.223577
18 20 100 18 0.295975
4 21 100 18 4.5914e-06
7 21 100 18 0.000244123
9 21 100 18 8.50429e-07
10 21 100 18 0.00110125
11 21 100 18 1.77475e-05
12 21 100 18 0.00039002
13 21 100 18 1.48724e-05
14 21 100 18 0.000371584
15 21 100 18 0.00757337
16 21 100 18 0.236836
17 21 100 18 0.753054
18 21 100 18 0.000391349
2 22 100 18 0.000223664
4 22 100 18 0.000825569
7 22 100 18 3.91066e-05
8 22 100 18 0.000238455
11 22 100 18 3.2936e-05
12 22 100 18 1.08559e-05
13 22 100 18 5.43453e-05
14 22 100 18 0.0810234
15 22 100 18 2.70279e-06
16 22 100 18 9.69132e-07
18 22 100 18 0.917548
2 23 100 18 1.36019e-06
4 23 100 18 7.23119e-06
6 23 100 18 1.37688e-06
7 23 100 18 3.7671e-06
13 23 100 18 2.43576e-05
14 23 100 18 0.999376
15 23 100 18 0.000241243
16 23 100 18 1.92267e-05
18 23 100 18 0.000325559
5 24 100 18 0.000291947
6 24 100 18 0.000456513
7 24 100 18 5.36267e-06
13 24 100 18 7.96352e-06
14 24 100 18 5.20518e-06
15 24 100 18 0.503249
18 24 100 18 0.495984
6 25 100 18 0.00582224
7 25 100 18 0.116216
13 25 100 18 0.405369
15 25 100 18 0.0672243
16 25 100 18 0.405369
2 26 100 18 0.0322574
4 26 100 18 0.00516955
10 26 100 18 0.588403
11 26 100 18 0.00486525
12 26 100 18 0.000503528
18 26 100 18 0.368801
2 27 100 18 2.72251e-06
16 27 100 18 0.499999
17 27 100 18 0.499998
18 27 100 18 5.50983e-07
2 28 100 18 0.804624
4 28 100 18 0.11829
11 28 100 18 0.0766749
14 28 100 18 0.000410462
2 29 100 18 0.205509
4 29 100 18 0.77235
7 29 100 18 0.000329736
11 29 100 18 0.021401
14 29 100 18 0.000409668
18 30 100 18 1
1 0 100 19 0.0327111
2 0 100 19 0.0474761
3 0 100 19 0.0387286
4 0 100 19 0.0364961
5 0 100 19 0.0387436
6 0 100 19 0.0812413
7 0 100 19 0.0807733
8 0 100 19 0.0743933
9 0 100 19 0.0607317
10 0 100 19 0.045577
11 0 100 19 0.0405773
12 0 100 19 0.0911834
13 0 100 19 0.0383311
14 0 100 19 0.0392125
15 0 100 19 0.060584
16 0 100 19 0.0207382
17 0 100 19 0.109318
18 0 100 19 0.0629346
19 0 100 19 0.000248738
1 1 100 19 0.626835
2 1 100 19 0.0983534
3 1 100 19 0.0978724
4 1 100 19 3.65321e-06
5 1 100 19 0.039355
6 1 100 19 0.019606
7 1 100 19 0.000467236
8 1 100 19 0.019606
9 1 100 19 1.2911e-05
10 1 100 19 0.0196088
12 1 100 19 8.39266e-06
13 1 100 19 1.70782e-06
15 1 100 19 1.24375e-05
16 1 100 19 0.0194128
17 1 100 19 0.0392264
18 1 100 19 0.0196135
19 1 100 19 4.01413e-06
1 2 100 19 0.103367
2 2 100 19 0.350726
3 2 100 19 0.10713
4 2 100 19 0.10977
6 2 100 19 0.0219579
9 2 100 19 0.0439096
10 2 100 19 0.0216512
11 2 100 19 0.043906
12 2 100 19 0.0439097
13 2 100 19 0.0658629
14 2 100 19 0.0219481
15 2 100 19 0.0219512
16 2 100 19 0.0439078
17 2 100 19 1.97332e-06
19 2 100 19 6.32883e-07
1 3 100 19 0.00693524
2 3 100 19 0.0955986
3 3 100 19 0.255065
4 3 100 19 0.214235
5 3 100 19 0.0713706
6 3 100 19 0.0476144
7 3 100 19 0.0237814
8 3 100 19 1.8312e-06
9 3 100 19 1.94787e-06
10 3 100 19 0.0237814
11 3 100 19 1.91851e-06
13 3 100 19 0.0475689
14 3 100 19 0.0475628
15 3 100 19 0.0237814
16 3 100 19 0.0237827
17 3 100 19 0.0237855
18 3 100 19 0.0237879
19 3 100 19 0.0713438
1 4 100 19 0.00422602
2 4 100 19 0.107875
3 4 100 19 0.148461
4 4 100 19 0.195581
5 4 100 19 0.217299
6 4 100 19 0.0646772
7 4 100 19 0.044385
8 4 100 19 0.0651229
9 4 100 19 0.0217312
10 4 100 19 0.0652202
11 4 100 19 0.000183709
12 4 100 19 2.88909e-07
13 4 100 19 4.09453e-06
14 4 100 19 0.0217316
15 4 100 19 0.0217317
16 4 100 19 1.94364e-06
17 4 100 19 3.74441e-05
19 4 100 19 0.0217317
1 5 100 19 0.0395819
2 5 100 19 0.0397395
3 5 100 19 0.0947538
4 5 100 19 0.115904
5 5 100 19 0.143336
6 5 100 19 0.15835
7 5 100 19 0.159028
8 5 100 19 0.118769
9 5 100 19 0.0202663
10 5 100 19 0.059385
11 5 100 19 0.019795
13 5 100 19 2.10607e-06
15 5 100 19 1.39457e-05
17 5 100 19 0.0112791
18 5 100 19 0.0197954
19 5 100 19 2.05644e-07
1 6 100 19 0.024227
2 6 100 19 0.0243419
3 6 100 19 0.0728913
4 6 100 19 0.0731862
5 6 100 19 0.121485
6 6 100 19 0.09738
7 6 100 19 0.097595
8 6 100 19 0.0974277
9 6 100 19 0.118017
10 6 100 19 0.0243524
11 6 100 19 0.0730174
12 6 100 19 0.030019
16 6 100 19 0.0243648
17 6 100 19 0.0243391
18 6 100 19 0.0243391
19 6 100 19 0.0730181
2 7 100 19 0.0370866
3 7 100 19 0.0370885
4 7 100 19 0.0508417
5 7 100 19 0.0576917
6 7 100 19 0.110939
7 7 100 19 0.071932
8 7 100 19 0.0742851
9 7 100 19 0.129793
10 7 100 19 0.0556098
11 7 100 19 0.0556324
12 7 100 19 0.056008
13 7 100 19 0.0370945
14 7 100 19 0.0960165
15 7 100 19 0.0185439
16 7 100 19 0.0370877
17 7 100 19 0.0185438
18 7 100 19 0.000174474
19 7 100 19 0.0556315
3 8 100 19 0.00182376
4 8 100 19 0.0299388
5 8 100 19 0.00610411
6 8 100 19 0.0299357
7 8 100 19 0.20955
8 8 100 19 0.0898089
9 8 100 19 0.0898071
10 8 100 19 0.0902249
11 8 100 19 0.149383
12 8 100 19 0.089814
13 8 100 19 0.0299411
14 8 100 19 0.0299357
15 8 100 19 0.0339063
16 8 100 19 0.0299805
17 8 100 19 0.0299357
18 8 100 19 0.0598732
19 8 100 19 3.73042e-05
1 9 100 19 5.87576e-05
3 9 100 19 6.8746e-07
4 9 100 19 4.71093e-05
5 9 100 19 0.079231
6 9 100 19 0.0405154
7 9 100 19 0.0414837
8 9 100 19 0.0800289
9 9 100 19 0.0600235
10 9 100 19 0.120173
11 9 100 19 0.139894
12 9 100 19 0.0796692
13 9 100 19 0.120048
14 9 100 19 0.0764678
15 9 100 19 0.0217406
16 9 100 19 0.000551016
17 9 100 19 0.020008
18 9 100 19 0.0600357
19 9 100 19 0.0600241
2 10 100 19 0.059521
3 10 100 19 0.0595201
4 10 100 19 0.00125774
5 10 100 19 0.0595206
6 10 100 19 0.0297603
7 10 100 19 1.33057e-05
8 10 100 19 0.0595205
9 10 100 19 0.0640218
10 10 100 19 0.0297574
11 10 100 19 0.0304906
12 10 100 19 0.0703759
13 10 100 19 0.229469
14 10 100 19 0.0690895
15 10 100 19 0.0888941
17 10 100 19 0.0297603
18 10 100 19 0.0892721
19 10 100 19 0.0297562
1 11 100 19 0.0577513
2 11 100 19 0.0288757
4 11 100 19 3.11884e-05
7 11 100 19 3.04961e-07
10 11 100 19 0.057692
11 11 100 19 0.000223376
12 11 100 19 0.114678
13 11 100 19 0.147663
14 11 100 19 0.115977
15 11 100 19 0.124895
16 11 100 19 0.230811
17 11 100 19 0.0870683
18 11 100 19 9.08097e-06
19 11 100 19 0.0343258
5 12 100 19 0.00137665
6 12 100 19 0.00024783
8 12 100 19 0.0357059
9 12 100 19 0.0357417
10 12 100 19 0.00011149
11 12 100 19 0.177763
12 12 100 19 0.0399441
13 12 100 19 0.0714055
14 12 100 19 0.106536
15 12 100 19 0.139716
16 12 100 19 0.142816
17 12 100 19 0.035712
18 12 100 19 0.14282
19 12 100 19 0.0701041
2 13 100 19 0.0256245
3 13 100 19 0.0256227
4 13 100 19 0.0256237
5 13 100 19 0.0308399
6 13 100 19 0.0768735
7 13 100 19 0.051249
9 13 100 19 0.0256245
10 13 100 19 0.051249
11 13 100 19 0.0256245
12 13 100 19 0.0256245
13 13 100 19 0.0557441
14 13 100 19 0.0258186
15 13 100 19 0.143567
16 13 100 19 0.0768744
17 13 100 19 0.128129
18 13 100 19 0.1025
19 13 100 19 0.103412
3 14 100 19 0.0245108
4 14 100 19 0.0719175
5 14 100 19 0.0487689
6 14 100 19 0.0487697
7 14 100 19 0.0487689
8 14 100 19 0.121923
9 14 100 19 0.0975298
10 14 100 19 0.0973808
11 14 100 19 0.0487779
12 14 100 19 0.0446899
13 14 100 19 0.00817053
14 14 100 19 0.0698691
15 14 100 19 0.0487689
16 14 100 19 0.0731533
17 14 100 19 0.00157477
18 14 100 19 0.0487575
19 14 100 19 0.0966682
7 15 100 19 0.0611033
8 15 100 19 0.0611033
9 15 100 19 0.122204
10 15 100 19 0.0611042
12 15 100 19 0.0610725
14 15 100 19 0.123305
15 15 100 19 0.122029
16 15 100 19 0.189202
17 15 100 19 0.0767413
19 15 100 19 0.122135
1 16 100 19 1.37164e-05
2 16 100 19 9.31595e-07
5 16 100 19 0.0173303
6 16 100 19 8.02997e-07
9 16 100 19 0.100539
10 16 100 19 0.142802
11 16 100 19 0.100588
13 16 100 19 0.067027
14 16 100 19 0.0335797
15 16 100 19 0.101001
16 16 100 19 0.0670343
17 16 100 19 0.105557
18 16 100 19 0.130472
19 16 100 19 0.134054
6 17 100 19 0.0340112
7 17 100 19 0.0340112
8 17 100 19 0.0340104
10 17 100 19 6.77394e-05
11 17 100 19 0.0680223
12 17 100 19 0.102058
13 17 100 19 0.0680058
14 17 100 19 0.104419
15 17 100 19 0.0675184
16 17 100 19 0.222825
17 17 100 19 0.101928
18 17 100 19 0.0610917
19 17 100 19 0.102031
1 18 100 19 3.52459e-05
2 18 100 19 9.16012e-07
4 18 100 19 0.0272398
5 18 100 19 0.0272398
7 18 100 19 0.0272395
8 18 100 19 0.0272397
9 18 100 19 0.0817192
10 18 100 19 0.0817056
11 18 100 19 0.0817191
12 18 100 19 0.0817194
13 18 100 19 0.0544929
14 18 100 19 0.106801
15 18 100 19 0.0544796
16 18 100 19 0.061813
17 18 100 19 0.0758851
18 18 100 19 0.0817194
19 18 100 19 0.128951
11 19 100 19 0.125013
12 19 100 19 0.125013
13 19 100 19 0.124922
15 19 100 19 0.125013
18 19 100 19 0.250017
19 19 100 19 0.250023
11 20 100 19 0.14507
12 20 100 19 0.145061
14 20 100 19 0.14507
16 20 100 19 0.290139
19 20 100 19 0.274661
2 21 100 19 0.0830469
4 21 100 19 0.119386
5 21 100 19 0.0112248
7 21 100 19 1.14317e-05
8 21 100 19 6.7942e-06
9 21 100 19 7.42535e-06
10 21 100 19 0.000381276
11 21 100 19 5.24243e-05
12 21 100 19 1.55001e-05
14 21 100 19 0.000403541
15 21 100 19 0.0013482
16 21 100 19 0.00365543
17 21 100 19 0.478903
18 21 100 19 0.276198
19 21 100 19 0.0253593
2 22 100 19 7.37148e-07
4 22 100 19 0.000514386
5 22 100 19 8.93364e-05
6 22 100 19 9.66308e-06
7 22 100 19 8.02933e-07
8 22 100 19 1.55048e-07
9 22 100 19 6.72917e-06
10 22 100 19 0.126369
11 22 100 19 3.00378e-05
12 22 100 19 0.00196529
13 22 100 19 0.135241
14 22 100 19 0.136121
15 22 100 19 0.128706
16 22 100 19 0.000777018
17 22 100 19 0.134905
18 22 100 19 0.189201
19 22 100 19 0.146063
4 23 100 19 2.53103e-06
5 23 100 19 1.09585e-06
6 23 100 19 2.62468e-07
7 23 100 19 3.10555e-07
8 23 100 19 3.16147e-06
9 23 100 19 6.39195e-07
10 23 100 19 4.50697e-05
11 23 100 19 0.198871
12 23 100 19 0.19988
13 23 100 19 0.199869
14 23 100 19 0.199882
15 23 100 19 0.199013
16 23 100 19 0.0024253
18 23 100 19 1.85276e-06
19 23 100 19 5.00185e-06
2 24 100 19 9.224e-07
3 24 100 19 4.52498e-06
4 24 100 19 0.000253886
6 24 100 19 4.96976e-06
8 24 100 19 7.46583e-07
9 24 100 19 0.000878323
10 24 100 19 0.00130034
11 24 100 19 0.000388368
12 24 100 19 6.90148e-06
13 24 100 19 0.101199
14 24 100 19 0.0211351
15 24 100 19 0.102882
16 24 100 19 0.202367
17 24 100 19 0.102088
18 24 100 19 0.266065
19 24 100 19 0.201426
2 25 100 19 0.000595761
14 25 100 19 0.998999
15 25 100 19 0.000178861
19 25 100 19 0.000226174
2 26 100 19 9.92665e-05
5 26 100 19 0.996711
17 26 100 19 0.00318936
2 27 100 19 0.991418
5 27 100 19 0.00120712
17 27 100 19 0.000300968
19 27 100 19 0.00707387
2 28 100 19 0.997497
8 28 100 19 7.25339e-05
10 28 100 19 0.000175952
13 28 100 19 0.00134078
14 28 100 19 0.000347724
18 28 100 19 0.000110817
19 28 100 19 0.000455664
2 29 100 19 7.38034e-06
5 29 100 19 0.000408758
12 29 100 19 4.20173e-06
13 29 100 19 5.92754e-05
14 29 100 19 0.9995
15 29 100 19 4.83406e-06
17 29 100 19 6.59325e-06
18 29 100 19 9.2361e-06
13 30 100 19 0.0140232
14 30 100 19 0.0107679
17 30 100 19 0.0989953
18 30 100 19 0.876214
12 31 100 19 2.87898e-05
13 31 100 19 1.11961e-06
18 31 100 19 5.07458e-06
19 31 100 19 0.999965
1 0 100 20 0.021487
2 0 100 20 0.037318
3 0 100 20 0.0628049
4 0 100 20 0.0727946
5 0 100 20 0.0559253
6 0 100 20 0.057651
7 0 100 20 0.0613208
8 0 100 20 0.0428326
9 0 100 20 0.0641332
10 0 100 20 0.0499541
11 0 100 20 0.0414938
12 0 100 20 0.0646608
13 0 100 20 0.0654263
14 0 100 20 0.0544879
15 0 100 20 0.0752537
16 0 100 20 0.0593526
17 0 100 20 0.0288952
18 0 100 20 0.0493824
19 0 100 20 0.0348252
20 0 100 20 5.585e-07
1 1 100 20 0.504409
2 1 100 20 0.264359
3 1 100 20 0.0801483
4 1 100 20 0.057247
5 1 100 20 0.0339133
6 1 100 20 0.0228988
7 1 100 20 0.0114494
8 1 100 20 1.62043e-05
9 1 100 20 2.05689e-05
10 1 100 20 2.82904e-05
11 1 100 20 0.000242225
13 1 100 20 0.0023397
14 1 100 20 0.0114618
15 1 100 20 1.41127e-05
16 1 100 20 5.62207e-07
18 1 100 20 0.0114494
20 1 100 20 1.99324e-06
1 2 100 20 0.0823794
2 2 100 20 0.296662
3 2 100 20 0.228881
4 2 100 20 0.0972666
5 2 100 20 0.108785
6 2 100 20 0.0185936
7 2 100 20 2.95546e-06
8 2 100 20 0.0557809
9 2 100 20 0.018596
10 2 100 20 2.52152e-06
11 2 100 20 0.0186288
12 2 100 20 3.30198e-06
14 2 100 20 0.0186302
15 2 100 20 0.0371896
17 2 100 20 3.16148e-06
19 2 100 20 0.018594
20 2 100 20 5.33759e-07
1 3 100 20 0.0531702
2 3 100 20 0.130777
3 3 100 20 0.276023
4 3 100 20 0.114105
5 3 100 20 0.0354495
6 3 100 20 0.105523
7 3 100 20 0.0718771
8 3 100 20 0.0532035
9 3 100 20 0.0354541
10 3 100 20 0.0712237
11 3 100 20 1.72041e-06
13 3 100 20 1.25484e-06
14 3 100 20 2.1676e-06
15 3 100 20 0.0177235
16 3 100 20 0.0177329
17 3 100 20 5.30312e-07
18 3 100 20 6.70512e-06
19 3 100 20 5.89776e-07
20 3 100 20 0.0177244
1 4 100 20 0.0747325
2 4 100 20 0.0597834
3 4 100 20 0.0748211
4 4 100 20 0.159176
5 4 100 20 0.1643
6 4 100 20 0.105032
7 4 100 20 0.045098
8 4 100 20 0.119527
9 4 100 20 0.0448073
10 4 100 20 0.0589739
11 4 100 20 0.0487481
12 4 100 20 0.0448261
14 4 100 20 1.54543e-06
15 4 100 20 0.000147576
17 4 100 20 2.42446e-05
19 4 100 20 9.2114e-07
1 5 100 20 0.0154249
2 5 100 20 0.0154162
3 5 100 20 0.0154162
4 5 100 20 0.138643
5 5 100 20 0.124194
6 5 100 20 0.0772333
7 5 100 20 0.156582
8 5 100 20 0.0897144
9 5 100 20 0.101935
10 5 100 20 0.0923089
11 5 100 20 0.0616543
12 5 100 20 0.0308329
13 5 100 20 0.0282083
14 5 100 20 0.0154165
15 5 100 20 0.0152565
16 5 100 20 8.88683e-07
17 5 100 20 0.00632856
18 5 100 20 1.80277e-05
20 5 100 20 0.0154158
1 6 100 20 1.80936e-07
2 6 100 20 0.039474
3 6 100 20 0.0262571
4 6 100 20 4.69175e-05
5 6 100 20 0.0672948
6 6 100 20 0.105028
7 6 100 20 0.0525146
8 6 100 20 0.104218
9 6 100 20 0.0787784
10 6 100 20 0.13131
11 6 100 20 0.103829
12 6 100 20 0.0787737
13 6 100 20 0.028557
14 6 100 20 0.0656402
15 6 100 20 0.039386
16 6 100 20 6.05728e-06
17 6 100 20 0.0262571
18 6 100 20 0.0131294
19 6 100 20 0.0263711
20 6 100 20 0.0131285
1 7 100 20 0.0313398
2 7 100 20 0.0156699
4 7 100 20 0.0627574
5 7 100 20 0.0313479
6 7 100 20 0.0820377
7 7 100 20 0.172919
8 7 100 20 0.126249
9 7 100 20 0.110241
10 7 100 20 0.0787274
11 7 100 20 0.0970818
12 7 100 20 0.0470127
13 7 100 20 0.0343446
14 7 100 20 0.0162268
15 7 100 20 0.0626819
16 7 100 20 0.0156732
17 7 100 20 2.14425e-07
18 7 100 20 0.0156705
20 7 100 20 1.90995e-05
2 8 100 20 0.0184471
3 8 100 20 0.00569464
5 8 100 20 0.113506
6 8 100 20 0.0737881
7 8 100 20 0.074159
8 8 100 20 0.0553446
9 8 100 20 0.107289
10 8 100 20 0.0734933
11 8 100 20 0.0184487
12 8 100 20 0.149563
13 8 100 20 0.0518049
14 8 100 20 0.055347
15 8 100 20 0.000198777
16 8 100 20 0.0922249
17 8 100 20 0.0737886
18 8 100 20 0.0184541
19 8 100 20 0.0184471
20 8 100 20 2.07064e-06
1 9 100 20 0.017418
2 9 100 20 0.0347408
3 9 100 20 0.0294069
4 9 100 20 0.0869983
5 9 100 20 0.0783597
6 9 100 20 0.138843
7 9 100 20 0.0869721
8 9 100 20 0.0322027
9 9 100 20 0.105118
10 9 100 20 0.00128003
11 9 100 20 0.0694795
12 9 100 20 0.0849113
13 9 100 20 0.104352
14 9 100 20 0.0171703
15 9 100 20 0.0289896
16 9 100 20 6.67725e-07
17 9 100 20 0.0679179
18 9 100 20 0.0158397
20 9 100 20 2.97963e-07
2 10 100 20 0.0150629
3 10 100 20 0.0301297
4 10 100 20 0.0301265
5 10 100 20 0.0154851
6 10 100 20 0.0163027
7 10 100 20 0.0150629
8 10 100 20 0.0304457
9 10 100 20 1.94292e-05
10 10 100 20 0.078096
11 10 100 20 0.0903895
12 10 100 20 0.0301356
13 10 100 20 0.0603806
14 10 100 20 0.105941
15 10 100 20 0.0602274
16 10 100 20 0.0753145
17 10 100 20 0.0602549
18 10 100 20 0.0601731
19 10 100 20 0.106005
20 10 100 20 0.120448
3 11 100 20 2.0993e-07
4 11 100 20 6.40595e-06
5 11 100 20 0.0279083
6 11 100 20 0.0414159
7 11 100 20 0.0424203
8 11 100 20 0.0896954
9 11 100 20 0.098612
10 11 100 20 0.0592311
11 11 100 20 0.0990179
12 11 100 20 0.0559621
13 11 100 20 0.0989675
14 11 100 20 0.0708418
15 11 100 20 0.0849431
16 11 100 20 0.0430622
17 11 100 20 0.0599874
18 11 100 20 0.071368
19 11 100 20 0.0282806
20 11 100 20 0.0282799
1 12 100 20 6.0076e-06
2 12 100 20 2.79064e-07
3 12 100 20 0.0607498
4 12 100 20 0.0405003
5 12 100 20 0.0405019
6 12 100 20 0.0212623
7 12 100 20 0.0405166
8 12 100 20 0.0608513
9 12 100 20 0.0405238
10 12 100 20 0.0202499
11 12 100 20 0.0204379
12 12 100 20 0.138185
13 12 100 20 0.0911845
14 12 100 20 0.12166
15 12 100 20 0.0809998
16 12 100 20 0.141344
17 12 100 20 0.0404999
18 12 100 20 2.4538e-05
19 12 100 20 0.0202507
20 12 100 20 0.0202516
1 13 100 20 0.01816
2 13 100 20 0.0363075
3 13 100 20 0.0181619
4 13 100 20 0.0181518
5 13 100 20 0.0181599
6 13 100 20 0.0161617
7 13 100 20 0.0181666
8 13 100 20 0.01816
9 13 100 20 0.0373666
10 13 100 20 0.01816
11 13 100 20 0.072621
12 13 100 20 0.0438454
13 13 100 20 0.0842698
14 13 100 20 0.0443221
15 13 100 20 0.108101
16 13 100 20 0.103707
17 13 100 20 0.162939
18 13 100 20 0.0905935
19 13 100 20 0.0181603
20 13 100 20 0.0544851
1 14 100 20 0.0345809
4 14 100 20 7.13659e-07
8 14 100 20 0.0345806
9 14 100 20 0.0172911
10 14 100 20 0.0852651
11 14 100 20 0.0518712
12 14 100 20 0.0864487
13 14 100 20 0.0518712
14 14 100 20 0.103692
15 14 100 20 0.0174544
16 14 100 20 0.10372
17 14 100 20 0.077067
18 14 100 20 0.127829
19 14 100 20 0.104335
20 14 100 20 0.103993
1 15 100 20 3.0985e-07
2 15 100 20 4.0467e-07
3 15 100 20 0.0213755
4 15 100 20 0.0213755
5 15 100 20 0.042751
7 15 100 20 0.0213754
8 15 100 20 0.0217051
9 15 100 20 0.0213763
10 15 100 20 0.0419099
11 15 100 20 0.0855106
12 15 100 20 0.0427535
13 15 100 20 0.0641264
14 15 100 20 0.0427509
15 15 100 20 0.0359249
16 15 100 20 0.149693
17 15 100 20 0.0104224
18 15 100 20 0.129191
19 15 100 20 0.159389
20 15 100 20 0.0883699
2 16 100 20 3.95737e-07
3 16 100 20 0.0326108
6 16 100 20 0.0171047
7 16 100 20 0.0163057
8 16 100 20 0.0163057
9 16 100 20 0.0163089
10 16 100 20 0.0326117
11 16 100 20 0.0326114
12 16 100 20 0.0652387
13 16 100 20 0.0652228
14 16 100 20 0.0652237
15 16 100 20 0.0523691
16 16 100 20 0.0815283
17 16 100 20 0.155279
18 16 100 20 0.0978321
19 16 100 20 0.0927831
20 16 100 20 0.160663
2 17 100 20 1.89763e-07
5 17 100 20 2.53761e-06
7 17 100 20 0.0295743
8 17 100 20 0.0147876
9 17 100 20 0.0295778
11 17 100 20 0.00318012
12 17 100 20 0.014787
13 17 100 20 0.042255
14 17 100 20 0.102956
15 17 100 20 0.103468
16 17 100 20 0.030844
17 17 100 20 0.133059
18 17 100 20 0.0739024
19 17 100 20 0.201492
20 17 100 20 0.220113
1 18 100 20 0.0223114
4 18 100 20 4.73537e-07
5 18 100 20 0.0223119
6 18 100 20 0.0669388
7 18 100 20 0.0223119
10 18 100 20 0.0863641
11 18 100 20 0.0617721
12 18 100 20 0.0233019
13 18 100 20 0.0223119
14 18 100 20 0.0567992
15 18 100 20 0.044618
16 18 100 20 0.0882415
17 18 100 20 0.044655
18 18 100 20 0.177387
19 18 100 20 0.10201
20 18 100 20 0.158665
1 19 100 20 0.123498
2 19 100 20 0.0618029
3 19 100 20 0.123605
4 19 100 20 0.0618153
5 19 100 20 0.000147177
7 19 100 20 0.000144421
8 19 100 20 0.12053
9 19 100 20 0.0620916
10 19 100 20 0.000695628
14 19 100 20 1.22341e-05
15 19 100 20 0.133576
16 19 100 20 0.123827
17 19 100 20 0.123552
18 19 100 20 0.000259482
19 19 100 20 0.0644434
1 20 100 20 2.17296e-05
4 20 100 20 4.49205e-05
5 20 100 20 0.0617287
6 20 100 20 0.0616515
7 20 100 20 0.0617255
8 20 100 20 0.0622693
10 20 100 20 0.0617261
11 20 100 20 0.185195
13 20 100 20 0.123367
14 20 100 20 0.123451
16 20 100 20 0.061213
17 20 100 20 0.0980522
19 20 100 20 0.0376009
20 20 100 20 0.0619535
4 21 100 20 0.0626003
7 21 100 20 0.0609929
11 21 100 20 2.34739e-06
13 21 100 20 0.187804
17 21 100 20 0.125203
18 21 100 20 0.125215
19 21 100 20 0.187805
20 21 100 20 0.250377
3 22 100 20 2.1291e-06
4 22 100 20 7.22283e-06
5 22 100 20 6.03323e-06
6 22 100 20 4.71273e-06
7 22 100 20 0.000703336
8 22 100 20 0.000148455
9 22 100 20 0.0239452
10 22 100 20 4.82996e-05
11 22 100 20 3.85928e-05
12 22 100 20 6.10984e-05
13 22 100 20 3.09095e-05
14 22 100 20 5.36578e-05
15 22 100 20 0.106123
16 22 100 20 0.121098
17 22 100 20 0.207544
18 22 100 20 0.105535
19 22 100 20 0.108725
20 22 100 20 0.325926
1 23 100 20 3.26172e-06
2 23 100 20 2.30721e-07
3 23 100 20 3.05426e-06
4 23 100 20 7.16485e-06
5 23 100 20 6.51053e-06
6 23 100 20 2.29542e-06
7 23 100 20 0.000127577
8 23 100 20 0.000544285
9 23 100 20 0.127574
10 23 100 20 0.167438
11 23 100 20 0.166004
12 23 100 20 0.0304013
13 23 100 20 0.000971119
14 23 100 20 0.000550833
15 23 100 20 2.62494e-06
16 23 100 20 0.00139305
17 23 100 20 0.167823
18 23 100 20 0.00217636
19 23 100 20 0.165591
20 23 100 20 0.16938
1 24 100 20 5.80286e-07
2 24 100 20 4.62148e-07
3 24 100 20 7.45082e-07
4 24 100 20 4.65763e-06
5 24 100 20 8.03404e-06
7 24 100 20 2.06431e-06
8 24 100 20 6.0129e-06
10 24 100 20 2.91156e-06
11 24 100 20 3.37536e-06
12 24 100 20 3.90735e-07
13 24 100 20 0.222738
14 24 100 20 0.00207161
15 24 100 20 1.99507e-06
16 24 100 20 0.226999
17 24 100 20 0.0835278
18 24 100 20 0.459431
19 24 100 20 0.00519116
20 24 100 20 9.67702e-06
3 25 100 20 2.34026e-07
4 25 100 20 2.15024e-07
8 25 100 20 1.12761e-06
9 25 100 20 5.16017e-06
10 25 100 20 5.90518e-07
11 25 100 20 2.63187e-06
12 25 100 20 0.00157682
13 25 100 20 0.0405291
14 25 100 20 0.100854
15 25 100 20 0.201636
16 25 100 20 3.13606e-06
17 25 100 20 9.3151e-07
18 25 100 20 0.201574
19 25 100 20 0.252162
20 25 100 20 0.201653
2 26 100 20 3.22576e-06
9 26 100 20 5.51673e-07
12 26 100 20 8.49801e-06
13 26 100 20 0.0154506
14 26 100 20 8.59053e-05
15 26 100 20 0.000103278
16 26 100 20 0.000137752
17 26 100 20 0.482922
20 26 100 20 0.501288
2 27 100 20 7.08754e-05
14 27 100 20 0.00481327
16 27 100 20 0.768656
17 27 100 20 0.22646
1 28 100 20 0.000181496
3 28 100 20 1.45619e-05
4 28 100 20 4.33928e-07
8 28 100 20 1.40089e-06
13 28 100 20 5.65517e-07
15 28 100 20 8.14781e-06
17 28 100 20 3.57557e-05
18 28 100 20 0.333222
19 28 100 20 0.333268
20 28 100 20 0.333268
1 0 100 21 0.037822
2 0 100 21 0.0490931
3 0 100 21 0.0517228
4 0 100 21 0.0426797
5 0 100 21 0.0570253
6 0 100 21 0.0420966
7 0 100 21 0.0410919
8 0 100 21 0.052409
9 0 100 21 0.0611864
10 0 100 21 0.0458304
11 0 100 21 0.0388493
12 0 100 21 0.0582963
13 0 100 21 0.0411499
14 0 100 21 0.0522659
15 0 100 21 0.068957
16 0 100 21 0.0687804
17 0 100 21 0.0630467
18 0 100 21 0.0499562
19 0 100 21 0.037953
20 0 100 21 0.0397876
21 0 100 21 4.16511e-07
1 1 100 21 0.576319
2 1 100 21 0.211864
3 1 100 21 0.0600386
4 1 100 21 0.0478899
5 1 100 21 0.0241645
6 1 100 21 0.0343656
7 1 100 21 5.30826e-06
8 1 100 21 3.42934e-07
9 1 100 21 3.15846e-06
10 1 100 21 0.0119734
13 1 100 21 4.04086e-05
14 1 100 21 1.2132e-05
15 1 100 21 0.0119747
16 1 100 21 0.0119728
17 1 100 21 1.4286e-05
19 1 100 21 0.00935702
20 1 100 21 2.87194e-06
21 1 100 21 2.22226e-06
1 2 100 21 0.0657774
2 2 100 21 0.286225
3 2 100 21 0.208284
4 2 100 21 0.118748
5 2 100 21 0.0591226
6 2 100 21 0.0612428
7 2 100 21 0.070602
8 2 100 21 0.0235329
9 2 100 21 0.0235641
10 2 100 21 0.0235326
11 2 100 21 0.0235692
12 2 100 21 0.000427514
13 2 100 21 0.0117662
17 2 100 21 2.64343e-05
19 2 100 21 1.66008e-06
20 2 100 21 0.011809
21 2 100 21 0.0117683
1 3 100 21 0.0298989
2 3 100 21 0.0820611
3 3 100 21 0.222095
4 3 100 21 0.125255
5 3 100 21 0.15208
6 3 100 21 0.00139532
7 3 100 21 0.0691193
8 3 100 21 0.0965593
9 3 100 21 0.0552998
10 3 100 21 0.0414756
11 3 100 21 0.0275698
12 3 100 21 0.0414762
13 3 100 21 0.0138252
14 3 100 21 0.0138252
17 3 100 21 0.000151702
19 3 100 21 0.0138252
21 3 100 21 0.0140872
1 4 100 21 0.0348927
2 4 100 21 0.0584848
3 4 100 21 0.0732678
4 4 100 21 0.198964
5 4 100 21 0.116708
6 4 100 21 0.137664
7 4 100 21 0.0936684
8 4 100 21 0.0347214
9 4 100 21 0.0589286
10 4 100 21 0.0233967
11 4 100 21 0.0267711
12 4 100 21 0.0117033
13 4 100 21 0.0116974
14 4 100 21 0.0328673
15 4 100 21 0.0123764
16 4 100 21 0.0466967
17 4 100 21 6.56966e-06
18 4 100 21 0.015486
19 4 100 21 0.0116971
20 4 100 21 2.26987e-06
1 5 100 21 0.0269199
2 5 100 21 0.0673001
3 5 100 21 0.0942203
4 5 100 21 0.0826288
5 5 100 21 0.0538674
6 5 100 21 0.149237
7 5 100 21 0.103633
8 5 100 21 0.0538409
9 5 100 21 0.0538324
10 5 100 21 0.0543896
11 5 100 21 0.0673004
12 5 100 21 0.0574588
13 5 100 21 0.0269007
14 5 100 21 0.0160101
15 5 100 21 0.0403275
16 5 100 21 1.24856e-05
17 5 100 21 0.01346
18 5 100 21 0.01346
19 5 100 21 0.01346
20 5 100 21 0.0116709
21 5 100 21 7.00804e-05
1 6 100 21 0.0535937
2 6 100 21 0.027203
3 6 100 21 0.0535939
4 6 100 21 0.106791
5 6 100 21 0.107189
6 6 100 21 0.0938604
7 6 100 21 0.0939843
8 6 100 21 0.0829126
9 6 100 21 0.058082
10 6 100 21 0.0538795
11 6 100 21 0.0497858
12 6 100 21 0.0134329
13 6 100 21 0.0539137
14 6 100 21 0.0133571
15 6 100 21 0.0156552
16 6 100 21 0.0139864
17 6 100 21 0.0134233
18 6 100 21 0.0267195
19 6 100 21 0.0151362
20 6 100 21 0.0267535
21 6 100 21 0.0267471
1 7 100 21 0.0143837
2 7 100 21 0.0287673
3 7 100 21 0.0287687
4 7 100 21 0.0272241
5 7 100 21 0.0431674
6 7 100 21 0.0438808
7 7 100 21 0.114635
8 7 100 21 0.0863039
9 7 100 21 0.117974
10 7 100 21 0.122783
11 7 100 21 0.100698
12 7 100 21 0.0863117
13 7 100 21 0.026844
14 7 100 21 9.7342e-06
15 7 100 21 0.0287827
16 7 100 21 0.0719182
17 7 100 21 1.28258e-05
18 7 100 21 0.0575346
19 7 100 21 7.81052e-07
1 8 100 21 0.0228578
2 8 100 21 0.022541
3 8 100 21 0.0342763
4 8 100 21 0.0345344
5 8 100 21 0.0580567
6 8 100 21 0.102046
7 8 100 21 0.0798132
8 8 100 21 0.0573056
9 8 100 21 0.0372831
10 8 100 21 0.0915649
11 8 100 21 0.0754069
12 8 100 21 0.0428496
13 8 100 21 0.0457321
14 8 100 21 0.0685506
15 8 100 21 0.0343179
16 8 100 21 5.75608e-06
17 8 100 21 0.0457047
18 8 100 21 0.0228632
19 8 100 21 0.0557371
20 8 100 21 0.0457018
21 8 100 21 0.0228519
1 9 100 21 1.24369e-06
2 9 100 21 0.0154881
3 9 100 21 3.55038e-07
4 9 100 21 0.0154881
6 9 100 21 0.07637
7 9 100 21 0.0471336
8 9 100 21 0.106722
9 9 100 21 0.108011
10 9 100 21 0.0776053
11 9 100 21 0.0881827
12 9 100 21 0.0465042
13 9 100 21 0.124163
14 9 100 21 0.0154881
15 9 100 21 0.0309765
16 9 100 21 0.105965
17 9 100 21 0.00248711
18 9 100 21 0.0154717
19 9 100 21 0.0309778
20 9 100 21 0.0464738
21 9 100 21 0.0464909
1 10 100 21 0.0267561
2 10 100 21 0.0133764
3 10 100 21 0.0134162
4 10 100 21 0.0267534
5 10 100 21 0.0267528
6 10 100 21 2.5987e-05
7 10 100 21 0.0267861
8 10 100 21 0.0401292
9 10 100 21 0.0267745
10 10 100 21 0.05359
11 10 100 21 0.032109
12 10 100 21 0.120219
13 10 100 21 0.105024
14 10 100 21 0.0897415
15 10 100 21 0.117522
16 10 100 21 0.0557846
17 10 100 21 0.091483
18 10 100 21 0.0535056
19 10 100 21 0.0133764
20 10 100 21 0.0401207
21 10 100 21 0.0267528
2 11 100 21 0.0182708
4 11 100 21 0.0182707
6 11 100 21 0.0548239
8 11 100 21 0.0548539
9 11 100 21 0.0182848
10 11 100 21 0.063286
11 11 100 21 0.0932123
12 11 100 21 0.0854885
13 11 100 21 0.0292092
14 11 100 21 0.0669832
15 11 100 21 0.155347
16 11 100 21 0.0914909
17 11 100 21 0.109591
18 11 100 21 0.0455634
19 11 100 21 0.0221812
20 11 100 21 0.0183304
21 11 100 21 0.0548124
1 12 100 21 0.0178536
2 12 100 21 4.52569e-07
3 12 100 21 0.0392171
4 12 100 21 0.0178607
5 12 100 21 0.0535822
6 12 100 21 1.73762e-05
7 12 100 21 0.0357305
8 12 100 21 0.0400042
9 12 100 21 0.0713927
10 12 100 21 0.0180748
11 12 100 21 0.118965
12 12 100 21 0.18821
13 12 100 21 0.0894428
14 12 100 21 0.0195302
15 12 100 21 0.0179212
16 12 100 21 0.0355369
17 12 100 21 0.0180085
18 12 100 21 0.0530341
19 12 100 21 0.0893026
20 12 100 21 0.035723
21 12 100 21 0.0405916
2 13 100 21 5.60882e-07
3 13 100 21 0.012733
4 13 100 21 0.031663
5 13 100 21 0.031663
6 13 100 21 0.0162891
7 13 100 21 0.031663
8 13 100 21 0.0332381
9 13 100 21 0.0783431
10 13 100 21 0.0692168
11 13 100 21 0.0633257
12 13 100 21 0.0237475
13 13 100 21 0.106709
14 13 100 21 0.101235
15 13 100 21 0.0635939
17 13 100 21 0.0476406
18 13 100 21 0.016065
19 13 100 21 0.0632702
20 13 100 21 0.130443
21 13 100 21 0.0791604
2 14 100 21 4.865e-07
4 14 100 21 0.0159204
5 14 100 21 0.0318422
6 14 100 21 0.0159231
7 14 100 21 3.30203e-07
8 14 100 21 1.151e-06
9 14 100 21 0.031858
10 14 100 21 0.0734749
11 14 100 21 4.60356e-06
12 14 100 21 0.0318361
13 14 100 21 0.0961097
14 14 100 21 0.159208
15 14 100 21 0.111428
16 14 100 21 0.0956113
17 14 100 21 0.0819905
18 14 100 21 0.0952716
19 14 100 21 0.0477534
20 14 100 21 0.016256
21 14 100 21 0.09551
2 15 100 21 8.31046e-07
3 15 100 21 3.0537e-07
5 15 100 21 0.0175759
6 15 100 21 0.0478157
8 15 100 21 0.0351547
10 15 100 21 0.0878797
11 15 100 21 0.0878745
12 15 100 21 0.0175978
13 15 100 21 0.0190673
14 15 100 21 0.140478
15 15 100 21 0.0878794
16 15 100 21 0.0541781
17 15 100 21 0.0881615
18 15 100 21 0.123028
19 15 100 21 0.0702789
20 15 100 21 0.0351517
21 15 100 21 0.0878779
1 16 100 21 1.29176e-06
2 16 100 21 1.67232e-06
3 16 100 21 0.010186
4 16 100 21 0.0101863
5 16 100 21 0.010186
6 16 100 21 0.0305579
7 16 100 21 0.0713017
8 16 100 21 0.0407438
9 16 100 21 0.030558
10 16 100 21 0.0101857
11 16 100 21 0.0307919
12 16 100 21 0.0407438
13 16 100 21 0.076136
14 16 100 21 0.0305731
15 16 100 21 0.0250878
16 16 100 21 0.0611308
17 16 100 21 0.13207
18 16 100 21 0.111912
19 16 100 21 0.0830243
20 16 100 21 0.103197
21 16 100 21 0.0914245
1 17 100 21 6.34094e-06
2 17 100 21 1.60168e-05
5 17 100 21 0.0211784
6 17 100 21 0.0392104
7 17 100 21 0.0196052
8 17 100 21 0.0588121
9 17 100 21 0.0196051
10 17 100 21 0.0196052
11 17 100 21 0.0588781
12 17 100 21 0.0392104
13 17 100 21 0.0392103
14 17 100 21 0.041871
15 17 100 21 0.0209188
16 17 100 21 0.078419
17 17 100 21 0.0575131
18 17 100 21 0.0962944
19 17 100 21 0.115091
20 17 100 21 0.117676
21 17 100 21 0.15688
3 18 100 21 4.25708e-07
4 18 100 21 6.2436e-07
5 18 100 21 0.0170022
6 18 100 21 1.47374e-06
7 18 100 21 0.0169979
8 18 100 21 0.0129219
9 18 100 21 0.0680013
10 18 100 21 0.0339953
11 18 100 21 0.0516213
12 18 100 21 0.0339955
13 18 100 21 0.050988
14 18 100 21 0.0656847
15 18 100 21 0.0339966
16 18 100 21 0.101843
17 18 100 21 0.0519009
18 18 100 21 0.0808083
19 18 100 21 0.0958504
20 18 100 21 0.136072
21 18 100 21 0.148318
4 19 100 21 0.0232595
7 19 100 21 0.0234203
8 19 100 21 0.0234203
10 19 100 21 0.0234203
11 19 100 21 0.0234172
12 19 100 21 0.0234203
13 19 100 21 0.0702669
14 19 100 21 0.0469133
15 19 100 21 0.0703074
16 19 100 21 0.0468332
17 19 100 21 0.0710607
18 19 100 21 0.0463129
19 19 100 21 0.245439
20 19 100 21 0.140528
21 19 100 21 0.121981
1 20 100 21 1.16902e-06
9 20 100 21 0.0442664
10 20 100 21 0.0885408
11 20 100 21 0.0425354
12 20 100 21 0.1328
13 20 100 21 0.0890319
14 20 100 21 0.0885557
15 20 100 21 0.044612
16 20 100 21 0.0442664
17 20 100 21 0.0406431
18 20 100 21 0.0452652
20 20 100 21 0.090485
21 20 100 21 0.248997
3 21 100 21 1.53765e-06
4 21 100 21 0.000174674
5 21 100 21 0.0763167
6 21 100 21 0.0428567
7 21 100 21 0.0512457
8 21 100 21 0.050876
9 21 100 21 0.0254395
10 21 100 21 0.0254395
11 21 100 21 0.0254519
12 21 100 21 0.00171195
13 21 100 21 0.0254383
14 21 100 21 0.0508638
15 21 100 21 0.0254094
17 21 100 21 0.0254988
18 21 100 21 0.101758
19 21 100 21 0.162146
20 21 100 21 0.126936
21 21 100 21 0.182436
1 22 100 21 3.47623e-05
3 22 100 21 5.01418e-05
11 22 100 21 0.00277917
12 22 100 21 1.37877e-06
14 22 100 21 8.31517e-07
15 22 100 21 1.01136e-05
17 22 100 21 0.0817233
18 22 100 21 0.163446
19 22 100 21 0.189184
20 22 100 21 0.3176
21 22 100 21 0.245169
1 23 100 21 1.15958e-06
3 23 100 21 4.44678e-07
4 23 100 21 4.06175e-05
5 23 100 21 5.29567e-05
6 23 100 21 2.67659e-06
7 23 100 21 4.88283e-05
8 23 100 21 0.164386
9 23 100 21 0.0810607
10 23 100 21 0.000120878
11 23 100 21 0.0808123
12 23 100 21 0.0830198
13 23 100 21 0.00172395
14 23 100 21 0.0844035
15 23 100 21 0.084137
16 23 100 21 0.168514
17 23 100 21 0.000201689
18 23 100 21 2.12795e-05
19 23 100 21 0.000355357
20 23 100 21 2.85764e-06
21 23 100 21 0.251094
1 24 100 21 1.80492e-07
5 24 100 21 7.68121e-07
8 24 100 21 3.603e-07
9 24 100 21 9.12583e-05
10 24 100 21 1.33524e-06
11 24 100 21 1.83068e-06
12 24 100 21 1.69194e-05
13 24 100 21 0.0590689
14 24 100 21 1.74427e-05
15 24 100 21 0.142577
16 24 100 21 0.155185
17 24 100 21 0.640885
18 24 100 21 0.00106221
19 24 100 21 0.000907425
20 24 100 21 6.03477e-06
21 24 100 21 0.000177987
5 25 100 21 0.000539279
6 25 100 21 1.90553e-05
7 25 100 21 4.91478e-07
9 25 100 21 1.47082e-06
10 25 100 21 0.000446319
11 25 100 21 1.34868e-05
12 25 100 21 0.000329634
13 25 100 21 7.80478e-06
14 25 100 21 0.235372
15 25 100 21 0.000187797
16 25 100 21 0.00211187
17 25 100 21 2.38141e-05
18 25 100 21 0.297365
19 25 100 21 0.228733
21 25 100 21 0.234849
15 26 100 21 9.30925e-06
16 26 100 21 1.21917e-05
17 26 100 21 0.00230935
18 26 100 21 0.325744
19 26 100 21 0.335102
20 26 100 21 0.333985
21 26 100 21 0.00283888
15 27 100 21 4.37962e-05
16 27 100 21 2.38559e-05
17 27 100 21 0.000396171
18 27 100 21 0.00098601
19 27 100 21 0.00220439
20 27 100 21 0.00555725
21 27 100 21 0.990789
7 28 100 21 0.356562
14 28 100 21 0.643438
1 0 100 22 0.0329176
2 0 100 22 0.0365914
3 0 100 22 0.0464247
4 0 100 22 0.0592324
5 0 100 22 0.0532418
6 0 100 22 0.0603208
7 0 100 22 0.0410832
8 0 100 22 0.0498294
9 0 100 22 0.0431623
10 0 100 22 0.0350026
11 0 100 22 0.0410972
12 0 100 22 0.0440273
13 0 100 22 0.0567313
14 0 100 22 0.079662
15 0 100 22 0.0373011
16 0 100 22 0.0271789
17 0 100 22 0.0682249
18 0 100 22 0.0654178
19 0 100 22 0.0293623
20 0 100 22 0.0544912
21 0 100 22 0.0386992
22 0 100 22 3.55194e-07
1 1 100 22 0.600355
2 1 100 22 0.205793
3 1 100 22 0.064596
4 1 100 22 0.0387566
5 1 100 22 0.0129191
6 1 100 22 0.012919
8 1 100 22 0.0129189
10 1 100 22 1.05294e-06
11 1 100 22 1.4814e-06
12 1 100 22 1.91954e-07
14 1 100 22 5.69181e-07
18 1 100 22 0.0129189
19 1 100 22 0.0258998
20 1 100 22 0.0129198
22 1 100 22 8.35076e-07
1 2 100 22 0.0351317
2 2 100 22 0.365354
3 2 100 22 0.241094
4 2 100 22 0.0745651
5 2 100 22 0.0737448
6 2 100 22 0.074459
7 2 100 22 0.0190325
8 2 100 22 0.0419534
9 2 100 22 5.72886e-07
11 2 100 22 0.0186395
14 2 100 22 5.62104e-07
19 2 100 22 4.86437e-06
20 2 100 22 0.0186406
21 2 100 22 0.0372811
22 2 100 22 9.78588e-05
1 3 100 22 0.0415286
2 3 100 22 0.147577
3 3 100 22 0.257951
4 3 100 22 0.184402
5 3 100 22 0.0737317
6 3 100 22 0.0553119
7 3 100 22 0.0553058
8 3 100 22 0.110534
9 3 100 22 0.0184325
11 3 100 22 3.33121e-06
13 3 100 22 0.0184325
14 3 100 22 0.0184366
15 3 100 22 3.47201e-06
16 3 100 22 9.13582e-07
17 3 100 22 1.47012e-06
18 3 100 22 1.64796e-06
22 3 100 22 0.0183462
1 4 100 22 0.0823818
2 4 100 22 0.0626529
3 4 100 22 0.104032
4 4 100 22 0.219928
5 4 100 22 0.150517
6 4 100 22 0.0686707
7 4 100 22 0.02122
8 4 100 22 0.0603571
9 4 100 22 0.0449217
10 4 100 22 0.0208843
11 4 100 22 0.0417655
12 4 100 22 0.0625307
13 4 100 22 7.74402e-07
14 4 100 22 7.60759e-07
15 4 100 22 0.0392499
16 4 100 22 0.0208843
19 4 100 22 2.50489e-07
21 4 100 22 2.74315e-06
22 4 100 22 4.95254e-07
3 5 100 22 0.0520469
4 5 100 22 0.00228044
5 5 100 22 0.209755
6 5 100 22 0.20862
7 5 100 22 0.15909
8 5 100 22 0.159177
9 5 100 22 0.104358
10 5 100 22 0.0781138
11 5 100 22 0.0259982
12 5 100 22 0.000166448
13 5 100 22 4.02179e-07
14 5 100 22 1.07672e-06
15 5 100 22 2.83451e-05
16 5 100 22 3.08731e-07
18 5 100 22 0.000351421
19 5 100 22 2.31278e-06
20 5 100 22 1.04696e-05
21 5 100 22 4.6689e-07
1 6 100 22 6.62564e-06
2 6 100 22 0.0485932
3 6 100 22 0.0652437
4 6 100 22 0.0492368
5 6 100 22 0.0982258
6 6 100 22 0.0652483
7 6 100 22 0.0815687
8 6 100 22 0.0163169
9 6 100 22 0.131133
10 6 100 22 0.163369
11 6 100 22 0.0326248
12 6 100 22 0.0489368
13 6 100 22 0.0163123
15 6 100 22 0.0455814
16 6 100 22 0.0326593
17 6 100 22 0.0559915
18 6 100 22 0.0163123
19 6 100 22 0.032635
20 6 100 22 4.20491e-06
22 6 100 22 3.49739e-07
1 7 100 22 6.24903e-05
3 7 100 22 4.45086e-06
4 7 100 22 0.0187226
5 7 100 22 0.0530064
6 7 100 22 0.125074
7 7 100 22 0.0733361
8 7 100 22 0.0534961
9 7 100 22 0.0711516
10 7 100 22 0.0711342
11 7 100 22 0.124505
12 7 100 22 0.142248
13 7 100 22 0.0368926
14 7 100 22 0.017811
15 7 100 22 0.0168965
16 7 100 22 0.0711477
17 7 100 22 0.0177865
19 7 100 22 0.0177933
20 7 100 22 0.0177864
21 7 100 22 0.0533593
22 7 100 22 0.0177864
1 8 100 22 0.0208405
2 8 100 22 0.0418647
3 8 100 22 0.0208463
4 8 100 22 0.0208406
5 8 100 22 0.124617
6 8 100 22 0.0818175
7 8 100 22 0.150916
8 8 100 22 0.104202
9 8 100 22 0.0626336
10 8 100 22 0.0208403
11 8 100 22 0.0416793
12 8 100 22 0.0842623
13 8 100 22 0.103264
14 8 100 22 0.0168905
15 8 100 22 0.0208406
16 8 100 22 5.05211e-05
17 8 100 22 0.0208406
18 8 100 22 0.0208403
19 8 100 22 8.80453e-07
20 8 100 22 0.021025
21 8 100 22 4.72938e-05
22 8 100 22 0.0208403
1 9 100 22 9.64681e-05
2 9 100 22 3.77046e-06
3 9 100 22 0.0156338
4 9 100 22 0.04691
5 9 100 22 0.0156367
6 9 100 22 0.0625906
7 9 100 22 0.109424
8 9 100 22 0.0781612
9 9 100 22 0.0160176
10 9 100 22 0.0936056
11 9 100 22 0.031274
12 9 100 22 0.0313905
13 9 100 22 0.0625493
14 9 100 22 0.0937977
15 9 100 22 0.04691
16 9 100 22 0.0614143
17 9 100 22 0.0781657
18 9 100 22 0.0156372
19 9 100 22 0.04691
20 9 100 22 0.0156376
21 9 100 22 0.0469605
22 9 100 22 0.0312734
2 10 100 22 0.0202466
4 10 100 22 0.0399464
5 10 100 22 0.0206669
6 10 100 22 0.0400045
7 10 100 22 0.0599564
8 10 100 22 0.0528113
9 10 100 22 0.119693
10 10 100 22 0.0400353
11 10 100 22 0.099866
12 10 100 22 0.0199732
13 10 100 22 0.0995619
14 10 100 22 0.0753804
15 10 100 22 0.152074
16 10 100 22 0.0599021
17 10 100 22 0.0199732
18 10 100 22 0.0399486
19 10 100 22 0.0399471
20 10 100 22 4.95436e-06
22 10 100 22 8.45113e-06
1 11 100 22 5.87147e-06
2 11 100 22 0.0374443
3 11 100 22 0.0372994
4 11 100 22 2.56758e-07
5 11 100 22 0.0374518
6 11 100 22 0.0190025
7 11 100 22 0.0187522
8 11 100 22 0.0747553
9 11 100 22 0.0748879
10 11 100 22 0.0561644
11 11 100 22 0.0936107
12 11 100 22 0.0561309
13 11 100 22 0.0947368
14 11 100 22 0.0561665
15 11 100 22 0.116249
16 11 100 22 0.0935024
17 11 100 22 0.0561664
18 11 100 22 0.0214931
19 11 100 22 0.0187356
20 11 100 22 0.0187222
22 11 100 22 0.0187225
2 12 100 22 0.0142305
3 12 100 22 0.0142305
4 12 100 22 0.0284643
6 12 100 22 0.0142318
7 12 100 22 0.0569218
8 12 100 22 0.0569219
9 12 100 22 0.0781077
10 12 100 22 0.0988044
11 12 100 22 0.105298
12 12 100 22 0.0284633
13 12 100 22 0.0604962
14 12 100 22 0.0142335
15 12 100 22 0.0700381
16 12 100 22 0.0708558
17 12 100 22 0.0906335
18 12 100 22 0.0711518
19 12 100 22 0.0284647
20 12 100 22 0.04269
21 12 100 22 0.0557623
1 13 100 22 0.0214502
2 13 100 22 1.2932e-06
3 13 100 22 0.0213757
5 13 100 22 0.0214789
6 13 100 22 0.0214475
9 13 100 22 0.0214743
10 13 100 22 0.0643537
11 13 100 22 0.0703466
12 13 100 22 0.0857649
13 13 100 22 0.042901
14 13 100 22 0.0198898
15 13 100 22 0.0214505
16 13 100 22 0.0429299
17 13 100 22 0.0857675
18 13 100 22 0.0967959
19 13 100 22 0.107256
20 13 100 22 0.0632607
21 13 100 22 0.0643066
22 13 100 22 0.127749
1 14 100 22 1.3647e-06
2 14 100 22 1.18345e-06
4 14 100 22 0.0195453
5 14 100 22 2.88839e-07
8 14 100 22 3.49008e-06
9 14 100 22 0.0195117
10 14 100 22 0.0392876
11 14 100 22 0.13097
12 14 100 22 0.0977377
13 14 100 22 0.0586337
14 14 100 22 0.138248
15 14 100 22 0.0390855
16 14 100 22 0.136755
17 14 100 22 0.0195448
18 14 100 22 0.0586452
19 14 100 22 0.0656342
20 14 100 22 0.117191
21 14 100 22 0.039658
22 14 100 22 0.0195463
3 15 100 22 0.0431884
4 15 100 22 0.0556737
5 15 100 22 0.0695928
6 15 100 22 0.0417553
7 15 100 22 0.0417552
8 15 100 22 0.0278368
9 15 100 22 0.0417561
11 15 100 22 0.0397224
12 15 100 22 0.0556347
13 15 100 22 0.0695918
14 15 100 22 0.0825956
15 15 100 22 0.0139185
16 15 100 22 0.0417553
17 15 100 22 0.0496973
18 15 100 22 0.0701419
19 15 100 22 0.0970655
20 15 100 22 0.0564125
21 15 100 22 0.0278618
22 15 100 22 0.0740444
3 16 100 22 3.14894e-06
4 16 100 22 0.0142311
6 16 100 22 0.0152858
7 16 100 22 0.0142315
8 16 100 22 0.0284621
9 16 100 22 0.0569482
10 16 100 22 0.0569238
11 16 100 22 0.00207919
12 16 100 22 0.0427119
13 16 100 22 0.0284621
14 16 100 22 0.000890761
15 16 100 22 0.109588
16 16 100 22 0.0568749
17 16 100 22 0.0455279
18 16 100 22 0.0853865
