secret 小小的 5.01263e-06
security 对外 7.89005e-07
in 贪大求全 1.3466e-09
. 齐格曼 5.29967e-09
enrich 、 4.36613e-05
is 没有 4.28091e-08
are 交通运输 4.43484e-08
economy 部分 1.03602e-05
killed 群死 5.51991e-07
threa 心脏病 1.53119e-05
nurses 会诊 2.57617e-05
recognizable 恒星 0.00107934
on 吉普车 4.16643e-07
China 同比 3.26965e-07
@-@ 、 4.46771e-07
economy 增速 7.87915e-06
economy 指标 5.12586e-06
after 澳大利亚 2.19055e-06
while 经济合作组织 1.53758e-07
Police 以及 1.16236e-05
week 早些时候 0.00369521
emergency 拨打 0.0277951
current 这支 0.0345603
to 一言一行 6.95854e-06
during 在 5.95878e-06
@-@ 寻医 4.19657e-05
dined 却 0.662921
years 一直 5.33813e-06
by 威胁 4.13936e-05
&apos;s 他 1.04497e-08
get 起来 1.5585e-05
his 左路 4.74598e-05
enrich 元素 0.073848
are 教室 1.16744e-06
China NULL 6.66669e-06
some 不久前 3.52048e-05
some NULL 0.00282577
competition 比赛 7.69554e-06
competition 全国 0.000243558
. 火星 2.31885e-08
probe 要 0.00131301
told Steve 0.000660816
say 表示 1.61633e-06
&apos;t 不知 9.21526e-05
as 疑点 1.04704e-05
cut 发作 0.000407955
operations 因为 3.10518e-05
in 关停 0.000115261
they 帮助 0.016699
people 背负 0.000594197
people 远离 0.000468555
people 需要 0.00961418
&quot; 这座 3.59592e-07
Xiao 他怕 0.1249
&quot; 纳税 1.03058e-08
release 之前 0.000729147
after 部队 3.04365e-07
on 孕妈 2.59882e-05
while 虽然 0.0014086
&quot; 一无所知 1.15167e-08
&apos;s 恐怖组织 0.000146973
that 侮辱 3.17237e-05
shows 滤镜 0.00354042
that ： 0.00270218
says 这一 0.133849
says 表示 0.0644741
@-@ 赛季 0.00317433
@-@ 下 5.45364e-05
were 热情 3.47828e-07
China 是 0.00637812
are 旗舰 1.3701e-06
been 完成 0.0278326
Wuyan 觉得 0.389828
yuan 436 4.54453e-06
covering 巨嘴鸟 1
passengers 左右 1.61083e-05
passengers 可以 1.45558e-05
raising 股份 3.11684e-05
meanwhile 同时 0.999972
. 世界杯赛 1.22646e-06
Martian 减速 0.0020773
Martian NULL 0.000149639
at 着陆器 0.000587273
from 同村 0.000297915
Xiamen 东园 0.0266337
be 规避 2.89708e-05
on 已 0.00123338
ZZ 新诚志卓 0.00126919
Shuangtao 精细化工 0.998064
subscription 有偿 0.00133518
Province 开发 0.130517
2.5 多万元 0.989821
Police 警方 0.0978591
Police 康沃尔郡 0.0769229
&apos;this 今天 0.110281
peeled 放回 0.0512163
were 这样的话 0.0041595
as 假冒 0.000263502
cut 心脏病 3.36723e-05
officials 接受 0.296237
20,000 20 0.000115183
winner 练马师 0.0231417
do 探求 0.0033366
we 私下 1.96929e-05
fresh 成绩 0.38995
point 市场 0.137674
from 房贷 0.0013442
services 房贷 5.47175e-05
denied 房贷 0.332491
not 结清 0.000249211
who 名下 0.00819776
people 名下 0.00287311
property 楼市 0.0362243
introduce 楼市 0.095238
will 南京 0.000701366
Nanjing 南京 1
Hefei 合肥 0.861235
restriction 限购 1
@-@ 二线 0.00236383
second 二线 0.0332017
Suzhou 苏州 0.027473
deal 新政 0.131709
new 新政 0.00825736
regulation 调控 0.854964
of 新政 1.76513e-08
of 此项 0.000160814
the 调控 4.13609e-05
after 此项 0.00229605
generalized 一概而论 1
be 一概而论 0.00128164
corporate 本身 0.50001
on 一概而论 0.000218579
companies 上市 0.0352512
results 业绩 0.0262151
sagged 业绩 1
securities 回归 0.923016
return 证券市场 0.0980083
CITIC 显得 0.396868
International 中信证券 0.0860049
China 中信证券 0.00747954
Bank 中银国际 0.0349605
problems 先天不足 0.0191642
inherent 先天不足 1
many 先天不足 0.00439831
not 不算 0.00114997
Securities 先天不足 0.0435127
be 挂牌 0.00153796
it 挂牌 0.000704528
according 挂牌 0.00252473
two 招股 0.00277541
special 招股 0.00684066
not 招股 0.000766649
market 平淡 0.0255195
. 招股 0.000102362
. H股 0.000204725
shares H股 0.0346564
sale 光大 0.19354
for 光大 0.000304436
this 光大 0.000612007
meet 迎接 0.137806
Committee 一轮 0.0124581
International 一轮 0.0430025
seems 国际奥委会 0.187466
aspects 诸多方面 1
style 风格 0.599982
language 语言 0.507043
form 形态 0.199418
mode 传播方式 0.0208936
lot 传播方式 0.0153914
2012 与否 0.00914906
while 与否 0.00282485
Committee 与否 0.00711891
received 会费 0.0530344
who 会费 0.0163955
covers 年度 0.54501
municipal 办 1
self 自查 0.06106
membership 收据 0.000154436
membership 统一 0.999846
group 统一 0.132867
receipts 收据 0.998632
unified 统一 1
Social 北京市 0.368253
Beijing 北京市 0.0118883
largest 福州 0.0414457
one 陈振龙 0.00329943
introducing 最广 1
among 番薯 0.0628961
three 主流 0.000478115
are 主流 0.00147554
there 主流 0.00196581
current 较为 0.0668665
versions 纷繁 1
different 纷繁 0.0106477
many 纷繁 0.00439811
potato 线路 1
are 学界 0.00849141
are 引进 0.00635847
potatoes 引进 0.360001
question 何时 0.0774967
space 搁置 0.0265281
shelved 一事 1
bad 搞破坏 0.028139
plotting 搞破坏 1
were 存有 0.0131861
this 一事 0.000762745
this 做会 5.95639e-05
owners 个别 0.0869611
cultural 人文 0.0441614
ecology 自然生态 0.500001
leisure 两大 1
marine 海洋环境 1
boasts 海洋环境 0.123014
Wai 围头村 1
from 湖上 0.00269085
stay 救生衣 0.0555924
confronted 危险 0.666667
do 者 0.060238
deepest 南湖公园 1
Area 最深处 0.666667
Water 最深处 1
Park 南湖 0.295448
Management 科科长 0.407767
Zheng 郑建军 0.571429
Journal 天文学 1
organization 社团 0.0621073
three 三篇 0.0355639
in 天文学 0.000121866
speak 舞鞋 0.207411
so 收起 0.00170531
&apos; 收起 0.00581692
hang 收起 1
their 收起 0.00121964
when 何时 0.00782213
about 何时 0.00865171
learn 何时 0.0282184
lot 舞鞋 0.026935
stellar 双向 0.247395
theoretical 双向 1
compare 实验室 1
ideal 宇宙 0.429314
an 宇宙 0.00535339
serves 较近 1
it 较近 0.000891759
close 较近 0.0325676
whereas 最快 1
be 最轻 0.00256327
tend 往往 1
ballet 芭蕾舞 1
smaller 体型 0.525711
pirouetting 体型 1
likens 舞者 1
-- 黑子 0.0948913
recognizable 黑子 0.998921
tracking 太阳黑子 1
by 太阳黑子 0.00115154
rate 黑子 0.000407755
each 追踪 0.0550416
measures 追踪 9.10743e-05
begins 减慢 0.666663
braking 制动 1
enact 制动 1
fields 磁场 1
&apos; 磁场 0.00775587
travel 风 0.0198809
wind 风 0.142857
stellar 风 0.250868
maturing 成熟 1
will 一生 0.000350456
as 一生 0.00131141
spinning 一生 1
they 一生 0.000900355
ago 成年期 0.0033285
years 成年期 0.00488925
born 1.25 0.0698365
having 1.25 0.142285
now 成年期 0.00453871
light 光年 0.0413593
445 光年 1
situated 445 1
Processing 加州理工学院 1
Infrared 加州理工学院 1
at 红外 0.00236093
scientist 红外 0.59941
solar 帕萨迪纳 0.215551
about 太阳系 0.00144517
more 太阳系 0.000692182
learn 太阳系 0.00939567
star 太阳系 0.0183767
star 星团 0.118123
as 周期 0.00150135
at 周期 0.000674552
understand 天文学家 0.112333
helping 天文学家 0.281684
stars 自转 0.0666704
among 完整 0.0286279
complete 完整 0.0364855
collect 采集 0.794275
astronomers 天文学家 1
has 望远镜 0.00110787
by 使命 0.00287885
Pleiades 星团 0.000152645
rates 转速 0.0289338
spin 转速 0.0208807
around 支出 0.0139514
spending 支出 1
billion 支出 0.021965
1.4 支出 1
$ 支出 0.0262177
right 整个 0.0461449
regional 至关重要 0.0857126
vital 至关重要 0.136174
biggest 安德森 0.051717
one 安德森 0.00197967
cosmic 宇宙 0.685725
met 议会 0.10771
compounded 原油价格 1
oil 原油价格 0.0043187
crude 原油价格 0.0171311
lower 原油价格 0.194424
@-@ 油气 0.000709149
payroll 数千名 1
from 裁减 0.00134543
people 裁减 0.00143655
trimmed 裁减 1
part 数千名 0.0162971
its 数千名 0.00579545
for 壳牌 0.00101478
downturn 难关 0.231717
move 度过 0.0508734
needed 度过 0.255285
for 承包商 0.000381523
10 承包商 0.00558972
reduction 海上 0.469428
pressures 9% 1
market 9% 0.000553163
because 报酬 0.00876952
by 承包商 0.00144132
contractors 报酬 0.0265209
paid 9% 0.0164237
fresh 多场 0.130395
early 下周 0.0300968
winds 风 1
day 审视 0.0048125
number 全天 0.0289345
hold 下周 0.0769267
read 联合声明 1
statement 联合声明 0.0234998
restart 重启 0.882353
agreed 同意 0.193821
have 同意 0.00100595
Unite Unite 1
Shell 服务公司 1
by 荷兰 0.00143943
operated 荷兰 0.175035
staged 多次 0.374999
Group Group 0.230786
Wood Wood 1
services 服务公司 0.0119856
against 荷兰 0.0120795
negotiators 谈判代表 1
down 薪酬 0.0101268
all 薪酬 0.00289537
suspended 停止 0.84396
are 停止 1.7229e-06
for 薪酬 0.000253299
for 谈判代表 0.000254092
pay 谈判代表 0.0252479
over 谈判代表 0.00473747
Strik 谈 1
suspend 谈 1
talks 谈 0.057746
Canadiens 加拿大人 1
two 蒙特利尔 0.0166524
-- 效力 0.287096
Cups 杯 1
goaltender 守门员 1
Fame 守门员 0.0796265
Fame 名人堂 0.920374
spot 赛区 0.0729274
for 第二张 0.000215794
Wild 第二张 1
shy 第二张 0.30027
points 第二张 0.0122215
@-@ 39 0.00886436
posted 胜 0.679192
whom 何人 0.333312
upset 明尼苏达 1
Central 位居 0.0157543
finish 位居 0.125306
place 位居 0.076667
112 112 1
guided 112 1
during 杰克 0.00577912
Award 奖 0.800235
Award 亚当斯 0.199765
Adams 亚当斯 1
named 杰克 0.0898878
luck 一帆风顺 1
organization 表示感谢 0.0155232
our 表示感谢 0.0145855
done 表示感谢 0.182797
all 表示感谢 0.00578728
me 帕特里克 0.0821498
informed 帕特里克 0.417039
&quot; 萨奇斯 0.000755699
his 罗伊为 0.00302397
for 表示感谢 7.06857e-07
thanked 聘请 1
who 萨奇斯于 0.00819724
currently 满足 0.111031
decisions 发言权 0.634771
in 发言权 0.000136829
say 发言权 0.0497363
have 必需 0.00402365
organization 相一致 0.013503
aligned 相一致 0.999846
perfectly 为此 1
vision 为此 0.666798
level 实力 0.0615282
bring 更上一层楼 0.0250861
needs 更上一层楼 0.00511548
it 更上一层楼 0.0015097
communication 与否 0.0352692
duties 激情 0.250001
have 激情 0.000670632
for 五十岁 0.000507394
immediately 主教练 0.0861217
club 俱乐部 0.509714
noted 俱乐部 0.356695
move 确认 0.11995
confirmed 萨奇斯 0.0211097
Sakic 萨奇斯 0.722858
Joe 乔 1
@-@ 副总裁 0.00101307
within 罗伊于 0.00439818
hockey 副总裁 0.517241
president 副总裁 0.163347
resigned 冰球队 0.75
their 期刊 0.0123428
greenhouse 温室 0.666666
deathly 致命 1
dioxide 致命 1
carbon 致命 0.4
its 氢 0.00579253
away 水蒸汽 0.042202
was 水蒸汽 0.000880642
vapor 烧尽 0.980485
water 烧尽 0.0110136
its 烧尽 0.00290668
heat 温度 0.447265
much 温度 0.0917341
-- 几十亿年 0.114838
similar 推测 0.0272096
today 几度 0.0120146
&apos;s 几度 0.000105231
cooler 几度 1
few 几度 0.052594
much 伞 0.000863658
umbrella 雨水 1
an 雨水 0.00213488
like 雨水 0.002461
acts 雨水 1
thick 云层 0.458688
Del 杰 1
a 白天 0.000197298
at 白天 0.000944609
spin 模型模拟 0.0125284
simulation 太空 0.444446
benefited 照射 0.668919
evaporation 蒸发 1
guard 快速 1
variability 孕育 1
geographical 地理 0.818182
more 干燥 0.00124593
early 早期 0.353379
topography 地形 1
at 地形 0.00157395
two 休闲 0.00832649
spun 较慢 1
still 较慢 0.0162342
boasted 薄 0.666665
its 较厚 0.00161989
rotation 较慢 0.547888
suggested 科学家 0.599903
conditions 充满 0.0723509
like 大气层 0.0198516
hosted 二氧化碳 0.0927968
once 曾经 0.0970265
chocked 无水 1
@-@ 大气层 0.00204312
its 二氧化碳 0.00290021
with 二氧化碳 0.00141266
not 二氧化碳 0.00114984
or 二氧化碳 0.00588006
designed 用于 0.591635
by 算法 0.000822791
by 科学家 0.00575589
employed 算法 0.500079
Venus 研究所 2.08777e-05
developed 探索 0.5
Space 研究所 1
Goddard 太空 1
habitable 金星 1
once 居 0.0388054
was 模型 0.00295011
climate 气候 1
021 021 1
police 021 0.00759167
exceptional 意外 0.769227
presence 这名 0.615067
responding 急救 1
was 女警察 0.00167933
who 急救 0.00313865
-- 女警察 0.0654332
policewoman 急救 1
court 女警察 0.00967344
night 帕耶讷 0.0277551
one 帕耶讷 0.00247457
Paynerne 帕耶讷 1
shield 雨水 1
lying 撞击 0.118108
killed 致其 0.428573
result 模拟 4.61747e-06
after 而致 0.0012216
causing 而致 0.272468
officer 警官 0.666667
paper 行人 0.0376441
expect 行人 0.0669556
must 检察官 0.0375618
&apos;s 施泰特 0.000245033
impact 碰撞 0.0175625
was 碰撞 0.00132748
seen 知晓 0.0383916
be 知晓 0.00128312
remains 知晓 0.400599
however 知晓 0.0100131
Le 日内瓦 1
step 论坛报 0.0431485
opened 论坛报 0.0510349
forward 前来 0.35726
else 事故 0.432387
anyone 事故 0.0755735
them 前来 0.0213577
calling 目击者 0.104813
are 驾驶员 0.0144788
already 涉事 0.0294692
have 涉事 0.00100595
scene 当场 0.0514635
she 当场 0.00345743
lorry 货车 1
49 货车 1
aged 货车 0.101633
victim 49 0.0384563
his 杰克 0.00160914
after 莫尔日 0.0016288
just 莫尔日 0.00299671
in 莫尔日 7.54069e-09
Morges 莫尔日 1
A1 A1 1
suicide 目击者 1
apparent 清晨 0.285714
an 清晨 0.00298883
hours 清晨 0.0171676
by 多辆 0.0064774
after 目击者 0.00184313
witnesses 目击者 1
night 午夜 0.0884659
middle 午夜 0.074241
lying 躺 0.314972
suicid 辗身 1
apparent 辗身 0.714286
motorway 高速公路 1
run 自杀 0.265972
woman 女性 0.503556
Secretary 商务 0.0875453
former 商务 0.0478698
chairman 勋爵 0.095968
Deighton 戴顿 1
can 使全 0.00415743
Britain 使全 0.0276544
legacy 保驾护航 0.128272
creating 保驾护航 0.71427
trading 好时机 0.0181846
our 好时机 0.0145848
securing 好时机 1
expand 扩建 0.142842
and 保驾护航 6.53451e-08
us 传递 0.0927228
be 扩建 0.00384488
am 扩建 0.148828
were 巨大 0.0208288
16 第三条 0.030303
backed 跑道 0.327192
third 跑道 0.085919
deliver 跑道 0.144465
ready 第三条 0.0526316
stand 第三条 0.159837
runways 航站楼 1
two 航站楼 0.00817476
T2 T5 1
row T5 0.421682
world 航站楼 0.0152149
voted T2 0.0771781
T5 T2 1
cuts 减薪 0.11118
time 预算 0.00449425
implemented 准时 0.0630663
a 跑道 0.000640648
UK 财富 0.142031
both 财富 0.0613114
legacy 一笔 0.379778
211bn 2110 1
180,000 万个 1
up 万个 0.00577072
expansion 机场 0.60674
few 少数 0.110284
just 少数 0.0107898
Geneve 日内瓦 1
not 人而非 0.00613019
many 人而非 1.79242e-05
for 人而非 0.00101454
like 如同 0.0258406
are 总是 0.00424121
never 丢脸 0.0180211
that 告知 0.00075918
is 扩建工程 0.000911817
think 庞大 0.0697094
there 扩建工程 0.00645965
youth 岗位 0.10947
end 岗位 0.0221179
bring 学徒 0.0877996
40,000 岗位 1
apprenticeships 学徒 1
10,000 本地 0.0284283
create 本地 0.0676872
&apos;ll 本地 0.449529
communities 本地 0.016686
our 本地 0.00087908
firms 民众 1
by 造福 0.00115154
so 造福 0.00272849
East 东区 0.415852
for 受益匪浅 0.000380542
benefits 受益匪浅 0.0363657
huge 斯特拉特福 0.189544
benefited 获益 0.331081
our 获益 0.010928
efforts 竭尽全力 0.0398804
enormous 竭尽全力 1
where 竭尽全力 0.0172552
was 所在 0.0076923
local 繁荣 0.00308273
our 繁荣 0.00486307
just 繁荣 0.000998952
not 繁荣 0.000511122
prosperity 繁荣 1
deliver 活力 0.427767
Heathrow 希思罗 1
Heathro 扩 1
expand 扩 0.142839
County 庭 0.0372056
14300 14300 1
CS CS 1
Inc CS 0.181814
J 县 0.666667
the 本案 5.30006e-08
has 饱受 0.0044355
Services Consulting 0.75
firm 来电 0.400005
consulting 来电 1
call Innovative 0.047942
Charlotte WCCB 0.143276
in WCCB 0.00021362
were 菲利普 0.00752103
parties 薪酬 0.0679843
reach 菲利普 0.075986
attempts 菲利普 0.999066
message 希克斯 0.0559936
spokeswoman 霍普 0.377446
Justice 庭 0.375001
39 分之差 0.218431
judges 喜爱 1
rival 对手 1
For CS 0.500158
action 枪支 0.0179452
Union 脱欧 0.191296
understood 爱好者 0.0855176
introduced 引进 0.456779
-- 爱好者 0.143526
Second 修正案 1
Carolina 众怒 0.307653
North 众怒 0.0451267
crowd 众怒 0.065562
furore 众怒 1
after 两天 0.000814405
two 两天 0.00277541
comes 两天 0.0734904
fire 伤害 0.333275
don 开枪 0.147556
filing 事情 0.78103
according 卷宗 0.00315629
Phillip 卷宗 0.101417
thing 相同 0.294541
other 四个 0.00614228
learned 卷宗 0.0320958
regional 地区 0.570666
things 车位 0.214673
&apos;s 膝盖骨 5.25069e-05
Vincent 膝盖骨 0.125
into 膝盖骨 0.00355238
trigger 机上 1
index 放在 0.142832
his 食指 0.00804571
End 受益匪浅 1
put 右手 0.0527656
produced 拔出 0.240477
Phillip 菲利普 0.697122
Phillip 厄尔 0.20146
director 名叫 0.0864114
happen 这件 0.783819
situation 等待 0.020063
Bordini 博迪尼 0.818308
for 该州 0.00152218
Bordini 文森特 0.181692
Vincent 文森特 0.875
by 培训师 0.0057577
Charlotte 夏洛特 0.856724
state 州 0.0869798
lawsuit 博迪尼于 1
Jeep 起诉 1
gun 吉普车 0.0561696
Carolina 加利福尼亚 0.692347
its 因其北 0.00193245
that 因其北 0.000378426
Mecklenburg 高等法院 1
being 因其北 0.0233122
nothing 指向 0.179562
doing 指向 0.218858
for 起诉 0.00121895
gu 起 0.999996
gu 拔枪 4.10758e-06
allegedly 拔枪 1
sued 团队 6.38833e-06
for 白乐琪 0.00076109
their 对应 0.00139431
needs 对应 0.00510629
at 对应 0.000674754
time 对应 0.00160572
now 对应 0.00306621
up 提高 0.0269423
aid 法律援助 1
commitment 法律援助 0.000343455
commitment 州政府 0.00207532
on 州政府 0.000260817
faced 撤消 0.555551
&apos;re 布兰迪斯 0.0135263
they 布兰迪斯 0.00249199
Brandis 布兰迪斯 1
Senator 议员 0.5
@-@ 司法部长 0.0011819
Attorney 司法部长 1
mass 太阳系 0.0480769
be 被迫 0.00307048
Queenslanders 弱势群体 1
across 财富 0.0544251
by 30% 0.00201169
have 分崩离析 0.00057483
these 分崩离析 0.00191246
unfairly 分崩离析 1
who 压榨 0.0163955
going 巨额 0.0133148
families 背负 0.277355
relationships 远离 1
leaving 远离 0.0684935
vital 资金不足 0.0777442
away 资金不足 0.0181758
going 更糟 0.0347221
was 只会 0.00132752
a 现有 0.000417212
without 现有 0.0835784
found 数千 0.0232182
Farrell 法雷尔 1
Centres 调查报告 1
Community 调查报告 0.288372
funding 30% 0.0114364
federal 30% 0.0777109
their 30% 0.00341308
cent 30% 0.29679
those 联邦政府 0.0434657
for 限值 0.000253724
already 限值 0.0196348
already 早已 0.000123191
turned 法律咨询 0.0187718
already 法律咨询 0.0168395
fight 拒 0.337083
those 暴力事件 0.0241895
mostly 人中 0.133041
Queensland 昆士兰 1
already 拒之门外 0.0296916
already 万 0.0442038
on 万 0.000491802
for 面对 0.000435199
away 拒之门外 0.0320476
away 弱势 0.0636152
nation 万 0.125732
a 拒之门 1.86677e-05
160,000 拒之门 0.395426
away 拒之门 0.0312061
that 可不是 0.000453971
generator 可不是 1
&#91; 大大减少 1
significant 大大减少 0.0479681
a 大大减少 3.77356e-08
from 需求量 0.00134543
both 两家 0.306558
Tomago 900 0.125
annually 900 1
600 900 0.07109
around 900 0.0142706
Portland 森 0.0508152
Mikkelsen 森 1
head 米克尔 0.112961
staffer 吉普车 0.428491
addressing 托马 1
poor 纽卡斯尔 0.0963741
Tomago 戈 0.875
both 谨慎 0.0307008
possible 谨慎 0.0706315
wary 谨慎 1
been 谨慎 0.00318386
explain 美国公司 1
yet 美国公司 0.0246076
has 签署 0.00265228
bracing 限值 0.368252
entered 签署 0.246923
it 美国公司 0.0010089
company 美国公司 0.00260852
told 因其北 0.00583884
US 美国公司 0.0122725
secure 电力供应 1
out 电力供应 0.00370921
. 1.87 0.000102359
million 1.87 0.0078582
187 1.87 1
by 1.87 0.000959624
accounts 1.87 0.0787432
its 1.87 0.00193182
written 价值 0.75
outlook 期货市场 0.104217
futures 批发 0.140412
by 电价 0.00190755
onwards 期货市场 0.0322644
FY18 2018 1
17 收入 0.3
fiscal 2017 1
expect 财年 0.161101
continues 财年 0.285715
such 电力公司 0.0150364
finish 终止 0.375866
actually 终止 0.150541
month 终止 0.0695922
November 本来 0.113303
were 生效 0.00795641
which 生效 1.62799e-06
hedging 对冲 1
called 对冲 0.0153116
so 对冲 0.00170533
are 对冲 0.00106144
contracts 对冲 0.0132262
for 合资 0.000761065
demand 合资 0.103764
operate 冶炼厂 0.502054
operate 合资 0.278902
smaller 少量 0.262856
holding 少量 0.245584
Corp 株式会社 1
its 州政府 0.00230511
Marubeni 株式会社 0.00275196
Marubeni 丸 0.997248
Alumina 氧化铝 1
venture 股东 1
move 所有人 0.0593517
rates 速度 0.942446
said 山谷 0.00180964
its 山谷 0.00579542
with 加拿大人 0.000941909
output 最初 0.267556
more 走强 0.000692182
dollar 走强 0.0868977
strong 走强 0.0176679
wake 澳元 0.512817
moves 走强 0.307689
money 亏损 0.146255
losing 亏损 0.788544
plant 发电厂 0.087701
power 发电厂 0.0972555
Point 汉瑞角 1
closed 汉瑞角 0.470587
output 连锁反应 0.0539965
around 用电量 0.0332981
consumes 用电量 1
smelter 用电量 0.076046
since 输出 0.00468843
effects 输出 0.0736889
with 间接 0.000860944
Alcoa 美铝 1
at 失业 0.00525036
jobs 失业 0.0693232
2000 失业 0.185036
2000 2000 0.690156
@-@ 终止 0.00532227
@-@ 为期 0.0030384
20 为期 0.032522
a 这笔 0.00296081
keep 补贴 0.111977
axed 失效 1
centres 中心 1
man 撞击 0.0208591
owners 所有人 0.608722
&apos;s 工厂 0.000421308
one 工厂 0.0113448
plant 工厂 0.804141
company 电力公司 0.0156659
power 电力公司 0.0833585
four 四个 0.0293953
jobs 工厂 0.426636
- 工人 0.0123257
contrac 取消 1
axing 取消 1
with C 0.000706432
equipped C 0.0789596
adopts 对称 0.749907
would 丢脸 0.0103113
bottom 对称 0.000243523
bottom 底部 0.245128
frame 中框 0.000671394
middle 中框 0.0931481
on 小红圈 0.000187941
classic 正面 0.500885
uses 采用 0.869565
loan 住房贷款 0.230751
1299 1299 1
RMB 元降 3.16595e-06
RMB 1499 0.0802832
price 降价 0.0219874
by 小屏 0.00191923
Z11mini Z11mini 1
contributing 后置 0.899987
recognition 易用 0.647466
fingerprint 易用 0.206982
portable 便捷 1
hold 5.0 0.15212
easier 握持 0.386365
hand 握持 0.0482907
@-@ 指纹识别 0.00121763
@-@ 握持 0.0020574
@-@ 易 0.00354574
one 单手 0.00247492
photographed 基因 1
its 出众 0.000438341
its 卓越 0.00525657
follows 卓越 0.129369
nubiaZ11mini nubiaZ11mini 1
using 算法 0.102584
first 首款 0.00377507
kicks 之内 1
told 洲 0.0405313
worried 停摆 0.425077
outside 陷入 0.108322
deal 争斗 0.0658563
. 电视转播 0.000160877
television 电视转播 0.115442
revenue 这得 0.101062
increase 这得 0.0132431
player 前线 0.115823
NBA 前线 0.0366408
forefront 身处 1
thick 较厚 0.42664
enter 现今 0.200035
restrictions 限贷 0.428571
what 施泰特 0.097967
with 堪称 0.00423398
three 篮板 0.0149142
backboards 里场 1
eight 里场 0.0689654
it 这点 0.000440392
can 这点 0.00103949
break 快攻 0.111113
fast 快攻 0.184915
long 长传 0.0205593
shot 盖帽 0.0444736
outside 外线 0.0234177
with 囤积 0.00141286
pick 命中 0.26715
his 投篮 0.0020083
assists 助攻 0.925382
assists 篮板 0.0746181
received 一共 0.0182039
games 篮板 0.0496197
that 承担责任 0.000453975
made 期待 0.0291618
already 展现出 0.0504827
thought 主帅 0.212907
he 主帅 5.97041e-05
. 马刺 7.67051e-06
rating 马刺 0.476416
into 加时 0.0124306
drag 加时 1
drivers 驾驶员 0.514323
Gasol 加索尔 1
blocked 保罗 0.333333
Salici 掉 1
Croatian 掉 1
by 封盖 0.00143943
game 拖入 0.024543
76ers 人队 1
join 加盟费 0.339607
land 新秀 0.168434
Salic 奇 0.476088
round 首轮 0.0418119
Manchester 曼联 1
after 首秀 0.000542983
first 首秀 0.00167786
his 首秀 0.000893352
. 首秀 6.82467e-05
helping 首秀 0.062365
games 迎战 0.0591605
away 迎战 0.0636152
August 南安普顿 0.00870577
Association 英足 0.0652302
Premiership 英超 1
back 转会 0.0417812
transferred 转会 0.285725
be 巴 0.0019229
he 两张 0.00253747
yellow 意大利杯 0.0582825
punished 意大利杯 0.0999097
was 巴 0.000663804
season 巴 0.0131708
violated 八项 0.670417
clubs 吃请 0.324754
invitation 程子 0.111736
accepted 亮 0.423804
who 程子 0.00273259
informed 纪委 0.14574
Jiangxi 江西省 0.246943
Liu 刘 0.0385676
borne 其他费用 1
other 某某 0.00409487
while 刘 0.00494347
by 其他费用 0.002883
dinner 红酒 0.221605
red 饮用 1.03108e-05
period 试用期 0.0275067
probation 试用期 1
&apos;s 试用期 9.18874e-05
deputy 副厅长 0.0325338
room 室主任 0.136649
as 政风 0.00175157
serving 党风 0.387097
reporting 上班 0.666639
for 省纪委 0.000507394
it 国际奥委会 0.00176152
lawyer 霍夫 1
County 县委书记 0.0465069
City 定南 0.0305161
Yangxia 陈阳霞 0.75
Yangxia 定南 0.25
was 经查 0.000663766
ride 搭车 0.35297
range 超标准 0.0511
prohibit 超标准 0.363636
fees 收费 0.35329
gun 爱好者 0.0562128
service 社区服务 0.031411
so 较近 0.00328145
stations 派出所 0.154687
local 派出所 0.0138717
initial 工本费 0.0879143
exempted 工本费 1
shall 工本费 0.0126209
production 证件 0.00859857
stipulate 证件 1
cities 免收 0.0581589
regulations 免收 0.178574
stipulates 江西 0.474196
issue 应自 0.0583329
shall 应自 0.025143
shall 公安 0.151453
station 应自 0.0148696
is 一致 0.000455909
issue 应当 0.279449
permit 日内 0.0741383
line 办理 0.157998
those 办理 0.0949746
year 享受 0.0110838
holders 持有人 1
announce 福建 1
community 定期 0.0143886
regularly 定期 0.142452
will 明确要求 0.000350697
they 明确要求 0.000894417
meeting 子女 0.0270954
attend 高考 0.236351
conveniences 便利 1
public 公共服务 0.0780207
different 含金量 0.0133097
gold 含金量 0.00747655
aspect 待遇 0.297396
doubt 供电 0.739721
having 半年 0.0710514
: 半年 0.00112571
three 半年 0.00592883
meet 条件 0.0787474
meet 申领 0.0681886
applicants 符合 0.000335825
applicants 需 0.550606
applicants 申领 0.449058
said 普遍 0.00180964
etc 省市 0.0600631
Gansu 甘肃 1
nominee 北卡罗来纳州 0.205363
Jiangxi 江西 0.753057
Xiaokun 陈晓昆 1
Chen 陈晓昆 0.112359
have 配备 0.00134114
visitors 配备 0.319772
interactions 配备 1
excellent 装备 0.167035
their 装备 0.0048762
officers 招录 0.295755
Moscow 招录 0.0135108
police 招录 0.003043
too 扩建 0.0544474
security 本国 0.0625296
Russian 俄中 0.0222978
hoped 启发 0.28292
inception 组建 1
its 组建 0.00579542
Police 组建 0.0828654
Tourism 组建 0.185946
can 汉语 0.00277162
they 汉语 0.00238502
Chinese 汉语 0.0154934
regulations 外语 0.178576
moves 招式 0.692311
defense 招式 0.0432289
@-@ 招式 0.00088645
per 法律法规 0.0273256
. 每周 0.000204724
foreign 外语 0.0442026
nine 分成 0.243895
master 掌握 0.8
in 熟练掌握 4.80774e-07
policemen 熟练掌握 1
helping 疏导 0.187078
thus 疏导 0.0390623
it 各大 0.00352264
order 适应 0.0363059
more 吸引力 0.00461185
attracting 吸引力 0.596865
become 氛围 0.00643829
ambience 氛围 1
and 日益 3.43249e-05
Lei 莫斯科市 0.0725112
taxi 出租 0.0839704
for 出租 0.00114163
xxx 出租 1
travel 非常高兴 0.0298214
happen 打交道 0.216181
very 打交道 0.0134727
am 旅游者 0.0992181
and 旅游者 6.18551e-09
station 莫斯科市 0.0148386
negligent 疏于 1
attention 重视 0.315091
island 岛 1
. 县 0.000921261
us 触动 0.0436035
which 两门 0.000319695
more 两门 0.000760041
can 两门 0.00101445
some 两门 0.00180442
foreign 掌握外语 0.0331524
every 莫斯科 0.0516973
Wang 深刻印象 0.0521553
which 王冰 0.00631704
explained 流利 0.169985
owned 股东 1
disclosing 工厂 0.696259
he 遇到 0.00626628
and 仔细观察 3.28463e-07
word 仔细观察 1
every 仔细观察 0.0151986
carefully 一路上 1
Spanish 西班牙语 0.770129
plus 通晓 0.111114
is 柳希涅 0.000341931
Liu 柳希涅 0.0385675
officer 柳希涅 0.333333
police 女警官 0.00760718
cosmic 实验室 0.314275
than 一个多 0.00413804
more 一个多 0.00155741
followed 岗 0.139846
Store 古姆 1
Gu 古姆 0.636369
Red 红场 0.177777
duty 巡逻 0.320908
for 岗 0.00076104
for 巡逻 0.00104456
groups 百货商场 0.0796828
into 分成 0.0165776
local 交流学习 0.00542815
in 执勤 0.00129099
Hainan 海南省 0.0454546
City 海南省 0.0130783
Sanya 海南省 0.0277778
Tourism 海南省 0.0531276
on 交流学习 0.000263718
looking 回望 0.0542984
but 回望 0.00108972
foreign 外国游客 0.132609
local 当地人 0.0138717
tourists 外国游客 0.0652174
Moscow 莫斯科红场 0.0450452
Red 莫斯科红场 0.355556
appearance 挥手致意 0.0601204
day 挥手致意 0.00601563
10th 挥手致意 0.0796378
100 ~ 0.0219992
resolving 继续抓好 1
overcapacity 继续抓好 7.33339e-07
job 坚定不移 0.275697
a 坚定不移 3.33112e-05
order 市场秩序 0.0158808
stability 公平 0.782731
workers 兜底 0.0427835
outs 兜底 1
disclosing 兜底 0.303741
law 法治 0.076956
mechanism 市场机制 0.062484
market 市场机制 0.00850651
demand 不振 0.207523
by 困境 0.0023031
cut 2017 0.0844635
hindering 公平竞争 1
thereby 妨碍 0.729162
efficiency 利用效率 0.0769228
elements 要素 0.434778
reduced 要素 0.224171
these 类 0.0133874
due 退出 0.145187
restrained 受 0.896857
or 难以为继 0.00588074
sustain 难以为继 1
do 企业 0.0411901
increased 加大 0.3233
total 总需求 0.0187809
downward 下行 1
risks 区域性 0.0900952
state 州政府 0.017298
range 广 0.0447125
wide 广 0.189869
large 广 0.0147485
enterprises 广 0.00974383
steel 涉及面 0.110809
iron 钢铁企业 0.396107
handling 妥善处理 0.0796395
issues 化解 0.0495342
properly 化解 1
resolution 化解 0.727569
over 掉 0.00568976
it 谈到 0.00117421
will 只会 0.00140274
&quot; 电力公司 0.000499461
steel 钢铁产业 0.0554043
not 无助于 0.0015333
chronically 资金不足 1
does 无助于 0.0211862
from 进口国 0.000896995
choice 进口国 0.0132204
essentially 本质 0.666644
trade 国际贸易 0.108389
practical 切实 0.6
conditions 国情 0.0180928
45 4500 0.142857
statement 辗过 0.211458
by 4500 0.00191923
steel 粗钢 0.110809
reduce 压减 0.0880406
earnestly 认真 1
implement 贯彻落实 0.335109
CPC 党中央 0.5
between 太阳黑子 0.00657418
emerging 显现 0.699569
excess 显现 0.570941
resolute 坚决 1
taken 坚决 0.274927
Europe 美欧 0.428571
average 平均水平 0.262468
&apos;s 近年 0.000122516
global 全球性 0.079838
a 全球性 0.000131426
iron 钢铁 0.405839
National 协调 0.0536372
Coordination 协调 1
Industrial 委 1
of 委 6.02028e-06
use 奥申委 0.0248645
apiece 加拿大人 1
for 知识产权 0.000507391
signs 标志 0.542374
issued 发布公告 0.0546276
Olympics 冬奥会 0.0707935
Winter 冬 0.90909
2022 2022 1
layers 剩 1
were 142 0.0131861
survey 剩 0.168182
County 沭阳县 0.0930137
laying 卖掉 0.102565
sold 卖掉 0.0804652
privately 养殖场 0.000177797
privately 私自 0.999822
permission 未经 1
transferred 转移 0.142826
laying 蛋鸡 0.384613
that 李某 0.00136199
enforcement 强制执行 0.24665
Wang 王某 0.0782334
obligation 判决 1
fulfill 履行 1
Lee 李某 0.54547
into 生效 0.0150043
verdict 义务 0.333586
after 李某 0.00293113
after 判决 0.00732934
Cour 获 0.999575
Commission 省纪委 0.0268819
Without 变卖 1
Disposed 变卖 1
Farm 只鸡 1
unrestrained 受限制 1
compete 受限制 0.163958
@-@ 守法 0.00177286
delayed 言而无信 1
words 言而无信 0.0416298
Taipei 郑力 1
Lijia 嘉 1
its 首款 0.00289722
month 台北市 0.0232006
just 来台 0.00224754
authority 来台 0.333333
but 来台 0.00136216
the 工会 0.00118386
been 司机 0.0133444
it 台北市 0.00176132
area 现象 0.0599864
surrounding 现象 0.139109
that 丢脸 0.000324063
resulted 周边 0.109489
this 周边 0.00153002
Executive 行政院 0.172839
taxies 百辆 1
than 百辆 0.00551738
Daily 联合报 0.106796
United 联合报 0.00953242
information 联合报 0.0130982
no 不小 0.0195236
it 不小 0.00264198
Uber Uber 1
after Uber 0.00209418
4 Uber 0.012027
expenses 丧葬费 0.272734
530,000 53 1
acquitted 疏忽 0.0316437
&apos;s 家属 0.000122516
at 庭上 0.00236093
so 水果刀 0.00272882
him 水果刀 0.0266621
him 垃圾堆 1.35626e-05
said 一把 0.0108578
meal 饭后 0.500768
during 吃饭 0.00722504
disputes 吃饭 0.111138
take 多场 0.0207059
. 喝酒 0.000122837
asked 喝酒 0.0599493
were 喝酒 0.00263731
looked 地形 0.244869
current 当天 0.0417329
current 案发 0.0316483
on 案发 0.000689638
apart 多米 0.4
meters 多米 0.0571469
just 相距 0.00449508
. 地上 0.000613979
Dongcheng 胡同 1
that 案发前 8.47009e-07
knife 扎 1
from 本来 0.00241836
fruit 扎 0.350543
death 遂 0.0588259
. 酒后 8.77389e-05
drinking 酒后 0.416669
after 酒后 0.000698068
Xiao 肖某 0.8751
by 而致 0.00143943
situation 困住 0.0185176
torment 煎熬 1
down 平静下来 0.0303691
Caltech 加州理工学院 1
breathe 呼吸 1
exercise 练习 0.123968
an 练习 0.00747208
behavioral 服从 1
their 服从 0.00324885
an 心理学家 0.00746882
impedance 阻抗 1
prevent 抵抗 0.0599066
emotional 情绪 0.363021
exposure 自我 0.137874
@-@ 自我认识 9.99289e-06
self 自我认识 0.192938
self 自我 0.0610317
&apos;s 自我认识 1.80975e-05
individual 个体 0.315019
pressing 折磨 0.337865
results 基本上 0.0349535
Bournemouth 伯恩茅 1
works 分散 0.0332248
usually 久 0.0681467
time 久 0.00280917
long 久 0.0102797
for 久 0.000380546
works 注意力 0.110761
wants 注意力 0.200451
what 长久 0.0712681
concentrate 长久 1
her 秘密 3.89979e-07
her 小小的 0.0111124
has 心里 0.013074
addition 相处 0.0133409
well 适应能力 0.0437079
well 相处 0.021854
can 相处 0.00207872
outgoing 性格外向 0.999869
is 性格外向 0.000681781
she 相处 0.0017286
pretty 漂亮 0.327539
and 漂亮 1.16627e-07
Amy 艾米 1
become 优秀 0.0193178
excellent 心性 0.16699
indirectly 优秀品格 1
will 优秀 0.00280588
which 优秀品格 0.00165299
cultivate 优秀品格 0.157894
words 优秀品格 0.0245061
children 好榜样 0.0474257
front 做个 0.0335934
introduction 观点 0.332495
example 做个 0.0474555
good 做个 0.00635362
be 面前 0.023072
same 什么样 0.0103173
son 什么样 0.107699
&quot; 凤生凤 0.000388399
economy 多数 0.0746159
so 常说 0.00682122
imitate 模仿 1
study 住所 0.139677
words 一言一行 0.0782719
teach 言行举止 1
take 养成 0.0310649
their 良好 0.0122066
accompany 家庭教育 1
education 家庭教育 0.031496
succeed 成人 0.75
up 成人 0.00769781
grow 成人 1
inflict 伤害 1
but 护养 0.00136216
healthy 护养 0.0761421
making 护养 0.0334952
reflected 体现 0.356153
responsibility 除了 0.379524
him 照看 0.0266669
do 公平 0.0301302
spend 花费 0.571429
mom 新妈们 1
and 新妈们 0.00026741
dad 新妈们 0.990145
failure 失败 1
shortcomings 无法弥补 1
for 无法弥补 0.000759849
make 缺憾 0.00449859
cannot 缺憾 0.00726207
career 事业 0.092919
successful 缺憾 0.0361281
how 缺憾 0.0037274
matter 缺憾 0.0538606
no 缺憾 0.00325395
then 失败 0.0618147
such 子女 0.0175429
however 尚未 0.000694665
spirit 精神 0.929284
gene 基因 1
Dad 爸爸妈妈 0.5
baby 生命 0.697922
without 未经 0.158824
perfect 巅峰状态 0.2
at 巅峰状态 0.00118047
now 传奇 0.0107287
like 证明 0.0391831
it 夜 0.000880661
velodrome 夜 0.098039
racing 首个 0.0556734
however 夜 0.0151068
Pendleton 彭德尔 1
like 传奇人物 0.00430677
figures 传奇人物 0.127446
official 负责人 0.0770511
retirements 传奇人物 1
sexism 性别歧视 1
least 四月 0.0381899
not 四月 0.0015333
in 性别歧视 3.19763e-09
been 波折 0.00320264
lead 略感 0.0804132
played 自行车队 0.109685
been 自行车队 0.00640521
utter 绝对 0.51897
truly 统治 0.658484
middle 占据主动 0.0133094
ownership 占据主动 0.125001
cycling 占据主动 0.0164024
13.260 413.260 1
: 413.260 0.00225083
advanced 以新 0.179053
milngavie 以新 1
Barker 尚德 1
Shand 罗瑟尔 1
Rowsell 罗瑟尔 1
concludes 洛特 1
&apos;s 女子组 2.71985e-06
corresponding 女子组 0.150121
height 身高 0.700002
him 身高 0.0222226
ride 争执 0.117601
ahead 争执 0.0946027
faced 困境 0.444449
yesterday 资格赛 0.0559064
Police 海南省 0.0236758
dispute 资格赛 0.0636982
a 资格赛 1.24659e-08
day 威金 0.006875
place 威金 0.0438097
take 威金 0.00887568
10.42pm 42 1
3 351.659 0.0189662
at 获得者 0.00210215
winning 获得者 0.0674927
in 获得者 0.00014118
: 351.943 0.00168813
3 351.943 0.0142247
four 四公里 0.011765
qualified 杜尔以 0.178407
Burke 史蒂文 1
Clancy 艾德 0.981033
Sir 布拉德利 0.0689655
news 好消息 0.00871547
good 好消息 0.00844482
off 之内 0.037584
get 授予 0.0435801
medals 两块 0.0298958
two 两块 0.00572067
wins 两块 1
own 讲 0.00874584
on 讲 0.000655736
your 队友 0.0783134
best 棒 0.036922
event 赛 0.227439
now 专注 0.0107284
enjoying 专注 1
out 三天 0.0129822
plays 为期 0.720029
on 出战 0.000262285
begins 出战 0.333337
sprint 出战 0.21052
would 持平 0.0144348
six 出生 0.154822
tally 出生 1
take 出生 0.0258868
) 班 0.00187675
Roger 罗杰 1
Farah 格雷夫 1
Mo 雷德 1
Redgrave 雷德 1
date 神圣 0.0999998
seemingly 神圣 0.5
born 比霍伊 0.209509
years 尼斯 0.00330247
dispute 薪酬 0.0265411
12 尼斯 0.00496727
exactly 尼斯 0.101349
who 尼斯 0.00468502
see 出生 0.0782001
golds 壮举 0.137058
&apos;s 壮举 4.0847e-05
possibility 一届 0.666667
question 克服 0.116866
realms 霍伊在 1
demonstrated 展现 1
form 展现 0.398835
velodrome 馆 0.784314
days 五天 0.0822786
successful 取得成功 0.0487897
then 取得成功 0.0104347
five 五个 0.126748
those 过于 0.0290277
barometer 象征 1
both 场地 0.122623
titles 场地 0.554461
amazing 卫冕 0.600229
just 卫冕 0.0044994
win 卫冕 0.0524124
titles 世界冠军 0.445539
so 丢掉 0.00229285
out 丢掉 0.00436377
been 丢掉 0.00269129
&apos;ve 丢掉 0.0413379
three 组队 0.0039538
came 组队 0.00355946
supreme 胜利 1
rivals 上诉 0.614749
Britain 这番 6.28679e-06
appeal 这番 1
method 撤回 0.0535717
no 撤回 0.00520633
was 撤回 0.000531001
comment 撤回 0.0277529
a 赛道 0.000228861
following 赛道 0.0535818
track 赛道 0.0582517
alongside 肯尼 1
triumphing 摔落 1
win 更棒 0.0262463
way 更棒 0.0131941
better 更棒 0.0293288
&apos;s 更棒 9.12006e-05
there 胜利 0.012622
just 难以置信 0.00449473
an 创造 0.0597596
for 而已 0.00176643
name 而已 0.0580336
name 扬名立万 0.0272001
make 扬名立万 0.00790096
best 扬名立万 0.0163429
out 尽我所能 0.0064912
just 尽我所能 0.00224745
a 受宠若惊 0.000123719
&apos;s 受宠若惊 0.000107141
Glasgow 格拉斯哥 1
they 领奖台 0.000261026
his 霍伊以 0.00160371
from 霍伊以 0.00107725
Hoy 霍伊以 0.0214974
pace 速度 0.902974
keep 保持 0.465056
bigger 飞轮 0.176471
riding 飞轮 0.453584
transformation 关键 0.143473
big 关键 0.152593
front 领先 0.161264
pushed 肯尼 0.390242
his 德斯 0.0131811
after 落后 0.00596874
duel 三位 1
won 自行车赛 0.0252712
trio 三位 0.48343
was 超越 0.000531095
realised 不负众望 1
has 不负众望 0.000886296
tried 想来 0.0385524
Crampton 想来 1
Kian 克兰 1
which 迪和马特 0.0132239
void 伊玛 1
Hindes 德斯 0.442964
Hindes 辛 0.557036
so 车队 3.98897e-05
Staff 斯塔夫 1
Jamie 斯塔夫 1
starter 斯塔夫 1
replacing 杰米 1
was 杰米 0.000885022
issue 第一圈 0.0873277
since 再创 0.0187537
World 第六 0.0961384
Track 第六 0.750002
&apos;s 名列 0.000183757
after 单车 0.000695317
they 单车 0.00102282
golds 第五块 0.246655
Olympic 第五块 0.00270332
six 第五块 0.0371583
fifth 第五块 0.156847
win 一鸣惊人 0.0261805
claimed 一鸣惊人 0.0535176
outfit 归时 1
win 封盖 0.0261811
reporters 获悉 0.0739098
from 夺冠 0.000896951
snatch 夺冠 1
stormed 夺冠 0.410798
only 旗下 0.0200137
coac 主帅 1
did 归时 0.0153803
challenge 庞大 0.59322
@-@ 失望 0.00176627
Hoy 霍伊 0.859171
fellow 克里斯 0.251582
role 同胞 0.067762
communicated 交流学习 0.0628224
Glaswegian 23 1
from 组继 0.00107634
title 组继 0.0402584
defended 组继 1
GB 组继 0.0100939
velodrome 昨晚 0.117647
at 竞速赛 0.00236089
glory 昨晚 0.230769
Brits 卡尔 1
as 卡尔 0.00210176
home 卡尔 0.053579
Skinner 斯金纳 1
impeachment 塞夫 1
for 罗 0.000380545
voted 罗 0.0771781
as 迪尔玛 0.00132959
Rousseff 迪尔玛 1
support 弹劾 0.00817997
masse 弹劾 1
after 抗议者 0.00244319
just 塞夫 0.00128453
protest 塞夫 0.0294082
this 塞夫 0.000437232
Michel 特梅尔 1
against 涂鸦 0.0161053
on 涂鸦 0.0004371
writing 涂鸦 0.0928949
protest 抗议 0.970592
part 米歇尔 0.0217296
taking 米歇尔 0.102897
those 米歇尔 0.0241896
save 转校 0.2
relocated 转校 1
300,000 万名 1
Kepler 开普勒 1
closed 转校 0.176473
be 转校 0.00192246
will 公立学校 0.000935159
public 公立学校 0.017338
in 赛区 0.000532964
governor 明 0.571428
demonstration 游行 0.445089
in 游行 0.000127749
part 游行 0.0174291
hundred 几百名 0.530386
several 几百名 0.0255033
this 业绩 0.000765009
using 橡胶 0.430821
which 驱散 0.00440796
law 起因 0.0512596
trouble 起因 1
protesters 抗议者 1
against 抗议者 7.81977e-07
reforms 公共 1
groups 分成 0.0531207
as 圣保罗 0.00116772
protesting 学 1
against 抗议 0.110669
against 驱逐 0.163214
&amp; 橡胶 0.1477
&amp; 催泪瓦斯 0.000147648
gas 催泪瓦斯 0.352896
was 该报 0.000498418
that 该报 0.00117345
it 该报 0.000912578
fast 拨号 0.369829
not 从来 0.00459989
never 命令 0.0254533
found 经查 0.00967424
was 命令 0.000535777
was 列表 3.41628e-07
apologizing 歉意 0.400006
an 一切都是 0.00747122
what 周刊 0.0734753
calling 周刊 0.138938
accusations 明镜 0.222081
starting 下周 1
stands 会堂 0.588235
street 大街 0.442077
you 不要脸 0.0129128
on 不要脸 0.000437156
shame 不要脸 0.226737
calling 一桩 0.277876
a 丑闻 0.000653418
a 热议 0.000156851
quite 热议 0.0140225
expect 得出 0.268502
even 丢人现眼 0.00499595
very 连锁 0.0146741
it 连锁 0.00176132
great 耻辱 0.0165941
shocked 大吃一惊 0.200012
and 大吃一惊 0.000175752
were 大吃一惊 1.2219e-07
Zeitung 日报 0.882092
great 奇耻大辱 0.0123069
case 曼将 0.0377854
@-@ 哈达 0.00118191
Hadas 汉德 1
Yakov 雅科夫 1
as 引用 0.00450404
was 原话 0.0005312
employee 原话 0.279886
deleted 原话 1
be 原话 0.00153863
Arabs 阿拉伯人 1
are 阿拉伯人 0.00209896
&quot; 原话 0.000232653
by 愤怒 0.00192304
triggered 愤怒 0.613664
move 愤怒 0.0396466
. 管理层 7.80327e-05
by 管理层 0.000731554
clerk 刻意 1
him 震惊 0.0222225
there 回答 0.00327423
at 前台 0.00236586
issue 前台 0.08751
via 呼叫 0.0323017
an 呼叫 0.00497772
eradicated 居然 1
that 消失 0.000715365
new 消失 0.0053321
it 居然 0.000704528
room 列 0.273294
call 客人 0.0719162
one 客人 0.00742405
76 内线 0.00884218
mentioned 通话 0.39897
country 客人 0.039694
codes 列表 1
find 找到 0.745347
tried 朗 0.188751
going 变得 5.9271e-05
stay 入住 0.0741637
his 入住 0.00268336
writing 法兰克福 0.0710867
Berlin 法兰克福 0.102374
in 法兰克福 0.000151517
&quot; 朗 0.00285689
Organizing 残奥会 0.125416
Holocaust 大屠杀 1
purchase 限购 0.127505
an 大屠杀 0.00373596
Lanzmann 大屠杀 0.0410987
from 哗然 0.00269079
requests 哗然 0.714285
employee 舆论 0.720114
Bristol 凯宾斯基 1
unleashed 血统 1
origin 血统 1
Arab 制片人 0.75
code 代码 1
Israel 以色列 1
Berlin 柏林 0.897626
Oati 斯编 1
Drawbaugh 卓鲍 0.998505
by 奥迪 0.0057577
by 卓鲍 0.00192043
by 凯文 4.15281e-08
additional 凯文 0.166483
109,000 美元 1
income 109 0.122922
interest 利息收入 0.270877
fund 利息收入 0.177663
@-@ 低成本 0.00101302
was 低成本 0.000758332
came 美元 0.0208308
&apos; 夫妇 0.022177
40.5 40.5% 1
from 40.5% 0.00107634
country 迪尔玛 0.0127525
live 巴克 0.126197
now 巴克 0.0181937
going 最早 0.104194
has 小组 0.0147164
was 金星 0.0021905
IRS IRS 1
challenged 会上 0.898453
Hathaway 内布拉斯加州 1
Buffett 希尔 0.799995
rally 伯克 1
was 急救 0.000621994
with 中银国际 0.0013897
backs 提议 0.99995
backs 这项 4.98071e-05
percent 30% 0.118566
pay 沃伦 0.151514
would 命名 0.0360856
Buffett 亿万 0.200005
where 威金 0.0197204
billionaire 亿万 1
presidential 一大 0.0151378
issue 一大 0.0291104
an 一大 0.00249031
have 一大 0.000670659
rates 一大 0.0144674
saying 会计 0.0767639
columnist 专栏作家 1
for 九十年代 0.00076109
taxes 九十年代 0.5
rescue 救援队 0.044523
little 政客 0.0198155
hold 发证 0.0760602
very 政客 0.00733707
zero 政客 0.183674
politico 新闻网 1
crowd 众人 0.147542
done 那样 0.428672
decades 那样 0.690321
what 几十年 0.0587802
Joanna 罗瑟尔 1
do 几十年 0.0120521
refuses 几十年 0.615385
he 几十年 0.00200522
taxes 敦促 0.5
profile 民主党人 0.284755
@-@ 民主党人 0.00118192
high 民主党人 0.0115564
an 抨击 0.0149442
issue 猛烈 0.0991626
on 猛烈 0.00113374
pounced 猛烈 1
has 抓住 0.00295431
ties 质疑 0.332077
Astronomical 天文学 1
dealings 商业 1
his 净值 0.00482746
fellow 共和党人 0.432512
Romney 罗姆尼 1
are CNN 0.00169845
more 质量 0.0159974
until CNN 0.033191
them CNN 0.00658766
release CNN 0.0136639
CNN 科恩 1
told 科恩 0.0175452
&apos;s 链接 0.00027949
linking 附上 1
Twitter 做主 0.157182
like 老鼠的儿子会打洞 0.002461
Sams 萨姆斯 1
Ian 萨姆斯 1
move 伊恩 0.0593523
Service 国税局 0.0676733
Internal 国税局 1
audit 审计 1
cited 律师 1
have 律师 0.00401656
lawyers 律师 1
do 惯例 0.0112989
candidates 惯例 1
customary 惯例 1
but 繁荣 0.00060543
behind 理由 0.0744168
dispute 酒后 0.0227474
time 发证 0.00280917
contrast 鲜明对比 0.195744
issue 限贷 0.0291093
Palmieri 帕尔米 1
Jennifer 耶里 0.333333
financial 标杆 0.0547552
for 标杆 0.000380513
years 霍尔 0.0115568
10 霍尔 0.0111508
along 安妮 0.00278291
along 凯恩 0.118649
Kaine 凯恩 1
Tim 蒂姆 1
Senator 参议员 0.5
U.S. 弗吉尼亚州 0.0464416
mate 弗吉尼亚州 1
Department 任职期间 0.0222386
at 任职期间 0.000785386
book 任职期间 0.0269822
publisher 出版商 1
state 舒斯特 0.021745
told 告知 0.0117314
get 布兰迪斯 0.00237425
former 舒斯特 0.0359024
; 而前 0.0156386
tortured 折磨 1
$ 书 0.040385
$ 530 0.0403851
in 演讲 0.000382831
rate 税 0.123444
effective 联邦 0.375803
nominee 候选人 0.520208
100 百辆 0.0293323
showed 2105 0.02877
rat 34.2% 1
paid 缴纳 0.705076
have 开枪 0.00100595
$ 年收入 0.0403556
earned 年收入 0.176172
Clintons 夫妇 0.826423
sweeping 曼比季 0.499921
undertaking 曼比季 0.272734
Council 达尔维 0.0641834
Military 达尔维 0.428566
hostages 平民 1
2,000 平民 0.0440607
they 平民 0.000795013
been 激进分子 0.0120098
who 激进分子 0.0122972
group 全城 0.0770842
remaining 躲 0.0545929
sweeping 扫荡 0.500079
were SDF 0.00439548
two 两份 0.00922939
SDF SDF 0.250004
Forces 力量 0.923077
Democratic 民主 0.230769
group 城内 0.0276953
for 城内 0.00050749
left 残留 0.0107583
fighters 残留 0.0392164
remaining 士兵 0.109693
last 残留 0.00312235
after 边境 2.45511e-05
Manbij 曼比季 0.800011
hens 蛋鸡 0.789483
U.S.-backed 部队 1
Stat 手中 1
Manbij 曼比 0.199989
full 部队 0.0737063
seized 部队 0.800039
have 部队 0.00402375
say 曼比 0.0208667
forces 曼比 0.0585571
&apos;s 所有者 5.25856e-05
active 所有者 0.0723883
sofosbuvir 所有者 1
was 暗 0.00265506
laboratory 实验室 1
claiming 有效成分 0.750001
other 对方 0.0184399
each 互相 0.000168585
back 追溯到 0.0278538
liver 肝炎 0.344287
patients 肝炎 0.0327011
percent 90% 0.0843429
all 获益 0.00434328
dominates 吉列 1
defending 辩护 0.384903
it 辩护 0.00043781
from 辩护 0.000672727
entitled 承担 0.801671
Labson 兰博松 1
Beth 兰博松 1
Judge 贝斯 0.6
practices 作伪证 0.065934
unethical 作伪证 1
lying 作伪证 0.0944866
by 药品 0.00287879
misconduct 畅销 1
Harvoni 道德行为 1
months 取得成功 0.000898439
&apos;s 畅销 7.33859e-05
patents 默克 1
for 赔偿款 0.000217445
damages 赔偿款 1
200 赔偿款 0.0332206
paying 赔偿款 0.109093
freed 畅销 0.642952
was 畅销 0.000531237
judge 律师费 0.0207768
U.S. 法官 0.335442
Merck 默克 0.810778
related 默克 0.0747265
it 诉讼 0.0017598
fees 诉讼 0.0736196
Inc 律师费 0.0909017
Gilead 吉列 4.31298e-05
created 奇恩 0.507552
get 之争 0.00726296
Gilead 德 0.681432
Gilead 吉利 0.309742
participation 唤醒 0.282168
awareness 唤醒 0.386598
everyone 唤醒 0.0960393
&apos;s 唤醒 7.47623e-05
stimulated 激发 0.571428
possible 效率 0.17632
much 效率 0.0469451
as 效率 0.00525472
openness 尽可能 1
expand 扩大开放 0.285683
collection 税务机关 0.111111
units 单位 0.800001
sports 体育场馆 0.0575478
planning 充分考虑 0.399482
stadium 充分考虑 0.0263845
our 优秀品格 0.0109417
take 城市规划 0.010355
shall 城市规划 0.0252422
board 短板 0.336079
short 短板 0.599651
sports 群众体育 0.0127884
- 2020 0.00764559
communicate 驻地 1
meet 适应 0.0787463
a 印发 0.000263677
issued 印发 0.0795768
Council 印发 0.000574588
150 体育场地 0.0917966
sports 体育场地 0.00548158
players 选拔 0.041668
competitive 竞技 0.530179
vivid 源源不断 1
continuously 源源不断 0.428571
produced 源源不断 0.0601192
be 名将 0.00384491
swimming 泳坛 0.398863
whole 沃土 0.0226902
open 开辟 0.0586458
would 沃土 0.00601428
as 昨晚 0.00157642
. 体育 0.00061314
November 对外开放 0.0708513
opened 对外开放 0.153628
son 老鼠的儿子会打洞 0.0538508
cultural 文化公园 0.0883224
languages 两门 0.267942
became 成 0.231437
construction 建筑 0.108434
. 闲置 0.000188908
years 十多年 0.00660411
remained 煤场 0.28362
once 煤场 0.0167313
veil 面纱 1
its 面纱 0.00386361
Wangjiang 望江 1
outside 南 0.0936705
Park 营 0.0590895
Culture 营 0.0659341
, 揭开 5.34372e-09
fitness 健身 1
while 红砖 0.00988694
football 足球场 0.214286
grass 绿草如茵 1
is 期货市场 0.000455908
warehouse 仓库 1
field 足球场 0.0529988
field 煤场 0.060952
coal 煤场 0.0807472
facilitie 短 0.862694
sports 体育设施 0.0242688
public 体育设施 0.000199341
roadblocks 层层 1
barbed 带刺 1
fence 防护栏 0.888877
by 外围 0.00287903
strongly 并用 1
gray 灰色 1
Carré 屋 1
le 屋 1
cold 屋 0.384625
used 间谍 0.046026
used 勒卡 0.046026
be 改编自 0.00768981
residence 官邸 0.194466
victory 一鸣惊人 0.034502
appearance 外观 0.320642
appearance 对比 0.180361
article 文章 0.8
China 图集 0.00498571
to 图集 2.38366e-07
fall 降价 0.0765215
Times 金融时报 0.355932
turn 拒之门 0.126077
released 先后 0.0364269
Minnesota 明尼苏达 1
Council 先后 0.128847
Strategy 战略 1
stated 直指 0.3
China 防 0.00598363
rise 防 0.0483556
Department 委 0.0667036
US 日美 0.0429954
Chappaqua 巴克 1
under IRS 0.0160163
out 自卫队 0.00649111
@-@ 自卫队 0.000886436
adopts 市场机制 0.250093
going 自卫队 0.0260488
promotion 三点 0.272729
sector 面对 0.0925246
framework 变动 1
substantial 大幅 1
level 变动 0.0102546
Australian 走强 0.0605203
other 变动 0.00136495
implementation 框架 0.118081
implementation 贯彻 0.118081
system 运用 0.0503322
security 法制 0.0125038
&apos;s 法制 7.3516e-05
area 阶段性 0.0602005
phased 收官 1
achieve 三点 0.0162663
as 萨里 0.0067538
on 预算 0.00104933
relations 对华 0.131876
process 发言权 1.42838e-05
foreign 训演 0.0663047
system 编制 0.0377451
weapons 武器装备 0.749986
adds 该报 1
defense 国防 0.172913
military 编制 0.0209513
military 军事实力 0.020949
while 子女 0.00988695
nine 章 0.146338
into 章 0.00497332
is 章 0.000273545
launch 英文版 0.0339777
fourth 英文版 0.116748
has 第五次 2.39615e-08
has 智库 0.00221572
think 民间 0.092946
civilian 民间 0.857142
&apos;s 民间 0.000245033
that 第五次 0.00113492
time 第四次 0.00561834
expires 补贴 1
Nakatani 中谷元 1
&apos;s 防卫 0.000366719
State 国务卿 0.0495874
US 卡特 0.0286636
day 国防部长 0.0160335
world 进攻性 0.0279372
more 更具 0.00124595
forces 武装力量 0.117113
allowing 允许 0.909091
guidelines 指针 1
@-@ 美日 0.00118192
US 防卫 0.0861849
Japan 美日 0.0125665
in 起诉 0.000485859
seed 种子 0.437066
one 种子 0.00334615
number 种子 0.0195627
day 落马 0.048125
day 决出 0.00400623
same 决出 0.0060198
on 决出 0.000218623
Stryker 萨法洛 1
Makarova 科娃 1
; 斯特里 0.0469157
Heravacova 维斯 1
Hradeca 卡洛娃 1
vs 斯基 0.333336
/ 萨法洛 0.0225734
/ ／ 0.388993
notice 发布公告 1
rate 利用率 0.0287938
Keith 凯斯 0.200441
return 工资收入 0.0326695
be 凯斯 0.00192201
another 一张 0.0208683
will 科维托娃 4.65205e-07
players 退赛 0.0333678
of 退赛 5.9083e-05
withdrawal 退赛 0.237876
singles 女单 0.456169
side 小红圈 0.0274933
medals 梅格亚 2.27909e-06
Lopez 洛佩兹 0.185607
teammate 洛佩兹 0.210672
huge 颇丰 0.144987
made 出击 4.09772e-07
special 痊愈 0.041044
group 一组 0.165666
slam 满贯 1
grand 满贯 0.6
is 当日 0.00164906
single 男双 0.0821842
top 八强 0.0327591
opponent 直落 0.398726
beat 男单 0.0791971
and 两盘 0.000825438
affect 老鼠的儿子会打洞 0.0111043
Spanish 西班牙 0.229871
a 西班牙 0.00129663
rookie 杰克 1
people 青年 0.00430966
such 沟通 0.00725931
later 沟通 0.0279103
they 纷纷 0.0107326
would 减薪 0.0135329
would 做会 0.0353832
you 什么样 0.0110679
really 不失 0.0918139
happy 快乐 0.437498
relaxed 轻松 0.563288
wine 饮用 1
chat 同事 0.442539
so 缺少 0.00909497
study 学习 0.487611
our 精力 0.0262452
most 精力 0.0170825
spent 精力 0.271243
We 精力 0.807604
include 下达 0.285774
organizes 积极 1
streets 弹劾 1
saying 引用 0.131595
for 纪委 0.000380545
plans 不满 0.151209
combines 结合 0.999998
combines 丹凤县 2.43269e-06
Company 丹凤县 0.285446
theme 七夕 0.113701
Double 暨 0.50414
ancient 情满 0.666667
Berkshire 内布拉斯加州 1
introduce 相约 0.571428
was 难以置信 2.0947e-07
supply 供电 0.0499969
money 转校 0.02917
County 丹凤县 0.124018
spots 棣 0.333349
scenic 景区 0.857321
town 情满 0.288864
ambassador 雅科夫 0.0627688
based 车主 0.0931591
who 申领 0.0162256
actual 车主 0.75
handle 车主 0.223549
parking 停放 0.564668
move 拒不移 0.0296762
those 拒不移 0.0181422
public 操作 0.0260063
reduces 治安案件 0.221548
Matt 普顿 1
easy 缓解 1
friendly 移车 1
meet 相遇 0.0137806
both 相遇 0.0306558
such 轻松 0.0421013
conveniently 自行 1
it 自行 0.000880659
operate 自行 0.139454
more 愤怒 0.00208066
time 时段 0.0112367
@-@ 全天候 0.00236383
third 三是 0.0848034
citizens 公民 0.170731
privacy 个人隐私 1
protecting 个人隐私 1
and 个人隐私 0.000164069
respecting 个人隐私 1
administrative 行政 0.33333
efficiency 成本 0.307692
is 个人隐私 0.000273967
functions 快捷 1
solve 行驶 0.0727041
they 驾驶 0.0132532
status 匹配 0.292381
unfamiliar 车辆 1
found 如遇 0.0193485
life 如遇 0.0261742
launching 推出 0.357305
kill 49 0.127234
over 治愈 0.0189659
driver 车辆 0.301756
contact 日常 0.153137
problem 困扰 0.00908677
particular 尤其 0.233339
moving 挪车 0.647579
may 陌生 0.0114059
they 阻碍 0.0286202
vehicle 挪车 0.45
vehicle 不上 0.15
strange 不上 0.352939
strange 出行 0.117646
hampered 车辆 1
when 陌生 0.00586008
travel 出行 0.00994047
it 这件 1.87076e-05
built 关切 0.0423857
seen 从此 0.115042
has 关切 0.00110786
has 从此 0.00221573
disputes 一代人 0.222139
opportunity 万个 0.263115
Britain 告知 0.0183191
consequence 后果 1
intervene 介入 1
its 星球 0.0173934
Service 气象 0.270692
Meteorological 航空 1
great 一支 0.066283
later 稍后 0.134896
this 军事冲突 0.00101828
stopped 军事冲突 0.00107843
stopped 潜在 0.333214
1950s 阻止 0.690907
since 电磁干扰 0.0127317
Earth 电磁干扰 0.00290579
interference 末 0.195122
study 末 0.0248335
started 末 0.0835001
force 末 0.0205186
fortunately 幸运 1
search 寻找 1
readiness 战斗准备 1
double 男双 0.201213
combat 战斗准备 0.2
enter 战斗准备 0.199992
than 罪魁祸首 0.00413804
terminal 航站楼 0.329272
culprit 干扰 1
commanders 指挥官 1
flying 天上 0.0969798
warheads 天上 1
some 核弹头 0.0147899
model 太空 0.120603
@-@ 超标准 0.00101307
launching 发动 0.593287
from 突然 0.0107644
order 防止 0.0635355
should 人应 0.00735355
non 非保密 0.186598
reviewed 查阅 1
solar 美军方 0.0359251
solar 末 0.0479002
forecasting 预报 1
@-@ 管理层 0.00045051
military 太阳活动 0.0279299
US 太阳活动 0.0573293
@-@ 对冲 0.000443225
Colorado 科罗拉多 1
at 美军方 0.000786976
written 美军方 0.25
missiles 导弹 1
closely 密切相关 0.160873
provides 年迈 0.120928
US 一部分 0.171941
warning 预警系统 0.749309
missile 弹道导弹 0.142848
of 弹道导弹 1.91355e-07
part 弹道导弹 0.0162961
radars 雷达 1
US 军方 0.124031
communications 无线电通信 0.777778
radar 干扰 1
1967 1967 1
Hong 港 0.3134
been 日才 0.00400351
&apos;s 决策 0.000367603
against 险些 0.024166
States 险些 0.0313428
almost 险些 0.0232025
has 日才 0.00110792
known 鲜为人知 0.0344935
little 鲜为人知 0.0264206
known 顶峰 0.0206953
war 顶峰 0.0329402
cold 顶峰 0.615375
as 顶峰 0.00105111
as 看做 0.00262711
war 核战争 0.493525
into 运进 0.0248666
missile 导弹 0.857152
Soviet 美苏 2.39134e-05
War 冷战 0.799998
Cold 冷战 1
degrees 摄氏度 0.0806343
temperature 冒 0.0710967
under 摄氏度 0.021355
Mountain 昆嵛山 1
jungle 昆嵛山 1
have 昆嵛山 0.000671171
organized 特战 0.000479821
organized 烟台 0.0139828
Police 武警 0.165731
immersive 之感 1
senses 之感 1
have 之感 0.00114257
let 身临其境 0.0132453
ensure 方位 1.04703e-05
raise 拍摄 0.470358
unique 观影 0.50457
a 独一无二 6.79158e-05
have 独一无二 0.0018746
perspective 视角 0.499453
hydrogen 氢 1
from 视角 0.0035878
interaction 西藏 1
for 交融 0.000507394
&apos;s 第三极 5.25071e-05
waited 这件 1
on 第三极 0.000187353
&apos; 较慢 0.013297
@-@ 青藏高原 0.00354574
natural 自然生态 0.204062
&quot; 极地 0.000779648
for VR 0.00182656
version 版 0.54128
version 纪实 2.9097e-05
panoramic 纪实 3.55355e-05
onshore 承包商 1
next 中央电视台 0.0115553
early 中央电视台 0.0595155
Letv 乐视 1
CCTV 明年初 0.0773789
on 明年初 0.000431541
is 该片 0.000320234
contractors 承包商 0.973479
air 姿势 0.205902
meter 三种 0.363664
Du 杜丽以 0.238062
eligibility 参赛 1
their 公民 0.00487861
years 时隔 0.0077048
lapse 时隔 1
for 备战 0.000507382
prepare 备战 0.181904
) 申报 0.0112605
ISSF 国际射联 1
International 杜丽向 0.0860049
language 掌握外语 0.126761
after 折戟 0.00122056
positions 690.3 0.6
for 总成绩 0.000380122
record 纪录 0.293352
Olympic 纪录 0.0121832
each 拒之门外 0.0137229
broke 环破 0.309013
Athens 雅典 1
first 首金 0.00377559
thus 首金 0.0293025
gold 首金 0.00747716
together 组队 0.0224104
record 世界纪录 0.331345
world 世界纪录 0.0419058
broke 打破 0.618026
results 成效 0.209721
air 气步枪 0.203226
m 气步枪 0.727274
she 2003 0.00553151
Coach 跟随 0.571195
Province 射击队 0.0768182
these 四块 0.0043342
decreasing 即 1
4 四块 0.0090854
for 四朝 0.000507379
Games 奖牌 0.0405871
consequent 四朝 1
Li 杜丽 0.30715
Du 杜丽 0.285966
Du 老将 0.23791
tomorrow 洛特 0.181818
veteran 老将 1
shoes 收起 1
three 战罢 0.0088911
after 战罢 0.00122155
enhance 免疫力 0.017639
clogging 免疫力 0.983689
clogging 机体 0.0163108
blood 机体 0.15867
prevent 堵塞 0.0599068
this 预防 0.00305888
during 水分 0.00497111
fruit 水分 0.0603064
have 吃水果 0.00201189
water 吃水果 0.0219412
for 第二天 0.00076109
rebroadcast 第二天 1
night 不妨 0.0278274
occasionally 偶尔 1
via 线外 0.0968693
can 偶尔 0.00277166
system 预警系统 0.0377452
. . 0.00550952
largely 脑中风 0.368415
this 左右 0.00306006
stroke 脑中风 0.0963702
news 新闻社 0.0196718
treated 科室 1
had 科室 0.00578739
his 今年以来 0.0156285
according 韩志远 0.00561035
related 心肌梗塞 0.0193505
be 心肌梗塞 0.00170884
may 心肌梗塞 0.0050693
myocardial 心肌梗塞 1
onset 心肌梗塞 1
his 心肌梗塞 0.00178794
received 接诊 0.106069
football 足球赛 0.214286
games 史 0.0709926
games 看 0.320533
watch 看 0.408387
UK 成功 0.591583
cancer 肿瘤 0.210183
neuroendocrine 系统 0.0789192
I 改进 0.00373407
gastrointestinal 免疫系统 1
affected 肿瘤 0.116827
affected 胃肠功能 0.116694
be 肿瘤 0.00256341
be 胃肠功能 0.00255939
function 神经 0.172414
then 免疫系统 0.0154537
from 群体 0.0179452
may 病史 0.0228119
history 家族 0.0168207
family 家族 0.00793085
blood 高血糖 0.0454973
high 高血糖 0.0148566
have 高血压 0.00134124
people 高血压 0.00191542
Zhiyuan 韩志远 0.876625
may 收缩 0.00456237
this 收缩 0.000612007
recovery 收缩 0.10042
market 退出 0.023755
strength 东证 0.198239
body 激素 0.0481809
hormone 激素 1
resume 谈 0.250596
you 熬夜 0.0140961
you 长时间 0.0154942
disease 疾病 0.0542386
has 隐患 0.00295428
did 指挥官 0.0410142
watch 观看 0.435543
stay 熬夜 0.647241
China 时分 0.0149591
as 手 0.0126685
swing 如火如荼 1
late 熬夜 0.38002
up 熬夜 0.100825
endure 耐得 1
concentrated 沉得 1
people 沉得 0.00227947
client 对应 0.222274
how 多少 0.0149096
great 庞大 0.0307623
days 竞速赛 0.0411391
news 本届 0.0803807
Avalanche 雪崩 1
Pharmacy 医药 1
Lynx 天猫 1
Health 天猫 0.061745
namely 阿里 0.639267
three 三块 0.0288599
Ali 天猫 0.106645
entry 词条 0.374998
same 同一 0.0361114
be 词条 0.00153797
can 词条 0.00166297
unity 词条 1
professionalism 书写 1
short 专业性 0.400349
are 专业性 0.00283459
companies 专业性 0.019527
win 心来 0.0349081
down 心来 0.020246
Wang 王磊 0.0782334
legal 法律援助 0.0326611
legal 医患 0.0325843
doctors 学术交流 0.00476215
exchange 学术交流 0.0216246
learning 在线 0.189306
are 学术交流 0.00121301
following 学术交流 0.0299208
communication 求助 0.370293
client 开设 0.777726
are 板块 0.00212285
rate 海上 0.0240023
plates 板块 0.150989
on 限制 0.000484688
on 微 0.000317912
won 首金 0.00552548
lecture 讲座 1
market 电价 0.00853239
spots 保卫 0.333349
form 讲座 0.0443151
restrictions 讲座 0.571429
geographical 讲座 0.181818
breaks 讲座 0.0689657
doctor 病例 0.0332125
doctors 寻医 0.00549028
on 寻医 0.000215992
charge 定向 0.0516768
pregnant 孕妈 1
be 深耕 0.00259883
on 深耕 0.000425029
iBaby iBaby 1
projects 贪大求全 0.0176155
for 专注 0.00076112
for 贪大求全 0.000253684
Reform 协调 0.499963
which 贪大求全 0.00220399
agency 税务机关 0.0662252
opportunity 契机 0.350867
build 先进 0.0345015
her 任职期间 0.00249447
other 三名 0.00818971
supply 供应链 0.0874942
electronic 电子化 0.731707
was IRS 0.000663766
nominee 链接 0.098404
registered 60% 0.545564
invested 器械 0.291669
and 专 6.44338e-09
and 下心 0.000825215
swarm 一窝蜂 1
that 看来 0.00340436
seems 看来 0.281299
it 沉得 5.82951e-05
touted 捧 0.5
United 曼联 0.0238278
still 仍能 0.0142037
clashed 学生 1
sub 几家 0.134354
several 细分 0.0510067
boss 老板 0.538467
round B轮 0.104516
A A轮 0.0591621
road A轮 0.0640992
information 信息化 0.0327409
as 挣扎 0.00262718
ceased 不复存在 1
@-@ 略感 1.11401e-05
one 创业 0.000333018
threatening 自尊 1
languished 不复存在 1
companies 医疗 0.199476
companies 创业 0.0486305
start 创业 0.148203
Olympic 冬 7.25782e-07
Management 彼 0.271845
shall 就要 0.0378633
Union 苏联 0.521729
Pi 艾力 1
data 另据 0.0204691
period 期 0.0275066
@-@ 期 0.00177287
wait 观望 0.402156
gradually 渐退 0.0451807
fade 渐退 1
medicine 医药 0.615385
into 医药 0.00994664
Medicine 国家中医药管理局 1
State 国家中医药管理局 0.00743811
Commission 计生委 0.161291
Health 卫生 0.370188
focus 抽查 0.159458
been 多次 0.0192158
past 医疗广告 0.0148219
stuck 教练组 1
advertising 医疗广告 0.250001
have 多次 0.0024143
medical 医疗广告 0.0214161
take 既往 0.00621314
localities 各地 1
all 各地 0.0173726
already 上演 0.117877
. 信心 4.7401e-06
in 信心 6.73955e-07
undermine 破坏 1
when 谈到 0.00390672
said 温伯格 0.000904819
care 身体 0.234769
commercial 温伯格 0.111111
cannot 理事长 0.0145241
director 商业银行 0.0432057
Weinberg 商业银行 1
Eugen 德国 1
taking 照看 0.0617381
giving 镜子 0.239199
attention 烟雾 0.167265
&apos;s 烟雾 0.000172441
draws 引开 0.428461
crime 他俩 0.285864
that 引开 1.09241e-06
mirror 镜子 0.135811
smoke 引开 1
a 镜子 5.63253e-05
means 手段 0.112911
agreement 情绪 8.46628e-05
an 情绪 0.0116446
would 促成 0.0180355
percent 20.3% 0.0843429
that 释放 0.00109354
sentiment Helima 0.799999
yea 拒之门 1
at 主管 0.0188874
commodity 大宗 1
head 克罗夫特 0.0564805
Croft 克罗夫特 1
symmetrical 式 1
ballistic 弹道导弹 1
BMIResearch 理查兹 1
at 理查兹 0.00236092
an BMIResearch 0.00498139
Richards BMIResearch 0.25
Mr 法雷尔 5.07729e-05
his 断章取义 0.00160736
countries 未能 0.0533818
countries 成员国 7.25667e-06
was 上次 0.00175434
price 必要 0.0146583
under 冻产 0.0160163
negotiations 冻产 0.249855
Covitova 科维托娃 1
production 冻产 0.00862353
on 收回 0.000262408
frozen 冻产 1
any 知晓 0.0113762
round 新一轮 0.20906
new 新一轮 0.0165148
unnecessary 必要 1
was 必要 0.000885021
644 644 1
minister 诺瓦克 0.0645171
release 刚出 0.0683469
at 召开 0.0106445
detailed 一概而论 0.0908775
been 385 0.0040033
has 385 0.00110787
3.85 385 1
- 间接 0.00777812
year 业绩 0.00276837
daily 伊朗 0.270271
minister 赞加 0.064517
oil 赞加 0.0129561
Zanganeh 石油部长 1
Information 美国能源 0.363636
tighten 不太可能 1
made 竭尽全力 0.00729032
unlikely 不太可能 1
is 不太可能 0.000455908
countries 产油国 0.0160207
producing 产油国 0.161074
@-@ 产油国 0.0014183
oil 产油国 0.0155474
believes 路透社 0.0850281
Brent 布伦特 1
September 原油期货 0.0539939
in 布伦特 0.000320653
in 交货 0.000307961
2.48 2.07% 1
by 2.07% 0.00163129
fell 2.07% 0.0408525
fell 下跌 0.263998
Mercantile 2.48% 1
York 2.48% 0.0578512
futures 下跌 0.578753
oil 交货 0.0236772
crude 交货 0.0939207
light 轻质 0.206741
close 收盘 0.0643229
supply 收跌 0.017499
market 收跌 0.00510391
aggravating 收跌 1
&apos;s 竞选 0.00149664
expectations 上调 0.104168
output 上调 0.0668895
production 上调 0.0086233
affected 受此 0.100154
supply 市场供应 0.0218738
excess 市场供应 0.429059
degree 市场供应 0.127296
thus 从而 0.791005
refined 精炼 1
context 的话 0.00240116
prices 价格低廉 0.191504
that 报中 0.000567459
report 报中 0.00511869
million 万桶 0.0764476
day 3311 0.00763949
/ 3311 0.0246999
46,000 4.6 1
by 上升 0.0057577
increased 加蓬 0.0538834
Gabon 加蓬 1
Jonathan 斯编 1
an 非正式 0.00498139
painful 痛苦 1
hold 非正式 0.101414
Sada 萨达 1
early 弹道导弹 0.0297557
Discipline 纪委 0.6
modular 模块化 1
Monday 本周一 1
on 本周一 0.000655736
thorns 荆棘 1
bristled 布满 1
doubting 信誉 1
from 产生 0.0311691
prevent 禁令 0.0599067
new 新高 0.00825741
Arabia 创下 1
Saudi 创下 1
increase 创下 0.0113465
continued 沙特 0.311442
production 产量 0.17247
report 报 0.0234448
monthly 报 0.399593
&apos;s 创下 0.000105021
would 好吃 1.53985e-06
would 核桃 0.036035
walnuts 核桃 0.000700583
walnuts 碎 0.999299
regeneration 活力 1
chopped 加点 0.333189
Some 加点 1
he 甜点 3.78665e-05
budgeter 甜点 1
oversight 疏忽 1
@-@ 甜点 0.00114987
Exchange 2.48% 0.135135
thirds 匙 1
seconds 匙 0.117648
for 匙 0.000608857
back 匙 0.0334251
bad 不错 0.168832
&apos;t 味道 0.144903
goo 糊状物 1
by 报酬 4.98513e-06
brown 糊状物 1
viscous 棕色 1
spoon 棕色 0.999947
spoon 粘稠 5.25589e-05
a 深入 4.1026e-07
dipped 调羹 0.895414
dipped 勉为其难 0.104586
reluctantly 勉为其难 1
cinnamon 肉桂 1
flour 糖 1
prunes 面粉 1
help 布兰迪斯 0.00105688
whipped 面粉 0.25
there 这道 0.00968171
name 伎俩 0.11191
snazzy 伎俩 1
recipes 惯用 0.216614
modest 惯用 1
adding 叫作 0.445217
whip 叫作 1
prune 叫作 0.0470494
&apos;s 叫作 7.37401e-05
ate 中所 0.666716
home 在家 0.0334862
prepared 在家 0.0788633
out 拿出 0.00865473
Eisenberg 盘子 0.166668
community 怕 0.0143886
at 在家 0.00118047
won 好评 0.00737083
cleared 盘子 0.441055
were 盘子 0.00263726
plates 撤掉 0.603957
puff 芙 1
@-@ 芙 1.0428e-05
there 泡 0.00968947
there 比如 2.63342e-06
sick 生了病 1
got 生了病 0.035659
actually 生了病 9.58432e-07
fear 浪费 0.172313
real 害怕 0.249889
had 害怕 0.00765508
instance 丢弃 0.400016
for 丢弃 0.000253615
away 丢弃 0.0212064
couldn 丢弃 0.152005
world 停摆 0.00931239
understanding 饮食习惯 0.128804
greater 饮食习惯 0.127732
writing 写 0.836018
science 科学 0.66667
alliance 同盟 0.80093
calories 卡路里 1
on 卡路里 0.00104391
continued 卡路里 0.124994
feet 正规 1
its 摒弃 0.00128787
on 摒弃 0.000145719
unlike 工资收入 0.666665
country 摒弃 0.00588138
soon 摒弃 0.0215983
abandoned 摒弃 0.357143
amid 性别歧视 1
were 正规 0.00263724
venues 体育场馆 0.477269
ways 正规 0.0847915
. 首播 0.000307024
prepared 最差 0.105151
dismally 最差 1
also 华盛顿 0.00100268
mass 群众体育 0.144231
some 华盛顿 0.00739493
counseling 问诊 1
out 难吃 0.0173129
put 华盛顿 0.0263829
Shane 肖恩 1
interest 管家 0.0902612
housekeeper 管家 1
hiring 聘用 0.454657
slow 较慢 0.170694
&apos;s 聘用 0.000163262
Mrs 言 1
it 言 0.00117421
tells 言 0.0763689
stomach 树立 0.625
example 埃莉诺 0.0569466
an 埃莉诺 0.00597767
touch 人民 0.603438
out 脱离 0.00865484
fabulously 脱离 1
was 脱离 0.000885017
jacket 就餐 1
dinner 就餐 0.110802
plated 晚礼服 1
almost 镀金 0.0231957
ate 穿着 0.333284
Archibald 以新 0.109285
cucumber 黄瓜 0.000502621
with 黄瓜 0.00282431
Continental 欧式 1
eat 欧式 0.0411914
paying 重视 0.763633
Anthony 德尔 0.13186
become 精致 0.0064335
sophisticate 百万富翁 1
millionaire 百万富翁 1
dined 爱荷华州 0.337079
lane 东城区 0.75
praised 童年 0.142823
publicly 童年 0.117647
he 精致 0.00167383
while 赞扬 0.0197739
attitude 管不了 6.22461e-07
eat 管不了 0.0206008
@-@ 管不了 0.00177287
Hoover 胡佛 1
Herbert 胡佛 1
be 特梅尔 0.00192245
like 胡佛 0.00344563
citizenry 赫伯特 1
&apos;s 别人 0.000367549
accounts 玩味 0.236227
savory 值得 1
scale 广 0.198729
tidbits 珍味 1
knighthood 封号 1
a 一顿 0.000124624
dishes 美食 0.750004
eject 射 1
spaghetti 面配 1
creamed 意大利 1
like 意大利 0.00344542
glop 意大利 1
challenge 意大利 0.237288
become 精打细算 0.00965743
newspapers 杂志 1
, 聘请 2.43211e-09
publishing 杂志 1
eating 饮食习惯 0.145789
drove 在历史上 0.359164
1943 绝无仅有 1
want 舞鞋 0.0405773
1923 绝无仅有 1
Economics 绝无仅有 1
Home 绝无仅有 1
Palaszczuk 白乐琪 1
federal 绝无仅有 0.0320149
Stanley 斯坦利 1
site 条件 0.424956
among 路易斯 0.0214709
economists 主厨 1
home 主厨 0.026789
since 主厨 0.00375074
or 主厨 0.00470459
never 经济局 0.126135
as 1923 0.00525472
recipes 特点 0.00409761
ec 餐 1
home 餐 0.0268159
a 搭配 1.76319e-08
has 搭配 0.000715684
&apos;s 人应 0.000183762
addition 餐桌上 0.0355916
a 常见 1.19368e-05
stuffed 烤 1
onion 烤 0.75586
includes 食谱 0.199968
which 食谱 0.00661194
researching 本书 1
while 60% 0.00395478
sense 常识 0.13209
kitchen 常识 1
common 常识 0.185644
joint 股东 0.255356
over 最先 0.00474147
precedent 最先 1
du 杜丽 0.559904
fulfillment 最先 1
nutritional 比起 1
39 平 0.390784
were 考虑 2.84096e-06
were 大杂烩 0.00659256
sparingly 奢侈品 1
a 稀有 3.02947e-06
American 肉 0.033846
meat 多年 0.930928
dried 干果 1
slowly 速度慢 0.582967
commissaires 资格赛 1
coating 食材 1
dark 黑乎乎 0.323869
under 食材 0.00800815
ingredients 食材 1
made 民事裁定 0.00781478
unappetizing 食材 1
personnel 太阳活动 0.33334
hide 食材 1
cooks 酱料 1
original 1499 0.0159886
power 供电 0.0555766
repurpose 剩菜 1
wonderful 迷 0.428571
unions 工会 1
became 炖菜 0.092572
loaves 主菜 1.01205e-05
like 主菜 0.00574224
dishes 主菜 0.249996
mystery 主菜 0.249996
: 寒酸 0.00450153
despite 自此 0.0482583
for 令 0.00456653
subject 不快 0.0443591
central 不快 0.0416638
became 不快 0.0264492
m 690.3 0.272726
plenty 之地 1
suddenly 富足 0.0609227
with 富足 0.000403676
nation 富足 0.047898
rate 治安案件 0.00729228
I 欧洲人 0.00560143
War 欧洲人 0.200002
World 饥饿 0.193612
Europeans 送给 1
close 电力供应 0.0183779
Americans 一战 0.0193111
was 一战 0.000442511
dinner 刚考 0.221605
breakfast 早餐 1
at 早餐 0.00157395
was 馅饼 0.000535166
pie 馅饼 1
baked 馅饼 0.233544
fresh 馅饼 0.0394352
cooked 烧饭 1
buffet 郊区 1
eat 郊区 0.0352198
according 文章 0.0126236
all 自助餐 0.00347511
was 自助餐 0.00053091
areas 郊区 0.0226588
table 人顿 0.512117
lead 铅 0.0806667
stomach 胃里 0.375
sat 胃里 0.375
must 胃里 0.0150247
serve 花生 0.167102
30 30% 0.111929
enough 花生 3.39861e-06
enough 想象 0.161726
imagine 想象 0.85712
stretches 浇头 1
thing 浇头 0.230787
ingredient 原料 0.823317
an 原料 0.00498036
from 原料 0.00179398
made 原料 0.00972083
loaf 面包 1
peanut 肝脏 0.217222
eating 时期 0.388395
era 时期 0.502669
discussion 讨论 1
fitting 菜 1
it 菜 0.00352264
deemed 菜 0.8423
meatloaf 卷 1
ordered 烘肉 0.13513
view 外观 0.147439
medley 拼盘 1
vegetable 蔬菜 1
57 火鸡 0.5
sandwich 橄榄 1
chopped 配碎 0.000433064
cheese 配碎 1
cream 奶油 1
ordered 三明治 0.270299
1929 奔溃 1
Superior 庭 1
that 时起 0.000283731
Flatiron 1929 1
frills 柜台 1
@-@ 时起 0.000443217
no 时起 0.00325394
depth 更上一层楼 0.0232574
Shop 时起 1
&apos;s 时起 4.59437e-05
Eisenberg 营业 0.833332
reporter 店中 0.0604743
met 店中 0.133914
their 艾 0.0048786
culinary 见解 0.625084
some 见解 0.00492583
showing 见解 0.66676
Great 食品 1
German 公开信 0.0270434
published 出版社 0.436907
home 夺冠 0.0223242
be 中将 0.00256327
work 编写 0.00658783
collaborative 编写 1
new 编写 0.00548382
East 97 0.103963
turkey 火鸡 1
in 中餐 9.27683e-06
was 杂烩 0.000530915
Chop 杂烩 1
&apos;s 炒 8.55198e-08
CoE 科 0.921848
historians 历史学家 1
food 历史学家 2.19574e-05
, 布鲁克林 2.46572e-09
. 科 0.00302779
how 饮食 0.0229057
message 饮食 0.258028
&quot; 科 0.00136925
pick 投篮 0.000827043
Andrew 安德鲁 1
Jane 珍 1
suffering 同甘共苦 1
who 同甘共苦 0.00546412
culinary 受苦 0.374917
an 受苦 0.00298902
pudding 布丁 1
dessert 布丁 0.478434
dessert 点心 0.362073
potatoes 土豆泥 0.639999
mashed 土豆泥 1
sauce 蛋 0.615383
deviled 番茄酱 1
was 菜单 0.000531006
menu 那天 1
soup 水鱼 1
terrapin 炖 0.721189
Pâté 鹅 1
foods 鹅 1
Avenue 鹅 1
Fifth 鹅 1
fancy 鹅 0.222222
driving 女警察 0.0574289
gourmand 美食家 1
down 坐在 0.0202461
Delano 德拉诺 1
Franklin 德拉诺 1
after 富兰克林 0.00122161
Meal 大餐 0.61122
Meal 丰盛 0.38878
Square 大餐 0.124809
Square 丰盛 0.67245
Depression 萧条 1
Food 食 1
depressing 食 1
brokers 券商 1
how 究竟 0.00496978
place 究竟 0.0255552
good 究竟 0.00317709
so 巴姆 0.0155914
each 布里 0.00693051
allowed 布里 0.0443978
had 布里 0.00143617
who 布里 0.00204944
States 布里 0.0078334
period 射入 0.03668
through 射入 0.00782176
goal 第四节 0.0171775
final 冈萨雷斯 0.022113
Gonzalez 利萨 1
Melissa 梅 1
within ~ 0.00757882
middle 沿 0.0232923
into 长途 0.0124333
into 沿 0.00621665
side 内切 0.0959258
down 长途 0.0303691
run 沿 0.0443379
long 沿 0.0102797
took 爆发 0.0612178
first 首轮 0.00301988
surprisingly 斗志 0.200003
Sakic 萨奇斯于 0.277142
into 胜果 0.0045233
had 胜果 0.00208995
close 先拔头筹 0.0654989
shot 射门 0.0444736
backhand 反手 1
complete 翻身 0.0273386
complete 彻彻底底 5.07999e-05
a 彻彻底底 4.61359e-06
now 水平 0.0195147
work 水平 0.01794
&apos;t 未 0.313459
physical 心态 0.0943931
mental 心态 0.368569
change 心态 0.0224783
act 受苦 0.130498
things 一切 0.199458
stabilize Weinberg 0.643022
an 克雷格 0.00375352
@-@ 职责 0.00177287
Craig 帕纳姆 1
, 帕纳姆 3.84966e-09
next 第二年 0.0108244
for 看好 0.000338251
right 看好 0.0118321
went 看好 0.0217393
when 看好 0.00260449
roster 入选 1
be 什么样 0.00219702
final 名单 0.0204145
make 错过 0.00599811
did 错过 0.0102535
2008 2008 0.923389
out 错过 0.00432741
ever 布 0.045626
player 布 0.114104
its 宾夕法尼亚州 0.00579542
becoming 宾夕法尼亚州 0.307785
will 优秀品格 0.000350681
at 塞尔 0.00157395
said 解释 0.00413618
sisters 双胞胎 1
older 双胞胎 0.358019
twin 双胞胎 0.636364
when 迄今为止 0.00390636
met 满足 0.352879
Pa 塞尔 1
Bell 德雷克 1
liked 西餐 0.200043
grew 双胞胎 1
was 那支 0.000656116
teams 支 0.0366021
after 支 0.000814404
here 垫底 0.00916576
surprising 垫底 1
answer 信中 1
created 垫底 0.0634448
have 命中 0.00201813
begin 出线 0.0263232
quarter 出线 0.0727284
when 出线 0.00195329
a 强大 3.79153e-07
powerful 荷兰队 0.211923
finisher 小组第一 1
into 签署 0.014883
team 晋级 0.0142834
six 小组第一 0.0619437
finals 四分之一 0.123281
make 惯例 0.0134958
for 晋级 0.00247992
both 两队 0.0766395
round 第一轮 0.418119
Southampton 南安普顿 1
Saturday 狭路相逢 0.00182256
Saturday 周六 0.998177
on 狭路相逢 0.000326726
will 狭路相逢 0.000698923
States 狭路相逢 0.0156116
receipts 统一 0.00136759
accompanied 陪伴 1
Britain 败绩 0.0184287
group 争夺 0.0830559
fruit 代替 0.185464
@-@ 小组第一 0.00354348
4 连胜 0.0840877
feels 折磨 0.24887
are 败绩 0.0028307
works 多数 0.11075
: 四 0.00192929
know 四 0.0304224
she 四 0.00197554
what 四 0.0419859
track 记住 0.227709
keeps 记住 1
who 记住 0.0163955
those 几个 0.0656338
no 一无所知 0.00867709
have 一无所知 0.00134125
thing 五粒 0.0577046
be 为此 0.00219839
same 五粒 0.00451395
if 五粒 0.00318355
increased 利用效率 0.0269417
sure 五粒 0.0646532
was 知道 0.000834742
she 五粒 0.000864301
memorable 技惊 1
be 进球 0.00384491
should 进球 0.00735305
games 两场 0.157754
two 两场 0.0222038
goals 两场 0.290201
defeated 战胜 0.448548
Americans 美国队 0.781337
hockey 曲棍球 0.482759
people 哪些 0.00287231
two 梅开二度 0.00416311
first 梅开二度 0.00377486
scored 梅开二度 0.222204
Bam 巴姆 1
left 来电 0.0107584
victory 战胜 0.138011
leading 几家 0.162033
goals 梅开二度 0.108823
goals 中独中 0.145097
three 中独中 0.0118546
after 三元 0.00244321
Britai 决胜 1
With 决胜 0.150006
Up 决胜 1
Setting 决胜 1
Women 曲棍球赛 3.50504e-06
drawing 拉开 0.208287
votel 接替 1
Gen 约瑟夫 0.280703
that 逃逸 0.000378308
Austin 将军 0.551246
General 奥斯汀 0.0912711
positive 审阅 0.0798325
overly 审阅 0.461862
as 审阅 0.000751634
lawmakers 审阅 1
by 证词 0.00128902
viewed 证词 1
testimony 证词 1
to 为此 0.000528485
under 饱受 0.0641235
came 三世 0.00788942
Austin 奥斯汀 0.448754
J 三世 0.333333
Lloyd 三世 1
. 奥斯汀 0.000490042
commander 劳埃德 0.750001
sugar 糖 0.636389
not 对外 0.00306708
was 对外 0.00176996
but 对外 0.00363244
black 黑市 0.130436
sell 出售 0.807692
Organizing 与否 0.0358332
group 恐怖组织 0.0359977
an 阻抗 6.51506e-06
significantly 大幅 0.882372
leftovers 剩菜 1
refineries 炼油厂 1
airstrikes 大相径庭 1
contrary 大相径庭 0.149933
statements 大相径庭 0.229821
public 大相径庭 0.0104028
despite 大相径庭 0.0193033
concluded 得出 1
as 阻抗 0.00262622
&quot; 雷 0.0128171
tiny 时起 0.237965
insurrection 反对 0.0029971
follow 入侵 1
would 入侵 0.00400951
what 入侵 0.0163279
community 纷繁 0.00863315
little 入侵 0.00880687
spent 入侵 0.0502591
sixth 单车 0.362768
are 熟练掌握 0.00282831
small 派遣 0.0233144
corrections 服从 1
W 布什 1
advocating 暴力 1
President 乔治 0.0176267
Inspection 省纪委 0.4
administration 文中 0.120153
paper 撰写 0.226437
have 氛围 0.00134126
Gregory 格雷戈里 1
analyst 格雷戈里 0.111111
both 双向 0.0503857
case 本案 0.051008
mates 队友 1
decade 十多年 0.461536
more 十多年 0.0035598
disputes 想起 0.666723
-- 枪支 0.095708
civilized 言行举止 1
critiques 批评 1
Amendment 修正案 1
is 协议 0.00191503
Libya 利比亚 1
rely 大程度 0.15869
could 大程度 0.0531074
how 公众 0.000120149
also 岗 0.0020054
question 主张 0.0464463
into 主张 0.00497332
scientist 德尔 0.40059
growing 声称 0.125317
made 声称 0.0167162
now 声称 0.0123
assertion 声称 1
for 同意 0.000380544
for 以示 0.00152218
succeeding 轰炸 1
ecology 人文 0.499999
bombing 领导 0.630013
@-@ 领导 0.00303855
question 轰炸 0.0580579
beyond 轰炸 0.0833006
dimmer 亮度比 1
repercussions 轰炸 1
. 复杂 0.000438236
topics 主题 0.431392
running 伙伴 0.115155
welcome 产生分歧 1
player 身为 0.342313
returns 申报单 3.02152e-06
continued 埃文斯 0.155721
my 扬名立万 0.0167207
would 国防部 0.016038
related 便利 0.0385903
Cmdr 海军 0.000268922
LT 五角大楼 1
opened 检察长 0.104011
inspector 五角大楼 0.0152297
been 1.25 0.00533774
Pentagon 五角大楼 1
consistent 基因 1
existence 纽约时报 0.222222
Times 纽约时报 0.40678
year 为期 0.00949294
Daily 日报 0.00394825
Daily 野兽 0.177381
The 野兽 0.0326789
by 野兽 0.0019224
were 报导 0.00879076
Nubia 努比亚 0.726655
mainstream 主流 0.999856
mainstream 较为 0.000144423
their 叙事 0.00192321
fit 叙事 0.243627
drinking 饮酒 0.583331
carried 激情 0.0421736
views 士气 0.196722
among 士气 0.00613456
he 肖某 0.00371622
hurt 士气 0.0533608
stalled 妨碍 1
attributed 这得 1
&quot; 齐格曼 0.000914547
asked 克服 0.150836
Democrat 领袖 1
committee 领袖 0.228604
Schiff 安达 1
B 谢 0.392145
finding 对外 0.403373
ISIL 制定 0.761909
producing 维和部队 0.402684
for 流程 0.00114148
process 流程 0.0586154
overly 狭隘 0.538138
created 狭隘 0.0845921
with 相一致 0.00163823
agreed 相一致 0.224744
that 相一致 0.00124905
output 创下 0.0382249
findings 调查结果 0.726792
their 调查结果 0.00648181
of 相一致 8.66497e-07
inspector 总 0.7551
Defense 国防部 0.503937
ongoing 检察长 0.157173
additional 检察长 0.112672
findings 这篇 0.273208
extensive 这篇 0.125459
up 这篇 0.00579758
followed 这篇 0.0702151
raised 那里 0.138661
had 那里 0.00492403
that 那里 0.00194558
application 工本费 0.0217883
downplay 隐瞒 1
strong 批发 0.0397527
command 操控 0.705882
leaders 操控 0.0590845
middle 中期 0.559014
his 那天 0.00402046
Kansas 迈克 1
Mike 迈克 1
is 蓬佩奥 0.000341931
&quot; 堪萨斯州 0.000582602
city 大城市 0.0152371
me 管不了 0.0193464
largest 大城市 0.0415905
@-@ 大城市 0.000885249
April 摩苏尔 0.030934
early 摩苏尔 0.0240528
sense 公民 0.198135
as 摩苏尔 0.00212367
begin 摩苏尔 0.0319148
Mosul 摩苏尔 1
additional 连锁反应 0.0671802
round 一轮 0.0522649
assault 夺回 0.232558
made 传播方式 0.00416589
publicly 大型 0.882353
official 官员 0.19032
example 比如 0.28471
actual 证言 0.25
more 证言 0.00103827
significantly 证言 0.117628
Taiwan 绕行 6.31475e-06
could 一分钱 0.0354081
throughout 上半年 1
posed 威胁 1
view 威胁 0.154129
present 领导者 0.0271828
runway 跑道 1
poor 赛道 0.00025516
though 迫使 0.23858
has 快乐 0.00147715
be 确定性 0.000854433
no 确定性 0.00289242
offers 确定性 0.399914
it 确定性 0.000782783
train 长期存在 0.0454561
efforts 长期存在 0.0319042
Earth 几度 0.0257267
description 军队 1
narrative 叙事 1
page 长期存在 1
organization 最高层 0.0155244
top 最高层 0.0272947
very 最高层 0.00978122
CENTCOM 延伸 0.0242977
failures 延伸 1
Representative 代表 1
makers 制定者 1
their 微信 0.00853756
senior 高层 0.756976
presented 高层 0.294174
analysis 另一边 0.0439848
Suey 杂烩 1
bad 另一边 0.0720999
when 之苦 0.00390671
our 饱受 0.043687
clear 蓬佩奥 0.0422841
unacceptable 一边 1
at 战士 0.00118047
happened 战士 0.0102697
what 战士 0.0367376
release 新闻 0.145332
changes 变动 0.0117663
community 情报机构 0.0345326
produced 乐观 0.147659
were 乐观 0.00809663
were 领导者 0.00658291
facts 乐观 0.479447
cuts 削减 0.88882
efforts 反恐 0.0398829
U.S. 反恐 0.0232341
depiction 反恐 1
positive 乐观 0.685401
provided 审核 0.0205444
like 凤生凤 0.00574233
leaders 领导者 0.147485
CENTCOM 领导者 0.0490063
by 大吃一惊 0.00148525
room 度过 0.0585639
approved 高级 0.172406
products 情报 0.0619671
popular 常见 0.331987
East 总部 0.119722
across 总部 0.0391719
that 中东 0.00045397
. 中东 0.000122835
CENTCOM Centcom 0.0972654
by 第三条 0.00143943
CENTCOM 司令部 0.809816
CENTCOM 中央 9.12122e-05
, 坦帕 0.000353783
Command 佛罗里达州 0.0384561
budgeteers 精打细算 1
efforts 国之战 0.0398808
doctoring 国之战 1
were 篡改 0.00659307
superiors 篡改 1
company 服务公司 0.00365546
analysts 分析员 0.805315
&quot; 分析员 0.00175401
found 分委会 0.012899
could 摩苏尔 0.021463
Intelligence 拨款 0.329412
Hockey 曲棍球赛 0.982268
Services 拨款 0.25
4th 曲棍球赛 1
Armed 拨款 0.25
Warren 亿万 1
chairmen 众议院 1
by 司令部 0.0189802
established 众议院 0.0849067
force 小组 0.613259
which 行政 0.00330597
interim 不满 1
said 国会 0.00301607
panel 国会 1
warranted 实际 1
by 削减 1.34767e-05
events 实际 1
against 战争 0.0289907
war 战争 0.296474
picture 战争 1
Chen 陈经纶 0.0449439
portray 更改 1
intelligence 情报 0.807316
intelligence 司令部 0.0707367
altered 更改 1
Command 司令部 0.961544
problems 详细 0.063725
Panel 情 1
Congressional 情 1
ISIS ISIS 0.534393
distorted 扭曲 0.727273
is 丢人现眼 0.000195389
able 帐号 0.0310845
us 帐号 0.0327026
actually 是否 0.198578
if 知道 0.0411126
wonder 想 1
an 丢人现眼 0.00213489
adding 帐号 0.554783
closed 帐号 0.35294
power 取消 0.0972546
Inspection 纪委 0.6
shadow 马 1
part 朱 0.046305
internally 内部 1
Forces 狭隘 0.0769231
populations 内部 0.625167
recruiter 专门 1
hired 雇用 0.668216
racial 背景 1
declined 拒绝 1
on 内部 0.00108899
on 专门 0.000327894
as 多样性 0.00210212
its 多样性 0.00927368
figures 并未 0.000237426
Taiwan 联合报 0.0484149
release 发布 0.318719
does 并未 0.0529604
unanswered 分享 1
largely 分享 0.631585
left 分享 0.0368859
has 回应 0.00664704
view 分享 0.12638
comfortable 人种 0.363636
feel 各色 0.045576
are 有色人种 0.00169828
or 要么 0.00672084
Callum 姆 0.188011
like 人种 0.00246101
decisions 人种 0.152179
where 要么 0.0394407
stir 垫底 1
on 各色 0.000218579
people 有色人种 0.00114924
trainer 软件 1
had 各色 0.0019149
either 要么 0.533333
it 要么 0.00100647
hashtag 标签 1
legal 法制 0.0130495
out 制成 0.0259645
leadership 领导层 0.692308
mostly 白人 0.0443503
&apos;s 全部 0.000105806
due 走强 0.0173301
criticized 批评 1
at 招聘 0.00314789
practices 招聘 0.219781
lack 种族 0.571943
reflected 种族 0.643847
idle 煤场 1
race 种族 0.17823
&apos;s 收盘 0.000183774
owners 爱好者 0.304317
telephone 所写 0.2586
a 争议 8.63437e-05
essay 一篇 0.375012
her 朱 0.0105249
works Medium 0.080769
close 民众 0.128643
unnoticed 视线 1
types 难逃 0.166667
these 难逃 0.00267749
for 难逃 0.000304436
for 朱 0.00108123
younger 旋转 0.756522
much 事物 0.0469487
process 层面 0.0584501
Katie 凯蒂 0.841151
expected 失效 0.0429298
an 侮辱 0.00245586
&quot; 萨姆斯 0.000582594
&apos;s 产生 0.00632491
one 凯蒂 0.00659754
sensitivity 敏感 1
even 老一辈 0.00699433
mean 多元化 0.0787446
might 多元化 0.0442485
, 希尔 1.10326e-08
racially 注重 0.571424
audience 多元化 0.0133377
&apos;s 群体 0.000612161
hands 提倡 0.0978248
our 提倡 0.0109417
boardrooms 董事会 1
inclusion 包容性 1
over 提倡 0.0071122
struggle 提倡 0.212114
endless 提倡 1
an 提倡 0.00373604
involved 提倡 0.033086
seems 提倡 0.093744
tripwires 触及 0.999979
company 触及 0.00608014
derogatory 贬低 1
its 贬低 0.00579542
taken 黄种人 0.0774957
VP 副总裁 1
just 黄种人 0.00302071
very 极度 0.00489137
by 极度 0.000959617
side 极度 0.0639506
&apos;s 罗 9.18874e-05
apportioned 奢侈品 1
it 很难 0.00141555
least 难受 0.0381897
crash 奔溃 0.364067
hurtful 不适 0.572564
anchor 同胞 0.668193
taking 讲座 0.0685979
shared 封电子邮件 0.250631
previous 收回 0.0305265
was 封电子邮件 0.000879056
photos 生在 1
tweet 生在 0.374982
student 生在 0.0401338
Korean 韩裔 0.0909091
card 外卡 0.0402052
programme 110 0.625001
roundly 坚决 1
action 印象 0.067289
stereotypes 刻板 1
us 快乐 0.0436034
hurtful 刻板 0.427436
racism 种族主义 0.343562
have 种族主义 0.00105149
who 种族主义 0.00353008
not 致敬 0.000657128
characters 致敬 0.237624
as 致敬 0.00150135
The 变卖 0.0558992
dismantled 众怒 1
day Motherboard 0.0240493
The Verge 0.0322912
by Verge 0.00189959
reports The 0.0127671
went The 0.0195667
improve 改进 0.0454558
pointed 反复 0.0801895
algorithms 算法 1
if 是否 0.0520659
if 反复 0.00823505
Iraqi 狭隘 0.454545
people 种族 0.0124647
cheeks 粉脸 1
teeth 怪牙 1
distorted 怪牙 0.272727
now 现今 0.00714935
at 摔落 0.00157395
them 斜眼 0.00823376
gave 斜眼 0.105634
lens 当该 0.0468666
a 当该 3.79358e-09
pushed 当该 0.121956
an 美 0.00213489
tones 美 1
encouraging 白色 1
blackface 美 1
promoting 美 0.125
is 行政 0.000341931
is 侮辱 0.000224768
accusations 鼓动 0.222714
major 大型 0.111368
director 副厅长 0.0288036
record 公众 0.220645
enter 失误 0.199993
missteps 失误 1
day 自拍 0.00326308
which 安格尔 0.0132239
selfies 自拍 1
enhanced 自拍 0.463632
million 自拍 0.00679252
30 自拍 0.00934813
with 轻松 0.00339096
generate 修饰 1
that 修饰 0.00113492
feature 弯曲 0.679264
behind 垃圾 0.0464911
blunt 钝化 1
lenses 透镜 0.858859
painting 画中 0.374221
Roy 罗伊 0.48785
befitting 狗 1
character 狗 0.105113
feel 煎熬 0.136728
dog 狗 1
interior 第二层 0.483242
a 狗 0.000198709
a 菠萝 1.98858e-08
yourself 菠萝 0.427341
absurd 滑稽可笑 1
that 滤镜 0.00489815
150 亿名 0.160626
allows 亿名 0.318203
insensitive 色彩 0.500004
racially 色彩 0.428576
observers 观察者 0.9
anime 动漫 1
filter 滤镜 0.879161
says 灵感 0.000282215
Caricatur 亚洲 1
Asian 讽刺 0.00270677
Anime 动漫 1
Snapchat Snapchat 1
education 教育 0.944874
frustration 克劳德 1
his 收回 0.00160635
; 通信 0.0134046
tobacco 烟草 1
risk 失业 0.0492043
disgrace 丢人现眼 1
prices 燃料 0.191499
from 一言一行 0.00214864
health 0.1% 0.0117997
0.5 0.5% 1
maintenance 维护 1
she 分散 0.00138288
household 家电 0.446728
furnishings 家具 1
; 0.1% 0.018711
2.2 鞋类 1
( 0.1% 0.00129356
footwear 鞋类 1
another 减少 0.0939078
clothing 2.2% 0.443939
appalled 大吃一惊 1
prices 2.2% 0.0956162
0.3 0.3% 1
miscellaneous 1.2% 1
hotels 餐厅 1
6.3 6.3% 1
is 降临 0.000683863
; 1.2% 0.0093833
; 娱乐 0.0234166
an 一个多 0.00373604
beverages 酒精 1
emphasized 内阁 1
told 众人 0.0175452
was 几类 0.000663766
an 几类 0.00373604
month 饮料 0.0378885
previous 饮料 0.124577
previous 下列 0.0762833
based 集会 0.186227
has 0.2% 0.00177259
December 相比 0.40369
1.0 1.0% 1
inflation 1.0% 0.0210924
monthly 1.0% 0.0478686
i.e. 1.0% 1
101.0 1.0% 1
was 1.0% 0.000454219
index 101.0% 0.285663
already 价值 0.0589384
compared 平均 0.0480381
CPI 0.8% 0.142857
like 不失 0.00430094
after 三种 5.83017e-07
0.2 零点 0.106383
positive 零点 0.0620128
when 零点 0.00130224
zero 零点 0.0816328
bottom 底层 0.163459
above 零点 0.00969621
highest 几年 0.0843274
basis 结果表明 0.238043
monthly 结果表明 0.116324
on 1% 0.000655733
inflation 保加利亚 0.0766644
8 膨 0.0296378
Time 膨 1
turns 奇迹 0.777769
Posts 保加利亚 1
birthday 发 0.103236
90th 发 1
their 近期 1.34552e-05
s 周年 1
&apos; 周年 0.0232676
A 养殖场 0.354966
L.A. 庆祝 1
caught 评论员 0.5
celebrating 庆祝 1
makeove 改造 0.00133731
gets 阁楼 0.293007
DTLA 阁楼 0.955012
DTLA 开放式 0.044988
loft 开放式 1
an DTLA 0.0149442
@-@ 非会员 0.0011823
non 非会员 0.0622199
members 会员 0.0694532
SCC SAHSCC 1
SAH SAHSCC 1
are 订票 0.00283047
Tea 茶室 1
Lounge 展室 1
Cactus 休息室 1
Rooms 休息室 0.447296
Rooms 仙人掌 0.552704
Period 仙人掌 1
Wilshire Wilshire 1
Bullocks Bullocks 1
Law Law 0.357163
School School 0.713275
Southwestern School 0.24518
&apos;s 男双 0.000243916
at Deco 0.00157395
Moderne Deco 1
Trott 劳拉 1
. Moderne 0.000614174
p.m. 点至 1
Associates 事务所 1
Holzman 弗夫尔 1
Hardy ・ 1
by 兹曼 0.00671951
by ・ 0.00383758
addition ・ 0.0355797
restoration 哈迪 0.833332
1993 伦 0.142857
behind 虚假 0.0185953
New 2.48% 0.0258381
. 争斗 0.000153535
as 伦 0.00175158
Goodhue 伦 1
Studies 探索 1
images 1926 0.147371
share 分享 0.477743
discuss 讨论 0.909091
made 带球 0.00972041
scheduled 曼将 1
are 吉和斯 0.0042457
over 不顾 0.0142244
Gee 吉和斯 0.428571
Architecture 建筑 0.909092
strange 奇怪 0.529414
while 辩护 0.00247496
History 艺术 1
book 新书 0.161911
authors 吉 1
motorists 预料到 1
and 瓦茨 1.21566e-07
Arnold 阿诺 1
stick 棍 0.210526
gained 饮食习惯 0.374999
University 美军方 0.0515145
salon 沙龙 0.571441
crippling 巨额 1
salon 分会 0.428559
unmanageable 巨额 1
hosts 分会 1
Southern 南加利福尼亚 1
/ 史学家 0.0259328
Historians 史学家 1
Society 市中心 1
as 市中心 0.00131368
Square 莫斯科红场 0.135161
downtown 市中心 0.266781
Board 财政部 1
policies 南京 0.692308
more 南加利福尼亚 0.00155741
Librar 先睹 1
Fujian 福建 0.545458
architecture 先睹 1
stunning 先睹 0.375
row 先睹 0.337346
front 图书馆 0.0755857
much 好多 0.0205651
so 好多 0.00298815
feels 好多 0.187013
feels 感觉 0.564118
this 好多 0.000379146
full 如火如荼 0.073707
was 意识 0.00346642
realise 六个月 1
took 我用 0.0459128
it 我用 0.00176132
much 太大 0.0305502
that 这会 0.00226968
say 不想 0.0333863
moment 当下 0.131007
for 不过 0.00152214
Steve 结婚 0.0891978
Steve 史蒂夫 0.617873
own 结婚 0.00281631
her 结婚 0.00238567
month 沙尔 0.0464013
next 员 0.0231106
next 探险 0.000285407
futures 花 0.280835
their 花 0.00487776
deciding 花 0.750005
take 花 0.015533
will 花 0.00140278
did 做到 0.061521
ushered 迎来 1
race 一桨 0.0234691
good 一桨 0.0027231
Court 梅克伦堡 0.132346
just 做到 0.00899017
just 想着 0.00179799
fireworks 荣耀 1
looking 划好 0.271492
weren 想着 0.166665
amazing 大事 0.399771
anything 大事 0.270271
weren 期盼 0.833335
start 好的开始 0.089524
good 好的开始 0.00953043
really 的确 0.0924323
process 节奏 0.0098245
stay 节奏 0.111818
&apos; 节奏 0.00584976
calling 节奏 0.0698651
was 叫 0.00531013
very 惊心动魄 0.00535151
reserve 储备 1
light 最轻 0.0689138
Denmark 丹麦队 0.5
New 新西兰队 0.155028
crews 丹麦队 1
every 方位 0.0152133
500 逼近 0.179488
in 储备 3.65647e-05
never 无法比拟 0.0315338
that 惩罚 0.000756605
a 设置 1.9224e-05
pair 组合 0.448859
&apos;t 斯坦宁 0.0245018
haven 斯坦宁 0.387659
staples 炖菜 1
person 棒 0.0365711
a 棒 0.00049393
for 师 0.000585262
&apos;t 师 0.0186019
couldn 师 0.350659
&apos;s 非常感谢 0.000177492
so 无名小卒 0.00217843
nobody 无名小卒 1
be 无名小卒 0.00122791
without 如果 0.116497
back 回报 0.0168683
been 回报 0.00323236
have 罗宾 0.00201125
Central 中央 0.945227
me 付出 0.0464489
means 付出 0.0169439
much 反复 0.0313984
how 付出 0.00595279
how 反复 0.00999708
reiterates 反复 1
myself 而已 1
lot 非凡 0.058177
it 的确 0.00172406
metal 金属 1
&apos;s 的确 9.25408e-05
that 不好 0.00113497
maybe 不好 0.425108
week 心情 0.0172664
wreck 心情 1
emotional 心情 0.0775847
&apos;ve 这周 0.245961
Afghanistan 阿富汗 1
tour 队长 0.116472
world 第三极 0.00399103
regiment 炮兵团 1
income 美元 0.088467
Artillery 炮兵团 1
a 非凡 0.000375106
a 斯坦宁 3.30442e-07
a 队长 0.000936529
possible 居然 0.0705281
right 放在 0.0266221
an 焦虑 0.0024907
usual 略微 0.333333
little 威廉姆斯 0.0352278
talking 早上 0.514688
nervy 健谈 1
victory 那一刻 0.276022
alcohol 发生争执 0.769266
cross 触及 0.363872
makes 更长 0.239033
that 变得 0.0113479
how 起点 0.00603338
&apos;s 起点 7.02743e-05
enough 足够 0.504703
steps 英尺 0.200087
saying 几步 0.051176
when 几步 0.00390672
typically 审核 1
time 几步 0.00374556
Clintons 克林顿 0.173577
at 英尺 0.0015738
50ft 英尺 1
30ft 英尺 1
20ft 英尺 1
ward 英尺 1
around 英尺 0.0166493
was 病房 0.00265506
incentive 激励 1
an 激励 0.0149283
an 一种 0.0598217
was 激励 0.0026498
better 赶快 0.0289086
paid 工资 0.0848379
get 赶快 0.011283
needed 拿到 0.744715
circumstances 合适 1
percent 亮度比 0.0411648
controversies 种族 0.764289
expression 合适 1
if 降到 0.00424472
minimum 降到 0.33342
keeping 降到 0.210526
competition 建立 0.161282
his 治疗 0.00335341
begin 开始 0.686766
that 幸运 0.000758748
were 幸运 0.00440781
the 幸运 0.000387682
tank 智库 0.600001
in 确诊 2.60535e-05
diagnosed 确诊 0.388865
which 中将 0.00440796
a 看法 0.000266268
outlook 看法 0.270477
alters 略微 1
would 糟糕 0.0297017
everywhere 全身 1
goes 全身 0.100002
they 做手术 0.00715484
operate 膀胱癌 0.07959
can 膀胱癌 0.00118638
they 膀胱癌 0.00102969
one 膀胱癌 0.0014123
cancer 患上 0.15762
bladder 患上 1
and 随时 1.17168e-08
and 所说 4.18029e-09
touch 随时 0.00273446
it 所说 0.000881996
as 正如 0.0140123
husband 丈夫 0.856228
with 癌症 0.002117
when 身患 0.00587605
winning 三块 0.0614892
would 活着 0.00515509
he 活着 0.000716151
Ali 阿里 0.893355
did 癌症 0.0460908
was 获悉 0.000663768
instrumental 活着 1
no 莫过于 0.00288913
but 超越 0.00108893
difference 莫过于 0.156233
make 莫过于 0.00399931
gains 莫过于 1
monument 怎么 1
of 顶峰 6.12245e-09
new 首轮 0.00330296
battalion 赛艇 1
nature 优雅 0.0508578
reflect 优雅 0.384615
wholly 优雅 1
swans 优雅 1
surface 优雅 0.0148549
on 上市 0.000786883
absolute 绝对 0.660092
was 绝对 0.000726973
dominance 绝对 1
scale 首 0.227119
sport 首 0.0156941
Bing 深刻印象 1
first 首 0.00215706
system 卢萨 0.0150997
cake 管不了 0.538461
successive 桨 1
on 输出 0.000327868
as 罗宾 0.00263014
present 声音 0.0108928
ever 声音 0.0273829
Robin 罗宾 1
voices 划桨 1
oars 划桨 1
were 威廉姆斯 0.00586061
were 划桨 0.00659308
they 声音 0.00143137
though 船上 0.0795266
Lagoa da 1
harder 事物 1
order 转校 0.00794131
estacio da 1
at da 0.000786977
moment da 0.0333932
added 惩罚性 0.0604176
found 惩罚性 0.0193485
into Lagoa 0.00621665
punishing Lagoa 0.428548
220 da 1
should 贯彻落实 0.00735305
to 这块 3.59484e-06
stroke 划桨 0.0722777
operations 精简 0.10549
saying 最让人 0.0511762
be 夸张 0.00256328
who 上级 0.0163955
not 夸张 0.0015333
will 夸张 0.000935151
battl 癌症 1
next 审视 0.00924423
rowing 赛艇 0.680856
rowing 斯坦宁受 0.0638269
inspired 斯坦宁受 0.120935
Helen 海伦 1
cut 9% 0.0140682
- 沃森用 0.00229368
operations 关停 0.0433268
Anthony 沃森用 0.078922
team 马库斯 0.00244541
aside 马库斯 0.245081
@-@ 马库斯 0.00152556
15 兄弟 0.0806447
&apos;s 安东尼 0.000490052
brother 英格兰队 0.0421902
Watson 英格兰队 1
Marcus 英格兰队 1
from 英格兰队 0.000768815
convenience 便利 1
tackle 英格兰队 0.222222
late 英格兰队 0.0186517
posts 脚法 1
under 脚法 0.00800815
scored 脚法 0.111102
footwork 脚法 1
dazzling 脚法 1
last 收官 0.00624521
but 但丹 0.00544604
Boks 凯尔 0.357047
slowly 较慢 0.417033
Kyle 凯尔 1
difference 南非队 0.843767
status 多样性 0.23393
Britain 激烈 0.0414289
each 对决 0.00792058
one 对决 0.00141404
tight 半决赛 1
Africa 对决 0.0144928
South 对决 0.024924
an 公开信 0.00298891
Japan 中以 0.0753985
pointing 直指 0.428571
beaten 退场 0.221186
thoroughly 退场 1
turf 退场 1
hit 只能 0.220531
and 完败 2.027e-06
embraced 完败 1
moments 无所谓 1
dying 无所谓 0.20002
try 无所谓 0.0516959
another 无所谓 0.00970803
icing 威廉 1
&apos;t 威廉 0.00691121
didn 威廉 0.0263488
cake 威廉 0.461539
Fijian 马塔 0.5
iced 马塔 1
Viliame 马塔 1
Mata 马塔 1
&apos;s 拍手称快 4.57239e-05
Fiji 拍手称快 0.00991352
admire 拍手称快 1
was 不得不 0.000956615
stands 旗帜 0.294118
danced 旗帜 1
Zhu 朱 0.551487
sang 载歌载舞 1
a 民事裁定 0.000193484
a 退赛 0.000354349
&apos;s 美铝 0.000317362
South 挥舞 0.174468
suggested 尽量 0.400097
way 高声 0.0526453
long 掌控 0.0137062
was 掌控 0.000885022
knock 连锁反应 0.287587
&apos;s 伊拉克 0.00118765
&apos;s 伊朗 0.000490058
game 掌控 0.00818102
36 36 1
it 36 0.00176132
make 改为 0.0359931
Valley 罗布 1
Detained 场主 1
prevent 防 0.0239627
try 丹 0.0525091
was 达成协议 0.000796462
grabbed 丹 1
she 德文 0.0017286
Norton 诺顿 0.800038
Norton 丹 0.199962
dan 丹 1
wall 内墙 0.853752
went 瓦 0.0163044
Tuisova 瓦 1
until 瓦 0.0276564
good 瓦 0.00317681
resumes 洛特 1
first 下半场 0.0104708
entitled 制药 0.198329
with 威廉 0.000403675
all 整整 0.00347261
... 图 0.0270688
dam 图 1
time 精力 0.00675728
limits 限值 1
plugged 图 1
they 图 0.000894381
@-@ 乔舒亚 0.0014183
get 相处 0.010895
residence 居住地 0.064822
than 25 0.00945837
with 意大利杯 0.000565182
made 整整 0.00583271
how 这样 0.036671
much 这样 0.115464
learning 初出茅庐 0.0970401
are 初出茅庐 0.00217528
born 生来 0.0524729
been 生来 0.00401061
Fiji 生来 0.019709
was 好像 1.93871e-08
break 休息 0.0740778
it 休息 0.00117425
two 意大利杯 0.00333069
conversion 休息 0.304404
score 线 0.0287134
stormed 线 0.589202
own 呼叫 0.00291635
limp 冲破 1
more 冲破 0.00124591
some 得分 0.107958
some 冲破 1.43094e-07
some 瓦特 0.0147899
through 冲破 0.00469417
burst 冲破 0.156819
then 冲破 0.0123628
Ravouvou 沃沃 1
half 上半场 0.179788
first 上半场 0.0392752
things 难逃 0.0286203
in 上半场 0.000289162
clock … 0.776381
on 剩 0.000874094
over 一分 0.00711086
still 一分 0.0071005
there 剩 0.00323023
there 一分 0.00242191
another 卡拉瓦 0.0166947
added 卡拉瓦 0.0483341
bad 雪上加霜 0.0703468
were 雪上加霜 0.00659308
corner 触地 0.171958
for 定向 0.000761035
touched 卫莱马鲁在 0.17403
Veremalua 卫莱马鲁在 1
seven 亚萨 0.301073
delaying 延缓 0.500009
by 这篇 0.0028849
third 第三次 0.127189
charge 场所 0.0516731
man 巨人 0.0829224
stopped 阻截 0.665708
tackle 强力 0.777778
touched 过球 0.251674
hardly 过球 0.000620751
hardly 碰到 0.523637
was 图怀 0.00053101
was 仅仅 0.0021267
right 触地 0.0638931
Tuwai 图怀 1
Jerry 杰瑞 1
right 合适 0.00887404
operations 副总裁 0.18084
minutes 四分钟 0.100642
corner 系列赛 0.286596
over 尼索 0.0284488
dived 科林 0.5
Kolinisau 冲入 1
went 角旗 0.0244566
Series 角旗 1
World 角旗 0.0480697
be 万众瞩目 0.00314078
signed 两份 0.177713
produced 凯斯 0.0601239
Tom 汤姆 1
years 理事长 0.0057786
years Uber 0.00990618
captain 汤姆 0.063356
buses 汤姆 0.384609
or 棒 0.0117744
series 汤姆 0.0180519
a 米切尔 0.000483445
into 汤姆 0.00310833
running 汤姆 0.0143944
it 队友 2.06732e-06
Committee 继承 0.0248304
off 招架之力 0.0225529
bouncing 招架之力 1
magnificently 招架之力 1
hurt 惊人 0.37365
discuss 安德森 0.0909094
hammering 惊人 1
Sevens 胜果 1
Adelaide 胜果 1
at 胜果 0.000857761
GB 不易 1.21136e-05
for 不易 0.000253604
for 实属 5.37325e-05
journey 不易 0.0883849
some 不易 0.00255235
follows 走强 0.0263031
boss 瑞恩 0.461533
England 瑞恩 0.0576919
integration 交融 0.142892
Ben 瑞恩 1
coach 主教练 0.173379
Motherboard and 1
head 主教练 0.175721
neck 明天 1
Briton 英国人 1
&quot; 哗然 1.50781e-08
GB 英国队 0.897871
new 指针 0.00550494
it 斐济 0.00971737
60 注册资本 0.0325224
as 队 0.0733473
fit 精神饱满 0.173175
a 一支 0.000821323
beaten 精神饱满 0.095144
have 一支 0.00438793
form 精神饱满 0.0284527
this 精神饱满 0.000436603
on 足以 0.00393442
shall 严格执行 0.0378633
regardless 无论如何 1
back 险胜 0.0358155
come 险胜 0.062686
final 险胜 0.0174992
semi 险胜 0.125883
@-@ 险胜 0.00303855
7 南非队 0.0579754
more 适时 0.00622963
Boks 南非队 0.642953
about 关键时刻 0.0026013
bruising 南非队 1
way 阿根廷 0.0175484
these 感动 0.00803235
obtained 里场 0.140793
Argentina 阿根廷 1
calm 平静下来 0.196553
Times 时代周刊 0.237288
tournament 橄榄球队 0.0215788
7s 橄榄球队 0.176469
their 橄榄球队 0.00139389
guests 阿拉伯人 1
immunity 免疫力 1
and 英国队 0.000119801
third 代表团 0.050882
him 一帆风顺 0.0166668
Britain 算是 0.0553088
majority 股东 0.0318124
Bertram 伦 1
non 第三块 0.0373195
Driver 郑力 1
colour 有史以来 1
win 无懈可击 0.0523621
strength 无懈可击 0.0991612
takes 切实 0.15541
running 跑动 0.0575772
loading 控球 1
Stadium 多罗 1
dad 新爸 0.00985462
Deodoro 多罗 1
beaten 队以 0.444517
comprehensively 队以 1
. 两张 0.000303296
by 延续 0.00431828
at 约蒂奥 0.00157384
ultraviolet 紫外线 1
crashing 约蒂奥 1
exposed 几十亿年 0.499998
as 佛罗里达州 0.00175168
District 胡同 0.113048
7s 约蒂奥 0.205888
great 出色 0.122244
gol 金 0.0141206
gol 夺得 0.847973
them 橄榄球赛 0.0188197
sees 橄榄球赛 1
after 橄榄球赛 0.0027922
for Medium 0.000824122
sevens 橄榄球赛 1
for 夺得 0.000579128
for 橄榄球赛 0.000869755
for 七人制 1.70826e-07
settle 七人制 1
Britain 英国队 0.446041
Lower 97 1
hopes 寄望 1
previously 上线 0.0244028
online 上线 0.0135223
went 上线 0.0244566
platform 中文平台 0.0500042
and 便捷 0.00088239
Youku 优酷 1
&apos;s 主张 7.35099e-05
name 格策 0.0746598
become 拉姆 0.00643829
Goetze 拉姆 1
Muller 穆勒 1
exist 不复存在 1
Dortmund 多特蒙德 1
when 产油国 0.00234359
Bayern 拜仁 1
Bundesliga 豪门 0.0784755
stadium 观战 0.0211076
club 112 0.245143
&apos;s 女单 0.0001185
kingdom 当仁不让 1
football 体育界 0.428571
legal 法律咨询 0.00932033
temperatures 温度 1
event 王国 0.052206
garbage 垃圾堆 0.399951
attempt 焦虑 1
1 法甲 0.0156619
A 意甲 0.0887511
Traditional 国家中医药管理局 1
Serie 意甲 1
Liga 西甲 1
League 西甲 0.168885
Premier 西甲 0.2
FA 英超 1
( 英超 0.0022302
five 五大 0.0237617
one 五大 0.00247454
preheating 造势 0.99999
for 预热 0.000761086
work 预热 0.00986279
Saric 影子 0.700149
cities 各地 0.174544
cities 覆盖 0.0436415
top 覆盖 0.0204844
cover 横跨 0.466667
German 德甲联赛 0.0676182
17 17 0.7
ceremony 开幕 0.144763
opening 打响 0.213945
heavy 紧 0.0661533
tour 之旅 0.0616896
legendary 传奇 1
America 美洲 0.26648
represent 马特乌斯 0.124785
will 马特乌斯 0.000935542
ambassador 形象大使 0.251046
fastest 最快 1
Bundesliga 德甲联赛 0.235695
Census 调查报告 1
according 据介绍 0.00631182
fan 各种 0.727471
participate 合作伙伴 0.134886
Bundesliga 德甲 0.685829
for 莱曼 0.000380545
expert 莱曼 0.138394
an 莱曼 0.00373599
will 莱曼 0.000701351
ranking 积分榜 0.372813
total 积分 0.0127623
a 丰盛 0.000419188
after 拿下 0.00365541
Guoan 战胜国 0.161004
from 自尊 0.000935146
defeated 终场 0.12548
and 终场 0.00029021
accountants 会计 1
allowance 补时 0.0849246
after 过后 0.00488642
wonderful 封出 0.142858
with 封出 0.000941902
Pfeiffer 弗夫尔 1
chesting 停球 1
Sergeyev 谢尔盖耶夫 1
. 施射 0.000614174
&apos;m 尽我所能 0.0654719
sent 周挺 0.0505247
Ting 周挺 1
Zhou 周挺 0.0909093
security 国安 0.0500237
national 国安 0.0165864
surgeon 马兹 1
ground 倒地 0.473826
creamy 食材 0.111111
action 拦截 0.0538299
stop 拦截 0.209026
leg 郑又荣 0.213192
rules 天津 0.05
Zheng 郑又荣 0.285714
break 强行 0.66668
line 线内 0.0402413
within 线内 0.0101051
restricted 马兹 1
that 鼓动 0.000569074
Dabao 追防 0.428571
capability 追防 0.1875
White 白宫 0.47916
raid 追防 1
range 追防 0.089425
move 翻 0.0131895
dissatisfied 翻 1
. 翻 0.000136478
strike 翻 0.0115619
that 白宫 0.000363281
long 奔袭 0.123356
when 梅茨 0.00545044
down 梅茨 0.0306455
was 翻 0.00029501
US 美苏 0.0286626
63rd 63 1
got 相继 0.106789
is 尼斯 0.000195246
exciting 情绪 0.719533
he 梅茨 0.0025449
Revenue 国税局 1
forcefully 铲 0.272056
Yu 凶狠 0.170003
another 两块 0.00261631
fended 弧线球 0.5
34.2 34.2% 1
vs 尼娜 0.333336
birthday 史蒂夫 0.896764
transfer 切中 0.571429
worked 切中 0.0460841
be 这篇 0.00193052
Chiming 左路 0.777255
penalty 判定 0.473681
fouled 犯规 1
he 黄牌 0.00269959
alternative 彭欣力 1
is 彭欣力 0.000273545
who 彭欣力 0.00327911
Sharfan 劫持 1
Xinli 彭欣力 1
Peng 彭欣力 1
delaying 替补 0.499991
Xiaofei 邓小飞 1
that 打高 0.000378303
percent 34.2% 0.112457
pity 打高 1
is 打高 0.000227954
it 打高 0.000587107
. 攻门 0.000307086
off 攻门 0.0563758
by 攻门 0.00287885
side 任意球 0.0479629
right 任意球 0.0133111
score 任意球 0.030029
any 右侧 0.0681773
half 开场 0.0460775
half 下半场 0.127803
next 开场 0.0115553
just 下半场 0.00203405
0 0 0.875
: : 0.013505
anxieties 焦虑 1
leads 入球 1
down 价值 0.0303691
for 首发 0.000380545
at 最让人 0.00157394
shot 顺势 0.177894
front 低平 0.0928027
front 禁区 0.0671881
Bill 比尔 1
get 分球 0.0217892
defense 旧主 0.0345703
weapon 旧主 0.303711
stage 反戈 0.545851
limit 时限 0.833333
on 登场 0.000187353
Chiming 登场 0.222745
life 救生衣 0.0130871
field 登场 0.0151425
playing 登场 0.0565448
Zhang 登场 6.40962e-08
Adam 谢 0.400004
Zhang 张池明 0.044811
. 换人 0.000306879
37th 换人 1
person 下场 0.0730617
a 张晓彬 0.000491121
changed 张晓彬 0.0596347
panoramic 全景 0.999964
yellow 黄牌 0.941718
him 埃莉诺 0.0266669
showed 腾龙 0.0383599
ended 文章 0.328822
a 黄牌 1.7013e-07
departure 躲 1
on 要么 0.000374707
some 有人 0.0209814
Lei 倒 0.0271953
Lei 腾龙 0.145039
down 动作 0.198862
. 倒 7.67716e-05
. 飞扑 0.000614174
main 亏损 0.132045
wing 门前 0.00320497
wing 右路 0.480574
Tianjin 天津 1
right 右路 0.0610519
his 门前 0.00397711
drawing 接应 0.208363
@-@ 右路 0.00203282
goal 带后 0.0644896
repeatedly 医疗机构 0.344723
pass 带后 0.333333
it 这座 0.00174855
doubles 决出 0.0637082
Section 水域 1
Xiaofang 没收 1
they 车队 0.00351397
goalkeeper 门将 1
Lifang 踢 1
. 中路 0.00164894
area 中路 3.25803e-05
@-@ 传中 0.00359252
@-@ 插 0.00354574
unkicked 扫射 1
strafed 扫射 1
Yu 大宝 0.340005
wing 插 0.281575
left 左路 0.0643539
operations 加利福尼亚 0.10549
on 朴成 0.000438267
Cheng 部位 0.77353
Pu 部位 1
one 门将 0.00989829
2,000 养殖场 0.793135
made 抢先 0.00972041
leg 出脚 0.213192
first 出脚 0.00754971
grab 抢先 0.192307
Yu 刘宇 0.0861211
defensive 单兵 1
and 刘宇 0.000409881
area 禁区 0.240799
seeing 潜力 0.148772
been 直冲 0.00533775
Ilmaz 伊尔 1
his 第五块 0.00160915
his 热门 0.00804571
midfield 挑传 1
straight 直冲 0.320196
straight 挑传 0.384239
in 挑传 0.000258215
through 直线 0.023471
Xizhe 张稀哲 1
Zhang 张稀哲 0.0297831
15th 15 1
far 远远 0.17908
the 中场 0.00115814
by 防线 0.00287885
standard 超越 0.0181109
from 引入 0.00806558
base 防线 0.06418
off 防线 0.0563757
angle 角度 0.999874
watched 霍伊以 0.155892
its 9% 0.00188993
and 抽射 1.85225e-06
hit 角球 0.0735104
continued 角球 0.103814
Lifan 力帆 0.981511
news 最新消息 0.0131145
suspension 顺延 0.721139
went 冲击 0.0815596
when 中连获 0.00586007
regained 扳回 0.385054
recipes 餐 0.129447
81st 81 1
score 扳回 0.0600568
first 首球 0.00507755
support 新援 0.010225
by 费尔南多 0.00921232
assistance 新援 0.333562
39th 39 1
new 新爸 0.0164593
. 点球 0.000614
ball 点球 0.108948
one 点球 0.0098998
Wang 王栋 0.0521742
follows 海上 0.11836
minute 分钟 1
field 客场 0.156293
visiting 客场 1
Talent 北京国安 1
challenged 北京国安 0.101547
Club 北京国安 0.612443
Club 重庆力帆 0.387557
Lifan 北京国安 0.018489
Chongqing 重庆力帆 0.493595
Super 中超 1
Football 北京国安 0.180923
round 开打 0.10453
22nd 轮 1
one 率先 0.0296949
today 35 0.0262534
: 35 1.88064e-07
at 今日 1.04733e-07
on 接应 1.339e-08
among 中间 0.0429403
Chinese 中间 8.39284e-07
out 定要 0.0259645
Russia 回俄后 0.00352702
back 回俄后 0.00928505
came 回俄后 0.00350653
communicator 传播者 1
being 重任 0.0233082
responsibility 重任 0.0477361
felt 重任 0.034696
Olympic 三块 0.00509592
number 号 0.231476
great 感受 0.0615265
feeling 感觉 0.659982
had 相同 0.0208068
Association 那延伟 0.130458
Culture 促进会 0.43956
Yanwei 促进会 1
Na 中华文化 1
for 通货 0.00075119
them 非常高兴 0.0164675
Chinese 传播 3.74939e-05
contrary 相反 0.850067
promotion 弘扬 0.727271
cultural 贡献 0.0522466
for 贡献 0.0018645
contribution 贡献 1
own 贡献 8.38944e-06
my 弘扬 0.0507501
Russia 传播 0.064976
China 所学 0.00598362
use 所学 0.014919
will 所学 0.00112219
Germany 德国 0.834955
called 评论家 0.030623
works 作品 0.664495
@-@ 馅饼 0.0006868
her 写出 0.00493901
write 写出 0.7
been 能画 0.00533774
be 就要 0.00384491
now 书画 0.0107286
Chen 菲律宾 0.11236
course 培训班 0.528749
right 门前 0.0263188
Affairs 侨务办公室 0.307692
Overseas 侨务办公室 0.571574
by 绘画 0.00115154
hosted 暨南大学 0.37123
training 培训班 0.0900105
calligraphy 书法 0.626489
one 专注 0.00494906
talent 才艺 1
community 中华 0.0863314
overseas 海外华人 0.0857094
ago 前不久 0.014418
emerged 车队 1
not 前不久 0.0030666
disperse 驱散 1
while 黄静 0.0065913
excitedly 黄静 1
Overseas 华侨 0.428426
chairman 主席 0.768027
Jing 联合会 1
growth 老鼠的儿子会打洞 0.00526743
at 整整 0.000944303
of 联合会 3.18186e-08
of 华侨 1.61937e-06
organize 沟通 0.147062
apply 发扬 0.101451
China 发扬 0.00743438
vasoconstriction 升高 1
what 开来 0.0489835
forward 开来 0.18364
carry 开来 0.0317533
dinner 花生 0.088878
must 开来 0.0250412
I 开来 0.00746858
dreariest 难吃 1
iPhoneSE iPhoneSE 1
still 仍然 0.085222
bear 欧文 0.875
weight 分给 0.266667
decline 他会 0.180567
playoffs 季后赛 1
spokesman 城内 0.0384465
beating 南非队 1
@-@ 自助餐 0.0007081
and 季后赛 0.000231642
conserve 体力 1
educating 照看 1
Cleveland 克利夫兰 1
in 奖杯 6.67201e-07
in 刚刚 0.00104537
trophy 奖杯 1
championship 奖杯 0.128555
first 第一座 0.00754971
brought 第一座 0.0439765
yes 哦 0.365816
FMVP FMVP 1
Temer 特梅尔 1
was 乔丹 0.00174729
James 詹姆斯 1
he 法国电影 0.00167102
MVP MVP 1
are 巴辛 0.00283047
won 拉塞尔 0.0110512
Jordan 乔丹 1
ring 戒指 0.899996
championship 第三枚 0.0857921
professional 深耕 0.0309987
who 热爱 0.00819742
is 油箱 8.08663e-06
sports 跑车 0.0127884
&apos;s 前台 0.000182624
people 人里 0.00114924
in 一书中 0.000645494
one 人里 0.00197966
end 尽头 0.0147517
came 尽头 0.00526188
are 高地 0.00849141
eventually 尽头 0.156288
GDP 尽头 0.125047
combination 组合 0.547535
should 高度重视 0.00420174
Zeitung 奇耻大辱 0.117908
second 再战 0.0099696
a 再战 0.000394235
Suddeutsche 奇耻大辱 0.09089
Ginobili 吉诺 1
retired 邓肯 0.201648
Spurs 马刺队 1
benefits 马刺队 0.0727312
Aldrich 化学反应 1
reaction 里奇 0.488564
level 阿尔德 0.0881719
highest 阿尔德 0.00662684
games 首发 0.0295803
better 帕克 0.0390078
2,000 变卖 0.113236
had 帕克 0.00382979
whole 做出 0.181425
Henry 汉瑞角 1
for 做出 3.22252e-06
likely 像是 0.0889715
is 像是 0.00171018
that 像是 0.00567284
mean 汤神 0.236234
Orient 东方 1
does 汤神 0.0211862
probably 恐怕 0.084875
effect 恐怕 0.0244231
negative 恐怕 0.223517
most 恐怕 0.0104911
Parker 帕克 1
score 勇士队 0.0240232
affect 勇士队 0.015546
&apos;s 回报 7.07716e-05
defense 防守 0.691651
deliberate 管理层 1
ways 某些 0.572005
which 某些 0.00399031
border 滑稽可笑 0.125232
reduced 次数 0.0896685
greatly 次数 1
Provincial 江西省 0.0414738
in 大大减少 0.000393335
ages 减慢 1
holding 持球 0.263247
&apos;s 对手 0.00111253
&apos;s 大大减少 8.51751e-05
&apos;s 持球 0.000170557
Thompson 汤神 0.30762
Bolton 博尔顿 1
shots 汤神 1
by 倒 0.00071972
ratio 使用率 0.344475
&apos;s 到来 2.19604e-07
was 保持 0.0168488
Durant 杜兰特 1
best 最出色 0.0744046
drew 立刻 1
Thompson 汤普森 0.69238
seasons 生涯 1
games 身材 0.0295803
Association 中超 0.135029
suitable 身材 1
stature 身材 1
stage 丢脸 0.0854247
potention 潜质 1
forward 前锋 0.09182
@-@ 前锋 0.000590958
good 前锋 0.00317681
already 前锋 0.0196461
burned 水蒸汽 1
scale 聚焦 0.397457
while 洛佩斯 0.0147921
Brook 布鲁克 1
Wuchevich 武切 1
Cousins 考辛斯 1
@-@ 角度 0.00141831
of 食 6.96044e-08
higher 高于 0.468773
rate 使用率 0.0360508
rate 维奇 0.0119938
such 维奇 0.00438668
. 维奇 7.6787e-05
attack 进攻 0.283159
action 仔细观察 0.0134521
low 维奇 0.0124448
score 考辛斯 0.0600522
a 组队 9.83903e-05
32 32% 0.666667
array 人阵 1
possible 完全恢复 0.35264
Team 三人 0.148946
injury 伤病 0.249999
recovered 尽快 0.666667
our 卢萨 0.00875334
be 尽快 0.00384491
excessively Richards 1
for 再战 0.000304714
possible 碰撞 0.176314
soon 伤病 0.0647948
competition 竞争 0.234437
Enby 比德 1
Simmons 西蒙斯 1
for 上场 0.00050739
compete 上场 0.162677
season 上赛季 0.0351576
heard 公路 0.56008
76 76 0.96437
&apos;s 最具 0.000181476
embarrassing 尴尬 1
more 尴尬 0.00291387
who 事故 0.0122966
right 球权 0.0425954
ball 球权 0.0871471
definitely 风城 0.357156
will 风城 0.000350683
by 汇总 0.00287777
Star 风城 1
Red 风城 0.0666668
coming 风城 0.0514546
challenging 拥挤 1
offence 拥挤 0.166383
32.8 32.8% 1
they 出行 0.00119251
your 免疫力 0.0108012
star 球星 0.110284
headed 球星 0.999035
headed 当家 0.000964813
are 广 0.00106143
Research 通讯 0.310347
hit 命中率 0.0735114
@-@ 三分 0.00305709
three 三分 0.0269764
Roosevelt 罗斯福 1
he 隆多 0.00501315
well 治愈 0.0582774
range 射程 0.3577
backcourt 后场 1
Heat 公牛 1
Bulls 公牛 1
performance 后卫 0.0105867
his 后卫 0.00243379
linebacker 后卫 1
&apos;s 后卫 3.41139e-05
@-@ 治安案件 0.000314086
@-@ 友好 0.00354574
been 实力 0.0106756
shrink 缩水 1
by 股东 0.00115154
retreat 退步 1
course 当然 0.317158
of 当然 1.64591e-06
season 赛季 0.848886
regressive 退步 1
time 出场 0.0174577
playing 限制 0.215115
limited 限制 0.111418
&apos;s 汤普森 0.000367299
or 限制 0.0127841
25 25 1
decline 衰落 0.0903504
whenever 衰落 1
proved 证明 0.602404
have 实力 0.00268241
have 证明 0.000692713
years 近年 0.0154096
recent 近年 0.0888787
Feng 雷锋 0.774193
on 下心 0.00131183
Cowherd 牛郎 1
a 扮演 1.23523e-05
served 扮演 0.312113
. 代言 3.02283e-07
advertising 广告 0.749999
experiencing 广告 1
Du 杜丽向 0.238062
copper 神话 1
joined 加入 0.538462
gifted 囤积 1
1 铜 0.0160011
fast 行政 0.0924573
and 铜 0.000402367
group 金团 0.0415338
closure 谨慎 0.0211273
an 总教练 0.00373604
created 总教练 0.126888
Rondo 巴特勒 1
head 总教练 0.0282403
strategy 与否 0.0225224
coach 总教练 0.00928796
team 女队 0.00876505
&apos;s 男队 0.000367549
awareness 自我认识 0.613402
pointer 教鞭 1
chose 教鞭 0.085967
Yubin 黄玉斌 1
first 首位 0.0301988
number 夺冠军 0.0192896
&apos;s 海上 0.000183768
great 夺冠军 0.0205088
going 这件 0.173427
cultivated 出中 1
about 入侵 0.00144517
new 后来者 0.00235926
what 后来者 0.0209929
passed 后来者 0.24097
retirement 退役 0.954301
transforming 意大利 1
country 传授 0.0529323
athletes 无限 0.0666771
were 风光 0.00659307
they 后来者 0.0020443
sports 体坛 0.0042628
star 体坛 0.00918835
was 体坛 0.000295007
there 体坛 0.00107661
entrepreneurship 创业 1
domestic 第一家 0.0718703
Minhong 联手 1
Yu 联手 0.00900651
Yu 俞敏洪 0.0406924
work 俞敏洪 0.00500139
same 持平 0.0144454
level 正厅级 0.023073
&apos;m 那种 0.130942
department 正厅级 0.0339637
Network 干部 0.5
Search 正厅级 1
Daily 股份公司 0.266955
common 新潮 0.18782
&apos;s 搜索 0.000245032
People 搜索 0.0813494
General 秘书长 0.203376
@-@ 正厅级 0.000886425
as 洲 0.00443995
professional 专 0.0458636
Deputy 人民日报社 0.33333
served 人民日报社 0.0625837
2010 2010 1
his 情绪 0.00531548
Olympics 备战 0.0471962
athlete 乒乓球 0.109769
didn 不想 0.0737765
female 乒乓球 0.0613045
that 霍夫 0.00226099
maintain 排名 0.799299
years 乒坛 0.00330206
8 乒坛 0.0169358
medals 奥运金牌 0.0341325
win 四枚 0.0349081
championships 四枚 1
Yaping 邓亚萍 1
years 邓亚萍 0.0077048
seminars 座谈 1
per 30% 0.0764681
governor 志远 0.428571
Wang 志远 0.0195584
Secretary 秘书长 0.233454
Secretary 王路 0.262636
Party 副省长 0.0821682
Municipal 张琦 1.3263e-06
Standing 张琦 0.175
implement 园区 0.335109
quality 高质量 0.0496403
settlement 高质量 1
0 战胜 0.0972223
park 园区 0.222223
projects 重大项目 0.0528459
key 重大项目 0.0716043
stepping 控球 0.588236
batch 一批 0.577049
move 落地 0.0197874
&apos;s 杜兰特 0.000235907
out 五个 0.0173044
he 代言 0.00250529
day 百日 0.00601614
@-@ 落地 0.000591066
@-@ 百日 0.000886183
homage 致敬 1
100 百日 0.0220011
attractions 城镇 1
village 每个 0.0553977
into 城镇 0.0124334
town 小镇 0.192328
characteristic 风情 0.652088
accelerate 加快 1
from 格拉斯哥 0.0035878
varying 周期 0.258606
and 城乡 7.87317e-07
details 精品 0.277787
published 天文学 0.0892374
elements 精品 0.2174
enrich 打造 0.926108
international 细节 0.0354767
out 传中 0.00876912
improve 点滴 0.136363
lead 带头作用 0.121008
various 落地 0.0229597
we 带头作用 0.013281
we 水平 0.00802999
order 经济社会 0.0211785
social 经济社会 0.0069603
in 穿着 3.70345e-07
demonstration 龙头 0.554911
Beast 日报 1
saw 西班牙 0.0802868
rent 出租 1
firmly 紧紧抓住 1
should 紧紧抓住 0.00209546
spent 平时 0.452332
affirmation 充分肯定 1
fully 充分肯定 0.082193
provided 给予 0.123267
Rebull 布尔 1
departments 意见建议 0.0240964
relevant 意见建议 0.0142214
comments 意见建议 0.171306
suggestions 汇报 1
project 试点工作 0.0236031
