0 3 1.25472e-06
0 13 0.0581648
0 21 0.102908
0 25 0.0603213
0 26 0.34088
0 28 0.151634
0 35 5.38878e-07
0 47 0.20638
0 55 2.18584e-05
0 56 6.52321e-07
0 76 0.0795856
0 79 7.42143e-07
0 86 7.5743e-07
0 899 9.54928e-05
0 1707 2.28818e-06
0 2211 2.23767e-07
0 3896 1.06388e-07
2 2 1
3 3 0.478914
3 14 0.245794
3 15 0.275292
4 3 0.184756
4 9 0.288558
4 16 0.526687
5 22 0.840098
5 106 0.159902
6 22 7.52418e-07
6 23 0.764711
6 86 0.235288
7 73 1
8 25 0.0792688
8 183 0.920731
9 9 0.118046
9 10 0.440977
9 11 0.440977
10 13 0.502125
10 55 0.124394
10 144 0.124387
10 462 0.124384
10 683 0.124384
10 3027 0.000325745
11 3 0.142857
11 4 0.142857
11 5 0.142857
11 6 0.142857
11 7 0.142857
11 8 0.142857
11 12 0.142857
12 19 1
13 134 0.000773993
13 376 0.999226
14 17 0.250001
14 18 0.250001
14 19 0.249997
14 20 0.250001
15 21 0.755789
15 365 0.244211
16 35 1
17 13 0.24871
17 17 0.12523
17 86 0.125142
17 288 0.500919
18 31 0.415886
18 32 0.584114
19 29 1
20 31 0.0243015
20 32 0.975698
21 13 2.74959e-05
21 24 0.228259
21 25 0.086895
21 27 0.228259
21 29 0.228244
21 30 0.228259
21 31 5.67007e-05
22 33 1
23 34 0.819951
23 35 0.180049
24 35 0.335865
24 36 0.664135
25 37 0.00418595
25 70 0.955604
25 86 0.0402101
25 1004 1.29251e-07
26 41 0.5
26 42 0.5
27 18 0.0673738
27 123 0.0780919
27 181 0.546535
27 343 0.197523
27 368 0.110477
28 17 0.619373
28 43 0.132875
28 874 0.123874
28 6532 0.123878
29 116 1
30 43 0.490754
30 44 0.509246
31 37 0.333058
31 45 0.333454
31 46 0.333487
32 35 1.37754e-07
32 38 0.813887
32 92 0.186113
33 47 0.666334
33 56 0.333666
34 39 0.333333
34 40 0.333333
34 48 0.333333
35 49 0.993646
35 305 0.00635377
36 50 0.398235
36 51 0.398235
36 221 0.00441194
36 2475 0.199118
37 52 1
38 287 1
39 46 0.249982
39 53 0.249994
39 54 0.249994
39 55 0.24999
39 478 3.99365e-05
40 13 0.999999
40 55 1.29137e-06
41 49 0.120413
41 56 0.879587
42 67 1
43 35 0.190365
43 68 0.190264
43 69 0.570792
43 1671 0.0485798
44 60 0.583379
44 183 0.416621
45 61 0.666667
45 635 0.333333
46 22 0.333333
46 58 0.333333
46 59 0.333333
47 9 0.340047
47 57 0.329989
47 2328 0.329964
48 62 0.5
48 63 0.5
49 447 0.144357
49 462 0.144357
49 4082 0.278216
49 4119 0.144357
49 4257 0.288714
50 22 0.057969
50 25 0.114575
50 55 0.827456
51 64 0.166666
51 2491 0.333333
51 2492 0.5
52 38 0.498746
52 51 3.09483e-06
52 65 0.498746
52 123 0.00250397
53 66 0.85623
53 70 0.14377
54 71 0.666667
54 72 0.333333
55 70 1
56 207 5.92941e-06
56 431 0.250156
56 3482 0.4999
56 7738 0.249938
57 73 0.999931
57 1442 6.92469e-05
58 1966 0.446801
58 2946 0.553199
59 74 1
60 13 0.0003517
60 75 0.499824
60 77 0.499824
61 76 0.999998
61 79 2.35067e-06
62 79 0.55527
62 108 0.44473
63 13 0.34711
63 55 0.652873
63 76 1.7406e-05
64 78 0.921943
64 80 0.078057
65 49 0.333019
65 81 0.555818
65 92 0.111163
66 183 1
67 82 0.5
67 83 0.5
68 25 1
69 84 1
70 85 1
71 26 2.26328e-06
71 246 0.0351722
71 840 0.749972
71 2674 0.000576126
71 5518 0.214278
72 9 0.0492441
72 25 0.950755
72 291 2.9135e-07
72 2921 2.19046e-07
72 4872 1.01241e-07
73 87 0.5
73 90 0.5
74 742 0.704285
74 1170 0.0609196
74 1520 0.234795
75 18 0.125
75 88 0.25
75 89 0.125
75 91 0.125
75 92 0.125
75 93 0.125
75 94 0.125
76 86 0.249836
76 99 0.375082
76 100 0.250055
76 6196 0.125027
77 55 0.3272
77 101 0.6728
78 13 0.0022217
78 55 0.248782
78 95 0.499333
78 102 0.249664
79 96 1
80 97 0.666667
80 98 0.333333
81 51 0.143851
81 2708 0.713442
81 2726 0.142707
82 2341 1
83 13 1
84 63 0.333333
84 7992 0.333333
84 8014 0.333333
85 731 1
86 70 1.41782e-05
86 102 0.166647
86 2371 0.833331
86 2628 8.1743e-06
87 86 0.0137255
87 103 0.666824
87 184 0.319451
88 33 0.0444619
88 55 0.86796
88 63 0.0875783
89 51 0.263438
89 86 0.471027
89 103 0.132847
89 4233 0.132687
90 13 0.000786717
90 22 0.00778355
90 51 0.159945
90 728 0.158449
90 745 0.673036
91 46 0.166667
91 92 0.166667
91 104 0.333334
91 105 0.166666
91 106 0.166667
92 49 0.951103
92 56 0.0488967
93 26 0.917921
93 31 0.0820791
94 70 0.520522
94 86 0.479478
95 49 0.0233629
95 107 0.878342
95 120 0.0982953
96 22 0.0118781
96 79 0.986844
96 2211 0.00127812
97 39 0.125
97 54 0.125
97 108 0.125
97 241 0.125
97 478 0.125
97 1424 0.125
97 2959 0.125
97 7421 0.125
98 13 0.999926
98 47 7.4178e-05
99 112 1
100 113 0.5
100 114 0.5
101 115 1
102 13 0.831427
102 288 0.168573
103 109 1
104 86 0.266819
104 110 0.733181
104 7118 7.27194e-07
105 116 0.987058
105 117 0.0129422
106 117 0.333329
106 118 0.333336
106 119 0.333335
107 49 1.8761e-05
107 111 0.999981
108 9 5.48009e-06
108 31 0.970214
108 56 0.0235474
108 221 0.00623299
109 120 1
110 25 0.00238857
110 126 0.494062
110 1111 0.503549
111 21 1
112 115 0.800024
112 1208 0.199976
113 76 1
114 124 1
115 9 1
116 31 1
117 121 1
118 76 0.466448
118 123 0.533552
119 108 0.247696
119 122 0.247696
119 123 0.247593
119 125 0.247685
119 126 0.00933069
120 317 0.499999
120 1613 0.500001
121 55 0.336881
121 2466 0.331555
121 2484 0.331563
122 127 0.333334
122 128 0.333334
122 129 0.333332
123 55 0.0515131
123 1230 0.948487
124 33 0.89653
124 3874 0.10347
125 19 0.374974
125 482 0.374974
125 4363 0.250051
126 82 1
127 47 1.13015e-06
127 49 1.04699e-06
127 86 0.00885065
127 175 0.991147
128 13 1
129 130 1
130 9 0.322581
130 126 0.322579
130 1170 0.322583
130 4135 0.0322575
131 56 1
132 132 0.444448
132 1488 0.555552
133 22 0.25
133 23 0.25
133 77 0.25
133 131 0.25
134 45 0.999963
134 92 3.7177e-05
135 36 0.249999
135 92 4.77104e-06
135 133 0.249999
135 134 0.249999
135 135 0.249999
136 13 0.00118792
136 43 0.19976
136 117 0.199767
136 181 0.199765
136 246 0.39952
137 13 0.418346
137 22 0.581654
138 136 0.506301
138 137 0.493699
139 123 0.975715
139 137 0.0242851
140 138 0.5
140 139 0.5
141 123 0.33112
141 1771 0.33444
141 2509 0.334439
142 140 0.748342
142 141 0.251658
143 22 0.222168
143 142 0.11108
143 143 0.22216
143 144 0.22216
143 145 0.11108
143 146 0.111352
144 147 0.5
144 148 0.5
145 21 5.13025e-05
145 79 0.666611
145 5052 0.333338
146 25 0.190698
146 28 1.38887e-05
146 117 0.202322
146 136 0.202322
146 149 0.202322
146 150 0.202322
147 151 1
148 123 0.33985
148 305 0.0923094
148 809 0.453059
148 1496 0.114782
149 22 0.166242
149 36 0.166761
149 86 0.500236
149 152 0.16676
150 809 1
151 70 0.803165
151 86 0.196835
152 38 0.200001
152 123 0.399997
152 156 0.400002
153 251 1
154 35 0.499962
154 720 0.250019
154 6363 0.250019
155 56 1
156 117 0.219436
156 181 0.0339716
156 897 0.577036
156 1750 0.169557
157 53 0.142864
157 86 0.428546
157 153 0.142864
157 154 0.142864
157 155 0.142863
158 22 1
159 13 0.0683336
159 161 0.231132
159 162 0.700534
160 22 0.499649
160 159 0.250176
160 160 0.250176
161 47 1
162 158 1
163 157 1
164 25 0.484186
164 86 0.2583
164 4244 0.257514
165 42 0.25
165 79 0.25
165 123 0.249999
165 163 0.25
166 86 0.5
166 4331 0.5
167 2427 1
168 165 0.797585
168 4414 0.200147
168 7844 0.00226861
169 164 0.331675
169 165 0.0049757
169 166 0.331675
169 167 0.331675
170 9 0.333313
170 168 0.333343
170 169 0.333343
171 3 1
172 170 1
173 171 1
174 172 1
175 173 0.724138
175 276 0.275862
176 3 0.166492
176 174 0.416748
176 251 1.14236e-05
176 269 0.416748
177 55 0.29994
177 165 0.200014
177 176 0.200014
177 183 0.300031
178 190 1
179 177 0.25
179 178 0.75
180 179 0.499999
180 1606 0.500001
181 915 0.33326
181 2261 0.166851
181 6430 0.49989
182 180 0.189319
182 182 0.189319
182 183 0.189319
182 184 0.189319
182 185 0.189319
182 186 0.0534059
183 35 0.188298
183 446 0.231915
183 1246 0.579787
184 181 0.537941
184 186 0.193088
184 1965 0.268971
185 184 0.180957
185 202 0.71093
185 221 0.108113
186 21 0.220072
186 25 0.435033
186 253 0.172178
186 439 0.172717
187 184 0.25
187 188 0.25
187 189 0.25
187 191 0.25
188 1596 1
189 49 0.0832136
189 79 0.0844569
189 187 0.83233
190 26 0.0132208
190 198 0.830379
190 6006 0.1564
191 67 0.122938
191 192 0.12293
191 195 0.122941
191 199 0.122942
191 200 0.262373
191 219 0.245875
192 18 0.146853
192 35 0.290717
192 82 0.145892
192 200 0.416539
193 49 0.236585
193 194 0.457918
193 196 0.305498
194 55 0.485386
194 258 0.292333
194 3744 0.222281
195 79 0.111111
195 193 0.111111
195 195 0.111109
195 197 0.222223
195 201 0.111111
195 203 0.111111
195 204 0.111111
195 205 0.111111
196 207 0.503343
196 431 0.496657
197 208 0.5
197 209 0.5
198 13 0.000285618
198 21 3.30012e-06
198 265 0.123313
198 431 0.152035
198 1605 0.120756
198 3113 0.603607
199 564 1
200 206 1
201 206 1
202 1612 1
203 18 0.467611
203 181 0.532389
204 40 0.43193
204 134 0.279871
204 181 0.144085
204 2236 0.144114
205 212 0.315661
205 221 0.000837158
205 1643 0.0523015
205 6968 0.6312
206 191 0.591274
206 240 0.139017
206 4301 0.269709
207 37 0.142859
207 181 0.142858
207 189 0.142862
207 210 0.142862
207 211 0.142862
207 212 0.142834
207 213 0.142862
208 214 1
209 215 0.777778
209 216 0.111111
209 7273 0.111111
210 217 0.910745
210 3124 0.0892549
211 25 1
212 21 0.000812917
212 55 0.0913262
212 226 0.0914762
212 283 0.725613
212 1759 2.25122e-05
212 1933 0.0907491
213 200 0.250037
213 218 0.499976
213 220 0.249988
214 816 1
215 221 0.111127
215 3095 0.888873
216 25 0.491508
216 216 0.0847501
216 221 0.169489
216 3747 0.254253
217 202 0.111111
217 225 0.888889
218 25 1
219 17 0.285925
219 18 0.142963
219 22 0.14296
219 226 0.28519
219 1008 0.142963
220 22 1.96532e-06
220 106 0.124973
220 222 0.374904
220 223 0.124968
220 224 0.124968
220 268 0.12499
220 6390 0.124968
220 6500 0.000227251
221 3972 1
222 70 0.142945
222 232 0.285685
222 233 0.285685
222 234 0.285685
223 35 0.5
223 1632 0.5
224 183 0.41416
224 230 0.58584
225 196 0.332695
225 228 0.333653
225 231 0.333653
226 183 0.599816
226 229 0.300209
226 2246 0.0999752
227 25 0.0464428
227 614 0.317849
227 1806 0.317848
227 2272 0.31786
228 13 0.287357
228 227 0.534483
228 2589 0.178161
229 18 0.262121
229 183 0.262121
229 466 0.00119285
229 1490 0.212444
229 2280 0.262121
230 241 0.333336
230 242 0.333329
230 7244 0.333335
231 13 2.45584e-05
231 21 0.0151277
231 56 0.325724
231 266 0.659123
232 13 0.709836
232 26 7.58121e-06
232 372 0.145077
232 522 0.14508
233 25 2.5355e-05
233 56 1.41415e-06
233 239 0.214504
233 1724 0.0715941
233 2800 0.713875
234 235 1
235 18 0.199999
235 237 0.200001
235 238 0.200001
235 239 0.199998
235 240 0.200001
236 18 0.25
236 222 0.25
236 236 0.25
236 243 0.25
237 241 0.758929
237 1208 0.241071
238 25 1
239 31 0.571429
239 244 0.142857
239 246 0.142857
239 5471 0.142857
240 245 0.333333
240 255 0.333333
240 650 0.333333
241 18 0.0377888
241 183 0.0134355
241 221 0.0402013
241 246 0.905237
241 522 0.00333723
242 216 0.5
242 218 0.5
243 106 0.166667
243 222 0.166667
243 246 0.166667
243 2698 0.166667
243 2699 0.333333
244 247 0.400003
244 1610 0.200001
244 7198 0.199996
244 7199 0.2
245 183 0.418435
245 376 0.581565
246 213 0.666667
246 252 0.166667
246 1682 0.166666
247 3 0.714285
247 203 0.285715
248 116 0.319213
248 117 0.33802
248 248 0.112962
248 3097 0.229805
249 248 5.41146e-06
249 249 0.499997
249 250 0.499997
250 207 0.249999
250 254 0.500001
250 1646 0.25
251 35 0.479367
251 397 0.00413821
251 5422 0.516495
252 9 4.45402e-06
252 256 0.500096
252 257 0.24995
252 2877 0.24995
253 13 3.59725e-06
253 186 0.199999
253 261 0.199999
253 262 0.199999
253 263 0.199999
253 264 0.199999
254 9 0.250487
254 35 9.75162e-06
254 260 0.749504
255 35 0.00535756
255 56 0.174716
255 259 0.546618
255 985 0.273309
256 9 0.127272
256 22 0.245272
256 260 0.504828
256 5582 0.122628
257 265 1
258 63 0.0208387
258 207 0.979161
259 117 0.375099
259 2914 0.124226
259 2930 0.500676
260 13 0.628121
260 77 0.18594
260 4004 0.18594
261 3 0.349999
261 320 0.35
261 1024 0.3
262 79 0.137922
262 1621 0.492398
262 3768 0.246188
262 3797 0.123099
262 3798 0.000392243
263 188 0.713659
263 447 0.000797832
263 960 0.285544
264 14 0.469861
264 31 0.530139
264 35 3.38651e-07
265 13 0.404904
265 436 0.0850106
265 1133 0.510086
266 99 0.333333
266 267 0.333333
266 268 0.333333
267 270 1
268 26 0.00703197
268 583 0.395768
268 685 0.357855
268 977 0.239345
269 3 0.0152567
269 214 0.758408
269 509 0.226335
270 25 0.00203662
270 48 0.166513
270 272 0.166513
270 273 0.166513
270 275 0.498423
271 274 1
272 183 1
273 22 0.0664827
273 126 0.135861
273 271 0.797656
274 13 0.397453
274 203 0.401705
274 251 0.200842
275 51 0.166405
275 311 0.332812
275 579 0.166406
275 1895 0.166406
275 6417 0.167972
276 279 1
277 47 0.000204135
277 277 0.999796
278 35 0.333292
278 47 0.00010162
278 278 0.666606
279 35 0.153222
279 55 0.461291
279 221 0.383902
279 541 0.00158403
280 17 0.25
280 286 0.75
281 280 0.333333
281 281 0.333333
281 284 0.333333
282 282 0.5
282 285 0.5
283 13 0.127336
283 56 8.55814e-06
283 463 0.872655
284 18 0.502624
284 86 0.469707
284 258 0.0276694
285 294 0.999957
285 295 4.27035e-05
286 47 0.000285027
286 56 0.999471
286 76 0.000244277
287 9 0.259712
287 761 3.95011e-06
287 960 0.266177
287 1095 0.237065
287 1619 0.237042
288 295 1
289 22 0.615294
289 87 0.108217
289 246 0.276489
290 287 0.6
290 288 0.2
290 387 0.2
291 86 0.180311
291 454 0.547588
291 2994 0.2721
292 117 0.182138
292 289 0.817862
293 117 0.318347
293 290 0.170413
293 291 0.170413
293 292 0.170413
293 293 0.170413
294 3 0.00946407
294 70 0.326226
294 246 0.0163408
294 447 0.323292
294 7828 0.324677
295 463 1
296 282 0.335737
296 283 0.328526
296 296 0.335737
297 297 0.5
297 298 0.5
298 299 1
299 302 1
300 43 0.20002
300 117 0.199919
300 183 0.20002
300 300 0.20002
300 301 0.20002
301 35 0.000488301
301 1803 0.499756
301 3201 0.499756
302 56 0.163973
302 962 0.333523
302 2922 0.502503
303 303 0.588246
303 407 0.411754
304 183 0.165323
304 304 0.667721
304 328 0.166956
305 77 0.248546
305 175 0.130103
305 305 0.12426
305 306 0.248546
305 307 0.124273
305 581 0.124272
306 86 0.333332
306 308 0.333334
306 309 0.333334
307 13 0.368683
307 317 0.12794
307 463 0.503377
308 13 0.356833
308 22 0.158334
308 35 0.279221
308 221 0.110354
308 861 0.0952571
309 22 0.129114
309 56 0.00178082
309 310 0.869105
310 108 0.199999
310 311 0.599996
310 312 0.200006
311 183 0.244529
311 313 0.647547
311 1028 0.107924
312 314 0.5
312 315 0.5
313 79 0.285725
313 343 0.285685
313 582 0.42859
314 22 0.333094
314 343 9.8445e-05
314 344 0.333404
314 345 0.333404
315 86 0.111108
315 2877 0.888892
316 3 1.57653e-05
316 320 0.999984
317 21 0.27213
317 716 0.485248
317 1598 0.242621
318 318 1
319 25 0.0841978
319 47 0.303311
319 100 0.591063
319 183 0.0214276
320 3 0.2
320 319 0.2
320 320 0.199998
320 321 0.2
320 322 0.2
321 77 0.166669
321 248 0.166668
321 316 0.166669
321 317 0.166655
321 323 0.166669
321 324 0.166669
322 33 0.4
322 588 0.1
322 3874 0.5
323 63 0.166692
323 288 0.0833191
323 512 0.749989
324 92 0.140037
324 325 0.280073
324 326 0.159824
324 327 0.140037
324 328 0.139993
324 329 0.140037
325 47 1
326 35 0.0342631
326 326 0.738198
326 346 0.195217
326 512 0.0323215
327 330 0.5
327 331 0.5
328 332 0.5
328 333 0.5
329 56 1
330 334 0.666667
330 578 0.333333
331 9 0.333333
331 575 0.333334
331 576 0.333334
332 6237 1
333 4158 1
334 35 4.42754e-06
334 468 0.90128
334 923 0.098716
335 183 0.441008
335 512 0.558992
336 335 0.89947
336 390 0.0200697
336 802 0.0804607
337 86 0.171889
337 336 0.172178
337 337 0.172178
337 338 0.172178
337 339 0.139398
337 340 0.172178
338 842 0.749999
338 1728 0.250001
339 31 0.270031
339 1873 0.619194
339 6197 0.110775
340 26 0.387687
340 31 0.612313
341 341 0.666667
341 590 0.333333
342 339 1
343 288 0.112449
343 342 0.887551
344 86 0.47141
344 1059 0.528571
344 1613 1.86381e-05
345 51 0.0677873
345 103 0.198451
345 752 0.0679106
345 866 0.259124
345 1654 0.406728
346 76 0.000394039
346 2159 0.999606
347 76 0.679949
347 2043 0.319431
347 2520 0.000620623
348 25 0.103016
348 123 0.451702
348 3189 0.445282
349 346 1
350 55 0.166668
350 142 0.166668
350 239 0.166659
350 246 0.166668
350 4146 0.166668
350 5615 0.166668
351 35 0.000782148
351 347 0.333073
351 348 0.333073
351 349 0.333072
352 106 0.123007
352 356 0.262005
352 1971 0.614988
353 28 0.165995
353 117 0.33363
353 207 0.166822
353 221 0.166739
353 1267 0.166815
354 79 0.0191236
354 372 0.980876
355 22 0.799988
355 376 0.200012
356 350 0.5
356 351 0.5
357 38 1
358 18 0.0271035
358 505 0.972897
359 106 0.333309
359 352 0.333346
359 353 0.333345
360 33 0.199818
360 51 4.40067e-06
360 92 0.000888643
360 391 0.799288
361 92 0.257657
361 354 0.258668
361 355 0.258669
361 356 0.225006
362 21 0.40671
362 221 0.138912
362 368 0.454377
363 47 2.22358e-05
363 368 0.142827
363 369 0.428629
363 1425 0.428521
364 288 0.5
364 368 0.5
365 357 0.999932
365 358 6.82142e-05
366 358 1
367 359 0.0542586
367 476 0.945741
368 106 0.183112
368 207 0.183131
368 359 0.633758
369 360 0.2
369 361 0.2
369 362 0.2
369 363 0.2
369 364 0.2
370 365 0.2
370 366 0.4
370 367 0.2
370 5518 0.2
371 92 1
372 370 0.5
372 371 0.5
373 86 0.168214
373 372 0.16739
373 373 0.16739
373 374 0.16739
373 1551 0.329615
374 123 2.03224e-06
374 560 0.14342
374 3283 0.856578
375 86 0.000850763
375 1368 0.499575
375 5396 0.499575
376 3 0.249776
376 21 1.27906e-05
376 26 0.000371684
376 389 0.74984
377 86 0.16656
377 107 0.075575
377 181 0.075735
377 378 0.454752
377 681 0.0757919
377 731 0.0757921
377 3150 0.0757936
378 353 1
379 9 0.000129399
379 25 0.873546
379 184 0.126325
380 3 0.110995
380 33 0.111126
380 43 0.111126
380 134 0.111126
380 184 0.111121
380 375 0.111126
380 376 0.111126
380 377 0.111126
380 379 0.111126
381 162 0.5
381 380 0.5
382 70 0.467823
382 86 0.000146695
382 288 0.0640668
382 382 0.467963
383 288 0.177482
383 381 0.205648
383 382 0.411225
383 383 0.205645
384 6750 1
385 21 1
386 359 1
387 86 0.252847
387 181 0.498097
387 207 0.249056
388 22 0.0910982
388 35 0.187789
388 1355 0.721112
389 22 2.4879e-06
389 63 0.416889
389 221 0.166075
389 384 0.139011
389 385 0.278022
390 18 0.243712
390 35 0.0083341
390 386 0.154505
390 387 0.308594
390 618 0.284855
391 388 0.5
391 2359 0.5
392 63 0.108612
392 112 0.782891
392 1170 0.108497
393 86 0.885369
393 2907 0.114631
394 391 3.56941e-05
394 392 0.999964
395 240 0.100196
395 899 0.449873
395 5854 0.449931
396 56 0.207881
396 183 0.339289
396 221 0.226042
396 6502 0.226788
397 21 0.312706
397 390 0.34355
397 393 0.343743
398 86 0.666066
398 221 0.000220195
398 397 0.333708
398 569 5.97904e-06
399 207 0.2
399 303 0.2
399 394 0.2
399 395 0.2
399 396 0.2
400 9 0.249062
400 117 0.250313
400 475 0.250313
400 918 0.250313
401 79 4.4885e-07
401 134 0.649864
401 343 0.167578
401 618 0.182557
402 35 0.000108785
402 246 0.250057
402 277 0.250057
402 386 0.24972
402 398 0.250057
403 25 0.166594
403 108 0.333364
403 2157 0.500042
404 399 0.499996
404 402 0.500004
405 271 0.333333
405 401 0.333333
405 403 0.333333
406 2362 0.499799
406 2475 0.500201
407 400 0.5
407 404 0.5
408 55 0.465489
408 926 0.332524
408 1477 0.201987
409 410 0.333503
409 453 0.666497
410 328 0.249446
410 409 0.249448
410 411 0.498468
410 463 0.0026379
411 406 0.166669
411 407 0.166693
411 408 0.333319
411 630 0.166659
411 631 0.166659
412 13 3.6173e-06
412 35 0.333303
412 405 0.333357
412 406 0.333336
413 1140 0.25
413 3239 0.75
414 161 0.0500013
414 205 0.100002
414 246 0.0500119
414 412 0.799985
415 9 0.0529794
415 13 0.0478782
415 22 0.265137
415 86 0.105743
415 126 0.264109
415 343 1.36727e-06
415 512 0.211306
415 5279 0.0528451
416 9 0.130758
416 22 0.261623
416 35 0.117856
416 126 0.000331635
416 253 0.22774
416 413 0.130846
416 414 0.130846
417 35 0.045565
417 79 0.66772
417 221 0.0511279
417 745 0.235587
418 35 0.496405
418 6006 0.249695
418 6074 0.2539
419 1519 0.223478
419 2362 0.776522
420 183 0.432912
420 2948 0.283544
420 7185 0.283544
421 77 0.5
421 4359 0.5
422 54 0.255396
422 63 0.000102411
422 725 0.489106
422 2593 0.255396
423 417 0.333333
423 2153 0.666667
424 272 0.333333
424 415 0.333333
424 416 0.333333
425 106 0.0856983
425 207 0.684838
425 899 0.0856295
425 1220 0.143835
426 3 0.333898
426 182 0.33305
426 454 0.333051
426 1783 1.14167e-06
427 207 0.329997
427 418 0.335044
427 2376 0.334959
428 13 0.114845
428 22 0.147412
428 207 0.000682561
428 353 0.147412
428 364 0.147412
428 419 0.147412
428 420 0.147412
428 421 0.147412
429 55 0.00417167
429 79 0.00166599
429 125 0.331387
429 3867 0.662775
430 35 0.196464
430 117 0.267837
430 221 0.133925
430 425 0.401774
431 134 1
432 123 0.285729
432 1325 0.142854
432 3413 0.142854
432 3652 0.285709
432 4603 0.142854
433 221 0.333333
433 246 0.333333
433 426 0.333333
434 116 0.166667
434 422 0.166667
434 423 0.166667
434 424 0.333334
434 427 0.166664
435 25 0.0772112
435 432 0.154059
435 2514 0.666231
435 2878 0.102499
436 246 0.301962
436 372 1.36377e-05
436 428 0.301958
436 429 0.301963
436 430 0.0940691
436 431 3.43031e-05
437 41 0.105238
437 86 0.473808
437 809 0.210477
437 913 0.105238
437 4085 0.105238
438 207 0.130116
438 430 0.0895814
438 431 0.129978
438 432 0.12986
438 2377 0.130116
438 2410 0.390349
439 55 0.205846
439 100 0.794154
440 55 0.671716
440 3798 0.328284
441 959 1
442 435 1
443 3 0.222222
443 251 0.111111
443 272 0.111111
443 433 0.111111
443 434 0.111111
443 437 0.111111
443 438 0.111111
443 439 0.111111
444 436 0.5
444 4679 0.5
445 1708 1
446 207 0.333365
446 251 0.332935
446 994 0.333699
447 1084 1
448 51 0.199998
448 112 0.199998
448 440 0.199998
448 441 8.44195e-06
448 442 0.199998
448 443 0.199998
449 221 0.428966
449 251 0.285058
449 441 0.285976
450 21 0.239643
450 181 0.084945
450 289 0.67523
450 3807 0.00018204
451 55 0.243779
451 56 0.533228
451 7112 0.222993
452 55 0.5145
452 117 0.0971027
452 153 0.0970992
452 2931 0.291298
453 51 0.20001
453 288 2.21447e-06
453 617 0.399994
453 1107 0.399994
454 444 1
455 86 0.125005
455 115 0.124965
455 246 0.125005
455 354 0.125005
455 445 0.125005
455 446 0.125005
455 447 0.125005
455 448 0.125005
456 455 0.930201
456 456 0.0697991
457 456 1
458 181 0.0591211
458 452 0.408608
458 2993 0.472969
458 5370 0.0593022
459 449 0.666666
459 5073 0.333334
460 35 0.00180421
460 451 0.776462
460 4567 0.221733
461 77 0.250005
461 106 0.249986
461 434 0.250005
461 450 0.250005
462 35 0.500465
462 457 0.499535
463 86 0.000734683
463 457 0.00190159
463 458 0.997364
464 86 1
465 469 0.25
465 527 0.25
465 992 0.25
465 993 0.25
466 459 0.333333
466 460 0.333333
466 461 0.333333
467 86 0.278381
467 2874 0.721619
468 86 0.569053
468 397 0.287302
468 1779 0.143646
469 79 9.67079e-05
469 512 0.999903
470 35 0.2
470 126 0.2
470 183 0.2
470 221 0.2
470 462 0.2
471 183 1.58801e-05
471 2353 0.538078
471 3312 0.194254
471 4058 0.267652
472 33 0.125
472 251 0.375
472 353 0.125
472 463 0.375
473 31 0.201454
473 260 0.199637
473 389 0.199636
473 464 0.199637
473 465 0.199637
474 38 0.25
474 336 0.25
474 466 0.25
474 467 0.25
475 2814 1
476 305 0.333042
476 2201 0.666958
477 39 0.924046
477 221 0.0759539
477 4447 5.5543e-07
478 13 0.117038
478 22 0.109254
478 133 0.109186
478 343 0.118589
478 469 0.109187
478 470 0.218373
478 471 0.109186
478 7342 0.109187
479 55 0.857388
479 287 1.2802e-05
479 406 0.142599
480 28 0.00657171
480 473 0.993428
481 472 1
482 13 2.45347e-06
482 108 0.399999
482 474 0.2
482 475 0.199999
482 2284 0.2
483 271 0.555568
483 4075 0.444432
484 38 0.250058
484 477 0.249981
484 481 0.249981
484 482 0.249981
485 39 0.333107
485 207 0.333795
485 319 0.333098
486 25 2.17742e-05
486 478 0.495292
486 483 0.504686
487 211 0.6
487 1158 0.2
487 7409 0.2
488 439 0.250072
488 505 0.250072
488 1220 0.249783
488 1221 0.250072
489 22 0.00303422
489 207 0.331859
489 479 0.332554
489 480 0.332554
490 21 4.55868e-05
490 477 0.208505
490 809 0.032814
490 1471 0.758635
491 56 0.428424
491 484 0.142894
491 2741 0.285788
491 4573 0.142894
492 46 0.142293
492 183 0.14194
492 304 0.142292
492 485 0.142292
492 486 0.142293
492 487 0.142292
492 488 0.142293
492 489 0.00430519
493 79 0.00729587
493 728 0.249727
493 2307 0.249727
493 2365 0.49325
494 25 0.986872
494 56 0.0131284
495 181 0.666273
495 183 0.333727
496 13 0.0076942
496 174 0.499938
496 489 0.242407
496 3247 0.249961
497 323 0.881857
497 1102 0.118144
498 77 0.250041
498 79 0.249858
498 343 0.250024
498 372 3.69658e-05
498 490 0.25004
499 181 0.200004
499 324 0.200004
499 365 0.199985
499 425 0.200004
499 491 0.200004
500 492 0.333333
500 985 0.555556
500 1892 0.111111
501 493 1
502 14 0.414264
502 161 0.389322
502 502 0.0990507
502 3377 0.0973634
503 39 0.856861
503 2157 0.143139
504 240 0.500011
504 496 0.499989
505 496 1.52312e-05
505 497 0.333328
505 498 0.333328
505 499 0.333328
506 500 1
507 14 0.333293
507 501 0.333354
507 502 0.333353
508 494 0.66666
508 495 0.33334
509 973 0.4747
509 1674 0.5253
510 106 0.328383
510 246 0.0148516
510 503 0.328383
510 504 0.328383
511 6446 0.250048
511 6505 0.249858
511 7036 0.500095
512 21 0.199994
512 116 0.300002
512 117 0.100001
512 1023 0.100001
512 1750 0.100001
512 2626 0.100001
512 3913 0.100001
513 479 0.375001
513 505 0.624999
514 224 0.333333
514 506 0.5
514 4635 0.166667
515 63 0.266655
515 123 0.66664
515 681 4.14432e-05
515 4572 0.0666637
516 55 0.333333
516 507 0.333334
516 508 0.333334
517 22 0.165338
517 106 0.165339
517 184 0.138833
517 4259 0.165339
517 4260 0.165339
517 4261 0.0344718
517 4522 0.165339
518 76 4.54397e-05
518 1536 0.666925
518 3487 0.33303
519 35 0.000281948
519 509 0.0915378
519 3027 0.90818
520 277 0.333333
520 510 0.666667
521 117 0.333036
521 511 0.333929
521 512 0.333035
522 116 0.166668
522 382 0.166669
522 495 0.166663
522 509 0.166663
522 513 0.166669
522 514 0.166668
523 13 0.000768701
523 25 0.137219
523 515 0.431006
523 7626 0.431006
524 13 0.203402
524 183 0.265533
524 516 0.265533
524 517 0.265533
525 3 0.24996
525 518 0.250014
525 519 0.250014
525 520 0.250012
526 1536 0.249929
526 3483 0.357188
526 3487 0.392883
527 3 0.250034
527 195 0.249989
527 197 0.249989
527 4620 0.249989
528 26 2.97737e-06
528 84 0.555559
528 979 0.333326
528 1401 0.111112
529 28 4.45359e-05
529 86 0.749966
529 614 0.249989
530 63 3.62795e-05
530 149 0.333321
530 527 0.666643
531 108 0.2
531 528 0.2
531 529 0.2
531 530 0.2
531 531 0.2
532 4559 1
533 246 0.25
533 433 0.25
533 521 0.25
533 522 0.25
534 523 0.24995
534 524 0.249955
534 525 0.500095
535 526 0.5
535 6634 0.5
536 3117 0.999989
536 4162 1.11159e-05
537 14 0.716034
537 183 0.283966
538 86 0.333327
538 140 0.333337
538 532 0.333337
539 13 0.399951
539 77 0.200017
539 1352 0.200018
539 6367 0.200013
540 291 0.0674566
540 1707 0.404205
540 4786 0.46097
540 4827 0.0673676
541 221 7.05661e-05
541 381 0.333325
541 533 0.33333
541 534 0.333274
542 63 0.500023
542 221 0.499892
542 534 8.49865e-05
543 535 1
544 246 1
545 18 0.499999
545 536 0.500001
546 285 0.125
546 537 0.625
546 5614 0.25
547 18 0.166667
547 406 0.166667
547 538 0.333333
547 699 0.166667
547 6947 0.166667
548 540 0.8
548 2251 0.2
549 35 0.31539
549 156 0.68461
550 123 0.5
550 539 0.5
551 13 0.341604
551 79 0.358841
551 261 0.299555
552 13 6.72854e-05
552 221 0.159747
552 253 0.0414519
552 541 0.159747
552 542 0.159747
552 543 0.159747
552 544 0.159747
552 545 0.159747
553 106 0.166997
553 206 0.166997
553 353 0.165016
553 462 0.166997
553 6330 0.166997
553 7248 0.166997
554 25 0.167731
554 79 0.13871
554 86 0.138717
554 221 0.13871
554 546 0.138711
554 2959 0.277421
555 15 0.166667
555 56 0.166666
555 659 0.166667
555 1077 0.333334
555 3745 0.166667
556 9 0.166667
556 35 0.166667
556 547 0.166667
556 548 0.166667
556 549 0.166667
556 550 0.166667
557 551 0.782416
557 1643 0.217584
558 552 0.0218513
558 4818 0.978149
559 552 0.494352
559 553 0.505648
560 202 1
561 1621 0.333333
561 6406 0.666667
562 554 1
563 3 0.285827
563 3242 0.428337
563 5412 0.285835
564 17 0.142857
564 79 0.142857
564 183 0.142857
564 365 0.142857
564 555 0.142857
564 556 0.142857
564 557 0.142857
565 71 1.73901e-06
565 76 0.999998
566 9 0.333333
566 558 0.333333
566 559 0.333333
567 26 2.83453e-06
567 63 0.411904
567 241 0.117338
567 343 0.117693
567 465 0.353063
568 564 1
569 25 0.234716
569 51 0.255092
569 565 0.510192
570 566 1
571 241 0.142294
571 478 0.242516
571 561 0.61519
572 55 0.14324
572 123 0.143246
572 473 0.143246
572 483 0.140529
572 544 0.143246
572 562 0.143246
572 563 0.143246
573 33 0.124996
573 123 0.124996
573 567 0.124996
573 568 0.124996
573 574 0.125012
573 731 0.124995
573 828 2.24138e-05
573 4221 0.249987
574 26 6.25407e-06
574 31 0.656826
574 86 0.0904178
574 221 0.185448
574 240 0.0673013
575 246 0.520566
575 522 0.479425
575 659 8.94384e-06
576 240 1
577 202 0.333333
577 354 0.333333
577 570 0.333333
578 3 1
579 86 0.49998
579 571 0.50002
580 35 0.333309
580 572 0.666691
581 13 0.021958
581 22 0.061913
581 77 0.33358
581 221 0.582549
582 569 0.333353
582 573 0.333352
582 574 0.333295
583 577 0.333333
583 586 0.333333
583 587 0.333333
584 117 0.344339
584 3061 0.655661
585 21 0.996275
585 26 0.00372496
586 582 1
587 6381 0.333333
587 7173 0.666667
588 106 0.199967
588 439 0.200074
588 585 0.199986
588 4411 0.199986
588 4546 0.199986
589 86 0.25
589 222 0.25
589 579 0.25
589 584 0.25
590 541 1
591 580 0.8
591 1021 0.2
592 22 0.250079
592 63 0.249975
592 383 0.374959
592 390 0.124987
593 33 1.66278e-05
593 589 0.538539
593 614 0.0769074
593 863 0.0769074
593 3258 0.30763
594 428 0.399999
594 623 0.600001
595 108 3.75614e-06
595 588 0.999996
596 47 0.733493
596 246 1.85281e-06
596 343 0.266505
597 181 0.200004
597 591 0.600013
597 1148 0.199983
598 592 1
599 79 1.21821e-05
599 453 0.000188045
599 593 0.499792
599 594 0.500007
600 288 1
601 13 0.00250376
601 63 0.24936
601 593 0.249424
601 888 0.249356
601 2754 0.249356
602 33 0.142861
602 63 0.142859
602 522 0.142861
602 594 0.142838
602 595 0.142861
602 596 0.142861
602 597 0.142861
603 960 0.333333
603 1685 0.333334
603 5807 0.333333
604 9 0.0377108
604 76 0.705991
604 183 0.0495231
604 614 0.206775
605 18 0.941791
605 47 0.00689779
605 6728 0.0513108
606 205 0.333332
606 393 0.333334
606 598 0.333334
607 86 0.24999
607 117 0.249997
607 133 0.249997
607 221 1.87018e-05
607 599 0.249997
608 56 0.114202
608 463 0.885798
609 600 1
610 601 0.833324
610 3465 0.166676
611 13 0.00024177
611 901 0.199941
611 918 0.199954
611 1490 0.199954
611 4278 0.399908
612 82 0.200002
612 551 0.200001
612 582 0.199995
612 602 0.200001
612 603 0.200002
613 26 0.206613
613 582 0.396697
613 1544 0.198345
613 2275 0.198345
614 604 0.461538
614 605 0.538462
615 257 9.13957e-06
615 618 0.332567
615 991 0.665129
615 3874 0.00229499
616 86 0.332499
616 103 0.333751
616 606 0.33375
617 40 0.250001
617 183 0.249996
617 353 0.250001
617 607 0.250001
618 221 0.336401
618 608 0.3318
618 1691 0.3318
619 35 0.500004
619 609 0.249987
619 7245 0.250008
620 183 0.16666
620 184 0.16667
620 609 1.52472e-05
620 610 0.166664
620 611 0.166664
620 612 0.166664
620 613 0.166664
621 55 0.49954
621 189 0.333943
621 614 0.166516
622 615 0.333333
622 616 0.333334
622 617 0.333334
623 741 1
624 475 3.73898e-05
624 618 0.499985
624 621 0.499978
625 86 0.10956
625 108 0.334344
625 475 0.334388
625 487 0.221708
626 39 0.110766
626 103 0.110766
626 183 0.224742
626 453 0.110664
626 594 0.110766
626 619 0.110766
626 620 0.110766
626 622 0.110766
627 33 0.2
627 463 0.2
627 626 0.2
627 627 0.2
627 628 0.2
628 512 0.333313
628 583 5.95683e-05
628 629 0.666627
629 303 0.833333
629 2211 0.166667
630 56 0.13257
630 76 0.300282
630 181 0.222089
630 343 0.115263
630 772 0.229796
631 365 0.25
631 569 0.25
631 624 0.25
631 625 0.25
632 221 0.600011
632 1330 0.399989
633 86 0.249998
633 591 0.250001
633 2090 0.250001
633 6448 0.250001
634 365 1
635 3 0.00048195
635 380 0.999518
636 582 1
637 22 0.201015
637 241 0.293527
637 463 0.100428
637 531 0.405029
638 6068 1
639 86 0.400821
639 221 0.199726
639 1000 0.199726
639 1001 0.199726
640 3369 0.5
640 3918 0.5
641 13 9.43176e-06
641 1133 0.499996
641 2944 0.499995
642 9 0.142878
642 86 0.142737
642 531 0.142871
642 632 0.142879
642 633 0.142879
642 634 0.142879
642 635 0.142879
643 636 0.212626
643 638 0.388661
643 644 0.31897
643 688 0.0797426
644 636 0.361654
644 637 0.313601
644 643 0.324745
645 55 0.144388
645 637 0.218915
645 648 0.636697
646 639 1
647 641 1
648 640 0.888889
648 744 0.111111
649 642 1
650 79 0.499993
650 4357 0.250004
650 5144 0.250004
651 649 0.5
651 650 0.5
652 35 0.66667
652 1620 0.33333
653 21 0.0920016
653 117 0.437229
653 645 0.470769
654 205 0.250195
654 368 0.249416
654 646 0.250195
654 647 0.250195
655 116 0.197592
655 123 0.0987435
655 638 0.0124442
655 640 0.197492
655 726 0.0987458
655 727 0.0987458
655 728 0.0987458
655 731 0.0987458
655 732 0.0987457
656 651 1
657 346 1
658 652 1
659 638 0.5
659 653 0.5
660 86 1
661 643 0.213128
661 667 0.639868
661 725 0.147004
662 22 0.500112
662 86 0.166362
662 133 0.16673
662 221 6.52714e-05
662 527 0.16673
663 35 0.250226
663 123 0.250235
663 648 0.249303
663 654 0.250236
664 156 0.307774
664 655 0.692226
665 655 3.24426e-05
665 656 0.999968
666 318 0.5
666 659 0.5
667 21 0.499714
667 117 0.250235
667 183 0.250051
668 56 0.48883
668 7513 0.255585
668 7514 0.255585
669 18 0.584918
669 22 0.121338
669 221 0.293744
670 246 0.060911
670 657 0.469544
670 4497 0.469545
671 221 0.19938
671 431 0.200108
671 479 0.200171
671 617 0.200171
671 658 0.200171
672 38 0.337041
672 51 0.325653
672 55 0.337307
673 716 0.5
673 1944 0.5
674 246 0.479055
674 878 0.260473
674 898 0.260473
675 117 0.33317
675 272 0.333415
675 660 0.333415
676 291 0.333333
676 6065 0.666667
677 86 0.249991
677 126 0.250003
677 802 0.250003
677 1072 0.250003
678 181 0.285032
678 643 0.357484
678 661 0.357484
679 40 0.192211
679 55 0.192201
679 164 0.192211
679 181 0.231166
679 2337 0.192211
680 246 0.0602596
680 662 0.421819
680 1933 0.517921
681 49 0.285692
681 305 0.714308
682 644 1
683 49 0.424382
683 305 0.575618
684 663 0.600625
684 1847 0.299281
684 3184 0.100094
685 108 0.20111
685 664 0.40222
685 667 0.195559
685 703 0.20111
686 665 0.570458
686 666 0.429542
687 666 0.109933
687 1858 0.890067
688 221 0.200085
688 3018 0.799915
689 123 0.333328
689 668 0.333336
689 669 0.333336
690 21 2.83278e-05
690 4650 0.999972
691 25 0.499733
691 670 0.500267
692 21 8.55743e-05
692 25 0.000208157
692 123 0.998246
692 181 0.00146062
693 671 0.669808
693 675 0.162739
693 736 0.167453
694 22 0.548619
694 614 0.451381
695 676 1
696 76 1
697 207 0.000149881
697 677 0.99985
698 47 1
699 2118 1
700 221 0.49628
700 675 0.255355
700 1254 0.248365
701 678 1
702 673 0.333333
702 679 0.333333
702 680 0.333333
703 207 0.964802
703 674 0.0351979
704 76 0.538844
704 664 0.392008
704 3111 0.069148
705 56 0.806352
705 140 0.193648
706 77 2.68568e-06
706 672 0.999993
706 944 4.22898e-06
707 202 0.335375
707 674 0.329257
707 735 0.167681
707 737 0.167687
708 76 0.00747504
708 79 0.0448806
708 108 1.67599e-06
708 126 0.0448576
708 221 0.110919
708 343 0.0180982
708 382 0.0896789
708 681 0.684089
709 221 0.142856
709 246 0.142857
709 522 0.142857
709 682 0.142857
709 683 0.285715
709 1917 0.142857
710 542 0.5
710 5775 0.5
711 454 0.125031
711 684 0.625023
711 1490 0.249946
712 21 0.000311581
712 686 0.499844
712 687 0.499844
713 117 0.25005
713 123 0.249984
713 662 0.249984
713 688 0.249982
714 43 0.175689
714 116 0.180116
714 134 0.585632
714 1520 0.0585632
715 117 0.240711
715 252 0.253096
715 3554 0.253096
715 4087 0.253097
716 117 0.0464098
716 689 0.95359
717 117 0.333333
717 690 0.666667
718 1523 0.143961
718 1657 0.136235
718 1865 0.143961
718 3888 0.143961
718 4262 0.14396
718 6418 0.143961
718 6422 0.143961
719 2211 0.277928
719 4190 0.722072
720 644 0.5
720 691 0.5
721 646 0.2
721 692 0.2
721 693 0.2
721 694 0.2
721 695 0.2
722 117 0.499939
722 1490 0.500061
723 246 0.25
723 478 0.25
723 696 0.5
724 21 0.39423
724 697 0.60577
725 26 0.455988
725 698 0.544012
726 55 0.55533
726 662 0.333605
726 2893 0.111065
727 79 0.250235
727 643 0.25022
727 662 0.24931
727 699 0.250235
728 700 0.25
728 701 0.5
728 702 0.25
729 2211 0.333333
729 2992 0.333333
729 2993 0.333334
730 25 0.168811
730 288 0.166239
730 343 0.664951
731 899 1
732 22 0.250035
732 728 0.249988
732 4033 0.249988
732 4034 0.249988
733 181 0.535004
733 240 0.464996
734 704 1
735 55 0.666168
735 2985 0.333832
736 516 1
737 3 3.00223e-07
737 47 0.575409
737 76 0.42459
737 5778 1.21207e-07
738 707 0.5
738 2527 0.25
738 2528 0.25
739 708 0.5
739 709 0.5
740 116 0.333333
740 240 0.333333
740 710 0.333333
741 206 0.333332
741 478 0.333334
741 705 0.333334
742 365 1
743 706 1
744 47 1
745 35 0.33336
745 637 0.333279
745 711 0.33336
746 25 3.06081e-05
746 463 0.250069
746 465 0.749901
747 712 1
748 13 0.0116918
748 291 0.823508
748 712 0.164801
749 13 1.08082e-05
749 507 0.999989
750 120 0.000346966
750 713 0.999653
751 25 1.12397e-05
751 76 0.259189
751 507 0.246933
751 535 0.493866
752 3 0.333331
752 714 0.333335
752 715 0.333334
753 77 0.399999
753 4508 0.600001
754 22 0.832356
754 3856 0.167644
755 1023 1
756 120 0.167847
756 317 0.166431
756 716 0.166431
756 717 0.332861
756 718 0.166431
757 108 0.285714
757 123 0.142857
757 206 0.142857
757 681 0.142857
757 719 0.142857
757 720 0.142857
758 107 0.0435231
758 465 0.956472
758 1657 4.60038e-06
759 9 0.321759
759 108 0.160509
759 343 0.0954916
759 579 0.286488
759 1839 0.135752
760 116 0.2
760 117 0.4
760 3924 0.4
761 79 0.414675
761 221 0.300563
761 1081 0.284762
762 522 0.477142
762 748 0.522858
763 596 0.75
763 6353 0.25
764 643 0.250061
764 655 0.250013
764 721 0.499926
765 48 0.333333
765 681 0.333334
765 722 0.333334
766 593 0.6
766 739 0.2
766 5677 0.2
767 120 0.160646
767 134 0.139504
767 183 0.141833
767 354 0.139504
767 522 0.139504
767 750 0.139504
767 751 0.139504
768 618 1
769 181 0.489133
769 723 0.510867
770 29 0.247369
770 181 0.257893
770 724 0.494738
771 161 0.503202
771 502 0.496798
772 25 0.635441
772 123 0.364559
773 184 0.347233
773 354 0.326383
773 730 0.326383
774 22 0.48269
774 123 0.51731
775 3072 0.749999
775 3081 0.250001
776 729 1
777 21 2.92165e-05
777 1331 0.999971
778 22 0.2
778 86 0.499999
778 1842 0.2
778 2396 0.1
779 21 0.264515
779 734 0.735485
780 18 0.333332
780 699 0.333334
780 733 0.333334
781 3 0.061181
781 56 0.195519
781 1419 0.7433
782 21 0.784658
782 522 0.215342
783 4519 0.749817
783 4576 0.250183
784 221 8.93168e-05
784 2117 0.499955
784 2911 0.499955
785 107 0.00112113
785 195 0.498415
785 738 0.498415
785 742 0.00204935
786 31 0.111179
786 143 0.11118
786 183 0.111172
786 197 0.11118
786 522 0.111027
786 739 0.11118
786 740 0.11118
786 742 0.110722
786 743 0.11118
787 633 1
788 55 0.0333334
788 221 0.0333363
788 385 0.90002
788 2335 0.0333107
789 600 0.519408
789 659 0.480592
790 53 0.197486
790 70 0.197486
790 107 0.0125699
790 515 0.197486
790 745 0.197486
790 747 0.197486
791 3 0.0498601
791 79 0.470396
791 2124 0.479743
792 55 0.320629
792 202 0.226488
792 640 0.226488
792 2120 0.226395
793 272 0.199934
793 343 0.199934
793 667 0.000386326
793 725 0.199877
793 746 0.199934
793 749 0.199934
794 477 1
795 76 0.952201
795 183 0.0477993
796 41 0.244176
796 335 0.267472
796 1402 0.488352
797 515 0.249999
797 568 0.250002
797 752 0.249999
797 753 0.249999
798 1544 1
799 754 0.142857
799 1614 0.571429
799 1615 0.285714
800 725 0.48098
800 754 0.51902
801 76 1
802 79 0.0515846
802 126 0.948415
803 41 0.125007
803 79 0.124958
803 205 0.125007
803 335 0.124997
803 454 0.125007
803 531 0.125007
803 683 0.125007
803 716 0.125007
804 246 1.43919e-05
804 755 0.440728
804 756 0.559258
805 123 0.998494
805 757 0.00150592
806 470 0.249587
806 757 0.248458
806 758 0.249587
806 759 0.249586
806 761 0.0027827
807 9 0.999918
807 756 8.23791e-05
808 183 0.251124
808 760 0.748876
809 55 0.222496
809 865 0.111072
809 1592 0.55536
809 1607 0.111072
810 25 4.70473e-05
810 79 0.811682
810 246 0.188271
811 761 0.198208
811 3383 0.400896
811 5366 0.200448
811 5368 0.200448
812 1175 0.625006
812 2617 0.374994
813 366 0.166671
813 582 0.333341
813 3312 0.333318
813 5629 0.166671
814 756 1
815 779 0.499999
815 1055 0.500001
816 9 0.166664
816 463 0.16667
816 760 0.166655
816 762 0.16667
816 763 0.16667
816 764 0.16667
817 765 1
818 21 9.10458e-06
818 46 0.33333
818 758 0.33333
818 766 0.33333
819 183 0.252659
819 771 0.747341
820 287 0.00792857
820 786 0.992071
821 783 0.992565
821 815 0.00743461
822 195 0.900211
822 197 0.0997891
823 92 0.33331
823 768 0.333345
823 769 0.333345
824 767 1
825 197 1
826 198 0.5
826 770 0.5
827 9 1
828 246 1
829 38 0.999989
829 772 1.09674e-05
830 772 1
831 92 8.84584e-05
831 123 0.210745
831 716 0.21075
831 770 0.156915
831 773 0.210751
831 774 0.210751
832 231 0.796529
832 770 0.203471
833 9 1
834 29 0.250026
834 92 0.499947
834 775 0.250026
835 1874 1
836 183 0.0674369
836 365 0.932563
837 183 4.87795e-06
837 776 0.333332
837 777 0.333332
837 778 0.333332
838 1347 1
839 38 0.21473
839 56 0.355811
839 561 0.21473
839 1922 0.21473
840 106 0.5
840 2295 0.25
840 2296 0.25
841 3801 1
842 26 1
843 26 0.191871
843 1634 0.808129
844 780 1
845 781 1
846 773 0.251102
846 782 0.251102
846 783 0.246695
846 784 0.251102
847 785 0.657559
847 786 0.342441
848 55 0.128946
848 1519 0.871054
849 25 0.691381
849 1271 0.308619
850 26 0.000110285
850 31 0.82792
850 37 0.0348055
850 86 0.137164
851 25 6.40963e-05
851 817 0.999892
851 1148 4.35354e-05
852 38 1
853 47 0.000537341
853 55 0.50099
853 1286 0.498472
854 787 1
855 788 1
856 789 1
857 790 0.5
857 6814 0.5
858 257 1
859 13 7.70394e-06
859 2040 0.514148
859 2182 0.485844
860 794 1
861 47 1
862 47 1
863 793 1
864 791 1
865 47 0.350834
865 794 0.649166
866 792 1
867 793 1
868 795 1
869 796 1
870 797 0.5
870 798 0.5
871 795 1
872 794 1
873 3 0.498346
873 600 0.501654
874 17 0.333333
874 561 0.333333
874 799 0.333333
875 35 0.333333
875 183 0.333333
875 800 0.333333
876 3 0.167581
876 126 0.332967
876 600 0.166484
876 1514 0.166484
876 1515 0.166484
877 28 6.09731e-05
877 722 0.250435
877 745 0.248637
877 801 0.250432
877 5888 0.250435
878 63 0.25
878 108 0.25
878 382 0.25
878 803 0.25
879 76 1.28623e-06
879 86 5.48694e-06
879 184 0.103253
879 241 0.212567
879 354 0.684159
879 463 1.45368e-05
880 25 0.882721
880 177 0.117279
881 55 0.249998
881 722 0.250001
881 745 0.250001
881 804 0.250001
882 805 1
883 101 0.571406
883 659 0.428594
884 31 0.252252
884 79 0.243253
884 91 0.252248
884 594 0.252247
885 221 0.600019
885 382 0.399981
886 21 0.00117541
886 181 0.499413
886 389 0.499411
887 79 0.198854
887 134 0.801146
888 202 0.5
888 2655 0.5
889 35 0.33727
889 221 0.331344
889 260 0.165693
889 365 0.165693
890 13 0.500337
890 881 0.499663
891 138 0.33333
891 636 0.33333
891 806 0.333341
892 35 0.487568
892 809 0.512432
893 123 0.333219
893 231 0.000279312
893 807 0.333218
893 808 0.333218
893 809 6.58319e-05
894 13 1.2598e-05
894 181 0.399986
894 246 0.400001
894 1999 0.2
895 808 4.53412e-06
895 822 0.999995
896 51 0.000215836
896 183 0.143237
896 772 0.140548
896 2184 0.143177
896 4938 0.572822
897 2396 0.166667
897 3279 0.166667
897 3641 0.166667
897 4986 0.166667
897 4987 0.166667
897 4988 0.166667
898 231 1
899 117 0.142857
899 804 0.142857
899 1511 0.142857
899 1781 0.142857
899 1782 0.142857
899 1784 0.142857
899 1785 0.142857
900 76 0.0190225
900 511 0.245255
900 722 0.245255
900 745 0.245211
900 810 0.245255
901 716 0.5
901 811 0.5
902 25 0.426849
902 2846 0.573151
903 63 0.5
903 812 0.5
904 25 0.140901
904 38 0.171863
904 463 0.171645
904 776 0.171863
904 813 0.171863
904 814 0.171863
905 181 0.249204
905 815 0.250242
905 816 0.250275
905 817 0.250279
906 582 0.75
906 1420 0.25
907 22 0.379565
907 25 7.89094e-06
907 26 2.64028e-05
907 28 2.46449e-05
907 35 0.620376
908 46 0.332853
908 181 0.334284
908 816 0.332863
909 783 1
910 786 0.5
910 818 0.5
911 365 1
912 819 0.333333
912 820 0.333333
912 821 0.333333
913 246 0.250088
913 681 0.749912
914 463 0.200858
914 4972 0.799142
915 3 0.499999
915 126 0.500001
916 788 1
917 823 1
918 17 0.333333
918 18 0.333333
918 824 0.333333
919 3 0.2
919 826 0.2
919 827 0.2
919 828 0.2
919 829 0.2
920 92 0.14288
920 830 0.714267
920 5694 0.142853
921 206 0.499923
921 825 0.500077
922 1006 0.142327
922 1653 0.145918
922 2240 0.711755
923 1885 1
924 793 1
925 794 0.500004
925 831 0.499996
926 7090 1
927 35 0.29618
927 123 0.0704083
927 861 0.00197359
927 1325 9.14462e-07
927 3312 0.00753836
927 3531 0.623899
928 3 0.999987
928 831 1.30395e-05
929 126 0.333333
929 770 0.333333
929 832 0.333333
930 766 0.5
930 833 0.5
931 31 0.166666
931 835 0.333333
931 836 0.166667
931 1954 0.166667
931 4252 0.166667
932 815 0.326632
932 834 0.673368
933 79 0.113452
933 221 0.24222
933 454 0.644328
934 454 0.249994
934 773 0.250002
934 838 0.250002
934 839 0.250002
935 618 0.5
935 837 0.5
936 79 0.499998
936 841 0.500002
937 842 1
938 86 0.999977
938 844 2.344e-05
939 46 0.25
939 207 0.25
939 846 0.25
939 847 0.25
940 843 0.333336
940 844 0.333328
940 845 0.333336
941 79 0.666667
941 86 0.333333
942 848 1
943 848 0.0272757
943 849 0.972724
944 31 0.253487
944 748 0.248838
944 850 0.497676
945 55 0.199242
945 268 0.200089
945 522 0.20009
945 659 0.20049
945 805 0.20009
946 35 0.399998
946 851 0.600002
947 55 0.250556
947 659 0.250109
947 786 0.249668
947 4953 0.249668
948 181 0.25
948 748 0.25
948 852 0.25
948 7788 0.25
949 26 0.182335
949 31 0.817661
949 7198 3.34503e-06
950 673 0.355545
950 737 0.502238
950 1208 0.142217
951 21 1.61585e-05
951 1540 0.199997
951 3570 0.399993
951 4666 0.399994
952 13 0.339613
952 503 0.300176
952 2090 0.360211
953 522 0.200653
953 659 0.199261
953 853 0.200029
953 854 0.400057
954 335 0.166656
954 755 0.166668
954 838 0.333337
954 855 0.333338
955 9 0.300326
955 38 0.0948885
955 747 0.302393
955 856 0.302393
956 181 1
957 857 0.5
957 858 0.5
958 40 0.124754
958 79 0.00196617
958 134 0.374263
958 376 0.249508
958 859 0.124754
958 6867 0.124754
959 860 0.75
959 1665 0.25
960 3 0.250001
960 138 0.250001
960 759 0.249998
960 861 0.250001
961 56 0.00333943
961 181 0.401927
961 246 0.594734
962 39 1
963 1375 0.289343
963 2503 0.710657
964 862 0.5
964 863 0.5
965 13 0.0010904
965 35 0.499454
965 123 0.499455
966 25 0.000182498
966 55 0.49956
966 759 3.34912e-05
966 865 0.500224
967 834 1
968 79 0.172091
968 240 0.139554
968 748 0.172092
968 759 0.17208
968 864 0.172092
968 866 0.172092
969 13 0.000241111
969 221 0.999759
970 183 0.344785
970 221 0.655215
971 77 0.166667
971 954 0.777777
971 2736 0.0555555
972 35 0.2
972 240 0.2
972 867 0.2
972 868 0.4
973 79 0.505423
973 287 0.494556
973 7420 2.15916e-05
974 86 0.333281
974 206 0.33336
974 825 0.333359
975 33 0.11965
975 79 0.837408
975 588 0.0429417
976 35 0.333333
976 77 0.333334
976 869 0.333333
977 870 0.0354936
977 1299 0.964506
978 872 0.666652
978 875 0.333348
979 756 0.985455
979 870 0.0145453
980 3 0.345196
980 406 0.654804
981 6251 0.5
981 6252 0.5
982 13 0.0129818
982 123 0.16529
982 817 0.165579
982 870 0.159432
982 871 0.165579
982 872 0.16556
982 873 0.165579
983 872 0.000249929
983 874 0.99975
984 876 0.5
984 877 0.5
985 55 0.298742
985 582 0.350629
985 878 0.350629
986 55 0.665996
986 2985 0.334004
987 221 0.333333
987 522 0.333333
987 879 0.333333
988 13 1.67199e-05
988 246 0.285739
988 880 0.142847
988 2904 0.142849
988 4562 0.428548
989 13 0.333466
989 177 0.333267
989 1596 0.333267
990 92 1
991 25 0.995122
991 47 0.00487827
992 882 1
993 9 0.142858
993 305 0.285716
993 806 0.142853
993 883 0.142858
993 884 0.142858
993 885 0.142858
994 2240 0.998878
994 6519 0.00112177
995 183 0.200009
995 1329 0.199998
995 1544 0.199998
995 3526 0.399995
996 886 1
997 86 7.64225e-05
997 221 0.0403178
997 372 0.959606
998 55 0.401252
998 569 0.399058
998 1758 0.19969
999 409 0.333333
999 887 0.333333
999 888 0.333333
1000 92 0.206538
1000 493 0.206538
1000 889 0.206538
1000 7594 0.206538
1000 7595 0.173848
1001 3 0.333333
1001 319 0.333333
1001 892 0.333333
1002 21 0.337428
1002 375 0.662572
1003 47 0.0969233
1003 5834 0.903077
1004 527 0.33334
1004 1021 0.33334
1004 1022 0.333321
1005 127 0.200001
1005 207 0.200001
1005 512 0.199995
1005 890 0.200001
1005 891 0.200001
1006 55 1
1007 33 0.249748
1007 45 0.250084
1007 116 0.250084
1007 6045 0.250084
1008 2884 0.4
1008 5143 0.4
1008 6144 0.2
1009 446 1
1010 21 0.0179113
1010 1944 0.982089
1011 17 0.39325
1011 86 0.196805
1011 584 0.196624
1011 725 0.21332
1012 92 0.666666
1012 834 0.333334
1013 51 0.25
1013 896 0.5
1013 997 0.25
1014 397 0.246984
1014 893 0.251006
1014 894 0.251006
1014 895 0.251003
1015 117 0.166872
1015 134 0.166642
1015 343 0.166561
1015 897 0.499925
1016 43 0.249996
1016 112 0.249996
1016 117 1.64769e-05
1016 497 0.249996
1016 898 0.249995
1017 55 0.200004
1017 126 0.200004
1017 568 0.199985
1017 899 0.200004
1017 900 0.200004
1018 63 0.0556272
1018 86 0.0592474
1018 365 0.829499
1018 1598 0.0556259
1019 25 0.994177
1019 288 0.00582347
1020 9 0.447862
1020 634 0.552138
1021 901 0.333333
1021 902 0.333333
1021 6906 0.333333
1022 903 1
1023 63 0.166666
1023 92 0.166672
1023 692 0.166666
1023 920 0.166666
1023 921 0.166666
1023 922 0.166666
1024 35 0.650518
1024 326 0.00632887
1024 904 0.343153
1025 35 2.48814e-06
1025 346 7.09486e-06
1025 909 0.99999
1026 649 0.868127
1026 923 0.131873
1027 28 0.274378
1027 713 0.40311
1027 1147 0.322511
1028 713 7.66588e-05
1028 905 0.499962
1028 906 0.499961
1029 246 1
1030 908 1
1031 907 1
1032 13 0.113873
1032 21 0.323005
1032 56 0.563122
1033 92 1
1034 92 1
1035 713 0.000206647
1035 905 0.999793
1036 268 0.995835
1036 522 0.00416524
1037 125 0.333333
1037 3933 0.666667
1038 35 0.0323969
1038 55 0.161262
1038 659 0.161252
1038 910 0.161272
1038 911 0.161272
1038 912 0.161272
1038 913 0.161272
1039 914 0.666667
1039 5966 0.333333
1040 681 1
1041 243 0.186184
1041 257 0.186184
1041 522 0.211071
1041 931 0.416561
1042 916 0.361727
1042 3004 0.638273
1043 917 0.6
1043 2867 0.4
1044 25 0.166689
1044 37 0.166662
1044 207 0.166662
1044 919 0.499986
1045 86 0.18179
1045 918 0.81821
1046 923 0.00298496
1046 924 0.498508
1046 949 0.498507
1047 618 0.499999
1047 925 0.500001
1048 928 0.935725
1048 1866 0.0642746
1049 47 0.0136692
1049 55 0.493878
1049 63 0.492453
1050 35 0.244313
1050 63 0.25189
1050 92 0.251507
1050 927 0.25229
1051 431 0.294848
1051 927 0.352294
1051 928 5.01607e-06
1051 929 0.352853
1052 86 0.0198378
1052 930 0.980162
1053 289 0.998773
1053 930 0.00122689
1054 92 0.261515
1054 246 0.267343
1054 931 0.203799
1054 932 0.267343
1055 63 0.999675
1055 931 0.000324715
1056 106 0.348879
1056 522 0.651121
1057 18 0.166323
1057 46 0.166735
1057 164 0.166736
1057 963 0.166736
1057 964 0.166735
1057 965 0.166736
1058 17 0.250285
1058 108 0.249905
1058 742 0.249905
1058 2477 0.249905
1059 933 1
1060 13 0.910176
1060 25 0.0173686
1060 368 0.0724556
1061 934 0.5
1061 935 0.5
1062 941 1
1063 92 0.166687
1063 99 0.166663
1063 866 0.166663
1063 936 0.166663
1063 1596 0.166663
1063 7356 0.166662
1064 937 0.500002
1064 940 0.499998
1065 938 1
1066 939 1
1067 207 0.5
1067 942 0.5
1068 28 1.24719e-05
1068 456 0.333329
1068 943 0.333329
1068 944 0.333329
1069 945 0.5
1069 946 0.5
1070 888 1
1071 947 1
1072 948 1
1073 38 0.258866
1073 949 0.494089
1073 7340 0.247044
1074 2936 1
1075 923 0.249998
1075 950 0.25
1075 951 0.250001
1075 1520 0.250001
1076 952 0.75
1076 998 0.25
1077 195 1
1078 25 0.0118662
1078 407 0.988134
1079 197 1
1080 70 0.997205
1080 197 0.0027945
1081 56 0.00132748
1081 183 0.500078
1081 7478 0.498594
1082 55 0.199999
1082 82 0.2
1082 252 0.2
1082 568 0.2
1082 953 0.2
1083 35 0.25
1083 41 0.25
1083 79 0.25
1083 924 0.25
1084 955 0.5625
1084 3799 0.3125
1084 3800 0.125
1085 79 0.527439
1085 86 0.405978
1085 221 0.0665822
1086 63 0.125
1086 252 0.25
1086 285 0.125
1086 433 0.125
1086 692 0.125
1086 956 0.125
1086 957 0.125
1087 958 0.5
1087 961 0.5
1088 108 0.249991
1088 2745 0.750009
1089 741 0.333333
1089 959 0.333334
1089 960 0.333333
1090 84 0.249357
1090 86 0.25193
1090 407 0.249357
1090 521 0.249357
1091 31 0.136127
1091 79 0.10087
1091 86 0.39387
1091 112 0.0456077
1091 134 0.0500903
1091 221 0.091141
1091 720 0.045572
1091 741 0.0455721
1091 1158 0.0455723
1091 6075 0.0455784
1092 347 0.499068
1092 2133 0.500932
1093 742 0.5
1093 966 0.5
1094 136 0.142858
1094 207 0.142858
1094 272 0.142858
1094 481 0.142858
1094 899 0.142851
1094 967 0.142858
1094 989 0.142858
1095 31 0.666667
1095 2548 0.333333
1096 79 0.200117
1096 86 0.1995
1096 246 0.200088
1096 412 6.18117e-05
1096 462 0.200117
1096 968 0.200117
1097 246 0.250011
1097 320 0.250012
1097 905 0.250012
1097 909 0.249965
1098 969 0.5
1098 970 0.5
1099 325 0.333333
1099 7158 0.666667
1100 971 0.636355
1100 2176 0.363645
1101 433 0.111058
1101 972 0.222113
1101 973 0.222115
1101 974 0.222115
1101 1014 0.111542
1101 1017 0.111058
1102 46 0.497865
1102 47 0.00427004
1102 888 0.497865
1103 13 5.19319e-07
1103 55 0.0331293
1103 63 0.869432
1103 77 0.0974377
1104 342 1
1105 35 0.246875
1105 342 0.259372
1105 975 0.493753
1106 25 0.318192
1106 976 0.340904
1106 977 0.340904
1107 183 0.142864
1107 260 0.142856
1107 433 0.142856
1107 976 0.142856
1107 978 0.142856
1107 980 0.142856
1107 981 0.142856
1108 13 0.484283
1108 22 0.111417
1108 25 5.72866e-05
1108 56 0.00165233
1108 126 0.10073
1108 288 0.30186
1109 9 0.2
1109 22 0.2
1109 92 0.2
1109 406 0.2
1109 982 0.2
1110 1617 0.5
1110 3375 0.5
1111 33 0.333556
1111 589 0.332816
1111 966 0.333628
1112 108 0.25
1112 382 0.25
1112 838 0.25
1112 983 0.25
1113 28 0.000547047
1113 481 0.999453
1114 984 1
1115 376 0.25
1115 681 0.25
1115 986 0.25
1115 987 0.25
1116 79 0.500094
1116 988 0.499906
1117 454 0.5
1117 509 0.5
1118 55 0.571334
1118 123 0.142987
1118 1325 0.142842
1118 1639 0.142837
1119 3 0.999732
1119 988 0.000268482
1120 618 0.00392599
1120 990 0.498037
1120 991 0.498037
1121 3 0.334075
1121 288 0.334076
1121 618 0.331849
1122 460 1
1123 63 1
1124 923 0.472913
1124 1897 0.408952
1124 2601 0.118135
1125 44 0.333333
1125 3967 0.666667
1126 26 0.000107615
1126 1641 0.981479
1126 2778 0.0184133
1127 35 0.00144282
1127 56 1.12778e-06
1127 2275 0.443697
1127 2621 0.554859
1128 148 0.20004
1128 609 0.20004
1128 625 0.20004
1128 994 0.19984
1128 995 0.20004
1129 996 1
1130 123 0.25
1130 246 0.25
1130 312 0.25
1130 522 0.25
1131 999 1
1132 49 0.624635
1132 54 0.125122
1132 2655 0.125122
1132 4861 0.125122
1133 9 0.333379
1133 208 0.33331
1133 265 0.33331
1134 55 0.500001
1134 164 0.250001
1134 201 0.249998
1135 252 0.286544
1135 568 0.713456
1136 22 0.142887
1136 55 0.142842
1136 125 0.285714
1136 206 0.285702
1136 221 0.142856
1137 31 0.199998
1137 123 0.1
1137 390 0.1
1137 745 0.1
1137 964 0.300001
1137 1002 0.1
1137 1003 0.1
1138 133 0.166667
1138 365 0.333333
1138 568 0.166667
1138 1004 0.166667
1138 1005 0.166667
1139 659 0.5
1139 1006 0.5
1140 55 0.333313
1140 63 0.166671
1140 1024 0.333344
1140 1025 0.166672
1141 13 0.0184241
1141 63 0.218128
1141 1888 0.436255
1141 3569 0.327193
1142 86 0.142864
1142 221 0.142864
1142 272 0.142864
1142 522 0.142862
1142 739 0.142864
1142 923 0.142815
1142 1007 0.142864
1143 1009 0.199998
1143 1010 0.600001
1143 1705 0.2
1144 25 0.0518903
1144 1716 0.94811
1145 716 0.333332
1145 964 0.333332
1145 1008 0.333332
1145 1009 3.77138e-06
1146 38 0.333305
1146 87 0.333347
1146 888 0.333348
1147 194 0.222222
1147 927 0.777778
1148 1011 0.500188
1148 1012 0.499812
1149 162 0.333166
1149 1012 0.333668
1149 1013 0.333166
1150 972 0.571438
1150 1787 0.428562
1151 13 0.277188
1151 76 0.00201745
1151 261 0.144284
1151 407 3.7573e-06
1151 629 0.288568
1151 934 0.144284
1151 1014 0.143655
1152 517 0.25
1152 1015 0.75
1153 206 0.125114
1153 367 0.124976
1153 506 0.499905
1153 825 0.250004
1154 388 0.0222341
1154 4619 0.977766
1155 18 0.111111
1155 202 0.111111
1155 1323 0.111111
1155 1555 0.111111
1155 1698 0.111111
1155 3063 0.111111
1155 3914 0.111111
1155 6941 0.111111
1155 6960 0.111111
1156 22 0.500034
1156 692 0.499966
1157 77 0.230703
1157 1016 0.15386
1157 1767 0.307719
1157 6702 0.307719
1158 1018 1
1159 240 0.5
1159 1019 0.5
1160 974 1
1161 459 0.5
1161 481 0.5
1162 22 0.369939
1162 56 0.000106295
1162 183 0.629955
1163 1020 0.5
1163 1898 0.5
1164 38 0.166663
1164 63 0.166678
1164 342 0.166626
1164 366 0.166678
1164 809 0.166678
1164 910 0.166678
1165 22 0.66665
1165 221 0.33335
1166 35 0.206247
1166 774 0.793753
1167 600 0.5
1167 1023 0.5
1168 609 1
1169 829 1
1170 43 0.25
1170 181 0.25
1170 522 0.25
1170 1026 0.25
1171 86 1
1172 664 0.339778
1172 1028 0.660222
1173 326 0.00102708
1173 1029 0.998973
1174 1030 0.5
1174 1031 0.5
1175 2907 1
1176 106 1
1177 106 1.47449e-05
1177 113 0.334836
1177 1027 0.334836
1177 1028 0.330313
1178 376 0.25
1178 721 0.25
1178 891 0.25
1178 1032 0.25
1179 1033 1
1180 183 0.166667
1180 305 0.166666
1180 1034 0.333333
1180 1236 0.166667
1180 2308 0.166667
1181 63 0.333333
1181 1035 0.333333
1181 1036 0.333333
1182 13 0.0944514
1182 1037 0.905549
1183 1038 1
1184 1037 0.499964
1184 1041 0.500036
1185 86 0.142062
1185 181 0.142068
1185 246 0.142068
1185 992 0.142068
1185 1035 0.142068
1185 1039 0.0055298
1185 1040 0.142068
1185 1042 0.142068
1186 92 0.509924
1186 1039 0.490076
1187 1043 1
1188 949 0.250087
1188 1158 0.499942
1188 1284 0.249971
1189 55 0.34269
1189 165 0.328655
1189 3618 0.328655
1190 55 8.71102e-05
1190 694 0.499958
1190 5032 0.499955
1191 1044 1
1192 1045 1
1193 559 0.205131
1193 1047 0.529913
1193 3032 0.264956
1194 133 0.0746761
1194 1035 0.46267
1194 1046 0.462654
1195 13 3.38196e-05
1195 35 0.249991
1195 787 0.249992
1195 3150 0.249992
1195 5274 0.249992
1196 117 0.35258
1196 133 0.296339
1196 1048 0.35108
1197 1048 0.00630182
1197 1049 0.970468
1197 1050 0.0232304
1198 13 0.174383
1198 106 0.277415
1198 1050 0.270781
1198 1051 0.277421
1199 17 0.555536
1199 1052 0.111124
1199 2195 0.222231
1199 2920 0.111109
1200 79 0.634554
1200 207 0.286122
1200 3867 0.0793238
1201 189 0.00102383
1201 1052 0.998976
1202 189 0.905267
1202 1230 0.0947326
1203 207 0.5
1203 1053 0.5
1204 3 0.642861
1204 3521 0.357139
1205 29 0.729536
1205 1323 0.145908
1205 1671 0.124556
1206 1054 0.2
1206 1055 0.2
1206 1056 0.2
1206 1057 0.2
1206 1058 0.2
1207 21 5.95814e-05
1207 228 0.333947
1207 369 0.222409
1207 2674 0.222075
1207 4188 0.22151
1208 22 0.250002
1208 6684 0.250002
1208 6696 0.249994
1208 6697 0.250002
1209 353 1
1210 1460 1
1211 42 0.283713
1211 184 0.141581
1211 899 0.141876
1211 1777 0.425631
1211 5511 0.00719934
1212 70 0.142852
1212 77 0.142852
1212 2737 0.142852
1212 4324 0.142887
1212 6335 0.428557
1213 1470 0.833333
1213 6664 0.166667
1214 25 0.631752
1214 56 0.245807
1214 5546 0.122441
1215 3 0.499362
1215 1063 0.500638
1216 133 0.125001
1216 183 0.124996
1216 244 0.125001
1216 1035 0.125
1216 1059 0.125001
1216 1060 0.125001
1216 1061 0.125001
1216 1062 0.125001
1217 1064 0.999992
1217 1065 7.52976e-06
1218 175 0.200001
1218 1065 0.799999
1219 35 0.222
1219 681 0.111532
1219 1066 0.666468
1220 681 0.000303478
1220 1067 0.499848
1220 1068 0.499848
1221 1070 1
1222 79 0.166653
1222 106 0.166669
1222 117 0.166669
1222 681 0.166669
1222 1072 0.166669
1222 1073 0.166669
1223 1069 1
1224 1071 0.825272
1224 3026 0.174728
1225 1101 0.752249
1225 1707 0.122375
1225 7680 0.125376
1226 1074 0.333333
1226 3048 0.666667
1227 1075 1
1228 17 0.25
1228 3366 0.75
1229 26 0.00123218
1229 47 0.00165335
1229 76 0.997114
1230 1076 1
1231 1077 1
1232 1078 1
1233 79 0.230695
1233 1066 0.153872
1233 1079 0.538504
1233 1137 0.076929
1234 79 0.400102
1234 1080 0.599898
1235 365 1
1236 21 0.848681
1236 123 0.151207
1236 478 0.000111629
1237 25 0.0921315
1237 322 0.302623
1237 664 0.302622
1237 1081 0.302623
1238 1067 1
1239 207 0.249967
1239 1066 0.000133603
1239 1082 0.499934
1239 1089 0.249965
1240 79 1
1241 1085 0.333333
1241 1086 0.333333
1241 1087 0.333333
1242 2166 1
1243 221 0.2
1243 271 0.2
1243 1006 0.2
1243 1083 0.2
1243 1084 0.2
1244 108 0.333333
1244 240 0.333333
1244 854 0.333333
1245 183 0.4
1245 1123 0.6
1246 22 0.25
1246 113 0.75
1247 600 0.499999
1247 1088 0.500001
1248 502 1
1249 100 1
1250 1066 0.499833
1250 3113 0.500167
1251 79 1
1252 206 0.2
1252 825 0.2
1252 1090 0.4
1252 1091 0.199999
1253 79 0.499452
1253 1092 0.500548
1254 808 0.124993
1254 1093 0.250001
1254 1094 0.625005
1254 1095 1.4293e-06
1255 202 0.250667
1255 221 0.749333
1256 25 0.0525859
1256 1256 0.861194
1256 4185 0.0862202
1257 1096 1
1258 1097 1
1259 1098 1
1260 3 0.5
1260 1099 0.5
1261 1100 1
1262 21 1
1263 297 0.499344
1263 1102 0.500656
1264 297 0.00261521
1264 1103 0.997385
1265 749 0.25
1265 1104 0.75
1266 22 0.00751526
1266 1105 0.496243
1266 1106 0.496242
1267 22 0.248577
1267 1104 0.500948
1267 1107 0.250474
1268 256 0.923254
1268 2522 0.00572732
1268 3980 0.0710187
1269 9 0.526437
1269 1442 0.473563
1270 271 0.5
1270 840 0.25
1270 1639 0.25
1271 21 0.267417
1271 183 0.293033
1271 207 0.146517
1271 1036 0.146517
1271 1108 0.146517
1272 22 0.238002
1272 31 0.350273
1272 79 0.220499
1272 221 0.191226
1273 268 0.5
1273 2898 0.5
1274 291 0.153919
1274 3055 0.846081
1275 25 3.71582e-06
1275 76 0.00322699
1275 1109 0.249192
1275 1110 0.249192
1275 1112 0.249192
1275 1244 0.249192
1276 515 1
1277 79 0.481914
1277 376 0.172695
1277 454 0.172695
1277 954 0.172695
1278 31 0.111141
1278 183 0.222013
1278 251 0.111141
1278 1113 0.111141
1278 1114 0.111141
1278 1115 0.111141
1278 1116 0.111141
1278 1117 0.111141
1279 1071 1
1280 1125 1
1281 123 0.5
1281 1118 0.5
1282 365 0.0807502
1282 1301 0.91925
1283 1066 0.346276
1283 1119 0.307449
1283 1122 0.346276
1284 1119 0.345563
1284 1120 0.654437
1285 749 0.25
1285 1121 0.75
1286 13 0.244933
1286 51 0.143602
1286 748 0.377898
1286 1776 0.233568
1287 31 0.0847817
1287 522 0.067039
1287 1073 0.59366
1287 1942 0.254519
1288 1124 1
1289 1129 1
1290 55 0.142853
1290 716 0.142858
1290 1126 0.142858
1290 1127 0.142858
1290 1128 0.142858
1290 1129 0.142856
1290 1130 0.142858
1291 47 3.07351e-05
1291 1131 0.999969
1292 224 0.5
1292 1132 0.5
1293 79 0.19776
1293 1133 0.593213
1293 6458 0.209027
1294 463 0.199893
1294 1153 0.800107
1295 52 0.0833379
1295 482 0.916662
1296 1134 0.333333
1296 1135 0.333333
1296 1138 0.333333
1297 79 0.2
1297 202 0.200003
1297 256 0.199992
1297 1089 0.200003
1297 1136 0.200003
1298 1139 1
1299 117 0.16667
1299 183 0.16667
1299 1066 0.166649
1299 1134 0.16667
1299 1140 0.16667
1299 1141 0.16667
1300 21 0.106395
1300 55 0.587531
1300 1652 0.153037
1300 5343 0.153037
1301 1147 1
1302 1142 1
1303 1143 0.25
1303 1144 0.25
1303 1145 0.25
1303 1146 0.25
1304 142 1
1305 149 1
1306 126 0.142883
1306 271 0.857117
1307 35 0.188961
1307 55 0.206541
1307 221 0.604497
1308 86 0.142752
1308 92 0.000711847
1308 397 0.285512
1308 699 0.142756
1308 5025 0.142756
1308 7613 0.142756
1308 7614 0.142756
1309 1114 8.36961e-05
1309 1149 0.348114
1309 1150 0.347899
1309 1152 0.303904
1310 1114 0.469947
1310 1150 0.000293807
1310 1151 0.470061
1310 1152 0.0596989
1311 1763 0.224638
1311 3365 0.775362
1312 141 0.249999
1312 221 0.249999
1312 1079 0.249999
1312 1154 0.250003
1313 18 0.5
1313 1089 0.5
1314 117 0.166485
1314 1155 0.500109
1314 4634 0.166703
1314 7086 0.166703
1315 107 0.200001
1315 1079 0.200001
1315 1154 0.199998
1315 1156 0.200001
1315 1157 0.200001
1316 1158 1
1317 13 0.496742
1317 380 0.503258
1318 1078 1
1319 1161 1
1320 1162 1
1321 365 0.666667
1321 1163 0.333333
1322 79 0.25
1322 1159 0.5
1322 1276 0.25
1323 1160 0.499995
1323 2830 0.249998
1323 4602 1.02205e-05
1323 4927 0.249997
1324 39 0.32954
1324 86 0.335223
1324 1548 0.335238
1325 376 0.393521
1325 1471 0.404319
1325 7568 0.20216
1326 1165 1
1327 1166 1
1328 22 0.999684
1328 31 0.000316258
1329 106 0.333333
1329 898 0.333334
1329 1164 0.333333
1330 2565 1
1331 1080 0.25
1331 1167 0.25
1331 1168 0.25
1331 1169 0.25
1332 745 0.273349
1332 1124 0.726651
1333 79 0.166687
1333 465 0.833313
1334 320 0.333305
1334 1091 0.333347
1334 1171 0.333347
1335 858 0.333333
1335 1092 0.333333
1335 1172 0.333333
1336 18 0.25
1336 117 0.25
1336 716 0.25
1336 1173 0.25
1337 1174 1
1338 189 0.333332
1338 224 0.333334
1338 1175 0.333334
1339 86 0.100049
1339 1936 0.899951
1340 110 6.07058e-05
1340 1129 0.999939
1341 51 0.39957
1341 365 0.200143
1341 1176 0.200143
1341 1177 0.200143
1342 79 0.000222914
1342 343 0.0908892
1342 376 0.636216
1342 464 0.272672
1343 140 0.25
1343 838 0.25
1343 1168 0.25
1343 1178 0.25
1344 221 5.62582e-05
1344 1179 0.999944
1345 54 0.20314
1345 151 0.20314
1345 221 0.187453
1345 251 0.20314
1345 745 0.203126
1346 305 0.144221
1346 1180 0.855779
1347 55 0.150491
1347 63 0.150466
1347 1181 0.699043
1348 1087 0.0741519
1348 1180 0.0839657
1348 1181 0.841882
1349 3 0.266403
1349 251 0.365657
1349 1087 0.183982
1349 1182 0.183958
1350 35 0.512769
1350 1184 0.410303
1350 1474 0.0769281
1351 1225 1
1352 3 0.27888
1352 251 0.181942
1352 1087 0.359444
1352 1325 0.179735
1353 35 0.249995
1353 1183 0.250002
1353 1184 0.250001
1353 1185 0.250002
1354 1186 1
1355 732 0.0909169
1355 1187 0.909083
1356 26 0.000839642
1356 1188 0.49958
1356 2058 0.49958
1357 175 0.5
1357 1480 0.5
1358 79 0.5
1358 1481 0.5
1359 221 0.313549
1359 251 0.343225
1359 1189 0.343225
1360 183 0.000140217
1360 1776 0.582452
1360 3918 0.069568
1360 4154 0.34784
1361 1190 1
1362 183 0.497727
1362 1190 8.87265e-06
1362 1191 0.502264
1363 1193 0.664617
1363 1223 0.335383
1364 183 0.489059
1364 1192 0.492872
1364 1193 0.0180686
1365 183 2.55052e-05
1365 1194 4.74535e-06
1365 1196 0.99997
1366 3 0.393418
1366 183 0.202181
1366 1194 0.202198
1366 1195 0.202203
1367 63 0.618223
1367 1197 0.381777
1368 251 0.419792
1368 960 0.419692
1368 1197 0.160516
1369 22 0.0888733
1369 77 0.182395
1369 678 0.364789
1369 1198 0.363943
1370 1199 1
1371 3 0.0600262
1371 26 1.00348e-06
1371 1200 0.411701
1371 1220 0.231888
1371 1221 0.221683
1371 2030 0.0746971
1371 2883 3.03406e-06
1372 55 0.386179
1372 912 0.0472167
1372 1247 0.424955
1372 2009 0.0944334
1372 4950 0.0472165
1373 1084 0.142857
1373 1160 0.142857
1373 1201 0.142857
1373 1202 0.142857
1373 1204 0.142857
1373 1205 0.142857
1373 1206 0.142857
1374 1203 1
1375 1198 1
1376 56 0.000995026
1376 92 0.332611
1376 397 0.666394
1377 3 0.499413
1377 13 1.45579e-05
1377 77 0.25029
1377 784 0.250282
1378 25 1.83029e-05
1378 183 0.200043
1378 1330 0.399902
1378 1337 0.200018
1378 3061 0.200018
1379 183 0.166672
1379 203 0.166672
1379 590 0.166672
1379 732 0.166672
1379 1198 0.166638
1379 1207 0.166672
1380 22 0.327561
1380 1133 0.336114
1380 1209 0.336325
1381 22 0.201024
1381 1055 0.1987
1381 1133 0.198825
1381 1135 0.1987
1381 1208 0.202751
1382 54 0.333329
1382 475 0.333328
1382 1211 0.333343
1383 55 1.90954e-06
1383 365 0.0476189
1383 1210 0.619047
1383 2127 0.333332
1384 770 1
1385 1212 1
1386 108 0.333333
1386 1213 0.666667
1387 1214 0.499865
1387 1225 0.500135
1388 49 1
1389 246 0.402034
1389 1931 0.201026
1389 2032 0.39694
1390 1214 0.145538
1390 1215 0.578272
1390 1216 0.27619
1391 1216 1
1392 1216 1
1393 1216 0.486873
1393 1492 0.513127
1394 1217 0.444723
1394 2127 0.555277
1395 22 0.252081
1395 35 0.465886
1395 56 0.282034
1396 183 0.25114
1396 863 0.25114
1396 1219 0.49772
1397 13 0.335567
1397 1008 0.328645
1397 1219 0.0071442
1397 1359 0.328645
1398 407 2.26452e-05
1398 1211 0.333322
1398 1217 0.333314
1398 1218 0.333341
1399 1219 1
1400 35 1.00075e-06
1400 1233 0.891249
1400 4831 0.10875
1401 1230 0.333333
1401 1231 0.333333
1401 1232 0.333333
1402 1222 1
1403 183 0.015819
1403 1227 0.984181
1404 1228 0.222222
1404 1229 0.222222
1404 1326 0.555556
1405 1198 0.536929
1405 2016 0.463071
1406 1224 0.5
1406 1225 0.5
1407 3 0.2594
1407 251 0.273316
1407 1087 0.262297
1407 1226 0.204987
1408 9 0.117637
1408 1135 0.882363
1409 56 0.201458
1409 202 0.201465
1409 291 0.201465
1409 390 0.194147
1409 1355 0.201465
1410 103 0.0897615
1410 123 0.0771349
1410 1040 0.833104
1411 382 0.249772
1411 1362 0.749251
1411 1499 0.000977158
1412 721 0.153847
1412 766 0.153847
1412 1183 0.0769232
1412 1200 0.153847
1412 1234 0.153847
1412 1235 0.153847
1412 1236 0.0769233
1412 1519 0.0769208
1413 63 0.400116
1413 77 0.0999807
1413 617 0.0999807
1413 1226 0.199961
1413 1777 0.0999808
1413 2299 0.0999808
1414 26 0.0238497
1414 31 0.805908
1414 2874 0.170242
1415 55 0.0200025
1415 561 0.507101
1415 1183 0.00229366
1415 1198 0.000394054
1415 6012 0.470209
1416 388 0.201222
1416 426 0.201222
1416 834 0.201221
1416 1208 0.195183
1416 1240 0.201153
1417 1255 0.396715
1417 1519 0.120659
1417 2016 0.24132
1417 2127 0.241306
1418 1609 1
1419 63 0.124809
1419 614 0.12505
1419 1131 0.12505
1419 1203 0.12505
1419 1208 0.124894
1419 1237 0.12505
1419 1238 0.12505
1419 1239 0.12505
1420 3 0.116123
1420 79 0.0964765
1420 251 0.0964765
1420 1087 0.112032
1420 1183 0.0964765
1420 1240 0.0965094
1420 1759 0.0964765
1420 2127 0.0964765
1420 2438 0.0964765
1420 4991 0.0964765
1421 149 0.5
1421 6024 0.5
1422 116 0.333383
1422 1023 0.333384
1422 4613 0.333233
1423 470 1
1424 241 0.0355744
1424 1241 0.964426
1425 1141 0.499999
1425 1242 0.500001
1426 1208 1
1427 31 0.206399
1427 309 0.206298
1427 320 0.206532
1427 1111 0.206532
1427 1243 0.174238
1428 33 0.4635
1428 309 0.000526253
1428 1243 0.535974
1429 1240 1
1430 1142 0.5
1430 7178 0.5
1431 1248 1
1432 63 0.499999
1432 527 0.500001
1433 17 0.5
1433 181 0.5
1434 38 0.2
1434 161 0.2
1434 541 0.2
1434 742 0.2
1434 4418 0.2
1435 1027 1
1436 25 0.146319
1436 1170 0.170736
1436 1208 0.170736
1436 1244 0.170736
1436 1245 0.170736
1436 1246 0.170736
1437 184 0.0388465
1437 737 0.961154
1438 1249 1
1439 673 0.25
1439 1208 0.25
1439 1250 0.25
1439 1251 0.25
1440 1253 0.9
1440 5925 0.1
1441 1252 1
1442 1256 1
1443 1183 0.661239
1443 1255 0.0982573
1443 2127 0.240504
1444 365 1
1445 123 0.88716
1445 1257 0.11284
1446 3731 1
1447 1257 1
1448 184 0.11368
1448 1534 0.88632
1449 1577 1
1450 388 0.5
1450 1267 0.5
1451 335 0.484301
1451 1262 0.515699
1452 454 0.333333
1452 1258 0.333333
1452 1263 0.333333
1453 184 0.25
1453 1259 0.25
1453 1264 0.25
1453 1265 0.25
1454 182 0.333335
1454 1260 0.33333
1454 1261 0.333335
1455 1208 1
1456 1266 1
1457 739 0.496348
1457 1201 0.496348
1457 1266 0.00730482
1458 103 0.200203
1458 184 0.199189
1458 866 0.200203
1458 1771 0.200203
1458 2846 0.200203
1459 13 0.125115
1459 123 0.125136
1459 633 0.250272
1459 834 0.124068
1459 1161 0.125136
1459 1528 0.125136
1459 1777 0.125136
1460 26 0.293394
1460 221 0.353303
1460 1614 0.353303
1461 1084 1
1462 664 1
1463 1268 0.5
1463 1269 0.5
1464 76 0.00327899
1464 108 0.332244
1464 1325 0.332239
1464 4579 0.332238
1465 33 0.333332
1465 1206 0.333334
1465 1271 0.333334
1466 134 0.25
1466 454 0.25
1466 720 0.25
1466 1270 0.25
1467 1205 0.25
1467 1272 0.25
1467 1273 0.25
1467 1274 0.25
1468 205 0.2
1468 825 0.2
1468 1275 0.2
1468 1276 0.2
1468 1277 0.2
1469 21 0.524702
1469 375 0.237163
1469 1208 0.158986
1469 1278 0.0791489
1470 115 0.333466
1470 1278 0.333068
1470 1279 0.333466
1471 35 1
1472 14 0.666667
1472 1280 0.333333
1473 13 0.269565
1473 2043 0.48708
1473 2520 0.243355
1474 3 0.124538
1474 43 0.12493
1474 63 0.124929
1474 117 0.125883
1474 1267 0.12493
1474 1281 0.12493
1474 1282 0.12493
1474 1283 0.124931
1475 1284 1
1476 123 0.2
1476 1084 0.2
1476 1285 0.2
1476 3284 0.2
1476 3285 0.2
1477 463 0.333333
1477 1252 0.333333
1477 1287 0.333333
1478 103 0.167417
1478 184 0.832583
1479 9 5.20917e-06
1479 2372 0.919996
1479 2854 0.0799992
1480 56 0.666724
1480 319 0.16662
1480 3061 0.166656
1481 288 0.666659
1481 1288 0.333341
1482 271 0.499486
1482 1288 0.500514
1483 271 0.333619
1483 3092 0.33319
1483 3093 0.33319
1484 110 0.499374
1484 685 0.500626
1485 35 9.28973e-06
1485 1316 0.999991
1486 110 1
1487 63 0.25
1487 1289 0.25
1487 1290 0.25
1487 1291 0.25
1488 1293 0.5
1488 1294 0.5
1489 35 0.334215
1489 1295 0.665785
1490 35 0.498573
1490 614 0.501427
1491 1292 1
1492 837 1
1493 53 0.333333
1493 559 0.333333
1493 1296 0.333333
1494 35 0.394823
1494 241 0.302587
1494 1297 0.30259
1495 291 0.166666
1495 293 0.166667
1495 320 0.166667
1495 348 0.166667
1495 995 0.166667
1495 1208 0.166667
1496 147 1
1497 9 0.5
1497 446 0.5
1498 35 0.000298742
1498 3854 0.999701
1499 1000 0.333333
1499 1298 0.333333
1499 2960 0.333333
1500 4514 1
1501 439 2.53313e-05
1501 1300 0.999975
1502 86 0.166668
1502 288 0.166668
1502 1208 0.333329
1502 1302 0.166668
1502 1303 0.166668
1503 1304 0.5
1503 1305 0.5
1504 365 1
1505 9 0.256556
1505 1502 0.247839
1505 1503 0.247767
1505 1504 0.247839
1506 1306 0.166667
1506 1307 0.166666
1506 1308 0.666668
1507 63 0.199944
1507 79 0.40017
1507 126 0.399887
1508 641 1
1509 18 0.428613
1509 106 0.142871
1509 464 0.285645
1509 2988 0.142871
1510 1278 0.5
1510 1310 0.5
1511 43 0.333027
1511 683 0.333946
1511 1309 0.333027
1512 1698 0.249979
1512 2449 0.50004
1512 2920 0.249981
1513 9 0.325676
1513 683 0.336696
1513 1130 0.337628
1514 2424 0.999987
1514 2425 1.29797e-05
1515 35 0.342057
1515 134 0.342058
1515 221 0.315885
1516 13 0.321128
1516 1311 0.678872
1517 291 0.250004
1517 2245 0.249999
1517 4617 0.249999
1517 4618 0.249999
1518 3 0.234049
1518 367 0.274316
1518 836 0.274316
1518 4487 0.217319
1519 35 0.27319
1519 46 0.145346
1519 62 0.145346
1519 63 0.145427
1519 1313 0.290692
1520 106 0.399903
1520 132 0.200025
1520 1208 0.200035
1520 1312 0.200036
1521 13 0.585677
1521 291 0.207159
1521 1314 0.207163
1522 1271 0.5
1522 1315 0.5
1523 1320 0.5
1523 1321 0.5
1524 7419 1
1525 594 0.511409
1525 1317 0.488591
1526 1317 0.258273
1526 1318 0.741727
1527 1316 1
1528 35 0.20007
1528 1319 0.79993
1529 465 1
1530 13 0.0141127
1530 246 0.246472
1530 1023 0.246473
1530 1322 0.246472
1530 1323 0.246471
1531 246 0.33652
1531 265 0.328328
1531 431 0.335152
1532 1327 1
1533 431 1
1534 221 0.5
1534 340 0.5
1535 63 0.666666
1535 320 0.333334
1536 21 0.000815252
1536 55 0.666099
1536 6389 0.333086
1537 40 0.111111
1537 77 0.111111
1537 86 0.111111
1537 289 0.111111
1537 370 0.111111
1537 1252 0.111111
1537 1324 0.111111
1537 1328 0.111111
1537 1329 0.111111
1538 1759 0.453946
1538 4332 0.273027
1538 4979 0.273027
1539 135 0.522293
1539 8016 0.477707
1540 109 0.999325
1540 1330 0.000674772
1541 221 0.2
1541 582 0.2
1541 1331 0.2
1541 1332 0.2
1541 1333 0.199998
1542 79 0.165868
1542 376 0.166827
1542 531 0.166827
1542 766 0.166826
1542 1229 0.166826
1542 6188 0.166826
1543 25 7.73025e-06
1543 156 0.571415
1543 678 0.142881
1543 1573 0.214269
1543 7344 0.0714269
1544 79 0.199931
1544 365 0.200017
1544 594 0.200017
1544 1300 0.200017
1544 1334 0.200017
1545 25 0.0534934
1545 365 0.236649
1545 678 0.23656
1545 1335 0.236649
1545 1336 0.236649
1546 221 0.00436141
1546 365 0.332048
1546 899 0.663591
1547 13 0.00586804
1547 25 0.108922
1547 123 0.17703
1547 151 0.177045
1547 205 0.177045
1547 1337 0.177045
1547 1338 0.177045
1548 123 0.166678
1548 183 0.333325
1548 221 0.166665
1548 1339 0.166666
1548 1340 0.166666
1549 55 0.225638
1549 116 0.112818
1549 117 0.225636
1549 3644 0.112819
1549 3740 0.21027
1549 7748 0.112819
1550 1343 0.6
1550 3534 0.4
1551 3 0.253996
1551 221 0.488887
1551 376 0.0126745
1551 765 0.244443
1552 1341 1
1553 1208 0.25
1553 1348 0.25
1553 1349 0.25
1553 1350 0.25
1554 63 0.250312
1554 103 0.249896
1554 1269 0.249896
1554 1342 0.249896
1555 305 0.25
1555 1042 0.25
1555 1346 0.25
1555 1347 0.25
1556 241 0.142857
1556 365 0.142857
1556 527 0.142857
1556 1242 0.142857
1556 1345 0.142857
1556 1351 0.142857
1556 1352 0.142857
1557 365 0.333497
1557 1135 0.666503
1558 13 0.425392
1558 3631 0.382917
1558 6747 0.191691
1559 13 0.000690653
1559 721 0.249828
1559 1344 0.249828
1559 1353 0.249828
1559 1354 0.249827
1560 1356 1
1561 79 0.250081
1561 86 0.499835
1561 1750 0.250084
1562 207 0.5
1562 1357 0.5
1563 55 0.000281161
1563 1358 0.999719
1564 55 0.33324
1564 1025 0.33338
1564 4817 0.33338
1565 370 1
1566 1217 1
1567 126 1
1568 165 0.333333
1568 1362 0.333334
1568 1363 0.333333
1569 1360 1
1570 13 0.47447
1570 507 0.237261
1570 1361 0.288269
1571 22 0.345709
1571 54 0.172863
1571 110 0.172862
1571 293 0.172863
1571 1361 0.135703
1572 1208 0.333327
1572 1366 0.666673
1573 1300 0.333333
1573 1364 0.333333
1573 1365 0.333333
1574 86 0.249788
1574 106 0.250636
1574 1367 0.249788
1574 2877 0.249788
1575 22 0.199983
1575 489 0.199995
1575 840 0.199995
1575 1355 3.87949e-05
1575 1413 0.199995
1575 1577 0.199995
1576 86 0.248422
1576 5493 0.501052
1576 6479 0.250526
1577 221 0.337253
1577 343 0.325578
1577 1431 0.337169
1578 9 0.202126
1578 25 0.191495
1578 367 0.202126
1578 441 0.202126
1578 1369 0.202126
1579 51 0.129879
1579 56 0.610415
1579 86 0.000215666
1579 108 0.25949
1580 25 0.316293
1580 32 0.00509569
1580 799 0.678611
1581 35 0.333281
1581 1370 0.33336
1581 1371 0.333359
1582 1247 0.49998
1582 3785 0.50002
1583 13 0.317432
1583 303 0.341149
1583 2151 0.341149
1583 2180 0.000268885
1584 335 0.333333
1584 497 0.166667
1584 541 0.166667
1584 1556 0.166667
1584 2547 0.166667
1585 181 0.5
1585 568 0.5
1586 681 0.5
1586 1372 0.5
1587 13 0.250222
1587 190 0.599823
1587 1373 0.149955
1588 47 3.57396e-05
1588 123 0.333321
1588 1376 0.333322
1588 1377 0.333321
1589 63 0.333209
1589 1374 0.666791
1590 1379 0.75
1590 1381 0.25
1591 1378 1
1592 1380 1
1593 71 0.0173378
1593 1381 0.982662
1594 3 0.428176
1594 14 0.214088
1594 15 0.0722876
1594 1004 0.0713612
1594 1375 0.214088
1595 246 0.333349
1595 877 0.666651
1596 630 1
1597 1382 0.500009
1597 1383 0.499991
1598 13 2.79626e-05
1598 240 0.200024
1598 774 0.599961
1598 4115 0.199987
1599 405 1
1600 13 0.00478502
1600 15 0.330302
1600 55 0.166228
1600 117 0.166229
1600 2780 0.166228
1600 2781 0.166229
1601 1384 0.250004
1601 2781 0.749996
1602 1379 1
1603 288 0.16973
1603 1379 0.321081
1603 1385 0.509189
1604 17 0.333696
1604 1838 0.666304
1605 2435 1
1606 25 0.161078
1606 92 0.209731
1606 270 0.209731
1606 1390 0.419461
1607 1391 1
1608 22 0.127518
1608 25 0.107378
1608 106 0.127518
1608 491 0.127518
1608 1208 0.127518
1608 1392 0.255036
1608 1466 0.127515
1609 1393 1
1610 5824 0.498108
1610 5932 0.498108
1610 5933 0.00378354
1611 1389 1
1612 47 1
1613 1004 0.25
1613 1313 0.25
1613 1386 0.25
1613 1387 0.25
1614 1388 1
1615 22 0.28557
1615 38 0.142886
1615 512 0.142886
1615 1394 0.142886
1615 1395 0.142886
1615 1396 0.142886
1616 913 0.999964
1616 1291 3.55861e-05
1617 92 0.25
1617 376 0.25
1617 753 0.25
1617 1008 0.25
1618 109 0.250002
1618 1208 0.249991
1618 1397 0.500004
1618 4103 3.06377e-06
1619 57 0.8
1619 1630 0.2
1620 1377 1
1621 22 1
1622 123 0.5
1622 1376 0.5
1623 92 0.173546
1623 1398 0.733287
1623 1399 0.0931673
1624 1399 0.466082
1624 1400 0.533918
1625 1401 1
1626 39 0.31056
1626 221 0.0679788
1626 376 0.31073
1626 2756 0.31073
1627 39 7.89326e-05
1627 40 0.288687
1627 221 0.112762
1627 305 0.0225797
1627 541 0.142862
1627 1402 0.288687
1627 2337 0.144343
1628 13 0.379527
1628 26 0.218859
1628 992 0.200807
1628 1504 0.200807
1629 9 0.166738
1629 1396 0.833262
1630 79 0.274507
1630 240 0.232627
1630 3644 0.492867
1631 25 0.206372
1631 1403 0.264543
1631 1404 0.264543
1631 1405 0.264543
1632 181 0.200002
1632 522 0.399999
1632 6826 0.199999
1632 7938 0.2
1633 498 0.25
1633 1406 0.25
1633 1407 0.25
1633 2251 0.25
1634 79 0.33334
1634 1408 0.33332
1634 3531 0.16667
1634 4027 0.16667
1635 1408 6.2201e-05
1635 1409 0.499969
1635 1467 0.499969
1636 22 0.504409
1636 56 0.495591
1637 1412 1
1638 1234 0.25
1638 1411 0.25
1638 1413 0.5
1639 1306 0.99989
1639 1410 0.000109742
1640 9 0.248696
1640 271 0.250086
1640 1306 0.00107505
1640 1410 0.250058
1640 1411 0.250086
1641 1089 0.5
1641 1414 0.5
1642 809 0.333414
1642 1006 0.666586
1643 51 0.2
1643 175 0.2
1643 600 0.2
1643 976 0.2
1643 1476 0.2
1644 103 0.4444
1644 582 0.5556
1645 1415 0.857143
1645 5913 0.142857
1646 288 0.499999
1646 1416 0.500001
1647 1417 0.5
1647 4755 0.5
1648 22 0.249889
1648 25 5.54276e-05
1648 26 0.125183
1648 34 0.12498
1648 51 0.249943
1648 976 0.124974
1648 1403 0.124974
1649 1404 0.333333
1649 1405 0.5
1649 1418 0.166667
1650 1421 0.9
1650 5849 0.1
1651 86 0.333444
1651 305 0.333093
1651 1397 0.333463
1652 1337 1
1653 123 0.142855
1653 630 0.142858
1653 1384 0.142858
1653 1422 0.142858
1653 1423 0.142858
1653 1424 0.142858
1653 1425 0.142858
1654 117 0.2
1654 133 0.2
1654 976 0.2
1654 1423 0.2
1654 1428 0.2
1655 385 0.170359
1655 1427 0.664775
1655 2157 0.164867
1656 149 0.334348
1656 1426 0.334349
1656 1427 0.331303
1657 22 0.00019681
1657 28 0.999803
1658 1087 0.199973
1658 1429 0.199973
1658 1433 0.200107
1658 2395 0.199973
1658 2414 0.199973
1659 51 0.36945
1659 343 0.0763755
1659 498 0.36945
1659 936 0.184725
1660 22 0.142122
1660 343 0.00485315
1660 1084 0.142187
1660 1387 0.142187
1660 1401 0.142186
1660 1430 0.142187
1660 1432 0.142187
1660 1433 0.142091
1661 1434 1
1662 3 0.111119
1662 1435 0.11112
1662 1436 0.222238
1662 1437 0.11112
1662 1438 0.11112
1662 1440 0.11112
1662 1441 0.11112
1662 1442 0.111044
1663 1445 1
1664 221 1
1665 1439 1
1666 86 0.00220817
1666 1431 0.997792
1667 31 2.38428e-05
1667 79 0.0337833
1667 2079 0.644129
1667 2959 0.322064
1668 22 0.0998962
1668 77 0.225026
1668 80 0.225026
1668 1443 0.225026
1668 1444 0.225026
1669 51 0.499994
1669 343 0.249987
1669 2637 0.250019
1670 25 0.499137
1670 1309 0.00116575
1670 1438 0.499697
1671 28 7.77572e-05
1671 598 0.333567
1671 980 0.333567
1671 1309 0.332789
1672 86 0.333251
1672 454 0.333374
1672 1431 0.333374
1673 86 5.6679e-05
1673 382 0.49997
1673 1387 0.499973
1674 22 0.333333
1674 103 0.666667
1675 51 0.499999
1675 1448 0.250001
1675 1449 0.250001
1676 25 0.364707
1676 433 0.381108
1676 617 0.254185
1677 1446 0.5
1677 1450 0.5
1678 82 0.25
1678 272 0.25
1678 1447 0.25
1678 1451 0.25
1679 25 2.99194e-05
1679 2449 0.499985
1679 2452 0.499985
1680 51 0.154861
1680 106 0.148276
1680 1453 0.387146
1680 3300 0.0774292
1680 6967 0.154858
1680 6969 0.0774292
1681 51 0.166661
1681 372 0.166668
1681 1387 0.166668
1681 1452 0.166668
1681 1454 0.166668
1681 1455 0.166668
1682 1622 1
1683 181 0.349972
1683 522 0.300056
1683 1456 0.349972
1684 70 0.999498
1684 522 0.000501506
1685 1381 1
1686 108 1
1687 257 0.875553
1687 522 0.124438
1687 1457 9.08385e-06
1688 1457 0.249998
1688 1458 0.250001
1688 1459 0.250001
1688 1460 0.25
1689 1463 1
1690 1462 1
1691 1337 1
1692 730 0.33334
1692 1874 0.66666
1693 313 0.333338
1693 614 0.333343
1693 1462 0.333319
1694 1461 1
1695 540 1
1696 25 0.000282107
1696 1208 0.249929
1696 1278 0.249929
1696 1464 0.249929
1696 1465 0.249929
1697 13 0.156013
1697 55 0.421991
1697 1468 0.421996
1698 1469 1
1699 1472 1
1700 76 0.463
1700 1472 4.90729e-05
1700 1473 0.536951
1701 35 0.399658
1701 165 0.200126
1701 335 0.200089
1701 541 0.200127
1702 110 0.333514
1702 1475 0.333243
1702 1476 0.333243
1703 206 0.329284
1703 288 0.0121702
1703 825 0.329283
1703 1477 0.329262
1704 6823 1
1705 161 0.125007
1705 181 0.125008
1705 431 0.124945
1705 522 0.125008
1705 1228 0.125008
1705 1229 0.125008
1705 1262 0.125007
1705 1478 0.125008
1706 246 1
1707 454 0.5
1707 522 0.5
1708 9 0.333356
1708 673 9.00114e-06
1708 1479 0.333317
1708 5836 0.333317
1709 56 0.142853
1709 92 0.142858
1709 221 0.142858
1709 1698 0.142858
1709 4077 0.142858
1709 4078 0.285716
1710 31 0.935039
1710 110 5.77435e-05
1710 1634 0.064903
1711 600 0.666667
1711 664 0.333333
1712 1472 1
1713 1472 0.221282
1713 1482 0.778718
1714 17 0.5
1714 1483 0.5
1715 49 0.550346
1715 181 0.449654
1716 251 0.199602
1716 1484 0.800398
1717 49 0.134592
1717 1484 0.345126
1717 1485 0.520281
1718 774 1
1719 913 0.5
1719 1487 0.5
1720 454 0.5
1720 1486 0.5
1721 22 0.332688
1721 77 0.332972
1721 6165 0.33434
1722 17 0.3
1722 108 0.1
1722 343 0.1
1722 809 0.1
1722 1176 0.1
1722 1489 0.3
1723 110 0.799999
1723 1673 0.200001
1724 79 1
1725 55 0.499999
1725 4055 0.500001
1726 79 0.125008
1726 240 0.124999
1726 462 0.124999
1726 3702 0.124999
1726 7654 0.249998
1726 7655 0.249998
1727 3 0.333333
1727 716 0.333333
1727 1490 0.333333
1728 1491 1
1729 79 1
1730 272 1
1731 106 0.5
1731 7264 0.5
1732 1215 0.402811
1732 3789 0.19891
1732 6861 0.398279
1733 17 0.666667
1733 1494 0.333333
1734 1008 0.142858
1734 1170 0.142853
1734 1490 0.142858
1734 1493 0.428574
1734 1524 0.142858
1735 49 0.0979299
1735 56 0.410816
1735 6608 0.491254
1736 79 1
1737 79 0.249998
1737 143 0.250001
1737 1495 0.250001
1737 1496 0.250001
1738 1497 1
1739 47 1.75184e-05
1739 112 0.00276892
1739 1498 0.499584
1739 1499 0.497629
1740 246 0.5
1740 1500 0.5
1741 181 0.250009
1741 1501 0.499994
1741 1527 0.249997
1742 3 0.999852
1742 1503 0.000147884
1743 1184 0.5
1743 1236 0.5
1744 482 0.230769
1744 960 0.153846
1744 1008 0.0769228
1744 1505 0.538462
1745 288 0.5
1745 503 0.5
1746 55 0.257879
1746 1503 0.494748
1746 2628 0.247373
1747 1201 0.5
1747 1506 0.5
1748 14 0.465112
1748 207 0.0232556
1748 482 0.511632
1749 51 0.5
1749 1508 0.5
1750 271 0.882627
1750 3317 0.117373
1751 1507 0.666667
1751 1509 0.333333
1752 31 0.500054
1752 221 0.499946
1753 79 0.5
1753 975 0.5
1754 482 0.6
1754 1229 0.2
1754 4043 0.2
1755 13 0.306554
1755 22 0.346723
1755 837 0.346723
1756 1499 1
1757 17 1
1758 17 0.000218006
1758 1510 0.999782
1759 156 1
1760 850 0.25
1760 869 0.25
1760 1512 0.25
1760 1513 0.25
1761 246 0.200006
1761 522 0.199999
1761 1301 0.399997
1761 1511 0.199998
1762 478 0.5
1762 2415 0.5
1763 1516 0.5
1763 1517 0.5
1764 991 0.333333
1764 1257 0.333333
1764 1518 0.333333
1765 92 0.37816
1765 221 8.35279e-05
1765 252 0.207287
1765 478 0.20713
1765 1214 4.8156e-05
1765 7361 0.207292
1766 9 0.111111
1766 31 0.111111
1766 108 0.111111
1766 112 0.111111
1766 134 0.111111
1766 221 0.111111
1766 1113 0.111111
1766 1520 0.111111
1766 1521 0.111111
1767 1522 1
1768 1522 7.20657e-05
1768 1523 0.999928
1769 977 0.999408
1769 1523 0.000591586
1770 459 0.373262
1770 463 0.00344147
1770 1141 0.623296
1771 110 0.666667
1771 4232 0.333333
1772 117 0.166668
1772 419 0.166668
1772 569 0.166668
1772 1849 0.166668
1772 1850 0.166668
1772 1855 0.166662
1773 380 0.536543
1773 609 0.463457
1774 106 1
1775 110 0.285631
1775 181 0.142874
1775 183 0.142874
1775 464 0.142874
1775 1006 0.142874
1775 1481 0.142874
1776 1295 0.00630811
1776 1525 0.993692
1777 14 0.6348
1777 288 0.100333
1777 960 0.105947
1777 1505 0.15892
1778 1322 1
1779 1354 0.666667
1779 6299 0.333333
1780 673 0.142757
1780 1481 0.143155
1780 1526 0.142757
1780 1527 0.142757
1780 1528 0.142757
1780 1538 0.143058
1780 1541 0.142757
1781 594 0.200112
1781 1481 0.599777
1781 1551 0.200112
1782 108 0.171121
1782 117 0.0800363
1782 591 0.163005
1782 3402 0.487109
1782 4625 0.0987285
1783 86 0.207899
1783 108 0.296993
1783 1529 0.297065
1783 5696 0.0990216
1783 6674 0.0990211
1784 184 0.301113
1784 1208 0.130036
1784 1531 0.568851
1785 5159 1
1786 1535 0.25
1786 4151 0.5
1786 5209 0.249999
1787 106 0.166667
1787 1530 0.166667
1787 1531 0.166667
1787 1532 0.166667
1787 1533 0.166667
1787 1536 0.166667
1788 1325 0.333333
1788 1537 0.333333
1788 1538 0.333333
1789 184 0.25
1789 1539 0.5
1789 1540 0.25
1790 2291 0.077548
1790 2932 0.922452
1791 1542 0.5
1791 1543 0.5
1792 21 0.730241
1792 1782 0.269759
1793 28 0.00236902
1793 342 0.62702
1793 5050 0.370611
1794 108 0.000359696
1794 1544 0.499826
1794 1545 0.499814
1795 1546 0.5
1795 1547 0.5
1796 3072 1
1797 106 0.111153
1797 1564 0.555527
1797 1576 0.33332
1798 1549 1
1799 3 0.285227
1799 39 0.144892
1799 452 0.14247
1799 3291 0.14247
1799 4501 0.14247
1799 6651 0.14247
1800 115 0.643937
1800 221 0.356063
1801 13 0.0114674
1801 76 0.00101634
1801 1550 0.494058
1801 6747 0.493458
1802 305 0.333333
1802 478 0.333333
1802 1541 0.333333
1803 181 0.333333
1803 980 0.333333
1803 1552 0.333333
1804 1553 0.5
1804 1554 0.5
1805 25 0.319765
1805 103 0.340112
1805 1555 0.340124
1806 221 0.292748
1806 1556 0.707252
1807 3 1.08789e-05
1807 742 1.84207e-05
1807 754 0.999971
1808 17 0.2
1808 108 0.2
1808 1557 0.2
1808 1558 0.2
1808 1560 0.2
1809 55 0.333309
1809 380 0.166673
1809 730 0.166673
1809 1397 0.166673
1809 2383 0.166673
1810 1559 1
1811 106 1
1812 1487 1
1813 716 0.333333
1813 1306 0.333333
1813 3652 0.333333
1814 802 0.19999
1814 1561 0.200003
1814 1562 0.199999
1814 3649 0.400007
1815 2829 0.237807
1815 3962 0.762193
1816 1563 1
1817 960 0.38488
1817 1564 0.205038
1817 1569 0.205041
1817 2827 0.205041
1818 1383 0.727274
1818 1570 0.272726
1819 809 0.125
1819 1487 0.625
1819 1571 0.25
1820 13 0.327915
1820 1572 0.224022
1820 1654 0.224022
1820 6997 0.224041
1821 1565 1
1822 3 0.2
1822 1533 0.2
1822 1566 0.2
1822 1567 0.2
1822 1568 0.2
1823 55 0.749808
1823 76 0.250192
1824 685 0.999856
1824 1325 0.000144011
1825 76 0.278931
1825 181 0.240356
1825 672 0.240356
1825 777 0.240356
1826 209 0.687489
1826 2373 0.312511
1827 86 0.199989
1827 1571 0.200003
1827 1574 0.200003
1827 1579 0.200003
1827 1580 0.200003
1828 802 0.446506
1828 1575 0.553494
1829 1582 0.5
1829 6720 0.5
1830 1581 0.636327
1830 1698 0.272712
1830 5142 0.0909607
1831 55 0.000215634
1831 56 0.142756
1831 86 0.0477934
1831 3822 0.53949
1831 5921 0.269745
1832 21 0.000317968
1832 108 0.333689
1832 207 0.332304
1832 1582 0.333689
1833 809 0.499997
1833 1487 0.500003
1834 3 0.2
1834 1577 0.4
1834 1578 0.4
1835 894 0.333333
1835 1583 0.333333
1835 3061 0.333333
1836 3056 0.333333
1836 6023 0.333333
1836 6462 0.333333
1837 1584 1
1838 1585 1
1839 425 0.5
1839 731 0.5
1840 137 1
1841 1586 1
1842 567 0.249999
1842 1587 0.500001
1842 2718 0.25
1843 296 0.1
1843 1591 0.9
1844 1413 1
1845 31 1
1846 3 0.12501
1846 55 0.124927
1846 287 0.12501
1846 320 0.12501
1846 472 0.12501
1846 1588 0.12501
1846 1589 0.12501
1846 1590 0.12501
1847 56 0.25031
1847 106 0.499792
1847 355 0.249898
1848 35 0.00386604
1848 79 0.199129
1848 116 0.199169
1848 221 0.199278
1848 1593 0.199279
1848 1594 0.199279
1849 221 0.2
1849 726 0.199999
1849 913 0.2
1849 1595 0.4
1850 116 0.500005
1850 221 0.499995
1851 79 0.200127
1851 86 0.39992
1851 748 0.199977
1851 1596 0.199976
1852 25 0.477518
1852 1597 0.146466
1852 3683 0.376016
1853 77 0.303895
1853 79 0.0883162
1853 1598 0.303895
1853 1599 0.303894
1854 106 0.125003
1854 110 0.124966
1854 246 0.125006
1854 251 0.125006
1854 522 0.125006
1854 749 0.125005
1854 802 0.125003
1854 2544 0.125006
1855 568 0.5
1855 953 0.5
1856 86 0.14149
1856 221 0.00804415
1856 561 0.284506
1856 766 0.42447
1856 1252 0.14149
1857 82 0.166157
1857 110 0.50029
1857 1855 0.333553
1858 1733 0.5
1858 7347 0.5
1859 1604 0.5
1859 6382 0.5
1860 49 0.249997
1860 55 0.124968
1860 86 0.125007
1860 444 0.125007
1860 1600 0.125007
1860 1601 0.125007
1860 1602 0.125007
1861 55 0.166666
1861 251 0.166667
1861 454 0.166667
1861 913 0.166667
1861 1603 0.166667
1861 1604 0.166667
1862 117 0.2
1862 184 0.199999
1862 1524 0.2
1862 1605 0.2
1862 1606 0.2
1863 13 9.62078e-05
1863 110 0.333308
1863 181 0.333289
1863 686 0.333308
1864 842 0.250001
1864 1184 0.250001
1864 1487 0.249998
1864 1607 0.250001
1865 298 0.999642
1865 299 0.000358121
1866 299 1
1867 35 0.252595
1867 269 0.249134
1867 1306 0.249136
1867 1608 0.249136
1868 1611 1
1869 106 0.166667
1869 200 0.666667
1869 1642 0.166667
1870 207 0.111135
1870 447 0.777738
1870 460 0.111127
1871 67 0.199702
1871 123 0.201195
1871 198 0.199702
1871 199 0.199699
1871 1616 0.199702
1872 223 0.200124
1872 1617 0.400249
1872 1618 0.200124
1872 4390 0.199502
1873 275 0.51805
1873 1667 0.48195
1874 35 0.249956
1874 618 0.250015
1874 992 0.250015
1874 1036 0.250015
1875 7332 1
1876 43 0.25
1876 149 0.25
1876 1609 0.25
1876 1623 0.25
1877 117 0.499999
1877 1624 0.500001
1878 55 1
1879 55 0.417156
1879 117 0.0823847
1879 809 0.139003
1879 1625 0.361456
1880 3198 0.666667
1880 3200 0.333333
1881 20 0.166663
1881 108 0.166663
1881 240 2.24997e-05
1881 1302 0.166663
1881 1614 0.166663
1881 1626 0.166663
1881 1627 0.166663
1882 106 0.125
1882 454 0.125
1882 742 0.125
1882 1490 0.125
1882 1946 0.125
1882 2030 0.125
1882 7165 0.125
1882 7166 0.125
1883 4569 1
1884 1176 1
1885 9 0.166667
1885 601 0.166667
1885 1628 0.166666
1885 1629 0.166667
1885 1630 0.166667
1885 1631 0.166667
1886 231 0.4
1886 257 0.2
1886 482 0.4
1887 70 1
1888 189 0.500001
1888 247 0.499999
1889 51 0.125042
1889 86 0.499821
1889 213 0.375137
1890 116 0.5
1890 221 0.5
1891 246 0.333333
1891 1633 0.333333
1891 4097 0.333334
1892 86 0.250003
1892 1634 0.749997
1893 86 0.249986
1893 221 0.250004
1893 1635 0.250005
1893 1636 0.250005
1894 512 0.666766
1894 583 0.333234
1895 742 0.5
1895 5607 0.5
1896 1637 0.500005
1896 1638 0.499995
1897 246 0.199504
1897 272 0.201985
1897 1141 0.199504
1897 1173 0.199504
1897 3817 0.199504
1898 20 0.166667
1898 108 0.166667
1898 318 0.166667
1898 376 0.166667
1898 855 0.166667
1898 1626 0.166667
1899 123 1
1900 117 0.167013
1900 257 0.167013
1900 272 0.164936
1900 477 0.167012
1900 1640 0.167013
1900 1641 0.167013
1901 9 0.111122
1901 77 0.111118
1901 123 0.111051
1901 312 0.111118
1901 367 0.111118
1901 522 0.111118
1901 1644 0.111118
1901 1645 0.111118
1901 3000 0.111118
1902 31 0.250008
1902 79 0.249976
1902 589 0.250008
1902 1647 0.250008
1903 28 0.0660095
1903 76 0.848539
1903 117 0.0854517
1904 79 0.143029
1904 86 0.141871
1904 92 0.142699
1904 319 0.1431
1904 376 0.1431
1904 482 0.1431
1904 1648 0.1431
1905 142 0.83215
1905 246 0.16643
1905 834 0.00141999
1906 623 1
1907 21 0.420722
1907 477 0.000207626
1907 681 0.156944
1907 1649 0.211063
1907 2288 0.211063
1908 481 0.33333
1908 7651 0.333335
1908 7652 0.333335
1909 21 0.00140037
1909 1650 0.332867
1909 1651 0.332867
1909 2528 0.332867
1910 22 0.330375
1910 221 0.330367
1910 1653 0.339258
1911 317 1
1912 162 0.142862
1912 4700 0.571425
1912 5327 0.285713
1913 92 0.370219
1913 106 0.629781
1914 3074 0.867686
1914 4686 0.132314
1915 482 1
1916 1654 1
1917 479 0.333329
1917 1655 0.333335
1917 1656 0.333335
1918 1657 0.500039
1918 1660 0.499961
1919 51 0.166665
1919 63 0.166665
1919 1658 0.166665
1919 1659 0.166665
1919 1660 1.28509e-05
1919 1661 0.166665
1919 1662 0.166665
1920 1576 0.5
1920 1663 0.5
1921 55 0.0152509
1921 2041 0.984749
1922 88 0.333333
1922 183 0.333333
1922 1664 0.333333
1923 55 0.163308
1923 63 0.0929767
1923 123 0.185953
1923 239 0.0929369
1923 1126 0.185953
1923 2291 0.185895
1923 3831 0.0929767
1924 17 0.333334
1924 340 0.333333
1924 2314 0.333334
1925 43 0.168461
1925 117 0.168461
1925 191 0.165879
1925 478 0.160278
1925 1666 0.168461
1925 3161 0.16846
1926 1667 0.0596567
1926 1668 0.940343
1927 275 1
1928 123 0.2
1928 182 0.2
1928 293 0.2
1928 1668 0.2
1928 1669 0.2
1929 56 0.125064
1929 134 0.624955
1929 742 0.249982
1930 31 0.554563
1930 56 0.335012
1930 1071 0.110424
1931 699 0.333333
1931 1329 0.333333
1931 6826 0.333333
1932 149 0.341908
1932 618 0.658092
1933 187 8.4284e-05
1933 1670 0.999916
1934 1397 1
1935 33 0.25
1935 386 0.25
1935 699 0.25
1935 1161 0.25
1936 1671 0.5
1936 1672 0.5
1937 1675 0.2
1937 1676 0.2
1937 1677 0.2
1937 1678 0.2
1937 1679 0.2
1938 35 0.365408
1938 76 0.634592
1939 184 0.499999
1939 1541 0.500001
1940 1680 0.5
1940 1681 0.5
1941 72 0.4
1941 296 0.4
1941 847 0.2
1942 72 0.1
1942 1979 0.7
1942 2824 0.2
1943 76 0.000181228
1943 1448 0.749865
1943 6991 0.249953
1944 246 0.249994
1944 253 2.33472e-05
1944 309 0.249994
1944 716 0.249994
1944 2277 0.249994
1945 192 0.5
1945 193 0.5
1946 149 0.199998
1946 181 0.600003
1946 742 0.199998
1947 123 0.285707
1947 522 0.142859
1947 635 0.142859
1947 1424 0.142859
1947 1683 0.142859
1947 1684 0.142859
1948 296 0.166667
1948 444 0.166667
1948 741 0.166666
1948 1686 0.166667
1948 1701 0.166667
1948 1702 0.166667
1949 174 0.5
1949 183 0.5
1950 1692 1
1951 536 0.111111
1951 1534 0.777778
1951 4410 0.111111
1952 1693 1
1953 891 1
1954 207 1
1955 51 0.142867
1955 86 0.142801
1955 1686 0.142866
1955 1687 0.142867
1955 1688 0.142867
1955 1689 0.142867
1955 1690 0.142867
1956 1694 0.666667
1956 5062 0.333333
1957 1699 1
1958 365 0.25
1958 1160 0.25
1958 1665 0.25
1958 1700 0.25
1959 1695 0.499997
1959 3589 0.250004
1959 5186 0.249999
1960 1696 0.5
1960 1697 0.5
1961 963 0.5
1961 1698 0.5
1962 1932 0.142857
1962 2909 0.142857
1962 3041 0.142857
1962 4107 0.285714
1962 4112 0.142857
1962 4120 0.142857
1963 51 1
1964 108 0.166667
1964 592 0.166667
1964 1107 0.166667
1964 1291 0.166667
1964 2090 0.166667
1964 4368 0.166667
1965 5138 1
1966 51 1
1967 189 0.5
1967 1703 0.5
1968 1704 1
1969 582 0.199894
1969 1509 0.679622
1969 1705 0.120483
1970 79 0.200023
1970 1704 0.200024
1970 3244 0.599954
1971 21 1.62412e-05
1971 1532 0.499992
1971 4221 0.499992
1972 3 0.4312
1972 13 0.215466
1972 1069 0.353335
1973 79 0.166597
1973 86 0.333195
1973 889 0.166767
1973 1706 0.333441
1974 1717 0.583549
1974 1722 0.416451
1975 139 0.395101
1975 1028 0.152609
1975 1707 2.59352e-05
1975 1708 0.452263
1975 1709 5.10236e-07
1976 13 0.141142
1976 139 0.423217
1976 699 0.139991
1976 1707 0.000471394
1976 1708 0.295178
1977 1707 0.499048
1977 1709 0.500952
1978 86 0.796955
1978 1754 0.203045
1979 1706 1
1980 77 0.500504
1980 2513 0.499496
1981 117 0.260247
1981 221 0.184734
1981 289 0.0925546
1981 569 0.277164
1981 809 0.1853
1982 286 0.25
1982 447 0.25
1982 723 0.25
1982 1595 0.25
1983 31 0.599991
1983 1598 0.400009
1984 3 0.25
1984 1706 0.25
1984 1710 0.25
1984 1711 0.25
1985 484 0.5
1985 1712 0.5
1986 55 0.299951
1986 288 0.200013
1986 664 0.100007
1986 4812 0.400029
1987 28 0.209051
1987 47 3.25742e-06
1987 463 0.248043
1987 4458 0.542903
1988 1713 0.500119
1988 1714 0.499881
1989 123 0.138749
1989 139 0.167769
1989 486 0.277498
1989 809 0.138489
1989 1609 0.138749
1989 1715 0.138746
1990 28 6.23592e-05
1990 1714 0.999938
1991 13 0.252749
1991 1718 0.498167
1991 1727 0.249084
1992 1161 1
1993 1720 1
1994 1719 0.666667
1994 3056 0.333333
1995 3 3.27297e-05
1995 4127 0.285705
1995 4300 0.714262
1996 296 0.5
1996 2733 0.5
1997 86 0.200061
1997 221 0.200047
1997 246 0.200086
1997 289 0.199726
1997 1721 0.20008
1998 4630 1
1999 55 0.3326
1999 305 0.333673
1999 943 0.166837
1999 7852 5.38024e-05
1999 7857 0.166837
2000 246 0.199999
2000 1720 0.399997
2000 1721 0.200005
2000 1760 0.199999
2001 86 0.333338
2001 454 0.666662
2002 1722 1
2003 31 0.000373641
2003 1724 0.999626
2004 1715 0.037581
2004 1723 0.962419
2005 189 0.995987
2005 899 0.00401321
2006 899 0.496955
2006 1725 0.503045
2007 181 0.5
2007 372 0.5
2008 17 0.250013
2008 809 0.124998
2008 1726 0.374994
2008 4050 0.124998
2008 5387 0.124998
2009 486 1
2010 108 0.333333
2010 3753 0.666667
2011 1118 0.333332
2011 1728 0.333336
2011 1731 0.333332
2012 106 1
2013 3 0.2
2013 716 0.2
2013 1729 0.2
2013 1730 0.2
2013 1732 0.2
2014 21 0.715268
2014 25 0.132773
2014 360 0.15196
2015 13 0.0232923
2015 1733 0.32557
2015 1734 0.651138
2016 846 0.5
2016 1693 0.5
2017 39 0.333332
2017 221 0.333331
2017 1736 0.16667
2017 1739 0.166666
2018 400 1
2019 103 1
2020 1735 1
2021 1735 0.332346
2021 1736 0.16691
2021 1737 0.166914
2021 1738 0.333829
2022 25 0.00303102
2022 1536 0.996969
2023 76 0.16255
2023 152 0.167742
2023 1735 0.334225
2023 1740 0.167742
2023 1741 0.167742
2024 1742 1
2025 17 0.212257
2025 18 0.0974754
2025 181 0.289694
2025 699 0.194949
2025 809 0.205625
2026 9 0.200011
2026 108 0.20001
2026 379 0.20001
2026 1028 0.199958
2026 1136 0.200011
2027 25 0.195008
2027 1712 0.804992
2028 79 0.25
2028 143 0.25
2028 865 0.25
2028 1743 0.25
2029 240 0.25
2029 257 0.25
2029 1744 0.25
2029 1749 0.25
2030 106 0.333333
2030 1276 0.333333
2030 1750 0.333333
2031 79 0.5
2031 3447 0.5
2032 1745 1
2033 450 0.332914
2033 732 0.332914
2033 1746 0.332914
2033 1747 0.00125909
2034 31 0.333745
2034 1714 2.62467e-05
2034 1747 0.332483
2034 1748 0.333746
2035 25 0.216186
2035 613 0.391907
2035 2374 0.391907
2036 3657 0.739208
2036 5376 0.260793
2037 988 0.25
2037 1028 0.25
2037 4949 0.25
2037 7711 0.249999
2038 365 0.5
2038 1771 0.5
2039 1751 0.4
2039 1752 0.6
2040 256 0.251085
2040 1753 0.251236
2040 1754 0.246443
2040 1755 0.251236
2041 1712 1
2042 1028 1
2043 106 0.157774
2043 123 0.157774
2043 1424 0.157774
2043 1756 0.157774
2043 1757 0.157774
2043 1758 0.157648
2043 1759 0.0534834
2044 3173 0.625034
2044 6416 0.374966
2045 3105 0.500011
2045 7701 0.499989
2046 1591 0.25
2046 1720 0.25
2046 1763 0.25
2046 1764 0.25
2047 1147 0.333333
2047 1762 0.333333
2047 1765 0.333333
2048 9 0.666517
2048 1761 0.333259
2048 2816 1.15586e-05
2048 3084 0.000211997
2049 9 0.166775
2049 79 0.166775
2049 1767 0.66645
2050 1766 0.2
2050 1767 0.2
2050 1768 0.2
2050 1769 0.2
2050 1770 0.2
2051 31 0.499813
2051 63 0.500187
2052 9 0.0833396
2052 22 0.0833592
2052 92 0.0833592
2052 1410 0.0833592
2052 1511 0.0833592
2052 1605 0.0833592
2052 1623 0.0833589
2052 1783 0.333146
2052 1791 0.0833592
2053 63 0.614412
2053 716 0.128558
2053 913 0.25703
2054 18 0.2
2054 181 0.4
2054 183 0.2
2054 1329 0.2
2055 123 0.199999
2055 492 0.2
2055 725 0.2
2055 3312 0.2
2055 4058 0.2
2056 56 0.270288
2056 496 0.729712
2057 123 0.333333
2057 1772 0.333333
2057 1773 0.333333
2058 35 0.199999
2058 39 0.2
2058 1578 0.2
2058 1774 0.2
2058 1777 0.2
2059 1148 0.250001
2059 1590 0.249998
2059 1775 0.250001
2059 1776 0.250001
2060 1778 0.888889
2060 1779 0.111111
2061 25 0.495671
2061 1588 0.504329
2062 2707 1
2063 809 1
2064 25 0.331386
2064 31 0.334307
2064 3261 0.334307
