1 1 100 2 1
2 3 100 2 1
3 0 100 3 1
1 1 100 3 0.595873
2 1 100 3 0.302942
3 1 100 3 0.101185
3 2 100 3 1
1 3 100 3 0.267872
2 3 100 3 0.446746
3 3 100 3 0.285382
1 4 100 3 0.333333
2 4 100 3 0.333333
3 4 100 3 0.333333
1 5 100 3 0.247029
2 5 100 3 0.376475
3 5 100 3 0.376495
1 6 100 3 1
1 7 100 3 0.333333
2 7 100 3 0.333333
3 7 100 3 0.333333
1 0 100 4 7.82715e-05
3 0 100 4 0.00118136
4 0 100 4 0.99874
1 1 100 4 0.454525
2 1 100 4 0.363663
3 1 100 4 0.0909059
4 1 100 4 0.0909059
3 2 100 4 0.666623
4 2 100 4 0.333377
2 3 100 4 1
1 4 100 4 0.228728
2 4 100 4 0.228728
3 4 100 4 0.228728
4 4 100 4 0.313817
1 5 100 4 0.245886
2 5 100 4 0.13939
3 5 100 4 0.245891
4 5 100 4 0.368833
1 6 100 4 0.00515396
2 6 100 4 0.0654859
3 6 100 4 0.653358
4 6 100 4 0.276002
1 7 100 4 0.0638721
2 7 100 4 0.334219
3 7 100 4 0.267689
4 7 100 4 0.334219
1 0 100 5 2.53868e-06
2 0 100 5 0.370036
4 0 100 5 0.472591
5 0 100 5 0.157371
1 1 100 5 0.636477
2 1 100 5 0.0921718
3 1 100 5 0.180508
4 1 100 5 0.0907509
5 1 100 5 9.25763e-05
1 2 100 5 0.140963
2 2 100 5 0.406603
3 2 100 5 0.306752
4 2 100 5 0.145682
1 3 100 5 0.142322
2 3 100 5 0.365989
3 3 100 5 0.369131
4 3 100 5 0.000561216
5 3 100 5 0.121996
1 4 100 5 0.215378
2 4 100 5 0.211504
3 4 100 5 0.209722
4 4 100 5 0.222393
5 4 100 5 0.141003
1 5 100 5 0.149994
2 5 100 5 0.169974
3 5 100 5 0.169975
4 5 100 5 0.170111
5 5 100 5 0.339946
1 6 100 5 0.146393
3 6 100 5 0.122122
4 6 100 5 0.292299
5 6 100 5 0.439186
1 7 100 5 0.118366
2 7 100 5 0.202262
3 7 100 5 0.232152
4 7 100 5 0.232587
5 7 100 5 0.214632
1 8 100 5 0.146589
3 8 100 5 0.00382446
4 8 100 5 0.28334
5 8 100 5 0.566246
1 9 100 5 0.00886679
2 9 100 5 0.0533673
3 9 100 5 0.468882
4 9 100 5 1.56933e-06
5 9 100 5 0.468882
4 10 100 5 1
4 11 100 5 1
4 12 100 5 1
2 0 100 6 0.33249
3 0 100 6 0.166211
4 0 100 6 0.169529
5 0 100 6 0.33177
1 1 100 6 0.63047
2 1 100 6 0.369528
4 1 100 6 2.00059e-06
1 2 100 6 0.422566
2 2 100 6 0.182972
3 2 100 6 0.265204
4 2 100 6 0.129259
1 3 100 6 0.345458
2 3 100 6 0.402302
3 3 100 6 0.129375
4 3 100 6 0.122864
3 4 100 6 0.429884
4 4 100 6 0.140403
5 4 100 6 0.143295
6 4 100 6 0.286418
1 5 100 6 0.154616
3 5 100 6 0.226767
4 5 100 6 0.231927
5 5 100 6 0.232099
6 5 100 6 0.154591
1 6 100 6 6.59819e-05
5 6 100 6 0.33337
6 6 100 6 0.666564
5 7 100 6 0.499566
6 7 100 6 0.500434
1 8 100 6 4.27653e-05
2 8 100 6 0.164674
3 8 100 6 1.09314e-06
4 8 100 6 0.330603
5 8 100 6 0.174059
6 8 100 6 0.33062
2 9 100 6 1.8399e-06
3 9 100 6 1.88596e-05
4 9 100 6 0.0146554
5 9 100 6 0.985324
1 10 100 6 3.24584e-06
2 10 100 6 0.165038
3 10 100 6 0.165066
4 10 100 6 0.172822
5 10 100 6 0.166967
6 10 100 6 0.330104
2 11 100 6 8.98553e-06
3 11 100 6 0.0174251
4 11 100 6 0.982566
1 13 100 6 0.00020353
2 13 100 6 0.228223
3 13 100 6 0.228598
4 13 100 6 0.228598
5 13 100 6 0.0857789
6 13 100 6 0.228598
1 0 100 7 0.000116032
2 0 100 7 0.158836
3 0 100 7 0.0903383
4 0 100 7 0.162691
5 0 100 7 0.109066
6 0 100 7 0.270072
7 0 100 7 0.208881
1 1 100 7 0.920486
2 1 100 7 0.0736475
3 1 100 7 5.5371e-05
4 1 100 7 1.29991e-05
5 1 100 7 0.00579771
1 2 100 7 0.343765
2 2 100 7 0.521575
3 2 100 7 0.0672404
4 2 100 7 0.000175888
5 2 100 7 0.0672431
1 3 100 7 0.256248
2 3 100 7 0.127741
3 3 100 7 0.318862
4 3 100 7 0.0680652
5 3 100 7 0.0588743
6 3 100 7 0.106151
7 3 100 7 0.0640594
1 4 100 7 0.0594565
2 4 100 7 0.176673
3 4 100 7 0.176962
4 4 100 7 0.263031
5 4 100 7 0.17659
6 4 100 7 0.0600781
7 4 100 7 0.0872086
2 5 100 7 0.0466379
3 5 100 7 0.284913
4 5 100 7 0.142483
5 5 100 7 0.147995
6 5 100 7 0.306729
7 5 100 7 0.0712416
1 6 100 7 0.0681715
2 6 100 7 0.0223903
3 6 100 7 0.0915629
4 6 100 7 0.135814
5 6 100 7 0.203811
6 6 100 7 0.138761
7 6 100 7 0.339489
1 7 100 7 0.00267986
2 7 100 7 0.0726979
3 7 100 7 0.0662142
4 7 100 7 0.178779
5 7 100 7 0.20494
6 7 100 7 0.233508
7 7 100 7 0.241181
2 8 100 7 0.0607923
3 8 100 7 0.14914
4 8 100 7 0.173595
5 8 100 7 0.325134
6 8 100 7 0.173306
7 8 100 7 0.118033
1 9 100 7 0.155137
2 9 100 7 0.00293487
3 9 100 7 0.241355
4 9 100 7 0.153692
5 9 100 7 0.130522
6 9 100 7 0.146182
7 9 100 7 0.170177
1 10 100 7 0.000490371
2 10 100 7 0.226309
3 10 100 7 0.000129166
4 10 100 7 0.00162855
5 10 100 7 0.00650918
6 10 100 7 0.249856
7 10 100 7 0.515077
1 11 100 7 0.00387363
2 11 100 7 0.323347
3 11 100 7 0.000408452
4 11 100 7 0.0129559
5 11 100 7 0.0692263
6 11 100 7 0.294911
7 11 100 7 0.295278
1 12 100 7 0.0641718
2 12 100 7 0.127497
3 12 100 7 0.201928
4 12 100 7 0.193586
5 12 100 7 0.135256
6 12 100 7 0.126036
7 12 100 7 0.151525
2 13 100 7 0.000745425
5 13 100 7 6.4105e-06
6 13 100 7 0.000193373
7 13 100 7 0.999055
1 0 100 8 1.36224e-06
2 0 100 8 0.0837004
3 0 100 8 0.333133
4 0 100 8 0.20829
5 0 100 8 0.0833184
6 0 100 8 0.124979
7 0 100 8 0.166564
8 0 100 8 1.34224e-05
1 1 100 8 0.545795
2 1 100 8 0.205472
3 1 100 8 0.0711905
4 1 100 8 0.106477
6 1 100 8 0.0355953
7 1 100 8 0.0354509
8 1 100 8 1.91203e-05
1 2 100 8 0.1261
2 2 100 8 0.437088
3 2 100 8 0.032503
4 2 100 8 0.12655
5 2 100 8 0.190161
6 2 100 8 0.0875983
2 3 100 8 0.1717
3 3 100 8 0.328173
4 3 100 8 0.244891
5 3 100 8 0.0979084
6 3 100 8 0.00205326
7 3 100 8 0.0776914
8 3 100 8 0.0775829
3 4 100 8 0.354502
4 4 100 8 0.199828
5 4 100 8 0.0935587
6 4 100 8 0.0880077
7 4 100 8 0.0880826
8 4 100 8 0.17602
1 5 100 8 0.0970557
2 5 100 8 0.0976482
3 5 100 8 0.0485288
4 5 100 8 0.131198
5 5 100 8 0.140376
6 5 100 8 0.194111
7 5 100 8 0.145584
8 5 100 8 0.145498
3 6 100 8 0.075027
4 6 100 8 0.209523
5 6 100 8 0.265291
6 6 100 8 0.150049
7 6 100 8 0.150062
8 6 100 8 0.150048
1 7 100 8 0.220393
2 7 100 8 0.0515196
3 7 100 8 0.0972677
4 7 100 8 0.00042222
5 7 100 8 0.0990002
6 7 100 8 0.194537
7 7 100 8 0.190957
8 7 100 8 0.145904
1 8 100 8 0.138613
2 8 100 8 0.000148428
3 8 100 8 0.184547
4 8 100 8 0.245757
5 8 100 8 0.24621
6 8 100 8 0.0614581
7 8 100 8 0.0617774
8 8 100 8 0.0614892
2 9 100 8 0.141586
3 9 100 8 0.0940166
4 9 100 8 0.0558248
5 9 100 8 0.0940168
6 9 100 8 0.0940282
7 9 100 8 0.144329
8 9 100 8 0.376199
1 10 100 8 0.121052
2 10 100 8 0.103967
3 10 100 8 0.0104421
4 10 100 8 0.104336
5 10 100 8 0.121025
6 10 100 8 0.16194
7 10 100 8 0.214123
8 10 100 8 0.163116
1 11 100 8 0.00043469
2 11 100 8 0.0550195
3 11 100 8 0.147105
4 11 100 8 0.0955586
5 11 100 8 0.117136
6 11 100 8 0.157627
7 11 100 8 0.150693
8 11 100 8 0.276426
1 12 100 8 0.209821
2 12 100 8 0.0758877
3 12 100 8 0.000214281
4 12 100 8 0.149666
5 12 100 8 0.134996
6 12 100 8 0.150002
7 12 100 8 0.147982
8 12 100 8 0.131431
1 13 100 8 0.172254
2 13 100 8 0.143085
4 13 100 8 0.143005
5 13 100 8 0.142284
6 13 100 8 0.284794
7 13 100 8 0.114578
1 14 100 8 0.00409296
2 14 100 8 0.444326
3 14 100 8 0.000368068
4 14 100 8 0.000487474
5 14 100 8 0.00329063
6 14 100 8 0.000225767
7 14 100 8 0.100861
8 14 100 8 0.446349
1 15 100 8 3.05162e-05
2 15 100 8 0.0741495
3 15 100 8 0.146984
4 15 100 8 0.000121857
5 15 100 8 0.183725
6 15 100 8 0.218032
7 15 100 8 0.212698
8 15 100 8 0.164259
6 16 100 8 1
2 0 100 9 0.171728
3 0 100 9 0.106554
4 0 100 9 0.171709
5 0 100 9 0.102734
6 0 100 9 0.172542
7 0 100 9 0.171706
8 0 100 9 0.103026
9 0 100 9 8.1287e-07
1 1 100 9 0.831859
2 1 100 9 0.168141
4 1 100 9 5.75422e-07
1 2 100 9 0.157167
2 2 100 9 0.365437
3 2 100 9 0.261942
4 2 100 9 0.215425
9 2 100 9 2.95916e-05
1 3 100 9 0.03542
2 3 100 9 0.0711681
3 3 100 9 0.244275
4 3 100 9 0.179352
5 3 100 9 0.186824
6 3 100 9 0.0708406
7 3 100 9 0.0350262
8 3 100 9 0.07084
9 3 100 9 0.106254
1 4 100 9 0.106629
2 4 100 9 0.159024
3 4 100 9 0.104026
4 4 100 9 0.150346
5 4 100 9 0.159944
6 4 100 9 0.0533145
7 4 100 9 0.106627
8 4 100 9 0.0533115
9 4 100 9 0.106778
1 5 100 9 0.0789525
3 5 100 9 0.0790079
4 5 100 9 0.0792973
5 5 100 9 0.30233
6 5 100 9 0.460412
1 6 100 9 0.100858
2 6 100 9 0.201755
3 6 100 9 0.20224
5 6 100 9 0.393038
6 6 100 9 0.100878
7 6 100 9 0.00112302
8 6 100 9 0.000102537
9 6 100 9 4.69261e-06
3 7 100 9 0.0396861
4 7 100 9 0.159509
5 7 100 9 0.119633
6 7 100 9 0.204804
7 7 100 9 0.197221
8 7 100 9 0.119632
9 7 100 9 0.159516
4 8 100 9 0.0590235
5 8 100 9 0.0588382
6 8 100 9 0.117645
7 8 100 9 0.293931
8 8 100 9 0.294096
9 8 100 9 0.176466
1 9 100 9 0.0451956
2 9 100 9 3.49534e-06
3 9 100 9 0.0925974
4 9 100 9 0.0903918
5 9 100 9 0.0455661
6 9 100 9 0.135587
7 9 100 9 0.0928172
8 9 100 9 0.226856
9 9 100 9 0.270986
1 10 100 9 0.15793
2 10 100 9 0.15792
3 10 100 9 0.052704
5 10 100 9 0.000120701
6 10 100 9 0.000439698
7 10 100 9 0.158119
8 10 100 9 0.262138
9 10 100 9 0.210629
2 11 100 9 0.199951
3 11 100 9 0.000337473
5 11 100 9 4.73837e-05
6 11 100 9 1.9944e-05
7 11 100 9 0.199919
8 11 100 9 0.199942
9 11 100 9 0.399782
2 12 100 9 0.171762
3 12 100 9 0.343539
4 12 100 9 5.39293e-05
5 12 100 9 0.168802
6 12 100 9 0.172145
8 12 100 9 0.143679
9 12 100 9 1.96317e-05
3 13 100 9 0.000429307
4 13 100 9 0.294408
5 13 100 9 0.315791
6 13 100 9 5.41514e-05
7 13 100 9 0.177931
8 13 100 9 0.0299547
9 13 100 9 0.181432
2 14 100 9 0.436346
6 14 100 9 0.563654
2 15 100 9 0.87323
6 15 100 9 0.12677
2 16 100 9 0.000115507
5 16 100 9 0.00178371
6 16 100 9 0.249574
7 16 100 9 0.249509
8 16 100 9 0.249509
9 16 100 9 0.249509
3 17 100 9 0.497447
4 17 100 9 0.000932203
5 17 100 9 0.000809182
7 17 100 9 7.34136e-05
8 17 100 9 0.00035466
9 17 100 9 0.500383
2 18 100 9 0.851082
6 18 100 9 0.148918
7 19 100 9 1
2 0 100 10 0.193349
3 0 100 10 0.148067
4 0 100 10 0.150372
5 0 100 10 0.0899321
6 0 100 10 0.0434689
7 0 100 10 0.0860222
8 0 100 10 0.0964891
9 0 100 10 0.149333
10 0 100 10 0.0429667
1 1 100 10 0.550312
2 1 100 10 0.0985199
3 1 100 10 0.123894
4 1 100 10 0.0206731
5 1 100 10 0.0619766
6 1 100 10 0.0619735
7 1 100 10 0.0206662
8 1 100 10 0.0413258
9 1 100 10 0.0206591
10 1 100 10 2.49508e-07
1 2 100 10 0.118491
2 2 100 10 0.234563
3 2 100 10 0.166936
4 2 100 10 0.0640816
5 2 100 10 0.027187
6 2 100 10 0.108101
7 2 100 10 0.150349
8 2 100 10 0.0289826
9 2 100 10 0.0469344
10 2 100 10 0.054374
1 3 100 10 0.0728607
2 3 100 10 0.224241
3 3 100 10 0.238331
4 3 100 10 0.185673
5 3 100 10 0.0732269
7 3 100 10 0.011372
8 3 100 10 0.0485738
9 3 100 10 0.0728607
10 3 100 10 0.0728607
1 4 100 10 0.11136
2 4 100 10 0.187156
3 4 100 10 0.11481
4 4 100 10 0.178244
5 4 100 10 0.112164
6 4 100 10 0.166557
7 4 100 10 0.111234
8 4 100 10 0.00305534
9 4 100 10 0.0151913
10 4 100 10 0.000228531
1 5 100 10 0.0423258
3 5 100 10 0.086066
4 5 100 10 0.288487
5 5 100 10 0.197643
6 5 100 10 0.0941852
7 5 100 10 4.27035e-05
8 5 100 10 0.206504
9 5 100 10 0.0847469
1 6 100 10 0.0432147
2 6 100 10 0.000144891
3 6 100 10 0.0864507
4 6 100 10 0.12821
5 6 100 10 0.178984
6 6 100 10 0.17292
7 6 100 10 0.258955
9 6 100 10 0.0446697
10 6 100 10 0.0864503
1 7 100 10 0.0996841
2 7 100 10 0.0498199
3 7 100 10 0.0525345
4 7 100 10 0.0498022
5 7 100 10 0.149386
6 7 100 10 0.0995801
7 7 100 10 0.09983
8 7 100 10 0.0995736
9 7 100 10 0.150265
10 7 100 10 0.149525
2 8 100 10 0.0668538
3 8 100 10 0.0668185
4 8 100 10 0.133871
5 8 100 10 0.215856
6 8 100 10 0.151061
7 8 100 10 0.111465
8 8 100 10 0.0891463
9 8 100 10 0.0969585
10 8 100 10 0.0679692
1 9 100 10 0.0214071
2 9 100 10 0.0428141
4 9 100 10 0.0214652
5 9 100 10 0.0922975
6 9 100 10 0.209274
7 9 100 10 0.127784
8 9 100 10 0.160783
9 9 100 10 0.163767
10 9 100 10 0.160408
1 10 100 10 0.0921247
2 10 100 10 0.0922436
3 10 100 10 0.0922735
4 10 100 10 0.0614032
5 10 100 10 0.061583
6 10 100 10 0.0309449
7 10 100 10 0.0622638
8 10 100 10 0.215203
9 10 100 10 0.122828
10 10 100 10 0.169133
1 11 100 10 1.61329e-05
3 11 100 10 0.106587
4 11 100 10 0.106482
5 11 100 10 0.0709903
6 11 100 10 0.114142
7 11 100 10 0.177477
8 11 100 10 0.106549
9 11 100 10 0.106534
10 11 100 10 0.211221
1 12 100 10 0.000589798
2 12 100 10 7.93489e-06
3 12 100 10 7.4052e-05
4 12 100 10 0.083517
5 12 100 10 0.0821703
6 12 100 10 0.0840981
7 12 100 10 0.257563
8 12 100 10 0.294776
9 12 100 10 0.112544
10 12 100 10 0.0846591
1 13 100 10 0.00138218
2 13 100 10 5.83099e-06
3 13 100 10 1.05767e-05
4 13 100 10 3.50743e-05
5 13 100 10 9.45089e-07
6 13 100 10 0.261133
7 13 100 10 0.0371184
8 13 100 10 0.326952
9 13 100 10 0.232331
10 13 100 10 0.141031
1 14 100 10 0.00715098
2 14 100 10 6.46892e-06
3 14 100 10 0.000246362
4 14 100 10 2.08078e-05
5 14 100 10 0.0104443
6 14 100 10 0.10593
7 14 100 10 0.107928
8 14 100 10 0.0444978
9 14 100 10 0.301226
10 14 100 10 0.42255
2 15 100 10 5.07076e-06
3 15 100 10 1.78e-05
4 15 100 10 0.000381674
5 15 100 10 1.34375e-06
7 15 100 10 0.000600665
8 15 100 10 6.89427e-06
9 15 100 10 0.00577787
10 15 100 10 0.993209
3 16 100 10 1.49937e-05
4 16 100 10 6.61289e-05
5 16 100 10 5.4886e-06
6 16 100 10 0.00683902
7 16 100 10 0.322994
8 16 100 10 0.00812998
9 16 100 10 0.336903
10 16 100 10 0.325047
1 17 100 10 3.69241e-06
3 17 100 10 0.000223465
4 17 100 10 8.38996e-06
5 17 100 10 5.57774e-06
6 17 100 10 0.00130798
7 17 100 10 0.00834652
8 17 100 10 0.488177
9 17 100 10 2.28693e-05
10 17 100 10 0.501905
2 18 100 10 1.8245e-05
3 18 100 10 4.72542e-06
6 18 100 10 1.65914e-06
7 18 100 10 0.0146972
8 18 100 10 0.491302
9 18 100 10 0.000123471
10 18 100 10 0.493852
5 19 100 10 0.590594
6 19 100 10 0.409406
1 20 100 10 0.131987
2 20 100 10 0.131381
3 20 100 10 6.15631e-07
4 20 100 10 0.0547021
5 20 100 10 0.12398
6 20 100 10 0.132456
7 20 100 10 0.132458
8 20 100 10 0.0281198
9 20 100 10 0.132458
10 20 100 10 0.132458
10 21 100 10 1
2 0 100 11 0.0518312
3 0 100 11 0.0847978
4 0 100 11 0.123161
5 0 100 11 0.123277
6 0 100 11 0.137855
7 0 100 11 0.100699
8 0 100 11 0.0349113
9 0 100 11 0.103361
10 0 100 11 0.221474
11 0 100 11 0.0186322
1 1 100 11 0.761098
2 1 100 11 0.134944
3 1 100 11 0.0329187
5 1 100 11 0.0658153
7 1 100 11 0.00522437
1 2 100 11 0.172136
2 2 100 11 0.425103
3 2 100 11 0.174989
4 2 100 11 0.0572546
5 2 100 11 0.0284566
6 2 100 11 0.085177
8 2 100 11 0.028434
9 2 100 11 0.028434
10 2 100 11 1.66836e-05
1 3 100 11 0.0245018
2 3 100 11 0.194027
3 3 100 11 0.146637
4 3 100 11 0.158006
5 3 100 11 0.0642222
6 3 100 11 0.0247568
7 3 100 11 0.123767
8 3 100 11 0.0989879
9 3 100 11 0.0251893
10 3 100 11 0.0493507
11 3 100 11 0.0905533
1 4 100 11 0.114521
2 4 100 11 0.039431
3 4 100 11 0.247575
4 4 100 11 0.175737
5 4 100 11 0.26734
6 4 100 11 0.00189205
9 4 100 11 0.0381735
10 4 100 11 0.0389798
11 4 100 11 0.0763507
1 5 100 11 0.0494369
2 5 100 11 0.053402
3 5 100 11 0.120496
4 5 100 11 0.150123
5 5 100 11 0.180558
6 5 100 11 0.0504683
7 5 100 11 0.0494394
8 5 100 11 0.0494373
9 5 100 11 0.148319
10 5 100 11 0.0494406
11 5 100 11 0.0988797
1 6 100 11 0.0333991
2 6 100 11 0.0333836
3 6 100 11 0.0624013
4 6 100 11 0.133097
5 6 100 11 0.170107
6 6 100 11 0.167064
7 6 100 11 0.100152
8 6 100 11 0.100092
9 6 100 11 0.0667723
10 6 100 11 0.100151
11 6 100 11 0.033381
1 7 100 11 0.044431
2 7 100 11 0.0481903
3 7 100 11 0.044431
4 7 100 11 0.0222155
5 7 100 11 0.105604
6 7 100 11 0.198973
7 7 100 11 0.133576
8 7 100 11 0.185458
9 7 100 11 0.0222155
10 7 100 11 0.106044
11 7 100 11 0.0888619
2 8 100 11 0.0424352
3 8 100 11 0.204483
4 8 100 11 0.255388
5 8 100 11 0.0892327
6 8 100 11 0.000350575
7 8 100 11 0.152621
8 8 100 11 0.0510788
9 8 100 11 0.0510792
10 8 100 11 0.153237
11 8 100 11 9.45567e-05
1 9 100 11 0.00393747
3 9 100 11 0.017332
4 9 100 11 0.0520952
5 9 100 11 0.104002
6 9 100 11 0.0865519
7 9 100 11 0.17332
8 9 100 11 0.138657
9 9 100 11 0.173349
10 9 100 11 0.0556265
11 9 100 11 0.195128
1 10 100 11 0.0782025
2 10 100 11 0.0863483
3 10 100 11 0.0215871
4 10 100 11 0.064762
5 10 100 11 0.0651601
6 10 100 11 0.106439
7 10 100 11 0.0650136
8 10 100 11 0.186771
9 10 100 11 0.131244
10 10 100 11 0.107936
11 10 100 11 0.086536
1 11 100 11 0.0231732
2 11 100 11 0.116104
3 11 100 11 0.160969
4 11 100 11 0.0740386
5 11 100 11 0.0460973
6 11 100 11 0.0591079
7 11 100 11 0.0722317
8 11 100 11 0.0374548
9 11 100 11 0.186736
10 11 100 11 0.0742448
11 11 100 11 0.149843
1 12 100 11 0.0531794
2 12 100 11 0.0725501
3 12 100 11 0.143529
4 12 100 11 0.150025
5 12 100 11 0.107466
6 12 100 11 0.0388253
7 12 100 11 0.0776506
8 12 100 11 0.000445196
9 12 100 11 0.0757566
10 12 100 11 0.125182
11 12 100 11 0.155391
2 13 100 11 0.00106297
3 13 100 11 0.0591384
4 13 100 11 0.124174
5 13 100 11 0.0710232
6 13 100 11 0.121781
7 13 100 11 0.0594225
8 13 100 11 0.123069
9 13 100 11 0.118104
10 13 100 11 0.224652
11 13 100 11 0.0975736
1 14 100 11 0.0842148
2 14 100 11 0.0389092
3 14 100 11 0.0423432
4 14 100 11 0.00697711
5 14 100 11 0.000471866
6 14 100 11 0.106862
7 14 100 11 0.167886
8 14 100 11 0.187452
9 14 100 11 0.212934
10 14 100 11 0.0402545
11 14 100 11 0.111696
1 15 100 11 0.383519
2 15 100 11 0.00349899
3 15 100 11 0.00018845
4 15 100 11 0.164849
5 15 100 11 0.00310416
6 15 100 11 5.68237e-06
7 15 100 11 0.192364
8 15 100 11 2.17207e-05
9 15 100 11 0.00536436
10 15 100 11 0.00199956
11 15 100 11 0.245085
1 16 100 11 0.0729507
2 16 100 11 0.142605
3 16 100 11 0.0768041
4 16 100 11 4.5265e-05
5 16 100 11 0.00103367
6 16 100 11 0.24557
7 16 100 11 0.145568
8 16 100 11 0.000889695
9 16 100 11 0.0751742
10 16 100 11 0.0165868
11 16 100 11 0.222773
1 17 100 11 1.65369e-06
2 17 100 11 0.000624221
3 17 100 11 0.215702
4 17 100 11 0.174871
5 17 100 11 0.00049938
6 17 100 11 0.0903379
7 17 100 11 0.0617052
8 17 100 11 0.268042
9 17 100 11 0.0596532
10 17 100 11 0.00230235
11 17 100 11 0.126262
2 18 100 11 0.112721
3 18 100 11 0.00236905
5 18 100 11 0.000221445
7 18 100 11 0.881173
9 18 100 11 0.00319903
11 18 100 11 0.000316502
1 19 100 11 0.316178
8 19 100 11 0.000219677
9 19 100 11 6.71979e-06
10 19 100 11 0.683596
3 20 100 11 0.000121253
7 20 100 11 0.00421759
8 20 100 11 5.19461e-06
11 20 100 11 0.995656
2 21 100 11 1.29648e-05
3 21 100 11 8.71758e-06
4 21 100 11 1.97779e-06
6 21 100 11 5.52331e-07
8 21 100 11 0.45756
9 21 100 11 0.542415
1 22 100 11 0.00052787
2 22 100 11 6.53762e-06
3 22 100 11 3.34564e-06
7 22 100 11 0.000241219
8 22 100 11 0.00014561
9 22 100 11 0.00174113
10 22 100 11 0.498666
11 22 100 11 0.498668
1 23 100 11 0.100919
2 23 100 11 0.189013
6 23 100 11 0.00599016
8 23 100 11 0.18787
9 23 100 11 0.153551
10 23 100 11 0.189019
11 23 100 11 0.173639
2 0 100 12 0.114203
3 0 100 12 0.0460394
4 0 100 12 0.137428
5 0 100 12 0.076527
6 0 100 12 0.13258
7 0 100 12 0.0916826
8 0 100 12 0.137647
9 0 100 12 0.10855
10 0 100 12 0.0314441
11 0 100 12 0.123898
12 0 100 12 2.85137e-07
1 1 100 12 0.782749
2 1 100 12 0.0679283
3 1 100 12 0.0891665
4 1 100 12 0.0297224
5 1 100 12 5.35978e-07
6 1 100 12 1.02342e-06
7 1 100 12 0.0299976
9 1 100 12 0.000405438
10 1 100 12 4.19559e-06
12 1 100 12 2.46703e-05
1 2 100 12 0.112166
2 2 100 12 0.307299
3 2 100 12 0.216189
4 2 100 12 0.192283
5 2 100 12 0.0721062
6 2 100 12 0.0241748
7 2 100 12 0.00428888
8 2 100 12 0.0714919
12 2 100 12 1.23789e-06
1 3 100 12 0.0963328
2 3 100 12 0.159847
3 3 100 12 0.148262
4 3 100 12 0.0495227
5 3 100 12 0.123795
6 3 100 12 0.0992331
7 3 100 12 0.0990396
8 3 100 12 0.0256499
9 3 100 12 0.0497599
10 3 100 12 0.0495188
11 3 100 12 0.0247614
12 3 100 12 0.0742783
1 4 100 12 0.0700528
2 4 100 12 0.0991712
3 4 100 12 0.228799
4 4 100 12 0.199467
5 4 100 12 0.0737531
6 4 100 12 0.0661661
7 4 100 12 0.196165
10 4 100 12 1.8386e-06
11 4 100 12 0.0332134
12 4 100 12 0.033211
1 5 100 12 0.0610182
2 5 100 12 0.152561
3 5 100 12 0.0610316
4 5 100 12 0.152428
5 5 100 12 0.0679903
6 5 100 12 0.0915381
7 5 100 12 0.153741
8 5 100 12 0.0610242
9 5 100 12 0.0911348
10 5 100 12 0.0465063
11 5 100 12 0.0305111
12 5 100 12 0.0305162
1 6 100 12 0.000215885
2 6 100 12 1.51158e-05
3 6 100 12 0.188826
4 6 100 12 0.0463603
5 6 100 12 0.215816
7 6 100 12 0.0461431
8 6 100 12 0.138427
9 6 100 12 0.0919015
10 6 100 12 0.0461425
11 6 100 12 0.138428
12 6 100 12 0.0877235
1 7 100 12 0.0387804
2 7 100 12 0.0387855
3 7 100 12 0.0725197
4 7 100 12 0.193835
5 7 100 12 0.119631
6 7 100 12 0.155203
7 7 100 12 0.109745
8 7 100 12 0.116338
9 7 100 12 4.24078e-05
11 7 100 12 0.0387804
12 7 100 12 0.116341
2 8 100 12 0.0308764
3 8 100 12 0.0663852
4 8 100 12 0.0925983
5 8 100 12 0.092641
6 8 100 12 0.124661
7 8 100 12 0.191638
8 8 100 12 0.185105
9 8 100 12 0.061779
10 8 100 12 0.0617227
11 8 100 12 0.0308645
12 8 100 12 0.061729
1 9 100 12 0.0316669
2 9 100 12 0.0316659
3 9 100 12 0.0633301
5 9 100 12 0.126455
6 9 100 12 0.126627
7 9 100 12 0.181133
8 9 100 12 0.0636092
9 9 100 12 0.153161
10 9 100 12 0.0956931
11 9 100 12 0.0949951
12 9 100 12 0.031665
2 10 100 12 0.000455755
3 10 100 12 0.035236
4 10 100 12 0.035236
5 10 100 12 0.140951
6 10 100 12 0.186877
7 10 100 12 0.0372313
8 10 100 12 0.0704953
9 10 100 12 0.105708
10 10 100 12 0.281144
11 10 100 12 0.062652
12 10 100 12 0.0440131
1 11 100 12 0.081579
2 11 100 12 1.39998e-06
3 11 100 12 0.000163271
4 11 100 12 0.12251
5 11 100 12 0.0423639
6 11 100 12 0.0408461
7 11 100 12 0.0813883
8 11 100 12 0.121567
9 11 100 12 0.0410658
10 11 100 12 0.141904
11 11 100 12 0.124341
12 11 100 12 0.20227
1 12 100 12 0.0382072
2 12 100 12 0.0957555
3 12 100 12 0.0574317
4 12 100 12 0.0191505
5 12 100 12 0.108018
6 12 100 12 0.114469
7 12 100 12 0.019137
8 12 100 12 0.0229811
9 12 100 12 0.193282
10 12 100 12 0.137482
11 12 100 12 0.0971631
12 12 100 12 0.0969224
2 13 100 12 0.000196207
3 13 100 12 0.0233548
4 13 100 12 0.000386976
6 13 100 12 0.0437079
7 13 100 12 0.0435974
8 13 100 12 0.0790942
9 13 100 12 0.174342
10 13 100 12 0.286094
11 13 100 12 0.0871948
12 13 100 12 0.262032
1 14 100 12 0.0527111
2 14 100 12 0.000266765
3 14 100 12 0.0423828
4 14 100 12 0.000101673
5 14 100 12 0.0559289
6 14 100 12 0.039002
7 14 100 12 0.0530486
8 14 100 12 0.0531036
9 14 100 12 0.0655838
10 14 100 12 0.183321
11 14 100 12 0.268219
12 14 100 12 0.186331
1 15 100 12 3.92183e-06
2 15 100 12 0.0617467
3 15 100 12 0.0674385
4 15 100 12 0.0072074
5 15 100 12 0.031236
6 15 100 12 0.000687833
7 15 100 12 0.0923398
8 15 100 12 0.230042
9 15 100 12 0.143736
10 15 100 12 0.0983193
11 15 100 12 0.11172
12 15 100 12 0.155523
1 16 100 12 0.000859287
2 16 100 12 0.00327495
3 16 100 12 0.000213512
4 16 100 12 0.0640562
5 16 100 12 0.0640632
6 16 100 12 0.0602889
7 16 100 12 0.00781938
8 16 100 12 0.0662016
9 16 100 12 0.0672963
10 16 100 12 0.222808
11 16 100 12 0.193302
12 16 100 12 0.249816
2 17 100 12 0.000368361
3 17 100 12 9.26041e-07
4 17 100 12 1.65694e-07
5 17 100 12 2.16037e-05
6 17 100 12 2.78645e-07
7 17 100 12 0.00235502
8 17 100 12 4.759e-05
9 17 100 12 0.209121
10 17 100 12 0.0470611
11 17 100 12 0.417794
12 17 100 12 0.323229
1 18 100 12 0.153839
2 18 100 12 0.153839
3 18 100 12 0.153838
4 18 100 12 0.153842
5 18 100 12 0.231496
6 18 100 12 0.000712165
7 18 100 12 0.000646779
8 18 100 12 0.144382
9 18 100 12 0.00542903
10 18 100 12 0.00168825
11 18 100 12 2.70603e-05
12 18 100 12 0.00025969
2 19 100 12 4.47351e-06
3 19 100 12 0.00134088
4 19 100 12 1.24822e-05
5 19 100 12 0.226961
6 19 100 12 0.000342257
8 19 100 12 2.71814e-05
9 19 100 12 5.104e-05
10 19 100 12 0.192907
11 19 100 12 0.192907
12 19 100 12 0.385447
1 20 100 12 0.256758
2 20 100 12 0.0010805
3 20 100 12 6.06399e-05
5 20 100 12 1.36559e-05
6 20 100 12 0.261222
7 20 100 12 0.480627
8 20 100 12 4.9378e-05
9 20 100 12 2.07028e-05
10 20 100 12 1.81492e-05
11 20 100 12 1.10729e-05
12 20 100 12 0.000138577
1 21 100 12 0.00214589
2 21 100 12 0.236303
3 21 100 12 0.237234
4 21 100 12 0.255347
5 21 100 12 1.18986e-06
6 21 100 12 0.237828
7 21 100 12 0.0305535
8 21 100 12 0.000586325
10 21 100 12 1.30906e-06
4 22 100 12 0.00375484
5 22 100 12 1.73959e-05
6 22 100 12 1.94844e-05
7 22 100 12 0.00178614
8 22 100 12 0.279698
9 22 100 12 0.146545
10 22 100 12 0.146567
11 22 100 12 0.146578
12 22 100 12 0.275034
1 0 100 13 0.000532883
2 0 100 13 0.0854021
3 0 100 13 0.113838
4 0 100 13 0.127066
5 0 100 13 0.099279
6 0 100 13 0.0634995
7 0 100 13 0.0997254
8 0 100 13 0.114121
9 0 100 13 0.0737846
10 0 100 13 0.0230796
11 0 100 13 0.0569869
12 0 100 13 0.128439
13 0 100 13 0.0142464
1 1 100 13 0.779283
2 1 100 13 0.115574
3 1 100 13 0.0350466
4 1 100 13 9.20405e-07
6 1 100 13 0.0350466
7 1 100 13 9.91415e-07
8 1 100 13 0.0350466
9 1 100 13 1.20525e-06
1 2 100 13 0.211965
2 2 100 13 0.340164
3 2 100 13 0.182305
4 2 100 13 0.0982312
5 2 100 13 0.0654545
6 2 100 13 0.0287673
7 2 100 13 6.12646e-07
8 2 100 13 1.79696e-06
9 2 100 13 0.0481851
10 2 100 13 0.000706495
11 2 100 13 1.69988e-05
12 2 100 13 0.0241867
13 2 100 13 1.46622e-05
1 3 100 13 0.0360858
2 3 100 13 0.361993
3 3 100 13 0.26307
4 3 100 13 0.15029
5 3 100 13 0.0375454
7 3 100 13 0.0750993
8 3 100 13 0.0383677
9 3 100 13 4.30229e-06
13 3 100 13 0.0375446
1 4 100 13 0.0601546
2 4 100 13 0.0200421
3 4 100 13 0.100208
4 4 100 13 0.176378
5 4 100 13 0.140393
6 4 100 13 0.12025
7 4 100 13 0.0581818
8 4 100 13 0.0777967
9 4 100 13 0.0403126
10 4 100 13 0.0794062
11 4 100 13 0.0601247
12 4 100 13 0.0266616
13 4 100 13 0.04009
1 5 100 13 0.0903743
2 5 100 13 0.060127
3 5 100 13 0.0305222
4 5 100 13 0.0870431
5 5 100 13 0.150521
6 5 100 13 0.00349945
7 5 100 13 0.12046
8 5 100 13 0.120495
9 5 100 13 0.145194
10 5 100 13 0.0602726
11 5 100 13 0.101336
12 5 100 13 0.0301248
13 5 100 13 2.95232e-05
1 6 100 13 0.0661554
2 6 100 13 0.0330777
3 6 100 13 0.0661554
4 6 100 13 0.107172
5 6 100 13 0.066123
6 6 100 13 0.165389
7 6 100 13 0.0661164
8 6 100 13 0.0661552
9 6 100 13 0.0661554
10 6 100 13 0.0330777
11 6 100 13 0.0990318
12 6 100 13 0.0992331
13 6 100 13 0.0661582
1 7 100 13 1.82472e-05
3 7 100 13 0.048129
4 7 100 13 0.0664133
5 7 100 13 0.0332171
6 7 100 13 0.0998308
7 7 100 13 0.199089
8 7 100 13 0.0981832
9 7 100 13 0.0994988
10 7 100 13 0.166094
11 7 100 13 0.0332122
12 7 100 13 0.131649
13 7 100 13 0.0246653
1 8 100 13 3.32475e-06
2 8 100 13 0.000136288
3 8 100 13 0.0754415
4 8 100 13 0.0364793
5 8 100 13 0.134001
6 8 100 13 0.17116
7 8 100 13 0.066986
8 8 100 13 0.140049
9 8 100 13 0.10047
10 8 100 13 0.0676427
11 8 100 13 0.0669807
12 8 100 13 0.0334899
13 8 100 13 0.10716
2 9 100 13 0.0261026
3 9 100 13 0.0261042
4 9 100 13 0.0355047
5 9 100 13 0.131274
6 9 100 13 0.207842
7 9 100 13 0.130521
8 9 100 13 0.102214
9 9 100 13 0.0783631
10 9 100 13 0.0783126
11 9 100 13 0.0522085
12 9 100 13 0.0783127
13 9 100 13 0.0532396
1 10 100 13 0.0930732
2 10 100 13 0.0620662
3 10 100 13 0.0299713
4 10 100 13 0.0929841
5 10 100 13 0.0661624
6 10 100 13 0.0375511
7 10 100 13 0.0651932
8 10 100 13 5.83227e-05
9 10 100 13 0.0620656
10 10 100 13 0.135908
11 10 100 13 0.124071
12 10 100 13 0.121818
13 10 100 13 0.109077
1 11 100 13 0.0295931
2 11 100 13 0.0739545
3 11 100 13 0.0744596
4 11 100 13 0.0444337
5 11 100 13 0.0765651
6 11 100 13 0.106586
7 11 100 13 0.0734202
8 11 100 13 0.060951
9 11 100 13 0.0591841
10 11 100 13 0.103332
11 11 100 13 0.0833588
12 11 100 13 0.0986537
13 11 100 13 0.115509
4 12 100 13 0.0295489
5 12 100 13 3.64426e-07
6 12 100 13 0.0535333
7 12 100 13 0.118191
8 12 100 13 0.179982
9 12 100 13 0.145922
10 12 100 13 0.0593374
11 12 100 13 0.206835
12 12 100 13 0.0881071
13 12 100 13 0.118543
1 13 100 13 0.0398528
2 13 100 13 6.51841e-07
4 13 100 13 3.07315e-06
6 13 100 13 0.0399539
7 13 100 13 0.0811754
8 13 100 13 0.157619
9 13 100 13 0.241565
10 13 100 13 0.199281
11 13 100 13 0.0797126
12 13 100 13 0.0014163
13 13 100 13 0.15942
1 14 100 13 0.0553923
2 14 100 13 0.11519
3 14 100 13 0.110777
4 14 100 13 0.110765
6 14 100 13 0.0553743
7 14 100 13 0.0553875
8 14 100 13 0.000132784
9 14 100 13 0.0552676
10 14 100 13 0.166155
11 14 100 13 0.0553928
12 14 100 13 0.110775
13 14 100 13 0.10939
2 15 100 13 5.03039e-05
3 15 100 13 9.63494e-06
4 15 100 13 0.000545388
5 15 100 13 0.214847
6 15 100 13 0.0732134
7 15 100 13 0.0743659
8 15 100 13 0.101415
9 15 100 13 0.0791376
10 15 100 13 0.14306
11 15 100 13 0.169519
12 15 100 13 0.0703961
13 15 100 13 0.0734416
1 16 100 13 0.0408605
2 16 100 13 0.0695547
3 16 100 13 0.141429
4 16 100 13 0.0784414
5 16 100 13 0.0812871
6 16 100 13 0.014474
7 16 100 13 0.00746111
8 16 100 13 0.0394858
9 16 100 13 0.0319889
10 16 100 13 0.0999775
11 16 100 13 0.147781
12 16 100 13 0.111936
13 16 100 13 0.135323
1 17 100 13 0.0766967
2 17 100 13 0.048897
3 17 100 13 0.0426045
4 17 100 13 0.0399409
5 17 100 13 0.000515591
6 17 100 13 0.0411561
7 17 100 13 0.0798962
8 17 100 13 0.00486878
9 17 100 13 0.125817
10 17 100 13 0.101239
11 17 100 13 0.0851156
12 17 100 13 0.129157
13 17 100 13 0.224096
1 18 100 13 2.39001e-05
2 18 100 13 2.56824e-07
3 18 100 13 4.85116e-05
4 18 100 13 8.70106e-06
5 18 100 13 0.0290997
6 18 100 13 3.13298e-06
7 18 100 13 6.22921e-05
8 18 100 13 0.000802121
9 18 100 13 0.101609
10 18 100 13 0.149211
11 18 100 13 0.228109
12 18 100 13 0.197934
13 18 100 13 0.293089
2 19 100 13 0.0364321
3 19 100 13 0.00199719
5 19 100 13 0.0284019
6 19 100 13 6.32037e-05
7 19 100 13 0.00632548
9 19 100 13 0.223559
10 19 100 13 9.99673e-05
11 19 100 13 0.00193903
13 19 100 13 0.701183
1 20 100 13 5.9385e-05
6 20 100 13 0.00695862
7 20 100 13 6.64411e-05
8 20 100 13 0.000112119
9 20 100 13 2.06617e-05
10 20 100 13 1.26693e-05
11 20 100 13 4.38817e-05
12 20 100 13 0.0170107
13 20 100 13 0.975716
4 21 100 13 4.61116e-07
6 21 100 13 0.123248
7 21 100 13 0.124782
8 21 100 13 0.125308
9 21 100 13 0.125332
10 21 100 13 0.125334
11 21 100 13 0.125327
12 21 100 13 0.125329
13 21 100 13 0.125338
3 22 100 13 0.0327773
5 22 100 13 0.967223
8 23 100 13 1
5 24 100 13 1
5 25 100 13 0.0385815
11 25 100 13 0.961419
4 35 100 13 1
10 39 100 13 0.123001
12 39 100 13 0.876999
1 0 100 14 0.0188581
2 0 100 14 0.0775195
3 0 100 14 0.0791059
4 0 100 14 0.0866012
5 0 100 14 0.0572502
6 0 100 14 0.0844777
7 0 100 14 0.114054
8 0 100 14 0.0870217
9 0 100 14 0.0775865
10 0 100 14 0.0958738
11 0 100 14 0.0751922
12 0 100 14 0.0397961
13 0 100 14 0.0969604
14 0 100 14 0.00970271
1 1 100 14 0.625814
2 1 100 14 0.124679
3 1 100 14 0.0311666
4 1 100 14 0.0934721
5 1 100 14 0.062334
6 1 100 14 8.67161e-05
9 1 100 14 0.0311696
10 1 100 14 0.031271
11 1 100 14 6.45421e-06
14 1 100 14 3.21779e-07
1 2 100 14 0.267387
2 2 100 14 0.391111
3 2 100 14 0.121867
4 2 100 14 0.0730762
5 2 100 14 0.0730763
6 2 100 14 0.0490537
8 2 100 14 1.3452e-05
9 2 100 14 0.024376
10 2 100 14 1.05355e-05
12 2 100 14 1.95021e-05
14 2 100 14 9.02282e-06
1 3 100 14 0.289098
2 3 100 14 0.199914
3 3 100 14 0.305593
4 3 100 14 0.108829
6 3 100 14 0.0465899
7 3 100 14 3.88361e-05
8 3 100 14 0.0499281
12 3 100 14 1.63137e-06
14 3 100 14 8.39043e-06
1 4 100 14 0.103354
2 4 100 14 0.187077
3 4 100 14 0.140261
4 4 100 14 0.140271
5 4 100 14 0.144965
6 4 100 14 0.00313909
8 4 100 14 0.0467692
10 4 100 14 0.0935383
11 4 100 14 0.0469182
12 4 100 14 0.0468673
13 4 100 14 7.17363e-05
14 4 100 14 0.0467692
2 5 100 14 2.43871e-05
3 5 100 14 0.208506
4 5 100 14 0.249138
5 5 100 14 0.182646
6 5 100 14 0.109588
7 5 100 14 0.0365309
8 5 100 14 1.43609e-06
9 5 100 14 0.0365292
11 5 100 14 0.0365292
12 5 100 14 0.0365297
13 5 100 14 0.0365292
14 5 100 14 0.0674475
1 6 100 14 0.187312
2 6 100 14 0.0936555
3 6 100 14 0.280938
4 6 100 14 0.142659
5 6 100 14 0.146506
6 6 100 14 0.09352
7 6 100 14 0.00843338
10 6 100 14 0.000147516
11 6 100 14 0.0468279
1 7 100 14 0.00105343
2 7 100 14 0.228524
4 7 100 14 0.228015
5 7 100 14 0.128005
6 7 100 14 4.54573e-06
7 7 100 14 0.17778
8 7 100 14 0.0946338
9 7 100 14 0.0473177
10 7 100 14 0.0473498
13 7 100 14 0.0473178
1 8 100 14 0.0662029
2 8 100 14 0.0387261
3 8 100 14 0.231977
4 8 100 14 0.00584974
5 8 100 14 0.137949
6 8 100 14 0.0763441
7 8 100 14 0.177241
8 8 100 14 0.0670918
9 8 100 14 0.0662057
10 8 100 14 0.0331036
11 8 100 14 0.0331021
12 8 100 14 0.0331021
14 8 100 14 0.0331051
3 9 100 14 2.17981e-05
4 9 100 14 0.000801706
5 9 100 14 0.0384932
6 9 100 14 0.0768275
7 9 100 14 0.19167
8 9 100 14 0.230403
9 9 100 14 0.188546
10 9 100 14 0.081209
11 9 100 14 0.0384117
12 9 100 14 0.0767933
13 9 100 14 0.0384117
14 9 100 14 0.0384117
3 10 100 14 2.45456e-06
4 10 100 14 0.085959
5 10 100 14 0.114539
6 10 100 14 0.114458
7 10 100 14 0.171966
8 10 100 14 0.114601
9 10 100 14 0.169185
10 10 100 14 0.114481
11 10 100 14 0.0288619
12 10 100 14 0.0286471
13 10 100 14 0.0286435
14 10 100 14 0.0286556
1 11 100 14 0.0240189
2 11 100 14 0.0339254
3 11 100 14 0.0240216
4 11 100 14 0.0240238
5 11 100 14 0.0720576
6 11 100 14 0.165541
7 11 100 14 0.0480378
8 11 100 14 0.0738236
9 11 100 14 0.076418
10 11 100 14 0.192075
11 11 100 14 0.0981489
12 11 100 14 0.0960232
13 11 100 14 0.0480377
14 11 100 14 0.0238475
1 12 100 14 0.0292733
2 12 100 14 0.0878384
3 12 100 14 0.0585589
4 12 100 14 0.0293034
5 12 100 14 0.0584999
6 12 100 14 0.0668189
7 12 100 14 0.0293028
8 12 100 14 0.037125
9 12 100 14 0.087729
10 12 100 14 0.0229068
11 12 100 14 0.178224
12 12 100 14 0.0883514
13 12 100 14 0.11408
14 12 100 14 0.111988
2 13 100 14 1.43487e-06
3 13 100 14 0.0430105
4 13 100 14 0.0643369
5 13 100 14 0.0215093
6 13 100 14 0.102943
7 13 100 14 0.131129
8 13 100 14 0.129043
9 13 100 14 0.0430105
10 13 100 14 0.0430111
11 13 100 14 0.0868724
12 13 100 14 0.152465
13 13 100 14 0.139657
14 13 100 14 0.0430105
1 14 100 14 0.05282
2 14 100 14 0.0267101
3 14 100 14 0.0268153
4 14 100 14 0.0530765
5 14 100 14 0.0801156
6 14 100 14 0.0812472
7 14 100 14 0.053412
8 14 100 14 0.0729703
9 14 100 14 0.0802161
10 14 100 14 0.053412
11 14 100 14 0.156357
12 14 100 14 0.0757938
13 14 100 14 0.106936
14 14 100 14 0.0801179
2 15 100 14 0.0116948
3 15 100 14 0.0220285
4 15 100 14 0.0440005
5 15 100 14 0.0219945
6 15 100 14 0.0439889
7 15 100 14 0.0219945
8 15 100 14 0.0659731
9 15 100 14 0.0877674
10 15 100 14 0.131952
11 15 100 14 0.0882635
12 15 100 14 0.143941
13 15 100 14 0.101329
14 15 100 14 0.215072
1 16 100 14 0.0282313
2 16 100 14 0.0145704
3 16 100 14 0.064609
4 16 100 14 0.0323381
5 16 100 14 0.123715
6 16 100 14 0.0571625
7 16 100 14 0.0550676
8 16 100 14 0.106174
9 16 100 14 0.0983431
10 16 100 14 0.0860325
11 16 100 14 0.076718
12 16 100 14 0.0706739
13 16 100 14 0.071942
14 16 100 14 0.114423
1 17 100 14 0.000133774
2 17 100 14 4.8366e-05
3 17 100 14 6.69973e-06
4 17 100 14 0.161568
5 17 100 14 0.00015988
6 17 100 14 0.0862928
7 17 100 14 0.0268303
8 17 100 14 0.00153593
9 17 100 14 0.160498
10 17 100 14 0.0826017
11 17 100 14 0.0827085
12 17 100 14 0.107544
13 17 100 14 0.118589
14 17 100 14 0.171483
1 18 100 14 0.00318453
2 18 100 14 7.42416e-07
3 18 100 14 0.00344229
4 18 100 14 0.00257287
5 18 100 14 0.00105947
6 18 100 14 0.0143247
7 18 100 14 0.0570994
8 18 100 14 0.0871852
9 18 100 14 0.0598518
10 18 100 14 0.133572
11 18 100 14 0.143859
12 18 100 14 0.143114
13 18 100 14 0.170084
14 18 100 14 0.180651
2 19 100 14 6.27503e-06
3 19 100 14 1.87855e-05
4 19 100 14 0.0442009
5 19 100 14 0.0451515
6 19 100 14 0.0886702
7 19 100 14 1.31878e-06
8 19 100 14 0.0866315
9 19 100 14 0.0446375
10 19 100 14 0.0451942
11 19 100 14 0.114412
12 19 100 14 0.207698
13 19 100 14 0.150284
14 19 100 14 0.173094
1 20 100 14 2.2413e-07
2 20 100 14 1.72849e-07
3 20 100 14 4.40624e-06
4 20 100 14 7.71479e-05
5 20 100 14 0.144642
6 20 100 14 0.0744385
7 20 100 14 0.113695
8 20 100 14 0.0720903
9 20 100 14 0.0744301
10 20 100 14 0.110197
11 20 100 14 0.00379005
12 20 100 14 0.0740327
13 20 100 14 0.0750109
14 20 100 14 0.257592
2 21 100 14 0.00023523
3 21 100 14 8.29708e-06
4 21 100 14 1.22766e-06
5 21 100 14 0.00139488
6 21 100 14 0.114832
7 21 100 14 3.70308e-05
8 21 100 14 0.0142882
9 21 100 14 0.339914
10 21 100 14 0.187878
11 21 100 14 0.337671
12 21 100 14 0.000200368
13 21 100 14 1.15912e-05
14 21 100 14 0.00352725
2 22 100 14 0.594744
3 22 100 14 2.57128e-05
4 22 100 14 0.312324
5 22 100 14 8.98816e-06
7 22 100 14 0.0193657
8 22 100 14 8.11985e-05
10 22 100 14 0.0624006
12 22 100 14 0.000862619
13 22 100 14 0.0101873
2 23 100 14 1.11702e-05
4 23 100 14 2.69833e-07
6 23 100 14 1.33956e-06
7 23 100 14 6.22265e-05
8 23 100 14 0.163411
9 23 100 14 0.00136251
10 23 100 14 5.15473e-07
11 23 100 14 0.299227
12 23 100 14 0.252854
13 23 100 14 0.2587
14 23 100 14 0.0243708
1 24 100 14 2.54968e-06
2 24 100 14 8.00444e-07
3 24 100 14 4.86293e-07
4 24 100 14 0.121604
5 24 100 14 0.121878
6 24 100 14 0.121604
7 24 100 14 0.115778
8 24 100 14 0.0444931
9 24 100 14 0.120953
10 24 100 14 0.000439483
11 24 100 14 0.000242024
12 24 100 14 5.12888e-06
13 24 100 14 0.000585498
14 24 100 14 0.352415
4 25 100 14 2.85051e-05
5 25 100 14 0.0432624
6 25 100 14 0.000236871
8 25 100 14 1.1105e-05
9 25 100 14 1.72658e-05
10 25 100 14 0.918896
11 25 100 14 3.55632e-06
12 25 100 14 0.0028357
13 25 100 14 0.00325451
14 25 100 14 0.0314544
2 26 100 14 7.29921e-05
4 26 100 14 4.56282e-05
7 26 100 14 0.0214694
11 26 100 14 1.53407e-05
14 26 100 14 0.978397
3 27 100 14 2.82833e-07
5 27 100 14 1.99202e-06
7 27 100 14 1.07933e-06
9 27 100 14 1.53379e-06
10 27 100 14 0.00102124
11 27 100 14 0.151839
12 27 100 14 0.404713
13 27 100 14 0.151544
14 27 100 14 0.290878
4 28 100 14 0.00346753
5 28 100 14 0.0307222
7 28 100 14 0.792152
11 28 100 14 0.172348
12 28 100 14 0.0013101
4 29 100 14 0.000175754
7 29 100 14 1.35772e-05
11 29 100 14 0.000496729
12 29 100 14 0.00253251
13 29 100 14 0.996781
4 30 100 14 3.56142e-06
7 30 100 14 5.33004e-05
12 30 100 14 2.63358e-05
13 30 100 14 0.0186617
14 30 100 14 0.981255
11 32 100 14 1
1 0 100 15 0.000415835
2 0 100 15 0.0988985
3 0 100 15 0.0727546
4 0 100 15 0.0749084
5 0 100 15 0.0241844
6 0 100 15 0.104457
7 0 100 15 0.0947441
8 0 100 15 0.065017
9 0 100 15 0.113165
10 0 100 15 0.0324228
11 0 100 15 0.0644052
12 0 100 15 0.0859207
13 0 100 15 0.0564096
14 0 100 15 0.0865965
15 0 100 15 0.0257009
1 1 100 15 0.622473
2 1 100 15 0.168362
3 1 100 15 0.0762453
4 1 100 15 0.0946406
5 1 100 15 0.0191918
6 1 100 15 1.47398e-06
7 1 100 15 0.0190855
9 1 100 15 2.4691e-07
12 1 100 15 2.03209e-07
1 2 100 15 0.261725
2 2 100 15 0.34429
3 2 100 15 0.17377
4 2 100 15 0.0608027
5 2 100 15 0.0557465
6 2 100 15 0.0185822
7 2 100 15 0.029362
8 2 100 15 0.0370752
9 2 100 15 0.0185822
10 2 100 15 5.91219e-05
13 2 100 15 4.04051e-07
15 2 100 15 4.49413e-06
1 3 100 15 0.087209
2 3 100 15 0.169017
3 3 100 15 0.286699
4 3 100 15 0.123517
5 3 100 15 0.0863117
6 3 100 15 0.0371703
7 3 100 15 0.0614523
8 3 100 15 0.0248397
9 3 100 15 0.024563
10 3 100 15 0.0248631
11 3 100 15 0.0247913
12 3 100 15 0.0123945
13 3 100 15 0.0123901
14 3 100 15 0.0123903
15 3 100 15 0.0123913
1 4 100 15 0.0982023
2 4 100 15 0.194715
3 4 100 15 0.169684
4 4 100 15 0.345519
5 4 100 15 0.0344311
6 4 100 15 0.0327486
7 4 100 15 4.31379e-05
8 4 100 15 0.000179373
9 4 100 15 0.0327374
10 4 100 15 0.0260278
12 4 100 15 0.0002432
14 4 100 15 0.0327349
15 4 100 15 0.0327342
1 5 100 15 0.0413591
2 5 100 15 0.0413591
3 5 100 15 0.103438
4 5 100 15 0.19056
5 5 100 15 0.224668
6 5 100 15 0.0620392
7 5 100 15 0.0867508
8 5 100 15 0.0620593
9 5 100 15 0.0626699
10 5 100 15 0.0425486
11 5 100 15 0.0413591
12 5 100 15 0.0205052
13 5 100 15 3.95736e-06
14 5 100 15 0.0206787
15 5 100 15 7.20271e-07
1 6 100 15 0.030454
2 6 100 15 0.0236235
3 6 100 15 0.0304422
4 6 100 15 0.0304489
5 6 100 15 0.24326
6 6 100 15 0.245355
7 6 100 15 0.0609204
8 6 100 15 0.122314
9 6 100 15 0.0608965
10 6 100 15 0.0608965
13 6 100 15 0.0609396
14 6 100 15 0.0304482
1 7 100 15 0.0236031
3 7 100 15 3.08072e-06
4 7 100 15 0.0997844
5 7 100 15 0.169762
6 7 100 15 0.169668
7 7 100 15 0.197379
8 7 100 15 0.0969356
9 7 100 15 0.000459154
10 7 100 15 0.0274879
11 7 100 15 0.0484771
12 7 100 15 0.048477
13 7 100 15 0.0452057
14 7 100 15 0.0485194
15 7 100 15 0.0242385
1 8 100 15 4.87963e-06
2 8 100 15 0.0155167
3 8 100 15 0.0310433
4 8 100 15 0.0554189
5 8 100 15 0.121732
6 8 100 15 0.138976
7 8 100 15 0.109015
8 8 100 15 0.13908
9 8 100 15 0.0617691
10 8 100 15 0.0930973
11 8 100 15 0.0469605
12 8 100 15 0.0464349
13 8 100 15 0.0155167
14 8 100 15 0.04801
15 8 100 15 0.0774252
4 9 100 15 2.42151e-07
5 9 100 15 0.0898543
6 9 100 15 0.0766037
7 9 100 15 0.114576
8 9 100 15 0.134705
9 9 100 15 0.0713434
10 9 100 15 0.158072
11 9 100 15 0.0448023
12 9 100 15 0.0673527
13 9 100 15 0.112261
14 9 100 15 0.0449017
15 9 100 15 0.0855268
2 10 100 15 8.76668e-06
3 10 100 15 1.6107e-05
4 10 100 15 0.058565
5 10 100 15 0.0300654
6 10 100 15 0.0586214
7 10 100 15 0.170896
8 10 100 15 0.117162
9 10 100 15 0.0540617
10 10 100 15 0.0925606
11 10 100 15 0.175695
12 10 100 15 0.00100901
13 10 100 15 0.058565
14 10 100 15 0.095243
15 10 100 15 0.0875315
1 11 100 15 2.5403e-07
3 11 100 15 4.08734e-06
5 11 100 15 0.0761039
6 11 100 15 0.0964613
7 11 100 15 0.134197
8 11 100 15 0.119768
9 11 100 15 0.0916797
10 11 100 15 0.144694
11 11 100 15 0.0482334
12 11 100 15 0.0957325
13 11 100 15 0.0723023
14 11 100 15 0.0964667
15 11 100 15 0.0243564
1 12 100 15 0.017286
3 12 100 15 0.0691439
4 12 100 15 0.0692889
5 12 100 15 0.0353417
6 12 100 15 0.0519043
7 12 100 15 0.0228737
8 12 100 15 0.103462
9 12 100 15 0.068474
10 12 100 15 0.0660717
11 12 100 15 0.121006
12 12 100 15 0.138617
13 12 100 15 0.0867063
14 12 100 15 0.0848097
15 12 100 15 0.0650149
1 13 100 15 0.0704561
2 13 100 15 0.0234886
3 13 100 15 0.0304121
4 13 100 15 0.00108973
5 13 100 15 0.0249881
6 13 100 15 0.0605932
7 13 100 15 0.0236499
8 13 100 15 0.0234873
9 13 100 15 0.164097
10 13 100 15 0.140835
11 13 100 15 0.0704472
12 13 100 15 0.0702973
13 13 100 15 0.117423
14 13 100 15 0.117401
15 13 100 15 0.0613341
1 14 100 15 0.0236533
2 14 100 15 0.0473925
3 14 100 15 0.0473066
4 14 100 15 0.048027
5 14 100 15 0.0236533
6 14 100 15 0.0946058
7 14 100 15 0.02365
8 14 100 15 0.0470668
9 14 100 15 0.165772
10 14 100 15 0.141836
11 14 100 15 0.0469049
12 14 100 15 0.0469304
13 14 100 15 0.0232373
14 14 100 15 0.0473066
15 14 100 15 0.172657
1 15 100 15 0.0315614
2 15 100 15 5.63504e-06
4 15 100 15 0.0258621
5 15 100 15 0.0517234
6 15 100 15 0.000592121
7 15 100 15 0.025862
8 15 100 15 0.0511445
9 15 100 15 0.110198
10 15 100 15 0.129375
11 15 100 15 0.154709
12 15 100 15 0.134003
13 15 100 15 0.103477
14 15 100 15 0.0775861
15 15 100 15 0.103899
2 16 100 15 0.0330908
3 16 100 15 0.0165441
4 16 100 15 2.6231e-07
5 16 100 15 2.70671e-07
6 16 100 15 0.0165441
7 16 100 15 0.00394061
8 16 100 15 0.0499503
9 16 100 15 0.081474
10 16 100 15 0.0823488
11 16 100 15 0.181443
12 16 100 15 0.115858
13 16 100 15 0.132378
14 16 100 15 0.117328
15 16 100 15 0.1691
1 17 100 15 0.000290595
2 17 100 15 1.24684e-05
3 17 100 15 0.0239328
4 17 100 15 0.0230209
5 17 100 15 6.83692e-05
6 17 100 15 0.00109478
7 17 100 15 0.0688102
8 17 100 15 0.0489067
9 17 100 15 0.0472983
10 17 100 15 0.0712514
11 17 100 15 0.0478868
12 17 100 15 0.151929
13 17 100 15 0.161102
14 17 100 15 0.140428
15 17 100 15 0.213967
1 18 100 15 0.0394128
2 18 100 15 0.039424
3 18 100 15 2.2995e-05
4 18 100 15 0.0398897
5 18 100 15 0.059616
6 18 100 15 0.000787319
7 18 100 15 7.11827e-05
8 18 100 15 0.000121355
9 18 100 15 0.000689316
10 18 100 15 0.0384449
11 18 100 15 0.0883019
12 18 100 15 0.275123
13 18 100 15 0.251936
14 18 100 15 0.0794921
15 18 100 15 0.0866675
2 19 100 15 4.69469e-07
5 19 100 15 1.05907e-07
6 19 100 15 1.56751e-05
7 19 100 15 7.36092e-06
8 19 100 15 0.00984456
9 19 100 15 1.16281e-05
10 19 100 15 0.00116471
11 19 100 15 0.198657
12 19 100 15 0.0690997
13 19 100 15 0.322652
14 19 100 15 0.197966
15 19 100 15 0.200581
1 20 100 15 4.23705e-07
2 20 100 15 6.21022e-06
3 20 100 15 2.56261e-07
4 20 100 15 1.83411e-07
5 20 100 15 1.22378e-05
6 20 100 15 0.000456808
7 20 100 15 0.102878
8 20 100 15 0.202429
9 20 100 15 0.00108677
10 20 100 15 0.119961
11 20 100 15 0.115811
12 20 100 15 8.4059e-05
13 20 100 15 0.00580051
14 20 100 15 0.117372
15 20 100 15 0.334102
4 21 100 15 0.0810669
5 21 100 15 0.0817633
6 21 100 15 0.0817853
7 21 100 15 0.0826054
8 21 100 15 0.0773999
9 21 100 15 0.104663
10 21 100 15 0.0807665
11 21 100 15 0.146827
12 21 100 15 0.013957
13 21 100 15 0.0864044
14 21 100 15 0.0817784
15 21 100 15 0.0809835
2 22 100 15 6.91938e-06
3 22 100 15 0.000325074
4 22 100 15 1.16562e-06
5 22 100 15 0.292684
6 22 100 15 0.284153
7 22 100 15 0.000230016
8 22 100 15 0.00441436
9 22 100 15 0.0173383
10 22 100 15 0.00052344
11 22 100 15 0.000107079
12 22 100 15 0.104981
13 22 100 15 6.06256e-06
14 22 100 15 9.91712e-07
15 22 100 15 0.295228
1 23 100 15 5.16268e-05
4 23 100 15 0.000141628
5 23 100 15 7.02584e-06
6 23 100 15 7.86558e-07
7 23 100 15 6.74746e-06
8 23 100 15 0.00168926
9 23 100 15 0.219349
10 23 100 15 0.332074
11 23 100 15 0.125017
12 23 100 15 0.0014759
13 23 100 15 0.318892
14 23 100 15 0.00128655
15 23 100 15 9.39645e-06
4 24 100 15 3.66597e-05
5 24 100 15 2.76169e-06
6 24 100 15 0.00972563
7 24 100 15 4.97818e-05
8 24 100 15 3.42372e-05
9 24 100 15 7.97643e-05
10 24 100 15 5.72288e-05
11 24 100 15 0.390441
12 24 100 15 0.000579665
13 24 100 15 0.00343294
14 24 100 15 0.297238
15 24 100 15 0.298322
2 25 100 15 1.23421e-07
6 25 100 15 3.7988e-07
7 25 100 15 0.108745
8 25 100 15 0.107943
9 25 100 15 0.000144647
10 25 100 15 3.65404e-05
11 25 100 15 0.000666175
12 25 100 15 0.283968
13 25 100 15 0.183113
14 25 100 15 0.108949
15 25 100 15 0.206435
4 26 100 15 8.60863e-05
5 26 100 15 0.167013
6 26 100 15 0.166991
7 26 100 15 0.168823
8 26 100 15 0.16882
9 26 100 15 0.159997
10 26 100 15 2.17513e-06
11 26 100 15 4.21532e-06
12 26 100 15 8.84712e-07
13 26 100 15 1.81278e-05
14 26 100 15 0.168243
15 26 100 15 6.68432e-07
2 27 100 15 0.0101597
9 27 100 15 0.98984
6 28 100 15 1.18036e-05
8 28 100 15 7.9302e-07
9 28 100 15 1.5046e-05
10 28 100 15 0.436093
11 28 100 15 0.109843
12 28 100 15 9.6946e-07
13 28 100 15 1.19635e-05
14 28 100 15 0.000818913
15 28 100 15 0.453205
6 29 100 15 0.0654966
7 29 100 15 0.933684
11 29 100 15 0.000819489
6 31 100 15 0.701009
11 31 100 15 0.298991
14 32 100 15 1
6 33 100 15 0.687205
11 33 100 15 0.312796
6 34 100 15 0.000135661
11 34 100 15 0.999864
6 35 100 15 1
6 36 100 15 0.686778
11 36 100 15 0.313222
15 37 100 15 1
1 45 100 15 0.333333
3 45 100 15 0.333333
4 45 100 15 0.333333
15 45 100 15 1.39902e-06
5 46 100 15 0.109907
6 46 100 15 0.109754
8 46 100 15 0.109907
9 46 100 15 0.109907
10 46 100 15 0.109907
11 46 100 15 0.0109932
12 46 100 15 0.109907
13 46 100 15 0.109907
14 46 100 15 0.109907
15 46 100 15 0.109906
1 0 100 16 0.000139321
2 0 100 16 0.0844337
3 0 100 16 0.0368502
4 0 100 16 0.0972021
5 0 100 16 0.0303484
6 0 100 16 0.116119
7 0 100 16 0.0546434
8 0 100 16 0.0732716
9 0 100 16 0.0819863
10 0 100 16 0.0964026
11 0 100 16 0.0790913
12 0 100 16 0.0600893
13 0 100 16 0.0272093
14 0 100 16 0.0908212
15 0 100 16 0.0614571
16 0 100 16 0.00993529
1 1 100 16 0.600129
2 1 100 16 0.10974
3 1 100 16 0.0181374
4 1 100 16 0.0725127
5 1 100 16 0.0544106
6 1 100 16 0.0181365
7 1 100 16 0.0362305
8 1 100 16 0.0181551
9 1 100 16 0.0181369
10 1 100 16 0.0181369
11 1 100 16 0.0181369
12 1 100 16 0.0181369
14 1 100 16 4.43878e-07
1 2 100 16 0.213891
2 2 100 16 0.326612
3 2 100 16 0.141522
4 2 100 16 0.0965476
5 2 100 16 0.0587103
6 2 100 16 0.019486
7 2 100 16 0.0389552
8 2 100 16 0.00680619
9 2 100 16 0.0194787
10 2 100 16 0.038955
11 2 100 16 0.0194776
12 2 100 16 0.0194776
13 2 100 16 6.97269e-05
14 2 100 16 1.07358e-05
1 3 100 16 0.111085
2 3 100 16 0.17921
3 3 100 16 0.293895
4 3 100 16 0.133356
5 3 100 16 0.0386685
6 3 100 16 0.0660136
7 3 100 16 1.02602e-06
8 3 100 16 8.68285e-06
10 3 100 16 0.0222169
11 3 100 16 0.0444338
12 3 100 16 0.0444341
13 3 100 16 0.0444339
14 3 100 16 0.0222449
1 4 100 16 0.0899716
2 4 100 16 0.128539
3 4 100 16 0.211884
4 4 100 16 0.0907633
5 4 100 16 0.143334
6 4 100 16 0.0295246
7 4 100 16 0.0719773
8 4 100 16 0.0359887
9 4 100 16 0.0359886
10 4 100 16 0.0359763
12 4 100 16 0.0539887
13 4 100 16 0.0180811
14 4 100 16 0.0179942
15 4 100 16 0.0179943
16 4 100 16 0.0179943
2 5 100 16 0.0436132
3 5 100 16 0.0769239
4 5 100 16 0.230908
5 5 100 16 0.179941
6 5 100 16 0.0513081
7 5 100 16 0.083442
8 5 100 16 0.0769689
9 5 100 16 0.0772834
10 5 100 16 0.0512282
13 5 100 16 0.0513075
14 5 100 16 0.0256537
15 5 100 16 0.0256537
16 5 100 16 0.0257686
1 6 100 16 0.0352656
2 6 100 16 0.0350837
3 6 100 16 0.0697619
4 6 100 16 0.0908201
5 6 100 16 0.198839
6 6 100 16 0.0876403
7 6 100 16 0.0349812
8 6 100 16 0.105164
9 6 100 16 0.0699612
10 6 100 16 0.044457
11 6 100 16 0.0349802
12 6 100 16 0.0355394
13 6 100 16 0.0176002
14 6 100 16 0.0174886
15 6 100 16 0.0699521
16 6 100 16 0.0524658
1 7 100 16 0.0134543
2 7 100 16 0.0572199
3 7 100 16 0.0753505
4 7 100 16 0.0907373
5 7 100 16 0.0697503
6 7 100 16 0.150957
7 7 100 16 0.16577
8 7 100 16 0.105501
9 7 100 16 0.030147
10 7 100 16 0.0601863
11 7 100 16 0.0451757
12 7 100 16 0.0150701
13 7 100 16 0.0452103
14 7 100 16 0.030129
15 7 100 16 0.0301402
16 7 100 16 0.0152008
2 8 100 16 0.0764189
3 8 100 16 0.0246779
5 8 100 16 0.192346
6 8 100 16 0.172477
7 8 100 16 0.0987564
8 8 100 16 0.0653322
9 8 100 16 0.0740262
10 8 100 16 0.0495815
11 8 100 16 0.0734274
12 8 100 16 0.000225052
13 8 100 16 0.0246743
14 8 100 16 0.0493537
15 8 100 16 0.0246744
16 8 100 16 0.074029
1 9 100 16 0.01953
2 9 100 16 2.03828e-06
3 9 100 16 0.0847332
4 9 100 16 0.0386473
5 9 100 16 0.0397189
6 9 100 16 0.0871291
7 9 100 16 0.0669307
8 9 100 16 0.0971482
9 9 100 16 0.0390931
10 9 100 16 0.0607124
11 9 100 16 0.0815193
12 9 100 16 0.0591231
13 9 100 16 0.0585905
14 9 100 16 0.0976547
15 9 100 16 0.0976512
16 9 100 16 0.0718162
1 10 100 16 0.0452424
2 10 100 16 0.0603192
3 10 100 16 0.0303392
5 10 100 16 0.0440402
6 10 100 16 0.0287829
7 10 100 16 0.0992489
8 10 100 16 0.111261
9 10 100 16 0.149911
10 10 100 16 0.0754241
11 10 100 16 0.0576861
12 10 100 16 0.0452424
13 10 100 16 0.0715355
14 10 100 16 0.0452479
15 10 100 16 0.0452341
16 10 100 16 0.0904849
1 11 100 16 2.32044e-06
2 11 100 16 2.40824e-05
3 11 100 16 0.0373255
4 11 100 16 0.0284449
5 11 100 16 0.0760673
6 11 100 16 0.0558279
7 11 100 16 0.109857
8 11 100 16 0.059153
9 11 100 16 0.14504
10 11 100 16 0.165819
11 11 100 16 0.0937793
12 11 100 16 0.0559975
13 11 100 16 0.0373255
14 11 100 16 0.0361544
15 11 100 16 0.0559983
16 11 100 16 0.0431838
1 12 100 16 0.0906017
2 12 100 16 0.0226516
3 12 100 16 0.0453008
4 12 100 16 0.0228792
6 12 100 16 0.0454955
7 12 100 16 0.104733
8 12 100 16 0.0907958
9 12 100 16 0.0689235
10 12 100 16 0.0639439
11 12 100 16 0.0453261
12 12 100 16 0.158526
13 12 100 16 0.113538
14 12 100 16 0.0593335
15 12 100 16 0.0679512
2 13 100 16 0.000316212
3 13 100 16 0.0214488
4 13 100 16 0.0669134
5 13 100 16 0.0644361
6 13 100 16 0.0643221
7 13 100 16 0.0857632
8 13 100 16 0.129157
9 13 100 16 0.150085
10 13 100 16 0.0467371
11 13 100 16 0.0214411
12 13 100 16 0.0429247
13 13 100 16 0.133874
14 13 100 16 0.043933
15 13 100 16 0.0428847
16 13 100 16 0.0857646
1 14 100 16 0.0224653
2 14 100 16 0.022366
3 14 100 16 0.0448887
4 14 100 16 0.0879662
5 14 100 16 0.0447442
6 14 100 16 0.0449308
7 14 100 16 0.0461311
8 14 100 16 0.104994
9 14 100 16 0.0439576
10 14 100 16 0.0898618
11 14 100 16 0.141765
12 14 100 16 0.124748
13 14 100 16 0.0898429
14 14 100 16 0.0687603
15 14 100 16 0.000112281
16 14 100 16 0.0224658
1 15 100 16 0.0356744
2 15 100 16 0.0535117
3 15 100 16 0.0356841
4 15 100 16 0.00048593
5 15 100 16 0.0178372
6 15 100 16 0.0356739
7 15 100 16 0.0713494
8 15 100 16 0.0178372
9 15 100 16 0.0178378
10 15 100 16 0.0356744
11 15 100 16 0.162567
12 15 100 16 0.135758
13 15 100 16 0.112561
14 15 100 16 0.0713406
15 15 100 16 0.0535117
16 15 100 16 0.142697
2 16 100 16 0.00288795
3 16 100 16 3.14931e-07
4 16 100 16 0.0281443
5 16 100 16 0.0281443
6 16 100 16 0.0281461
7 16 100 16 0.0594843
8 16 100 16 0.0907494
9 16 100 16 0.0862401
10 16 100 16 0.0844336
11 16 100 16 0.0562885
12 16 100 16 0.141472
13 16 100 16 0.0844246
14 16 100 16 0.0562826
15 16 100 16 0.140725
16 16 100 16 0.112577
1 17 100 16 0.0300333
2 17 100 16 0.0150167
3 17 100 16 0.04505
4 17 100 16 0.0747315
5 17 100 16 0.0600656
6 17 100 16 0.0450499
7 17 100 16 0.0365955
8 17 100 16 0.0695589
9 17 100 16 0.10511
10 17 100 16 0.0750833
11 17 100 16 0.0900999
12 17 100 16 0.0889058
13 17 100 16 0.130497
14 17 100 16 0.0462772
15 17 100 16 0.0474691
16 17 100 16 0.0404567
1 18 100 16 0.0316681
2 18 100 16 0.0318765
3 18 100 16 0.0314032
4 18 100 16 0.000264348
5 18 100 16 0.0533098
6 18 100 16 0.0949808
7 18 100 16 0.0405241
8 18 100 16 0.00259975
9 18 100 16 0.0420701
10 18 100 16 0.0866348
11 18 100 16 0.0592272
12 18 100 16 0.0782567
13 18 100 16 0.0314905
14 18 100 16 0.150786
15 18 100 16 0.148991
16 18 100 16 0.115917
1 19 100 16 0.0530579
2 19 100 16 0.0274862
3 19 100 16 0.050401
4 19 100 16 0.0340527
5 19 100 16 1.16523e-05
6 19 100 16 0.0277546
7 19 100 16 0.0361251
8 19 100 16 0.0271974
9 19 100 16 0.0298652
10 19 100 16 0.0297665
11 19 100 16 0.0702925
12 19 100 16 0.0544152
13 19 100 16 0.16411
14 19 100 16 0.109533
15 19 100 16 0.147303
16 19 100 16 0.138628
1 20 100 16 0.0301217
2 20 100 16 0.0304034
3 20 100 16 0.0301217
4 20 100 16 0.0324552
5 20 100 16 0.0602367
6 20 100 16 2.87473e-05
7 20 100 16 0.00359407
8 20 100 16 1.92851e-05
9 20 100 16 0.0301572
10 20 100 16 0.0609851
11 20 100 16 0.0877562
12 20 100 16 0.0906338
13 20 100 16 0.0917361
14 20 100 16 0.120469
15 20 100 16 0.119522
16 20 100 16 0.21176
1 21 100 16 3.28408e-05
2 21 100 16 6.60316e-06
3 21 100 16 0.0410224
4 21 100 16 0.0749619
5 21 100 16 0.0136177
6 21 100 16 0.0410259
7 21 100 16 0.0410244
8 21 100 16 0.0402184
9 21 100 16 0.00113504
10 21 100 16 5.50658e-05
11 21 100 16 0.0398645
12 21 100 16 0.159854
13 21 100 16 0.145031
14 21 100 16 0.121525
15 21 100 16 0.150678
16 21 100 16 0.129947
2 22 100 16 1.7977e-05
3 22 100 16 1.20668e-06
4 22 100 16 0.0011384
5 22 100 16 4.21009e-07
8 22 100 16 7.23894e-05
9 22 100 16 0.000621692
10 22 100 16 1.75405e-05
11 22 100 16 0.0016086
12 22 100 16 0.000141815
13 22 100 16 0.189853
14 22 100 16 0.416627
15 22 100 16 0.389895
16 22 100 16 4.32706e-06
1 23 100 16 1.74588e-06
2 23 100 16 8.98252e-06
5 23 100 16 6.32072e-07
6 23 100 16 0.000436137
8 23 100 16 5.00241e-07
9 23 100 16 0.000166618
10 23 100 16 0.000136243
11 23 100 16 0.00162121
12 23 100 16 5.26128e-06
13 23 100 16 0.000713485
14 23 100 16 0.11675
15 23 100 16 0.229674
16 23 100 16 0.650485
2 24 100 16 0.00163791
3 24 100 16 4.10966e-05
4 24 100 16 0.00357646
5 24 100 16 3.79176e-05
6 24 100 16 0.000168387
9 24 100 16 1.76605e-05
10 24 100 16 0.00313638
11 24 100 16 0.0011778
12 24 100 16 7.51154e-05
13 24 100 16 0.000438801
14 24 100 16 0.0907595
15 24 100 16 0.153462
16 24 100 16 0.745471
1 25 100 16 0.0736859
2 25 100 16 0.0776324
3 25 100 16 0.0735948
4 25 100 16 0.00144201
5 25 100 16 0.0736864
6 25 100 16 0.073687
7 25 100 16 0.0737377
8 25 100 16 0.0736899
9 25 100 16 2.58736e-05
10 25 100 16 0.0816162
11 25 100 16 0.0734116
12 25 100 16 0.0739628
13 25 100 16 0.0737196
14 25 100 16 0.0755671
15 25 100 16 0.0458879
16 25 100 16 0.0546531
4 26 100 16 2.27905e-05
5 26 100 16 1.11073e-05
6 26 100 16 0.000307617
8 26 100 16 7.47607e-05
9 26 100 16 1.05243e-05
10 26 100 16 4.86577e-06
11 26 100 16 7.16619e-06
13 26 100 16 2.60124e-05
14 26 100 16 0.270969
15 26 100 16 0.455333
16 26 100 16 0.273233
1 27 100 16 2.48143e-06
2 27 100 16 9.09742e-05
4 27 100 16 2.32234e-07
9 27 100 16 0.175188
10 27 100 16 0.017805
11 27 100 16 4.15563e-05
13 27 100 16 0.202636
14 27 100 16 7.86108e-06
15 27 100 16 0.402062
16 27 100 16 0.202166
2 28 100 16 2.12496e-06
4 28 100 16 1.13632e-05
8 28 100 16 1.12421e-05
9 28 100 16 0.000167183
10 28 100 16 0.0408065
11 28 100 16 0.191927
12 28 100 16 0.191801
13 28 100 16 0.191937
14 28 100 16 0.37465
15 28 100 16 0.00868655
1 29 100 16 0.0946222
2 29 100 16 0.0946222
3 29 100 16 8.27633e-05
5 29 100 16 8.34351e-07
7 29 100 16 7.76517e-07
8 29 100 16 0.0939227
9 29 100 16 0.0946244
10 29 100 16 0.0982004
11 29 100 16 0.081774
12 29 100 16 0.0946272
13 29 100 16 6.60671e-06
14 29 100 16 0.146204
15 29 100 16 0.0120753
16 29 100 16 0.189237
8 30 100 16 0.00114121
10 30 100 16 0.142497
11 30 100 16 0.0576682
12 30 100 16 0.149503
13 30 100 16 0.149501
14 30 100 16 0.146356
15 30 100 16 0.0543094
16 30 100 16 0.299023
6 31 100 16 0.5
9 31 100 16 0.5
11 32 100 16 0.967339
14 32 100 16 0.0297379
15 32 100 16 0.00292285
1 33 100 16 2.74251e-05
13 33 100 16 0.0104857
14 33 100 16 0.181184
15 33 100 16 0.402321
16 33 100 16 0.405982
15 37 100 16 1
9 38 100 16 1.40465e-06
15 38 100 16 0.999999
3 39 100 16 1.24565e-06
14 39 100 16 5.12136e-05
15 39 100 16 0.0393544
16 39 100 16 0.960593
1 0 100 17 0.0157193
2 0 100 17 0.0491706
3 0 100 17 0.0637963
4 0 100 17 0.0630874
5 0 100 17 0.0788618
6 0 100 17 0.0695301
7 0 100 17 0.0427725
8 0 100 17 0.0538288
9 0 100 17 0.0459207
10 0 100 17 0.114219
11 0 100 17 0.0384227
12 0 100 17 0.117006
13 0 100 17 0.0584298
14 0 100 17 0.0386815
15 0 100 17 0.0530986
16 0 100 17 0.0847942
17 0 100 17 0.0126611
1 1 100 17 0.799872
2 1 100 17 0.0723115
3 1 100 17 0.0240134
4 1 100 17 0.0498694
5 1 100 17 0.0480133
7 1 100 17 0.00586214
8 1 100 17 2.99952e-07
9 1 100 17 4.01257e-05
14 1 100 17 1.09563e-06
16 1 100 17 1.6342e-05
1 2 100 17 0.192015
2 2 100 17 0.442756
3 2 100 17 0.127686
4 2 100 17 0.0558884
5 2 100 17 0.0419195
6 2 100 17 0.0419106
7 2 100 17 0.0139702
8 2 100 17 0.027942
9 2 100 17 0.0139702
10 2 100 17 0.0279417
11 2 100 17 0.0139703
12 2 100 17 2.96735e-06
14 2 100 17 5.25931e-07
15 2 100 17 6.33227e-06
16 2 100 17 1.46731e-07
17 2 100 17 2.02883e-05
1 3 100 17 0.154041
2 3 100 17 0.186356
3 3 100 17 0.360038
4 3 100 17 0.146115
5 3 100 17 0.101741
6 3 100 17 0.0172146
7 3 100 17 0.0171165
8 3 100 17 5.62604e-05
9 3 100 17 0.000200497
13 3 100 17 1.15295e-05
14 3 100 17 7.38343e-07
15 3 100 17 0.0171087
17 3 100 17 1.37801e-06
1 4 100 17 0.159032
2 4 100 17 0.125828
3 4 100 17 0.173898
4 4 100 17 0.20746
5 4 100 17 0.119704
6 4 100 17 0.0883568
7 4 100 17 0.0706758
8 4 100 17 0.0356118
9 4 100 17 0.0176703
15 4 100 17 3.47026e-07
17 4 100 17 0.00176324
1 5 100 17 0.0373479
2 5 100 17 0.0736191
3 5 100 17 0.0908477
4 5 100 17 0.0732217
5 5 100 17 0.171762
6 5 100 17 0.054921
7 5 100 17 0.12808
8 5 100 17 0.0549241
9 5 100 17 0.0232787
10 5 100 17 0.0542299
11 5 100 17 0.0366134
12 5 100 17 1.13449e-05
13 5 100 17 0.0183067
14 5 100 17 0.0730219
15 5 100 17 0.0366135
16 5 100 17 0.0365877
17 5 100 17 0.0366134
1 6 100 17 0.075076
2 6 100 17 0.0376709
3 6 100 17 0.0752778
4 6 100 17 0.157041
5 6 100 17 0.0983605
6 6 100 17 0.131611
7 6 100 17 0.123959
8 6 100 17 0.0752769
9 6 100 17 0.0750826
11 6 100 17 0.0564577
12 6 100 17 0.000100556
13 6 100 17 0.0188397
14 6 100 17 0.0188218
15 6 100 17 0.037604
16 6 100 17 0.0188192
17 6 100 17 1.34623e-06
1 7 100 17 1.20086e-05
2 7 100 17 0.0222457
3 7 100 17 0.122498
4 7 100 17 0.121715
5 7 100 17 0.0642458
6 7 100 17 0.101327
7 7 100 17 0.121709
8 7 100 17 0.12171
9 7 100 17 0.0608514
10 7 100 17 0.060858
11 7 100 17 0.0202853
12 7 100 17 0.0405698
13 7 100 17 0.0405456
14 7 100 17 0.040571
15 7 100 17 0.0405698
16 7 100 17 0.0202863
1 8 100 17 0.0763302
2 8 100 17 0.0759404
3 8 100 17 0.0386898
4 8 100 17 0.15321
5 8 100 17 0.103049
6 8 100 17 0.103065
7 8 100 17 0.0643291
8 8 100 17 0.101111
9 8 100 17 0.106788
10 8 100 17 0.061627
11 8 100 17 0.012862
12 8 100 17 0.0256341
14 8 100 17 0.0130098
15 8 100 17 0.0257537
16 8 100 17 0.0257318
17 8 100 17 0.0128703
1 9 100 17 4.06315e-06
2 9 100 17 9.20008e-05
3 9 100 17 0.00162201
4 9 100 17 0.0309918
5 9 100 17 0.167089
6 9 100 17 0.0780193
7 9 100 17 0.191348
8 9 100 17 0.0972512
9 9 100 17 0.155598
10 9 100 17 0.114775
11 9 100 17 0.0585212
12 9 100 17 9.57357e-07
13 9 100 17 0.0389037
14 9 100 17 0.00739851
15 9 100 17 0.0389006
16 9 100 17 3.38501e-05
17 9 100 17 0.0194499
1 10 100 17 0.0143235
2 10 100 17 0.0716152
3 10 100 17 0.084216
4 10 100 17 0.0572937
5 10 100 17 0.0429711
6 10 100 17 0.14814
7 10 100 17 0.0766519
8 10 100 17 0.0716252
9 10 100 17 0.0429532
10 10 100 17 0.0858638
11 10 100 17 0.0716161
12 10 100 17 0.0430014
13 10 100 17 0.0321694
14 10 100 17 0.0572938
16 10 100 17 0.0572939
17 10 100 17 0.0429722
4 11 100 17 0.0421762
5 11 100 17 0.0140585
6 11 100 17 0.112181
7 11 100 17 0.144401
8 11 100 17 0.139703
9 11 100 17 0.0960356
10 11 100 17 0.0422049
11 11 100 17 0.142152
12 11 100 17 0.112434
13 11 100 17 0.0562351
14 11 100 17 0.0140646
15 11 100 17 0.0281189
16 11 100 17 0.0421766
17 11 100 17 0.0140589
1 12 100 17 0.0283286
2 12 100 17 0.0141643
3 12 100 17 0.0141558
4 12 100 17 0.0400601
5 12 100 17 0.0283286
6 12 100 17 0.080131
7 12 100 17 0.0709943
8 12 100 17 0.128661
9 12 100 17 0.172362
10 12 100 17 0.0430362
11 12 100 17 0.0983438
12 12 100 17 0.0992849
13 12 100 17 0.0283286
14 12 100 17 0.0707955
15 12 100 17 0.0141642
16 12 100 17 0.0141793
17 12 100 17 0.0546823
1 13 100 17 9.39888e-06
2 13 100 17 1.51942e-06
3 13 100 17 0.0205742
5 13 100 17 0.0205743
6 13 100 17 1.16893e-05
7 13 100 17 0.0360306
8 13 100 17 0.0825192
9 13 100 17 0.102872
10 13 100 17 0.183074
11 13 100 17 0.12267
12 13 100 17 0.0822972
13 13 100 17 0.0822973
14 13 100 17 0.123046
15 13 100 17 0.102875
16 13 100 17 0.041148
17 13 100 17 3.0274e-07
3 14 100 17 0.0425497
4 14 100 17 0.0212842
5 14 100 17 0.021275
6 14 100 17 0.0425592
7 14 100 17 0.0215497
8 14 100 17 0.020468
9 14 100 17 0.0817114
10 14 100 17 0.0405102
11 14 100 17 0.0638283
12 14 100 17 0.063825
13 14 100 17 0.0884794
14 14 100 17 0.141028
15 14 100 17 0.145189
16 14 100 17 0.120914
17 14 100 17 0.0848287
3 15 100 17 2.77901e-07
4 15 100 17 0.0188039
5 15 100 17 0.0188121
6 15 100 17 0.0376659
7 15 100 17 0.0188121
8 15 100 17 0.018828
9 15 100 17 0.0565816
10 15 100 17 0.152225
11 15 100 17 0.167962
12 15 100 17 0.149658
13 15 100 17 0.0752565
14 15 100 17 0.0938715
15 15 100 17 0.0564363
16 15 100 17 0.0570774
17 15 100 17 0.0780083
1 16 100 17 2.02931e-07
3 16 100 17 0.0149285
4 16 100 17 0.0149285
5 16 100 17 0.0597132
6 16 100 17 0.0301312
7 16 100 17 0.0599724
8 16 100 17 0.0447865
9 16 100 17 0.0885967
10 16 100 17 0.0447924
11 16 100 17 0.0884442
12 16 100 17 0.0746431
13 16 100 17 0.131342
14 16 100 17 0.0797014
15 16 100 17 0.1045
16 16 100 17 0.0895844
17 16 100 17 0.0739355
1 17 100 17 1.8199e-05
2 17 100 17 7.23979e-06
4 17 100 17 0.00307054
6 17 100 17 6.53642e-07
8 17 100 17 0.0329196
9 17 100 17 0.0658339
10 17 100 17 0.0635657
11 17 100 17 0.0680329
12 17 100 17 0.033165
13 17 100 17 0.264541
14 17 100 17 0.152753
15 17 100 17 0.131969
16 17 100 17 0.0658742
17 17 100 17 0.118249
2 18 100 17 0.0316286
3 18 100 17 0.0158164
4 18 100 17 0.0316243
5 18 100 17 0.0474502
6 18 100 17 6.75662e-07
7 18 100 17 0.0453371
8 18 100 17 0.0316335
9 18 100 17 0.0158168
10 18 100 17 0.0316335
11 18 100 17 0.0232366
12 18 100 17 0.0948927
13 18 100 17 0.0633014
14 18 100 17 0.110634
15 18 100 17 0.158181
16 18 100 17 0.0949056
17 18 100 17 0.203908
1 19 100 17 5.2244e-07
2 19 100 17 9.64137e-06
3 19 100 17 3.36455e-05
4 19 100 17 1.83775e-05
5 19 100 17 0.0192311
6 19 100 17 0.0404651
7 19 100 17 0.0269551
8 19 100 17 0.0460933
9 19 100 17 0.000126614
10 19 100 17 0.0453726
11 19 100 17 0.0989285
12 19 100 17 0.047041
13 19 100 17 0.1404
14 19 100 17 0.154071
15 19 100 17 0.100366
16 19 100 17 0.16374
17 19 100 17 0.117148
1 20 100 17 7.00505e-05
2 20 100 17 3.48321e-05
3 20 100 17 8.45085e-06
4 20 100 17 1.66738e-06
5 20 100 17 8.5256e-05
6 20 100 17 2.34522e-05
7 20 100 17 4.26055e-05
8 20 100 17 1.19775e-06
9 20 100 17 0.0581055
10 20 100 17 0.019034
11 20 100 17 0.0554728
12 20 100 17 0.0901163
13 20 100 17 0.139487
14 20 100 17 0.0864064
15 20 100 17 0.131629
16 20 100 17 0.151388
17 20 100 17 0.268094
1 21 100 17 2.97558e-06
2 21 100 17 1.2355e-05
3 21 100 17 1.6292e-05
4 21 100 17 2.01223e-05
5 21 100 17 0.0001038
6 21 100 17 0.000370983
7 21 100 17 3.9095e-05
8 21 100 17 4.84958e-05
9 21 100 17 0.0015782
10 21 100 17 0.00669261
11 21 100 17 0.0785301
12 21 100 17 0.0695689
13 21 100 17 0.123725
14 21 100 17 0.0617065
15 21 100 17 0.127086
16 21 100 17 0.155769
17 21 100 17 0.374729
1 22 100 17 2.52148e-05
2 22 100 17 1.73979e-05
3 22 100 17 6.18909e-05
4 22 100 17 7.02285e-05
5 22 100 17 0.00469813
6 22 100 17 0.0778965
7 22 100 17 0.0407995
8 22 100 17 0.036986
9 22 100 17 0.0118689
10 22 100 17 5.31562e-05
11 22 100 17 0.143639
12 22 100 17 0.0441638
13 22 100 17 0.0848851
14 22 100 17 0.161899
15 22 100 17 0.0833601
16 22 100 17 0.160839
17 22 100 17 0.148737
3 23 100 17 7.83251e-05
5 23 100 17 4.58063e-05
6 23 100 17 0.000215338
7 23 100 17 4.93706e-07
8 23 100 17 7.43193e-07
9 23 100 17 0.000288129
10 23 100 17 0.000143192
11 23 100 17 0.00222621
12 23 100 17 0.0950016
13 23 100 17 0.152627
14 23 100 17 0.187285
15 23 100 17 0.114285
16 23 100 17 0.254875
17 23 100 17 0.192927
1 24 100 17 2.20275e-06
2 24 100 17 6.8904e-06
3 24 100 17 2.77165e-06
4 24 100 17 7.57428e-05
5 24 100 17 1.13775e-05
6 24 100 17 6.98006e-05
7 24 100 17 0.0796315
8 24 100 17 0.120118
9 24 100 17 0.0818458
10 24 100 17 0.0821507
11 24 100 17 0.0800178
12 24 100 17 0.0796876
13 24 100 17 0.0798188
14 24 100 17 0.0795872
15 24 100 17 0.144396
16 24 100 17 0.0221343
17 24 100 17 0.150444
1 25 100 17 0.0823485
2 25 100 17 0.0823373
3 25 100 17 0.0823523
4 25 100 17 0.0273972
5 25 100 17 0.0804246
6 25 100 17 0.0868541
7 25 100 17 0.0824956
8 25 100 17 0.164605
9 25 100 17 0.161814
10 25 100 17 0.0178726
11 25 100 17 0.0484408
12 25 100 17 0.000628682
13 25 100 17 0.0823484
14 25 100 17 7.18651e-06
15 25 100 17 2.89098e-05
16 25 100 17 4.21405e-05
17 25 100 17 2.16553e-06
1 26 100 17 0.0472898
2 26 100 17 0.0473206
3 26 100 17 0.0469744
4 26 100 17 0.00523869
5 26 100 17 0.0270694
6 26 100 17 0.0375358
7 26 100 17 8.01176e-07
8 26 100 17 0.06961
9 26 100 17 0.0473386
10 26 100 17 0.0473273
11 26 100 17 0.0473239
12 26 100 17 0.0920772
13 26 100 17 0.0643338
14 26 100 17 0.0929031
15 26 100 17 0.147589
16 26 100 17 0.0498156
17 26 100 17 0.130252
2 27 100 17 4.06261e-06
4 27 100 17 4.80642e-07
7 27 100 17 0.000159011
9 27 100 17 0.194379
11 27 100 17 0.19899
12 27 100 17 0.00274173
13 27 100 17 9.98629e-05
14 27 100 17 6.1399e-05
15 27 100 17 3.92681e-05
16 27 100 17 0.20122
17 27 100 17 0.402305
1 28 100 17 9.42214e-05
2 28 100 17 2.64792e-05
3 28 100 17 1.74282e-05
4 28 100 17 0.000110765
5 28 100 17 6.37393e-07
7 28 100 17 6.89732e-07
8 28 100 17 3.60767e-06
9 28 100 17 0.00606958
10 28 100 17 0.167672
11 28 100 17 0.173308
12 28 100 17 0.169278
13 28 100 17 0.343491
14 28 100 17 0.13694
15 28 100 17 0.00294228
16 28 100 17 4.49854e-05
10 29 100 17 8.87129e-06
12 29 100 17 1.20595e-05
15 29 100 17 0.998659
16 29 100 17 1.7744e-05
17 29 100 17 0.00130261
6 30 100 17 6.87079e-05
7 30 100 17 0.1101
8 30 100 17 0.109473
9 30 100 17 0.0548312
10 30 100 17 0.110722
11 30 100 17 0.10655
12 30 100 17 0.111757
13 30 100 17 0.104123
14 30 100 17 0.292375
4 31 100 17 8.48683e-07
6 31 100 17 1.79022e-06
7 31 100 17 5.14984e-05
8 31 100 17 7.16474e-05
9 31 100 17 7.71152e-05
10 31 100 17 7.04307e-05
11 31 100 17 7.76625e-05
12 31 100 17 7.19736e-05
13 31 100 17 0.0810199
14 31 100 17 0.0910779
15 31 100 17 0.26628
16 31 100 17 0.293719
17 31 100 17 0.26748
9 32 100 17 3.6023e-06
12 32 100 17 0.000293259
14 32 100 17 9.93188e-06
15 32 100 17 0.00122308
16 32 100 17 3.89112e-06
17 32 100 17 0.998466
12 33 100 17 0.00716963
13 33 100 17 0.99283
9 34 100 17 0.592675
12 34 100 17 0.000357595
14 34 100 17 0.406865
17 34 100 17 0.00010216
13 35 100 17 1
12 37 100 17 1
1 38 100 17 1
12 39 100 17 1
12 40 100 17 1
12 41 100 17 1
3 42 100 17 1
2 43 100 17 0.999997
12 43 100 17 2.8961e-06
9 44 100 17 0.00758215
12 44 100 17 0.992418
10 45 100 17 1
8 46 100 17 1
9 47 100 17 0.470344
12 47 100 17 0.529656
9 48 100 17 0.0130925
12 48 100 17 0.986908
3 49 100 17 5.88464e-06
4 49 100 17 0.999994
5 50 100 17 1
2 51 100 17 2.97284e-06
3 51 100 17 0.330153
4 51 100 17 3.17583e-06
5 51 100 17 1.68778e-06
6 51 100 17 0.336868
7 51 100 17 0.332665
8 51 100 17 0.000305321
11 51 100 17 9.17073e-07
2 52 100 17 1.89625e-05
3 52 100 17 0.00776836
4 52 100 17 9.88227e-07
7 52 100 17 0.0101882
8 52 100 17 0.0832826
10 52 100 17 0.0823032
11 52 100 17 0.816438
9 53 100 17 0.0209225
12 53 100 17 0.979078
9 54 100 17 0.0332524
12 54 100 17 0.966748
4 55 100 17 1
9 57 100 17 0.229424
12 57 100 17 0.765891
14 57 100 17 0.00468529
13 58 100 17 1
12 59 100 17 1
17 60 100 17 1
9 61 100 17 0.00262569
12 61 100 17 0.995917
14 61 100 17 0.00145734
1 0 100 18 0.00338824
2 0 100 18 0.022353
3 0 100 18 0.0732335
4 0 100 18 0.0640069
5 0 100 18 0.085039
6 0 100 18 0.087292
7 0 100 18 0.059345
8 0 100 18 0.0319526
9 0 100 18 0.0729326
10 0 100 18 0.0763463
11 0 100 18 0.0730313
12 0 100 18 0.0453883
13 0 100 18 0.0591523
14 0 100 18 0.0425049
15 0 100 18 0.0763999
16 0 100 18 0.0409079
17 0 100 18 0.0821534
18 0 100 18 0.00457276
1 1 100 18 0.777793
2 1 100 18 0.11195
3 1 100 18 0.0460023
5 1 100 18 2.31255e-06
6 1 100 18 0.0230696
7 1 100 18 3.21278e-06
8 1 100 18 3.87115e-07
9 1 100 18 8.63376e-06
10 1 100 18 0.0181392
11 1 100 18 2.56344e-06
12 1 100 18 0.0230009
13 1 100 18 9.63879e-07
15 1 100 18 2.72023e-05
1 2 100 18 0.262733
2 2 100 18 0.280883
3 2 100 18 0.117394
4 2 100 18 0.130539
5 2 100 18 0.0580172
6 2 100 18 0.0180417
7 2 100 18 0.0145043
8 2 100 18 0.0145053
11 2 100 18 0.0145043
12 2 100 18 0.0145043
13 2 100 18 0.0290086
14 2 100 18 0.0145043
15 2 100 18 0.0145043
16 2 100 18 0.0145051
17 2 100 18 1.63717e-05
18 2 100 18 0.00183644
1 3 100 18 0.11058
2 3 100 18 0.173548
3 3 100 18 0.150265
4 3 100 18 0.115664
5 3 100 18 0.116399
6 3 100 18 0.0400715
7 3 100 18 0.0931136
8 3 100 18 0.0698519
9 3 100 18 0.0349213
10 3 100 18 0.0141016
11 3 100 18 0.0116405
12 3 100 18 0.0116414
13 3 100 18 0.011641
15 3 100 18 0.0116405
16 3 100 18 0.0116405
17 3 100 18 0.0116405
18 3 100 18 0.0116405
1 4 100 18 0.0815512
2 4 100 18 0.126246
3 4 100 18 0.149116
4 4 100 18 0.195287
5 4 100 18 0.114102
6 4 100 18 0.090579
7 4 100 18 0.0989612
8 4 100 18 0.0325987
9 4 100 18 0.0162997
10 4 100 18 2.51468e-07
11 4 100 18 4.21514e-05
12 4 100 18 0.0163015
13 4 100 18 0.0163066
14 4 100 18 0.0162996
15 4 100 18 1.88779e-07
16 4 100 18 4.7042e-06
17 4 100 18 0.0300049
18 4 100 18 0.0162999
1 5 100 18 0.0877822
2 5 100 18 0.109268
3 5 100 18 0.0912186
4 5 100 18 0.154641
5 5 100 18 0.140028
6 5 100 18 0.109602
7 5 100 18 0.0430155
8 5 100 18 0.0658274
9 5 100 18 0.0219432
10 5 100 18 0.0219564
11 5 100 18 0.00111241
14 5 100 18 0.0438918
15 5 100 18 0.0877696
16 5 100 18 5.60338e-07
17 5 100 18 0.0219425
1 6 100 18 0.0325785
2 6 100 18 0.0855443
3 6 100 18 0.114391
4 6 100 18 0.0822815
5 6 100 18 0.127895
6 6 100 18 0.144751
7 6 100 18 0.11359
8 6 100 18 0.0489129
9 6 100 18 0.0356014
10 6 100 18 0.0489136
11 6 100 18 0.0491031
12 6 100 18 0.0326086
13 6 100 18 0.0163043
14 6 100 18 5.12743e-05
15 6 100 18 0.0326086
16 6 100 18 0.0185604
18 6 100 18 0.0163043
1 7 100 18 0.0614787
2 7 100 18 0.0819235
3 7 100 18 0.0815523
4 7 100 18 0.142209
5 7 100 18 0.0614468
6 7 100 18 0.124409
7 7 100 18 0.081919
8 7 100 18 0.0409616
9 7 100 18 0.0614088
10 7 100 18 0.0377155
11 7 100 18 0.0204674
12 7 100 18 0.0409444
13 7 100 18 0.0406839
14 7 100 18 0.0409603
15 7 100 18 0.0204808
16 7 100 18 0.0409603
18 7 100 18 0.0204788
1 8 100 18 0.0636081
2 8 100 18 0.0807727
3 8 100 18 0.0155473
4 8 100 18 0.0475795
5 8 100 18 0.0932464
6 8 100 18 0.0316677
7 8 100 18 0.110343
8 8 100 18 0.142518
9 8 100 18 0.1425
10 8 100 18 0.126617
11 8 100 18 0.0950022
12 8 100 18 0.0294102
13 8 100 18 0.000213652
14 8 100 18 5.6893e-07
15 8 100 18 0.0158337
16 8 100 18 0.0051388
17 8 100 18 6.66943e-07
1 9 100 18 0.0413087
2 9 100 18 0.0137697
4 9 100 18 0.0290192
5 9 100 18 0.0415044
6 9 100 18 0.0792692
7 9 100 18 0.120132
8 9 100 18 0.110157
9 9 100 18 0.110142
10 9 100 18 0.123939
11 9 100 18 0.0550787
12 9 100 18 0.0689351
13 9 100 18 0.0690722
14 9 100 18 0.0550829
15 9 100 18 6.28425e-06
16 9 100 18 0.0275394
17 9 100 18 0.0137697
18 9 100 18 0.0412739
2 10 100 18 0.0920339
3 10 100 18 0.0460189
4 10 100 18 0.0230082
5 10 100 18 0.0293964
6 10 100 18 0.0953775
7 10 100 18 0.0690249
8 10 100 18 0.0690245
9 10 100 18 0.0835261
10 10 100 18 0.115041
11 10 100 18 0.0690416
12 10 100 18 0.113481
13 10 100 18 0.0229186
14 10 100 18 0.0316172
15 10 100 18 0.0489531
16 10 100 18 0.0230082
17 10 100 18 0.0450828
18 10 100 18 0.0234458
1 11 100 18 0.0133708
2 11 100 18 0.0267469
3 11 100 18 0.0668633
4 11 100 18 0.0668627
5 11 100 18 0.0503975
6 11 100 18 0.066935
7 11 100 18 0.0974427
8 11 100 18 0.200574
9 11 100 18 0.0826245
10 11 100 18 0.0422393
11 11 100 18 0.0133799
12 11 100 18 0.0401203
13 11 100 18 0.0267472
14 11 100 18 0.040121
15 11 100 18 0.0360822
16 11 100 18 0.0491532
17 11 100 18 0.040212
18 11 100 18 0.0401269
3 12 100 18 0.0474794
4 12 100 18 0.0316544
5 12 100 18 0.0798649
6 12 100 18 0.0476348
7 12 100 18 0.110788
8 12 100 18 0.0949637
9 12 100 18 0.0791352
10 12 100 18 0.0474807
11 12 100 18 0.0633089
12 12 100 18 0.0791035
13 12 100 18 0.0317307
14 12 100 18 0.0477443
15 12 100 18 0.0493157
16 12 100 18 0.0316544
17 12 100 18 0.0790076
18 12 100 18 0.0791338
3 13 100 18 0.0174768
4 13 100 18 0.0174768
5 13 100 18 0.0174866
6 13 100 18 0.0700307
7 13 100 18 0.0178699
8 13 100 18 0.0699024
9 13 100 18 0.139953
10 13 100 18 0.161902
11 13 100 18 0.121782
12 13 100 18 0.052992
13 13 100 18 0.0739312
14 13 100 18 0.0634431
15 13 100 18 0.0176352
16 13 100 18 0.104853
17 13 100 18 0.0181845
18 13 100 18 0.0350815
1 14 100 18 0.0248285
2 14 100 18 0.0176405
3 14 100 18 0.0332483
4 14 100 18 0.0498513
5 14 100 18 0.0498304
6 14 100 18 0.0829594
7 14 100 18 0.049848
8 14 100 18 0.0359342
9 14 100 18 0.0498506
10 14 100 18 0.0830859
11 14 100 18 0.132098
12 14 100 18 0.0692146
13 14 100 18 0.0556449
14 14 100 18 0.0830876
15 14 100 18 0.0664675
16 14 100 18 0.0332409
17 14 100 18 0.0498513
18 14 100 18 0.0333179
1 15 100 18 9.58051e-05
2 15 100 18 0.0146668
4 15 100 18 0.0193457
5 15 100 18 0.0336238
6 15 100 18 0.0402915
7 15 100 18 0.0146668
8 15 100 18 0.0856669
9 15 100 18 0.0293351
10 15 100 18 0.0440006
11 15 100 18 0.16127
12 15 100 18 0.0889689
13 15 100 18 0.153046
14 15 100 18 0.0635071
15 15 100 18 0.0446842
16 15 100 18 0.0587794
17 15 100 18 0.0600161
18 15 100 18 0.0880359
1 16 100 18 0.0135149
2 16 100 18 0.0540833
3 16 100 18 0.0454832
4 16 100 18 0.0270289
5 16 100 18 0.0405492
6 16 100 18 0.0405623
7 16 100 18 0.027028
8 16 100 18 0.0675691
9 16 100 18 0.10844
10 16 100 18 0.071792
11 16 100 18 2.76279e-05
12 16 100 18 0.108121
13 16 100 18 0.0945099
14 16 100 18 0.0811011
15 16 100 18 0.0840998
16 16 100 18 0.0405446
17 16 100 18 0.0280066
18 16 100 18 0.0675393
1 17 100 18 0.0184163
2 17 100 18 0.00920816
4 17 100 18 0.0368326
5 17 100 18 0.0371656
6 17 100 18 0.0276262
7 17 100 18 0.0368339
8 17 100 18 0.0460408
9 17 100 18 0.0303362
10 17 100 18 0.0343461
11 17 100 18 0.0830615
12 17 100 18 0.110498
13 17 100 18 0.128827
14 17 100 18 0.120933
15 17 100 18 0.0606676
16 17 100 18 0.0994935
17 17 100 18 0.0644571
18 17 100 18 0.0552564
3 18 100 18 0.0136595
4 18 100 18 0.0139967
6 18 100 18 0.0136598
7 18 100 18 0.068297
8 18 100 18 0.0272794
9 18 100 18 0.0776229
10 18 100 18 0.109276
11 18 100 18 0.0409272
12 18 100 18 0.0147513
13 18 100 18 0.0413115
14 18 100 18 0.0691129
15 18 100 18 0.114387
16 18 100 18 0.149936
17 18 100 18 0.122925
18 18 100 18 0.122858
2 19 100 18 1.15624e-06
3 19 100 18 0.0169986
4 19 100 18 0.0341097
5 19 100 18 0.0309552
6 19 100 18 0.0169986
9 19 100 18 0.0174037
10 19 100 18 0.0204496
11 19 100 18 0.0680508
12 19 100 18 0.13463
13 19 100 18 0.101995
14 19 100 18 0.0623181
15 19 100 18 0.0679567
16 19 100 18 0.144649
17 19 100 18 0.167093
18 19 100 18 0.11639
1 20 100 18 0.0578133
2 20 100 18 0.0233928
3 20 100 18 0.0439821
4 20 100 18 0.00037846
5 20 100 18 8.91887e-05
6 20 100 18 2.33077e-05
7 20 100 18 4.36942e-05
8 20 100 18 4.79378e-05
9 20 100 18 9.6059e-05
10 20 100 18 0.0192403
11 20 100 18 0.0576418
12 20 100 18 0.054313
13 20 100 18 0.0654266
14 20 100 18 0.170484
15 20 100 18 0.152064
16 20 100 18 0.0763871
17 20 100 18 0.112068
18 20 100 18 0.166508
1 21 100 18 0.0326135
2 21 100 18 0.0665019
3 21 100 18 0.0614548
4 21 100 18 0.00294634
5 21 100 18 0.00321502
6 21 100 18 1.11716e-05
7 21 100 18 8.93938e-06
8 21 100 18 0.0294151
9 21 100 18 0.0622388
10 21 100 18 0.0150554
11 21 100 18 0.000181054
12 21 100 18 0.10857
13 21 100 18 0.10858
14 21 100 18 0.0716973
15 21 100 18 0.0665376
16 21 100 18 0.107811
17 21 100 18 0.123396
18 21 100 18 0.139766
2 22 100 18 0.0691448
3 22 100 18 0.000409642
4 22 100 18 0.0392446
5 22 100 18 1.37182e-05
6 22 100 18 0.00306081
7 22 100 18 1.99345e-05
8 22 100 18 8.45689e-06
9 22 100 18 0.000141704
10 22 100 18 0.0401325
11 22 100 18 4.54297e-05
12 22 100 18 0.0401567
13 22 100 18 0.00182499
14 22 100 18 0.200729
15 22 100 18 0.206082
16 22 100 18 0.158707
17 22 100 18 0.0431274
18 22 100 18 0.197151
1 23 100 18 0.0253727
2 23 100 18 0.0490372
3 23 100 18 0.12992
4 23 100 18 0.0436678
5 23 100 18 0.0505751
6 23 100 18 0.0505944
7 23 100 18 0.0508742
8 23 100 18 0.0757211
9 23 100 18 0.0507732
10 23 100 18 0.0393173
11 23 100 18 0.0920638
12 23 100 18 0.0349665
13 23 100 18 0.0345308
14 23 100 18 9.34327e-05
15 23 100 18 0.000908382
16 23 100 18 0.0752415
17 23 100 18 0.0811482
18 23 100 18 0.115194
1 24 100 18 0.0164553
2 24 100 18 0.00362302
3 24 100 18 0.000169154
4 24 100 18 0.000221561
5 24 100 18 6.49086e-07
6 24 100 18 0.000329742
7 24 100 18 7.98509e-05
8 24 100 18 0.000192722
9 24 100 18 1.92019e-05
10 24 100 18 0.0425218
11 24 100 18 0.10414
12 24 100 18 0.0943336
13 24 100 18 0.124786
14 24 100 18 0.115591
15 24 100 18 0.178496
16 24 100 18 0.0851027
17 24 100 18 0.083574
18 24 100 18 0.150364
2 25 100 18 1.53254e-06
3 25 100 18 0.026238
4 25 100 18 1.22026e-06
5 25 100 18 0.0636516
6 25 100 18 0.0635633
7 25 100 18 0.0636024
8 25 100 18 0.0644415
9 25 100 18 0.0638446
10 25 100 18 0.000157573
11 25 100 18 0.064105
12 25 100 18 0.130625
13 25 100 18 0.0727638
14 25 100 18 0.0707039
15 25 100 18 0.0635249
16 25 100 18 0.057439
17 25 100 18 0.0634315
18 25 100 18 0.131905
1 26 100 18 0.037871
2 26 100 18 0.00120091
3 26 100 18 7.74087e-06
4 26 100 18 0.0376367
5 26 100 18 0.0380389
6 26 100 18 0.0379002
7 26 100 18 0.0378227
8 26 100 18 0.0239908
9 26 100 18 0.037917
10 26 100 18 0.0406334
11 26 100 18 1.24149e-07
12 26 100 18 0.00307848
13 26 100 18 0.0704679
14 26 100 18 0.102071
15 26 100 18 0.0833279
16 26 100 18 0.120513
17 26 100 18 0.147183
18 26 100 18 0.180339
1 27 100 18 0.000442748
2 27 100 18 1.07649e-06
3 27 100 18 0.0203343
4 27 100 18 2.39218e-05
5 27 100 18 2.06869e-05
6 27 100 18 1.00309e-05
7 27 100 18 6.0604e-07
9 27 100 18 0.000971674
10 27 100 18 0.0306174
11 27 100 18 4.84468e-05
12 27 100 18 0.0914805
13 27 100 18 0.0931703
14 27 100 18 0.115396
15 27 100 18 0.0892775
16 27 100 18 0.278728
17 27 100 18 0.0929357
18 27 100 18 0.186541
1 28 100 18 5.45638e-07
2 28 100 18 0.170038
3 28 100 18 0.0010351
4 28 100 18 2.63771e-07
5 28 100 18 1.71338e-05
6 28 100 18 5.33778e-05
7 28 100 18 0.000126061
8 28 100 18 5.52235e-07
9 28 100 18 1.21008e-07
10 28 100 18 6.48978e-05
11 28 100 18 7.38415e-06
12 28 100 18 0.00156908
13 28 100 18 0.00122082
14 28 100 18 0.104807
15 28 100 18 0.117264
16 28 100 18 0.120778
17 28 100 18 0.241461
18 28 100 18 0.241557
2 29 100 18 0.000142755
3 29 100 18 0.0838266
4 29 100 18 0.0836708
5 29 100 18 7.8596e-06
6 29 100 18 0.0844754
7 29 100 18 0.094258
11 29 100 18 0.0845467
12 29 100 18 0.0845714
13 29 100 18 0.087736
14 29 100 18 0.0845508
15 29 100 18 0.109704
16 29 100 18 0.0845464
17 29 100 18 3.00843e-06
18 29 100 18 0.11796
2 30 100 18 5.08412e-06
3 30 100 18 4.42735e-07
5 30 100 18 5.62739e-07
6 30 100 18 1.10238e-06
11 30 100 18 2.55157e-05
12 30 100 18 0.000122498
13 30 100 18 0.166132
14 30 100 18 0.166344
15 30 100 18 0.166316
16 30 100 18 0.166138
17 30 100 18 0.168573
18 30 100 18 0.166342
2 31 100 18 0.000637356
3 31 100 18 5.86932e-06
5 31 100 18 9.0829e-06
6 31 100 18 0.000104668
9 31 100 18 4.00455e-05
11 31 100 18 0.140362
12 31 100 18 6.87975e-05
14 31 100 18 7.48545e-05
15 31 100 18 1.2813e-05
17 31 100 18 4.01537e-05
18 31 100 18 0.858644
3 32 100 18 0.000347108
4 32 100 18 4.01356e-06
10 32 100 18 3.42774e-05
14 32 100 18 1.64985e-05
16 32 100 18 0.00302191
17 32 100 18 0.996516
18 32 100 18 6.06462e-05
2 33 100 18 3.96778e-06
3 33 100 18 2.18046e-06
4 33 100 18 5.49378e-06
9 33 100 18 2.09665e-05
11 33 100 18 0.000352755
14 33 100 18 4.54482e-05
17 33 100 18 3.0457e-05
18 33 100 18 0.999539
11 34 100 18 0.999999
17 34 100 18 1.44995e-06
3 35 100 18 1.27435e-06
9 35 100 18 1.25137e-05
10 35 100 18 0.999949
12 35 100 18 4.03293e-06
14 35 100 18 3.26807e-05
1 0 100 19 0.00015074
2 0 100 19 0.0452091
3 0 100 19 0.0749166
4 0 100 19 0.0439771
5 0 100 19 0.0633066
6 0 100 19 0.0804264
7 0 100 19 0.0588697
8 0 100 19 0.054793
9 0 100 19 0.0660854
10 0 100 19 0.0691646
11 0 100 19 0.0457329
12 0 100 19 0.05883
13 0 100 19 0.0571535
14 0 100 19 0.0586511
15 0 100 19 0.0579412
16 0 100 19 0.0463648
17 0 100 19 0.0365388
18 0 100 19 0.0758827
19 0 100 19 0.00600543
1 1 100 19 0.813325
2 1 100 19 0.0922667
3 1 100 19 0.0307654
4 1 100 19 4.21578e-07
5 1 100 19 2.50792e-07
6 1 100 19 3.76313e-05
7 1 100 19 0.00222577
8 1 100 19 0.0153433
9 1 100 19 7.46727e-07
10 1 100 19 0.015343
11 1 100 19 0.030686
12 1 100 19 2.8786e-07
16 1 100 19 5.15258e-07
17 1 100 19 2.2022e-06
18 1 100 19 1.48478e-06
19 1 100 19 8.85897e-07
1 2 100 19 0.181578
2 2 100 19 0.312254
3 2 100 19 0.15085
4 2 100 19 0.0808715
5 2 100 19 0.0641755
6 2 100 19 0.0403621
7 2 100 19 0.0489406
9 2 100 19 0.0100806
10 2 100 19 0.0100806
11 2 100 19 0.0201612
12 2 100 19 0.0201612
13 2 100 19 0.0100806
15 2 100 19 0.0201612
16 2 100 19 0.010081
17 2 100 19 0.0100806
18 2 100 19 0.0100807
19 2 100 19 4.76515e-07
1 3 100 19 0.0717951
2 3 100 19 0.159953
3 3 100 19 0.291745
4 3 100 19 0.145224
5 3 100 19 0.11789
6 3 100 19 0.0534131
8 3 100 19 0.0177737
9 3 100 19 0.0178067
10 3 100 19 0.0355449
11 3 100 19 0.0177725
12 3 100 19 0.0355415
13 3 100 19 0.0177676
18 3 100 19 2.92055e-07
19 3 100 19 0.0177727
1 4 100 19 0.104325
2 4 100 19 0.13334
3 4 100 19 0.180697
4 4 100 19 0.238059
5 4 100 19 0.095455
6 4 100 19 0.0860003
7 4 100 19 0.0381382
8 4 100 19 0.0381389
9 4 100 19 0.0190962
11 4 100 19 0.00953475
12 4 100 19 0.0190694
13 4 100 19 0.00953475
16 4 100 19 2.23855e-07
17 4 100 19 0.00953694
18 4 100 19 0.00953948
19 4 100 19 0.00953509
1 5 100 19 0.0573757
2 5 100 19 0.116126
3 5 100 19 0.0725721
4 5 100 19 0.159612
5 5 100 19 0.129745
6 5 100 19 0.0870949
7 5 100 19 0.116132
8 5 100 19 0.0725757
9 5 100 19 0.0436114
10 5 100 19 0.0435475
11 5 100 19 0.0290315
12 5 100 19 0.0290793
13 5 100 19 0.0145158
14 5 100 19 0.0289775
16 5 100 19 1.22673e-06
18 5 100 19 2.24111e-07
19 5 100 19 2.10999e-06
1 6 100 19 0.0348244
2 6 100 19 0.139469
3 6 100 19 0.0406095
4 6 100 19 0.171594
5 6 100 19 0.167721
6 6 100 19 0.138941
7 6 100 19 0.104554
8 6 100 19 0.0870652
9 6 100 19 0.0613178
11 6 100 19 0.0190733
13 6 100 19 0.0174124
14 6 100 19 0.0174122
18 6 100 19 1.99067e-07
19 6 100 19 5.80512e-06
1 7 100 19 0.0710565
2 7 100 19 0.0237135
3 7 100 19 0.129179
4 7 100 19 0.0966883
5 7 100 19 0.154039
6 7 100 19 0.139069
7 7 100 19 0.100937
8 7 100 19 0.116004
9 7 100 19 0.0473713
10 7 100 19 0.0743377
13 7 100 19 8.38998e-06
15 7 100 19 6.33166e-07
17 7 100 19 2.21798e-06
18 7 100 19 0.0239074
19 7 100 19 0.0236855
1 8 100 19 0.022115
2 8 100 19 0.011043
3 8 100 19 0.0472065
4 8 100 19 0.0764185
5 8 100 19 0.116945
6 8 100 19 0.143571
7 8 100 19 0.107056
8 8 100 19 0.111532
9 8 100 19 0.0882464
10 8 100 19 0.101988
11 8 100 19 0.0630025
12 8 100 19 0.044172
13 8 100 19 0.022086
14 8 100 19 0.011043
15 8 100 19 0.0220859
16 8 100 19 0.011043
18 8 100 19 7.30295e-07
19 8 100 19 0.00044546
2 9 100 19 0.0316823
3 9 100 19 0.0174828
4 9 100 19 0.0373739
5 9 100 19 0.0749633
6 9 100 19 0.111162
7 9 100 19 0.112446
8 9 100 19 0.0749742
9 9 100 19 0.125995
10 9 100 19 0.168987
11 9 100 19 0.0574991
12 9 100 19 0.112461
15 9 100 19 0.0374867
16 9 100 19 0.037487
1 10 100 19 0.0296609
2 10 100 19 4.08008e-06
3 10 100 19 0.0148305
4 10 100 19 0.0593411
5 10 100 19 0.0303614
6 10 100 19 0.0593185
7 10 100 19 0.133491
8 10 100 19 0.176579
9 10 100 19 0.0960328
10 10 100 19 0.0148339
11 10 100 19 0.103956
12 10 100 19 0.0444914
13 10 100 19 0.0148325
14 10 100 19 0.044491
15 10 100 19 0.0148454
16 10 100 19 0.0887641
17 10 100 19 0.0296609
18 10 100 19 0.0296609
19 10 100 19 0.0148455
1 11 100 19 0.0140368
2 11 100 19 0.0421142
3 11 100 19 0.0194405
4 11 100 19 1.76689e-06
5 11 100 19 0.0280547
6 11 100 19 0.0559661
7 11 100 19 0.0707333
8 11 100 19 0.057059
9 11 100 19 0.0566563
10 11 100 19 0.0982664
11 11 100 19 0.0842331
12 11 100 19 0.0842444
13 11 100 19 0.0842299
14 11 100 19 0.0559902
15 11 100 19 0.0421194
16 11 100 19 0.057224
17 11 100 19 0.0701893
18 11 100 19 0.0513605
19 11 100 19 0.0280803
1 12 100 19 0.0113351
2 12 100 19 0.0113629
3 12 100 19 0.0180656
4 12 100 19 0.0114043
5 12 100 19 0.0227233
6 12 100 19 0.0455036
7 12 100 19 0.0674165
8 12 100 19 0.101947
9 12 100 19 0.121757
10 12 100 19 0.0914865
11 12 100 19 0.0863305
12 12 100 19 0.0807322
13 12 100 19 0.113005
14 12 100 19 0.0906459
15 12 100 19 0.0453029
16 12 100 19 0.0113357
17 12 100 19 0.0340054
18 12 100 19 0.000267629
19 12 100 19 0.0353728
2 13 100 19 0.0163253
3 13 100 19 0.0652934
4 13 100 19 0.0326513
5 13 100 19 6.82188e-06
6 13 100 19 0.0183235
7 13 100 19 0.0653953
8 13 100 19 0.0653653
9 13 100 19 0.100041
10 13 100 19 0.0677832
11 13 100 19 0.0584397
12 13 100 19 0.0816106
13 13 100 19 0.0658988
14 13 100 19 0.0192477
15 13 100 19 0.0482759
16 13 100 19 0.0818059
17 13 100 19 0.082937
18 13 100 19 0.065298
19 13 100 19 0.0653009
1 14 100 19 0.0125889
2 14 100 19 0.0377668
3 14 100 19 0.000668568
4 14 100 19 0.0251595
5 14 100 19 0.015864
6 14 100 19 0.0125889
7 14 100 19 0.0251786
8 14 100 19 0.0502951
9 14 100 19 0.0507036
10 14 100 19 0.0509402
11 14 100 19 0.075536
12 14 100 19 0.0873527
13 14 100 19 0.0649466
14 14 100 19 0.0996151
15 14 100 19 0.0759551
16 14 100 19 0.0755785
17 14 100 19 0.0755334
18 14 100 19 0.0504407
19 14 100 19 0.113288
1 15 100 19 2.77245e-07
3 15 100 19 0.0119815
5 15 100 19 0.0479435
6 15 100 19 0.011983
7 15 100 19 0.0239647
8 15 100 19 0.0579544
9 15 100 19 0.0838139
10 15 100 19 0.0718858
11 15 100 19 0.0838296
12 15 100 19 0.0606087
13 15 100 19 0.0889026
14 15 100 19 0.0830254
15 15 100 19 0.0958387
16 15 100 19 0.0718968
17 15 100 19 0.059905
18 15 100 19 0.0401738
19 15 100 19 0.106293
2 16 100 19 1.04118e-06
3 16 100 19 0.0472526
5 16 100 19 0.0322035
6 16 100 19 0.0822921
7 16 100 19 0.0410104
8 16 100 19 0.0409944
9 16 100 19 0.0597475
10 16 100 19 4.00772e-06
11 16 100 19 0.122173
12 16 100 19 0.0410015
13 16 100 19 0.0613987
14 16 100 19 0.0809801
15 16 100 19 0.0820069
16 16 100 19 0.144669
17 16 100 19 0.0409926
18 16 100 19 0.0410171
19 16 100 19 0.0822556
1 17 100 19 2.76573e-06
3 17 100 19 3.29e-05
4 17 100 19 0.0413231
5 17 100 19 0.0431306
6 17 100 19 0.0137765
8 17 100 19 0.0137744
9 17 100 19 0.0282983
10 17 100 19 0.0381078
11 17 100 19 0.0826431
12 17 100 19 0.0688722
13 17 100 19 0.0688703
14 17 100 19 0.0963847
15 17 100 19 0.0676351
16 17 100 19 0.110155
17 17 100 19 0.142534
18 17 100 19 0.101486
19 17 100 19 0.082973
2 18 100 19 1.52601e-06
3 18 100 19 3.40386e-07
5 18 100 19 0.0163085
6 18 100 19 0.033696
7 18 100 19 2.33047e-06
8 18 100 19 0.0163085
9 18 100 19 2.61915e-06
10 18 100 19 0.032617
11 18 100 19 0.0489255
12 18 100 19 0.0521333
13 18 100 19 0.0812093
14 18 100 19 0.147532
15 18 100 19 0.0992563
16 18 100 19 0.102094
17 18 100 19 0.0610469
18 18 100 19 0.162476
19 18 100 19 0.14639
3 19 100 19 7.4718e-07
4 19 100 19 3.03033e-07
5 19 100 19 2.02218e-06
6 19 100 19 0.0495019
7 19 100 19 0.0247509
9 19 100 19 2.80361e-07
10 19 100 19 0.049503
11 19 100 19 0.0120096
12 19 100 19 0.123754
13 19 100 19 0.134957
14 19 100 19 0.12395
15 19 100 19 0.148493
16 19 100 19 0.115709
17 19 100 19 0.0495027
18 19 100 19 0.0690574
19 19 100 19 0.0988081
2 20 100 19 0.0119621
3 20 100 19 4.0453e-06
4 20 100 19 0.0138193
5 20 100 19 0.0406249
6 20 100 19 0.013876
7 20 100 19 0.0967353
8 20 100 19 0.0713437
9 20 100 19 0.055321
10 20 100 19 0.0552767
11 20 100 19 0.0552773
12 20 100 19 0.0753007
13 20 100 19 0.110185
14 20 100 19 0.110446
15 20 100 19 0.082916
16 20 100 19 0.0596458
17 20 100 19 0.0918426
18 20 100 19 0.0276391
19 20 100 19 0.0277849
1 21 100 19 1.23786e-06
2 21 100 19 0.00744421
3 21 100 19 0.0189121
4 21 100 19 0.00261474
5 21 100 19 4.6344e-05
6 21 100 19 0.0184048
7 21 100 19 0.0361026
8 21 100 19 0.0182581
9 21 100 19 0.0606521
10 21 100 19 0.0183868
11 21 100 19 0.00614971
12 21 100 19 0.0525273
13 21 100 19 0.0342933
14 21 100 19 0.0695027
15 21 100 19 0.0765365
16 21 100 19 0.0897017
17 21 100 19 0.176181
18 21 100 19 0.187241
19 21 100 19 0.127044
1 22 100 19 0.0033646
2 22 100 19 0.0292224
3 22 100 19 0.0222513
4 22 100 19 0.0173221
5 22 100 19 0.0273949
6 22 100 19 0.0339902
7 22 100 19 0.017364
8 22 100 19 0.00684759
9 22 100 19 0.0181507
10 22 100 19 0.0807419
11 22 100 19 0.0512271
12 22 100 19 0.0360116
13 22 100 19 0.074817
14 22 100 19 0.0930342
15 22 100 19 0.12041
16 22 100 19 0.0930206
17 22 100 19 0.135219
18 22 100 19 0.0701201
19 22 100 19 0.0694903
1 23 100 19 1.0472e-07
2 23 100 19 3.00494e-06
3 23 100 19 3.82219e-06
4 23 100 19 3.45432e-06
5 23 100 19 2.52515e-05
6 23 100 19 1.05952e-05
7 23 100 19 9.29554e-05
8 23 100 19 0.000776973
9 23 100 19 0.070912
10 23 100 19 0.0556316
11 23 100 19 0.133869
12 23 100 19 0.0921797
13 23 100 19 0.153733
14 23 100 19 0.122126
15 23 100 19 0.10376
16 23 100 19 0.103481
17 23 100 19 0.00048166
18 23 100 19 0.0486258
19 23 100 19 0.114284
1 24 100 19 0.0474623
2 24 100 19 0.000406277
3 24 100 19 2.38211e-05
4 24 100 19 1.1968e-05
5 24 100 19 0.000107879
6 24 100 19 0.000118937
7 24 100 19 2.59475e-05
8 24 100 19 0.0968538
9 24 100 19 0.0985983
10 24 100 19 0.0477374
11 24 100 19 0.0686142
12 24 100 19 1.23902e-05
13 24 100 19 0.000104242
14 24 100 19 0.00373211
15 24 100 19 0.0963446
16 24 100 19 0.119976
17 24 100 19 0.225305
18 24 100 19 0.0495242
19 24 100 19 0.14504
1 25 100 19 0.000291304
2 25 100 19 0.0230541
3 25 100 19 0.000128227
4 25 100 19 3.72433e-05
5 25 100 19 1.14154e-06
6 25 100 19 1.83648e-05
7 25 100 19 0.021909
8 25 100 19 0.00887223
9 25 100 19 0.00274838
10 25 100 19 0.0475395
11 25 100 19 0.0825524
12 25 100 19 0.0717809
13 25 100 19 0.093664
14 25 100 19 0.0557837
15 25 100 19 0.0967108
16 25 100 19 0.145272
17 25 100 19 0.094229
18 25 100 19 0.141623
19 25 100 19 0.113785
1 26 100 19 1.2012e-07
2 26 100 19 1.00938e-05
3 26 100 19 1.62004e-05
4 26 100 19 0.0746901
5 26 100 19 0.0728512
6 26 100 19 2.0768e-06
7 26 100 19 0.0358628
8 26 100 19 2.17278e-06
9 26 100 19 0.000249164
10 26 100 19 9.662e-05
11 26 100 19 0.0371067
12 26 100 19 0.0371261
13 26 100 19 0.0379111
14 26 100 19 0.0748041
15 26 100 19 0.0928469
16 26 100 19 0.0575877
17 26 100 19 0.146076
18 26 100 19 0.111243
19 26 100 19 0.221517
2 27 100 19 4.31633e-07
3 27 100 19 1.99881e-06
4 27 100 19 2.33405e-06
5 27 100 19 1.03282e-07
6 27 100 19 1.1447e-05
7 27 100 19 1.01535e-05
8 27 100 19 0.0861936
9 27 100 19 2.81084e-06
10 27 100 19 6.31618e-05
11 27 100 19 9.67215e-05
12 27 100 19 0.0731
13 27 100 19 0.0733536
14 27 100 19 0.000718016
15 27 100 19 2.36105e-05
16 27 100 19 0.139336
17 27 100 19 0.292399
18 27 100 19 0.0984905
19 27 100 19 0.236196
2 28 100 19 1.98959e-06
3 28 100 19 5.19118e-05
4 28 100 19 7.493e-06
5 28 100 19 2.30104e-05
6 28 100 19 2.58342e-06
7 28 100 19 0.0014771
8 28 100 19 5.0018e-05
9 28 100 19 0.104273
10 28 100 19 0.174011
11 28 100 19 6.8928e-05
12 28 100 19 0.000423588
13 28 100 19 0.175826
14 28 100 19 0.00014412
15 28 100 19 1.32255e-05
16 28 100 19 0.000223618
17 28 100 19 1.37764e-05
18 28 100 19 0.365736
19 28 100 19 0.177653
2 29 100 19 3.6115e-07
3 29 100 19 0.000108714
4 29 100 19 1.93606e-05
7 29 100 19 5.79012e-07
8 29 100 19 4.80117e-07
9 29 100 19 5.97954e-05
11 29 100 19 1.57142e-06
12 29 100 19 1.4426e-06
13 29 100 19 5.61011e-05
14 29 100 19 0.0622306
15 29 100 19 0.099179
16 29 100 19 0.0677078
17 29 100 19 0.13242
18 29 100 19 0.19038
19 29 100 19 0.447834
5 30 100 19 1.06702e-05
6 30 100 19 2.07692e-07
7 30 100 19 0.0680157
8 30 100 19 0.0848959
9 30 100 19 0.0848978
10 30 100 19 0.127344
11 30 100 19 0.0929838
12 30 100 19 0.0782712
13 30 100 19 0.0848975
14 30 100 19 0.000605149
15 30 100 19 0.0762961
16 30 100 19 0.0424606
17 30 100 19 0.0444367
18 30 100 19 0.127367
19 30 100 19 0.0875176
1 31 100 19 9.53726e-07
3 31 100 19 2.78594e-05
4 31 100 19 4.63722e-06
7 31 100 19 5.90503e-06
8 31 100 19 2.66148e-06
9 31 100 19 1.55597e-06
11 31 100 19 1.37746e-06
12 31 100 19 1.81635e-06
13 31 100 19 0.00114052
14 31 100 19 0.1875
15 31 100 19 0.155514
16 31 100 19 0.107447
17 31 100 19 0.21901
18 31 100 19 0.107364
19 31 100 19 0.221978
2 32 100 19 4.06464e-05
3 32 100 19 7.05694e-05
4 32 100 19 8.59384e-06
5 32 100 19 4.52301e-07
6 32 100 19 1.01776e-06
12 32 100 19 1.07153e-06
14 32 100 19 0.000803988
15 32 100 19 0.0127919
16 32 100 19 0.212176
17 32 100 19 0.261591
18 32 100 19 0.261632
19 32 100 19 0.250883
1 33 100 19 1.17056e-06
2 33 100 19 2.69258e-07
3 33 100 19 0.000133567
6 33 100 19 3.93714e-07
9 33 100 19 0.000159482
14 33 100 19 4.25958e-05
15 33 100 19 0.381784
16 33 100 19 0.211467
17 33 100 19 0.197242
18 33 100 19 0.20917
19 33 100 19 2.38823e-07
2 34 100 19 1.17706e-06
9 34 100 19 5.96936e-06
16 34 100 19 2.22294e-05
17 34 100 19 2.91443e-05
19 34 100 19 0.999941
1 35 100 19 0.0109066
2 35 100 19 0.0941574
3 35 100 19 0.735625
12 35 100 19 0.0533307
15 35 100 19 0.105981
3 36 100 19 0.998664
9 36 100 19 3.03004e-06
15 36 100 19 0.00132567
16 36 100 19 7.73352e-06
2 37 100 19 0.991615
3 37 100 19 0.00301197
6 37 100 19 0.00367827
9 37 100 19 0.00110078
12 37 100 19 0.00041515
14 37 100 19 0.000128214
16 37 100 19 5.01484e-05
3 38 100 19 0.73501
6 38 100 19 0.00947954
12 38 100 19 0.231335
15 38 100 19 0.0241749
11 39 100 19 1
1 0 100 20 0.00868526
2 0 100 20 0.02757
3 0 100 20 0.0424625
4 0 100 20 0.0703919
5 0 100 20 0.0455705
6 0 100 20 0.045551
7 0 100 20 0.0693243
8 0 100 20 0.0592541
9 0 100 20 0.0738523
10 0 100 20 0.0591948
11 0 100 20 0.0453312
12 0 100 20 0.0592014
13 0 100 20 0.0728903
14 0 100 20 0.0727643
15 0 100 20 0.0410145
16 0 100 20 0.0455418
17 0 100 20 0.0501093
18 0 100 20 0.0364533
19 0 100 20 0.0637976
20 0 100 20 0.0110396
1 1 100 20 0.771211
2 1 100 20 0.0786456
3 1 100 20 0.0198137
5 1 100 20 0.0350149
7 1 100 20 0.0380643
8 1 100 20 0.0190833
10 1 100 20 0.0190394
12 1 100 20 0.0190819
15 1 100 20 4.5021e-05
16 1 100 20 4.2627e-07
1 2 100 20 0.152115
2 2 100 20 0.365514
3 2 100 20 0.190261
4 2 100 20 0.0730288
5 2 100 20 0.0438163
6 2 100 20 0.029208
8 2 100 20 0.0292108
9 2 100 20 1.48656e-06
10 2 100 20 2.33572e-07
13 2 100 20 0.0146058
14 2 100 20 0.0146055
15 2 100 20 0.0146055
16 2 100 20 0.029211
18 2 100 20 0.0146055
19 2 100 20 0.0146055
20 2 100 20 0.0146055
1 3 100 20 0.153272
2 3 100 20 0.182582
3 3 100 20 0.275638
4 3 100 20 0.0931147
5 3 100 20 0.0984415
6 3 100 20 0.0843822
7 3 100 20 0.0281264
8 3 100 20 0.0281264
9 3 100 20 0.0140632
10 3 100 20 0.0140949
11 3 100 20 0.0140632
13 3 100 20 3.99668e-07
14 3 100 20 0.0140632
18 3 100 20 2.54571e-06
20 3 100 20 2.99548e-05
1 4 100 20 0.0894518
2 4 100 20 0.145303
3 4 100 20 0.165926
4 4 100 20 0.223478
5 4 100 20 0.0210167
6 4 100 20 0.0207419
7 4 100 20 0.0424307
9 4 100 20 0.0207431
10 4 100 20 0.020746
12 4 100 20 0.0829677
13 4 100 20 0.0427455
14 4 100 20 0.0207419
15 4 100 20 0.0414349
16 4 100 20 0.0207457
17 4 100 20 0.0207419
18 4 100 20 0.0207435
19 4 100 20 2.61761e-05
20 4 100 20 1.49132e-05
1 5 100 20 0.098928
2 5 100 20 0.0786852
3 5 100 20 0.140325
4 5 100 20 0.200243
5 5 100 20 0.240291
6 5 100 20 0.120454
7 5 100 20 0.0202519
8 5 100 20 0.0400484
9 5 100 20 2.51937e-07
10 5 100 20 0.0200245
11 5 100 20 4.65103e-06
12 5 100 20 7.67964e-06
13 5 100 20 3.46864e-06
14 5 100 20 7.51419e-07
16 5 100 20 4.80659e-07
17 5 100 20 3.18858e-07
18 5 100 20 0.0200243
19 5 100 20 0.0200243
20 5 100 20 0.000682599
1 6 100 20 0.0462435
2 6 100 20 0.15223
3 6 100 20 0.0910076
4 6 100 20 0.0941637
5 6 100 20 0.129383
6 6 100 20 0.137066
7 6 100 20 0.106434
8 6 100 20 0.0759303
9 6 100 20 0.0913803
10 6 100 20 0.0304593
11 6 100 20 6.33379e-06
12 6 100 20 0.01523
16 6 100 20 0.0152299
19 6 100 20 0.0152366
3 7 100 20 0.0537736
4 7 100 20 0.105642
5 7 100 20 0.107481
6 7 100 20 0.23271
7 7 100 20 0.142733
8 7 100 20 0.126282
9 7 100 20 0.03782
10 7 100 20 0.036182
12 7 100 20 0.0179009
13 7 100 20 0.0179011
14 7 100 20 4.0209e-06
15 7 100 20 0.0179011
17 7 100 20 0.0358023
18 7 100 20 0.017901
19 7 100 20 0.0179011
20 7 100 20 0.0320643
1 8 100 20 0.0204933
2 8 100 20 0.0387227
3 8 100 20 0.0193614
4 8 100 20 0.0408073
5 8 100 20 0.183572
6 8 100 20 0.154582
7 8 100 20 0.136024
8 8 100 20 0.135528
9 8 100 20 0.115001
10 8 100 20 0.0776393
11 8 100 20 0.0200251
12 8 100 20 2.3572e-06
13 8 100 20 4.55982e-07
14 8 100 20 0.000129574
15 8 100 20 0.0193614
17 8 100 20 3.79596e-06
18 8 100 20 0.0193618
19 8 100 20 0.019383
20 8 100 20 1.14123e-06
1 9 100 20 0.0162994
2 9 100 20 0.0489808
3 9 100 20 0.0814731
4 9 100 20 0.032601
5 9 100 20 0.032725
6 9 100 20 0.0999992
7 9 100 20 0.146691
8 9 100 20 0.0814994
9 9 100 20 0.124552
10 9 100 20 0.123012
11 9 100 20 0.114306
12 9 100 20 0.0488982
13 9 100 20 0.0162994
16 9 100 20 0.0163561
18 9 100 20 0.0163012
19 9 100 20 1.92323e-06
20 9 100 20 4.12189e-06
1 10 100 20 8.17442e-05
2 10 100 20 3.57373e-06
3 10 100 20 0.0184149
4 10 100 20 0.0727414
5 10 100 20 0.0734128
6 10 100 20 0.0709434
7 10 100 20 0.0734229
8 10 100 20 0.0924719
9 10 100 20 0.0752454
10 10 100 20 0.118427
11 10 100 20 0.12938
12 10 100 20 0.0550596
13 10 100 20 0.0368123
14 10 100 20 0.0551139
15 10 100 20 0.0183534
17 10 100 20 0.0367244
18 10 100 20 0.0183521
19 10 100 20 0.0183532
20 10 100 20 0.0366855
1 11 100 20 5.3433e-07
2 11 100 20 0.0190116
3 11 100 20 0.0190125
4 11 100 20 0.0380232
5 11 100 20 0.0760458
6 11 100 20 0.0190892
7 11 100 20 0.107213
8 11 100 20 0.151474
9 11 100 20 0.0979607
10 11 100 20 0.095051
11 11 100 20 0.164495
12 11 100 20 0.0570614
13 11 100 20 0.079511
14 11 100 20 0.0190116
15 11 100 20 0.0380232
17 11 100 20 9.67942e-07
18 11 100 20 0.0190116
19 11 100 20 8.44047e-07
20 11 100 20 1.70744e-06
1 12 100 20 0.000164392
2 12 100 20 0.0289661
3 12 100 20 3.52459e-06
4 12 100 20 8.03813e-05
5 12 100 20 0.0154066
6 12 100 20 0.0461905
7 12 100 20 0.0615898
8 12 100 20 0.0607493
9 12 100 20 0.127981
10 12 100 20 0.0657906
11 12 100 20 0.0668622
12 12 100 20 0.123176
13 12 100 20 0.0612046
14 12 100 20 0.123165
15 12 100 20 0.0769812
16 12 100 20 0.0769809
17 12 100 20 0.0460994
18 12 100 20 2.52632e-07
19 12 100 20 0.0153962
20 12 100 20 0.00321144
3 13 100 20 6.65875e-06
4 13 100 20 0.0318378
5 13 100 20 0.0477543
6 13 100 20 0.0159181
7 13 100 20 0.0477485
8 13 100 20 0.127344
9 13 100 20 0.10782
10 13 100 20 0.12705
11 13 100 20 0.132302
12 13 100 20 0.0636865
13 13 100 20 0.0611632
14 13 100 20 0.0795923
15 13 100 20 0.0477575
16 13 100 20 0.0322241
17 13 100 20 0.0300159
19 13 100 20 0.0159423
20 13 100 20 0.0318379
1 14 100 20 0.0170482
2 14 100 20 4.46708e-05
3 14 100 20 1.71691e-06
4 14 100 20 0.0170467
5 14 100 20 0.0511371
6 14 100 20 0.0511115
7 14 100 20 0.0187549
8 14 100 20 0.0170456
9 14 100 20 0.0511369
10 14 100 20 0.0635257
11 14 100 20 0.0852492
12 14 100 20 0.0853577
13 14 100 20 0.0842071
14 14 100 20 0.085323
15 14 100 20 0.119319
16 14 100 20 0.0336771
17 14 100 20 0.0340913
18 14 100 20 0.100885
19 14 100 20 0.0684218
20 14 100 20 0.0166153
2 15 100 20 0.0204721
4 15 100 20 4.9882e-06
6 15 100 20 2.31634e-07
8 15 100 20 6.15514e-06
9 15 100 20 0.0625975
10 15 100 20 0.122732
11 15 100 20 0.0208145
12 15 100 20 0.0409769
13 15 100 20 0.122833
14 15 100 20 0.0409449
15 15 100 20 0.143294
16 15 100 20 0.102436
17 15 100 20 0.0614153
18 15 100 20 0.0569781
19 15 100 20 0.0816611
20 15 100 20 0.122833
1 16 100 20 0.0159042
2 16 100 20 0.0318085
3 16 100 20 0.0318084
4 16 100 20 0.0465749
5 16 100 20 0.0159042
6 16 100 20 0.0318085
7 16 100 20 0.0159045
8 16 100 20 0.0477196
9 16 100 20 0.0282298
10 16 100 20 0.0318089
11 16 100 20 0.0642224
12 16 100 20 0.0636081
13 16 100 20 0.0954484
14 16 100 20 0.0794315
15 16 100 20 0.127234
16 16 100 20 0.0794722
17 16 100 20 0.0782578
18 16 100 20 0.0671444
19 16 100 20 0.0318163
20 16 100 20 0.0158941
3 17 100 20 0.0355847
