0 16 0.382958
0 33 0.446021
0 40 0.0668341
0 41 6.36139e-07
0 72 0.0955234
0 96 0.00204612
0 491 0.000162388
0 696 6.19271e-06
0 737 0.00643965
0 1144 1.19295e-06
0 1395 2.25205e-06
0 2721 3.80263e-06
2 2 0.778326
2 842 0.11119
2 2721 0.110484
3 96 0.0738618
3 171 0.926138
4 991 0.495982
4 7058 0.504018
5 3662 0.5
5 5824 0.5
6 7 1
7 3 0.580467
7 7 0.419533
8 3 0.208989
8 4 0.209067
8 5 0.209067
8 6 0.209067
8 7 0.163811
9 72 0.927231
9 604 0.072769
10 9 1
11 7 0.27335
11 8 0.674538
11 9 0.0521123
12 9 3.33046e-05
12 10 0.499984
12 11 0.499983
13 102 1
14 264 1
15 3 1
16 4 1
17 87 0.277845
17 825 0.722155
18 27 0.878311
18 66 0.117574
18 72 1.57832e-05
18 289 0.00409963
19 12 0.799998
19 3569 0.200002
20 95 0.250003
20 802 0.249999
20 1898 0.249999
20 1899 0.249999
21 33 0.959191
21 72 0.00978537
21 96 6.80272e-06
21 105 0.0300481
21 385 0.000968745
22 5 0.285149
22 96 0.714851
23 6 0.922353
23 204 0.0768624
23 1932 0.000784969
24 57 0.666713
24 288 0.333287
25 72 1
26 33 0.00233302
26 40 2.16384e-05
26 72 0.972355
26 93 0.00264376
26 96 0.0226469
27 9 0.166665
27 12 0.166667
27 13 0.166667
27 14 0.166667
27 15 0.166667
27 17 0.166667
28 16 0.106769
28 33 0.0114316
28 40 0.264786
28 72 0.0193618
28 96 0.597651
29 19 0.772682
29 1205 0.227259
29 9654 5.91977e-05
30 5 0.249911
30 10 0.25003
30 20 0.25003
30 21 0.25003
31 96 8.52387e-05
31 108 5.08993e-06
31 245 7.2154e-06
31 264 0.125106
31 354 0.0288399
31 574 0.830341
31 7454 0.0156148
32 18 1
33 22 0.726067
33 124 0.273933
33 759 6.22091e-07
34 23 0.5
34 1648 0.5
35 16 0.999997
35 72 5.42052e-07
35 96 1.94541e-06
36 24 0.999994
36 25 6.00768e-06
37 25 0.427146
37 127 0.145699
37 151 0.320366
37 2197 0.106789
38 32 1
39 477 1
40 96 2.29759e-06
40 102 0.000258807
40 401 0.465939
40 431 0.5338
41 393 0.666667
41 708 0.166667
41 801 0.166667
42 26 0.226573
42 27 0.336405
42 28 0.226573
42 29 0.210449
43 29 0.195804
43 105 0.794116
43 714 0.01008
44 29 0.334147
44 344 0.332927
44 7033 0.332925
45 30 0.5
45 31 0.25
45 134 0.25
46 32 1
47 737 1
48 25 0.132592
48 32 0.13557
48 34 0.0662962
48 87 0.0692613
48 151 0.331481
48 759 0.0663213
48 1630 0.0662962
48 2722 0.065829
48 2786 0.0663521
49 35 0.684508
49 92 0.315492
50 36 1
51 87 0.563867
51 96 0.436133
52 37 0.9
52 1295 0.1
53 38 0.431667
53 39 0.431667
53 40 0.136651
53 41 1.46499e-05
54 38 0.322869
54 290 0.333213
54 354 0.000186237
54 417 0.0105126
54 1345 0.333219
55 50 0.848829
55 88 0.151171
56 41 0.999994
56 92 5.65208e-06
57 150 0.249998
57 1619 0.500003
57 9113 0.249999
58 6 0.124996
58 8 0.125001
58 45 0.125001
58 46 0.125001
58 47 0.125001
58 48 0.125001
58 49 0.125001
58 50 0.125001
59 25 1
60 44 0.875
60 3344 0.125
61 2889 0.304189
61 3504 0.695811
62 1596 0.333333
62 1604 0.333333
62 1605 0.333333
63 323 1.16731e-05
63 567 0.193648
63 1103 0.473796
63 3251 0.332544
64 9 0.0047001
64 51 0.9953
65 52 0.800039
65 119 0.199961
66 53 0.667128
66 94 0.222376
66 127 0.110496
67 191 0.401719
67 192 0.397422
67 822 0.200859
68 9 9.22179e-05
68 42 0.956743
68 43 0.043165
69 43 0.495601
69 1630 0.336263
69 9930 0.168135
70 25 0.570411
70 41 0.0570963
70 127 0.170786
70 151 0.201707
71 54 0.218822
71 87 0.148975
71 1685 0.421469
71 2954 0.210734
72 66 0.7498
72 241 0.000494098
72 1941 0.249706
73 5 0.169314
73 57 0.661062
73 58 0.169624
74 5 3.47823e-05
74 59 0.999965
75 50 0.2
75 55 0.2
75 56 0.2
75 60 0.2
75 61 0.2
76 118 0.00447282
76 696 0.823935
76 737 0.171592
77 40 0.919663
77 72 0.000267122
77 96 0.0800698
78 64 0.903452
78 218 0.0965482
79 96 1
80 62 0.250074
80 63 0.250236
80 261 0.250074
80 308 0.249616
81 52 0.285684
81 65 0.714316
82 66 0.42058
82 126 0.57942
83 9 0.0071486
83 67 0.496426
83 68 0.496426
84 151 0.323575
84 528 0.287492
84 1090 0.0664514
84 2681 0.322481
85 41 0.142867
85 52 1.98577e-05
85 70 0.142867
85 82 0.142867
85 127 0.142867
85 128 0.142867
85 129 0.142777
85 133 0.142867
86 33 0.0120191
86 96 0.0167356
86 574 0.769148
86 997 0.202097
87 71 0.0998012
87 151 0.0997332
87 289 0.199528
87 1019 0.0997641
87 4930 0.501173
88 286 0.499294
88 354 0.500706
89 25 0.25
89 69 0.25
89 70 0.25
89 71 0.25
90 4 0.250006
90 73 0.249998
90 74 0.249998
90 75 0.249998
91 245 0.2
91 883 0.2
91 884 0.2
91 885 0.2
91 886 0.2
92 32 0.977619
92 185 0.0223812
93 3248 0.2
93 3802 0.2
93 5434 0.2
93 5440 0.2
93 5441 0.2
94 2254 0.333333
94 5141 0.333333
94 5142 0.333333
95 78 1
96 79 1
97 80 0.5
97 81 0.5
98 75 0.199998
98 82 0.2
98 83 0.2
98 84 0.2
98 85 0.2
99 76 0.33746
99 963 0.66254
100 319 0.589733
100 1249 0.410267
101 77 1
102 17 0.199999
102 86 0.4
102 93 0.2
102 94 0.2
103 87 0.975667
103 354 3.36816e-06
103 1478 0.0243301
104 32 0.183564
104 89 0.252394
104 91 0.18794
104 92 0.000326366
104 1725 0.187891
104 8924 0.187885
105 7 0.16638
105 35 0.00182897
105 52 0.16638
105 88 0.166379
105 89 0.166318
105 90 0.166379
105 91 0.166336
106 5 0.663693
106 1774 0.336307
107 95 1
108 96 0.469183
108 759 0.530231
108 1478 0.000583287
108 5869 2.67132e-06
109 103 0.777785
109 5389 0.222215
110 104 0.357374
110 218 0.049954
110 1710 0.24299
110 1723 0.349682
111 95 0.249249
111 97 0.25025
111 98 0.25025
111 101 0.25025
112 99 0.789256
112 245 0.210699
112 4070 4.53456e-05
113 118 0.25
113 1246 0.75
114 100 1
115 112 0.58303
115 118 0.0832786
115 1800 0.250405
115 2792 0.0832864
116 105 1
117 96 0.509972
117 105 0.490028
118 95 0.00132707
118 102 0.332536
118 106 0.333068
118 107 0.333068
119 118 0.200319
119 4008 0.19992
119 4036 0.19992
119 4037 0.19992
119 8020 0.19992
120 95 1
121 111 0.5
121 116 0.5
122 95 0.125346
122 108 0.124967
122 109 0.124967
122 110 0.124967
122 113 0.124967
122 114 0.124853
122 115 0.124967
122 117 0.124967
123 27 0.070909
123 118 0.929091
124 114 0.636092
124 119 6.92273e-06
124 203 0.181898
124 737 0.000104952
124 4017 0.0909491
124 6566 0.0909491
125 90 0.333568
125 119 2.40076e-05
125 1136 0.333208
125 2209 0.1666
125 3222 0.1666
126 802 0.840182
126 3052 0.159818
127 72 1
128 120 0.5
128 121 0.5
129 122 0.25
129 123 0.25
129 124 0.249999
129 125 0.25
130 121 0.00344134
130 129 0.498438
130 2862 0.498121
131 72 0.00538884
131 130 0.331537
131 131 0.331537
131 991 0.331537
132 102 0.125792
132 132 0.667102
132 3976 0.207105
133 156 0.709752
133 477 0.290248
134 431 0.917173
134 887 0.0828271
135 16 0.000122231
135 32 0.000102329
135 135 0.999762
135 1812 1.34677e-05
136 52 0.142857
136 113 0.142857
136 136 0.142857
136 137 0.142857
136 138 0.142857
136 139 0.142857
136 140 0.142857
137 997 0.328247
137 1840 0.343507
137 3832 0.328247
138 791 0.666667
138 7447 0.333333
139 1975 0.628609
139 1976 0.371391
140 705 1
141 61 0.333333
141 1313 0.666667
142 96 0.000236599
142 350 0.159089
142 575 0.0452268
142 1905 0.795447
143 41 0.238145
143 50 0.380619
143 711 0.381236
144 50 0.194087
144 95 0.805913
145 50 0.000779118
145 112 0.332946
145 141 0.333137
145 142 0.333137
146 143 0.998781
146 155 0.00121903
147 258 0.235901
147 401 0.764099
148 144 1.6949e-05
148 450 0.33315
148 540 0.000103992
148 1128 0.332877
148 1536 0.333852
149 401 0.200079
149 1932 0.799921
150 112 0.200002
150 118 0.200002
150 144 0.199992
150 145 0.200002
150 146 0.200002
151 41 0.666677
151 63 0.333323
152 96 0.00233268
152 102 0.199533
152 147 0.199533
152 148 0.199533
152 149 0.199533
152 150 0.199533
153 53 0.166709
153 65 0.166709
153 127 0.166709
153 151 0.166709
153 451 0.166457
153 452 0.166708
154 652 0.333334
154 1659 0.333333
154 9699 0.333334
155 88 0.250204
155 96 0.249388
155 1058 0.125102
155 2554 0.250204
155 7957 0.125102
156 549 0.749553
156 664 0.0800059
156 1543 0.170442
157 4213 1
158 22 0.2
158 52 0.2
158 156 0.2
158 157 0.2
158 158 0.2
159 102 0.111111
159 150 0.111111
159 155 0.111111
159 159 0.111111
159 160 0.111111
159 161 0.111111
159 162 0.111111
159 163 0.111111
159 164 0.111111
160 152 0.28023
160 153 0.28023
160 154 0.28023
160 155 0.159311
161 27 0.367383
161 155 0.399598
161 771 0.232659
161 3822 0.000359441
162 2721 0.741169
162 3543 0.221853
162 4848 0.036977
162 8416 9.06075e-07
163 1797 0.0909197
163 2066 0.0909054
163 2069 0.818175
164 194 0.0210446
164 289 0.978955
165 41 0.159336
165 63 0.159209
165 245 0.159016
165 477 0.363282
165 571 0.159158
166 165 1
167 165 1.09276e-05
167 5386 0.999989
168 9 0.199998
168 54 0.199997
168 165 1.03341e-05
168 166 0.199998
168 167 0.199998
168 168 0.199998
169 169 1
170 169 1
171 170 0.2
171 171 0.4
171 172 0.2
171 173 0.2
172 174 1
173 175 1
174 176 0.333369
174 376 0.166684
174 496 0.333262
174 1910 0.166685
175 127 1
176 177 0.666514
176 178 0.000228385
176 2220 0.333257
177 178 0.427702
177 187 0.143074
177 188 0.143074
177 7020 0.286149
178 179 0.59986
178 737 0.000232829
178 3568 0.399907
179 180 1
180 181 0.665325
180 182 0.332665
180 183 0.00201058
181 27 1
182 426 0.4
182 1946 0.2
182 2108 0.2
182 3255 0.2
183 8 0.308595
183 72 0.689595
183 272 0.00061747
183 2721 0.00119221
184 87 0.954775
184 185 0.0452252
185 183 0.331752
185 343 0.334124
185 9470 0.334124
186 183 0.000263723
186 184 0.499898
186 185 0.249889
186 186 0.249949
187 189 1
188 93 0.143114
188 241 0.141546
188 263 0.715341
189 66 0.0916343
189 1202 0.908366
190 178 1
191 93 0.0995835
191 206 0.900417
192 105 0.5
192 174 0.5
193 175 0.143125
193 185 0.143124
193 194 0.143125
193 195 0.143125
193 196 0.143125
193 197 0.143125
193 491 0.141251
194 193 0.551343
194 696 0.022843
194 737 0.42531
194 7132 0.000504958
195 822 0.324311
195 1077 0.675689
196 174 0.263444
196 175 0.263444
196 193 0.367735
196 240 0.105378
197 825 0.369198
197 1079 0.630802
198 190 1
199 1869 0.924629
199 1871 0.0753706
200 190 0.272729
200 191 0.272729
200 192 0.273896
200 1869 0.180646
201 199 0.249999
201 503 0.25
201 1134 0.25
201 4581 0.25
202 185 0.882014
202 1255 0.117986
203 274 0.666667
203 965 0.333333
204 1605 0.250258
204 1800 0.250259
204 2792 0.125126
204 2793 0.124098
204 2794 0.25026
205 879 3.11998e-05
205 4937 0.999969
206 200 0.56227
206 201 0.43773
207 258 1
208 198 0.529922
208 5470 0.235137
208 9741 0.23494
209 211 0.0453304
209 319 0.453307
209 1826 0.501362
210 613 0.250009
210 733 0.125005
210 1205 0.125005
210 2014 0.12497
210 4298 0.125005
210 4310 0.125005
210 4311 0.125003
211 40 0.057249
211 487 0.942751
212 88 0.142857
212 202 0.142857
212 203 0.142857
212 204 0.142857
212 205 0.285714
212 207 0.142857
213 233 0.157224
213 246 0.314506
213 1889 0.371046
213 6043 0.157224
214 269 1
215 209 0.721943
215 1852 0.278057
216 212 0.961665
216 241 0.0383351
217 210 0.507932
217 211 0.158751
217 319 0.333317
218 212 0.290713
218 213 0.472858
218 242 0.236429
219 118 0.484312
219 208 0.214021
219 209 0.0866607
219 212 0.107996
219 215 0.107011
220 8 0.666657
220 214 0.333343
221 41 0.0732372
221 574 0.860554
221 1272 0.066209
222 93 0.155154
222 206 0.171495
222 218 0.208299
222 219 0.155149
222 220 0.309903
223 93 0.176758
223 206 0.17676
223 215 0.17676
223 218 0.116214
223 219 0.176758
223 220 0.17675
224 50 0.663769
224 5473 0.336231
225 217 1
226 212 0.617617
226 216 0.382383
227 227 0.142856
227 228 0.285712
227 229 0.142856
227 230 0.142864
227 1010 0.142856
227 2602 0.142856
228 40 0.109877
228 185 0.0837664
228 1207 0.251263
228 3344 0.471338
228 8819 0.0837547
229 17 0.263803
229 226 0.395629
229 323 0.131888
229 2483 0.20868
230 72 1.46223e-05
230 224 0.999985
231 8 0.167574
231 225 0.162077
231 272 0.167632
231 898 0.335145
231 2628 0.167572
232 193 0.125015
232 221 0.249996
232 222 0.249996
232 223 0.249996
232 278 0.124998
233 225 0.031783
233 1886 0.968217
234 230 1
235 234 1
236 118 0.334288
236 218 0.167144
236 272 0.16428
236 4942 0.167144
236 6597 0.167144
237 235 0.5
237 236 0.5
238 213 0.5
238 232 0.5
239 233 1
240 66 0.0760716
240 354 0.027318
240 574 0.89661
241 237 0.982398
241 879 0.0176016
242 88 0.159702
242 231 0.319406
242 494 0.201486
242 1214 0.159703
242 9200 0.159703
243 5 1
244 272 8.94703e-06
244 635 0.499995
244 5420 0.499996
245 238 0.5
245 239 0.5
246 241 1
247 243 0.333333
247 244 0.666667
248 61 0.249999
248 248 0.750001
249 153 0.166667
249 177 0.166667
249 245 0.166666
249 246 0.166667
249 247 0.166667
249 249 0.166667
250 63 0.493921
250 557 0.2532
250 1777 0.252879
251 153 0.856942
251 155 0.143057
251 8416 7.58306e-07
252 1085 0.220978
252 1135 0.668463
252 4065 0.110559
253 41 0.171591
253 186 0.171598
253 348 0.171598
253 416 0.313616
253 9950 0.171598
254 250 0.666667
254 251 0.333333
255 8 0.5
255 252 0.5
256 1268 1
257 40 0.00689391
257 66 0.496661
257 2205 0.166975
257 7313 0.32947
258 194 0.8
258 284 0.2
259 10 0.0923689
259 255 0.554213
259 417 0.0982421
259 4349 0.106041
259 5089 0.149134
260 254 0.411876
260 256 0.588124
261 5704 1
262 253 0.5
262 257 0.5
263 241 0.33397
263 7231 0.333015
263 9666 0.333015
264 197 0.164892
264 198 0.0106506
264 258 0.164892
264 259 0.164891
264 260 0.164892
264 261 0.164892
264 262 0.164892
265 198 0.604363
265 1133 0.164241
265 1533 0.231396
266 231 0.184925
266 1774 0.260315
266 5745 0.55476
267 264 0.497936
267 2220 0.497937
267 7447 0.00412695
268 1282 4.12211e-05
268 4178 0.999959
269 40 0.000142582
269 176 0.999857
270 267 1
271 77 0.388227
271 96 0.00182869
271 273 0.0667428
271 483 0.139971
271 1750 0.336533
271 4397 0.066697
272 40 0.693976
272 272 0.306024
273 176 0.163731
273 216 0.1637
273 265 0.1637
273 266 0.1637
273 272 0.0177697
273 273 0.1637
273 274 0.1637
274 271 1
275 190 0.181266
275 268 0.120866
275 269 0.181266
275 270 0.181265
275 822 0.181265
275 1873 0.154072
276 175 1
277 275 0.5
277 310 0.5
278 276 0.999016
278 1886 0.000983843
279 276 0.0416022
279 277 0.479199
279 278 0.479199
280 232 0.25
280 279 0.25
280 281 0.25
280 282 0.25
281 224 0.333315
281 9770 0.333343
281 9772 0.333343
282 212 0.100138
282 295 0.299984
282 1081 0.0999958
282 1443 0.199895
282 1930 0.0999958
282 3188 0.0999958
282 4667 0.0999958
283 212 0.891759
283 2226 0.108241
284 477 0.25
284 961 0.249999
284 4841 0.25
284 4842 0.25
285 1377 0.5
285 3593 0.25
285 6526 0.25
286 61 0.124922
286 280 0.249845
286 283 0.124922
286 284 0.249813
286 581 0.1253
286 1978 0.125198
287 38 0.526038
287 40 3.81185e-06
287 102 0.122889
287 111 0.117407
287 417 0.175322
287 2294 0.058341
288 102 0.716406
288 453 0.141995
288 600 0.141599
289 41 2.25343e-05
289 450 0.856039
289 2122 0.143939
290 218 0.500043
290 294 0.499957
291 72 0.540769
291 218 0.383182
291 289 0.0760487
292 71 0.25
292 256 0.75
293 22 0.281644
293 77 0.155014
293 150 0.140873
293 1499 0.140823
293 3917 0.140823
293 7640 0.140823
294 25 0.125
294 93 0.125
294 215 0.125
294 290 0.125
294 291 0.125
294 292 0.125
294 293 0.125
294 294 0.124999
295 285 0.25
295 286 0.25
295 287 0.25
295 288 0.25
296 1843 0.599993
296 1965 0.200004
296 1996 0.200004
297 737 0.328719
297 7422 0.333956
297 8662 0.337325
298 325 0.491934
298 1865 0.508044
298 1866 2.21722e-05
299 325 0.0186719
299 373 0.196271
299 1866 0.785057
300 296 0.333333
300 297 0.333333
300 298 0.333333
301 218 0.25
301 300 0.25
301 301 0.25
301 302 0.25
302 299 0.57143
302 502 0.142858
302 887 0.142857
302 2007 0.142855
303 303 0.954454
303 629 0.0455463
304 118 0.382781
304 304 0.617219
305 35 0.789537
305 92 0.18195
305 683 0.0285129
306 183 0.490627
306 305 0.509373
307 92 0.931423
307 183 0.0685667
307 305 1.05191e-05
308 102 0.249559
308 306 0.250182
308 307 0.250077
308 308 0.250182
309 37 0.166653
309 40 1.09175e-05
309 307 0.166724
309 574 0.166653
309 907 0.166653
309 1427 0.166653
309 1428 0.166653
310 92 5.31673e-06
310 309 0.999995
311 275 0.166687
311 310 0.499986
311 457 0.166665
311 636 0.166662
312 204 0.333333
312 997 0.333333
312 3132 0.333333
313 72 0.000296244
313 311 0.666473
313 376 0.111076
313 1077 0.11108
313 1079 0.111074
314 61 0.2
314 63 0.2
314 312 0.2
314 313 0.2
314 314 0.2
315 98 0.2
315 245 0.2
315 4079 0.2
315 4080 0.2
315 4081 0.2
316 315 1
317 307 0.499758
317 1911 0.500242
318 318 0.200001
318 666 0.400003
318 1200 0.199995
318 9409 0.200001
319 319 0.791851
319 1249 0.199065
319 2721 0.00908329
320 40 0.0134395
320 261 0.127098
320 316 0.00768799
320 7297 0.851775
321 8521 1
322 1237 1
323 497 0.999677
323 737 0.0003233
324 118 0.125191
324 316 0.123297
324 317 0.125255
324 318 0.125254
324 319 0.125238
324 320 0.125255
324 321 0.125255
324 499 0.125255
325 324 0.38544
325 325 0.385597
325 326 0.0463231
325 1035 0.18264
326 326 1
327 218 0.2
327 322 0.2
327 323 0.2
327 332 0.2
327 333 0.2
328 15 0.166667
328 304 0.833333
329 334 0.5
329 335 0.5
330 327 0.500001
330 328 0.499998
331 332 0.333331
331 397 0.333331
331 5216 0.333338
332 322 0.5
332 328 0.5
333 329 1
334 330 0.666667
334 331 0.333333
335 336 1
336 245 0.333338
336 2892 0.333331
336 2893 0.333331
337 127 0.25
337 337 0.25
337 338 0.25
337 339 0.25
338 340 0.333328
338 1010 1.69569e-05
338 2554 0.333328
338 4087 0.333328
339 88 0.0636005
339 342 0.9364
340 50 0.166664
340 344 0.333338
340 450 0.166669
340 1536 0.166669
340 2132 0.166659
341 22 0.142916
341 96 0.142884
341 313 0.142539
341 341 0.285831
341 345 0.142915
341 594 0.142916
342 343 0.622965
342 453 0.125095
342 600 0.0641654
342 1793 0.187774
343 27 1
344 40 0.242739
344 96 3.23299e-05
344 313 0.252409
344 314 0.252409
344 346 0.252409
345 38 0.166557
345 96 0.167214
345 1085 0.166557
345 1094 0.166557
345 6057 0.166557
345 6099 0.166557
346 349 1
347 358 0.200003
347 604 0.199999
347 1092 0.399999
347 2504 0.199998
348 262 0.125
348 701 0.125
348 879 0.125
348 1274 0.125
348 1495 0.125
348 1496 0.125
348 1497 0.125
348 1498 0.125
349 733 0.20021
349 737 0.199406
349 4442 0.200168
349 4443 0.200109
349 5308 0.200108
350 326 0.499675
350 358 0.499685
350 401 0.000639832
351 204 0.111112
351 354 0.111112
351 355 0.111112
351 356 0.111112
351 357 0.111112
351 358 0.111108
351 359 0.111112
351 360 0.111112
351 361 0.111112
352 353 1
353 96 0.110229
353 378 0.686747
353 7189 0.203024
354 879 1
355 322 0.2
355 347 0.2
355 350 0.2
355 351 0.2
355 1847 0.2
356 161 0.197122
356 348 0.197122
356 352 0.605756
357 362 0.532869
357 363 0.467131
358 325 0.249999
358 363 2.25112e-06
358 364 0.125
358 365 0.125
358 366 0.125
358 369 0.125
358 370 0.125
358 371 0.125
359 367 0.384615
359 368 0.384616
359 386 0.230769
360 96 0.186037
360 118 0.131641
360 164 0.22743
360 2014 0.227462
360 2377 0.113715
360 8843 0.113715
361 151 0.499615
361 879 0.250193
361 4128 0.250193
362 5 0.399146
362 6719 0.196668
362 6917 0.202276
362 8328 0.201909
363 38 1
364 114 0.750005
364 294 0.249995
365 41 0.325031
365 96 0.535124
365 453 0.0701229
365 1018 0.0697218
366 1226 0.399457
366 1249 0.100244
366 1498 0.10006
366 6205 0.400239
367 155 0.499986
367 1518 0.166672
367 4035 0.166672
367 4038 0.16667
368 27 0.0908029
368 362 0.908355
368 3525 0.00073739
368 7454 0.000105241
369 94 0.10058
369 363 0.100941
369 2089 0.63748
369 2095 0.160938
369 4878 6.1214e-05
370 72 0.00055097
370 701 0.249862
370 1509 0.249862
370 6832 0.249862
370 7528 0.249862
371 40 0.00307208
371 96 1.85007e-05
371 372 0.142416
371 387 0.142416
371 604 0.142416
371 4457 0.142416
371 5128 0.142416
371 5129 0.142416
371 5130 0.142416
372 354 0.748177
372 997 0.251823
373 32 0.33323
373 130 0.333385
373 373 0.333385
374 200 0.166669
374 374 0.333333
374 379 0.166666
374 380 0.166666
374 704 0.166666
375 1002 0.194461
375 1484 0.181774
375 2721 0.386127
375 3351 2.15009e-05
375 3933 0.237617
376 245 0.999994
376 2132 5.95436e-06
377 15 0.249873
377 77 0.250382
377 375 0.249873
377 376 0.249873
378 377 0.749986
378 907 0.125007
378 6374 0.125007
379 760 0.199212
379 4521 0.199173
379 7224 0.402405
379 9248 0.199211
380 105 0.0769414
380 635 0.538358
380 1773 0.153879
380 7095 0.230819
380 8416 2.42042e-06
381 779 6.43522e-06
381 2860 0.327624
381 5442 0.336376
381 5443 0.335994
382 40 0.122468
382 241 0.12533
382 385 0.250672
382 604 0.125336
382 708 0.250672
382 885 0.12552
382 1744 3.03583e-06
383 50 0.2
383 185 0.2
383 592 0.4
383 1091 0.2
384 10 0.125
384 381 0.125
384 382 0.125
384 383 0.125
384 384 0.125
384 387 0.125
384 388 0.125
384 389 0.125
385 788 1
386 155 0.546047
386 390 0.227027
386 887 0.226926
387 29 0.124991
387 98 0.124991
387 201 0.124991
387 290 0.12499
387 575 7.46568e-05
387 2658 0.249982
387 2886 0.124991
387 7560 0.124989
388 96 0.329551
388 343 0.174991
388 354 0.164053
388 1351 0.166132
388 1389 0.165273
389 72 5.55113e-05
389 376 0.428559
389 391 0.142853
389 392 0.142854
389 406 0.142854
389 2710 0.142825
390 88 0.0846647
390 336 0.915335
391 40 0.142039
391 360 0.686368
391 394 0.171592
392 124 0.5
392 393 0.5
393 199 0.166667
393 395 0.166667
393 396 0.333333
393 397 0.166667
393 605 0.166667
394 322 0.00144026
394 6475 0.99856
395 322 1
396 398 1
397 468 0.585004
397 1308 0.168379
397 3351 0.0841804
397 8820 0.162436
398 32 0.131694
398 155 0.0782005
398 251 0.131694
398 390 0.131635
398 399 0.131694
398 400 0.131694
398 401 0.131694
398 402 0.131694
399 403 0.250001
399 2361 0.250001
399 3710 0.250001
399 3711 0.249998
400 494 0.250177
400 4998 0.249563
400 7346 0.25013
400 9258 0.250131
401 354 0.145089
401 388 0.28497
401 1277 0.28497
401 7231 0.28497
402 72 0.0113869
402 401 0.247158
402 408 0.24714
402 8900 0.247158
402 8917 0.247158
403 408 2.52115e-06
403 1414 0.162025
403 6490 0.232889
403 6491 0.605084
404 61 0.111111
404 96 0.111104
404 124 0.111111
404 186 0.222222
404 400 0.111111
404 408 6.12709e-06
404 490 0.111111
404 887 0.111111
404 2595 0.111111
405 164 0.111476
405 991 0.111066
405 1777 0.111066
405 3980 0.444259
405 4091 0.222132
406 5 1.34452e-05
406 72 0.999987
407 303 1
408 411 0.499976
408 413 0.500024
409 218 0.142857
409 340 0.142857
409 371 0.142857
409 404 0.142857
409 405 0.142857
409 406 0.142857
409 407 0.142857
410 409 0.8
410 2122 0.2
411 8 0.197461
411 410 0.40127
411 411 0.200635
411 412 0.200635
412 414 0.927436
412 526 0.0725641
413 450 0.166667
413 4789 0.166667
413 5742 0.166667
413 7251 0.166667
413 7253 0.166667
413 7254 0.166667
414 415 0.25
414 416 0.25
414 417 0.25
414 418 0.25
415 63 0.2
415 93 0.2
415 186 0.2
415 419 0.2
415 420 0.2
416 421 0.5
416 422 0.5
417 423 0.5
417 424 0.5
418 218 0.333311
418 1274 0.333344
418 6828 0.333344
419 2146 0.666667
419 5753 0.333333
420 40 1.56197e-05
420 1770 0.200023
420 2610 0.200023
420 3490 0.400046
420 4051 0.199893
421 114 2.71078e-06
421 425 0.2
421 426 0.199998
421 427 0.2
421 428 0.2
421 429 0.2
422 313 0.5
422 430 0.5
423 27 0.163044
423 155 0.167383
423 378 0.167425
423 4745 0.167383
423 4746 0.167382
423 4748 0.167383
424 41 0.0064379
424 151 0.369225
424 434 0.612086
424 1082 0.0122514
425 737 0.000174469
425 4752 0.999826
426 96 0.000163539
426 156 0.249104
426 343 0.00366863
426 378 0.248971
426 1421 0.249046
426 1422 0.249046
427 156 0.187148
427 247 0.187191
427 431 0.187216
427 432 0.187191
427 433 0.187191
427 434 0.0640638
428 111 0.104837
428 436 0.104837
428 1797 0.000798646
428 3326 0.0688021
428 3594 0.210841
428 5882 0.2118
428 9368 0.298085
429 198 0.25
429 211 0.25
429 437 0.25
429 438 0.25
430 41 0.376459
430 2094 0.249413
430 3877 0.374128
431 196 0.627773
431 258 0.154185
431 1531 0.0627438
431 1533 0.155298
432 319 0.428503
432 435 0.500059
432 4550 0.0714386
433 268 0.677171
433 528 0.322829
434 5 0.25
434 234 0.25
434 441 0.5
435 94 0.100639
435 442 0.805111
435 4541 0.0942499
436 40 0.112485
436 63 0.887515
437 439 0.2
437 440 0.2
437 443 0.2
437 444 0.2
437 445 0.2
438 601 0.202734
438 603 0.202734
438 664 0.189065
438 8659 0.202734
438 8660 0.202734
439 66 1
440 446 0.333333
440 447 0.333333
440 448 0.333333
441 449 1
442 50 0.0046129
442 450 0.995387
443 50 0.498554
443 153 0.500691
443 451 0.000755788
444 454 0.857143
444 894 0.142857
445 96 0.176257
445 127 0.205936
445 422 0.205936
445 425 0.205936
445 455 0.205936
446 77 5.8858e-05
446 218 0.999941
447 27 0.111072
447 825 0.111377
447 1870 0.777551
448 215 0.2
448 218 0.2
448 459 0.2
448 460 0.2
448 461 0.2
449 2252 1
450 215 2.93885e-06
450 3408 0.166713
450 5653 0.333425
450 7571 0.166434
450 9263 0.166713
450 9264 0.166713
451 460 1
452 458 0.875
452 1043 0.125
453 72 0.000582956
453 409 0.999417
454 291 0.331674
454 933 0.668326
455 456 0.999999
455 457 8.82113e-07
456 457 1
457 241 0.949304
457 462 0.0506956
458 462 0.239852
458 463 0.253383
458 464 0.253383
458 465 0.253383
459 354 0.00122177
459 1770 0.223784
459 3490 0.774994
460 93 0.299989
460 469 0.0999974
460 1122 0.39999
460 1870 0.199995
460 3336 2.8049e-05
461 40 0.104729
461 96 0.12544
461 466 0.128452
461 467 0.13509
461 468 0.128452
461 470 0.128452
461 471 0.128452
461 7029 0.120933
462 38 0.127976
462 189 0.127979
462 194 0.20897
462 1229 0.151139
462 3212 0.127979
462 6518 0.127979
462 6866 0.127979
463 72 0.232347
463 295 0.767258
463 2721 0.000394749
464 2320 0.143523
464 4065 0.856477
465 567 0.259122
465 758 0.740878
466 96 0.141891
466 340 0.14302
466 472 0.143021
466 473 0.143021
466 474 0.143021
466 476 0.286027
467 194 0.333333
467 304 0.333333
467 475 0.333333
468 334 1
469 102 0.249913
469 465 0.250029
469 1018 0.500058
470 604 0.500764
470 2502 0.249606
470 7988 0.24963
471 40 0.25654
471 315 0.351158
471 477 0.0411439
471 478 0.351158
472 630 0.333332
472 1845 0.333332
472 1921 4.03293e-06
472 6329 0.333332
473 632 0.5
473 7679 0.5
474 479 0.25
474 480 0.25
474 481 0.25
474 482 0.25
475 25 0.402492
475 625 0.597492
475 3836 1.56535e-05
476 483 1
477 490 0.714285
477 794 0.214286
477 4320 0.0714285
478 279 0.285143
478 490 0.284013
478 571 0.28632
478 711 0.144525
479 513 1
480 5 0.166472
480 291 0.166706
480 484 0.166706
480 485 0.166706
480 488 0.166706
480 489 0.166706
481 295 0.200004
481 1161 0.399998
481 4522 0.199999
481 8756 0.199999
482 272 0.113045
482 1295 0.178757
482 1748 0.633644
482 1754 0.0745537
483 199 0.192576
483 486 0.385172
483 487 0.229669
483 572 0.192584
484 491 0.5
484 492 0.5
485 77 0.189279
485 2847 0.390579
485 4993 0.210071
485 5815 0.210071
486 113 0.110684
486 164 0.110685
486 1879 0.221369
486 1975 0.335171
486 1976 0.000722168
486 1989 0.221369
487 41 0.399115
487 625 0.201694
487 1648 0.199596
487 6072 0.199595
488 32 7.97255e-05
488 66 0.166653
488 241 0.166653
488 493 0.166653
488 494 0.166653
488 495 0.166653
488 496 0.166653
489 96 0.166754
489 354 0.66626
489 1091 0.166986
490 27 0.00553477
490 130 0.497166
490 497 0.000128023
490 498 0.497171
491 5 0.00666344
491 66 0.993337
492 96 0.449736
492 255 0.550264
493 501 0.75
493 2270 0.25
494 508 1
495 258 0.250001
495 1533 0.249997
495 5489 0.500002
496 41 0.00211569
496 61 0.332528
496 2056 0.332829
496 4120 0.332528
497 61 0.197763
497 3427 0.0963252
497 4203 0.705912
498 27 0.400166
498 1593 0.20008
498 3710 0.199618
498 8965 2.19658e-05
498 9687 0.200114
499 33 0.0037512
499 379 0.989289
499 3380 0.00695973
500 506 1
501 495 0.111111
501 496 0.111111
501 500 0.111111
501 502 0.111111
501 503 0.111111
501 504 0.111111
501 505 0.111111
501 507 0.111111
501 509 0.111111
502 155 0.625497
502 771 0.125062
502 4075 0.249441
503 16 4.24812e-05
503 123 0.666638
503 1745 0.333319
504 93 0.200005
504 241 0.19998
504 510 0.200005
504 511 0.200005
504 512 0.200005
505 358 0.4443
505 513 0.44456
505 4006 0.11114
506 514 0.198428
506 1153 0.404739
506 1759 0.198416
506 3483 0.198416
507 118 0.51246
507 289 0.236952
507 518 0.250588
508 515 0.25
508 516 0.25
508 517 0.25
508 4840 0.25
509 519 0.636364
509 3471 0.363636
510 29 0.0019371
510 520 0.665375
510 640 0.332688
511 521 0.999839
511 522 0.00016112
512 323 0.385716
512 335 0.386035
512 415 0.228249
513 354 0.199891
513 754 0.600095
513 2699 0.200014
514 8 0.496074
514 522 0.503927
515 155 0.199868
515 997 0.200033
515 1137 0.200033
515 4523 0.400066
516 509 0.167084
516 737 0.331737
516 2241 0.167012
516 4350 0.167084
516 4351 0.167084
517 471 0.413535
517 596 0.117233
517 1375 0.0023185
517 6526 0.350767
517 8416 0.116147
518 1249 0.1875
518 4660 0.8125
519 72 0.165906
519 96 0.166777
519 376 0.166829
519 801 0.166829
519 802 0.166829
519 5810 0.166829
520 105 0.166511
520 523 0.166698
520 524 0.166698
520 525 0.166698
520 526 0.166698
520 527 0.166698
521 77 0.1
521 791 0.1
521 2435 0.1
521 3990 0.2
521 3991 0.3
521 3992 0.1
521 3993 0.1
522 5 0.0662389
522 96 0.305505
522 575 0.628256
523 529 0.666667
523 530 0.333333
524 534 1
525 105 1
526 113 0.166667
526 533 0.166667
526 534 0.166666
526 535 0.166667
526 536 0.166667
526 537 0.166667
527 272 7.11983e-06
527 289 0.403682
527 662 0.394802
527 1165 0.201509
528 531 0.250003
528 3869 0.499995
528 5647 0.250002
529 437 0.200004
529 532 0.399958
529 4789 2.88764e-05
529 5062 0.200005
529 5063 0.200004
530 247 0.999742
530 532 0.000258182
531 637 0.831996
531 642 0.168004
532 94 0.142831
532 127 0.142862
532 363 0.142861
532 383 0.142862
532 414 0.142862
532 538 0.142862
532 539 0.142862
533 40 0.332678
533 540 0.336239
533 541 0.331083
534 541 0.0151011
534 542 0.984899
535 88 0.159599
535 340 0.159608
535 414 0.158365
535 479 0.159608
535 543 0.159611
535 751 0.203209
536 354 0.000163401
536 544 0.249959
536 545 0.249959
536 637 0.249959
536 795 0.249959
537 35 0.14295
537 546 0.714206
537 547 0.142845
538 537 0.0833907
538 3660 0.0833375
538 5521 0.24991
538 6475 0.0833375
538 6798 0.250012
538 6799 0.250012
539 66 0.249801
539 88 0.249525
539 548 0.00103577
539 549 3.63159e-05
539 550 0.249801
539 551 0.249801
540 118 0.123178
540 548 0.50084
540 549 0.375982
541 105 0.257186
541 127 5.55065e-06
541 279 0.227881
541 549 0.257424
541 8524 0.257504
542 41 0.25
542 710 0.25
542 1295 0.25
542 2220 0.25
543 218 0.166666
543 392 0.166673
543 3376 0.166663
543 4433 0.166666
543 4918 0.166666
543 4932 0.166666
544 88 0.250003
544 2205 0.24999
544 2636 0.250003
544 6630 0.250003
545 89 0.315222
545 416 0.0543356
545 552 0.315221
545 553 0.315222
546 1598 0.418611
546 1792 0.581389
547 237 0.333333
547 245 0.333333
547 2681 0.333333
548 88 0.16668
548 342 0.16668
548 554 0.16668
548 555 0.16668
548 556 0.16668
548 557 0.166599
549 557 1
550 2235 0.499487
550 2767 0.499487
550 4531 0.00102578
551 205 0.333237
551 263 0.000224447
551 557 0.666539
552 991 0.333375
552 5036 0.333375
552 5932 0.333251
553 113 0.333333
553 558 0.333333
553 559 0.333333
554 1536 0.166667
554 3618 0.666667
554 4384 0.166667
555 326 1
556 89 1
557 261 0.249946
557 326 0.000216034
557 560 0.249946
557 561 0.249946
557 562 0.249946
558 546 0.2
558 563 0.2
558 564 0.2
558 565 0.2
558 566 0.2
559 5 0.405326
559 4812 0.198225
559 9568 0.396449
560 374 0.75
560 7957 0.25
561 571 1
562 567 1
563 737 0.196654
563 1249 0.0992919
563 1479 0.00608879
563 1903 0.0992998
563 2319 0.0029085
563 2561 0.39717
563 3805 0.0992927
563 9447 0.0992944
564 199 1
565 568 0.236718
565 569 0.710154
565 570 0.0531277
566 234 0.486371
566 570 0.513585
566 3921 4.41153e-05
567 573 1
568 159 3.03057e-06
568 1135 0.999997
569 398 0.230007
569 998 0.0779164
569 1010 0.153338
569 1879 0.229994
569 1978 0.155407
569 1981 0.153338
570 4843 0.999708
570 5075 0.00029165
571 66 0.142854
571 88 0.142857
571 575 0.142857
571 576 0.142857
571 577 0.142857
571 578 0.142857
571 579 0.142857
571 580 1.58532e-06
572 29 0.398782
572 66 0.199954
572 580 0.201867
572 1989 0.199397
573 96 0.166549
573 414 0.167079
573 479 0.167111
573 580 0.165039
573 581 0.167111
573 582 0.167111
574 41 0.119539
574 272 0.109707
574 696 0.109705
574 737 0.106239
574 1108 0.109708
574 2074 0.00426609
574 3291 0.221422
574 3613 0.109707
574 8024 0.109707
575 108 0.25
575 279 0.25
575 583 0.25
575 584 0.25
576 331 1
577 473 0.5
577 585 0.5
578 5 0.128531
578 295 0.128865
578 440 0.128531
578 2123 0.257058
578 3932 0.128529
578 3933 0.0999561
578 3934 0.128529
579 50 3.41326e-06
579 759 0.899987
579 1824 0.10001
580 105 0.2
580 387 0.199999
580 591 0.600001
581 17 0.333333
581 589 0.333333
581 590 0.333333
582 586 0.850108
582 906 0.149892
583 268 0.826967
583 696 8.02199e-06
583 1249 0.173025
584 155 0.333334
584 711 0.666666
585 118 0.249999
585 268 0.249996
585 587 0.250003
585 588 0.250003
586 5 0.499235
586 586 0.500765
587 63 0.200678
587 496 0.100391
587 3671 0.297575
587 3672 0.401356
588 322 0.0476419
588 595 0.76227
588 975 0.190088
589 593 0.888884
589 2305 0.111116
590 40 0.198696
590 237 0.200346
590 272 0.400611
590 1376 0.200346
591 596 0.165959
591 597 0.497877
591 1782 0.336165
592 233 0.399785
592 313 0.200423
592 598 0.399793
593 599 0.25
593 766 0.75
594 41 0.434281
594 218 0.348534
594 335 0.217185
595 1269 0.499912
595 3059 0.000175584
595 3062 0.499912
596 102 0.0109405
596 763 0.593498
596 1085 0.197833
596 9570 0.197729
597 409 0.2
597 601 0.2
597 602 0.2
597 603 0.2
597 604 0.2
598 313 0.666668
598 606 0.333332
599 72 0.13658
599 96 0.143936
599 477 0.14292
599 607 0.144141
599 608 0.144141
599 611 0.144141
599 612 0.144141
600 609 0.583166
600 789 0.416834
601 610 0.760402
601 1249 0.239598
602 286 0.249974
602 3327 0.250009
602 3531 0.500017
603 72 0.00091619
603 334 0.499542
603 613 0.499542
604 614 0.317202
604 5050 0.682798
605 218 0.085707
605 272 0.263308
605 614 0.546733
605 5050 0.104252
606 272 4.25273e-05
606 605 0.999958
607 358 3.61155e-06
607 401 0.333048
607 7547 0.333475
607 7548 0.333474
608 25 0.2
608 615 0.2
608 616 0.2
608 617 0.2
608 618 0.2
609 334 0.999882
609 1123 0.000117588
610 1415 0.333329
610 8320 0.666671
611 619 0.333333
611 620 0.333333
611 621 0.333333
612 62 0.252112
612 102 0.24367
612 205 0.252112
612 771 0.252107
613 102 0.00554929
613 233 0.497225
613 279 0.165739
613 850 0.165747
613 4488 0.165739
614 72 0.00437302
614 130 0.0710712
614 593 0.0711261
614 604 0.85343
615 385 5.5538e-06
615 1127 0.740577
615 2217 0.259417
616 387 0.5
616 622 0.5
617 87 1
618 401 0.874459
618 1932 0.125541
619 204 0.166669
619 214 0.166669
619 272 0.166668
619 624 0.166669
619 625 0.166657
619 626 0.166669
620 8376 0.5
620 8377 0.5
621 96 0.594898
621 102 0.405102
622 233 0.249796
622 245 0.249796
622 313 0.249796
622 409 0.000817044
622 623 0.249796
623 594 0.8
623 1906 0.2
624 113 0.166667
624 631 0.166667
624 632 0.166667
624 633 0.166667
624 634 0.166667
624 635 0.166667
625 156 0.498899
625 354 0.143958
625 1123 0.0243304
625 2966 0.000213402
625 5070 0.332599
626 185 0.5
626 1858 0.5
627 494 0.253008
627 1108 0.253067
627 4177 0.253067
627 4178 0.19737
627 6276 0.0434877
628 627 0.999965
628 628 3.46731e-05
629 131 0.111322
629 193 0.111322
629 217 0.111322
629 245 0.109425
629 628 0.222641
629 997 0.111322
629 1151 0.111322
629 1894 0.111322
629 1932 1.20093e-06
630 232 0.428571
630 1462 0.142857
630 1596 0.428571
631 279 0.200004
631 413 0.199985
631 439 0.200004
631 629 0.200004
631 630 0.200004
632 1473 1
633 32 0.12381
633 82 0.123807
633 156 0.123807
633 200 0.123809
633 390 0.123807
633 1459 0.123803
633 2502 0.257158
634 3 0.0711218
634 77 0.0711203
634 637 0.00330729
634 1020 0.782332
634 3634 0.0721185
635 96 0.0994566
635 123 0.10002
635 637 0.000365155
635 638 0.10002
635 639 0.10002
635 640 0.10002
635 641 0.10002
635 975 0.10002
635 4124 0.10002
635 4125 0.10002
635 4126 0.10002
636 643 0.338024
636 644 0.661976
637 105 0.00040394
637 645 0.683191
637 737 0.316405
638 105 0.0595094
638 643 0.462594
638 655 0.238949
638 660 0.238948
639 50 0.286995
639 105 0.139363
639 643 0.286642
639 646 0.287
640 648 1
641 72 0.000885903
641 118 0.397964
641 647 0.60115
642 648 0.00019339
642 649 0.999807
643 130 0.125955
643 354 0.125985
643 661 0.748059
644 643 0.335878
644 644 0.335878
644 645 0.328243
645 40 0.325303
645 2037 0.674697
646 50 0.200412
646 102 0.200412
646 105 0.199781
646 653 0.200413
646 654 0.198982
647 3146 0.666566
647 4302 0.166638
647 5176 0.000157809
647 5765 0.166638
648 93 0.109992
648 469 0.110001
648 645 0.780007
649 334 0.0909199
649 1026 0.45454
649 1027 0.45454
650 650 0.428135
650 651 0.428135
650 652 0.142711
650 654 0.00101814
651 325 0.5
651 656 0.5
652 657 0.5
652 658 0.5
653 151 0.197185
653 643 0.211259
653 659 0.394371
653 660 0.197185
654 185 0.33333
654 661 8.65361e-06
654 662 0.333331
654 663 0.333331
655 664 0.916658
655 9245 0.0833417
656 665 1
657 667 0.333333
657 668 0.333333
657 669 0.333333
658 22 1
659 991 1
660 198 0.111111
660 258 0.111109
660 294 0.111111
660 670 0.111111
660 671 0.111111
660 672 0.111111
660 673 0.111111
660 674 0.111111
660 675 0.111111
661 676 0.333333
661 678 0.333333
661 679 0.333333
662 680 0.543335
662 726 0.456665
663 440 0.250765
663 684 0.624224
663 2152 0.125012
664 704 0.333014
664 1462 0.666986
665 41 0.12499
665 681 0.24998
665 683 0.125039
665 1325 0.12499
665 2132 0.12499
665 3900 0.125025
665 4848 0.124985
666 677 0.166752
666 682 0.166751
666 683 0.166242
666 685 0.166752
666 686 0.166752
666 687 0.166752
667 655 0.110663
667 661 0.889337
668 199 0.500003
668 4375 0.499997
669 692 0.249999
669 694 0.25
669 695 0.250001
669 696 0.25
670 289 0.2
670 688 0.2
670 689 0.2
670 690 0.2
670 691 0.2
671 118 0.0963249
671 457 0.10122
671 693 0.397539
671 700 0.10122
671 707 0.101235
671 780 0.10122
671 781 2.14208e-05
671 784 0.10122
672 706 0.9375
672 5074 0.0624995
673 944 0.0702726
673 949 0.35548
673 950 0.432057
673 1009 0.14219
674 693 0.0712833
674 700 0.928717
675 92 6.36831e-06
675 233 0.279059
675 6876 0.720935
676 697 1
677 425 0.243346
677 697 0.269962
677 698 0.486692
678 40 0.000198554
678 701 0.571314
678 755 0.0714145
678 915 0.0714146
678 1369 0.285658
679 325 0.246608
679 699 0.246608
679 700 0.013569
679 702 0.246608
679 703 0.246607
680 693 0.250008
680 704 0.250011
680 705 0.250011
680 707 0.24997
681 708 0.801526
681 759 0.057292
681 1040 0.114408
681 4457 0.0267739
682 41 0.181532
682 58 2.5244e-05
682 96 0.273744
682 754 0.181566
682 2281 0.181566
682 6117 0.181566
683 96 0.506705
683 803 0.246647
683 3606 0.246647
684 711 1
685 268 0.593727
685 604 0.0593743
685 1824 0.119671
685 8725 0.227229
686 440 0.499947
686 450 0.000107761
686 714 0.166649
686 2349 0.166649
686 2782 0.166648
687 709 0.333334
687 710 0.333334
687 712 0.333332
688 50 0.333334
688 643 0.666666
689 22 0.198689
689 713 0.200328
689 714 0.200328
689 715 0.200328
689 716 0.200328
690 717 0.3335
690 3283 0.6665
691 113 0.25
691 718 0.25
691 719 0.25
691 720 0.25
692 268 3.73553e-05
692 7521 0.999963
693 3823 0.5
693 4792 0.5
694 440 0.140587
694 1777 0.281176
694 3625 1.08547e-05
694 6038 0.290392
694 6768 0.2864
694 6769 0.00143452
695 721 1
696 401 0.348144
696 3291 0.326358
696 4816 0.325498
697 200 0.200001
697 645 0.199997
697 722 0.200001
697 723 0.200001
697 724 0.200001
698 725 1
699 241 0.7
699 961 0.3
700 726 1
701 728 0.5
701 729 0.5
702 118 0.5
702 727 0.5
703 103 0.500187
703 733 0.499813
704 734 1
705 200 0.2
705 685 0.2
705 730 0.2
705 731 0.2
705 732 0.2
706 645 0.499744
706 735 0.250128
706 736 0.250128
707 738 1
708 3310 0.000114408
708 3507 0.999886
709 118 0.142857
709 740 0.142857
709 741 0.142857
709 742 0.142857
709 743 0.142857
709 744 0.142857
709 745 0.142857
710 737 0.314048
710 739 0.685952
711 1659 1
712 64 0.413152
712 294 0.586848
713 96 0.0988075
713 750 0.700143
713 2256 0.20105
714 746 0.25
714 747 0.25
714 748 0.25
714 749 0.25
715 164 0.240433
715 294 0.0382676
715 751 0.240433
715 752 0.240433
715 753 0.240433
716 29 0.327036
716 354 0.453267
716 3326 0.219697
717 272 0.222197
717 754 0.111115
717 755 0.444459
717 760 0.111115
717 761 0.111115
718 241 0.249976
718 756 0.250008
718 921 0.250008
718 1472 0.250008
719 102 0.142858
719 136 0.142858
719 600 0.142858
719 661 0.285708
719 757 0.142858
719 762 0.142858
720 27 0.332511
720 41 8.54731e-06
720 201 0.157183
720 336 0.0356706
720 971 0.157176
720 1307 0.157176
720 7266 0.160275
721 102 0.189781
721 241 0.10128
721 354 0.101258
721 682 0.10128
721 755 0.405121
721 764 0.10128
722 66 0.159425
722 336 0.262644
722 417 0.00873087
722 759 0.15942
722 765 0.159425
722 879 0.15943
722 887 0.0909245
723 283 0.102343
723 450 0.102344
723 795 0.102344
723 802 0.18124
723 1879 0.102355
723 1980 0.204686
723 1981 0.102343
723 1982 0.102344
724 96 0.111085
724 105 0.111115
724 241 0.111114
724 646 0.111114
724 766 0.111114
724 767 0.111114
724 768 0.111114
724 769 0.111114
724 770 0.111114
725 50 0.283713
725 776 0.358669
725 777 0.000318199
725 798 0.357286
725 800 1.39624e-05
726 96 0.199544
726 155 0.200114
726 190 0.200114
726 272 0.200114
726 5205 0.200114
727 181 0.166662
727 604 0.166662
727 772 0.166662
727 773 0.166662
727 774 0.166662
727 775 0.166662
727 1443 2.78967e-05
728 417 1
729 776 0.916181
729 6206 0.0832889
729 8583 0.000529963
730 1692 1
731 85 0.959747
731 759 0.0402529
732 635 0.252981
732 777 0.494896
732 3525 0.252123
733 714 0.499949
733 778 0.500051
734 105 0.223641
734 779 0.776359
735 88 0.200005
735 130 0.400019
735 781 0.199967
735 1800 0.200009
736 241 0.333333
736 782 0.333333
736 783 0.333333
737 950 0.365329
737 3909 0.574083
737 8416 3.34304e-06
737 8725 0.0605838
738 10 0.166666
738 201 0.166666
738 385 0.166666
738 708 0.166666
738 755 0.166669
738 785 0.166666
739 241 0.175178
739 440 0.175178
739 575 0.174361
739 961 0.175178
739 1049 0.124927
739 1458 0.175178
740 8 0.142859
740 10 0.142858
740 509 0.142859
740 623 0.142858
740 755 0.142848
740 786 0.142859
740 787 0.142859
741 623 1
742 74 0.499937
742 95 0.125055
742 387 0.125003
742 604 0.125003
742 3046 0.125003
743 105 0.189791
743 755 0.213834
743 4750 0.198792
743 6700 0.397583
744 681 0.142855
744 683 0.142857
744 2586 0.142857
744 2587 0.57143
745 90 0.0100743
745 417 0.989926
746 10 0.125571
746 136 0.125571
746 661 0.121002
746 755 0.125571
746 762 0.125571
746 790 0.125571
746 792 0.125571
746 793 0.125571
747 292 0.5
747 2653 0.5
748 22 0.18993
748 102 0.00310299
748 190 0.189933
748 791 0.189929
748 944 0.00219951
748 1286 0.424905
749 105 1
750 1929 0.2
750 4094 0.2
750 5627 0.2
750 5628 0.2
750 5629 0.2
751 241 0.111111
751 385 0.111111
751 573 0.111111
751 766 0.111111
751 767 0.111111
751 796 0.111111
751 797 0.111111
751 798 0.111111
751 799 0.111111
752 279 0.0369303
752 345 0.642048
752 795 0.321022
753 27 0.148295
753 708 0.144655
753 2273 0.41774
753 6069 0.144655
753 6070 0.144655
754 105 0.496709
754 630 0.253016
754 798 0.00192687
754 800 0.248348
755 804 0.832314
755 821 0.167686
756 804 0.673024
756 807 0.160843
756 811 0.165665
756 1018 0.00046853
757 1200 0.261296
757 1408 0.216111
757 4015 0.261296
757 4016 0.261296
758 286 0.160251
758 287 0.120502
758 810 0.120464
758 811 0.237398
758 812 0.240923
758 815 0.120461
759 809 0.250002
759 810 0.749998
760 807 0.428627
760 808 0.428526
760 810 0.142847
761 286 0.182509
761 287 0.272435
761 805 0.272528
761 806 0.272528
762 283 0.127311
762 478 0.127295
762 804 0.108842
762 808 0.12731
762 813 0.127311
762 814 0.127311
762 816 0.127311
762 817 0.127311
763 818 1
764 295 0.333332
764 4668 0.333334
764 5933 0.333334
765 188 0.507047
765 737 0.239429
765 5840 0.253524
766 40 0.0227762
766 272 0.140819
766 478 0.167339
766 1460 0.334533
766 1856 0.167267
766 9034 0.167267
767 819 0.00142245
767 820 0.998578
768 478 0.66663
768 811 3.84902e-06
768 828 0.333366
769 810 0.111107
769 822 0.222223
769 823 0.111112
769 824 0.111112
769 825 0.222223
769 826 0.111112
769 827 0.111112
770 286 0.333506
770 287 0.333247
770 812 0.333247
771 8 0.355112
771 819 0.644888
772 40 0.36707
772 630 0.365394
772 896 0.176188
772 3538 0.0913484
773 810 0.300021
773 811 0.100007
773 850 0.300021
773 851 0.100007
773 908 0.199944
774 96 0.106364
774 927 0.111706
774 1166 0.78193
775 272 0.289746
775 1415 0.144836
775 2347 0.145772
775 8753 0.274812
775 9041 0.144833
776 72 7.37209e-05
776 272 0.166457
776 806 0.166966
776 825 0.166625
776 835 0.166626
776 836 0.166626
776 837 0.166626
777 8 0.142857
777 286 0.142857
777 287 0.142857
777 811 0.142857
777 812 0.142857
777 815 0.142857
777 841 0.142857
778 354 0.2
778 478 0.2
778 829 0.2
778 838 0.2
778 840 0.2
779 772 0.111111
779 813 0.111111
779 822 0.111111
779 830 0.111111
779 831 0.111111
779 832 0.111111
779 833 0.111111
779 834 0.111111
779 839 0.111111
780 842 0.25
780 843 0.25
780 844 0.5
781 96 0.0196741
781 845 0.980326
782 96 2.77939e-05
782 846 0.999972
783 821 1
784 379 0.5
784 4805 0.5
785 847 0.5
785 848 0.5
786 96 0.140299
786 479 0.143284
786 820 0.286565
786 849 0.429852
787 72 0.000113761
787 77 0.499819
787 96 0.499843
787 7000 0.000224017
788 858 0.399288
788 2099 0.600712
789 96 0.124868
789 127 0.125019
789 325 0.125019
789 822 0.125019
789 852 0.125019
789 853 0.125019
789 854 0.125019
789 855 0.125019
790 825 0.333251
790 856 0.333251
790 857 0.333498
791 737 1
792 858 1
793 924 1
794 701 0.25
794 925 0.25
794 926 0.25
794 927 0.25
795 859 0.5
795 860 0.5
796 325 0.166419
796 737 0.00148933
796 822 0.166418
796 825 0.166418
796 861 0.166419
796 862 0.166419
796 863 0.166419
797 822 0.5
797 864 0.166667
797 867 0.166667
797 870 0.166667
798 825 0.333332
798 865 0.111111
798 866 0.111111
798 868 0.111111
798 869 0.111111
798 871 0.111111
798 872 0.111111
799 1580 1
800 873 0.25
800 874 0.25
800 875 0.25
800 876 0.25
801 417 0.0318894
801 877 0.968111
802 336 1
803 72 0.329697
803 354 0.335151
803 878 0.335151
804 6 0.2
804 880 0.2
804 881 0.2
804 1032 0.2
804 2484 0.2
805 882 1
806 308 0.0833342
806 354 0.0833342
806 887 0.166658
806 888 0.0833342
806 889 0.250003
806 890 0.166668
806 891 0.166668
807 102 0.124947
807 355 0.12501
807 574 0.124991
807 822 0.12501
807 825 0.12501
807 892 0.12501
807 893 0.12501
807 897 0.12501
808 286 0.223536
808 287 0.21762
808 288 0.111769
808 894 0.111769
808 895 0.223538
808 896 0.111769
809 150 0.791085
809 2063 0.208915
810 354 0.231108
810 417 0.306676
810 899 0.231108
810 900 0.231108
811 875 1
812 185 0.111111
812 754 0.111111
812 783 0.111111
812 1408 0.111111
812 1557 0.111111
812 3887 0.111111
812 3989 0.111111
812 4023 0.111111
812 4024 0.111111
813 392 0.5
813 630 0.5
814 40 0.277811
814 806 0.144202
814 901 0.144497
814 902 0.144497
814 903 0.144497
814 904 0.144497
815 574 0.124989
815 600 0.124989
815 810 0.124992
815 821 0.249979
815 906 0.124989
815 907 0.124989
815 908 0.125072
816 245 0.339194
816 379 0.327295
816 908 6.30099e-06
816 961 0.333505
817 41 0.333295
817 597 3.13149e-05
817 851 0.666674
818 87 0.333333
818 853 0.333333
818 905 0.333333
819 822 0.333333
819 909 0.333333
819 910 0.333333
820 825 0.333332
820 911 0.333334
820 912 0.333334
821 759 0.285387
821 913 0.142923
821 914 0.57169
822 895 0.938084
822 6265 0.0619159
823 325 0.6
823 7601 0.2
823 9744 0.2
824 453 0.111111
824 822 0.111111
824 825 0.111109
824 858 0.222223
824 916 0.222223
824 917 0.111111
824 918 0.111111
825 2502 1
826 286 0.25
826 921 0.25
826 922 0.25
826 923 0.25
827 478 0.399995
827 828 0.200002
827 907 0.200002
827 7344 0.200002
828 573 4.18983e-05
828 1415 0.24999
828 7632 0.749969
829 185 0.305665
829 692 0.0830041
829 919 0.305665
829 6835 0.305665
830 40 2.21074e-06
830 218 0.272661
830 810 0.0910972
830 920 0.363567
830 4034 0.272672
831 1249 0.333951
831 1826 0.666049
832 286 0.166623
832 810 0.16637
832 922 0.166752
832 928 0.166752
832 929 0.166752
832 930 0.166752
833 185 1
834 96 0.149406
834 343 0.169886
834 354 0.171087
834 1459 0.16987
834 6204 0.339751
835 931 0.5
835 5546 0.5
836 932 0.2
836 4404 0.399999
836 7155 0.2
836 7156 0.2
837 40 0.00107768
837 245 0.249732
837 354 0.249729
837 908 2.88932e-06
837 934 0.249729
837 935 0.249729
838 150 0.200482
838 279 0.0999397
838 2200 0.199879
838 4203 0.0999397
838 6629 0.0999397
838 7862 0.0999397
838 9662 0.199879
839 40 0.0627199
839 150 0.186378
839 201 0.187484
839 431 0.187484
839 841 0.188449
839 6366 0.187484
840 71 0.326962
840 72 0.48676
840 77 0.186278
841 124 0.166664
841 433 0.166669
841 604 0.16666
841 711 0.166669
841 936 0.166669
841 937 0.166669
842 66 0.334538
842 308 0.665462
843 938 0.5
843 939 0.5
844 218 0.499734
844 940 0.499734
844 941 0.000531975
845 941 0.2498
845 3420 0.250067
845 3426 0.250067
845 3427 0.250067
846 895 3.89867e-05
846 9177 0.999961
847 74 9.75764e-05
847 354 0.345868
847 2485 0.490526
847 2886 0.163509
848 272 0.499814
848 942 0.499814
848 943 0.000371773
849 72 0.391722
849 604 0.304261
849 943 0.304017
850 17 0.200002
850 944 0.400005
850 1272 0.399993
851 440 0.142848
851 945 0.142848
851 946 0.428544
851 947 0.142848
851 8696 0.142913
852 50 0.332001
852 948 0.334
852 951 0.333999
853 952 0.333332
853 953 5.2875e-06
853 9448 0.333332
853 9449 0.333332
854 953 0.506907
854 7453 0.493093
855 954 0.399998
855 1200 6.7282e-06
855 1270 0.199999
855 1498 0.199997
855 2873 0.199999
856 955 1
857 131 0.166667
857 151 0.166667
857 956 0.166667
857 957 0.166667
857 961 0.166667
857 962 0.166667
858 286 0.268206
858 287 0.195377
858 478 0.134104
858 828 0.134104
858 963 0.268209
859 61 0.333113
859 96 0.333773
859 958 0.333113
860 118 0.248428
860 787 0.125262
860 959 0.375786
860 960 0.125262
860 1924 0.125262
861 218 0.333326
861 308 0.166668
861 927 0.500005
862 964 1
863 33 0.472519
863 593 0.24723
863 1396 0.0330214
863 2190 0.24723
864 574 0.142711
864 945 0.142882
864 968 0.142882
864 969 0.142882
864 970 0.142882
864 971 0.142882
864 1127 0.142882
865 190 0.285712
865 440 0.142858
865 965 0.142858
865 966 0.142858
865 967 0.142858
865 2028 0.142858
866 279 0.124626
866 345 0.747754
866 962 0.127621
867 17 0.166672
867 124 0.166638
867 642 0.166672
867 974 0.166672
867 975 0.166672
867 976 0.166672
868 972 0.666667
868 973 0.333333
869 40 0.169327
869 1752 0.276891
869 2266 0.276891
869 9033 0.276891
870 185 8.87186e-05
870 692 0.999911
871 185 0.499975
871 977 0.50002
871 978 5.07099e-06
872 385 0.142857
872 978 0.428571
872 979 0.285715
872 983 0.142856
873 850 0.25
873 980 0.249999
873 981 0.25
873 982 0.25
874 692 0.169553
874 1214 0.169136
874 1408 0.153901
874 1460 0.169137
874 2722 0.169136
874 8003 0.169137
875 440 0.5
875 984 0.5
876 985 1
877 1060 0.327192
877 1594 0.327192
877 1595 0.345616
878 181 0.5
878 674 0.5
879 32 0.200013
879 920 0.200013
879 986 0.200013
879 987 0.200013
879 988 0.199948
880 988 0.000106989
880 4205 0.331913
880 4206 0.331913
880 5829 0.00415299
880 9385 0.331914
881 32 0.166667
881 453 0.166667
881 571 0.166667
881 701 0.166667
881 960 0.166667
881 989 0.166667
882 992 1
883 990 0.5
883 991 0.5
884 993 1
885 994 1
886 232 0.111111
886 419 0.111111
886 746 0.111111
886 995 0.111111
886 996 0.111111
886 997 0.111111
886 998 0.111111
886 999 0.111111
886 1000 0.111111
887 96 0.37534
887 1010 0.312333
887 2941 0.312327
888 85 0.333333
888 1019 0.333333
888 1079 0.166667
888 1102 0.166667
889 41 0.096411
889 926 0.228727
889 1973 0.289233
889 3603 0.0964071
889 8772 0.192822
889 8798 0.0963998
890 76 0.49999
890 323 0.50001
891 417 0.166666
891 879 0.166671
891 1004 0.166666
891 1005 0.166666
891 4537 0.333332
892 295 0.166669
892 307 0.166669
892 1001 0.166669
892 1002 0.166657
892 1003 0.333337
893 37 0.125004
893 61 0.125004
893 388 0.125004
893 1002 0.124973
893 1006 0.125004
893 1007 0.125004
893 1008 0.125004
893 1009 0.125004
894 40 3.79575e-05
894 41 0.396499
894 737 0.00320522
894 879 0.203303
894 7181 0.396955
895 1010 0.333333
895 1011 0.333333
895 1012 0.333333
896 150 0.125
896 251 0.125
896 354 0.125
896 1013 0.375
896 1014 0.125
896 1405 0.125
897 156 1
898 879 0.996386
898 1018 0.00361374
899 96 2.50142e-05
899 731 0.932076
899 3725 0.000292326
899 4178 0.0676067
900 344 0.111114
900 962 0.111114
900 970 0.111114
900 1015 0.111114
900 1016 0.111114
900 1017 0.111114
900 1018 0.111091
900 1020 0.111114
900 1021 0.111114
901 15 0.212868
901 385 0.571536
901 4684 0.215596
902 3083 0.769775
902 5166 0.230225
903 1022 1
904 334 0.500007
904 1025 0.499993
905 325 0.331346
905 1023 0.220957
905 1024 0.331436
905 1025 2.2633e-05
905 1035 0.00575958
905 1097 0.110479
906 1028 1
907 825 3.78921e-05
907 1029 0.249991
907 1030 0.249991
907 1031 0.24999
907 1032 0.24999
908 40 0.149174
908 822 0.283616
908 825 0.283594
908 1033 0.141808
908 1034 0.141808
909 1025 1
910 343 0.134649
910 434 0.269326
910 600 0.0573732
910 688 0.134663
910 1036 0.134663
910 1037 0.134663
910 1164 0.134663
911 907 0.5
911 3708 0.5
912 440 0.142721
912 947 0.142721
912 1038 0.142719
912 1136 0.142714
912 1676 0.143683
912 2375 0.142721
912 2699 0.142721
913 2273 0.996374
913 2864 0.00362578
914 843 0.5
914 1039 0.5
915 5 0.142857
915 181 0.285715
915 241 0.142857
915 1025 0.142857
915 1040 0.142857
915 1041 0.142857
916 1042 0.983272
916 5403 0.0167282
917 118 0.161776
917 737 0.00731502
917 1043 0.498545
917 5030 0.166182
917 5097 0.166182
918 41 0.114306
918 83 0.229077
918 218 0.27482
918 1045 0.343616
918 1887 0.0381796
919 94 0.25
919 1044 0.75
920 241 0.386908
920 315 0.386908
920 1023 0.226184
921 1023 0.121627
921 1026 0.292791
921 1027 0.292791
921 1046 0.292791
922 9291 0.5
922 9646 0.5
923 334 0.976653
923 1049 0.0233467
924 234 0.600005
924 1083 0.200002
924 4836 0.199994
925 92 0.995902
925 4067 0.0040982
926 408 0.857143
926 1047 0.142857
927 198 0.209311
927 1050 0.209332
927 1147 0.581357
928 991 0.500004
928 1048 0.499996
929 325 0.166669
929 822 0.16667
929 1049 0.16667
929 1050 0.166652
929 1051 0.16667
929 1054 0.16667
930 349 1.41346e-05
930 1052 0.499993
930 1053 0.499993
931 5 0.0145616
931 50 0.281553
931 295 0.140777
931 1041 0.422331
931 1081 0.140777
932 825 0.2
932 1055 0.2
932 1056 0.2
932 1057 0.2
932 1058 0.2
933 3 0.00819315
933 843 0.165303
933 1059 0.495909
933 1593 0.165292
933 4123 0.165303
934 77 0.642929
934 2111 0.357071
935 3 0.322015
935 96 0.000372512
935 1060 0.338807
935 1061 0.338806
936 150 0.143135
936 245 0.285189
936 389 0.142919
936 1085 0.142919
936 1621 0.142919
936 7569 0.142919
937 1064 1
938 1065 0.6678
938 8368 0.3322
939 1065 0.00160179
939 1066 0.998398
940 1066 1
941 991 0.333333
941 1062 0.333333
941 1063 0.333333
942 8 0.333333
942 992 0.333333
942 1067 0.333333
943 279 0.166667
943 497 0.166667
943 5735 0.166667
943 5736 0.166667
943 5737 0.166665
943 5738 0.166667
944 151 0.110473
944 706 0.773316
944 2721 2.12562e-05
944 3263 0.11619
945 1068 0.5
945 1069 0.5
946 825 0.0676143
946 1070 0.932386
947 1071 0.4
947 1072 0.2
947 1319 0.2
947 6865 0.2
948 1287 0.206515
948 1400 0.147364
948 3439 0.206515
948 3457 0.206515
948 3458 0.0265748
948 3459 0.206515
949 295 0.503219
949 1073 0.331188
949 8550 0.165594
950 1074 1
951 680 0.200056
951 1075 0.200056
951 1078 0.200056
951 1079 0.199775
951 1080 0.200056
952 1076 1
953 1082 0.491565
953 1854 0.508435
954 971 1
955 1084 1
956 92 0.179406
956 8591 0.820594
957 1089 1
958 696 0.333269
958 9346 0.333366
958 9347 0.333365
959 441 0.714286
959 3459 0.285714
960 72 0.000106275
960 604 0.733856
960 1744 0.266038
961 696 0.249999
961 1086 0.25
961 1087 0.25
961 1088 0.25
962 240 0.000914089
962 302 0.999086
963 194 0.84761
963 284 0.000221935
963 1090 0.152168
964 850 0.25
964 1137 0.75
965 440 0.232028
965 879 0.535944
965 1057 0.232028
966 72 0.032839
966 1091 0.131784
966 1092 0.020995
966 1111 0.814382
967 1091 0.219856
967 1092 0.25554
967 1093 0.262302
967 1094 0.262302
968 66 0.2347
968 89 0.2347
968 414 0.0611994
968 1095 0.2347
968 1096 0.2347
969 125 0.2
969 1579 0.2
969 1831 0.2
969 4405 0.2
969 4406 0.2
970 131 0.200007
970 343 0.200007
970 600 0.19997
970 1098 0.200007
970 1099 0.200007
971 1100 1
972 1150 0.857164
972 7342 0.142836
973 509 0.900001
973 3965 0.0999991
974 96 0.110679
974 268 0.110994
974 354 0.222035
974 392 0.222035
974 1077 0.111018
974 1101 0.223239
975 40 0.0182125
975 96 0.102718
975 166 0.102848
975 289 0.102848
975 600 0.159131
975 1104 0.102848
975 1105 0.102848
975 1106 0.102848
975 1752 0.102848
975 1753 0.102848
976 2332 0.333337
976 8601 0.333326
976 8606 0.333336
977 50 0.11995
977 268 0.783382
977 596 0.0966677
978 268 0.231416
978 528 0.255819
978 1107 0.256382
978 1108 0.256382
979 363 0.499726
979 528 0.500274
980 88 1
981 40 0.163827
981 1413 0.167236
981 1415 0.167235
981 2939 0.167236
981 8993 0.167231
981 8994 0.167235
982 29 0.143133
982 94 0.143133
982 96 0.1412
982 636 0.143133
982 842 0.143133
982 1109 0.143133
982 1110 0.143133
983 77 0.111115
983 150 0.111101
983 358 0.111115
983 391 0.111115
983 1018 0.222209
983 1112 0.111115
983 1113 0.111115
983 1114 0.111115
984 2963 0.499999
984 2973 0.500001
985 66 0.138487
985 96 0.28718
985 255 0.21538
985 500 0.358953
986 71 0.333124
986 72 0.000619306
986 108 0.333128
986 1115 0.333128
987 469 1
988 96 0.278109
988 346 0.144378
988 437 0.144378
988 5057 0.144378
988 5073 0.144378
988 6327 0.144378
989 218 0.125
989 231 0.125
989 1094 0.125
989 1116 0.125
989 1117 0.125
989 1118 0.125
989 1119 0.125
989 8347 0.125
990 258 0.333333
990 1120 0.333333
990 1121 0.333333
991 401 0.500053
991 997 0.499947
992 1132 1
993 5 0.206054
993 1123 0.175786
993 4310 0.206054
993 8336 0.206053
993 8353 0.206054
994 446 0.428285
994 1124 0.142929
994 1125 0.142929
994 1126 0.142929
994 1127 0.142929
995 61 0.375701
995 218 0.624299
996 1129 1
997 762 0.200002
997 1013 0.200002
997 1018 0.399993
997 1130 0.200002
998 118 0.25
998 186 0.25
998 272 0.25
998 1131 0.25
999 40 0.219695
999 127 0.15609
999 2786 0.155955
999 8868 0.46826
1000 61 0.0999871
1000 259 0.0999854
1000 431 0.100136
1000 511 0.0999854
1000 574 0.0999853
1000 1091 0.0999795
1000 1108 0.0999854
1000 1295 0.0999854
1000 3752 0.0999854
1000 4783 0.0999854
1001 32 0.111111
1001 127 0.111111
1001 151 0.111111
1001 218 0.111111
1001 639 0.222222
1001 1048 0.111111
1001 1108 0.111111
1001 1132 0.111111
1002 293 0.333333
1002 1133 0.333333
1002 1134 0.333333
1003 74 0.333333
1003 108 0.333333
1003 1136 0.333333
1004 25 0.36803
1004 94 0.245346
1004 151 0.386624
1005 1138 0.5
1005 1140 0.5
1006 77 0.0918646
1006 922 0.247438
1006 1139 0.660698
1007 41 0.200022
1007 96 0.199912
1007 1132 0.200022
1007 1141 0.200022
1007 1142 0.200022
1008 40 0.237598
1008 241 1.23141e-05
1008 1744 0.254126
1008 4025 0.254132
1008 7697 0.254132
1009 319 0.499948
1009 1049 0.000103268
1009 1144 0.499948
1010 8 0.200012
1010 991 0.300018
1010 1049 0.0999442
1010 1143 0.300019
1010 1145 0.100006
1011 385 0.285714
1011 2694 0.142857
1011 4294 0.428572
1011 4321 0.142857
1012 303 0.111359
1012 696 0.111323
1012 1046 0.111359
1012 1049 0.222718
1012 1147 0.109164
1012 1148 0.222718
1012 1149 0.111359
1013 1146 1
1014 233 0.00102647
1014 272 0.333669
1014 335 0.331741
1014 1856 0.333564
1015 895 0.2
1015 1152 0.2
1015 1153 0.2
1015 1154 0.2
1015 1155 0.0999999
1015 4458 0.1
1016 1156 0.333254
1016 1157 0.666508
1016 5181 0.000238617
1017 3522 1
1018 335 0.333169
1018 1158 0.333415
1018 1160 0.333415
1019 50 0.200435
1019 268 0.200434
1019 1101 0.398696
1019 1159 0.200435
1020 50 0.333768
1020 1162 0.333116
1020 1163 0.333116
1021 72 6.74876e-06
1021 393 0.749995
1021 1004 0.249998
1022 29 0.499951
1022 156 0.250073
1022 9782 0.249975
1023 755 1
1024 261 0.469609
1024 295 0.132588
1024 307 0.132601
1024 1140 0.132601
1024 1156 0.132601
1025 307 0.333333
1025 2543 0.333333
1025 8033 0.333333
1026 96 0.166667
1026 758 0.166667
1026 1167 0.166667
1026 1168 0.166667
1026 1169 0.166667
1026 1170 0.166667
1027 35 0.24641
1027 105 0.0143595
1027 392 0.24641
1027 1434 0.24641
1027 1435 0.24641
1028 798 9.83178e-07
1028 1162 0.314219
1028 1172 0.587813
1028 2026 0.0979672
1029 17 0.249989
1029 754 0.249989
1029 1098 5.79508e-05
1029 1171 0.249989
1029 1172 0.249974
1030 325 0.198816
1030 1098 0.19877
1030 1099 0.198816
1030 1173 0.198816
1030 1174 0.198816
1030 1175 0.00596556
1031 822 0.201207
1031 825 0.201207
1031 1175 0.19517
1031 1176 0.201208
1031 1177 0.201208
1032 247 0.199882
1032 334 0.200484
1032 789 0.199869
1032 1178 0.199882
1032 1179 0.199882
1033 1986 0.136259
1033 3254 0.261647
1033 6554 0.209009
1033 7562 0.393084
1034 1180 0.666662
1034 1628 0.333339
1035 975 0.250001
1035 1306 0.250001
1035 3083 0.249996
1035 6751 0.250001
1036 4450 1
1037 1182 0.500102
1037 1190 0.499898
1038 1180 1.58492e-05
1038 1181 0.333373
1038 1182 0.333238
1038 1183 0.333373
1039 17 0.5
1039 51 0.5
1040 1410 1
1041 1189 1
1042 111 0.166674
1042 1255 0.166674
1042 1376 0.166674
1042 2063 0.166628
1042 5262 0.166674
1042 5263 0.166674
1043 6 0.166667
1043 1184 0.166667
1043 1185 0.166667
1043 1186 0.166667
1043 1187 0.166667
1043 1188 0.166667
1044 1191 1
1045 1192 1
1046 354 0.200002
1046 393 0.599998
1046 3048 0.199999
1047 574 0.333314
1047 1193 0.333372
1047 1194 0.333314
1048 96 0.999738
1048 156 0.000262027
1049 5 0.99896
1049 96 0.0010397
1050 5 0.0848869
1050 1195 0.915113
1051 1196 0.333333
1051 1197 0.333333
1051 1198 0.333333
1052 1199 1
1053 1203 0.333333
1053 1204 0.333333
1053 1205 0.333333
1054 1200 0.5
1054 1201 0.5
1055 273 0.166666
1055 440 0.166667
1055 1272 0.166667
1055 3186 0.166666
1055 6165 0.166667
1055 7761 0.166667
1056 32 0.5
1056 272 0.25
1056 1206 0.25
1057 29 0.111111
1057 50 0.111111
1057 316 0.111111
1057 636 0.111111
1057 798 0.111111
1057 1212 0.111111
1057 1213 0.111111
1057 1214 0.111111
1057 1215 0.111111
1058 574 0.142857
1058 907 0.142857
1058 1207 0.142857
1058 1208 0.142857
1058 1209 0.142857
1058 1210 0.142857
1058 1216 0.142857
1059 344 1
1060 29 0.333333
1060 1211 0.666667
1061 962 0.50724
1061 4718 0.49276
1062 353 0.125
1062 1500 0.125
1062 2899 0.125
1062 5584 0.125
1062 6014 0.125
1062 7229 0.125
1062 8698 0.25
1063 13 0.143197
1063 1229 0.143198
1063 1645 0.140813
1063 3986 0.143198
1063 3987 0.143198
1063 3988 0.143198
1063 3989 0.143198
1064 1132 0.120414
1064 1217 0.361234
1064 1218 0.174911
1064 1219 0.223028
1064 1272 0.120414
1065 1217 0.000177187
1065 1218 0.690212
1065 1219 0.309611
1066 155 0.419111
1066 1219 0.000231334
1066 1233 0.371382
1066 1282 0.209276
1067 822 0.166558
1067 825 0.166558
1067 1219 0.000697405
1067 1230 0.166558
1067 1231 0.166558
1067 1232 0.166558
1067 1237 0.166511
1068 913 0.5
1068 1220 0.5
1069 93 0.374895
1069 159 0.249956
1069 1223 0.125193
1069 1972 0.249956
1070 8 0.125152
1070 262 0.125009
1070 1221 0.249953
1070 1222 0.249953
1070 1223 0.249932
1071 1224 1
1072 746 0.500006
1072 758 0.499994
1073 1287 0.875
1073 5761 0.125
1074 113 0.0555556
1074 319 0.499999
1074 1226 0.444445
1075 8 0.199786
1075 262 0.200015
1075 991 0.200067
1075 1225 0.200067
1075 1227 0.200066
1076 203 0.00599241
1076 1228 0.994008
1077 13 0.166834
1077 203 0.165828
1077 555 0.166836
1077 961 0.166834
1077 1229 0.166834
1077 1748 0.166834
1078 15 0.333869
1078 164 0.333065
1078 1235 0.333065
1079 913 0.089083
1079 1233 0.465611
1079 1258 0.0890153
1079 1282 0.0890401
1079 1287 0.0890831
1079 1294 0.0890831
1079 1295 0.0890843
1080 124 0.166666
1080 385 0.166666
1080 1234 0.333335
1080 1235 0.166666
1080 1287 0.166666
1081 761 0.399977
1081 1236 0.199989
1081 1237 0.200046
1081 1587 0.199988
1082 15 0.0997825
1082 56 0.100024
1082 1040 0.100024
1082 1219 0.200049
1082 1238 0.100024
1082 1239 0.200048
1082 1250 0.100024
1082 1251 0.100024
1083 1244 1
1084 118 0.406107
1084 447 0.593893
1085 93 0.125
1085 604 0.125
1085 913 0.125
1085 1224 0.125
1085 1246 0.125
1085 1247 0.125
1085 1248 0.125
1085 1249 0.125
1086 1245 1
1087 72 2.44782e-06
1087 1202 0.999368
1087 1352 0.000629416
1088 68 0.14286
1088 1219 0.285701
1088 1240 0.14286
1088 1241 0.14286
1088 1242 0.14286
1088 1243 0.14286
1089 600 0.5
1089 1642 0.5
1090 963 0.333758
1090 1252 0.666242
1091 316 0.656656
1091 1203 0.00107286
1091 1204 0.342272
1092 1204 0.494724
1092 1253 0.252638
1092 1334 0.252638
1093 286 0.399996
1093 882 0.400003
1093 921 0.200001
1094 286 7.12576e-05
1094 287 0.386719
1094 1254 0.613209
1095 286 0.317662
1095 287 0.258707
1095 1249 0.211819
1095 1256 0.211812
1096 1257 0.833323
1096 9244 1.29078e-05
1096 9265 0.166664
1097 1258 1
1098 1259 1
1099 159 7.89423e-06
1099 261 0.10407
1099 1017 0.0894982
1099 1929 0.0895019
1099 2727 0.178996
1099 8416 0.537925
1100 680 0.25
1100 1255 0.25
1100 1260 0.25
1100 1261 0.25
1101 171 1.88322e-06
1101 991 0.369708
1101 1225 0.537874
1101 1262 0.0924159
1102 497 0.666743
1102 997 0.166668
1102 1307 0.0832464
1102 9840 0.0833425
1103 325 0.166667
1103 822 0.166667
1103 1263 0.166667
1103 1264 0.166667
1103 1265 0.166667
1103 1266 0.166667
1104 96 0.000915087
1104 1267 0.999085
1105 751 1
1106 825 0.250001
1106 1269 0.749999
1107 150 0.263504
1107 453 0.613748
1107 4817 0.122748
1108 150 0.166662
1108 600 0.166669
1108 755 0.166669
1108 1219 0.16666
1108 1270 0.166669
1108 1271 0.166669
1109 41 0.142857
1109 102 0.142857
1109 110 0.142857
1109 218 0.142857
1109 1273 0.142857
1109 1274 0.142857
1109 1275 0.142857
1110 1129 0.333334
1110 4285 0.333333
1110 4300 0.333333
1111 415 0.250003
1111 2556 0.250004
1111 6028 0.24999
1111 7678 0.250003
1112 3902 0.500176
1112 6201 0.499824
1113 40 0.477474
1113 1271 0.261263
1113 1276 0.261263
1114 93 0.200046
1114 245 0.200003
1114 1309 0.199859
1114 1310 0.200046
1114 1311 0.200046
1115 272 0.666667
1115 1277 0.333334
1116 1278 1
1117 93 0.166667
1117 1219 0.166667
1117 1273 0.166667
1117 1279 0.166667
1117 1280 0.166667
1117 1281 0.166667
1118 1282 0.000176361
1118 3368 0.166641
1118 3893 0.833182
1119 103 0.25
1119 1283 0.25
1119 5753 0.5
1120 760 0.142857
1120 1284 0.571427
1120 1293 3.06896e-06
1120 1307 0.142857
1120 5151 0.142857
1121 155 0.249775
1121 417 0.250075
1121 1285 0.50015
1122 1286 1
1123 530 0.166464
1123 1990 0.00121568
1123 3174 0.665855
1123 3806 0.166465
1124 90 0.19904
1124 96 0.199754
1124 151 4.02701e-05
1124 354 0.200412
1124 1108 0.200339
1124 1332 0.200415
1125 1108 0.123684
1125 1272 0.123638
1125 1280 0.370914
1125 1284 0.123638
1125 1286 0.123638
1125 5245 0.134488
1126 1923 1
1127 3123 0.25
1127 3150 0.5
1127 6733 0.25
1128 490 0.283744
1128 605 0.143251
1128 1245 0.143251
1128 1288 0.143251
1128 1289 0.143251
1128 1290 0.143251
1129 90 0.981158
1129 490 0.0188419
1130 335 0.333333
1130 2189 0.333333
1130 3591 0.333333
1131 1291 0.333333
1131 4485 0.666667
1132 1292 1
1133 265 0.620645
1133 1293 0.248262
1133 5208 0.131093
1134 241 0.472123
1134 810 0.263883
1134 5747 0.263993
1135 218 0.299208
1135 1408 0.651185
1135 1676 0.000187512
1135 4024 0.049419
1136 1019 0.25
1136 1108 0.25
1136 2025 0.25
1136 9000 0.25
1137 1211 0.5
1137 2142 0.5
1138 1296 0.5
1138 1297 0.5
1139 795 0.116946
1139 1298 0.326283
1139 1299 0.116947
1139 1300 0.439824
1140 302 0.25
1140 496 0.25
1140 3648 0.25
1140 3649 0.25
1141 105 0.840351
1141 385 0.159649
1142 1302 0.250013
1142 1347 0.250013
1142 1430 0.249961
1142 1433 0.250013
1143 1301 0.333334
1143 1302 0.333332
1143 1303 0.333334
1144 1217 1
1145 1132 0.333333
1145 1273 0.333333
1145 1304 0.333333
1146 519 0.142842
1146 1219 0.285681
1146 1224 0.14295
1146 1245 0.142842
1146 1305 0.142842
1146 1306 0.142842
1147 1027 0.800995
1147 1147 0.199005
1148 102 0.260955
1148 597 0.14854
1148 6665 0.148589
1148 6766 0.293361
1148 6767 0.148555
1149 1307 1
1150 571 0.399046
1150 5965 0.200318
1150 5966 0.200318
1150 8352 0.200318
1151 340 0.333333
1151 1245 0.333333
1151 1308 0.333333
1152 1309 0.000461848
1152 6250 0.496152
1152 7313 0.00721905
1152 9223 0.496167
1153 1010 0.166667
1153 1294 0.666667
1153 5250 0.166667
1154 272 0.2983
1154 1312 0.14915
1154 3271 0.14915
1154 3280 0.14915
1154 9696 0.254249
1155 105 1.25999e-05
1155 1314 0.999987
1156 8 0.153883
1156 509 0.0769415
1156 581 0.0769415
1156 9810 0.615293
1156 9837 0.0769415
1157 376 0.200004
1157 2079 0.799996
1158 105 0.501629
1158 7174 0.498371
1159 1320 0.2
1159 1321 0.2
1159 1322 0.4
1159 2767 0.2
1160 1245 0.250001
1160 1323 0.5
1160 2574 0.249999
1161 1992 1
1162 283 0.125
1162 490 0.125
1162 1287 0.125
1162 1315 0.125
1162 1316 0.125
1162 1317 0.125
1162 1318 0.125
1162 1319 0.125
1163 1377 0.333591
1163 6212 0.666409
1164 102 0.25
1164 150 0.25
1164 730 0.25
1164 7623 0.25
1165 1326 0.999966
1165 1327 3.3888e-05
1166 388 0.140716
1166 669 0.214712
1166 1327 0.214697
1166 1368 0.000450753
1166 2266 0.214712
1166 7588 0.214712
1167 1328 0.973565
1167 1329 0.0264352
1168 490 0.251709
1168 1329 0.244874
1168 1339 0.251709
1168 1340 0.251709
1169 1229 0.142857
1169 1280 0.142857
1169 1287 0.142857
1169 1324 0.142857
1169 1325 0.142857
1169 1330 0.142857
1169 1331 0.142857
1170 130 0.817445
1170 5419 0.182555
1171 151 0.166667
1171 1234 0.166665
1171 1255 0.166667
1171 1284 0.166667
1171 1286 0.166667
1171 1333 0.166667
1172 379 0.124794
1172 1202 0.250059
1172 1335 0.12503
1172 3894 0.12503
1172 7223 0.125029
1172 8886 0.250059
1173 2594 0.5
1173 8233 0.5
1174 102 0.142861
1174 490 0.142861
1174 1006 0.142861
1174 1202 0.142832
1174 1336 0.142861
1174 1337 0.142861
1174 1338 0.142861
1175 812 1
1176 1249 0.609456
1176 3533 0.365673
1176 5166 0.024871
1177 104 0.166595
1177 151 0.166654
1177 1255 0.166688
1177 1279 0.166688
1177 1332 0.166687
1177 1333 0.166688
1178 90 0.142543
1178 103 0.142909
1178 164 0.142909
1178 771 0.142909
1178 1341 0.142909
1178 1342 0.142909
1178 1343 0.142909
1179 36 0.166673
1179 96 0.166665
1179 98 0.166673
1179 155 0.166642
1179 559 0.166673
1179 1344 0.166673
1180 325 0.291448
1180 737 2.83288e-06
1180 1346 0.708549
1181 1347 0.499734
1181 1348 0.500266
1182 1348 0.000414281
1182 1349 0.999586
1183 1443 0.900378
1183 5945 0.0996218
1184 1350 0.814263
1184 1743 0.185737
1185 1351 0.333333
1185 1352 0.333333
1185 1353 0.333333
1186 1354 1
1187 1355 1
1188 1356 1
1189 36 0.124048
1189 574 0.123198
1189 822 0.124048
1189 825 0.124048
1189 1357 0.124048
1189 1358 0.124048
1189 1359 0.124048
1189 1360 0.132515
1190 335 0.498445
1190 1361 0.501549
1190 1362 5.81256e-06
1191 335 0.00614946
1191 1362 0.993851
1192 272 0.333513
1192 1363 0.332971
1192 1364 0.333516
1193 118 0.275449
1193 1363 0.448089
1193 1409 0.276461
1194 980 0.000248521
1194 1365 0.999752
1195 980 0.499954
1195 1366 0.500046
1196 72 0.231807
1196 1365 0.768193
1197 22 0.124975
1197 90 0.124975
1197 283 0.125174
1197 388 0.24995
1197 1367 0.124975
1197 1368 0.24995
1198 1375 0.367959
1198 1405 0.632041
1199 842 0.111112
1199 1370 0.55556
1199 1579 0.111112
1199 2721 0.222215
1200 150 0.11132
1200 1371 0.88868
1201 575 0.0832939
1201 825 0.0838653
1201 1351 0.249775
1201 1372 0.249888
1201 1463 0.166592
1201 1742 0.0832891
1201 1747 0.0832961
1202 40 0.0371568
1202 224 0.240711
1202 1349 0.240711
1202 1373 0.240711
1202 1374 0.240711
1203 2111 0.179908
1203 3319 0.164018
1203 4044 0.164018
1203 4592 0.492055
1204 72 1
1205 237 0.25
1205 879 0.25
1205 1464 0.25
1205 1465 0.25
1206 1462 0.5
1206 1463 0.25
1206 2348 0.25
1207 549 0.166628
1207 1003 0.166629
1207 1351 0.166856
1207 1377 0.166629
1207 1378 0.166629
1207 1379 0.166629
1208 237 1
1209 692 0.25
1209 1380 0.25
1209 1381 0.25
1209 1382 0.25
1210 40 0.047336
1210 1383 0.825642
1210 5946 0.127022
1211 822 0.0123175
1211 825 0.324934
1211 1384 0.331373
1211 1392 0.165686
1211 1393 0.165687
1211 1395 2.54221e-06
1212 1385 0.5
1212 1386 0.5
1213 822 0.327599
1213 825 0.2245
1213 1387 0.22395
1213 1388 0.22395
1214 237 0.249743
1214 1389 0.249743
1214 1765 0.499487
1214 8614 0.00102675
1215 325 0.199606
1215 1731 0.199469
1215 1732 0.600925
1216 1390 0.5
1216 1391 0.5
1217 927 0.111286
1217 1394 0.445136
1217 1395 0.221006
1217 7171 0.111286
1217 8457 0.111286
1218 822 0.201035
1218 825 0.00932875
1218 1398 0.394818
1218 1399 0.394818
1219 1395 2.10673e-06
1219 1396 0.491509
1219 1397 0.508488
1220 425 0.46017
1220 1371 0.539762
1220 2721 6.82694e-05
1221 118 0.100429
1221 1371 0.899571
1222 8 0.49994
1222 171 0.50006
1223 63 0.723593
1223 1363 0.276407
1224 272 0.199904
1224 1406 0.400049
1224 1407 0.400048
1225 1351 0.924781
1225 1702 0.0752194
1226 1413 0.288035
1226 2333 0.158368
1226 4666 0.553598
1227 991 0.459693
1227 1403 0.540307
1228 540 0.166667
1228 771 0.166666
1228 1404 0.500001
1228 1704 0.166667
1229 1375 0.0970025
1229 1405 0.806062
1229 4070 0.0969357
1230 123 0.473687
1230 1202 0.526313
1231 1400 0.142928
1231 1401 0.457127
1231 1402 0.399945
1232 1401 0.461504
1232 1480 0.538496
1233 1079 0.0914992
1233 1400 0.908501
1234 72 0.321906
1234 571 1.79721e-05
1234 1410 0.678076
1235 72 0.00919321
1235 272 0.132512
1235 841 0.132526
1235 1224 0.0662631
1235 1350 0.129744
1235 1351 0.065919
1235 1405 0.0662631
1235 1407 0.132526
1235 1411 0.132526
1235 1412 0.132526
1236 1060 0.541694
1236 1743 0.458306
1237 96 0.00160472
1237 354 0.665648
1237 1272 0.332747
1238 265 0.111111
1238 272 0.111111
1238 1405 0.111111
1238 1414 0.111111
1238 1415 0.111111
1238 1416 0.111111
1238 1417 0.111111
1238 1418 0.111111
1238 1419 0.111111
1239 574 0.664613
1239 1413 0.335387
1240 1420 0.398209
1240 3035 0.601791
1241 323 0.199999
1241 345 0.2
1241 879 0.2
1241 1381 0.2
1241 1423 0.2
1242 41 0.172792
1242 1347 0.138388
1242 1348 0.273657
1242 1424 0.138388
1242 1425 0.138388
1242 1426 0.138388
1243 810 0.166667
1243 880 0.166667
1243 962 0.166667
1243 1268 0.166667
1243 7523 0.166667
1243 7524 0.166667
1244 92 0.500055
1244 880 0.499945
1245 1436 1
1246 77 0.299976
1246 183 0.500018
1246 604 0.100003
1246 1167 0.100004
1247 96 0.174489
1247 798 0.0904242
1247 1372 0.735087
1248 171 0.142853
1248 291 0.142853
1248 822 0.142853
1248 1348 0.142853
1248 1429 0.142853
1248 1430 2.64466e-05
1248 1431 0.142853
1248 1432 0.142853
1249 105 0.142857
1249 385 0.142857
1249 773 0.142857
1249 783 0.142857
1249 849 0.142857
1249 1437 0.142857
1249 1438 0.142857
1250 41 0.86234
1250 2560 0.13766
1251 125 1
1252 29 0.111111
1252 218 0.111111
1252 237 0.111111
1252 245 0.33333
1252 1019 0.111113
1252 1473 0.111111
1252 1534 0.111111
1253 1440 0.888893
1253 1441 0.111107
1254 700 0.195113
1254 701 0.402447
1254 4661 0.40244
1255 696 0.000769602
1255 700 0.0050293
1255 1417 0.828503
1255 8463 0.165698
1256 1256 1
1257 98 0.2
1257 1442 0.2
1257 1762 0.2
1257 1763 0.2
1257 1764 0.2
1258 1758 0.25
1258 2265 0.25
1258 2266 0.25
1258 2267 0.25
1259 789 1
1260 265 0.2
1260 575 0.2
1260 1003 0.2
1260 1415 0.2
1260 1439 0.2
1261 41 0.250002
1261 1444 0.249999
1261 1445 0.249999
1261 1450 0.249999
1262 56 0.249777
1262 258 0.000890956
1262 991 0.249777
1262 1451 0.499555
1263 325 0.5
1263 1452 0.25
1263 1453 0.25
1264 822 0.25
1264 1454 0.25
1264 1455 0.25
1264 1456 0.25
1265 200 0.142857
1265 379 0.142857
1265 692 0.142857
1265 1446 0.142857
1265 1447 0.142857
1265 1448 0.142857
1265 1449 0.142857
1266 343 0.250001
1266 1019 0.249996
1266 1457 0.250001
1266 1459 0.250001
1267 94 0.200012
1267 96 0.200042
1267 127 0.200012
1267 1347 0.199949
1267 1348 0.199986
1268 22 0.125
1268 218 0.124999
1268 887 0.124999
1268 967 0.125
1268 4048 0.125
1268 4084 0.125
1268 4085 0.125
1268 4086 0.125
1269 308 0.333377
1269 730 0.333377
1269 1295 0.333246
1270 22 0.199994
1270 927 0.400003
1270 1460 0.200001
1270 1461 0.200001
1271 8 0.502751
1271 885 0.497249
1272 118 1
1273 118 0.199965
1273 447 0.199988
1273 1286 0.200016
1273 1355 0.200016
1273 1466 0.200016
1274 66 0.00202781
1274 1467 0.249493
1274 5081 0.498986
1274 6805 0.249493
1275 390 0.500085
1275 2680 0.499915
1276 431 0.33319
1276 5127 0.333405
1276 5135 0.333405
1277 401 0.142859
1277 788 0.142859
1277 1347 0.142859
1277 1348 0.142859
1277 1443 0.142858
1277 1468 0.142859
1277 1469 0.142847
1278 604 0.250111
1278 1469 0.249974
1278 4063 0.249953
1278 4064 0.249961
1279 68 0.937946
1279 237 0.000207316
1279 1470 0.0618468
1280 1470 0.482953
1280 1471 0.517047
1281 29 0.00108767
1281 148 0.332971
1281 1472 0.332971
1281 1473 0.332971
1282 218 0.125002
1282 272 0.124973
1282 1415 0.125004
1282 1443 0.250009
1282 8411 0.125004
1282 8995 0.125004
1282 9048 0.125004
1283 29 0.232525
1283 90 0.255825
1283 1474 0.51165
1284 40 3.755e-06
1284 2713 0.999996
1285 118 0.4
1285 1077 0.2
1285 1079 0.2
1285 1475 0.2
1286 272 0.25
1286 571 0.25
1286 853 0.5
1287 211 0.166667
1287 1077 0.166666
1287 1476 0.166667
1287 1477 0.166667
1287 1478 0.166667
1287 1479 0.166667
1288 8 0.329597
1288 40 0.000754902
1288 1481 0.334826
1288 4259 0.334822
1289 1443 0.25
1289 1481 0.25
1289 1482 0.25
1289 1630 0.25
1290 1010 1
1291 108 0.666667
1291 272 0.333333
1292 914 0.5
1292 1483 0.5
1293 83 0.111111
1293 822 0.111111
1293 1484 0.111111
1293 1485 0.111111
1293 1486 0.111111
1293 1487 0.111111
1293 1490 0.111111
1293 1491 0.111111
1293 1492 0.111111
1294 1488 0.500012
1294 1493 0.499988
1295 825 0.499071
1295 1489 0.500919
1295 1493 1.05504e-05
1296 5 0.147119
1296 295 0.117287
1296 4577 0.147119
1296 4578 0.147119
1296 4579 0.294237
1296 4580 0.147119
1297 1494 1
1298 96 0.74962
1298 1091 1.44087e-05
1298 1500 0.250366
1299 1347 0.5
1299 1348 0.5
1300 102 0.5
1300 9156 0.5
1301 1018 0.399999
1301 1282 0.2
1301 1501 0.2
1301 1761 0.200002
1302 27 0.333324
1302 267 0.666676
1303 977 0.5
1303 1502 0.5
1304 676 0.25
1304 1282 0.25
1304 1503 0.25
1304 1504 0.25
1305 61 0.333333
1305 9458 0.333334
1305 9459 0.333333
1306 1636 0.234666
1306 1813 0.510222
1306 5937 0.255111
1307 604 0.333333
1307 1251 0.333333
1307 1505 0.333333
1308 1506 0.83323
1308 1507 0.16677
1309 27 4.97317e-05
1309 72 0.00229434
1309 2850 0.498828
1309 2851 0.498828
1310 27 0.111111
1310 164 0.111111
1310 1508 0.111111
1310 1509 0.111111
1310 1510 0.111111
1310 1511 0.111111
1310 1512 0.111111
1310 1513 0.111111
1310 1514 0.111111
1311 574 0.304683
1311 887 0.173829
1311 1515 0.173829
1311 1516 0.347659
1312 108 0.2
1312 188 0.199999
1312 1901 0.2
1312 5423 0.2
1312 5424 0.2
1313 87 0.25
1313 111 0.25
1313 1519 0.5
1314 61 0.142857
1314 1108 0.142857
1314 1517 0.142857
1314 1518 0.142857
1314 1520 0.142857
1314 1521 0.142857
1314 1522 0.142857
1315 5 0.000228838
1315 335 0.499885
1315 1523 0.499886
1316 385 0.0624885
1316 1485 0.81253
1316 7165 0.0624912
1316 7166 0.0624907
1317 325 0.200038
1317 822 0.19985
1317 1524 0.200038
1317 1525 0.200038
1317 1526 0.200038
1318 825 0.5
1318 1527 0.5
1319 1528 1
1320 2151 0.0400641
1320 4266 0.959936
1321 6 0.166667
1321 50 0.166667
1321 132 0.166666
1321 913 0.166667
1321 1529 0.166667
1321 1530 0.166667
1322 1272 0.142933
1322 1295 0.142933
1322 1489 0.142404
1322 1724 0.142933
1322 1776 0.142933
1322 1777 0.142933
1322 1778 0.142933
1323 85 0.333333
1323 4349 0.333333
1323 6597 0.333333
1324 1531 1
1325 453 0.250098
1325 927 0.625246
1325 1352 0.124655
1326 1404 0.200078
1326 1533 0.0999603
1326 2575 0.0999924
1326 5585 0.39997
1326 5586 0.099992
1326 7095 1.5894e-05
1326 9781 0.0999923
1327 991 0.5
1327 1532 0.5
1328 1535 0.25
1328 1536 0.25
1328 1537 0.5
1329 354 0.25
1329 450 0.25
1329 540 0.25
1329 5976 0.25
1330 38 0.230782
1330 218 0.307657
1330 4302 0.23078
1330 7117 0.23078
1331 777 1
1332 295 0.333333
1332 1538 0.333333
1332 1539 0.333333
1333 102 0.196591
1333 355 0.200852
1333 1378 0.200852
1333 1540 0.200852
1333 1541 0.200852
1334 586 0.250695
1334 1224 0.250695
1334 1542 0.250695
1334 1543 0.247915
1335 92 0.249773
1335 1032 0.250076
1335 9685 0.250076
1335 9695 0.250076
1336 185 0.333333
1336 1544 0.333334
1336 1545 0.333334
1337 72 0.00235459
1337 4000 0.498823
1337 5564 0.498823
1338 1546 1
1339 1546 0.499146
1339 1547 0.500854
1340 1363 0.499709
1340 1548 0.500291
1341 1552 1
1342 469 0.166667
1342 1295 0.166665
1342 1549 0.166667
1342 1550 0.166667
1342 1551 0.166667
1342 1553 0.166667
1343 385 0.250858
1343 1550 0.374571
1343 2767 0.374571
1344 1347 0.499997
1344 1554 0.500003
1345 1121 0.498778
1345 1348 0.501222
1346 41 0.429025
1346 1555 0.570975
1347 838 0.333334
1347 9398 0.333334
1347 9507 0.333333
1348 1558 0.333344
1348 7082 0.333328
1348 7083 0.333328
1349 4920 0.5
1349 4921 0.5
1350 879 1
1351 696 0.00039977
1351 842 0.3332
1351 2881 0.3332
1351 7521 0.3332
1352 1903 0.171248
1352 2602 0.657499
1352 8923 0.171248
1352 8924 5.43095e-06
1353 295 0.142858
1353 810 0.142858
1353 880 0.142858
1353 1556 0.142858
1353 1557 0.142858
1353 1558 0.142851
1353 1559 0.142858
1354 941 0.333333
1354 1779 0.666667
1355 388 0.769983
1355 6551 0.230017
1356 1560 0.999404
1356 2545 0.000595904
1357 66 0.2505
1357 1139 0.247592
1357 1560 0.000907315
1357 1561 0.2505
1357 1562 0.2505
1358 1563 0.5
1358 1564 0.5
1359 218 0.333333
1359 1565 0.333333
1359 1566 0.333333
1360 1569 0.844535
1360 2721 0.155465
1361 1570 0.666667
1361 1571 0.333333
1362 150 0.227729
1362 692 0.151906
1362 776 0.0130851
1362 1371 0.227736
1362 1411 0.379544
1363 5 0.111117
1363 50 0.11112
1363 150 0.111077
1363 574 0.111102
1363 842 0.11112
1363 1108 0.11112
1363 1371 0.111106
1363 1567 0.11112
1363 1568 0.11112
1364 307 0.500001
1364 1365 0.499999
1365 22 0.166667
1365 375 0.333333
1365 1091 0.166667
1365 1573 0.166667
1365 1574 0.166667
1366 41 0.165591
1366 111 0.166862
1366 127 0.166862
1366 151 0.166862
1366 1572 0.166963
1366 8862 0.166861
1367 98 0.25
1367 450 0.25
1367 4538 0.25
1367 4539 0.25
1368 596 0.166667
1368 605 0.166667
1368 1575 0.166667
1368 1576 0.166667
1368 1577 0.166667
1368 1578 0.166666
1369 431 0.333324
1369 772 0.333324
1369 3527 0.333352
1370 41 0.5
1370 245 0.25
1370 1307 0.25
1371 5 0.2
1371 185 0.2
1371 241 0.2
1371 1585 0.2
1371 1586 0.2
1372 56 0.111111
1372 185 0.111111
1372 226 0.111111
1372 245 0.111111
1372 467 0.111111
1372 1581 0.111111
1372 1582 0.111111
1372 1583 0.111111
1372 1584 0.111111
1373 2575 1
1374 96 0.249688
1374 1589 0.500209
1374 1601 0.250104
1375 963 1
1376 5 0.166666
1376 1605 0.166667
1376 1616 0.166667
1376 1617 0.166667
1376 1618 0.166667
1376 1619 0.166667
1377 1620 0.999993
1377 2794 6.83705e-06
1378 3 0.333337
1378 963 0.333326
1378 1588 0.333337
1379 94 0.111417
1379 453 0.111416
1379 1060 0.111418
1379 1590 0.331395
1379 1602 9.87088e-05
1379 1603 0.334255
1380 1590 0.0126698
1380 1591 0.493665
1380 1592 0.493665
1381 1593 0.641369
1381 1685 0.358631
1382 1594 0.2
1382 1597 0.2
1382 1598 0.2
1382 1599 0.2
1382 1600 0.2
1383 1818 1
1384 1601 0.833334
1384 6454 0.166666
1385 1602 1
1386 1613 1.42142e-05
1386 5293 0.499941
1386 5294 0.500045
1387 27 0.428077
1387 93 0.189675
1387 458 0.189675
1387 1659 0.192574
1388 1611 0.5
1388 1612 0.5
1389 1601 1
1390 185 0.33318
1390 1606 0.66682
1391 1459 0.500001
1391 2559 0.499999
1392 737 0.495657
1392 1607 0.252171
1392 1608 0.252171
1393 696 4.0291e-06
1393 704 0.333332
1393 1609 0.333332
1393 1610 0.333332
1394 96 0.249652
1394 1613 0.250116
1394 1614 0.250116
1394 1615 0.250116
1395 1229 1
1396 121 0.166667
1396 1629 0.833333
1397 35 0.135267
1397 103 0.25085
1397 272 0.363033
1397 1651 0.25085
1398 1623 0.999664
1398 1624 0.000336139
1399 1624 0.499916
1399 1625 0.500084
1400 66 0.22553
1400 98 0.225531
1400 528 0.0978781
1400 1621 0.225531
1400 1622 0.225531
1401 126 0.682981
1401 1657 0.317019
1402 155 0.166666
1402 777 0.166667
1402 879 0.166667
1402 1626 0.166667
1402 1627 0.333334
1403 283 0.197867
1403 1630 0.208496
1403 9497 0.39577
1403 9951 0.197867
1404 94 0.333336
1404 1628 0.666664
1405 781 9.55865e-06
1405 1595 0.190865
1405 1648 0.404619
1405 1649 0.404507
1406 417 0.25
1406 961 0.25
1406 1630 0.25
1406 1631 0.25
1407 40 0.240648
1407 294 0.253118
1407 1632 0.253118
1407 1633 0.253117
1408 4485 0.166666
1408 5076 0.166667
1408 5081 0.666667
1409 1601 0.333333
1409 1634 0.333333
1409 1635 0.333333
1410 72 2.32726e-06
1410 198 0.197704
1410 450 0.196639
1410 1636 0.0157583
1410 7153 0.393264
1410 7681 0.196632
1411 1638 1
1412 40 0.00169363
1412 1637 0.332765
1412 1638 1.28868e-05
1412 1639 0.332765
1412 1640 0.332764
1413 40 0.0011351
1413 113 0.491265
1413 1844 0.491265
1413 4012 0.0163341
1414 458 0.5
1414 1641 0.5
1415 96 0.000201075
1415 1645 0.800502
1415 1651 0.199297
1416 3 0.211366
1416 218 0.131439
1416 1643 0.131439
1416 1644 0.131439
1416 1645 0.131438
1416 1646 0.131439
1416 1647 0.131439
1417 7223 1
1418 363 0.0909973
1418 2242 0.272065
1418 3452 0.545947
1418 7949 0.090991
1419 737 0.604905
1419 781 0.395095
1420 906 0.333355
1420 1172 0.333369
1420 1648 0.333276
1421 27 0.0535718
1421 737 0.144432
1421 1512 0.100249
1421 1650 0.501248
1421 3321 0.200499
1422 5 0.249999
1422 272 0.25
1422 1652 0.25
1422 1653 0.25
1423 398 0.25
1423 1654 0.25
1423 3861 0.25
1423 5045 0.25
1424 118 0.0003069
1424 696 0.999693
1425 363 0.85693
1425 604 0.107116
1425 4541 0.0136449
1425 7454 0.0223096
1426 62 0.5
1426 64 0.5
1427 22 0.128462
1427 245 0.124489
1427 1655 0.622565
1427 4124 0.124484
1428 27 0.166667
1428 218 0.166667
1428 245 0.166665
1428 1656 0.166667
1428 1657 0.166667
1428 1658 0.166667
1429 92 0.111107
1429 237 0.11111
1429 292 0.111112
1429 323 0.111112
1429 779 0.111112
1429 1372 0.111112
1429 3980 0.111112
1429 4099 0.111112
1429 4138 0.111112
1430 64 0.933132
1430 1657 0.0668685
1431 35 0.333332
1431 1664 0.333334
1431 1666 0.333334
1432 1561 0.334842
1432 1577 0.334842
1432 1658 0.000593207
1432 1659 0.329722
1433 788 0.250112
1433 1658 0.499777
1433 1660 0.250111
1434 6 0.375479
1434 40 0.00186657
1434 1269 0.375404
1434 1661 0.24725
1435 575 0.249641
1435 1662 0.251077
1435 2767 0.249641
1435 2768 0.249641
1436 1616 0.318733
1436 1661 0.325846
1436 1662 0.355421
1437 3291 0.248203
1437 3292 0.25281
1437 3293 0.25281
1437 3294 0.246177
1438 27 0.000699228
1438 1663 0.999301
1439 87 0.200003
1439 96 0.19999
1439 680 0.200003
1439 1664 0.200003
1439 1665 0.200003
1440 737 0.246049
1440 4621 0.251317
1440 8673 0.251317
1440 8674 0.251317
1441 1661 0.266362
1441 1662 0.733638
1442 57 0.091035
1442 1269 0.546232
1442 1628 0.091035
1442 1743 0.091035
1442 2651 0.091035
1442 3468 0.0896277
1443 1667 1
1444 308 0.000914569
1444 398 0.499543
1444 1668 0.499543
1445 27 0.000491124
1445 155 0.199902
1445 272 0.199901
1445 1669 0.199902
1445 1670 0.199902
1445 1671 0.199902
1446 1673 0.5
1446 8658 0.5
1447 1674 0.333336
1447 1675 0.333335
1447 1676 0.333329
1448 1943 0.75
1448 6597 0.25
1449 1676 1.58314e-05
1449 3848 0.999984
1450 415 0.25
1450 933 0.25
1450 1269 0.25
1450 1672 0.25
1451 66 0.000122129
1451 917 0.333293
1451 1677 0.333293
1451 1678 0.333293
1452 1616 0.745522
1452 1679 0.254478
1453 453 0.124972
1453 1680 0.499923
1453 4464 0.250125
1453 9688 0.12498
1454 737 0.00439466
1454 3966 0.995555
1454 7360 4.99415e-05
1455 113 0.273329
1455 1679 0.18003
1455 1680 0.273311
1455 1681 0.273329
1456 189 0.25
1456 615 0.25
1456 1682 0.25
1456 1683 0.25
1457 72 0.322389
1457 1685 9.45852e-06
1457 1686 0.338801
1457 1687 0.338801
1458 1684 1
1459 1688 1
1460 218 0.103598
1460 1132 0.201105
1460 1210 0.594082
1460 5799 0.101216
1461 730 0.200002
1461 1060 0.200002
1461 1077 0.199992
1461 1594 0.200002
1461 1600 0.200002
1462 1079 1
1463 5 0.166901
1463 802 0.166901
1463 975 0.166901
1463 5989 0.166901
1463 7184 0.165494
1463 7185 0.166901
1464 68 0.25
1464 1689 0.25
1464 1690 0.25
1464 1691 0.25
1465 1692 0.333333
1465 1693 0.333333
1465 1694 0.333333
1466 218 0.2
1466 335 0.2
1466 1608 0.2
1466 1695 0.2
1466 1696 0.2
1467 62 0.333333
1467 759 0.333333
1467 1635 0.333333
1468 72 0.204141
1468 1697 0.39793
1468 1698 0.39793
1469 93 0.599857
1469 5816 0.400143
1470 621 0.2
1470 1213 0.8
1471 490 1
1472 737 0.00354656
1472 1699 0.541679
1472 1712 0.451022
1472 2502 0.00375223
1473 737 0.254603
1473 1699 0.37176
1473 1700 0.373637
1474 1350 1
1475 1085 0.25
1475 1091 0.25
1475 1701 0.25
1475 1702 0.25
1476 1411 1
1477 408 0.666667
1477 600 0.166666
1477 1703 0.166667
1478 22 0.333333
1478 1371 0.666667
1479 1496 0.2
1479 1705 0.2
1479 1706 0.2
1479 1707 0.2
1479 1708 0.2
1480 1018 0.328703
1480 1422 0.164351
1480 1702 0.164351
1480 1709 0.164351
1480 1710 0.0138919
1480 1711 0.164351
1481 1351 0.5
1481 1372 0.5
1482 325 0.242869
1482 822 0.163182
1482 1713 0.323567
1482 1714 0.161783
1482 1715 0.0812244
1482 2502 0.0273742
1483 822 0.166987
1483 825 0.333479
1483 1357 0.16674
1483 1358 0.16674
1483 1715 0.166054
1484 696 2.63138e-05
1484 737 5.16216e-06
1484 1716 0.999969
1485 325 0.408669
1485 822 0.194877
1485 1717 0.396455
1486 762 0.125
1486 772 0.125
1486 825 0.124999
1486 1478 0.125
1486 1718 0.125
1486 1719 0.125
1486 1720 0.125
1486 1721 0.125
1487 1812 1
1488 132 0.624955
1488 479 0.125009
1488 500 1.87187e-05
1488 1277 0.250017
1489 1722 0.24947
1489 4939 0.249638
1489 4940 0.24947
1489 4958 0.24947
1489 5295 0.00195163
1490 711 0.601273
1490 2250 0.398727
1491 155 0.111111
1491 758 0.111111
1491 1724 0.111111
1491 1725 0.111111
1491 1726 0.111111
1491 1727 0.111111
1491 1728 0.111111
1491 1729 0.111111
1491 1730 0.111111
1492 17 0.25
1492 894 0.25
1492 8897 0.5
1493 1733 0.249998
1493 1734 0.500004
1493 1855 0.249998
1494 325 0.499914
1494 1392 0.250043
1494 1393 0.250043
1495 822 0.285589
1495 825 0.143234
1495 1735 0.142794
1495 1736 0.142794
1495 1737 0.142794
1495 1738 0.142794
1496 148 1
1497 89 0.375
1497 127 0.125
1497 6476 0.5
1498 571 0.333333
1498 6008 0.333333
1498 6009 0.333333
1499 40 0.00802612
1499 99 0.188861
1499 1371 0.200945
1499 1411 0.200722
1499 1739 0.200722
1499 1756 0.200722
1500 40 0.00661633
1500 997 0.33109
1500 1255 0.331147
1500 1740 0.331147
1501 96 0.499238
1501 1741 0.500762
1502 113 0.333333
1502 1505 0.333333
1502 1708 0.333333
1503 1742 0.142867
1503 1746 0.428566
1503 3082 0.428566
1504 72 4.57869e-06
1504 596 0.166666
1504 781 0.166666
1504 1743 0.166666
1504 1924 0.166666
1504 4856 0.166666
1504 6904 0.166666
1505 1744 1
1506 6864 1
1507 737 0.00025959
1507 1749 0.169265
1507 1750 0.169265
1507 1751 0.169264
1507 2604 0.491946
1508 2560 1
1509 1969 1
1510 35 0.142857
1510 92 0.142857
1510 755 0.142857
1510 1032 0.142857
1510 1755 0.142857
1510 1757 0.142857
1510 1758 0.142857
1511 5321 0.5
1511 5322 0.5
1512 89 0.2
1512 580 0.2
1512 1236 0.2
1512 1272 0.2
1512 2912 0.2
1513 308 0.2
1513 1409 0.4
1513 1760 0.4
1514 41 0.503784
1514 96 0.116709
1514 604 0.126511
1514 737 8.29819e-05
1514 6375 0.126459
1514 8441 0.126454
1515 87 0.300316
1515 200 0.100105
1515 201 0.100105
1515 272 0.0990528
1515 388 0.20021
1515 975 0.100105
1515 2705 0.100105
1516 1229 1
1517 696 0.49625
1517 1761 0.50375
1518 155 0.166667
1518 876 0.166667
1518 962 0.166667
1518 1276 0.166667
1518 1543 0.166667
1518 1759 0.166667
1519 308 0.0891232
1519 419 0.302718
1519 848 0.100906
1519 850 0.00264429
1519 927 0.100908
1519 1417 0.100906
1519 2320 6.52577e-05
1519 3468 0.100915
1519 4829 0.100906
1519 6225 0.100908
1520 61 0.325985
1520 431 0.674012
1520 714 3.03235e-06
1521 495 0.2
1521 1360 0.2
1521 1498 0.2
1521 4829 0.2
1521 5900 0.2
1522 272 0.166951
1522 605 0.16661
1522 1766 0.16661
1522 1767 0.16661
1522 1768 0.16661
1522 1769 0.16661
1523 155 0.187379
1523 2575 0.629377
1523 3369 0.183244
1524 113 0.111659
1524 131 0.111659
1524 392 0.111659
1524 1375 0.108143
1524 1732 0.110249
1524 1734 0.111655
1524 1770 0.111659
1524 1771 0.111659
1524 1772 0.111659
1525 1774 0.5
1525 1775 0.5
1526 260 0.111111
1526 795 0.111111
1526 1079 0.111111
1526 1780 0.333333
1526 1781 0.111111
1526 1790 0.111111
1526 1791 0.111111
1527 1782 1
1528 679 0.178602
1528 696 0.357165
1528 1448 0.178602
1528 5236 0.285631
1529 66 0.2
1529 1287 0.2
1529 1783 0.6
1530 63 0.333333
1530 1448 0.333333
1530 1478 0.333333
1531 151 0.00043641
1531 1784 0.999564
1532 490 0.333347
1532 1785 0.333347
1532 1971 0.333306
1533 96 0.00760467
1533 544 0.00020641
1533 1792 0.32103
1533 6036 0.447439
1533 9262 0.22372
1534 737 0.139933
1534 1448 0.429939
1534 1951 0.376188
1534 1956 0.0537409
1534 4730 0.00019875
1535 105 8.91924e-06
1535 1237 0.249998
1535 3806 0.249998
1535 5245 0.249997
1535 8742 0.249998
1536 526 1
1537 737 0.571305
1537 1786 0.142898
1537 1787 0.142898
1537 1788 0.142898
1538 113 0.230117
1538 1224 0.115058
1538 1780 0.115072
1538 1789 0.115058
1538 5829 0.424694
1539 5014 1
1540 113 0.249998
1540 267 0.250001
1540 1485 0.500001
1541 112 0.250271
1541 1800 0.499459
1541 3222 0.250271
1542 82 0.331007
1542 272 0.331007
1542 8900 0.00697991
1542 8904 0.331006
1543 358 0.00231049
1543 4435 0.992573
1543 7645 0.00511673
1544 574 0.0399958
1544 798 0.960004
1545 68 0.666667
1545 5002 0.333333
1546 199 0.00551363
1546 1796 0.248622
1546 1797 0.248622
1546 1798 0.248622
1546 1799 0.248622
1547 1324 0.5
1547 1795 0.5
1548 1794 1
1549 704 0.0767836
1549 1785 0.0789404
1549 6222 0.613978
1549 6223 0.0767829
1549 6239 0.0767576
1549 6240 0.0767579
1550 96 0.166622
1550 261 0.166165
1550 1307 0.166623
1550 1781 0.166623
1550 1800 0.000720657
1550 1801 0.166623
1550 1802 0.166623
1551 131 0.333302
1551 373 0.666604
1551 2909 9.33985e-05
1552 574 0.166731
1552 906 0.166731
1552 1485 0.166343
1552 1717 0.166731
1552 1803 0.166731
1552 1804 0.166731
1553 196 1
1554 56 0.111372
1554 198 0.111372
1554 575 0.111372
1554 1351 0.220427
1554 1372 0.111368
1554 1478 0.111347
1554 1778 0.111372
1554 1805 0.111372
1555 96 0.599438
1555 1162 0.200281
1555 4012 0.200281
1556 450 0.27322
1556 1473 0.193975
1556 1806 0.532805
1557 200 0.400487
1557 737 0.198954
1557 1807 0.20028
1557 1808 0.200279
1558 1809 0.5
1558 1811 0.5
1559 1360 0.2
1559 1810 0.6
1559 1856 0.2
1560 425 0.333333
1560 3029 0.666667
1561 40 0.171199
1561 879 0.175348
1561 883 0.175348
1561 895 4.29533e-05
1561 1351 0.127365
1561 1813 0.175348
1561 1814 0.175348
1562 40 0.265125
1562 4573 0.566689
1562 8752 0.168186
1563 218 0.165595
1563 387 0.165595
1563 1815 0.496784
1563 1938 0.165594
1563 4546 0.0064326
1564 1797 1
1565 1821 1
1566 417 0.128811
1566 544 0.114017
1566 1822 0.126195
1566 4445 0.504781
1566 5893 0.126195
1567 61 0.5
1567 392 0.166667
1567 431 0.166667
1567 1823 0.166667
1568 111 0.166666
1568 1006 0.166666
1568 1741 0.166668
1568 1816 0.166666
1568 1824 0.166666
1568 1825 0.166666
1569 1440 0.333424
1569 1817 0.333424
1569 6334 0.333152
1570 286 0.499938
1570 1818 0.500062
1571 287 0.332186
1571 1819 0.335507
1571 1833 0.332307
1572 150 0.25
1572 1371 0.25
1572 1742 0.25
1572 1820 0.25
1573 40 2.34415e-06
1573 1543 0.57766
1573 1643 0.211169
1573 8745 0.211169
1574 385 0.49994
1574 1827 0.50006
1575 111 0.25
1575 1011 0.25
1575 1828 0.25
1575 1829 0.25
1576 1797 1
1577 5091 1
1578 92 0.25029
1578 1834 0.499807
1578 4253 0.249903
1579 571 0.25017
1579 850 0.25017
1579 1830 0.249491
1579 1831 0.25017
1580 50 0.170378
1580 61 0.340766
1580 105 0.318473
1580 2127 0.170383
1581 1830 1
1582 105 0.114807
1582 218 0.229614
1582 1832 0.311201
1582 1833 0.114765
1582 1973 0.114806
1582 1983 0.114807
1583 1619 0.249953
1583 1823 0.250011
1583 1835 0.250079
1583 1836 0.249957
1584 186 0.146439
1584 737 0.414245
1584 1011 0.146439
1584 1837 0.292878
1585 113 0.166688
1585 997 0.166685
1585 1823 0.166651
1585 1835 0.166605
1585 1838 0.166685
1585 1839 0.166685
1586 1840 0.399946
1586 6691 0.400036
1586 9410 0.200018
1587 113 0.142855
1587 118 0.142857
1587 1841 0.142858
1587 1842 0.285715
1587 3846 0.142858
1587 9779 0.142858
1588 503 0.400014
1588 7261 0.599986
1589 50 0.333331
1589 102 0.166666
1589 150 0.166668
1589 798 0.166668
1589 1846 0.166668
1590 272 0.652901
1590 336 0.173986
1590 2836 0.173113
1591 1843 0.766347
1591 3605 0.0851476
1591 4934 0.148505
1592 809 0.557477
1592 1032 0.0929129
1592 1286 0.0708715
1592 1480 0.185826
1592 9937 0.0929129
1593 288 0.166684
1593 1710 0.166683
1593 1723 0.166581
1593 1847 0.166684
1593 1848 0.166684
1593 1849 0.166684
1594 1830 0.333333
1594 1850 0.333333
1594 1851 0.333333
1595 105 0.4683
1595 1790 0.234158
1595 3334 3.13926e-06
1595 9571 0.234157
1595 9580 0.0633813
1596 188 1
1597 597 0.144448
1597 761 0.144448
1597 950 0.133313
1597 1852 0.577792
1598 1983 1
1599 102 0.25
1599 110 0.25
1599 1272 0.25
1599 1853 0.25
1600 1551 0.333333
1600 1836 0.333333
1600 1856 0.333333
1601 132 0.250129
1601 354 0.249957
1601 1478 0.249957
1601 1854 0.249956
1602 218 0.142857
1602 279 0.142857
1602 1274 0.142857
1602 1368 0.142857
1602 1721 0.142857
1602 1857 0.142857
1602 1858 0.142857
1603 737 0.284905
1603 1843 0.143019
1603 1861 0.143019
1603 1862 0.143019
1603 1863 0.143019
1603 1864 0.143019
1604 201 0.25
1604 1859 0.5
1604 1860 0.25
1605 198 0.652533
1605 1133 0.326277
1605 1484 0.0211908
1606 102 0.106392
1606 180 0.111705
1606 355 0.111705
1606 453 0.111705
1606 681 0.111705
1606 683 0.111671
1606 1843 0.335116
1607 809 0.666953
1607 4397 0.332649
1607 4528 5.1541e-06
1607 5496 0.000392901
1608 243 1
1609 1418 0.857143
1609 2001 0.142857
1610 244 0.511613
1610 295 0.488387
1611 262 0.333334
1611 1867 0.333334
1611 1868 0.333332
1612 202 1
1613 120 0.153846
1613 203 0.153846
1613 294 0.153846
1613 344 0.307692
1613 777 0.153846
1613 4961 0.0769231
1614 66 0.142854
1614 96 1.88422e-06
1614 292 0.0714274
1614 799 0.428564
1614 969 0.0714268
1614 3291 0.142872
1614 3718 0.0714274
1614 3719 0.0714274
1615 307 0.199999
1615 440 0.2
1615 632 0.2
1615 1460 0.2
1615 1774 0.2
1616 295 0.521245
1616 1871 0.478755
1617 196 0.361781
1617 5786 0.638219
1618 56 0.13696
1618 105 0.000188997
1618 1930 0.276737
1618 2037 0.138368
1618 4512 0.138368
1618 5786 0.0326407
1618 8877 0.276737
1619 286 0.25
1619 287 0.25
1619 288 0.25
1619 1872 0.25
1620 652 1
1621 61 0.159563
1621 262 0.671931
1621 9833 0.168506
1622 301 0.5
1622 1682 0.5
1623 759 0.249934
1623 825 0.250022
1623 1674 0.250022
1623 1874 0.250022
1624 27 0.2
1624 1875 0.2
1624 1876 0.2
1624 1877 0.2
1624 1878 0.2
1625 1879 0.856994
1625 1880 0.143006
1626 1897 1
1627 118 4.39056e-05
1627 371 0.250059
1627 483 0.249779
1627 1871 0.250059
1627 1881 0.250059
1628 596 0.250581
1628 2166 0.749419
1629 680 0.0864064
1629 1710 0.00642652
1629 1994 0.151195
1629 3596 0.755973
1630 354 0.500005
1630 5446 0.499995
1631 85 0.222222
1631 692 0.111111
1631 802 0.111111
1631 1630 0.111111
1631 1882 0.111111
1631 1883 0.111111
1631 1884 0.111111
1631 1885 0.111111
1632 3827 0.199998
1632 3844 0.400001
1632 3846 0.2
1632 3847 0.200001
1633 66 0.5
1633 1888 0.5
1634 759 1
1635 1893 1
1636 354 0.5
1636 1894 0.5
1637 1032 0.333333
1637 1895 0.333333
1637 1896 0.333333
1638 500 0.2
1638 1889 0.2
1638 1890 0.2
1638 1891 0.2
1638 1892 0.2
1639 40 0.773165
1639 72 1.51065e-05
1639 810 0.22682
1640 354 0.190688
1640 810 0.572034
1640 7182 0.237278
1641 40 0.000555378
1641 88 0.249862
1641 559 0.249862
1641 1900 0.24986
1641 7531 0.249862
1642 85 0.273833
1642 1377 0.547672
1642 1869 0.178495
1643 782 0.50104
1643 1869 0.0182079
1643 9249 0.480752
1644 124 0.142857
1644 145 0.142857
1644 148 0.142857
1644 216 0.142857
1644 431 0.142857
1644 605 0.142857
1644 1576 0.142857
1645 3404 0.333333
1645 3865 0.333333
1645 3866 0.333333
1646 387 0.333333
1646 692 0.333333
1646 1901 0.333333
1647 72 0.137679
1647 95 0.14372
1647 245 0.14372
1647 485 0.14372
1647 975 0.14372
1647 1902 0.14372
1647 1903 0.14372
1648 151 0.333333
1648 879 0.333333
1648 1904 0.333333
1649 5 0.181846
1649 272 0.181847
1649 795 0.0909232
1649 4464 0.181714
1649 9687 0.18183
1649 9688 0.18184
1650 490 2.92961e-05
1650 1907 0.999971
1651 1908 0.5
1651 1909 0.5
1652 38 0.142857
1652 74 0.142857
1652 961 0.142857
1652 1091 0.142857
1652 1300 0.285714
1652 8234 0.142857
1653 211 0.12343
1653 319 0.370288
1653 922 0.506282
1654 345 0.833333
1654 515 0.166667
1655 231 0.345047
1655 922 0.309931
1655 1911 0.345022
1656 1912 1
1657 41 0.396441
1657 4696 0.198348
1657 9774 0.206861
1657 9780 0.19835
1658 27 0.222245
1658 502 0.111043
1658 1256 0.333367
1658 3701 0.111122
1658 3702 0.111122
1658 5187 0.111101
1659 287 0.396904
1659 1633 0.000706589
1659 1761 0.00157396
1659 1913 0.600816
1660 1633 0.500364
1660 1761 0.499636
1661 286 0.272462
1661 287 0.182503
1661 1914 0.136259
1661 1915 0.136259
1661 1916 0.136259
1661 1917 0.136259
1662 696 0.249998
1662 758 0.250001
1662 1918 0.250001
1662 1919 0.250001
1663 586 0.400176
1663 7465 0.599824
1664 50 0.196997
1664 175 0.212014
1664 1920 0.196997
1664 1921 0.196997
1664 1922 0.196997
1665 379 0.333318
1665 1925 0.333333
1665 8877 0.333349
1666 218 0.250001
1666 279 0.250001
1666 1923 0.250001
1666 4006 0.249998
1667 1873 0.5
1667 1926 0.5
1668 177 0.162037
1668 1927 0.279321
1668 1928 0.558642
1669 177 0.122778
1669 1929 0.292408
1669 1930 0.292408
1669 1931 0.292407
1670 1933 1
1671 201 0.25
1671 997 0.250001
1671 1032 0.25
1671 9370 0.25
1672 509 0.167797
1672 604 0.16701
1672 708 0.164075
1672 949 0.16701
1672 1083 0.16701
1672 9569 0.16701
1672 9570 8.72112e-05
1673 218 0.128905
1673 1249 0.22656
1673 1723 0.386721
1673 8008 0.128907
1673 8009 0.128907
1674 509 0.90726
1674 1797 0.092734
1674 9368 5.779e-06
1675 408 0.200214
1675 494 0.399894
1675 600 0.199946
1675 5411 0.199947
1676 29 0.2
1676 879 0.2
1676 1355 0.2
1676 1889 0.2
1676 6216 0.2
1677 231 0.500002
1677 1889 0.499998
1678 112 0.166667
1678 113 0.166667
1678 207 0.166667
1678 1937 0.166667
1678 1938 0.166667
1678 1939 0.166667
1679 66 0.2
1679 396 0.2
1679 1934 0.2
1679 1935 0.2
1679 1936 0.2
1680 1943 0.5
1680 1944 0.5
1681 1236 0.5
1681 1942 0.5
1682 66 0.902009
1682 87 0.0979906
1683 822 0.111111
1683 825 0.111111
1683 2238 0.222222
1683 2242 0.222222
1683 3172 0.222222
1683 3173 0.111111
1684 61 0.25
1684 603 0.25
1684 1940 0.25
1684 1945 0.25
1685 32 0.166677
1685 246 0.166616
1685 1938 0.166677
1685 1941 0.166677
1685 1946 0.166677
1685 1947 0.166677
1686 400 0.25
1686 798 0.25
1686 1948 0.5
