2372 4459 1.40674e-07
6900 1405 2.5064e-06
162 8416 9.03799e-07
380 8416 2.41563e-06
737 8416 3.33657e-06
251 8416 7.56447e-07
6887 8416 1.146e-05
568 159 3.0064e-06
1099 159 7.92468e-06
3855 2966 2.95455e-06
1219 1395 2.06217e-06
1211 1395 2.55396e-06
0 1395 2.2432e-06
3875 2721 0.000525188
4092 529 5.50725e-06
7809 95 8.00976e-05
371 96 1.8307e-05
3715 288 0.000226035
3897 696 8.99496e-05
3828 2284 0.000354026
3661 737 7.38364e-05
1248 1430 2.88662e-05
85 52 1.97421e-05
125 119 2.39002e-05
124 119 6.92414e-06
63 323 1.16311e-05
4514 96 0.00119979
2909 680 0.000808213
6452 41 0.000216531
6265 50 0.000793921
3694 2721 0.022162
463 2721 0.00039721
2936 95 0.00249391
1563 4546 0.00643733
3803 3647 0.00176165
0 2721 3.91209e-06
1531 151 0.000445336
3352 2927 0.276026
161 3822 0.000347772
3066 3469 1.84075e-05
1744 2031 0.00121257
426 343 0.00347428
635 637 0.000365734
7969 1410 0.305003
1102 1307 0.0831655
5370 9810 4.50803e-06
103 354 3.37258e-06
7864 9025 0.0219959
7838 431 0.00015824
682 58 2.51809e-05
899 3725 0.000277106
1592 1286 0.0707641
29 9654 5.95746e-05
7679 41 0.162919
2776 7273 0.0501824
563 1479 0.00668421
563 2319 0.00297161
1979 737 0.000138519
7258 95 0.164754
104 92 0.000343117
48 2722 0.0657668
1135 4024 0.0493703
7010 4024 7.14809e-05
124 737 0.000105135
5039 114 0.00100809
5039 737 0.130483
5164 2209 0.199801
6967 6111 4.53428e-05
1519 850 0.00257936
5032 696 0.0866227
2 2721 0.110379
5893 574 3.81733e-06
6644 8127 0.106634
461 7029 0.12092
6295 3674 0.199756
0 1144 1.22842e-06
3961 336 0.0421812
681 4457 0.0267132
6107 418 0.000252352
6082 2900 0.0187457
31 7454 0.0197355
1425 7454 0.0138625
368 7454 6.48803e-05
5920 7344 0.124875
5552 92 0.00558018
2871 2560 0.169066
5403 92 5.01846e-05
5264 96 0.0476457
5097 6148 0.181792
5089 1479 0.249749
108 5869 2.74266e-06
4816 3670 0.236725
4378 5113 0.16629
369 4878 5.81408e-05
1534 4730 0.000203186
3325 40 0.000985094
1614 96 1.67382e-06
2767 92 0.142715
2555 2922 0.000889602
2481 1800 0.196389
289 41 2.27409e-05
1482 2502 0.0270086
1472 2502 0.00370155
103 1478 0.0243008
1480 1710 0.0141016
268 1282 4.08886e-05
1118 1282 0.000174471
84 1090 0.0662581
905 1035 0.00572398
0 41 6.3675e-07
634 637 0.00330062
3402 272 0.103048
341 96 0.142734
7699 127 1.00936e-05
23 1932 0.000787336
302 887 0.142714
3907 1255 0.272307
7325 4072 0.249751
477 4320 0.0713572
4966 5922 0.142714
627 1108 0.252929
33 759 6.19299e-07
2033 2344 0.1665
0 491 0.000162178
8071 204 0.111
8071 9976 0.111
8071 9975 0.111
8071 9974 0.111
8071 636 0.111
8071 27 0.222
8068 9973 0.1998
8070 88 0.499501
8068 961 0.199801
8069 9971 0.999002
8068 9970 0.599402
8066 9969 0.111001
8066 9968 0.222001
8067 638 0.142715
8067 4397 0.142715
8065 9966 0.999002
4403 3333 0.249751
8067 9965 0.142715
8067 9964 0.142715
8066 9964 0.111001
8067 9963 0.142715
8063 200 0.249751
8063 450 0.249751
8064 1630 0.333027
1403 283 0.197662
8061 1214 0.199801
8060 375 0.199801
8060 9960 0.199801
7674 6318 0.166504
8059 5736 0.499501
8059 9955 0.499501
8058 1579 0.118566
8058 9496 0.118566
8058 9953 0.118566
1403 9951 0.197662
253 41 0.171971
8055 9948 0.333001
8055 9946 0.333001
8054 9944 0.333001
8053 3291 0.166467
8053 5151 0.166506
8053 733 0.166506
8053 155 3.58372e-06
5259 442 8.90608e-06
5259 353 0.298597
4582 1583 0.141642
3332 4395 0.166507
3332 5472 0.333013
2738 2072 0.199801
8051 9935 0.333001
2738 6994 0.399601
8051 3639 0.666002
2965 6582 0.0870856
5677 766 0.556659
4653 696 0.0717799
8049 9932 0.270744
8048 9932 0.158397
8049 9931 0.270739
8048 9931 0.1584
8048 2860 0.158461
8046 9927 0.199252
5032 1583 0.0874918
8045 6983 0.999002
8043 9923 0.333001
4678 9919 0.333002
6594 850 0.199797
6594 9882 0.199807
8041 9918 0.607529
8039 231 0.333001
8039 423 0.333001
8038 9914 0.333001
2760 879 0.111035
2760 1360 0.110504
2760 9912 0.111034
2760 1091 0.111035
2760 9910 0.111035
2760 9909 0.111035
8035 3405 0.252167
8036 9906 0.0517942
8034 696 0.999002
8032 9905 0.199034
8030 9900 0.199801
8030 1150 0.199801
8029 9899 0.333006
8028 9898 0.24579
8027 2660 0.542884
253 9950 0.171977
8028 9897 0.24579
8028 6328 0.24579
3383 22 0.0999061
8024 5580 0.000182805
8026 921 0.957701
8026 9895 0.0413013
5351 9895 0.999002
8024 9893 0.502377
8022 3581 0.994069
8023 9889 0.333001
8021 272 0.166504
8020 2238 0.499501
8021 2610 0.166498
1851 9887 0.199797
8021 6760 0.166491
1851 6760 0.199813
8018 2864 0.499501
8018 9883 0.499501
8017 795 0.199801
8017 565 0.199801
1470 621 0.1998
8016 4573 0.998786
8015 5937 0.249751
8015 1539 0.249751
7862 6771 0.334898
7992 118 0.199797
8013 1103 0.332994
5463 291 0.998786
8009 96 0.124698
7372 4531 0.333001
8007 1409 0.199801
8006 335 0.166549
8006 1539 0.166549
8004 2339 0.332106
7865 9874 0.130655
7865 4410 0.261223
8002 4531 0.499408
7999 9079 0.335446
8001 802 0.142711
8001 1214 0.142715
8001 9873 0.142715
8001 9872 0.142715
8002 9845 0.000192248
8000 503 0.198946
8000 9870 0.198946
8000 777 0.198946
7358 4531 0.249572
7998 1792 0.249751
7998 515 0.249751
7995 3146 0.499501
7993 2700 0.249495
7993 9845 0.2506
7993 323 0.249414
7991 9865 0.484659
7992 9845 0.599409
7989 3374 0.501952
7988 9733 0.126524
7988 218 0.126476
7987 9863 0.199801
7986 759 0.199795
7987 9861 0.199801
7986 9860 0.199795
7986 9845 2.95286e-05
4637 218 0.333001
7984 9858 0.00053489
7976 2146 0.166501
7976 9844 0.166501
7976 1462 0.1665
7976 118 0.166501
7983 272 0.332755
7978 9856 0.360649
7977 325 0.333001
7977 9855 0.333001
7982 2209 0.499501
7981 9854 0.499501
7980 9852 0.999002
7974 5384 0.327439
7973 118 0.489562
7973 9851 0.489562
4905 3776 0.332363
4905 40 0.000399654
4905 9850 0.332363
4905 9849 0.320335
7969 9849 0.353167
7968 9847 0.332817
7968 9729 0.332817
7967 196 0.499501
7964 9079 0.24975
7962 604 0.142714
7962 3287 0.142718
7962 2525 0.142714
7962 431 0.142714
7962 3084 0.142714
7963 9841 0.249752
7962 9841 0.142714
7961 263 0.249751
7961 5166 0.249751
7961 574 0.249751
7960 1949 0.499501
7960 1959 0.499501
7959 473 0.999002
7958 325 0.199801
7958 9837 0.199801
7958 2285 0.199801
2176 1355 0.0410939
7957 4318 0.111114
7957 565 0.111114
7957 425 0.111114
7957 4488 0.111114
7957 62 0.111114
7954 6222 0.333005
7988 379 0.126524
7955 490 0.166487
7955 1333 0.166487
7954 5417 0.333005
1621 9833 0.168334
8016 41 0.000216052
7951 9831 0.333001
4557 4206 0.142754
4557 8055 0.142754
4557 3603 0.14248
4557 4286 0.142753
1944 1410 0.108761
7950 5786 0.24975
7950 340 0.249751
7948 9830 0.166507
7948 604 0.166507
7948 746 0.166507
7944 273 0.124875
7944 1533 0.124875
7944 188 0.24975
7946 989 0.124875
855 1498 0.199797
7946 1580 0.124875
7945 5755 0.332908
4119 49 0.338746
7944 9202 0.12488
7943 9822 0.999002
7942 3525 0.199801
7938 9819 0.16681
7938 9817 0.166826
7938 186 0.166826
7939 1214 0.19833
7940 9816 0.467692
7940 644 0.0636188
7934 8305 0.166502
7934 198 0.166502
7934 3656 0.166502
7933 9812 0.500734
7933 779 0.498269
7932 176 0.498275
6088 9811 0.997469
6088 9810 0.00153351
1156 9810 0.614678
7929 571 0.1998
7929 3622 0.199801
7929 335 0.199801
7929 9808 0.199801
7931 9807 0.424285
7930 9806 0.391863
7928 9805 0.998948
7927 8183 0.331645
7926 9804 0.502342
6237 9803 0.333001
6237 9802 0.333001
7925 183 0.199801
7925 791 0.199801
4484 692 0.199804
7924 9797 0.199801
7924 9796 0.199801
7923 9795 0.166557
7923 118 0.166224
7923 5481 0.166557
7923 636 0.166557
7923 125 0.166557
7922 279 0.111001
7922 7283 0.110999
7921 1750 0.333001
7921 3638 0.333001
7920 218 0.499501
5696 571 0.250978
7917 9792 0.333001
7916 50 0.199811
7918 3486 0.332999
7505 9823 0.249751
7918 1778 0.333002
3854 9789 0.0832499
7913 344 0.499501
7914 7313 0.199801
7914 1783 0.199801
7912 7314 0.333001
7141 2580 0.249751
7906 9785 0.249883
1852 3873 0.125721
1852 388 0.122809
7910 9784 0.200382
7910 3647 0.400763
1351 7521 0.332868
1351 842 0.332868
3042 7181 0.16625
3042 9783 0.16625
3042 4419 0.16625
3042 585 0.16625
1629 1710 0.00635964
1326 9781 0.0998927
1657 9780 0.198187
1587 3846 0.142715
922 9291 0.499501
7908 9778 0.499501
3645 7521 0.142719
3440 379 0.333001
7907 795 0.111135
7974 1724 0.335782
7907 907 0.111024
7906 49 0.249354
7905 325 0.199801
7905 9082 0.199801
7905 3310 0.199801
7229 9775 0.1665
6525 9774 0.26441
1657 4696 0.198185
3642 9773 0.188705
281 9770 0.33301
7901 1141 0.49933
7901 4532 0.499672
7900 218 0.166264
7900 9769 0.166267
7899 9768 0.499498
6344 1657 0.498806
3349 9767 0.199327
7898 9765 0.499501
7897 9734 0.999002
7896 1342 0.330988
7896 1558 0.330988
7896 279 0.337026
7895 16 4.10918e-06
7895 515 0.332999
7894 354 0.200116
7894 9740 0.200116
7894 9760 0.200116
7891 272 0.499501
7891 5384 0.499501
7890 4444 0.236658
7854 218 0.165358
7854 22 0.165358
7854 596 0.165358
7854 662 0.00685321
7889 71 0.248768
7888 9727 0.199791
7888 4532 0.199804
7888 279 0.199803
7887 4445 0.176231
7887 997 0.176231
7886 4444 0.328484
7886 9727 0.328484
7886 96 0.0135492
1888 4532 0.199801
7885 1793 0.142715
7885 4524 0.142715
7885 392 0.142715
7881 9754 0.142715
7881 2014 0.142715
7881 2235 0.142715
7879 9751 0.332966
7879 9750 0.332966
7874 558 0.499501
7878 151 0.4995
7878 9746 0.499502
823 9744 0.199801
5579 2226 0.150132
7872 9729 0.333001
7871 8877 0.143575
7871 9743 0.147612
7871 3073 0.147612
208 9741 0.234714
4236 795 0.00516885
4236 4478 0.493099
7869 9738 0.249751
7868 3376 0.999002
7866 5470 0.200007
7866 9727 0.198454
7866 997 2.24258e-06
7865 9025 0.107566
7865 9733 0.106907
7864 415 0.124762
4761 27 0.166414
4761 662 0.166545
1842 778 0.666002
7863 4532 0.333001
2977 9734 0.0700774
6882 393 0.248966
7861 662 0.142766
7861 1655 0.14277
7861 9732 0.14277
7859 4015 0.499496
7858 1630 0.999002
7857 3837 0.249751
7857 503 0.249751
7857 102 0.24975
7857 3383 0.249751
7856 9729 0.333001
7856 9728 0.333001
7855 1199 0.166684
7850 3525 0.245517
7851 9726 0.999002
7847 168 0.166501
7822 9720 0.201111
7848 2066 0.249751
7848 1797 0.249751
7848 1932 0.249751
7845 4122 0.124876
7845 2289 0.124876
7846 9718 0.249794
7907 1783 0.110035
7844 1214 0.1665
7844 2332 0.1665
7844 604 0.1665
7844 3321 0.1665
7843 3753 0.999002
7842 9717 0.332998
7842 1628 0.333006
2635 64 0.249126
7445 9696 0.0449911
7445 1569 0.0451257
7841 795 0.166501
7841 2332 0.166501
4335 4325 0.367723
7841 57 0.166499
7840 746 0.1665
7839 5 0.499489
7841 1060 0.166499
7531 9709 0.199801
7531 156 0.199801
7838 3725 0.755866
682 2281 0.1814
682 41 0.181366
7815 902 0.0972015
7062 6413 0.1998
7062 1211 0.199801
7062 1333 0.199801
7531 8959 0.199801
7837 58 0.199801
7837 2770 0.199799
7837 1172 0.199801
7836 9707 0.199802
7836 105 0.199801
7836 574 0.199796
1425 604 0.107927
4943 27 0.333003
3747 27 0.242814
6450 1655 0.1665
6450 9706 0.1665
7834 419 0.1665
7833 1272 0.499424
7829 241 0.166501
7834 9704 0.1665
7831 325 0.499501
7830 9700 0.999002
7828 5353 0.142715
7828 9690 0.142715
7828 62 0.142715
712 64 0.408009
3747 3725 0.0297468
154 9699 0.333001
154 1659 0.333
154 652 0.333001
1442 57 0.0909607
1442 1743 0.0909608
7827 3264 0.111
7827 237 0.110999
7827 551 0.111
7827 4299 0.111
4873 50 0.499507
7825 9696 0.999002
1154 9696 0.253811
1335 9685 0.249825
7821 272 0.249751
7823 4978 0.25186
7823 224 0.000532851
7820 3034 0.11111
7820 1593 0.111108
6237 1103 0.333001
7820 41 0.111109
1649 4464 0.181533
1649 9687 0.181649
498 9687 0.199913
1649 9688 0.181658
7820 9686 0.11111
7820 224 0.110128
7815 9684 0.0972014
7817 9683 0.199801
7817 9682 0.199801
7817 272 0.199801
7815 272 2.08549e-06
7816 9681 0.999002
7814 9680 0.333001
7814 9679 0.333001
7814 9678 0.333001
7813 190 0.999002
7810 9677 0.249751
7810 9676 0.249751
6747 9675 0.0908187
7956 7787 0.999002
7794 9674 0.24975
7809 245 0.142705
7809 1507 0.142705
7809 708 0.142705
7808 1286 3.20924e-06
7808 810 0.1665
7808 5551 0.1665
7808 9644 0.1665
7807 9670 0.333001
7807 9672 0.333001
7807 3368 0.333001
7394 1223 0.308019
7394 5654 0.308495
7394 1300 0.0739939
7806 447 0.111001
7806 5826 0.111001
7806 7025 0.111001
8052 1774 0.166504
7804 5551 0.249772
7785 5551 0.109141
7802 9667 0.333287
6666 1287 0.1665
6666 2673 0.1665
6666 2771 0.1665
263 9666 0.332683
7802 104 0.332428
5370 1307 0.000281452
6747 9665 0.181638
6747 118 0.181638
6747 1801 0.181638
7801 9664 0.199801
7801 4459 0.199801
7801 2053 0.199801
838 4203 0.0998397
838 9662 0.199679
838 7862 0.0998397
112 4070 4.44864e-05
613 4488 0.165556
612 102 0.2433
612 771 0.251898
3841 490 0.1427
3841 1214 0.1427
3841 3674 0.1427
155 7957 0.124979
4356 6277 0.249751
4356 1759 0.249751
1139 795 0.116792
7799 9659 0.354296
4556 9658 0.500562
4031 9658 0.332032
4556 9644 5.08171e-05
293 7640 0.14098
4688 2233 0.499414
7796 9656 0.199801
7796 9655 0.199801
7785 1224 0.205354
5233 105 0.273368
4170 9654 0.49973
1961 245 0.24972
7795 9653 0.111001
7795 1831 0.111001
7793 9652 0.500786
7793 9651 0.496492
7792 926 0.332993
7791 9649 0.177986
7788 7640 0.199801
7788 774 0.199801
7788 948 0.199801
7786 9647 0.249751
7786 9646 0.249751
7787 565 0.49951
7783 9641 0.333001
7780 171 0.497582
7952 795 0.333001
7777 9636 0.199882
7776 204 0.312539
7776 9635 0.343057
7776 9633 0.000348659
7774 4835 0.166502
7774 363 0.166491
7774 9632 0.166502
7774 9631 0.166502
7774 10 0.166502
7773 362 0.952787
7772 9611 0.193407
7771 4123 0.499501
7771 4523 0.499501
7770 9630 0.126842
7768 9629 0.111019
7768 5789 0.111019
7768 9611 0.111017
7853 272 0.199659
7767 9628 0.399418
7853 289 0.199817
7766 194 5.84431e-05
7764 6082 0.142715
7764 850 0.142715
5022 6061 0.199801
7759 354 0.499501
7760 9625 0.199801
7760 1166 0.199801
7739 4528 0.499501
7764 2979 0.142715
5022 4076 0.199801
7763 7246 0.999002
7892 9762 0.999002
2643 842 0.122902
3985 376 0.249751
3985 58 0.249751
3985 93 0.24975
4416 218 0.183688
7112 2025 0.166501
7112 9621 0.166501
5370 458 0.499643
2407 9619 0.199757
7966 9844 0.413111
7753 9617 0.166584
8058 6222 0.11856
7753 9615 0.166584
7753 9614 0.166584
4416 41 0.126781
7752 9613 0.499501
7752 9185 0.499501
7961 9839 0.249751
7750 9610 0.142715
7750 592 0.142715
7750 9609 0.142713
7750 3525 0.142715
7747 2589 0.142715
7749 295 0.166501
7744 295 0.124161
6386 72 0.388327
7747 71 0.142715
7744 9609 0.496644
7741 419 0.124876
7742 9607 0.999002
7743 9605 0.999002
7745 9604 0.499501
7745 9603 0.499501
7741 9602 0.124876
7737 431 0.569385
7740 335 0.142715
7740 9600 0.142715
7740 3264 0.142715
7740 3753 0.142715
7740 9598 0.142715
7738 5 0.166501
7738 2256 0.166501
1880 104 0.396715
7735 218 0.166501
7735 949 0.166501
7735 4090 0.166501
6858 9595 0.124877
6858 1938 0.124876
6858 767 0.124877
7735 1806 0.166498
6858 1806 0.124879
8007 218 0.199801
7731 9592 0.499522
7730 9590 0.333001
7729 66 0.0101086
7729 1630 0.494447
8030 6235 0.199801
7727 93 0.249754
7727 795 0.249754
7726 772 0.333004
7726 155 0.333004
7725 1572 0.500156
7724 5 0.166584
7724 1800 0.166584
7724 9587 0.166584
7726 4488 0.332995
7723 4488 0.999002
7722 5573 0.142693
7722 4523 0.142693
7722 737 0.142706
7720 9583 0.49951
7719 279 0.124893
7719 571 0.124893
7718 4523 0.333001
7718 105 0.333001
7719 9580 0.124752
1595 3334 3.01095e-06
7719 574 0.124893
7719 1674 0.124893
2317 9266 0.199801
7717 9577 0.236996
7717 788 0.0508333
1595 9580 0.0661614
5692 192 0.276739
7714 3525 0.249746
7712 2045 0.39937
5692 1692 0.553479
1618 8877 0.276411
1618 2037 0.138206
1618 105 0.000190118
7711 50 0.0765931
1618 56 0.136805
7711 196 0.184488
7710 921 0.178273
6374 704 0.199801
7707 23 0.249751
2771 5171 0.199801
7709 609 0.999002
7708 9572 0.249751
7708 9043 0.249751
7708 771 0.249751
7706 9571 0.999002
7705 4512 0.375079
7535 1060 0.999002
1672 708 0.163911
7705 3229 0.248844
559 9568 0.394544
7702 3307 0.171887
7703 4033 0.238534
7702 4033 0.17189
7703 502 0.0448561
7699 102 0.125107
7699 1103 0.123321
7697 29 0.333001
7697 9565 0.333001
7693 1252 0.001964
7694 9521 0.170883
7692 9562 0.499501
7692 9561 0.499501
7694 8311 0.170883
7691 2520 0.249751
7691 591 0.249751
7691 186 0.249751
7899 2238 0.499504
7690 604 0.166501
7689 775 0.166456
7688 9559 0.399158
7688 9558 0.399158
7687 68 0.407748
7686 1212 0.200598
7685 9058 0.333001
5793 185 0.1665
7986 997 0.199795
3817 9555 0.1665
3817 2669 0.1665
7684 92 0.1665
7684 4422 0.1665
7684 9554 0.1665
7682 547 0.249759
7682 9553 0.249759
7683 9552 0.199565
7683 5081 0.199565
4842 7883 0.000204021
7681 9549 0.124875
7679 1932 0.167206
7681 9546 0.124875
7679 4829 0.334438
7680 9546 0.249751
7680 1225 0.249751
7678 105 0.314806
7678 529 0.342098
7678 595 0.342098
7680 9516 0.249751
7677 9544 0.166501
7677 56 0.166501
3166 794 0.124875
1535 8742 0.249749
1535 1237 0.249749
1535 5245 0.249748
1535 105 8.0939e-06
1535 3806 0.249749
7670 9539 0.166501
7676 9543 0.249752
7676 9542 0.249752
7674 9540 0.166504
1657 9774 0.206512
7673 9539 0.166506
7673 9538 0.166506
7673 519 0.499486
7672 9537 0.251776
7671 9537 5.6777e-05
7671 3830 0.998946
7669 1711 0.1249
7670 519 0.333001
7653 633 0.249747
7653 8742 0.249743
7669 9535 0.124705
7667 9535 0.49989
7667 9534 0.499112
7669 9532 0.1249
7666 9530 0.999002
7554 387 0.11101
7554 125 0.11101
7665 8380 0.1665
7665 283 0.1665
8009 4410 0.124987
7665 6165 0.1665
7554 1095 0.11101
7343 795 0.1998
7343 5719 0.1998
7343 759 0.199801
7664 9527 0.185293
7664 9525 0.185294
7663 9524 0.999002
7662 40 0.999002
3166 4829 0.124875
2911 4829 0.166502
2911 291 0.166502
7661 9522 0.999002
2712 3814 0.142716
2712 3806 0.142716
7660 9520 0.142874
7660 1992 0.142874
7660 150 0.142874
1123 3806 0.166295
1123 530 0.166295
3580 9520 0.200734
4968 2923 0.166284
7658 991 0.248424
7658 5578 0.248425
4092 93 0.307383
7657 5046 0.1665
7657 5127 0.1665
787 72 0.000117606
7657 376 0.1665
7657 8679 0.1665
3580 4488 0.200649
7650 565 0.181637
7653 9518 0.499494
7656 68 0.24975
7656 9517 0.249751
7656 585 0.249751
4301 6238 0.0834013
7655 105 0.366695
7653 50 1.89511e-05
7652 3527 0.249735
1369 431 0.332991
7651 1908 0.24975
7651 746 0.249751
7650 9515 0.817366
7649 9514 0.999002
7093 9513 0.0833565
7648 9512 0.336845
7647 9511 0.249751
7646 9509 0.977908
7646 50 0.0210939
7645 50 0.494036
7645 9508 0.504927
1347 9507 0.333
2671 96 0.0396143
2671 5979 0.159898
2671 9506 0.159898
2671 9505 0.159898
6923 9504 9.37578e-06
7644 9504 0.999002
7643 3698 0.499501
7629 2769 0.249749
7629 1377 0.249746
7642 9503 0.332252
7640 9502 0.340583
7640 9501 0.340583
7640 258 0.317837
7641 7766 0.333773
7641 3192 0.331515
7639 9498 0.142718
1403 9497 0.39536
7639 9497 0.142693
7639 7277 0.142718
7639 9496 0.142718
7639 9495 0.142718
7636 9493 0.999002
7635 9492 0.499501
7634 9490 0.499502
7634 9489 0.499501
7632 9488 0.199994
7632 200 0.199128
7632 9487 0.199994
7955 9835 0.166487
7674 9952 0.166502
7631 235 0.199805
7630 9484 0.499635
7628 7309 0.249743
7628 9483 0.249753
7628 9482 0.249753
7625 283 0.999002
7624 5262 0.999002
5874 155 0.000332453
7623 198 0.1665
7623 469 0.1665
7623 390 0.1665
1101 171 1.86745e-06
3286 1225 0.0202303
7637 9494 0.499502
7619 9477 0.104455
7619 812 0.104454
7619 83 0.104455
7622 961 0.999002
5874 479 0.0847574
5874 88 0.0842705
988 6327 0.144228
6042 623 0.166497
6042 621 0.166501
6042 447 0.166501
7621 565 0.142715
7621 1970 0.142715
7621 178 0.142713
7621 1854 0.142715
7621 783 2.49495e-06
7036 3810 0.199801
7036 238 0.199801
185 9470 0.333781
7620 9469 0.111006
4357 9202 0.7992
7620 2095 0.111006
7620 9467 0.111006
4357 515 0.199802
2776 9466 0.237205
7619 9464 0.208909
7619 9423 0.104455
2776 1531 0.237205
203 965 0.333001
7618 9463 0.333009
3172 828 0.254784
1741 9462 0.142714
1741 7180 0.142714
1741 9454 0.142714
155 2554 0.249957
1741 7688 0.142714
1741 9460 0.142714
4122 4469 0.499506
1305 9458 0.333001
4455 385 0.199674
1741 9457 0.142714
3839 431 0.166456
3839 61 0.332931
4314 124 3.26957e-05
4314 9454 0.264775
6561 9453 0.0908189
6561 283 0.0908189
6561 1765 0.0908189
853 9449 0.332999
853 9448 0.332999
7616 4454 0.399601
7615 9447 0.499491
563 9447 0.0991299
7615 1249 0.499499
563 1249 0.0991274
7690 9560 0.166501
7614 4655 0.16549
7614 5672 0.16549
1274 66 0.00223197
7614 1379 0.16549
7613 9446 0.125574
7845 1628 0.249748
7612 9445 0.333003
7611 842 0.166501
7611 1449 0.166501
7613 9432 0.376726
7613 9431 0.371126
7610 7109 0.144523
7609 9441 0.199822
7609 9440 0.199822
7608 9439 0.336989
7606 9437 0.999002
7605 809 0.249692
7604 9432 0.333001
7604 9431 0.333001
7609 927 0.19982
7604 927 0.333001
7603 7516 0.333001
7602 308 0.999002
8040 9916 0.199801
3572 3279 0.0999772
7600 796 0.0664027
3572 417 0.199951
3572 887 0.0999772
3566 102 0.332908
6923 9480 0.1998
7601 9435 0.199801
7601 7214 0.199801
7601 9434 0.199801
7601 9433 0.199801
7601 61 0.1998
7600 9431 0.467781
7599 9430 0.249751
7599 3965 0.249751
7599 9429 0.249751
2513 895 5.11466e-05
7596 927 0.131901
7596 9419 0.144668
2513 2721 0.00119745
7596 2721 0.143759
7596 9418 0.144668
7594 1000 0.499541
4030 5452 0.249741
4030 3583 0.249742
7593 9416 0.333001
7593 124 0.333001
7664 1748 0.185292
7592 7474 0.249519
7592 9415 0.249828
7592 961 0.249828
7620 1970 0.221962
7591 218 0.142714
7590 218 0.199801
7591 9413 0.142715
1586 9410 0.199818
6735 1169 0.267597
7589 279 0.499501
7907 25 0.111135
5824 704 0.249751
7584 3780 0.481671
7583 9405 0.482859
7588 7288 0.199802
7588 9402 0.199802
7586 9400 0.24975
1347 9398 0.333001
7623 9478 0.1665
7585 3503 0.333001
7585 9396 0.333001
1968 7180 0.499501
3056 9395 0.145403
7212 9392 0.1998
7212 9391 0.199801
7212 385 0.399601
7580 9390 0.999002
7581 9388 0.253678
7581 2111 0.00942913
3964 5032 0.200171
1538 5829 0.424309
7578 450 0.999002
3028 9383 0.249751
3028 1847 0.24975
7579 9378 0.199801
7576 273 0.114874
7576 2722 0.295011
3110 2706 0.113935
7574 2250 0.499459
7566 2250 8.39909e-05
6952 9379 0.249751
6952 9378 0.249751
6952 9377 0.249751
7573 149 0.249751
7573 8491 0.249751
4912 3495 0.230539
4912 3778 0.153692
7572 9372 0.316367
7572 1108 0.316367
7570 2771 0.176764
7086 1314 0.112137
1671 9370 0.24975
8056 77 0.1665
1671 201 0.24975
4430 9369 0.252201
3547 218 0.499492
5126 503 0.162906
5126 635 0.162906
5126 1790 0.0205644
7569 9369 0.249813
428 9368 0.298125
7563 573 0.199801
4593 1325 0.1665
7564 3333 0.333001
7564 9362 0.333001
7564 1249 0.333001
7086 61 0.11214
3560 9361 0.161668
7567 9361 0.200602
7567 9360 0.200604
7566 9359 0.998918
7562 7296 0.999002
7753 9616 0.166584
7560 1010 0.257943
7560 2294 0.225173
7560 506 0.257942
7559 565 0.167761
7559 9354 0.167761
7559 9353 0.167761
2454 1657 0.333106
7711 56 0.184487
3483 2729 0.0759427
7658 6238 0.248425
3821 8794 0.166514
3821 385 0.166513
7749 156 0.166501
3821 8566 0.166514
34 1648 0.499501
2907 9349 0.1665
7558 3054 0.170626
7558 7099 0.17053
7719 3221 0.124893
7557 7888 0.333001
7556 151 1.52578e-05
958 9347 0.333033
958 9346 0.333033
5856 9345 0.199801
7543 9343 0.1998
3716 9342 0.199671
4862 9340 0.249751
7553 155 0.333001
7553 1685 0.333001
7552 9337 0.199799
7552 9336 0.199801
7552 9335 0.199801
7552 9334 0.199801
7696 3806 0.333001
5709 1792 0.999002
7551 9333 0.124875
7551 5775 0.124875
7551 9294 0.124875
7551 9332 0.124875
7550 9331 0.249842
7546 9328 0.249746
7665 7313 0.333001
7545 9325 0.661981
3464 6706 0.247731
3464 9324 0.165154
3464 385 0.082577
3840 440 0.235663
3840 3595 0.235663
1229 4070 0.0966831
1532 1971 0.332973
7543 90 0.199801
2868 3319 0.1665
2868 29 0.1665
6376 27 0.331975
2229 9320 0.249754
7542 150 0.499501
7541 7083 0.124888
7541 9319 0.124888
7541 1010 0.124888
3572 1010 0.0999772
7541 9318 0.124888
5121 335 0.199796
7672 9519 0.243962
6358 6038 0.325169
6358 63 0.325168
6269 2845 0.249812
7987 9862 0.199801
7538 9316 0.499501
7931 9806 0.15044
7537 9314 0.499424
7536 895 0.000784412
7536 264 0.0732339
7536 9312 0.462492
7534 9310 0.499501
1698 9309 0.0998926
1698 131 0.0998926
7533 131 0.249751
5389 9307 0.199578
7530 1032 0.199683
3974 9305 0.332399
7530 9305 0.000539208
3974 9303 0.333302
1882 526 0.249567
3383 9297 0.0999067
7445 1121 0.151481
7760 9626 0.1998
6091 9293 0.111
6091 9291 0.111
3467 9290 0.666002
7527 1084 0.333001
7527 3647 0.333001
7527 5701 0.333001
7526 9289 0.1665
7526 9254 0.1665
7525 1226 0.324581
7525 1339 2.96389e-05
3572 66 0.0992115
3668 450 0.333001
4603 1895 0.258637
7522 1298 0.333001
7518 392 0.12487
4798 231 0.199801
2889 432 0.249756
7517 3752 0.197362
7517 1956 0.197362
4576 1792 0.340174
4177 1974 0.999002
7517 40 0.406917
7704 4488 0.166014
6474 2935 0.195412
6474 574 0.195412
7516 9277 0.999002
7513 5877 0.199801
7558 8393 0.145968
7513 692 0.199801
7958 217 0.199801
7513 5881 0.199801
355 1847 0.199801
7512 9276 0.249751
4158 6965 0.491591
6505 9275 0.499504
6923 1215 0.399595
7511 5088 0.999002
1948 3581 0.485848
863 593 0.247009
8040 3313 0.199801
7509 156 0.249731
7509 4547 0.249757
7508 731 0.124899
8060 8445 0.199801
7508 1284 0.124899
7508 3835 0.124899
7508 567 0.124709
7506 5702 0.142715
1777 93 0.25331
1096 9265 0.166498
450 9264 0.166546
450 9263 0.166546
7955 295 0.166487
4256 4527 0.199807
7503 2220 0.333001
7503 3900 0.333001
7502 794 0.332968
1948 3336 0.0462394
1948 842 0.466915
1777 842 0.00987103
5192 9257 0.999002
7579 5124 0.199801
4586 2284 0.28532
5474 850 0.499529
2080 3336 0.155785
3437 4943 0.198574
3437 3396 0.200107
3437 801 0.200107
7748 451 0.499501
1643 9249 0.480337
7499 3785 0.333001
1096 9244 1.39544e-05
3647 9244 0.5994
7497 4304 0.142715
7617 1379 0.333002
7592 1469 0.249828
7497 1268 0.142715
7497 1796 0.142715
7496 9242 0.500714
4431 726 0.215542
7484 2884 0.111
8063 471 0.249751
7495 9241 0.122238
7495 3370 0.105446
7494 9238 0.999002
7492 9236 0.249751
7491 9235 0.999002
7492 9234 0.24975
7490 9232 0.999002
7489 9224 0.33326
8048 1857 0.365348
7947 1974 0.333001
2813 9229 0.332491
5522 5 0.111047
8049 1857 0.186776
7484 105 0.111
7485 5405 0.999002
7484 5405 0.110999
5567 9219 0.333089
1745 6942 0.499501
7483 6942 0.249513
1745 293 0.499501
4510 2673 0.199801
5522 9214 0.222094
7702 921 0.171887
1152 7313 0.00700725
7746 325 0.499501
7480 1909 0.333004
7480 3846 0.333004
4000 746 0.200154
4000 295 0.198377
7477 9219 0.999002
7476 9217 0.999002
7474 3009 0.996729
7467 5036 0.998167
7465 5036 0.899505
7464 907 0.999002
7779 9609 0.249751
7462 570 0.187667
7462 5 0.270233
7462 1464 0.270551
7461 2252 0.249782
7461 605 0.249658
8022 151 0.000867377
7458 704 0.111
7458 241 0.111
7457 203 0.249751
7456 1579 0.124875
7456 1911 0.124875
7456 574 0.124875
7456 991 0.124875
7458 605 0.111
4698 3758 0.24975
7867 9727 0.333001
6091 1492 0.111
242 9200 0.159593
8035 4916 0.252167
3072 5087 0.0772071
7453 1770 0.333001
7453 9193 0.666002
7451 3424 0.249751
7452 57 0.0963917
4017 9165 0.146056
7450 9188 0.333001
7449 9185 0.142715
7449 258 0.142713
7449 245 0.142715
7446 1621 0.49586
6489 1644 0.111
6489 1236 0.111
6489 5 0.111
846 9177 0.998964
846 895 3.8862e-05
7448 9176 0.333001
7448 1644 0.333001
2865 2673 0.249751
3181 94 0.333009
7447 7 0.333001
7447 185 0.333001
7444 9169 0.999002
7443 9168 0.166909
7446 9167 0.00728111
7443 9167 0.498276
3181 9165 0.444012
4963 571 0.191973
6992 571 3.79413e-06
6992 247 0.1998
6992 339 0.1998
4963 5 0.0388835
7440 5 0.284633
4963 617 0.191698
7440 617 0.000516842
4963 530 0.191976
4963 604 0.191976
7439 9160 0.111
7439 676 0.111
7439 540 0.111
7439 9159 0.111
7439 879 0.111
7438 9158 0.499501
1300 102 0.499501
7439 772 0.111
7437 9154 0.199801
7437 431 0.199801
7437 185 0.1998
7436 9144 0.999002
7435 50 0.99899
7434 1229 0.333001
7433 9151 0.999002
7432 9150 0.333001
7432 354 0.333001
7431 118 0.166499
7430 3605 0.249751
7586 9399 0.24975
7429 9146 0.199801
7429 9145 0.199801
7429 88 0.199801
7429 9144 0.199801
7427 9142 0.1998
7427 245 0.1998
2801 469 0.249542
2889 9278 0.249756
7426 61 0.249753
7424 155 0.499501
7424 9140 0.499501
7425 1830 0.1665
7425 440 0.1665
7425 9138 0.1665
496 41 0.00210361
7423 9137 0.249753
5894 1830 0.140979
4103 1618 0.142715
4103 102 0.142715
4103 27 0.142715
4103 6016 0.142715
7421 38 0.006654
7420 973 0.333001
3307 102 0.199792
4613 5590 0.13871
4613 2294 0.156333
4613 4620 0.138711
4012 9130 0.199801
4763 1823 0.499501
4302 490 0.166429
4302 6277 0.166515
2848 245 0.199777
5060 1085 0.110979
7417 879 0.199801
7417 9122 0.199801
7823 9691 0.242888
7417 1601 4.86615e-06
7417 29 0.199792
7415 3409 0.166502
7415 9118 0.166502
7414 2744 0.16603
3915 2433 0.200768
3915 9117 0.200768
7415 1601 0.166498
7414 3166 0.16603
7414 141 0.16603
2934 2294 0.000154957
7413 7029 0.199801
7412 66 0.1665
7412 1601 0.1665
7412 1965 0.1665
7412 9112 0.1665
7412 440 0.1665
7410 9110 0.249751
7410 469 0.249751
8046 1085 0.199252
7408 354 0.111004
7408 1930 0.111022
7408 347 0.111022
5138 9106 0.0799001
496 4120 0.332201
7407 3832 0.111
7407 958 0.111
4981 9105 0.499501
8012 9879 0.999002
7407 283 0.111
2245 4478 0.666065
5984 9103 0.333001
7406 9102 0.124875
7406 1931 0.124875
7406 7513 0.124875
7406 927 0.124875
7405 914 0.199799
7405 9100 0.199801
7405 704 0.199801
7403 2173 0.999002
7400 746 0.249751
7400 9096 0.249751
7400 325 0.499501
7399 9095 0.499501
7611 6318 0.166501
7398 9094 0.499452
7829 25 0.1665
7396 9092 0.249751
7396 148 0.249751
7395 9088 0.326596
7395 190 0.326596
626 1858 0.499501
7393 9091 0.1998
7393 9090 0.199801
7393 795 0.199801
7393 9089 0.199801
7392 1405 0.24412
7392 185 7.18124e-06
7392 1863 0.244121
7391 8469 0.199801
7391 9086 0.199801
7391 9085 0.199801
7388 2298 0.499501
7389 425 0.999002
7386 7693 0.254462
2931 4478 0.110999
7385 9084 0.999002
7384 2450 0.166542
7383 9082 0.517058
7383 737 0.481944
7382 2462 0.499501
7384 325 0.665919
7112 150 0.1665
7380 927 0.333
7380 9080 0.333001
6140 6431 0.199801
6140 9079 0.199801
7378 415 0.111
7378 927 0.222001
7378 118 0.111
7794 795 0.499495
7365 1667 0.1665
7365 584 0.1665
7377 1256 0.166501
7377 898 0.166501
7376 96 3.71851e-06
7376 8469 0.199884
7376 4710 0.199884
7376 1443 0.199756
7376 604 0.19959
7375 880 0.292896
7374 1857 0.249751
7804 664 0.249772
7374 1642 0.249751
7368 9071 0.249751
7367 9070 0.43756
7366 9069 0.999002
7369 737 0.999002
7367 737 0.115108
7367 858 0.437562
7365 2995 0.333001
7368 325 0.499501
7364 9067 0.499498
6006 9066 0.0713571
7724 9588 0.166584
1519 1417 0.100849
1519 4829 0.100849
7363 858 0.1665
7377 3418 0.166501
7363 9064 0.1665
4593 1199 0.1665
7363 29 0.1665
7362 4528 0.199799
7362 1415 0.199802
5315 4169 0.142552
5315 1560 0.142649
4484 1226 0.199788
5315 875 0.142761
7361 927 0.166507
7361 1765 0.166507
834 1459 0.170219
1519 848 0.100849
7360 927 0.1665
7360 29 0.166501
7827 185 0.111
7853 4427 0.199842
2 842 0.111078
3301 8983 0.0328598
3301 9059 0.344077
3301 737 0.277988
7358 198 0.499621
7357 105 0.249751
4190 9947 0.1998
7357 1317 0.249751
7354 2560 0.333
7356 136 0.868696
7355 2462 0.205981
7355 9055 0.205981
7354 9054 0.333
7352 2447 0.999002
7351 9052 0.499501
7351 9051 0.499501
7354 325 0.333003
7353 325 0.499496
7350 449 0.111
6255 574 0.142714
7350 2455 0.111
7350 795 0.111
7350 1144 0.111
7350 1812 0.111
7350 2625 0.111
7349 1704 0.166503
7349 9047 0.166503
7349 401 0.166503
7348 32 0.998869
7347 1676 0.249751
7347 1858 0.249751
7347 3525 0.24975
7346 9045 0.249747
7300 6521 0.399601
7346 1498 0.249751
7345 4528 0.11464
7345 9043 0.11464
7345 772 0.11464
7345 9042 0.11464
2127 308 0.0101368
7344 1443 0.499347
775 8753 0.32216
775 9041 0.168867
6188 1542 0.104611
6188 2235 0.104611
7344 1543 0.000309497
739 961 0.17499
3589 77 0.199179
726 96 0.199339
726 155 0.199916
4233 245 0.00154147
7342 1932 0.172073
6183 4523 0.166501
6183 203 0.166501
7341 604 0.572868
7340 32 0.266858
7338 9035 0.199801
7338 635 0.199801
7338 1630 0.199801
7338 5410 0.1998
610 1415 0.333001
7618 2722 0.333009
7339 272 0.49934
869 9033 0.2762
869 2266 0.2762
869 1752 0.2762
6029 795 0.145955
7337 9031 0.16695
7337 879 0.166947
7336 336 0.492561
7336 574 0.0138811
4047 32 0.142635
4047 335 0.142644
5425 7068 0.199797
5425 2131 0.199801
7876 272 0.249753
7920 3398 0.499501
4818 9025 0.331744
7333 9024 0.1665
7333 5753 0.1665
7722 9586 0.142693
7333 5083 0.1665
7332 810 0.124875
7331 2565 1.25244e-05
7331 27 0.426541
7360 949 0.166501
7330 1415 0.124875
7330 754 0.124875
7330 2347 0.124875
7330 9023 0.124875
7330 574 0.124875
7330 604 0.124875
7329 9022 0.13925
7329 7674 0.13925
7329 5 0.139161
7329 8001 0.0243434
7329 880 0.139249
7306 880 0.083156
7329 907 0.13925
7328 1443 0.1665
7328 1415 0.1665
7328 6831 0.1665
7326 9018 0.111001
7325 754 0.249751
7325 295 0.249751
7324 108 0.249751
3905 9945 0.13134
7322 9010 0.999002
7320 604 0.249786
7320 102 0.249644
5801 1558 0.0140269
7319 2886 0.166501
7318 9009 0.488589
7318 9008 0.510414
7317 325 0.333001
7317 9005 0.333001
7315 9004 0.332999
7314 3832 0.333001
7314 233 0.333001
4586 9256 0.142736
7313 385 0.204999
7313 1405 0.404092
7855 529 0.166665
7312 9002 0.333001
7312 9001 0.333001
4022 8999 0.142715
5567 9226 0.333089
4022 8998 0.142715
4022 700 0.142715
4022 8753 0.142715
6756 8996 0.499506
3551 7499 0.465877
1282 8995 0.124879
1282 1415 0.124879
981 1415 0.167068
7308 7459 0.166524
7309 245 0.200063
7309 61 0.200063
7311 8991 0.199801
7311 8990 0.199801
7303 323 0.199628
7305 755 0.999002
6073 1018 0.332998
7346 779 0.249752
7551 3734 0.124875
7302 8985 0.199799
155 1058 0.124979
7302 842 0.199799
7301 1443 0.142617
7301 1542 0.142618
7301 809 0.142618
7301 8984 0.142618
5623 8983 0.322229
5623 1003 0.169194
2040 604 0.0379683
7298 604 0.128034
7298 295 0.174367
7298 1443 0.174367
2040 1415 9.75054e-05
7298 1415 0.174124
7297 8981 0.888003
7296 325 0.199729
7296 8979 0.199729
7670 93 0.333001
7292 8975 0.999002
7291 5 0.333007
7289 2850 0.1665
7289 6413 0.1665
7289 3988 0.1665
7289 77 0.166497
7288 1108 0.499501
7925 9801 0.199801
7287 561 0.249243
7290 16 3.90263e-06
7287 1852 0.249245
7283 8971 0.249751
7942 9821 0.199801
7282 262 0.999002
7281 8969 0.333002
7280 3229 0.333004
7280 2151 0.332995
7279 8967 0.249751
7279 798 0.249751
5777 115 0.211217
5777 40 0.36535
7278 291 0.333003
7278 8964 0.333003
2454 1942 6.75637e-05
7277 419 0.333001
7276 8963 0.666003
7276 2794 0.332999
7274 3655 0.200497
7274 40 0.197023
7275 218 0.170947
7275 1274 0.170947
7275 3829 0.170947
7275 3367 0.170947
7275 1965 0.170792
7273 1400 0.26743
7273 224 0.267439
7272 2621 0.499213
1377 2794 6.8243e-06
6286 8960 0.0132339
7269 8916 0.1665
7269 555 0.1665
7269 997 5.13669e-06
2248 4635 0.16649
2248 5221 0.16649
2248 258 0.166489
3247 1019 0.249755
3247 8956 0.249755
3247 401 0.249753
2889 9279 0.249756
7693 9563 0.997038
7266 8954 0.12928
7266 795 0.12928
1981 210 0.000103063
7265 2939 0.142715
7265 293 0.142715
7265 153 0.142715
7268 8949 0.499501
7267 362 0.333001
7262 327 0.499501
7264 8945 0.142715
7264 8944 0.142715
7264 2669 0.142715
2423 8943 0.199801
2423 8941 0.199801
7260 8940 0.271839
7261 96 0.332993
5511 1626 0.332999
5511 393 0.333002
5511 1211 0.333002
1864 8939 0.124884
1864 155 0.124884
1864 148 0.124884
1864 8938 0.124884
473 632 0.499501
6459 7970 0.124889
5319 93 0.326502
6335 1932 0.142709
7259 8937 0.143392
7259 3955 0.143392
7259 8935 0.143392
7259 376 0.142934
2536 8934 0.141957
7258 89 0.118674
7258 850 0.179092
7258 1121 0.180145
2536 406 0.283917
2536 2710 0.283917
7255 8931 0.332997
7254 8930 0.1665
7254 325 0.333001
7775 519 0.333114
7254 8929 0.1665
7254 946 0.1665
4032 3439 0.199801
8058 3415 0.118566
7255 8900 0.332997
7257 2238 0.249751
7252 3525 0.999002
7250 8917 0.250673
7251 750 0.199789
7251 1628 0.199805
7217 553 0.0998987
7217 89 0.0998989
7774 8 0.166502
6330 3955 0.1665
7246 92 0.499396
3420 2150 0.856288
7246 7313 0.499606
7245 1657 0.998772
7245 5014 0.000230309
7296 2300 0.200085
2502 8958 0.076608
104 8924 0.187755
1352 8924 5.37166e-06
1352 8923 0.171094
2998 40 0.497445
7217 842 0.199798
7823 1460 0.251861
6438 8922 0.999002
2658 777 4.67932e-06
2658 96 0.332201
7242 1065 0.202582
7242 8919 0.204999
7242 8900 2.95829e-06
7241 8918 0.199832
402 8917 0.246901
402 8900 0.246901
7240 8916 0.199801
7240 8901 0.199801
7240 4821 0.199801
7240 8915 0.199801
7239 228 0.167151
7239 227 0.167151
7239 272 0.167151
7233 325 0.999002
7235 8911 0.249751
7235 8910 0.249751
7834 9705 0.1665
7238 2238 0.333001
7234 8909 0.999002
7231 8908 0.999002
1939 8907 0.111
1939 8906 0.111
1939 8905 0.111
7642 3192 0.334499
5567 737 0.332825
7227 795 0.331885
1542 8900 0.00612818
7225 5376 0.332971
7225 8903 0.333016
7323 9013 0.1665
7224 8902 0.999002
1492 894 0.249751
7220 178 0.249757
7220 1018 0.499488
7221 8900 0.836337
7221 4635 0.162666
4693 648 0.333001
4693 8899 0.333001
4693 348 0.333001
7218 2280 0.999002
7217 5376 0.29971
7217 8702 0.299697
7215 8895 0.9988
7211 6775 0.249751
7211 8891 0.249751
4776 50 0.328741
4342 1959 0.19968
4406 6775 0.206751
4406 1342 0.206751
4406 8888 0.206751
4406 87 0.000613918
4406 776 0.17139
7747 344 0.142715
7209 8887 0.499497
1172 7223 0.124904
7209 3700 0.499505
5362 279 0.499501
7208 3633 0.249748
7208 6103 0.249752
5308 5296 0.262691
5308 3343 0.262691
8037 536 0.499459
4963 5921 0.191976
7170 8885 0.332976
7170 294 0.332976
5909 3625 0.999002
7205 4125 0.993321
6952 9376 0.249751
7204 3013 0.00206046
7203 194 0.4672
7203 8884 0.531802
7201 8879 0.199801
7201 8878 0.199801
7199 949 0.499088
7198 199 0.997352
718 921 0.249759
1959 5046 0.199798
2771 5 0.1998
7197 2842 0.249751
7197 8875 0.499501
7197 325 0.249751
7195 3477 0.499501
3002 704 5.72286e-05
7194 8873 0.333001
7194 8872 0.333001
7194 2072 0.333001
1817 2175 0.166501
7193 241 0.124875
7875 802 0.247455
7192 2722 0.00232622
48 2786 0.066286
999 2786 0.155836
7168 8869 0.1665
7168 2620 0.1665
7954 574 0.332992
7191 8867 0.166501
7191 7949 0.166501
7191 5181 0.166501
7168 8866 0.1665
7168 1019 0.1665
7188 4406 0.142715
3905 333 0.13134
7190 8864 0.333001
7190 8863 0.333001
7416 9120 0.999002
1366 8862 0.166697
7189 233 0.143823
7189 2205 0.143823
7189 8823 0.143823
7189 1129 0.143823
7189 8861 0.143823
6091 6379 0.111
7187 8860 0.499501
7186 2579 0.194766
7186 1282 0.194769
7186 40 0.000169141
7186 1207 0.194769
8072 9979 0.249754
7185 233 0.199801
7185 7085 0.199801
1864 393 0.124884
7183 8336 0.166544
7183 632 0.166545
2985 1784 0.1998
7183 8820 0.166545
7362 9063 0.199802
7181 325 0.499501
7181 8857 0.499501
7408 6292 0.111022
2645 2280 0.0555028
7180 8820 0.206103
4116 714 0.0132418
7178 25 0.333001
7178 111 0.333001
7177 8855 0.249751
4697 8853 5.19259e-05
7176 8853 0.329586
7176 40 0.00959574
7176 795 0.329911
7175 8851 0.249755
7175 1774 0.249755
7175 25 0.249736
6091 8739 0.111
185 343 0.333781
7174 8849 0.249701
7173 3351 0.195913
7173 587 0.391826
7169 105 0.333001
7168 7975 0.333001
8056 9949 0.1665
7167 565 0.499273
7173 3013 0.195861
8060 9950 0.199801
7172 1103 0.0859418
7166 2122 0.333001
7166 1124 0.333001
7165 1882 0.142989
7165 348 0.142989
7165 1088 0.142989
7165 3674 0.142059
2674 3351 0.115453
2674 3344 0.574621
7164 7313 0.499501
7164 279 0.499501
7163 795 0.249751
7163 8154 0.249751
4697 6324 0.0527258
7161 8844 0.333001
7161 692 0.333001
7157 8842 0.249751
7157 5448 0.249751
7157 8841 0.249751
6091 9292 0.111
8006 9876 0.333098
7158 1099 0.999002
7156 5181 0.329476
7156 8837 0.329925
7156 40 0.0027357
7155 8836 9.39473e-05
7154 8836 0.993672
7151 696 5.14491e-05
7152 8835 0.333237
7155 325 0.331772
281 9772 0.33301
7149 1018 0.499501
7149 2175 0.249751
7147 571 0.199801
7147 2689 0.199801
1326 2575 0.0998928
7145 8829 0.249751
7148 5704 0.333001
7698 387 0.999002
7143 2310 0.249764
7144 5555 0.999002
7635 9491 0.499501
4324 1333 0.199801
7140 5655 0.1998
7140 3184 0.399601
6997 8794 0.12487
7137 795 0.124888
2604 842 0.1665
397 8820 0.162267
4697 8820 0.478261
4697 3351 0.467964
6006 1462 0.0713572
4031 7935 0.333485
7138 40 0.209976
3161 3496 0.999002
7137 8817 0.249776
7137 50 0.249675
7137 8816 0.124888
7402 696 0.450471
7136 2974 0.499501
1657 41 0.396118
3981 708 0.33046
3981 8803 0.334271
7133 2230 0.484647
7130 5 0.94037
7102 287 0.199801
7102 286 0.199801
7102 241 0.199801
7135 8810 0.124875
7135 193 0.124875
7135 8803 0.124875
7135 8690 0.124875
7128 8808 0.499501
7129 8807 0.12488
7129 66 0.124845
7129 62 0.12488
7131 708 0.999002
7127 1836 0.332999
7127 3875 0.333002
7129 2713 0.12488
7130 2230 0.0586321
7129 2230 0.124879
7129 2673 0.12488
7129 8805 0.12488
7124 8803 0.257519
7126 4259 0.199662
2714 8801 0.333001
2714 8800 0.333001
7125 7919 0.249751
7125 2763 0.249751
7125 457 0.24975
7123 241 0.332621
7124 315 0.257519
7123 199 0.166601
7977 3070 0.333001
7122 8781 0.199801
7121 218 0.999002
7119 96 0.499486
7119 879 0.499517
7118 313 0.249751
7118 6940 0.249751
7117 8792 0.249757
7117 4937 0.24973
6642 8791 0.250559
7392 5769 0.24412
6642 514 0.247326
7733 3596 0.333001
889 3603 0.0963084
889 1973 0.288935
7116 8769 0.200375
7099 1780 0.142699
7115 8789 0.249751
7115 746 0.249751
7114 7288 0.199801
7749 376 0.166501
7103 8784 0.249751
7103 1969 0.24975
7105 604 0.333001
7105 8770 0.333001
7506 490 0.142712
1022 9782 0.249726
7673 604 0.166506
7106 746 0.333001
7106 1785 0.333001
7110 8772 0.199801
889 8772 0.192623
7110 283 0.199801
7110 431 0.199801
7110 8776 0.199801
7108 8768 0.999002
7939 3888 0.19833
7100 8775 0.999002
7099 279 0.285434
7099 218 0.142719
7098 8774 0.166501
7093 688 0.829659
7092 688 0.173765
7097 8773 0.124579
7097 571 0.124579
7097 519 0.373733
7096 4430 0.499501
8052 245 0.166504
7091 8772 0.343389
7096 3525 0.499501
7095 7975 0.249751
7095 571 0.24975
7095 8771 0.249751
7092 8768 0.549921
7091 72 0.30548
7090 926 0.528167
7090 8767 0.470835
4834 2589 0.166548
7088 40 0.000748285
981 40 0.163666
4834 63 0.166546
5062 680 0.0929998
1629 680 0.0887894
7087 8440 0.166503
8011 1200 0.999002
7087 2122 0.166502
7087 3573 0.166503
3053 8763 0.248521
3053 3289 0.248396
7395 5017 0.326596
7169 1060 0.333001
3866 8410 0.142685
3866 385 0.142685
6862 8759 0.501802
7085 4036 0.499385
7085 8714 0.499618
7084 8758 0.199681
7084 105 0.199681
7083 171 0.249751
7083 2238 0.249751
7083 8757 0.249751
481 8756 0.1998
2008 8 0.333001
2008 2565 0.333001
3360 4698 0.333001
3360 335 0.333001
3375 8754 0.249731
7988 2966 0.126524
7309 8992 0.200063
7391 8004 0.199801
5048 2294 0.124875
3383 1395 0.0998515
7082 1395 0.000109993
7082 50 0.199757
7082 4573 0.199784
7082 6851 0.199784
655 9245 0.0832588
1573 8745 0.210936
7415 9119 0.166502
711 1659 0.999002
7086 7729 0.112137
7080 2404 0.999002
7078 8740 0.332999
7078 7830 0.332999
7076 8725 0.1665
737 8725 0.0605137
3053 8737 0.248502
428 111 0.104892
3130 8 0.333002
4212 61 0.333001
7997 3123 0.499501
4212 8732 0.333
5809 5 0.0908411
7942 565 0.199801
7076 608 0.1665
7076 885 0.1665
7075 696 0.249736
7075 3298 0.249756
7074 1558 0.111007
7074 575 0.111007
7074 295 0.111004
7074 3174 0.111005
7074 77 0.111007
7074 7960 0.111007
7074 8718 0.111007
7074 96 0.110954
7073 8734 0.200656
7073 40 0.196379
7073 8733 0.200656
7072 3909 0.499501
7072 8731 0.499501
7071 8650 0.499501
7071 8730 0.499501
7069 8728 0.999002
7067 8725 0.0119367
7066 8724 0.249751
7066 8723 0.249751
7066 8722 0.249751
7065 8721 0.999002
7063 8717 0.333001
4290 9886 0.199794
7061 5882 0.061264
7060 5882 0.000446064
7058 1680 0.199795
2601 1124 0.999002
7058 737 0.19982
7054 737 0.999002
7055 8707 0.494291
7055 8706 0.494291
7052 96 0.331428
7051 1103 0.111
7051 218 0.111
7051 4045 0.111
7820 759 0.11111
7051 8517 0.111
7050 8700 0.999002
7283 882 0.249751
7575 3331 0.333119
7049 8699 0.333001
2839 185 0.249805
1062 8698 0.249751
360 96 0.186417
360 164 0.227039
360 118 0.131437
3746 94 0.199801
7047 3028 0.199833
5824 9407 0.249751
7046 2238 0.333001
5900 1019 0.166495
5900 1207 0.166495
8040 9917 0.199801
1199 2721 0.221972
5900 2721 0.166521
4613 9132 0.13871
5900 8 0.166495
375 3351 2.07801e-05
7045 3644 0.499501
7567 737 0.597796
7043 2626 0.249751
7568 3320 0.500163
7044 737 0.149887
7041 8687 0.199801
7041 3858 0.199801
7041 8686 0.199801
281 224 0.332982
7036 511 0.399602
4000 4550 0.200155
7039 704 0.349558
7038 3644 0.333004
7035 737 0.306316
7035 8680 0.346343
7034 8679 0.333114
7034 849 0.333114
7869 799 0.249751
7032 164 0.249751
7032 7108 0.249751
7033 3323 0.199801
7033 849 0.199801
7032 991 0.24975
374 704 0.1665
3248 8676 0.0657245
1440 4621 0.251059
7576 625 0.294107
7031 8670 0.499499
7030 6340 0.333
7847 9722 0.333001
7029 2113 0.333001
5603 8663 0.199801
297 7422 0.33353
297 8662 0.33708
7028 737 0.00742677
7027 8661 0.199696
7027 4011 0.199696
438 603 0.202531
438 8659 0.202532
7026 8657 0.998987
5856 8656 0.199801
7884 245 0.999002
5856 8655 0.1998
2114 8654 0.166495
8052 127 0.166484
2114 227 0.166495
3411 2730 5.50413e-06
6269 1032 0.249812
560 7957 0.24975
2408 8652 0.110767
7022 1725 0.142715
7548 2657 0.199806
7408 9107 0.111022
7022 8605 0.142715
2408 8644 0.221534
7022 63 0.142715
7025 574 0.499501
7021 8643 0.200636
7021 8642 0.200636
7021 8641 0.200636
7021 8640 0.200636
7019 8639 0.999002
7530 704 0.199683
7018 8638 0.999002
7017 8637 0.39041
3072 7346 0.0772066
7020 66 0.999002
7014 66 0.333001
7021 8630 0.196457
7017 8630 0.218183
7015 8630 0.999002
7012 96 0.249374
7012 8628 0.249876
7013 927 0.333
2408 927 0.221534
7013 8627 0.333001
7011 8626 0.251067
7011 1735 0.251067
7483 4178 0.249514
7010 2433 0.249733
7010 604 0.249733
7010 4671 0.249733
7009 1118 0.333001
4050 4829 0.392201
4050 4259 0.392201
6999 5463 0.285428
6999 4658 0.142714
6999 8619 0.285428
7005 8617 0.499298
7005 8616 0.499298
7005 1395 0.000406919
7004 8615 0.499705
5214 8614 0.199117
7006 696 1.34127e-05
7003 1481 0.333002
7397 376 0.249751
7001 8608 0.499501
7000 8607 0.249777
7000 1103 0.249777
6845 8606 0.249751
5855 8604 0.142717
8032 544 0.199992
5855 8603 0.142717
6845 927 0.499501
2120 4011 0.201101
2120 8602 0.201101
6999 8601 0.142719
976 8601 0.332994
2120 792 0.201102
6996 201 0.166512
6854 7326 0.499501
6996 6379 0.166498
6996 8599 0.166498
6996 2154 0.166498
6331 203 0.2002
6331 5766 0.2002
3477 2305 0.330987
6995 1162 0.1665
5037 4120 0.166489
7378 9078 0.111
7559 9352 0.167761
6991 4203 0.499501
6991 1815 0.499501
6989 8594 0.499501
6989 5759 0.499501
6988 8585 0.999002
7495 704 0.122238
3477 8593 0.00603969
7603 1820 0.333001
956 8591 0.820926
7648 40 0.00105799
2813 519 0.664363
6986 8588 0.999002
1819 8587 0.201795
6983 5328 0.333001
6983 8586 0.333001
6983 8585 0.333001
5164 7109 0.199801
7931 4067 0.424277
2969 8583 0.0993189
5164 6327 0.199801
7626 523 0.999002
6982 8582 0.333001
6982 5240 0.333001
6982 8581 0.333001
6981 88 0.332999
5471 8578 0.125905
1748 8577 0.090818
8044 218 0.250574
6976 155 0.110993
6976 8573 0.111001
6976 585 0.111001
4761 9735 0.166545
6978 1032 0.333001
5574 1535 0.1998
6971 8569 0.111
6971 8568 0.111
6972 8567 0.199801
7577 273 0.132331
6972 8566 0.199801
7683 92 0.199564
6973 737 0.999002
6971 8564 0.111
6970 4743 0.24975
6970 108 0.249751
6968 7853 0.24975
6969 335 0.1665
6969 7533 0.1665
6969 3753 0.166501
7674 9959 0.166504
4455 6034 0.199778
4640 3662 0.74003
7165 194 0.14204
8064 2774 0.332986
3825 6167 0.199761
6968 205 0.749252
3633 8561 0.999002
3310 8561 0.113557
2423 2608 0.199801
6684 4123 0.249751
5261 8556 0.499505
6964 8555 0.332925
3794 260 0.249751
6965 8554 0.199801
6963 6634 0.333014
6963 5692 0.332974
6962 83 0.999002
6961 8553 0.199801
6961 8552 0.199801
6961 8551 0.199801
3245 8549 0.199801
3245 8548 0.199801
6941 1938 0.200066
4618 1022 0.0770581
6941 258 0.200065
6958 7915 0.197804
6956 8530 0.250601
6955 7978 0.333002
6955 8544 0.333002
6954 8543 0.249751
6954 8542 0.249751
6954 413 0.24975
6954 8541 0.249751
7796 9657 0.199801
4455 5809 0.199993
7910 1783 0.200382
6951 8539 0.499501
6950 8536 0.199802
6949 216 0.142827
7241 2865 0.199832
6949 40 1.01807e-05
7487 105 0.249751
8008 6 0.996006
6947 8533 0.166591
6947 1371 0.166033
6947 7927 0.166595
6946 8518 0.999002
5450 726 0.128059
7179 714 0.553623
6944 8532 0.199835
6944 8531 0.199835
6944 1371 0.199834
6944 8528 0.199835
6943 8530 0.166501
6943 118 0.166501
6943 8528 0.166501
6942 8527 0.499501
8006 9874 0.166494
7594 9417 0.499461
7037 887 0.199801
5516 1774 0.0907954
5516 273 0.0907955
5516 8525 0.0907955
8072 9978 0.249754
2362 850 0.249613
7834 111 0.1665
6934 488 0.208584
6934 289 0.208584
6934 354 0.208584
3914 338 0.70639
842 308 0.664796
6934 2455 0.208584
4342 4156 0.19968
6938 8523 0.251351
6938 8517 0.251351
6938 5 3.03902e-05
6938 850 0.24492
6937 8521 0.106992
6936 376 0.166501
6936 8520 0.166501
7883 1561 0.333001
6659 8517 0.232097
6934 8517 0.164665
6933 1448 0.19977
1959 8876 0.199801
7799 105 0.290411
7754 105 0.999002
5831 8625 0.376968
7737 104 0.429617
6929 8513 0.333001
6929 8512 0.333001
6928 8511 0.999002
6927 8510 0.333001
6927 6294 0.333001
6926 8508 0.00111298
6924 155 0.199785
6924 102 0.199785
6924 771 7.96165e-05
7243 8923 0.999002
6922 104 0.333001
6919 1449 0.199723
6919 1274 0.000389212
6919 3027 0.199723
1366 127 0.166697
6920 604 0.332683
6920 4856 0.332683
7174 325 0.249701
6918 8500 0.333001
6914 8499 0.999002
5175 118 0.289395
6916 8497 0.333001
6915 1587 0.249751
6915 692 0.249751
6915 7309 0.249751
6915 633 0.249751
6913 8495 0.199801
6913 8494 0.199801
6913 3073 0.199801
6913 8493 0.199801
6913 5382 0.199801
6912 2242 0.39841
6912 8492 0.398412
2423 92 0.1998
6911 8488 0.00278354
6910 8488 0.999002
2114 4804 0.166528
3886 273 0.166476
6909 8487 0.499501
6909 8486 0.499501
3989 8485 0.249689
6908 3084 0.249751
1217 927 0.111175
6907 8482 0.1998
6907 8481 0.199801
6907 6526 0.199801
6907 8467 0.199801
6113 2721 0.998953
6906 1021 0.251016
6906 1405 0.245955
6906 8467 0.251016
6905 637 0.248526
6905 1479 0.0061504
6905 8480 0.248529
6905 307 0.248529
6905 4690 0.247268
1229 1375 0.0967485
3778 8479 0.499501
6904 3327 0.4995
7741 68 0.124876
7097 3103 0.124579
6903 40 0.275858
6902 8476 0.499797
6902 295 0.499205
6375 1443 0.00534815
828 7632 0.74922
6901 8474 0.1665
6901 3112 0.1665
6901 3998 0.1665
6042 9475 0.166501
6900 8471 0.24975
6900 1415 0.249747
6900 8470 0.249751
6900 1771 0.249751
4979 991 0.111001
6899 692 0.333001
6897 1443 0.303813
6897 1204 0.218444
6898 8441 0.24975
6896 8465 0.199797
6896 63 0.199797
6896 8464 0.199797
3136 3485 0.332995
7077 8739 0.499478
3458 7447 0.249751
3458 265 0.249751
3458 4454 0.24975
6895 8462 0.332518
6895 8461 0.332518
7367 9069 0.00877282
6894 8460 0.999002
6893 8459 0.999002
6892 1408 0.1665
3522 8456 0.276029
6892 467 0.166501
6891 8455 0.332991
7261 2151 0.333005
6891 8454 0.332991
6561 9451 0.0908189
6891 737 2.93654e-05
6890 8453 0.124826
6890 2003 0.124826
6890 503 0.124826
6890 201 0.000393088
6890 8451 0.124826
6890 2711 0.124826
6890 8333 0.124826
7632 40 0.199891
4500 335 0.499501
6889 8450 0.14269
6889 704 0.14259
6889 1224 0.142691
6889 2694 0.142691
6887 159 0.499464
1099 2727 0.178874
7631 2251 0.199805
6377 4433 0.1665
6377 495 0.1665
6886 8443 0.166501
6886 8400 0.166498
6886 185 0.166501
6886 8445 0.166501
6886 3581 0.166501
3312 2066 0.108824
6885 1992 0.1665
6885 632 0.1665
7291 268 0.33299
6885 8444 0.333001
6884 185 0.333001
4030 185 0.249735
6884 1879 0.333001
6883 2920 0.166501
6883 289 0.1665
4026 4821 0.499501
4026 8442 0.499501
1514 8441 0.12637
1715 2055 0.171846
4058 471 0.229407
1099 1929 0.0894407
6882 1929 0.248965
6882 8440 0.248966
6882 1978 0.00314026
5786 1978 0.197779
6880 8439 0.333001
6881 8438 0.142809
6881 8437 0.142809
6881 8436 0.142809
6881 737 0.284956
6881 8435 0.142809
6881 801 0.142809
7942 9820 0.199801
1099 261 0.103942
7033 8677 0.1998
6870 200 0.119625
6921 8489 0.961483
1715 4812 0.171846
6428 2725 0.499501
6878 704 0.199799
7007 608 0.1665
6878 8433 0.199801
7945 263 0.00031115
6878 8432 0.199801
1735 8429 0.125015
6876 8427 0.333001
6876 8426 0.333001
6877 8425 0.111
6877 2003 0.111
3705 902 0.399574
5884 2236 0.510723
6877 1676 0.111
6877 8424 0.111
3746 7859 0.199801
6877 1674 0.111
7497 5053 0.142715
7420 9134 0.333001
6877 398 0.111
6877 8423 0.111
6877 150 0.111
6874 8422 0.333001
7396 711 0.249751
6874 4586 0.333001
6873 93 0.499501
7483 9228 0.249514
2248 8957 0.16649
7199 244 0.499915
1715 27 0.171858
1723 27 0.00529405
517 596 0.117096
4058 7068 0.166253
1099 8416 0.537301
716 3326 0.221727
7776 9634 0.343057
4171 5082 0.332752
6872 1107 0.111
6872 7189 0.111
6872 63 0.111
6872 8418 0.111
6872 6526 0.222001
6871 6471 0.332977
6871 8417 0.332977
6871 2236 0.332975
6870 2236 0.114127
6871 6526 7.45073e-05
517 8416 0.11615
6870 8416 0.406434
6869 8415 0.333
6868 8414 0.142715
6868 121 0.142715
6868 8413 0.142715
6868 8359 0.142715
7827 4632 0.111
7786 630 0.249751
6865 6521 0.333001
6865 8337 0.333001
6866 96 0.199678
6866 853 0.199831
6866 8411 0.199831
6866 8410 0.199831
3349 3591 0.199229
7979 9857 0.999002
3709 4147 0.333001
1855 6597 0.199635
3709 3808 0.333001
3709 317 0.333001
6864 155 0.1998
6864 4077 0.199801
7864 801 0.124762
6864 6267 0.199801
6863 8409 0.199801
6863 72 0.1998
6863 8407 0.199801
7187 7940 0.499501
3459 8403 0.499418
3354 8403 2.71092e-05
6860 4325 0.249751
2299 8402 0.199804
7174 226 0.2497
2299 490 0.199805
2299 279 0.199805
2299 2836 0.199783
6860 447 0.249751
7503 3894 0.333001
7907 574 0.111135
5142 8391 0.142693
2839 9147 0.249805
7968 949 0.332817
6858 8398 0.124877
6858 609 0.124874
6858 8397 0.124877
7412 5978 0.1665
6858 6212 0.124867
5032 175 0.173265
6857 7185 0.249751
7456 922 0.124875
6638 8394 0.252631
6638 737 0.241111
6856 8392 0.333001
7427 339 0.1998
6856 8391 0.1665
6855 8390 0.999002
6853 188 0.499501
1852 1360 0.120966
7810 325 0.249751
3783 8383 0.999002
6849 849 0.12493
6849 4358 0.124932
6849 8 0.12448
6849 245 0.124932
6849 8380 0.124932
6849 258 0.124932
6848 8379 0.666002
7022 8646 0.142715
6846 118 0.998743
620 8376 0.499501
7976 1418 0.166501
6844 8375 0.166565
4601 1410 0.51226
6842 8374 0.142717
7183 185 0.16628
6840 340 0.258273
2943 1629 0.0518982
7407 1601 0.111
3298 8372 0.000772218
3298 737 0.332495
3298 8370 0.332868
6843 1377 0.333001
6843 8369 0.1665
2804 8368 1.2457e-05
7907 198 0.111135
3127 8367 0.124875
3127 519 0.124875
6842 6596 0.285434
6841 5647 0.327748
2804 8364 0.511816
6841 8364 0.327738
2804 3814 0.487174
6841 3814 0.343516
3127 3219 0.249751
6840 8361 0.516546
5048 8360 0.124875
5048 8359 0.124875
6839 8357 0.124875
6839 8356 0.124875
6839 8355 0.124875
6839 8354 0.124875
6839 5367 0.124875
3315 5748 0.285422
993 8353 0.206168
993 8336 0.206168
3398 1378 0.200084
7097 1371 0.126955
3398 849 0.200084
2570 4073 0.249751
6837 4802 0.199802
6820 2235 0.998863
6837 57 0.199802
6837 952 0.199802
7044 5401 0.121302
6835 8344 0.499501
6834 8343 0.333002
6834 4210 0.332999
6832 8342 6.11509e-06
6832 1770 0.167548
4620 8339 0.50865
6832 8339 0.161249
6832 8338 0.16755
1700 8337 0.573937
6831 888 0.199801
6832 8336 0.16755
6831 8336 0.199801
6829 4349 0.999002
6830 4178 0.166584
6830 66 0.166585
6830 1815 0.166585
6830 8332 0.166585
3188 1103 0.000407246
3188 8329 0.332832
5804 8328 0.000396547
5804 3476 0.264331
6828 8327 0.332989
6828 1207 0.332989
6828 6235 0.332989
6828 105 3.47495e-05
6827 105 0.497764
6826 1108 0.333001
6826 1931 0.333001
6825 108 0.249748
6825 8325 0.249748
6825 66 0.249748
1566 5893 0.126108
2332 7942 0.666064
6823 393 0.333001
6823 2063 0.333001
6823 94 0.333001
6821 1079 0.199801
6821 8324 0.199801
6822 8323 0.249751
6822 8322 0.249751
6822 8311 0.249751
1938 9374 0.166513
6821 4679 0.1998
7554 604 0.11101
338 4087 0.332996
7332 385 0.124875
6488 8319 0.24975
6488 118 0.24975
6819 7855 0.142819
6819 8317 0.142819
7955 6227 0.166487
6819 1561 0.142819
6819 245 0.142819
6819 8316 0.142819
2934 8316 0.0891856
6819 108 0.142819
6818 7424 0.499501
4582 3291 0.143061
6804 5675 0.194949
6804 1970 0.0243121
6804 8315 0.194949
6818 777 0.499501
6816 8314 0.142715
6816 1077 0.142715
3964 3785 0.200171
6815 8310 0.999002
7887 2502 0.17622
7894 9761 0.200116
6814 256 5.13908e-05
5164 3525 0.199801
6814 105 0.249736
6814 66 0.249739
7279 561 0.249751
6950 1657 0.199797
6878 8434 0.199801
6813 8309 0.14273
6813 1077 0.14273
6813 591 0.142729
6813 7787 0.14273
3577 1910 0.19962
6811 7077 0.999002
6810 557 0.14257
6810 8306 0.142757
6810 8305 0.142757
6810 401 0.142757
6810 635 0.14265
6809 8304 0.199803
7672 10 0.251791
7195 8816 0.499501
4455 949 0.199778
6808 8273 0.1665
6808 8301 0.1665
6808 8257 0.1665
5030 2721 0.499501
6807 94 0.999002
6806 8299 0.199801
7971 9844 0.703851
6806 3677 0.199799
6804 5924 0.194949
6803 4622 0.999002
6802 4563 0.49669
6802 2069 0.49669
6801 8297 0.199787
6801 8296 0.199787
7427 1524 5.17864e-06
6801 3567 6.94126e-05
6801 1725 0.199787
7094 8769 0.494723
3577 256 0.000900413
6798 8292 0.499501
2869 1256 0.174361
6799 8289 0.249751
625 354 0.143352
6799 536 0.24975
6852 6179 0.249751
6794 3323 0.166501
6794 8263 0.166502
6794 706 0.166501
6794 1792 0.166495
6794 5569 0.166502
6794 8281 0.166502
6793 8280 0.249751
6793 1371 0.249751
6793 4111 0.249751
7086 2917 0.224274
7922 245 0.111001
6792 5702 0.971204
6791 40 0.0105994
6791 3591 7.97793e-05
3705 3591 0.399629
5984 379 0.333001
6790 8277 0.499501
7269 218 0.1665
7938 9811 0.1649
6789 5416 0.499501
6788 8276 0.199803
6788 5404 0.199792
6787 8274 0.166567
6787 2721 0.332736
6786 5723 0.999002
6799 8290 0.124876
6936 231 0.1665
6784 8271 0.499501
60 3344 0.124875
6783 4821 0.333001
7946 9825 0.124875
4565 4325 0.136862
6781 8268 0.249751
6781 4696 0.249751
6781 221 0.249749
6781 8267 0.249751
6780 8266 0.999002
6779 8265 0.1998
6778 8263 0.199801
6778 1013 0.199801
6778 4829 0.199801
6778 8262 0.199801
6777 66 0.499501
6777 8261 0.499501
6775 8259 0.199942
7984 1200 0.998468
6775 8257 0.399178
7870 5221 0.249443
6774 8256 0.999002
3322 7408 0.333131
6773 41 0.000416019
6773 8255 0.499293
6773 200 0.499293
6771 8252 0.124875
6771 1807 0.124875
8071 9977 0.111
6771 8238 0.124875
6769 737 0.142457
6769 8251 0.285515
6769 1162 0.142758
387 290 0.124865
6551 8166 0.111081
6551 8235 0.111081
5290 8592 0.333001
7174 72 0.00019967
6766 105 0.0012431
6761 8243 0.0913751
6760 969 0.999002
6762 218 0.249753
6762 8235 0.249753
6758 8240 0.249755
6758 96 2.30402e-05
6757 56 0.124875
6757 8238 0.124875
6757 50 0.124875
6757 859 0.124875
6755 8237 0.499501
6733 5289 0.249451
6595 1085 0.249606
6596 574 0.351106
6595 8235 0.249604
1652 8234 0.142715
1173 8233 0.499501
8070 9972 0.499502
7820 62 0.11111
6754 8231 0.999002
6753 8230 0.111
6753 8229 0.111
6753 8114 0.110999
6753 35 0.111
6753 1019 0.111
6753 662 0.111
6752 150 0.249745
5148 8227 0.333001
5148 90 0.333001
3993 8225 0.999002
2337 623 0.323586
4220 1418 0.999002
6727 3631 0.16663
6727 105 0.165852
6749 767 0.499497
6748 8164 0.249751
6748 279 0.249751
6746 8224 0.124876
1741 9461 0.142714
5626 142 0.332996
5626 2864 0.332994
6746 907 0.124876
6745 142 0.166501
6745 3955 0.166501
6745 8155 0.166501
6744 4065 0.333053
6743 3130 0.999002
6742 7941 0.268641
6742 291 0.268642
6741 7529 0.199801
6741 8220 0.199801
8061 9961 0.199801
6741 8219 0.199801
6740 8218 0.142726
6740 279 0.285452
6740 8090 0.142646
6738 5419 0.247308
6738 2552 0.250565
6739 8217 0.249751
7569 437 0.24973
6737 4864 0.332527
6737 40 0.00142073
6737 493 0.332527
6736 128 0.199801
6733 72 0.250686
8061 9952 0.199801
6734 8209 0.333001
6731 5289 0.332934
6728 605 0.333004
6728 8086 0.333004
6725 22 5.90545e-06
4821 8198 0.249939
2632 8198 1.33949e-05
6098 92 0.332615
6098 8197 0.332621
6098 503 0.332621
6724 406 0.552187
6723 35 0.1665
6723 325 0.166501
7404 284 0.333001
6722 3106 0.249751
3702 9527 0.249755
6721 8143 0.499501
6720 8193 0.499501
6720 1829 0.499501
6488 8318 0.249751
6719 92 0.49926
5740 8191 0.999002
6668 8066 0.249752
6668 3877 0.249752
6718 2658 0.333001
6718 704 0.333001
6717 8189 0.333001
6717 8188 0.333001
6716 105 0.999002
6714 8187 0.999002
6712 8186 0.999002
6710 8170 0.634145
4799 8748 0.1665
6707 8185 0.333001
7381 8 0.499501
6701 704 0.332954
6700 8182 0.999002
6704 1049 0.164865
6703 8179 0.190172
6706 108 0.249751
6706 772 0.249751
6706 1360 0.249751
6706 203 0.249751
6692 497 0.16747
6692 1800 0.16747
6692 2864 0.167448
6692 1272 0.161674
6654 3131 0.973286
5791 5603 0.249884
5791 431 0.249352
5791 61 0.249884
6695 8174 0.49618
6654 8174 0.0257166
6694 8171 0.252944
6694 40 0.240171
6694 3430 0.252944
7748 2235 0.499501
6691 218 0.166538
6929 8514 0.333001
6691 3255 0.166538
6691 3075 0.166538
6791 8279 0.378828
4799 8747 0.1665
6791 8278 0.378828
6689 8166 0.999002
6687 8164 0.998881
6687 2220 0.000121784
6686 2220 0.999002
6685 2220 0.000926737
6685 8163 0.332692
6685 1208 0.332692
6683 8162 1.33539e-05
6683 8161 0.249747
6682 581 0.333279
6683 8160 0.249747
6683 8159 0.249747
4953 575 0.333001
4953 440 0.333001
4953 947 0.333001
6680 8157 0.199801
6592 8156 0.499502
6679 8114 0.1665
6677 1333 0.333001
6787 15 0.166567
6971 6904 0.111
6672 8152 0.499501
6673 6204 0.999002
6255 1063 0.28543
7184 215 0.499501
6669 8150 0.199801
3364 9313 0.499501
7078 8727 0.332999
6669 8149 0.199801
6671 96 0.499372
6665 8148 0.249751
5893 1782 0.124876
6943 494 0.166501
6663 1725 0.499491
721 241 0.101178
3632 127 0.124875
5893 8090 0.124876
7876 3070 0.24975
6664 1212 0.999002
6662 8146 0.199661
6825 8256 9.67854e-06
6662 8145 0.199661
7941 9819 0.000861478
6658 8144 0.33223
6658 40 0.00231272
6657 8141 0.999002
6377 272 0.1665
6655 8138 0.999002
6653 8137 0.249751
6653 2923 0.249751
6652 2606 0.333373
7321 1558 0.999002
4501 500 0.111013
4501 96 0.221884
4501 155 0.111012
7022 4457 0.142715
6713 8187 0.499612
6650 640 0.19866
6650 8133 0.19866
6574 35 1.33405e-05
6649 8132 0.251158
6649 1249 0.251158
6649 8131 0.251158
146 155 0.00158511
6647 4827 0.972115
6645 8130 0.333001
6645 8129 0.333001
6645 8128 0.333001
6644 272 0.111389
6646 8127 0.0423151
6644 2235 0.111569
6644 2072 0.111569
6644 155 0.111569
6646 3123 0.956687
6643 8124 0.197663
6643 8122 0.210314
6641 8122 0.391887
6641 8123 0.202422
6641 27 0.202272
2077 90 0.225765
6639 90 0.0223886
6639 8122 0.651076
6639 415 0.325538
517 471 0.413067
6638 7716 0.378947
6637 3017 0.249751
6637 8093 0.249751
6637 798 0.249751
6637 393 0.249751
6636 83 5.11819e-05
6635 8119 0.999002
6633 8118 0.499503
6632 2562 0.249751
6631 8116 0.333001
6631 8115 0.333001
6629 8114 0.999002
6628 8114 0.499712
6627 3 0.499501
6627 285 0.499501
6626 8113 0.142715
6626 497 0.142715
4457 8110 0.499404
6625 8110 0.000389036
6374 5447 0.199801
6625 8109 0.998613
6623 3148 0.249751
7002 340 0.199801
6623 3638 0.249751
6624 8108 0.499501
6624 68 0.499501
6623 41 0.249751
6621 3263 0.166885
6621 1060 0.166888
6621 4392 0.166888
6621 8107 0.166888
6622 8105 0.999002
6621 8105 0.164565
6599 1959 0.166501
6599 1377 0.166501
3572 1558 0.0999772
8058 9954 0.118566
7449 440 0.142715
6619 96 0.249645
6619 8090 0.249786
6619 574 0.249786
6618 8102 0.263242
6618 8101 0.263242
6618 1774 0.209276
6566 8099 0.137513
6617 7705 0.333001
6617 1959 0.333001
6613 3699 0.199801
6613 8097 0.199801
6613 3697 0.199801
6615 3800 0.499501
6602 2703 0.477919
2355 8082 0.1011
6610 1371 0.142726
6610 621 0.142726
6614 2242 0.999002
6610 2242 0.142726
6610 8093 0.142726
6609 8091 0.998945
6609 2238 5.71769e-05
6608 1735 0.525797
6607 8089 0.249752
6607 5510 0.249747
6607 2722 0.249752
6605 8088 0.499501
1674 9368 5.79066e-06
2195 1199 0.41603
6603 7029 0.0545851
7736 2256 0.199806
7271 8961 0.99895
6604 325 0.166501
4952 2810 0.999002
726 272 0.199916
6600 118 0.0116026
6599 272 0.166498
1649 272 0.181666
6310 680 0.3996
6598 3130 0.999002
6601 1272 0.249751
6602 8082 0.521084
6601 325 0.249751
6601 8081 0.249751
7126 2713 0.199662
6593 696 3.8538e-05
6593 8077 0.63329
6593 737 0.365674
6591 8076 0.999002
6589 8074 0.499501
6596 127 0.216107
6588 8073 0.199801
6588 32 0.199798
6588 8072 0.199801
6586 8070 0.998982
6585 8069 0.999002
6584 696 0.770235
6584 8068 0.228767
6582 8068 2.3767e-05
901 15 0.212375
6580 6030 0.243908
6580 8066 0.251695
6580 8065 0.251695
6579 2694 0.999002
6577 8064 0.333001
6577 1103 0.333001
6576 8062 0.249326
6576 43 0.00169694
6573 8060 0.999002
7360 8 0.1665
7357 8 0.249749
6572 325 0.666002
6571 8058 0.999002
6569 569 0.333001
6569 7277 0.333001
6568 991 0.499501
6568 7722 0.499501
6564 8057 0.249753
7227 5014 0.501175
6564 1518 0.249753
6564 8055 0.24974
6563 218 0.999002
6567 2242 0.279229
6566 8054 0.137527
6567 8053 0.357314
6567 2238 0.0830109
6562 8051 0.1665
6548 38 0.248493
6548 1676 0.124269
6524 354 0.124899
6561 3052 0.0908159
827 7344 0.199802
6560 3622 0.199864
6560 8048 0.199864
6559 77 0.327772
6560 7246 0.199548
6559 8047 0.327911
6557 1414 0.999002
6556 7344 0.1665
6556 8043 0.1665
6556 5769 0.166501
6555 8041 0.333001
6555 325 0.333001
6555 8040 0.333001
6552 7350 0.166501
6552 7370 0.166501
6552 8038 0.166501
2213 7426 0.142715
8025 9893 3.1451e-05
1008 4025 0.254125
6524 8034 0.1249
1025 8033 0.333001
5809 795 0.181682
5809 8032 0.0908411
7051 8701 0.111
5809 1007 0.0908411
5809 1006 0.0908411
6551 7527 0.111081
6551 7526 0.111081
6551 997 0.222163
4039 1414 0.131038
6551 16 4.42448e-06
2908 40 0.0805792
3150 759 0.199885
3150 379 0.199903
3150 204 0.199886
2236 415 0.20398
4426 41 0.2284
574 8024 0.109608
4018 1272 0.999002
3113 376 0.1664
6549 7521 0.142715
6549 8023 0.142713
6548 8023 0.12427
6549 325 0.142715
6549 8022 0.142715
312 204 0.333001
6549 7520 0.142715
6546 4784 0.199804
6546 5 0.199804
7978 7381 0.399278
6546 1765 0.199804
4992 991 0.499501
4992 5965 0.499501
6545 2329 0.199801
6545 754 0.199801
6545 8019 0.199801
6545 1894 0.199801
6545 567 0.199801
6543 217 0.332991
3566 1812 0.000259872
3566 343 1.93417e-05
6775 200 0.199942
6544 1484 0.199787
6543 1484 0.33302
6544 4033 0.199805
7326 604 0.111002
6540 3848 0.333001
5675 777 0.231885
6540 8017 0.333001
6542 1077 0.1665
6542 2849 0.1665
6542 7992 0.1665
2597 3 0.499502
6541 8012 0.333001
6541 8011 0.333001
6539 8 0.199801
6538 8010 0.249751
6538 415 0.249751
6538 7991 0.249751
1673 8009 0.12488
5894 85 0.281957
1673 8008 0.12488
6758 8239 0.249755
6535 2720 0.124893
7089 216 0.999002
6535 450 0.124893
6535 41 0.124893
6535 8007 0.124893
6535 3952 0.124893
6535 388 0.124893
6535 1007 0.124893
6535 692 0.124751
6536 218 0.999002
5387 907 0.090839
5387 1172 0.090839
6534 200 0.111
6534 98 0.111
6534 1863 0.111
5056 4392 0.243939
5387 2131 0.181678
5387 7999 0.272517
6532 2150 0.499501
774 927 0.111637
874 1460 0.169089
5387 692 0.181453
874 8003 0.169089
6143 7999 0.142714
236 4942 0.166974
7629 9484 0.499498
236 218 0.166974
236 6597 0.166974
7957 9836 0.111114
2312 279 0.248038
6529 4044 0.124876
6529 1019 0.124876
6529 6048 0.124876
6529 879 0.124874
6529 2785 0.124876
6529 29 0.124876
722 887 0.0907843
6528 41 0.332284
401 388 0.28352
401 7231 0.283521
401 1277 0.283521
898 879 0.995377
6524 605 1.21993e-05
6527 7468 0.249352
6527 7995 0.249352
1362 692 0.151768
5629 1410 0.142715
7087 123 0.166503
5629 4067 0.285429
6113 7991 1.42365e-05
6524 7991 0.749192
6362 7991 0.000321836
6362 325 0.199775
6362 7990 0.199726
5074 7988 0.0951389
7967 9846 0.499501
470 7988 0.249362
6839 5296 0.124875
6523 907 0.372899
6522 907 0.279997
6521 118 0.999002
6520 118 4.30066e-05
6519 994 0.333001
6519 571 0.333001
6517 7985 0.499501
7377 6133 0.166501
8038 1013 0.333001
2786 32 0.249751
2786 2993 0.249751
6692 4418 0.16747
6511 8 0.499501
6516 7982 3.56369e-05
3037 7982 0.288357
3037 7980 0.288364
6510 7906 0.333038
6510 7981 0.333038
7880 4829 0.999002
6511 7980 0.499501
5677 8330 0.442344
6507 7979 0.485665
6507 7978 0.513337
6730 988 0.499501
6513 295 0.499501
4572 907 0.000515824
6997 4392 0.12487
1882 9299 0.249569
6512 7976 0.249751
6512 7975 0.249751
6512 1659 0.249751
1418 363 0.0909062
6473 7974 0.199399
7944 185 0.124875
6806 6082 0.199801
6504 604 0.166498
7230 1272 0.249751
6504 4224 0.166498
6504 272 0.166497
6504 7972 0.166497
6503 3666 0.166503
6504 5390 0.166515
6501 186 0.249751
6501 7930 0.249751
6501 279 0.249751
6548 8050 0.124269
6362 927 0.199726
6500 601 0.124875
6500 3468 0.124875
6500 621 0.124875
6498 295 0.333001
6499 401 0.249751
6499 358 0.249751
6499 795 0.249751
6497 3678 0.999002
6496 5017 0.999002
6495 6874 0.199801
6495 4072 0.199801
6494 762 0.499501
2114 8669 0.166495
8058 4573 0.0504844
2114 8668 0.166495
6493 4304 0.1665
3081 450 0.249741
6493 7964 0.1665
6493 7859 0.1665
6493 3075 0.1665
6493 539 0.1665
6490 325 0.499501
7466 5036 0.999002
6487 1006 0.199801
6487 2266 0.199801
7648 9513 0.324334
6486 2044 0.33299
6416 279 0.332872
6763 155 0.999002
6485 272 0.199801
7300 2300 0.599401
7586 1579 0.24975
6484 7957 0.1998
5900 6271 0.166495
6484 3594 0.199801
6484 585 0.199801
6484 798 0.199801
613 850 0.165564
6481 809 0.166501
6481 2939 0.166501
3260 279 9.25075e-05
6483 201 0.499501
6482 810 0.249821
6482 1655 0.24954
6482 189 0.249821
7946 247 0.124875
4267 4068 0.999002
6481 921 0.166501
6481 241 0.1665
5308 8226 0.262691
6481 340 0.1665
7835 7937 0.499502
6480 245 0.499501
6480 3860 0.499501
7949 77 0.499501
6479 7902 0.333001
7832 9703 0.278849
3943 66 0.283309
5493 29 0.249749
6477 2520 0.332993
6476 77 0.333001
6476 307 0.333001
6474 72 0.0618302
6474 40 0.155525
6473 2242 0.00200799
6577 1060 0.333001
6473 2238 0.598197
2388 7948 4.06919e-05
6472 7947 0.199813
6472 2242 0.199779
6472 7946 0.199813
6472 7945 0.199813
6470 7943 0.999002
6446 118 0.249751
6471 3320 0.000578921
6459 3320 0.124834
6736 218 0.199799
1130 335 0.333001
7609 445 0.199822
6462 1836 4.92671e-06
1130 2189 0.333001
2307 1010 0.199801
2307 7942 0.799202
5735 7941 0.333001
7620 9468 0.222012
1778 1932 1.50495e-05
5587 7940 0.251587
6741 8166 0.199801
6468 294 0.200614
6468 7938 0.200614
6468 7889 0.200614
6467 1974 0.333001
7308 2308 0.166289
6466 1207 0.498475
7906 9776 0.499766
6465 93 0.499501
6461 7937 0.199801
6461 7936 0.199801
6437 7934 0.333008
2848 1601 0.199799
6463 7932 0.333001
6464 181 0.249751
6464 2968 0.249751
7616 7339 0.599401
6459 7930 0.37472
6459 4178 0.124745
3647 66 0.199806
7900 9768 2.0276e-06
6456 6109 0.510291
6456 185 0.488711
7355 9056 0.205981
3230 6597 0.124863
2904 63 0.24971
6160 190 0.999002
6005 27 0.14272
6005 29 0.142686
6005 105 0.142719
626 185 0.499501
6005 295 0.14272
1756 7927 0.499498
7669 2433 0.1249
6457 779 0.333001
6454 1813 0.141676
6454 295 0.00257248
6454 2066 0.141677
6454 1121 0.141677
726 5205 0.199916
6455 3678 0.249683
6454 7925 0.283354
6452 4632 0.124856
6452 241 0.124856
6452 1141 0.124856
6452 850 0.124856
6452 64 0.124796
6452 439 0.124856
6485 201 0.199801
959 3459 0.285429
6450 595 0.1665
6450 759 0.333001
6449 3678 0.199778
6098 336 0.00114477
6877 4246 0.111
6448 633 0.1665
1653 319 0.368188
205 4937 0.99897
6449 25 0.199806
7740 7703 0.142715
2985 6030 0.199801
6997 9314 0.249781
6447 7882 0.666002
6445 2502 0.499501
6445 7918 0.499501
7890 5587 0.289029
2287 1045 0.746706
3617 2864 0.492862
6444 2089 0.339521
6444 93 0.351762
6442 200 0.24975
6901 8473 0.1665
6443 825 0.199799
6443 7916 0.199801
6443 457 0.199801
3974 9302 0.333302
6440 592 0.111002
7269 241 0.1665
6440 3525 0.111001
1442 1628 0.0909608
1860 7915 0.146952
7769 4638 0.333
6736 8212 0.199801
7506 9269 0.142715
6433 1995 0.142715
6433 93 0.142715
6433 7910 0.142715
8019 9884 0.17826
6432 387 0.333001
6432 7908 0.333001
6908 8484 0.249751
6431 7905 0.333001
6908 8483 0.249751
7778 7906 0.499501
6427 294 0.166501
6427 2093 0.166501
6430 127 0.317949
6430 25 0.170957
6430 181 0.170032
6430 3011 0.170032
2674 41 0.103458
7575 2250 0.332765
5779 7902 0.473511
1689 7883 0.285446
6426 200 0.999002
6694 83 0.252944
7296 8980 0.199729
6425 189 0.249751
6423 275 0.332967
1895 608 0.332996
6424 621 0.191235
6424 83 0.191235
6424 3525 0.191235
6422 718 0.166589
6448 594 0.333001
6422 3667 0.166582
6422 7897 0.166589
6419 96 0.249703
6419 825 0.249767
6419 7895 0.249767
23 204 0.0767855
6551 8242 0.111081
6417 2647 0.48359
6416 2044 0.66613
6415 118 0.249749
7365 9068 0.333001
6415 62 0.249751
6414 7890 0.499501
7103 3287 0.249751
7849 9724 0.999002
7643 502 0.499501
1323 6597 0.333001
1323 4349 0.333001
6969 503 0.166501
7834 7853 0.1665
6393 193 0.490406
7510 632 0.333018
7112 451 0.1665
7543 9322 0.199801
6650 99 2.41422e-06
6403 7882 0.163175
6403 592 0.163175
6401 7880 0.999002
7686 519 0.200592
3153 9274 0.206166
6397 7877 0.999002
6400 218 0.499501
4123 2089 0.666002
6405 6597 0.999002
7860 9731 0.999002
6392 7875 0.666002
6321 7874 0.286609
6391 1870 0.998184
6391 3667 0.000818325
6395 6597 0.453476
6394 7873 0.854771
6390 2424 0.199764
6390 220 0.19981
6390 1091 0.19981
2157 1655 0.166439
450 3408 0.166546
6387 3174 0.999002
5446 4809 0.166517
6386 3621 0.203733
6352 3621 0.191686
6384 7860 0.320188
6383 4835 0.5314
6386 22 0.203475
6892 5480 0.166501
6381 587 0.999002
6380 96 0.248829
6380 879 0.250058
6379 4789 0.142845
6379 7822 0.142834
6379 750 0.141945
6379 1207 0.142845
6378 7790 0.199848
6378 5 0.199884
5611 7717 0.049891
6376 7870 0.333514
515 4523 0.399667
515 1137 0.199834
3321 1722 0.249749
2673 2150 0.142715
2673 1091 0.142715
2673 7313 0.142715
6356 933 0.333001
7731 2150 0.49948
8014 9880 0.333001
6375 7867 0.993654
6374 150 0.1998
7298 2300 0.173745
2673 7866 0.142715
2673 1060 0.142715
6972 8570 0.1998
2673 1103 0.142715
7326 7166 0.111002
6372 7859 0.124881
6372 795 0.124883
6372 3047 0.124883
5676 7864 0.749252
6372 50 0.249705
7582 9389 0.999002
6370 7861 0.142715
6370 1274 0.142715
6370 7860 0.142715
6370 5742 0.142715
6368 1377 0.499502
6369 879 0.599323
6370 218 0.142714
6502 9266 0.333
6367 539 0.249744
4122 1003 0.499496
847 2886 0.162897
6366 3860 0.749224
3399 795 0.332192
6369 32 0.19984
7232 7726 0.499501
6365 1049 0.333001
6365 7856 0.666002
6364 7855 0.142715
6364 2063 0.142715
6364 7854 0.142715
6974 7496 0.333001
6364 200 0.142715
6364 154 0.142715
5809 388 0.0908411
7839 9711 0.499514
6363 1575 0.1665
6363 7852 0.1665
6363 7851 0.1665
6360 4829 0.999002
6921 8488 0.0375197
6307 7793 0.300416
6307 102 0.300416
6359 2109 0.124879
7196 8874 0.249751
6854 1207 0.499501
6359 7847 0.124879
6359 5590 0.124879
6359 2502 0.124847
135 1812 1.35096e-05
2066 7845 0.333001
6351 118 0.208499
6351 7822 0.208498
6351 575 0.2085
6354 5417 0.332988
6355 565 0.999002
7068 8727 0.999002
6350 7841 0.166807
6350 2320 0.16496
6350 887 0.166778
6349 5 0.998971
6327 355 0.249752
2911 41 0.1665
6295 118 6.66416e-05
6347 118 0.999002
6346 430 0.249751
6345 92 0.142798
6345 7837 0.142798
6345 696 0.142798
6345 7836 0.142798
6345 89 0.142798
6345 96 0.142213
6370 5167 0.142715
6342 2154 0.332999
6342 5 0.332999
7760 9372 0.199801
2117 784 0.666002
6339 3785 0.335954
6338 4087 0.333001
6338 7832 0.333001
6338 7831 0.333001
6337 40 5.87103e-06
6337 7830 0.1665
1877 7794 0.00188215
1877 1019 0.330926
4680 88 0.332273
6336 604 0.159225
6336 7828 0.159225
6336 603 0.159225
6336 7791 0.159189
6336 66 0.159225
6336 96 0.0436875
5504 96 2.61483e-05
5504 93 0.285412
6333 632 0.142715
6333 7826 0.142715
6334 4743 0.199825
6334 93 0.199825
5724 596 0.249646
5724 272 0.249482
5724 7822 0.499528
5724 72 0.000346286
6329 1655 0.249893
6337 87 0.166499
6326 7792 0.749244
6325 2105 0.499502
6326 66 0.249751
6325 4207 0.499501
6897 61 0.158915
6323 5627 0.249751
6323 696 0.24975
8050 1857 0.332995
3247 105 0.249738
6322 3952 0.249748
6321 40 0.425785
6321 1797 0.143304
5463 7815 0.000156792
6316 7815 0.999002
5463 50 5.98745e-05
6319 2457 0.00622499
6318 692 0.499501
6358 8393 0.348666
6317 1319 0.1998
6317 7814 0.199801
6315 93 0.335592
828 573 4.18408e-05
2288 3594 0.14123
2288 5 0.142838
2288 29 0.000767379
6313 29 0.331806
6313 155 0.333598
6313 7813 0.333598
6312 7811 0.111
6312 608 0.111
7962 921 0.142714
6312 4475 0.111
4431 3370 0.245152
6309 737 0.999002
6308 7808 0.271869
6308 544 0.271864
7864 4531 0.124762
6308 798 0.271866
3576 603 0.245268
6306 603 0.00592636
6306 7806 0.249159
6306 325 0.245601
6304 7803 0.520048
5777 8966 0.211217
6303 7802 0.19997
6303 5251 0.19997
6303 7800 0.19997
6302 3877 0.999002
2376 1229 0.499501
6301 7799 0.249751
7988 4531 0.126524
6300 105 0.499374
5504 7793 0.713564
6298 2424 0.166499
6298 7797 0.1665
6342 7717 0.332999
7530 737 4.96444e-05
2253 393 1.05116e-05
6295 7793 0.599385
1587 9779 0.142715
6294 4473 0.999002
6293 5 0.00149538
6290 7791 0.999002
5138 1965 0.399573
6287 7789 0.250192
6288 7787 0.303664
7784 9645 0.166489
6288 4825 0.303664
6898 8466 0.499501
7701 2045 0.999002
236 272 0.164133
236 118 0.333948
6282 7783 0.332866
6282 7782 0.333069
7694 5245 0.170883
6281 737 0.421528
6284 825 0.328566
7660 2053 0.142874
6284 822 0.167821
6282 822 0.333068
6279 7778 0.249751
6323 7819 0.249751
6279 118 0.24975
6279 1788 0.249751
6279 27 0.249751
6277 7777 0.999002
6276 1462 0.999002
6275 5014 0.333001
6274 7774 0.999002
6275 118 0.333
6273 118 0.499187
6273 7773 0.499815
6272 7772 0.1665
6272 5110 0.1665
6272 7770 0.1665
6272 7768 0.1665
6271 319 0.143843
6546 155 0.199787
6268 41 0.199799
4301 798 0.249956
6268 5113 0.399601
6268 171 0.399602
6267 7767 0.499337
6265 7765 0.332767
6267 50 0.499666
6265 3900 0.332675
6263 7763 0.14272
3817 4961 0.1665
6263 3900 0.14272
6263 692 0.14272
6974 8571 0.333001
7454 5792 0.199801
7007 3988 0.1665
6263 1077 0.285399
6331 1819 0.398402
6878 2895 0.199799
1055 7761 0.166501
1055 3186 0.1665
3540 283 0.12485
3540 6362 0.374551
3540 1079 0.12485
2503 56 0.0438557
1055 6165 0.166501
1055 1272 0.166501
6257 4493 0.333001
1881 6362 0.499314
6262 7759 0.333001
6262 7758 0.333001
6260 273 0.999002
6259 319 0.440126
6254 7705 7.40605e-05
6254 565 0.332395
6254 7097 0.332396
6281 7781 0.288737
7914 279 0.199798
6251 981 0.999002
6250 3313 0.250311
6249 1108 0.499129
6250 40 0.000111578
6248 40 0.0120484
6248 63 0.98184
6250 7754 2.01169e-05
6248 7754 0.0051144
6247 7754 0.987266
7103 4829 0.249751
6250 3806 0.247351
6247 3806 0.0117366
6250 7753 0.250311
6250 16 0.000212974
6246 7751 0.999002
3702 50 0.499492
6245 7750 0.142663
6245 6775 0.285325
6245 127 0.285325
6245 7749 0.000411078
6244 7749 0.49878
682 6117 0.1814
6244 7748 0.500222
6245 781 0.142662
3050 7747 0.199785
6243 696 0.332949
6243 7745 0.333002
6241 7743 0.515424
6240 4404 0.762526
6241 737 0.483579
6240 737 0.236476
6236 7742 0.999002
6235 7741 0.332991
6188 40 0.0575013
6234 7740 0.249751
6233 825 0.239011
7733 8402 0.333001
6233 7739 0.506661
6231 77 0.999002
6235 7737 0.333006
6235 2244 0.333006
6234 7735 0.249751
6234 7733 0.249751
6227 4290 0.999002
6226 6133 8.79413e-05
7871 5431 0.147612
6226 5567 0.142698
6226 319 0.142697
6226 127 0.142729
6791 5702 0.230668
6209 802 0.332968
6564 8056 0.249753
6225 118 0.499502
6223 7723 0.999002
6224 7722 0.199801
6224 565 0.199801
6224 4748 0.399602
6221 7721 0.999002
5235 363 0.249751
6224 991 0.199798
612 62 0.251902
6219 991 0.332919
6219 7718 0.333047
6263 7762 0.14272
6217 7715 0.333035
6217 7709 0.332871
7330 7246 0.124875
6559 7246 0.328429
4039 927 0.12401
4912 3777 0.153692
6202 2146 0.249751
6202 1418 0.249751
6208 340 0.332935
6208 777 0.333034
6790 5403 0.499501
6208 503 0.333034
6207 2316 0.333001
6209 7712 0.332968
6205 308 0.499501
7864 4442 0.124673
5893 127 0.124874
6211 1391 0.249717
6211 7709 0.249841
6472 311 0.199766
7037 604 0.1998
6216 271 0.199801
3210 9259 0.0935404
6216 7079 0.199801
6215 2238 0.499337
6207 7704 0.333001
6204 7702 0.999002
6203 6478 0.249751
7046 8694 0.333001
6216 3298 0.1998
6203 3298 0.249751
6769 1564 0.142758
6199 50 0.998726
6200 7700 0.33264
6200 5483 0.332548
6199 5483 0.000276595
6200 1366 0.00117491
6198 1366 0.665609
6531 927 3.96605e-05
4262 2647 0.999002
6197 339 0.345443
6197 336 0.308117
1008 241 1.2432e-05
3961 89 0.0644892
3961 604 0.0644892
3961 1587 0.0644892
7617 27 0.332999
6196 2589 0.200575
1008 7697 0.254125
6195 630 0.199803
6195 336 0.199791
861 308 0.166502
7925 9799 0.199801
2664 325 0.499438
6192 3991 0.249749
6192 118 0.249748
6192 7689 0.249748
6191 1498 0.199793
6191 879 0.199794
6191 2150 0.199794
6191 802 0.199794
6191 40 3.38188e-05
6190 7688 0.333001
766 1460 0.334238
2050 771 0.1665
6745 3130 0.332998
2050 7686 0.1665
2050 355 0.1665
6189 7157 0.499498
6189 1536 0.499504
1410 7681 0.196384
6284 7784 0.167822
4086 90 0.666002
2321 279 0.249749
478 279 0.284863
2321 7246 0.249751
6186 7680 0.250312
6186 2767 0.250312
6186 772 0.125156
5168 3123 0.142933
473 7679 0.499501
1111 7678 0.249754
6185 595 0.210096
5502 198 0.249673
5502 7675 0.249777
7570 111 0.176763
6184 696 0.000582944
5369 1204 2.23835e-05
6182 7673 0.499549
6126 2145 0.166495
6126 5352 0.166495
6126 5225 0.166495
6182 279 0.499453
2154 7261 0.285447
2154 66 0.285447
2360 7672 0.333001
633 1459 0.123678
2337 431 0.0282462
6181 932 0.1665
6181 1759 0.1665
874 1408 0.153138
6181 7671 0.1665
6181 7670 0.1665
6134 7669 0.117082
7728 9580 0.419461
6134 737 0.0830674
3396 201 0.142943
7657 779 0.1665
7302 2300 0.199799
720 27 0.332258
7992 9881 0.199797
720 336 0.0349119
6177 7622 0.1998
6177 761 0.199801
6177 1443 0.199801
6179 417 0.249751
6179 7665 0.24975
3961 1272 0.0539727
6176 7664 0.167079
6176 5017 0.167079
7769 5293 0.166501
6176 283 0.167079
6176 7616 0.163606
6219 7717 0.333036
6176 7663 0.167079
6175 7662 0.999002
6174 731 0.125347
6174 2502 0.121575
470 2502 0.249337
2755 7659 0.0793716
2755 5285 0.0793716
2755 604 0.158743
4065 1428 0.292286
6167 1022 0.124878
6167 882 0.124909
6167 895 0.124909
6166 6413 0.142715
3397 5704 0.499496
6166 4534 0.142715
4190 9956 0.1998
6950 8535 0.199801
6166 22 0.142715
7749 439 0.166501
6169 245 0.499501
6165 1721 0.166098
6165 96 0.165208
6165 479 0.166098
6165 336 0.166098
6165 66 0.166098
6165 574 0.00330552
6164 291 0.16589
6997 50 0.12487
6163 61 0.333001
6162 156 0.167102
6162 151 0.167102
6162 635 0.167102
6162 1983 0.163493
6161 4847 0.142752
6161 1360 0.142752
6161 105 0.142752
7713 2045 0.00191897
1605 1133 0.32584
6161 96 0.14249
6159 7649 0.333001
6159 4504 0.333001
387 201 0.124867
387 98 0.124867
387 29 0.124866
7915 9778 0.999002
6156 336 0.127775
5002 7241 0.166501
5002 7642 0.166501
5002 57 0.166501
5002 7641 0.166501
5002 7640 0.166498
6154 7084 0.333001
362 8328 0.201759
6154 879 0.333001
6152 3830 0.199801
6151 40 0.499414
6152 491 0.1998
6152 87 0.199801
7430 431 0.249751
6152 1507 0.199801
6736 7775 0.199801
6255 9050 0.142715
7350 3 0.111
6149 887 0.144045
6146 7635 0.333001
6146 6435 0.333001
6145 906 0.249463
7757 431 0.0327157
6149 574 0.144042
6145 574 0.249496
6144 1008 0.165944
6144 7633 0.165828
6144 544 0.165944
6142 7631 0.333001
8067 1824 0.142715
6144 40 0.00345504
5916 40 3.17599e-05
6144 1478 0.165944
6140 7261 0.199801
6140 7611 0.199801
6139 1438 0.169409
7569 1314 0.24973
6139 850 0.169409
6139 66 0.169409
6138 7630 0.999002
6139 190 0.151956
6137 7629 0.249751
6140 1350 0.1998
6137 7628 0.249751
6133 7627 0.111
6389 2720 0.499501
6133 575 0.111
6761 737 0.633502
311 275 0.166522
1164 730 0.249751
7043 2699 0.249751
6131 1478 0.16649
6130 7622 0.199802
6131 7615 0.166502
6659 4821 0.383453
6144 2767 0.165944
6130 200 0.199802
6128 7621 0.1665
6128 7620 0.1665
6870 29 0.119617
6128 7619 0.1665
3572 2063 0.0999771
6126 1478 0.166499
6130 604 0.199802
6130 1448 0.199801
6129 7618 0.142715
6271 27 0.144975
6129 7617 0.142715
6129 4454 0.142715
6128 5651 0.1665
6128 294 0.1665
6128 241 0.1665
6127 708 0.333001
6125 7615 0.499501
6124 3698 0.142715
6124 7614 0.142715
6124 1272 0.142715
6124 3243 0.142715
6124 7613 0.142715
6124 7612 0.142715
6123 7611 0.199795
6424 5050 0.191235
6123 7608 0.199802
6118 7606 0.624342
6117 7605 0.999002
3856 7499 0.0224195
6116 1368 0.124875
7714 9578 0.499504
823 7601 0.199801
6115 7601 0.503278
6115 7600 0.495724
6063 7600 0.0147952
6063 283 0.984207
7499 961 0.333001
6114 1546 0.16648
6114 7599 0.166505
6114 7231 0.166504
6114 805 0.166504
6114 7404 0.166504
6112 7578 0.12488
6112 7598 0.12488
6112 1378 0.12488
7990 335 0.999002
6112 7517 0.12488
6112 1410 0.12488
6112 325 0.249724
6429 7909 0.333001
6110 7597 0.999002
6109 7597 0.105515
6109 7562 0.893487
4189 7596 0.11097
4189 418 0.110942
7487 9227 0.249751
6106 4678 0.124875
5060 155 0.111003
7732 9594 0.999002
6104 7595 0.995013
6105 3754 0.380855
6104 3754 0.00398978
6105 4693 0.382164
6103 7594 0.999002
2225 2242 0.499467
7515 4621 0.499501
6101 7592 0.166501
6100 7591 0.25341
6100 1108 0.25341
6099 1295 0.201868
6097 7590 0.453231
6096 7590 0.543305
6096 325 0.455697
6095 325 0.455349
6095 7589 0.543653
1166 7588 0.214384
6093 388 0.998852
6093 1368 0.000150228
6092 7587 0.166519
6092 7586 0.166519
6092 7585 0.166519
6092 737 0.332928
6092 7584 0.166519
4046 5205 0.249763
7779 9637 0.249751
6090 7453 0.999002
6089 7582 0.166501
6089 7581 0.166501
7238 7106 0.333001
7104 926 0.499501
6089 5259 0.166501
6971 8565 0.111
6087 7580 0.499501
6086 200 0.142715
6086 1550 0.142714
6086 7546 0.142715
6086 7579 0.142715
7274 376 0.200497
6312 5627 0.111
6083 3952 0.499501
6085 7578 0.334376
6084 325 0.499533
6083 7577 0.499501
6082 1546 0.122532
6082 7576 0.122532
6082 7575 0.122532
6082 7574 0.122532
6078 325 0.255094
6082 7573 0.122532
6082 1774 0.122532
6082 4085 0.122532
1197 283 0.125048
1197 22 0.124851
7682 3287 0.249759
7210 8889 0.861277
6081 850 0.199801
6078 7502 0.258038
6081 772 0.199801
6081 7346 0.199801
8035 9906 0.242502
6636 8120 0.499476
6079 7542 0.249751
6079 7572 0.249751
6941 5688 0.200082
7741 93 0.124875
6079 795 0.249751
6699 8184 0.333001
7229 7249 0.1665
1605 1484 0.0215045
6075 1091 0.499372
6075 1085 0.249686
6075 1630 0.249944
450 7571 0.166269
6014 7570 0.142715
936 1621 0.142776
936 1085 0.142776
936 7569 0.142776
6600 8083 0.246851
6074 96 0.499152
6074 961 0.49985
4934 1550 0.249741
4934 335 0.249742
4934 6405 0.249742
4934 7354 0.249742
6072 7568 0.249747
6072 7567 0.249747
6072 7247 0.249747
6072 7499 1.53625e-05
6071 7499 0.00102693
6753 92 0.111
6116 325 0.124875
6071 1336 0.249497
6073 325 0.166507
6070 2447 0.499513
6070 7564 0.49949
6069 2661 0.998957
6068 7563 0.249765
6068 997 0.249759
1033 7562 0.392671
6068 7562 0.24975
6058 604 0.0530859
6065 7561 0.1665
6065 98 0.1665
387 7560 0.124865
6067 41 0.1665
6067 7546 0.1665
6067 7559 0.1665
6067 7558 0.1665
6067 325 0.1665
6067 7557 0.1665
5954 7556 0.30232
6314 2305 0.499501
5954 96 0.299166
5352 7555 0.499501
2755 1251 0.0793716
6065 7554 0.333001
6065 676 0.333001
6658 8143 0.33223
5598 7553 0.166501
6062 7551 0.199801
6062 7550 0.199801
6062 7549 0.199801
607 401 0.332717
6061 7546 0.331017
6061 7545 0.331017
6061 72 0.00594216
6061 1162 8.15318e-06
6060 325 0.199801
6060 1019 0.199801
5921 1550 0.27557
2658 8917 0.333385
6882 2151 0.248966
6056 692 0.249751
6055 961 0.999002
6057 7249 0.111
6057 7541 0.111
6057 549 0.111
6057 7540 0.111
6057 7538 0.111
6057 7537 0.111
6056 7536 0.249751
6056 7535 0.249751
7773 9607 0.0462155
151 41 0.666012
6054 7534 0.333001
6054 7533 0.333001
6054 62 0.333001
6051 2165 0.333001
5921 40 0.447859
1573 40 2.40422e-06
6051 272 0.333001
6053 1307 0.333001
6053 1765 0.333001
6053 32 0.333001
6052 7532 0.499501
6613 2859 0.199801
1641 7531 0.249613
1641 88 0.249613
6050 7530 0.333025
2408 3917 0.110767
6050 7529 0.333025
6049 585 0.993054
6341 2483 0.00631762
6049 1008 0.00594814
6048 1008 0.331675
6048 1496 0.333674
6048 245 0.333653
6047 245 6.4594e-05
6046 1007 0.249932
6046 4015 0.249932
1102 9840 0.0832592
6046 40 0.249331
6045 2305 0.167706
6045 87 0.167706
370 1509 0.249615
370 701 0.249615
382 604 0.12521
6044 272 0.1665
6044 706 0.1665
6043 98 0.499501
6043 7525 0.499501
6041 1778 0.332978
1243 7524 0.1665
1243 7523 0.1665
1243 880 0.1665
1243 1268 0.1665
1243 962 0.1665
6039 1049 0.333024
7685 1897 0.333001
6040 325 0.499501
6551 5569 0.111081
6040 1083 0.499501
3402 96 0.129258
6750 574 0.499499
6038 108 0.142715
2477 354 0.24975
6039 7499 0.332954
2127 7499 0.0706389
6837 1202 0.199795
6038 956 0.142715
6038 7520 0.285429
80 261 0.249829
5856 9344 0.199801
6036 1440 3.08186e-06
6036 7168 0.16651
6036 4678 0.166451
6036 7513 0.16651
6255 5279 0.142715
6035 7518 0.499502
6034 1676 0.498547
6034 1360 0.500455
6400 4304 0.499501
4189 7517 0.110979
6033 7517 0.250179
7850 9725 0.753486
4189 7516 0.11097
6033 1226 0.248421
6032 210 0.24975
6032 7499 0.249751
6031 1580 0.499501
6031 3543 0.499502
6030 7515 0.142715
6029 40 0.269227
7746 9606 0.499501
7588 1774 0.199796
6028 273 0.499502
1497 127 0.124875
6283 7783 0.999002
1607 4528 4.6089e-06
6030 7514 0.142715
5696 40 0.243584
6030 880 0.142715
6030 850 0.142715
6025 41 0.124873
6025 7512 0.124876
6026 571 0.1665
6026 7511 0.1665
6030 190 0.142712
6006 190 0.428145
6027 2916 0.221999
6026 7510 0.1665
6027 1307 0.221999
6027 7499 0.222008
6025 4678 0.124876
1672 949 0.166844
6024 1104 0.124882
6651 1799 0.24975
7740 9599 0.142715
6023 1415 0.160668
7982 4813 0.499501
6023 388 0.209584
6023 7508 0.209584
5425 41 0.199801
6022 7507 0.111252
6022 2900 0.111252
6605 8087 0.499501
7407 152 0.111
6022 737 0.553995
6021 7232 0.999002
1920 7232 4.6549e-05
6045 496 0.167705
6018 4678 0.338406
2673 4119 0.142715
6020 7504 0.499501
6020 7503 0.499501
6019 123 0.999002
6014 210 0.142715
3872 2502 0.249751
7976 9845 0.166501
3872 4728 0.249751
6143 810 0.142714
6016 7231 0.199801
6016 7000 0.199801
6018 4067 0.6111
7493 9237 0.25062
6015 7499 0.499501
6013 224 0.4995
6012 5945 0.165732
6011 5945 0.487992
6812 460 0.333006
6012 1415 0.00470222
6011 1415 0.511011
6010 4067 0.653088
6009 4067 0.173083
6009 7502 0.825919
6007 571 6.75568e-06
6007 218 0.27872
6007 7501 0.27872
6006 7499 0.356786
6004 7498 0.111
6004 7473 0.111
4342 795 0.200282
6004 93 0.111
1649 795 0.0908325
6004 7497 0.111
6005 2154 0.14272
6004 2517 0.111
6004 1377 0.111
4031 7845 0.333485
4862 7494 0.249751
6003 7493 0.16715
6003 7492 0.167151
6003 7452 0.167149
6003 2900 0.167151
6001 4749 0.499501
6002 7491 0.499501
6000 7490 0.250041
6000 7489 0.250041
4505 7198 0.1665
5999 7488 0.52199
5999 737 0.477013
5998 7487 0.499501
5998 7486 0.499501
7719 9582 0.124893
5996 7484 0.333001
5995 896 0.142715
5995 7482 0.142715
5995 7481 0.142715
7654 1726 0.999002
6174 2151 0.125347
5995 664 0.142715
5994 6526 0.249738
5994 6671 0.249753
7141 7249 0.249751
5994 7480 0.249756
5994 7479 0.249756
4032 4679 0.799201
5993 7478 0.166607
5993 6507 0.166607
7641 3160 0.333715
5993 825 0.166607
5993 7477 0.166607
5992 7475 0.195629
5991 737 0.999002
5989 7474 0.999002
5988 7473 0.249773
5988 7472 0.249773
5988 4295 0.249685
7818 1628 0.499501
5988 7471 0.249772
5987 7469 0.124876
7102 1969 0.199801
5987 50 0.124875
5987 203 0.124876
5987 5124 0.124876
7610 9443 0.144523
5247 7468 0.199172
7610 9442 0.144523
5247 7466 0.199172
5247 586 0.00316575
1663 586 0.400104
1663 7465 0.598898
5985 7464 0.124875
5985 7463 0.124875
5985 7462 0.124875
6086 105 0.142715
5986 7461 0.999002
4046 7583 0.249763
5984 7459 0.333001
5985 4717 0.124875
7674 9958 0.166504
6132 7625 0.999002
5985 7458 0.124875
8052 6964 0.166504
7789 9648 0.999002
5667 3255 0.499501
7171 1371 0.999002
7733 385 0.333001
5290 95 0.333001
5981 6966 0.333001
5980 3802 0.166732
5980 7450 0.166733
5980 7449 0.166733
5979 3661 0.24975
5979 379 0.249751
5979 7448 0.249751
7948 105 0.166505
5979 2561 0.249751
3172 812 0.254784
7741 9608 0.124876
5980 574 0.166733
6016 6277 0.199801
267 7447 0.00416159
4068 386 0.200111
4068 7446 0.200111
4068 8 0.198558
4068 7445 0.200111
3534 105 0.999002
6785 8272 0.999002
6516 1137 0.998967
5976 7441 0.249751
5976 1368 0.249751
5978 692 0.199996
5978 637 0.199996
5978 7439 0.199996
5978 7398 0.199996
5977 7438 0.333001
5977 2778 0.333001
7883 9185 0.333001
5974 7368 0.142717
5974 1006 0.142701
7910 118 0.197476
7086 1840 0.214042
5972 7433 0.1665
5972 635 0.1665
6319 50 0.992777
5972 980 0.1665
5972 7432 0.1665
5972 7431 0.1665
7575 2242 0.333119
5970 3186 0.199804
5970 2877 0.199804
5970 7429 0.199804
6419 822 0.249767
5970 7360 0.199804
5970 7358 0.199787
4771 2872 0.285427
5958 7428 0.333001
5882 4422 0.749252
2394 1376 0.33151
7070 8729 0.999002
2394 4063 0.33151
7159 8840 0.499501
5965 90 0.121462
5965 980 0.121461
5968 66 0.199799
5968 2302 0.199799
5968 3001 0.199799
5967 5 0.249611
5967 7426 0.249797
2394 7375 0.33151
7681 9547 0.124875
5966 1039 0.499502
3632 887 0.124874
5915 7425 0.199974
5915 877 0.199974
5965 7423 0.48578
5965 7422 0.148838
5963 7421 0.33208
5963 7420 0.33208
5963 7419 0.00276335
5962 77 0.501586
5961 7409 0.333001
5961 185 0.333001
6272 7769 0.1665
6670 92 0.250003
5926 2917 0.249755
5960 118 0.0409314
4280 7416 0.000443278
5960 2673 0.319321
5959 7415 0.499685
5959 827 0.499317
5958 7414 0.666001
3641 8460 0.000925577
5957 77 0.999002
5955 7413 0.199804
5955 7412 0.199804
5944 5145 0.416251
2868 997 0.1665
5956 7411 0.999002
5953 5 0.399151
6817 2035 0.999002
5922 7409 0.249751
6087 2502 0.499501
6345 2266 0.142798
5952 7406 0.333001
5951 245 0.124789
5951 7404 0.124888
5074 1378 0.0951435
6030 7513 0.142715
5950 7401 0.333001
5950 810 0.333001
5950 245 0.333001
2822 6526 0.999002
5948 7334 0.111
5948 7399 0.111
5948 7398 0.111
5948 7397 0.111
5948 7395 0.111
5948 77 0.111
5947 7393 0.199828
5947 7392 0.199828
5946 7390 0.1665
5946 7389 0.1665
5946 4517 0.1665
5946 63 0.1665
6825 472 0.249748
7360 8478 0.1665
5945 1872 0.499513
5945 827 0.499489
6158 2786 0.166642
5944 7387 0.582751
5942 2221 0.0999002
5943 7386 0.333001
5942 2671 0.0999003
5942 980 0.0999004
5942 7382 0.1998
3714 7381 0.000239406
5942 335 0.0999001
5942 7380 0.0999005
5941 7336 0.999002
5940 446 0.142715
7309 604 0.198751
7515 2193 0.499501
5940 2434 0.142715
7035 4340 0.346343
933 4123 0.16614
5939 105 0.499499
5938 7373 0.999002
5937 7345 0.999002
5936 1610 0.1998
5936 6664 0.199801
5936 7372 0.199801
629 1894 0.111146
6422 7898 0.166589
5936 204 0.199801
5936 7371 0.199801
5935 7370 0.999002
4322 7369 0.196526
5934 8 0.491302
5933 7368 0.249751
5933 7367 0.249751
5914 2560 0.142458
6370 2105 0.142714
5931 7363 0.12488
69 9930 0.167957
6382 2105 0.999002
5235 6 0.249751
5931 7362 0.124846
4322 7360 0.399532
5930 7360 0.999002
5928 7359 0.499502
5927 7356 0.332993
5927 7355 0.332993
5927 7354 0.332993
6133 7346 0.111
5925 827 0.493102
5923 5889 0.333001
7793 696 0.00172418
5982 7452 0.699302
5924 5 0.16623
491 5 0.00670673
6857 8396 0.249751
5922 7349 0.499501
6857 8393 0.249751
6550 2738 0.199801
151 63 0.332991
5920 907 0.124875
5920 7343 0.124875
5920 7341 0.124875
5920 7340 0.124875
5920 839 0.124875
5920 7339 0.124875
5918 7338 0.999002
5919 7337 0.499327
5919 7336 0.374844
5916 5210 0.998971
5913 7334 0.124878
7533 9308 0.249751
5913 7331 0.124863
5913 1645 0.124878
5914 827 0.0730823
5913 827 0.374629
5908 7330 0.249758
7422 3476 0.249751
5905 7328 0.162304
7584 94 0.517332
5911 927 0.249702
5911 308 0.249757
5911 7327 0.249757
5905 1569 0.162304
5905 827 0.162303
6271 7785 0.144975
5905 2561 0.162304
7809 9673 0.142705
5903 6133 0.499501
5902 6470 0.111
5902 1583 0.111
5902 7323 0.111
6100 445 0.25341
5902 7301 0.111
5902 1229 0.111
5902 7322 0.111
5902 7321 0.111
5902 7316 0.111
7783 9642 0.333001
5901 7320 0.448411
5901 92 0.10218
5901 7319 0.448412
7806 664 0.111001
3427 7311 0.147516
2539 385 0.142723
2539 7318 0.142723
2539 130 0.142723
5237 90 0.142776
5237 1410 0.14276
5237 7317 0.142776
5237 7304 0.142776
5899 7316 0.199803
5899 6975 0.199802
5899 7315 0.199794
5899 7311 0.199803
5898 850 0.999002
6217 7714 0.333036
5897 7313 0.249753
5896 1583 0.1665
5896 7311 0.1665
6987 1819 0.333009
4830 50 0.499504
7457 6111 0.499501
5895 7310 0.999002
5896 7158 0.1665
5897 879 0.249744
5893 7308 0.124876
5939 7344 0.499503
3576 7306 0.251245
3576 2657 0.251245
3141 5404 1.32953e-05
6486 7898 0.333006
2540 7304 0.142724
7000 1384 0.249777
3404 1852 0.393369
5891 92 0.999002
7703 105 0.238538
7525 85 0.324596
6285 7786 0.999002
5240 7300 0.111217
5240 7299 0.111217
2745 1088 0.75539
3398 8351 0.200084
5886 7298 0.999002
379 9248 0.199987
6534 2235 0.111
3683 5082 0.124864
3398 8350 0.200084
7315 9003 0.332999
5888 1887 0.24974
5888 877 0.24974
8025 9894 0.998498
5888 7296 0.24974
3856 2210 0.139512
3972 221 0.504266
5885 4971 0.248835
3090 3329 0.979749
6487 7830 0.199801
2919 1584 0.199741
2023 7289 0.249751
5883 7288 0.142715
3321 750 0.249752
692 7521 0.998966
5883 7287 0.142715
5883 7286 0.142715
5883 7285 0.142715
5883 7284 0.142715
5947 7394 0.199828
5138 1085 0.1598
5882 4789 0.249751
7398 267 0.499453
5827 123 0.249751
8067 9967 0.142715
5881 1298 0.1093
5881 7283 0.529397
5881 50 0.360305
5880 5046 0.333001
6428 4812 0.499501
7834 2238 0.1665
7820 8 0.11111
5877 7281 0.999002
5879 7280 0.249751
5879 5480 0.249751
5879 7279 0.249751
5878 50 0.333001
5876 7276 0.499501
5875 7275 0.166537
6018 7502 1.12728e-05
5875 102 0.166537
6434 7913 0.249747
3248 8671 0.0657248
5872 1856 0.333034
5874 7273 0.829642
5875 2502 0.166346
7872 9728 0.333001
5871 7271 0.711101
6003 4930 0.163249
5870 1342 0.142715
5870 283 0.142715
5870 7267 0.142715
7226 8898 0.333014
720 7266 0.160284
5869 7265 0.1252
5869 7264 0.1252
5868 1812 0.252441
5868 7263 0.126276
3230 50 0.124863
6958 1770 0.0099707
3484 385 0.249699
7710 5259 0.178273
3484 354 1.114e-05
3484 7261 0.000100744
5867 1777 0.499501
7916 1532 0.199811
5865 7257 0.999002
5864 7256 0.333001
7539 9121 0.999002
5863 7255 0.999002
413 7254 0.1665
6126 7246 2.08824e-06
3151 696 0.333001
7303 41 0.20049
5862 7252 0.666002
633 32 0.123686
7076 3542 0.1665
7275 5882 0.144422
5862 1333 0.333001
413 5742 0.1665
413 4789 0.1665
5861 98 0.499501
6971 781 0.222
5980 7447 0.165338
5860 2580 0.199826
5860 1367 0.199826
7889 9759 0.248862
2297 7243 0.499501
2297 3334 0.499501
2477 1085 0.24975
1119 103 0.249751
5858 454 0.1665
5858 4789 0.166501
296 1996 0.199804
5855 32 0.142717
5855 66 0.1427
5855 7246 0.285434
3679 1377 0.124876
3679 395 0.124876
6680 5 0.199798
510 29 0.00186359
3679 29 0.249749
3679 640 0.124876
5852 7244 0.1665
5852 7243 0.1665
5852 7242 0.1665
5854 105 0.999002
1062 7229 0.124875
5851 7240 0.999002
2800 4457 0.0767804
5847 7239 0.233815
5849 961 0.333001
6727 4430 0.16663
5847 4660 0.467629
5847 586 0.297559
8055 4304 0.333001
5846 7237 0.149903
5846 4528 0.149903
7450 9187 0.333001
5846 1930 0.149903
5846 430 0.149903
5846 7236 0.149903
1779 1006 0.199816
7791 6526 0.177986
5836 7235 0.499495
5907 7345 0.678402
6112 810 0.12488
6403 5350 0.0815874
633 200 0.123684
7523 9285 0.499501
5843 7234 0.249751
5843 7233 0.249751
5843 7232 0.249751
5843 7231 0.249751
5842 40 0.665854
5832 515 0.249751
1246 77 0.299677
4393 7230 0.333001
5839 7229 0.499499
5214 130 0.000158469
6949 6760 0.142039
5841 7228 0.999002
5695 2437 0.999002
5840 7226 0.111247
7844 1500 0.1665
5839 7225 0.499503
5840 5715 0.111247
5840 425 0.111247
1417 7223 0.999002
5837 233 0.142716
7827 9682 0.111
5837 975 0.142716
5837 7220 0.142716
5828 7084 0.249752
5836 7211 0.499508
5557 7219 0.166501
5557 7218 0.166501
5557 258 0.166499
5557 450 0.1665
3577 451 0.19962
5835 7216 0.499501
5835 3301 0.499501
7047 8697 0.199833
4943 156 0.332996
2266 1464 0.332997
5833 7206 0.111001
5833 802 0.111
5833 1464 0.111001
5832 7215 0.499501
5832 669 0.249751
5830 7214 0.661247
5829 7213 0.249755
5829 2422 0.249755
2865 907 0.249748
5828 7211 0.74925
5826 7210 0.499501
5974 7437 0.142717
5826 7209 0.499501
5974 7436 0.142717
5315 9062 0.142761
5974 7435 0.142717
5821 156 0.154542
5821 879 0.0727824
5825 7207 0.199801
5825 1032 0.199801
5825 201 0.199801
5825 200 0.199801
5825 7206 0.199801
5199 1229 0.249739
6792 9249 0.0277987
5199 6923 0.249739
5199 7205 0.249739
5199 7204 0.249739
420 40 1.53567e-05
5142 7571 0.000237666
420 3490 0.399644
5972 7430 0.1665
5823 98 0.19967
6293 7792 0.498754
5823 1621 0.19967
5823 29 0.19967
5823 445 0.19967
5822 574 0.199801
5822 7202 0.199801
5822 1342 0.199801
5822 354 0.199801
5822 7201 0.199801
5820 7200 0.999002
5821 7199 0.309085
5818 7198 0.499501
5818 7197 0.499501
7914 7314 0.199801
5897 7314 0.249753
5819 7196 0.249751
5819 7195 0.249751
5819 7194 0.249751
5821 696 0.153508
7422 6291 0.249751
6134 7624 0.351339
7077 150 4.67074e-05
5817 7193 0.12649
5816 7192 0.999002
6987 1817 0.332998
5815 124 0.1665
5815 7191 0.1665
5815 1546 0.1665
5815 967 0.1665
5814 7190 0.956596
5814 7189 0.0424063
353 7189 0.203028
5813 2598 0.144301
5813 7188 0.144301
5813 96 0.14292
5812 7186 0.250628
5812 3917 0.250628
5811 7186 0.333001
5811 29 0.333001
518 4660 0.811689
7051 1150 0.111
1463 5989 0.166733
1782 7184 0.20113
1427 4124 0.12436
5810 7183 0.210201
5810 245 0.210201
5810 1211 0.420402
5807 603 0.999002
5199 6262 4.54249e-05
5806 6262 0.499445
5806 7178 0.499557
5805 601 0.199804
5805 7177 0.199804
5803 7175 0.598638
1158 7174 0.498554
5802 7173 0.199801
5802 7172 0.199801
5802 7171 0.199801
1210 5946 0.127127
5802 7170 0.199801
5801 7169 0.328308
5801 7168 0.328313
5799 3893 0.199796
5799 7167 0.199796
5878 7277 0.333001
5799 1930 0.199796
1316 7166 0.0624284
1316 7165 0.0624288
5800 7164 0.16649
5800 56 0.16649
5800 2117 0.16649
5800 1127 7.29261e-05
7610 171 0.131867
5800 7163 0.166478
5799 7163 0.199811
5800 3399 0.16649
976 2332 0.333005
5798 7162 0.124875
5798 7161 0.124875
5798 1823 0.124875
5798 7160 0.124875
5798 8 0.124875
