1 1 100 2 1
2 3 100 2 1
3 0 100 3 1
1 1 100 3 0.59597
2 1 100 3 0.302873
3 1 100 3 0.101157
3 2 100 3 1
1 3 100 3 0.267921
2 3 100 3 0.446815
3 3 100 3 0.285264
1 4 100 3 0.333333
2 4 100 3 0.333333
3 4 100 3 0.333333
1 5 100 3 0.246943
2 5 100 3 0.376518
3 5 100 3 0.376538
1 6 100 3 1
1 7 100 3 0.333333
2 7 100 3 0.333333
3 7 100 3 0.333333
1 0 100 4 7.9188e-05
3 0 100 4 0.00120307
4 0 100 4 0.998718
1 1 100 4 0.454525
2 1 100 4 0.363664
3 1 100 4 0.0909058
4 1 100 4 0.0909058
3 2 100 4 0.666623
4 2 100 4 0.333377
2 3 100 4 1
1 4 100 4 0.228473
2 4 100 4 0.228473
3 4 100 4 0.228473
4 4 100 4 0.314581
1 5 100 4 0.24598
2 5 100 4 0.139063
3 5 100 4 0.245984
4 5 100 4 0.368973
1 6 100 4 0.0051533
2 6 100 4 0.0654881
3 6 100 4 0.653229
4 6 100 4 0.27613
1 7 100 4 0.0638715
2 7 100 4 0.33421
3 7 100 4 0.267709
4 7 100 4 0.33421
1 0 100 5 2.54382e-06
2 0 100 5 0.369778
4 0 100 5 0.472917
5 0 100 5 0.157303
1 1 100 5 0.636579
2 1 100 5 0.0920142
3 1 100 5 0.180553
4 1 100 5 0.0907626
5 1 100 5 9.15406e-05
1 2 100 5 0.14121
2 2 100 5 0.407631
3 2 100 5 0.305225
4 2 100 5 0.145934
1 3 100 5 0.142096
2 3 100 5 0.366136
3 3 100 5 0.369195
4 3 100 5 0.000527465
5 3 100 5 0.122045
1 4 100 5 0.215574
2 4 100 5 0.211516
3 4 100 5 0.209834
4 4 100 5 0.222067
5 4 100 5 0.14101
1 5 100 5 0.149958
2 5 100 5 0.16998
3 5 100 5 0.169982
4 5 100 5 0.170121
5 5 100 5 0.339959
1 6 100 5 0.146102
3 6 100 5 0.123879
4 6 100 5 0.291707
5 6 100 5 0.438313
1 7 100 5 0.118347
2 7 100 5 0.202208
3 7 100 5 0.232174
4 7 100 5 0.232609
5 7 100 5 0.214662
1 8 100 5 0.146683
3 8 100 5 0.00382357
4 8 100 5 0.283309
5 8 100 5 0.566184
1 9 100 5 0.00886177
2 9 100 5 0.0533773
3 9 100 5 0.46888
4 9 100 5 1.56871e-06
5 9 100 5 0.468879
4 10 100 5 1
4 11 100 5 1
4 12 100 5 1
2 0 100 6 0.332499
3 0 100 6 0.166216
4 0 100 6 0.169502
5 0 100 6 0.331783
1 1 100 6 0.630355
2 1 100 6 0.369643
4 1 100 6 2.00188e-06
1 2 100 6 0.422522
2 2 100 6 0.18326
3 2 100 6 0.265155
4 2 100 6 0.129063
1 3 100 6 0.34563
2 3 100 6 0.402103
3 3 100 6 0.129326
4 3 100 6 0.122941
3 4 100 6 0.429874
4 4 100 6 0.140424
5 4 100 6 0.143291
6 4 100 6 0.28641
1 5 100 6 0.154604
3 5 100 6 0.226832
4 5 100 6 0.23191
5 5 100 6 0.232075
6 5 100 6 0.154579
1 6 100 6 7.64487e-05
5 6 100 6 0.333368
6 6 100 6 0.666555
5 7 100 6 0.499586
6 7 100 6 0.500414
1 8 100 6 4.27608e-05
2 8 100 6 0.164675
3 8 100 6 1.09231e-06
4 8 100 6 0.330606
5 8 100 6 0.174053
6 8 100 6 0.330622
2 9 100 6 1.83949e-06
3 9 100 6 1.88551e-05
4 9 100 6 0.0148104
5 9 100 6 0.985169
1 10 100 6 3.24354e-06
2 10 100 6 0.165032
3 10 100 6 0.16506
4 10 100 6 0.172851
5 10 100 6 0.166961
6 10 100 6 0.330092
2 11 100 6 8.98834e-06
3 11 100 6 0.0174114
4 11 100 6 0.98258
1 13 100 6 0.00020343
2 13 100 6 0.22822
3 13 100 6 0.228596
4 13 100 6 0.228596
5 13 100 6 0.0857888
6 13 100 6 0.228596
1 0 100 7 0.000118827
2 0 100 7 0.158885
3 0 100 7 0.0899048
4 0 100 7 0.162815
5 0 100 7 0.109125
6 0 100 7 0.270185
7 0 100 7 0.208967
1 1 100 7 0.920182
2 1 100 7 0.0736313
3 1 100 7 5.52182e-05
4 1 100 7 1.30031e-05
5 1 100 7 0.00611888
1 2 100 7 0.343954
2 2 100 7 0.521391
3 2 100 7 0.0672656
4 2 100 7 0.000120225
5 2 100 7 0.0672684
1 3 100 7 0.256262
2 3 100 7 0.127754
3 3 100 7 0.319009
4 3 100 7 0.0680565
5 3 100 7 0.0585894
6 3 100 7 0.106266
7 3 100 7 0.0640629
1 4 100 7 0.0594808
2 4 100 7 0.176673
3 4 100 7 0.176922
4 4 100 7 0.26307
5 4 100 7 0.17662
6 4 100 7 0.0600267
7 4 100 7 0.0872083
2 5 100 7 0.0466551
3 5 100 7 0.284925
4 5 100 7 0.142489
5 5 100 7 0.147942
6 5 100 7 0.306744
7 5 100 7 0.0712446
1 6 100 7 0.0681636
2 6 100 7 0.0223204
3 6 100 7 0.0918174
4 6 100 7 0.135791
5 6 100 7 0.203775
6 6 100 7 0.138701
7 6 100 7 0.339431
1 7 100 7 0.00270554
2 7 100 7 0.0730916
3 7 100 7 0.0661906
4 7 100 7 0.178733
5 7 100 7 0.204491
6 7 100 7 0.23356
7 7 100 7 0.241228
2 8 100 7 0.0607894
3 8 100 7 0.149314
4 8 100 7 0.173551
5 8 100 7 0.325076
6 8 100 7 0.17326
7 8 100 7 0.11801
1 9 100 7 0.155093
2 9 100 7 0.00293452
3 9 100 7 0.241348
4 9 100 7 0.153648
5 9 100 7 0.130707
6 9 100 7 0.146141
7 9 100 7 0.170128
1 10 100 7 0.000490389
2 10 100 7 0.22643
3 10 100 7 0.000129157
4 10 100 7 0.00162839
5 10 100 7 0.00651373
6 10 100 7 0.249833
7 10 100 7 0.514975
1 11 100 7 0.00387221
2 11 100 7 0.323355
3 11 100 7 0.000408344
4 11 100 7 0.0129545
5 11 100 7 0.0692181
6 11 100 7 0.294912
7 11 100 7 0.29528
1 12 100 7 0.0641711
2 12 100 7 0.127449
3 12 100 7 0.201926
4 12 100 7 0.193578
5 12 100 7 0.135254
6 12 100 7 0.126097
7 12 100 7 0.151525
2 13 100 7 0.000745304
5 13 100 7 6.40843e-06
6 13 100 7 0.000193263
7 13 100 7 0.999055
1 0 100 8 1.36295e-06
2 0 100 8 0.0837052
3 0 100 8 0.333133
4 0 100 8 0.208289
5 0 100 8 0.0833177
6 0 100 8 0.124978
7 0 100 8 0.166562
8 0 100 8 1.34855e-05
1 1 100 8 0.545801
2 1 100 8 0.205485
3 1 100 8 0.0711818
4 1 100 8 0.106473
6 1 100 8 0.0355909
7 1 100 8 0.0354482
8 1 100 8 1.92246e-05
1 2 100 8 0.12599
2 2 100 8 0.437148
3 2 100 8 0.0324548
4 2 100 8 0.126689
5 2 100 8 0.19011
6 2 100 8 0.0876084
2 3 100 8 0.171615
3 3 100 8 0.328262
4 3 100 8 0.244859
5 3 100 8 0.0979201
6 3 100 8 0.00206916
7 3 100 8 0.0776922
8 3 100 8 0.0775824
3 4 100 8 0.354336
4 4 100 8 0.199503
5 4 100 8 0.0942155
6 4 100 8 0.0879665
7 4 100 8 0.0880412
8 4 100 8 0.175938
1 5 100 8 0.0970988
2 5 100 8 0.0976641
3 5 100 8 0.0485503
4 5 100 8 0.131281
5 5 100 8 0.139997
6 5 100 8 0.194198
7 5 100 8 0.145649
8 5 100 8 0.145562
3 6 100 8 0.0750508
4 6 100 8 0.20953
5 6 100 8 0.265114
6 6 100 8 0.150097
7 6 100 8 0.150111
8 6 100 8 0.150097
1 7 100 8 0.220394
2 7 100 8 0.0515127
3 7 100 8 0.0972554
4 7 100 8 0.000409164
5 7 100 8 0.0990699
6 7 100 8 0.194512
7 7 100 8 0.190961
8 7 100 8 0.145886
1 8 100 8 0.138623
2 8 100 8 0.000148312
3 8 100 8 0.184541
4 8 100 8 0.245756
5 8 100 8 0.246216
6 8 100 8 0.0614573
7 8 100 8 0.0617703
8 8 100 8 0.0614883
2 9 100 8 0.141596
3 9 100 8 0.0940152
4 9 100 8 0.0558474
5 9 100 8 0.0940155
6 9 100 8 0.0940284
7 9 100 8 0.144305
8 9 100 8 0.376193
1 10 100 8 0.121039
2 10 100 8 0.103949
3 10 100 8 0.0104435
4 10 100 8 0.104336
5 10 100 8 0.121038
6 10 100 8 0.161925
7 10 100 8 0.214168
8 10 100 8 0.163102
1 11 100 8 0.000434371
2 11 100 8 0.0550159
3 11 100 8 0.147183
4 11 100 8 0.0955156
5 11 100 8 0.117145
6 11 100 8 0.157631
7 11 100 8 0.150679
8 11 100 8 0.276396
1 12 100 8 0.209788
2 12 100 8 0.0758911
3 12 100 8 0.000214289
4 12 100 8 0.149672
5 12 100 8 0.135008
6 12 100 8 0.150008
7 12 100 8 0.147989
8 12 100 8 0.13143
1 13 100 8 0.172347
2 13 100 8 0.143095
4 13 100 8 0.143014
5 13 100 8 0.142295
6 13 100 8 0.284812
7 13 100 8 0.114436
1 14 100 8 0.00409682
2 14 100 8 0.44419
3 14 100 8 0.000367988
4 14 100 8 0.000487305
5 14 100 8 0.00329963
6 14 100 8 0.000226004
7 14 100 8 0.101125
8 14 100 8 0.446208
1 15 100 8 3.04686e-05
2 15 100 8 0.0741562
3 15 100 8 0.146998
4 15 100 8 0.000121848
5 15 100 8 0.183646
6 15 100 8 0.218047
7 15 100 8 0.212726
8 15 100 8 0.164274
6 16 100 8 1
2 0 100 9 0.171726
3 0 100 9 0.106558
4 0 100 9 0.171706
5 0 100 9 0.102729
6 0 100 9 0.172551
7 0 100 9 0.171704
8 0 100 9 0.103025
9 0 100 9 8.13846e-07
1 1 100 9 0.831842
2 1 100 9 0.168157
4 1 100 9 5.74347e-07
1 2 100 9 0.157171
2 2 100 9 0.365425
3 2 100 9 0.261948
4 2 100 9 0.215426
9 2 100 9 2.95793e-05
1 3 100 9 0.0354267
2 3 100 9 0.0711821
3 3 100 9 0.244318
4 3 100 9 0.179386
5 3 100 9 0.186678
6 3 100 9 0.0708539
7 3 100 9 0.0350283
8 3 100 9 0.0708533
9 3 100 9 0.106274
1 4 100 9 0.106629
2 4 100 9 0.159023
3 4 100 9 0.104024
4 4 100 9 0.150352
5 4 100 9 0.159944
6 4 100 9 0.0533145
7 4 100 9 0.106627
8 4 100 9 0.0533113
9 4 100 9 0.106776
1 5 100 9 0.0789676
3 5 100 9 0.0790174
4 5 100 9 0.0793112
5 5 100 9 0.30221
6 5 100 9 0.460493
1 6 100 9 0.100783
2 6 100 9 0.201604
3 6 100 9 0.202084
5 6 100 9 0.393485
6 6 100 9 0.100802
7 6 100 9 0.00113488
8 6 100 9 0.000102187
9 6 100 9 4.68276e-06
3 7 100 9 0.0396873
4 7 100 9 0.159505
5 7 100 9 0.11963
6 7 100 9 0.204777
7 7 100 9 0.197259
8 7 100 9 0.119629
9 7 100 9 0.159512
4 8 100 9 0.0590237
5 8 100 9 0.0588386
6 8 100 9 0.117645
7 8 100 9 0.293928
8 8 100 9 0.294098
9 8 100 9 0.176467
1 9 100 9 0.0451957
2 9 100 9 3.49716e-06
3 9 100 9 0.0925995
4 9 100 9 0.0903919
5 9 100 9 0.0455704
6 9 100 9 0.135587
7 9 100 9 0.0927724
8 9 100 9 0.226892
9 9 100 9 0.270988
1 10 100 9 0.157935
2 10 100 9 0.157925
3 10 100 9 0.0527057
5 10 100 9 0.000120155
6 10 100 9 0.000453995
7 10 100 9 0.158123
8 10 100 9 0.262103
9 10 100 9 0.210635
2 11 100 9 0.199951
3 11 100 9 0.000337463
5 11 100 9 4.73837e-05
6 11 100 9 1.99363e-05
7 11 100 9 0.199919
8 11 100 9 0.199942
9 11 100 9 0.399782
2 12 100 9 0.171772
3 12 100 9 0.343558
4 12 100 9 5.38542e-05
5 12 100 9 0.16881
6 12 100 9 0.172155
8 12 100 9 0.143632
9 12 100 9 1.9795e-05
3 13 100 9 0.000429319
4 13 100 9 0.294393
5 13 100 9 0.315765
6 13 100 9 5.41444e-05
7 13 100 9 0.177916
8 13 100 9 0.0300097
9 13 100 9 0.181434
2 14 100 9 0.436284
6 14 100 9 0.563716
2 15 100 9 0.873216
6 15 100 9 0.126784
2 16 100 9 0.000115504
5 16 100 9 0.00178336
6 16 100 9 0.249574
7 16 100 9 0.249509
8 16 100 9 0.249509
9 16 100 9 0.249509
3 17 100 9 0.497472
4 17 100 9 0.000932042
5 17 100 9 0.000809007
7 17 100 9 7.34032e-05
8 17 100 9 0.0003546
9 17 100 9 0.500359
2 18 100 9 0.851091
6 18 100 9 0.148909
7 19 100 9 1
2 0 100 10 0.193228
3 0 100 10 0.148002
4 0 100 10 0.150278
5 0 100 10 0.0899191
6 0 100 10 0.0434432
7 0 100 10 0.0859696
8 0 100 10 0.0964985
9 0 100 10 0.149721
10 0 100 10 0.0429399
1 1 100 10 0.550314
2 1 100 10 0.0985215
3 1 100 10 0.12389
4 1 100 10 0.0206731
5 1 100 10 0.0619766
6 1 100 10 0.0619735
7 1 100 10 0.0206663
8 1 100 10 0.0413258
9 1 100 10 0.0206591
10 1 100 10 2.4963e-07
1 2 100 10 0.11845
2 2 100 10 0.234468
3 2 100 10 0.166871
4 2 100 10 0.0642614
5 2 100 10 0.0271782
6 2 100 10 0.108065
7 2 100 10 0.150284
8 2 100 10 0.0290474
9 2 100 10 0.0470177
10 2 100 10 0.0543564
1 3 100 10 0.0728719
2 3 100 10 0.224274
3 3 100 10 0.238381
4 3 100 10 0.185518
5 3 100 10 0.0732397
7 3 100 10 0.0113895
8 3 100 10 0.0485813
9 3 100 10 0.0728719
10 3 100 10 0.0728719
1 4 100 10 0.111387
2 4 100 10 0.187236
3 4 100 10 0.114765
4 4 100 10 0.178244
5 4 100 10 0.112199
6 4 100 10 0.166596
7 4 100 10 0.111275
8 4 100 10 0.00307075
9 4 100 10 0.0149936
10 4 100 10 0.000234518
1 5 100 10 0.0423289
3 5 100 10 0.0860732
4 5 100 10 0.28858
5 5 100 10 0.197647
6 5 100 10 0.0941845
7 5 100 10 4.08498e-05
8 5 100 10 0.206392
9 5 100 10 0.0847534
1 6 100 10 0.0432579
2 6 100 10 0.000145256
3 6 100 10 0.0865371
4 6 100 10 0.128298
5 6 100 10 0.179167
6 6 100 10 0.173093
7 6 100 10 0.259211
9 6 100 10 0.0437535
10 6 100 10 0.0865367
1 7 100 10 0.0996835
2 7 100 10 0.0498195
3 7 100 10 0.0525351
4 7 100 10 0.0498022
5 7 100 10 0.149382
6 7 100 10 0.0995789
7 7 100 10 0.0998419
8 7 100 10 0.0995724
9 7 100 10 0.150256
10 7 100 10 0.149528
2 8 100 10 0.0668861
3 8 100 10 0.0668506
4 8 100 10 0.13394
5 8 100 10 0.215918
6 8 100 10 0.150767
7 8 100 10 0.111519
8 8 100 10 0.0891895
9 8 100 10 0.0969382
10 8 100 10 0.0679919
1 9 100 10 0.0214085
2 9 100 10 0.042817
4 9 100 10 0.0214676
5 9 100 10 0.0922957
6 9 100 10 0.209292
7 9 100 10 0.127706
8 9 100 10 0.160725
9 9 100 10 0.163843
10 9 100 10 0.160446
1 10 100 10 0.0921182
2 10 100 10 0.092237
3 10 100 10 0.0922677
4 10 100 10 0.0613972
5 10 100 10 0.0615805
6 10 100 10 0.0309427
7 10 100 10 0.0623727
8 10 100 10 0.215189
9 10 100 10 0.122818
10 10 100 10 0.169077
1 11 100 10 1.60593e-05
3 11 100 10 0.106524
4 11 100 10 0.106418
5 11 100 10 0.0709477
6 11 100 10 0.114657
7 11 100 10 0.177371
8 11 100 10 0.106485
9 11 100 10 0.106471
10 11 100 10 0.211111
1 12 100 10 0.000589923
2 12 100 10 7.93582e-06
3 12 100 10 7.40386e-05
4 12 100 10 0.0835213
5 12 100 10 0.0821747
6 12 100 10 0.0841038
7 12 100 10 0.257574
8 12 100 10 0.29483
9 12 100 10 0.112461
10 12 100 10 0.0846633
1 13 100 10 0.00138191
2 13 100 10 5.83143e-06
3 13 100 10 1.05759e-05
4 13 100 10 3.50726e-05
5 13 100 10 9.4532e-07
6 13 100 10 0.261113
7 13 100 10 0.0371218
8 13 100 10 0.326755
9 13 100 10 0.232434
10 13 100 10 0.141142
1 14 100 10 0.00715007
2 14 100 10 6.46961e-06
3 14 100 10 0.000246226
4 14 100 10 2.08164e-05
5 14 100 10 0.0104423
6 14 100 10 0.105922
7 14 100 10 0.107919
8 14 100 10 0.0445029
9 14 100 10 0.301275
10 14 100 10 0.422516
2 15 100 10 5.07153e-06
3 15 100 10 1.77981e-05
4 15 100 10 0.000381688
5 15 100 10 1.34393e-06
7 15 100 10 0.000600612
8 15 100 10 6.89413e-06
9 15 100 10 0.00577761
10 15 100 10 0.993209
3 16 100 10 1.4994e-05
4 16 100 10 6.61415e-05
5 16 100 10 5.48944e-06
6 16 100 10 0.00683942
7 16 100 10 0.323033
8 16 100 10 0.00813174
9 16 100 10 0.336943
10 16 100 10 0.324967
1 17 100 10 3.69446e-06
3 17 100 10 0.000223461
4 17 100 10 8.38981e-06
5 17 100 10 5.57851e-06
6 17 100 10 0.00130812
7 17 100 10 0.00834705
8 17 100 10 0.488176
9 17 100 10 2.28689e-05
10 17 100 10 0.501905
2 18 100 10 1.82481e-05
3 18 100 10 4.72408e-06
6 18 100 10 1.65912e-06
7 18 100 10 0.0146972
8 18 100 10 0.491302
9 18 100 10 0.000123457
10 18 100 10 0.493852
5 19 100 10 0.590624
6 19 100 10 0.409376
1 20 100 10 0.131982
2 20 100 10 0.131383
3 20 100 10 6.14018e-07
4 20 100 10 0.0547035
5 20 100 10 0.124001
6 20 100 10 0.132451
7 20 100 10 0.132453
8 20 100 10 0.0281184
9 20 100 10 0.132453
10 20 100 10 0.132453
10 21 100 10 1
2 0 100 11 0.0518297
3 0 100 11 0.0848043
4 0 100 11 0.123174
5 0 100 11 0.123256
6 0 100 11 0.137852
7 0 100 11 0.100689
8 0 100 11 0.034915
9 0 100 11 0.103356
10 0 100 11 0.221455
11 0 100 11 0.0186691
1 1 100 11 0.76108
2 1 100 11 0.134929
3 1 100 11 0.0329234
5 1 100 11 0.0658254
7 1 100 11 0.00524274
1 2 100 11 0.172196
2 2 100 11 0.425054
3 2 100 11 0.175039
4 2 100 11 0.0572357
5 2 100 11 0.0284502
6 2 100 11 0.0851557
8 2 100 11 0.0284269
9 2 100 11 0.0284269
10 2 100 11 1.65502e-05
1 3 100 11 0.0245423
2 3 100 11 0.194014
3 3 100 11 0.146603
4 3 100 11 0.158006
5 3 100 11 0.0642682
6 3 100 11 0.0247645
7 3 100 11 0.123806
8 3 100 11 0.0990191
9 3 100 11 0.0252001
10 3 100 11 0.0493657
11 3 100 11 0.090411
1 4 100 11 0.114671
2 4 100 11 0.0395138
3 4 100 11 0.247909
4 4 100 11 0.176038
5 4 100 11 0.267661
6 4 100 11 0.00049887
7 4 100 11 3.82549e-07
9 4 100 11 0.0382236
10 4 100 11 0.0390343
11 4 100 11 0.0764507
1 5 100 11 0.0494357
2 5 100 11 0.0534645
3 5 100 11 0.120476
4 5 100 11 0.1501
5 5 100 11 0.18055
6 5 100 11 0.0504665
7 5 100 11 0.0494382
8 5 100 11 0.049436
9 5 100 11 0.148315
10 5 100 11 0.0494394
11 5 100 11 0.0988773
1 6 100 11 0.0334004
2 6 100 11 0.0333849
3 6 100 11 0.0624114
4 6 100 11 0.133109
5 6 100 11 0.170093
6 6 100 11 0.167071
7 6 100 11 0.100156
8 6 100 11 0.100063
9 6 100 11 0.0667748
10 6 100 11 0.100155
11 6 100 11 0.0333822
1 7 100 11 0.0444331
2 7 100 11 0.0481818
3 7 100 11 0.0444331
4 7 100 11 0.0222165
5 7 100 11 0.105581
6 7 100 11 0.198979
7 7 100 11 0.13358
8 7 100 11 0.185422
9 7 100 11 0.0222165
10 7 100 11 0.106091
11 7 100 11 0.0888661
2 8 100 11 0.0424522
3 8 100 11 0.204445
4 8 100 11 0.255341
5 8 100 11 0.089348
6 8 100 11 0.000362921
7 8 100 11 0.152606
8 8 100 11 0.0510695
9 8 100 11 0.0510698
10 8 100 11 0.153208
11 8 100 11 9.69602e-05
1 9 100 11 0.00397332
3 9 100 11 0.0173179
4 9 100 11 0.0520536
5 9 100 11 0.103917
6 9 100 11 0.087116
7 9 100 11 0.173179
8 9 100 11 0.138557
9 9 100 11 0.173214
10 9 100 11 0.0555958
11 9 100 11 0.195076
1 10 100 11 0.0781444
2 10 100 11 0.0863522
3 10 100 11 0.0215881
4 10 100 11 0.0647649
5 10 100 11 0.0651655
6 10 100 11 0.10642
7 10 100 11 0.065011
8 10 100 11 0.186821
9 10 100 11 0.13125
10 10 100 11 0.10794
11 10 100 11 0.0865423
1 11 100 11 0.0231681
2 11 100 11 0.116072
3 11 100 11 0.160864
4 11 100 11 0.0740455
5 11 100 11 0.0462428
6 11 100 11 0.0591324
7 11 100 11 0.072216
8 11 100 11 0.0374539
9 11 100 11 0.186739
10 11 100 11 0.0742374
11 11 100 11 0.149829
1 12 100 11 0.0531913
2 12 100 11 0.0725834
3 12 100 11 0.143637
4 12 100 11 0.150008
5 12 100 11 0.107325
6 12 100 11 0.0388314
7 12 100 11 0.0776628
8 12 100 11 0.00045771
9 12 100 11 0.0757645
10 12 100 11 0.125122
11 12 100 11 0.155415
2 13 100 11 0.00106315
3 13 100 11 0.0591383
4 13 100 11 0.124172
5 13 100 11 0.0710231
6 13 100 11 0.121781
7 13 100 11 0.0594224
8 13 100 11 0.123076
9 13 100 11 0.118104
10 13 100 11 0.224637
11 13 100 11 0.0975826
1 14 100 11 0.0842147
2 14 100 11 0.0388907
3 14 100 11 0.0423431
4 14 100 11 0.00697669
5 14 100 11 0.000471631
6 14 100 11 0.10687
7 14 100 11 0.167887
8 14 100 11 0.187462
9 14 100 11 0.212935
10 14 100 11 0.0402539
11 14 100 11 0.111696
1 15 100 11 0.383516
2 15 100 11 0.00349922
3 15 100 11 0.000188485
4 15 100 11 0.164849
5 15 100 11 0.00310472
6 15 100 11 5.68082e-06
7 15 100 11 0.192363
8 15 100 11 2.17216e-05
9 15 100 11 0.00536394
10 15 100 11 0.00199959
11 15 100 11 0.245089
1 16 100 11 0.0729562
2 16 100 11 0.142603
3 16 100 11 0.076804
4 16 100 11 4.52674e-05
5 16 100 11 0.00103362
6 16 100 11 0.245571
7 16 100 11 0.145567
8 16 100 11 0.000889752
9 16 100 11 0.0751743
10 16 100 11 0.0165821
11 16 100 11 0.222773
1 17 100 11 1.65322e-06
2 17 100 11 0.000624179
3 17 100 11 0.21566
4 17 100 11 0.17498
5 17 100 11 0.000499249
6 17 100 11 0.0903524
7 17 100 11 0.0617063
8 17 100 11 0.267905
9 17 100 11 0.0596478
10 17 100 11 0.0023026
11 17 100 11 0.126321
2 18 100 11 0.112723
3 18 100 11 0.00236904
5 18 100 11 0.000221506
7 18 100 11 0.881169
9 18 100 11 0.00320116
11 18 100 11 0.000316527
1 19 100 11 0.316231
8 19 100 11 0.000219711
9 19 100 11 6.71953e-06
10 19 100 11 0.683542
3 20 100 11 0.000121244
7 20 100 11 0.00421701
8 20 100 11 5.19653e-06
11 20 100 11 0.995656
2 21 100 11 1.29687e-05
3 21 100 11 8.71148e-06
4 21 100 11 1.97711e-06
6 21 100 11 5.52479e-07
8 21 100 11 0.457532
9 21 100 11 0.542443
1 22 100 11 0.000527757
2 22 100 11 6.53503e-06
3 22 100 11 3.34408e-06
7 22 100 11 0.00024121
8 22 100 11 0.000145668
9 22 100 11 0.00174074
10 22 100 11 0.498667
11 22 100 11 0.498668
1 23 100 11 0.100927
2 23 100 11 0.18907
6 23 100 11 0.00599181
8 23 100 11 0.187917
9 23 100 11 0.153408
10 23 100 11 0.189076
11 23 100 11 0.173611
2 0 100 12 0.114272
3 0 100 12 0.046025
4 0 100 12 0.137399
5 0 100 12 0.0765111
6 0 100 12 0.13258
7 0 100 12 0.0916629
8 0 100 12 0.137619
9 0 100 12 0.108517
10 0 100 12 0.0314368
11 0 100 12 0.123977
12 0 100 12 2.87975e-07
1 1 100 12 0.782934
2 1 100 12 0.0676927
3 1 100 12 0.0891844
4 1 100 12 0.0297283
5 1 100 12 5.35487e-07
6 1 100 12 1.02261e-06
7 1 100 12 0.0300037
9 1 100 12 0.000426399
10 1 100 12 4.18356e-06
12 1 100 12 2.46661e-05
1 2 100 12 0.112146
2 2 100 12 0.307412
3 2 100 12 0.216188
4 2 100 12 0.192284
5 2 100 12 0.0721066
6 2 100 12 0.024175
7 2 100 12 0.00419804
8 2 100 12 0.071489
12 2 100 12 1.24093e-06
1 3 100 12 0.0963913
2 3 100 12 0.159797
3 3 100 12 0.148249
4 3 100 12 0.0495232
5 3 100 12 0.123797
6 3 100 12 0.0992353
7 3 100 12 0.0990413
8 3 100 12 0.0256536
9 3 100 12 0.0497515
10 3 100 12 0.0495197
11 3 100 12 0.0247619
12 3 100 12 0.0742795
1 4 100 12 0.0699758
2 4 100 12 0.0991832
3 4 100 12 0.228803
4 4 100 12 0.199462
5 4 100 12 0.0737969
6 4 100 12 0.0661647
7 4 100 12 0.196189
10 4 100 12 1.83957e-06
11 4 100 12 0.033213
12 4 100 12 0.0332107
1 5 100 12 0.0610149
2 5 100 12 0.152553
3 5 100 12 0.0610283
4 5 100 12 0.152421
5 5 100 12 0.0680471
6 5 100 12 0.0915331
7 5 100 12 0.153711
8 5 100 12 0.0610208
9 5 100 12 0.0911084
10 5 100 12 0.0465389
11 5 100 12 0.0305094
12 5 100 12 0.0305146
1 6 100 12 0.000219361
2 6 100 12 1.47841e-05
3 6 100 12 0.188851
4 6 100 12 0.0463593
5 6 100 12 0.215645
7 6 100 12 0.0461414
8 6 100 12 0.138422
9 6 100 12 0.0919071
10 6 100 12 0.0461408
11 6 100 12 0.138423
12 6 100 12 0.087875
1 7 100 12 0.0387724
2 7 100 12 0.0387772
3 7 100 12 0.0725129
4 7 100 12 0.193796
5 7 100 12 0.119664
6 7 100 12 0.155171
7 7 100 12 0.109861
8 7 100 12 0.116314
9 7 100 12 4.2306e-05
11 7 100 12 0.0387724
12 7 100 12 0.116317
2 8 100 12 0.0308739
3 8 100 12 0.066377
4 8 100 12 0.0925907
5 8 100 12 0.0926333
6 8 100 12 0.124666
7 8 100 12 0.191693
8 8 100 12 0.185089
9 8 100 12 0.0617739
10 8 100 12 0.0617177
11 8 100 12 0.030862
12 8 100 12 0.061724
1 9 100 12 0.0316657
2 9 100 12 0.0316646
3 9 100 12 0.0633276
5 9 100 12 0.126494
6 9 100 12 0.126622
7 9 100 12 0.181049
8 9 100 12 0.0636133
9 9 100 12 0.153226
10 9 100 12 0.0956842
11 9 100 12 0.0949914
12 9 100 12 0.0316638
2 10 100 12 0.000435995
3 10 100 12 0.0352574
4 10 100 12 0.0352574
5 10 100 12 0.141037
6 10 100 12 0.186907
7 10 100 12 0.0372512
8 10 100 12 0.0705383
9 10 100 12 0.105772
10 10 100 12 0.281321
11 10 100 12 0.06242
12 10 100 12 0.0438025
1 11 100 12 0.0815768
2 11 100 12 1.40641e-06
3 11 100 12 0.000162224
4 11 100 12 0.122506
5 11 100 12 0.0423792
6 11 100 12 0.0408449
7 11 100 12 0.0813941
8 11 100 12 0.121553
9 11 100 12 0.0410668
10 11 100 12 0.141853
11 11 100 12 0.124367
12 11 100 12 0.202295
1 12 100 12 0.0382164
2 12 100 12 0.0957858
3 12 100 12 0.0574498
4 12 100 12 0.0191565
5 12 100 12 0.107783
6 12 100 12 0.114506
7 12 100 12 0.0191432
8 12 100 12 0.0229784
9 12 100 12 0.193315
10 12 100 12 0.137537
11 12 100 12 0.0971944
12 12 100 12 0.0969341
2 13 100 12 0.000196843
3 13 100 12 0.0233639
4 13 100 12 0.000385048
6 13 100 12 0.0437475
7 13 100 12 0.0436368
8 13 100 12 0.0791921
9 13 100 12 0.1745
10 13 100 12 0.285538
11 13 100 12 0.0872736
12 13 100 12 0.262166
1 14 100 12 0.0527115
2 14 100 12 0.000266714
3 14 100 12 0.0423835
4 14 100 12 0.000101659
5 14 100 12 0.0559306
6 14 100 12 0.0390292
7 14 100 12 0.0530491
8 14 100 12 0.0531039
9 14 100 12 0.0655803
10 14 100 12 0.183294
11 14 100 12 0.26822
12 14 100 12 0.186329
1 15 100 12 3.92087e-06
2 15 100 12 0.0617447
3 15 100 12 0.0674195
4 15 100 12 0.00720648
5 15 100 12 0.0312932
6 15 100 12 0.000687545
7 15 100 12 0.0923299
8 15 100 12 0.230023
9 15 100 12 0.143719
10 15 100 12 0.0983205
11 15 100 12 0.111707
12 15 100 12 0.155546
1 16 100 12 0.00085931
2 16 100 12 0.00327572
3 16 100 12 0.000213559
4 16 100 12 0.0640651
5 16 100 12 0.064072
6 16 100 12 0.0602964
7 16 100 12 0.00782031
8 16 100 12 0.0662115
9 16 100 12 0.0672948
10 16 100 12 0.22279
11 16 100 12 0.193325
12 16 100 12 0.249776
2 17 100 12 0.000368238
3 17 100 12 9.25693e-07
4 17 100 12 1.6565e-07
5 17 100 12 2.15969e-05
6 17 100 12 2.78543e-07
7 17 100 12 0.00235404
8 17 100 12 4.75699e-05
9 17 100 12 0.209043
10 17 100 12 0.0474234
11 17 100 12 0.417643
12 17 100 12 0.323099
1 18 100 12 0.153847
2 18 100 12 0.153846
3 18 100 12 0.153846
4 18 100 12 0.153849
5 18 100 12 0.231462
6 18 100 12 0.000712123
7 18 100 12 0.000646817
8 18 100 12 0.144386
9 18 100 12 0.00542967
10 18 100 12 0.0016889
11 18 100 12 2.70665e-05
12 18 100 12 0.000259797
2 19 100 12 4.47329e-06
3 19 100 12 0.00134072
4 19 100 12 1.24838e-05
5 19 100 12 0.226961
6 19 100 12 0.000342313
8 19 100 12 2.71828e-05
9 19 100 12 5.10525e-05
10 19 100 12 0.192907
11 19 100 12 0.192907
12 19 100 12 0.385447
1 20 100 12 0.25676
2 20 100 12 0.00108034
3 20 100 12 6.06446e-05
5 20 100 12 1.36496e-05
6 20 100 12 0.261217
7 20 100 12 0.480631
8 20 100 12 4.93813e-05
9 20 100 12 2.07059e-05
10 20 100 12 1.81501e-05
11 20 100 12 1.10725e-05
12 20 100 12 0.000138585
1 21 100 12 0.00214586
2 21 100 12 0.236331
3 21 100 12 0.237261
4 21 100 12 0.255261
5 21 100 12 1.18929e-06
6 21 100 12 0.237856
7 21 100 12 0.030557
8 21 100 12 0.000586724
10 21 100 12 1.30932e-06
4 22 100 12 0.00375691
5 22 100 12 1.73929e-05
6 22 100 12 1.94781e-05
7 22 100 12 0.00178576
8 22 100 12 0.279657
9 22 100 12 0.146529
10 22 100 12 0.146551
11 22 100 12 0.146562
12 22 100 12 0.275121
1 0 100 13 0.000525379
2 0 100 13 0.0853899
3 0 100 13 0.113813
4 0 100 13 0.127023
5 0 100 13 0.0992982
6 0 100 13 0.063626
7 0 100 13 0.0997034
8 0 100 13 0.1141
9 0 100 13 0.0737712
10 0 100 13 0.0231215
11 0 100 13 0.0569752
12 0 100 13 0.12841
13 0 100 13 0.0142432
1 1 100 13 0.77936
2 1 100 13 0.115485
3 1 100 13 0.0350504
4 1 100 13 9.21137e-07
6 1 100 13 0.0350504
7 1 100 13 1.0347e-06
8 1 100 13 0.0350504
9 1 100 13 1.18897e-06
1 2 100 13 0.211993
2 2 100 13 0.340233
3 2 100 13 0.182346
4 2 100 13 0.0982334
5 2 100 13 0.0653725
6 2 100 13 0.0287096
7 2 100 13 6.24137e-07
8 2 100 13 1.79899e-06
9 2 100 13 0.0481917
10 2 100 13 0.000695983
11 2 100 13 1.69305e-05
12 2 100 13 0.0241918
13 2 100 13 1.46995e-05
1 3 100 13 0.036133
2 3 100 13 0.362021
3 3 100 13 0.263021
4 3 100 13 0.150277
5 3 100 13 0.0375384
7 3 100 13 0.0750853
8 3 100 13 0.0383828
9 3 100 13 4.3038e-06
13 3 100 13 0.0375376
1 4 100 13 0.0600955
2 4 100 13 0.0200224
3 4 100 13 0.10011
4 4 100 13 0.176186
5 4 100 13 0.140267
6 4 100 13 0.120132
7 4 100 13 0.0584206
8 4 100 13 0.0776887
9 4 100 13 0.0409866
10 4 100 13 0.0793375
11 4 100 13 0.0600657
12 4 100 13 0.0266383
13 4 100 13 0.0400506
1 5 100 13 0.0904609
2 5 100 13 0.0601858
3 5 100 13 0.0305607
4 5 100 13 0.0871446
5 5 100 13 0.150664
6 5 100 13 0.00364863
7 5 100 13 0.120576
8 5 100 13 0.120611
9 5 100 13 0.144256
10 5 100 13 0.0603303
11 5 100 13 0.101379
12 5 100 13 0.0301536
13 5 100 13 2.97487e-05
1 6 100 13 0.0661544
2 6 100 13 0.0330772
3 6 100 13 0.0661544
4 6 100 13 0.107195
5 6 100 13 0.0661208
6 6 100 13 0.165386
7 6 100 13 0.066115
8 6 100 13 0.0661542
9 6 100 13 0.0661544
10 6 100 13 0.0330772
11 6 100 13 0.0990226
12 6 100 13 0.0992316
13 6 100 13 0.0661572
1 7 100 13 1.77242e-05
3 7 100 13 0.0481269
4 7 100 13 0.0664289
5 7 100 13 0.0332237
6 7 100 13 0.0998657
7 7 100 13 0.199142
8 7 100 13 0.0981845
9 7 100 13 0.0995238
10 7 100 13 0.16613
11 7 100 13 0.0332199
12 7 100 13 0.131748
13 7 100 13 0.0243885
1 8 100 13 3.23102e-06
2 8 100 13 0.000134957
3 8 100 13 0.0754467
4 8 100 13 0.0365155
5 8 100 13 0.134015
6 8 100 13 0.171115
7 8 100 13 0.0669927
8 8 100 13 0.14006
9 8 100 13 0.10048
10 8 100 13 0.0676469
11 8 100 13 0.0669874
12 8 100 13 0.0334933
13 8 100 13 0.10711
2 9 100 13 0.0261025
3 9 100 13 0.0261041
4 9 100 13 0.0355202
5 9 100 13 0.1312
6 9 100 13 0.207891
7 9 100 13 0.130521
8 9 100 13 0.102194
9 9 100 13 0.0783611
10 9 100 13 0.0783123
11 9 100 13 0.0522083
12 9 100 13 0.0783124
13 9 100 13 0.0532737
1 10 100 13 0.0930394
2 10 100 13 0.0620439
3 10 100 13 0.0299475
4 10 100 13 0.0929534
5 10 100 13 0.0667974
6 10 100 13 0.0375757
7 10 100 13 0.0647047
8 10 100 13 3.96491e-05
9 10 100 13 0.0620433
10 10 100 13 0.135757
11 10 100 13 0.124025
12 10 100 13 0.121762
13 10 100 13 0.109311
1 11 100 13 0.0296052
2 11 100 13 0.0739843
3 11 100 13 0.0744959
4 11 100 13 0.0444503
5 11 100 13 0.076442
6 11 100 13 0.106386
7 11 100 13 0.073447
8 11 100 13 0.0609538
9 11 100 13 0.059208
10 11 100 13 0.103375
11 11 100 13 0.0834191
12 11 100 13 0.0986915
13 11 100 13 0.115541
4 12 100 13 0.0295442
5 12 100 13 3.55794e-07
6 12 100 13 0.0536043
7 12 100 13 0.118172
8 12 100 13 0.180074
9 12 100 13 0.145859
10 12 100 13 0.0593295
11 12 100 13 0.206802
12 12 100 13 0.0880926
13 12 100 13 0.118522
1 13 100 13 0.0398537
2 13 100 13 6.5305e-07
4 13 100 13 3.06933e-06
6 13 100 13 0.0399565
7 13 100 13 0.0811854
8 13 100 13 0.157619
9 13 100 13 0.241623
10 13 100 13 0.199286
11 13 100 13 0.0797144
12 13 100 13 0.00133469
13 13 100 13 0.159423
1 14 100 13 0.0553916
2 14 100 13 0.115038
3 14 100 13 0.110775
4 14 100 13 0.110764
6 14 100 13 0.0553736
7 14 100 13 0.0553868
8 14 100 13 0.00013515
9 14 100 13 0.0552699
10 14 100 13 0.166153
11 14 100 13 0.0553915
12 14 100 13 0.110773
13 14 100 13 0.109548
2 15 100 13 5.03025e-05
3 15 100 13 9.63539e-06
4 15 100 13 0.0005472
5 15 100 13 0.214843
6 15 100 13 0.0732125
7 15 100 13 0.0743646
8 15 100 13 0.101412
9 15 100 13 0.0791326
10 15 100 13 0.143061
11 15 100 13 0.169538
12 15 100 13 0.0703886
13 15 100 13 0.0734408
1 16 100 13 0.0408715
2 16 100 13 0.0695846
3 16 100 13 0.141464
4 16 100 13 0.0784482
5 16 100 13 0.0810659
6 16 100 13 0.0144773
7 16 100 13 0.00746265
8 16 100 13 0.0394957
9 16 100 13 0.0320012
10 16 100 13 0.0999975
11 16 100 13 0.147816
12 16 100 13 0.111954
13 16 100 13 0.135362
1 17 100 13 0.0767003
2 17 100 13 0.0489001
3 17 100 13 0.0426073
4 17 100 13 0.0399592
5 17 100 13 0.00051531
6 17 100 13 0.0411591
7 17 100 13 0.0799009
8 17 100 13 0.00486903
9 17 100 13 0.125826
10 17 100 13 0.101219
11 17 100 13 0.0851213
12 17 100 13 0.129168
13 17 100 13 0.224055
1 18 100 13 2.38883e-05
2 18 100 13 2.56671e-07
3 18 100 13 4.8506e-05
4 18 100 13 8.69988e-06
5 18 100 13 0.0291029
6 18 100 13 3.1299e-06
7 18 100 13 6.22418e-05
8 18 100 13 0.000801669
9 18 100 13 0.101603
10 18 100 13 0.149259
11 18 100 13 0.22809
12 18 100 13 0.197922
13 18 100 13 0.293074
2 19 100 13 0.0364019
3 19 100 13 0.0020158
5 19 100 13 0.0284048
6 19 100 13 6.32141e-05
7 19 100 13 0.00632627
9 19 100 13 0.223517
10 19 100 13 0.000100016
11 19 100 13 0.00194233
13 19 100 13 0.701229
1 20 100 13 5.93263e-05
6 20 100 13 0.0069587
7 20 100 13 6.64659e-05
8 20 100 13 0.000112158
9 20 100 13 2.06691e-05
10 20 100 13 1.26733e-05
11 20 100 13 4.3889e-05
12 20 100 13 0.0170132
13 20 100 13 0.975713
4 21 100 13 4.61457e-07
6 21 100 13 0.123248
7 21 100 13 0.124782
8 21 100 13 0.125308
9 21 100 13 0.125332
10 21 100 13 0.125334
11 21 100 13 0.125327
12 21 100 13 0.125329
13 21 100 13 0.125338
3 22 100 13 0.032777
5 22 100 13 0.967223
8 23 100 13 1
5 24 100 13 1
5 25 100 13 0.0385531
11 25 100 13 0.961447
4 35 100 13 1
10 39 100 13 0.123053
12 39 100 13 0.876947
1 0 100 14 0.0188537
2 0 100 14 0.0775564
3 0 100 14 0.0790717
4 0 100 14 0.0865961
5 0 100 14 0.0572628
6 0 100 14 0.0844731
7 0 100 14 0.114062
8 0 100 14 0.0870447
9 0 100 14 0.0775844
10 0 100 14 0.095865
11 0 100 14 0.0751826
12 0 100 14 0.0397883
13 0 100 14 0.0969571
14 0 100 14 0.00970235
1 1 100 14 0.625822
2 1 100 14 0.124677
3 1 100 14 0.0311666
4 1 100 14 0.0934706
5 1 100 14 0.062333
6 1 100 14 8.49639e-05
9 1 100 14 0.031169
10 1 100 14 0.0312704
11 1 100 14 6.20873e-06
14 1 100 14 3.24395e-07
1 2 100 14 0.267334
2 2 100 14 0.391063
3 2 100 14 0.122006
4 2 100 14 0.0730627
5 2 100 14 0.0730628
6 2 100 14 0.0490472
8 2 100 14 1.33636e-05
9 2 100 14 0.0243715
10 2 100 14 1.04416e-05
12 2 100 14 1.94003e-05
14 2 100 14 9.01836e-06
1 3 100 14 0.28972
2 3 100 14 0.200121
3 3 100 14 0.305731
4 3 100 14 0.107625
6 3 100 14 0.0467322
7 3 100 14 3.89726e-05
8 3 100 14 0.0500314
12 3 100 14 1.63572e-06
1 4 100 14 0.103344
2 4 100 14 0.187101
3 4 100 14 0.140279
4 4 100 14 0.140289
5 4 100 14 0.144913
6 4 100 14 0.00309759
8 4 100 14 0.0467753
10 4 100 14 0.0935506
11 4 100 14 0.0469278
12 4 100 14 0.0468749
13 4 100 14 7.16529e-05
14 4 100 14 0.0467753
2 5 100 14 2.36302e-05
3 5 100 14 0.208457
4 5 100 14 0.249868
5 5 100 14 0.182416
6 5 100 14 0.10945
7 5 100 14 0.0364849
8 5 100 14 1.20549e-06
9 5 100 14 0.0364833
10 5 100 14 3.14667e-06
11 5 100 14 0.0364833
12 5 100 14 0.0364838
13 5 100 14 0.0364833
14 5 100 14 0.0673627
1 6 100 14 0.18728
2 6 100 14 0.0936398
3 6 100 14 0.28092
4 6 100 14 0.142644
5 6 100 14 0.146595
6 6 100 14 0.0935052
7 6 100 14 0.00844822
10 6 100 14 0.000148003
11 6 100 14 0.04682
1 7 100 14 0.00106403
2 7 100 14 0.227689
4 7 100 14 0.227199
5 7 100 14 0.13118
6 7 100 14 4.50786e-06
7 7 100 14 0.177078
8 7 100 14 0.0943005
9 7 100 14 0.047151
10 7 100 14 0.0471827
13 7 100 14 0.0471512
1 8 100 14 0.0663845
2 8 100 14 0.0388145
3 8 100 14 0.232613
4 8 100 14 0.00587423
5 8 100 14 0.135694
6 8 100 14 0.0765373
7 8 100 14 0.177729
8 8 100 14 0.0671871
9 8 100 14 0.0663874
10 8 100 14 0.0331973
11 8 100 14 0.033193
12 8 100 14 0.033193
14 8 100 14 0.033196
3 9 100 14 2.17451e-05
4 9 100 14 0.000802393
5 9 100 14 0.0384918
6 9 100 14 0.0768247
7 9 100 14 0.191671
8 9 100 14 0.230394
9 9 100 14 0.188545
10 9 100 14 0.0812273
11 9 100 14 0.0384103
12 9 100 14 0.0767907
13 9 100 14 0.0384103
14 9 100 14 0.0384103
3 10 100 14 2.43381e-06
4 10 100 14 0.0859632
5 10 100 14 0.114545
6 10 100 14 0.114466
7 10 100 14 0.171974
8 10 100 14 0.114606
9 10 100 14 0.169169
10 10 100 14 0.114487
11 10 100 14 0.0288377
12 10 100 14 0.0286485
13 10 100 14 0.0286449
14 10 100 14 0.0286569
1 11 100 14 0.0240276
2 11 100 14 0.0339423
3 11 100 14 0.0240303
4 11 100 14 0.0240323
5 11 100 14 0.0720837
6 11 100 14 0.165604
7 11 100 14 0.0480552
8 11 100 14 0.0738001
9 11 100 14 0.0764614
10 11 100 14 0.192141
11 11 100 14 0.0978553
12 11 100 14 0.0960572
13 11 100 14 0.0480551
14 11 100 14 0.0238551
1 12 100 14 0.0292567
2 12 100 14 0.0877941
3 12 100 14 0.0585294
4 12 100 14 0.0292885
5 12 100 14 0.0584703
6 12 100 14 0.0667838
7 12 100 14 0.029288
8 12 100 14 0.0370385
9 12 100 14 0.0876912
10 12 100 14 0.0229099
11 12 100 14 0.17859
12 12 100 14 0.0883843
13 12 100 14 0.114032
14 12 100 14 0.111944
2 13 100 14 1.5313e-06
3 13 100 14 0.0430028
4 13 100 14 0.0643257
5 13 100 14 0.0215054
6 13 100 14 0.102943
7 13 100 14 0.131107
8 13 100 14 0.12902
9 13 100 14 0.0430028
10 13 100 14 0.0430034
11 13 100 14 0.0868476
12 13 100 14 0.152368
13 13 100 14 0.13987
14 13 100 14 0.0430028
1 14 100 14 0.0528103
2 14 100 14 0.0267094
3 14 100 14 0.0268147
4 14 100 14 0.0530742
5 14 100 14 0.0801136
6 14 100 14 0.0812208
7 14 100 14 0.0534106
8 14 100 14 0.0730302
9 14 100 14 0.0802141
10 14 100 14 0.0534106
11 14 100 14 0.156319
12 14 100 14 0.0758239
13 14 100 14 0.106933
14 14 100 14 0.0801159
2 15 100 14 0.0117024
3 15 100 14 0.0220432
4 15 100 14 0.0440299
5 15 100 14 0.0220092
6 15 100 14 0.0440183
7 15 100 14 0.0220092
8 15 100 14 0.0660176
9 15 100 14 0.0878255
10 15 100 14 0.13204
11 15 100 14 0.0883337
12 15 100 14 0.143997
13 15 100 14 0.101145
14 15 100 14 0.214829
1 16 100 14 0.0282322
2 16 100 14 0.0145707
3 16 100 14 0.0646096
4 16 100 14 0.0323396
5 16 100 14 0.12372
6 16 100 14 0.0571643
7 16 100 14 0.0550681
8 16 100 14 0.106184
9 16 100 14 0.0983477
10 16 100 14 0.0860242
11 16 100 14 0.0767063
12 16 100 14 0.070691
13 16 100 14 0.0719225
14 16 100 14 0.11442
1 17 100 14 0.000133761
2 17 100 14 4.83614e-05
3 17 100 14 6.69963e-06
4 17 100 14 0.161557
5 17 100 14 0.000159966
6 17 100 14 0.0862955
7 17 100 14 0.0268275
8 17 100 14 0.00153575
9 17 100 14 0.16049
10 17 100 14 0.0825973
11 17 100 14 0.082704
12 17 100 14 0.107541
13 17 100 14 0.118628
14 17 100 14 0.171475
1 18 100 14 0.00318449
2 18 100 14 7.42396e-07
3 18 100 14 0.00344231
4 18 100 14 0.00257287
5 18 100 14 0.00105955
6 18 100 14 0.0143243
7 18 100 14 0.0570982
8 18 100 14 0.0871783
9 18 100 14 0.0598477
10 18 100 14 0.133577
11 18 100 14 0.143861
12 18 100 14 0.143115
13 18 100 14 0.170086
14 18 100 14 0.180652
2 19 100 14 6.27472e-06
3 19 100 14 1.87985e-05
4 19 100 14 0.0441994
5 19 100 14 0.0451501
6 19 100 14 0.0886671
7 19 100 14 1.31874e-06
8 19 100 14 0.0866291
9 19 100 14 0.0446359
10 19 100 14 0.045192
11 19 100 14 0.114403
12 19 100 14 0.20769
13 19 100 14 0.150314
14 19 100 14 0.173092
1 20 100 14 2.24242e-07
2 20 100 14 1.72838e-07
3 20 100 14 4.40522e-06
4 20 100 14 7.71415e-05
5 20 100 14 0.144634
6 20 100 14 0.0744325
7 20 100 14 0.113681
8 20 100 14 0.0720877
9 20 100 14 0.0744241
10 20 100 14 0.110036
11 20 100 14 0.0037898
12 20 100 14 0.074027
13 20 100 14 0.0750051
14 20 100 14 0.2578
2 21 100 14 0.000236834
3 21 100 14 8.29032e-06
4 21 100 14 1.22695e-06
5 21 100 14 0.0013938
6 21 100 14 0.114788
7 21 100 14 3.70025e-05
8 21 100 14 0.0142685
9 21 100 14 0.339652
10 21 100 14 0.188465
11 21 100 14 0.337413
12 21 100 14 0.000200204
13 21 100 14 1.14512e-05
14 21 100 14 0.0035252
2 22 100 14 0.594898
3 22 100 14 2.57058e-05
4 22 100 14 0.312191
5 22 100 14 8.98412e-06
7 22 100 14 0.0193616
8 22 100 14 8.11725e-05
10 22 100 14 0.0623867
12 22 100 14 0.000862453
13 22 100 14 0.0101844
2 23 100 14 1.11567e-05
4 23 100 14 2.69782e-07
6 23 100 14 1.3395e-06
7 23 100 14 6.22219e-05
8 23 100 14 0.163399
9 23 100 14 0.00136222
10 23 100 14 5.15443e-07
11 23 100 14 0.29926
12 23 100 14 0.252836
13 23 100 14 0.258682
14 23 100 14 0.0243858
1 24 100 14 2.54944e-06
2 24 100 14 8.00208e-07
3 24 100 14 4.86127e-07
4 24 100 14 0.121605
5 24 100 14 0.121883
6 24 100 14 0.121605
7 24 100 14 0.115773
8 24 100 14 0.0444937
9 24 100 14 0.120954
10 24 100 14 0.000439485
11 24 100 14 0.000242007
12 24 100 14 5.12906e-06
13 24 100 14 0.000585498
14 24 100 14 0.352411
4 25 100 14 2.85043e-05
5 25 100 14 0.0431946
6 25 100 14 0.000236887
8 25 100 14 1.11053e-05
9 25 100 14 1.72676e-05
10 25 100 14 0.919026
11 25 100 14 3.55722e-06
12 25 100 14 0.00283261
13 25 100 14 0.00325427
14 25 100 14 0.0313948
2 26 100 14 7.30326e-05
4 26 100 14 4.5654e-05
7 26 100 14 0.0214638
11 26 100 14 1.53447e-05
14 26 100 14 0.978402
3 27 100 14 2.82901e-07
5 27 100 14 1.99225e-06
7 27 100 14 1.07944e-06
9 27 100 14 1.53384e-06
10 27 100 14 0.00102084
11 27 100 14 0.151882
12 27 100 14 0.404696
13 27 100 14 0.151544
14 27 100 14 0.290852
4 28 100 14 0.00346162
5 28 100 14 0.0306805
7 28 100 14 0.790957
11 28 100 14 0.173592
12 28 100 14 0.00130865
4 29 100 14 0.000175727
7 29 100 14 1.35739e-05
11 29 100 14 0.000496683
12 29 100 14 0.00253183
13 29 100 14 0.996782
4 30 100 14 3.5608e-06
7 30 100 14 5.32951e-05
12 30 100 14 2.63255e-05
13 30 100 14 0.0186535
14 30 100 14 0.981263
11 32 100 14 1
1 0 100 15 0.000414094
2 0 100 15 0.0989011
3 0 100 15 0.0727674
4 0 100 15 0.0749116
5 0 100 15 0.0241839
6 0 100 15 0.104457
7 0 100 15 0.0947358
8 0 100 15 0.0650222
9 0 100 15 0.113167
10 0 100 15 0.0324243
11 0 100 15 0.064407
12 0 100 15 0.0858946
13 0 100 15 0.0564083
14 0 100 15 0.0866006
15 0 100 15 0.0257053
1 1 100 15 0.622413
2 1 100 15 0.168449
3 1 100 15 0.0762351
4 1 100 15 0.0946292
5 1 100 15 0.0191878
6 1 100 15 1.50932e-06
7 1 100 15 0.0190835
9 1 100 15 2.5123e-07
12 1 100 15 2.02366e-07
1 2 100 15 0.261653
2 2 100 15 0.344564
3 2 100 15 0.173784
4 2 100 15 0.0607385
5 2 100 15 0.0557466
6 2 100 15 0.0185822
7 2 100 15 0.0292085
8 2 100 15 0.0370754
9 2 100 15 0.0185822
10 2 100 15 6.05366e-05
13 2 100 15 4.04334e-07
15 2 100 15 4.50958e-06
1 3 100 15 0.0872546
2 3 100 15 0.169019
3 3 100 15 0.286664
4 3 100 15 0.123514
5 3 100 15 0.0862984
6 3 100 15 0.0371711
7 3 100 15 0.0614532
8 3 100 15 0.0248401
9 3 100 15 0.0245625
10 3 100 15 0.0248643
11 3 100 15 0.0247918
12 3 100 15 0.0123945
13 3 100 15 0.0123904
14 3 100 15 0.0123905
15 3 100 15 0.0123916
1 4 100 15 0.0981875
2 4 100 15 0.194712
3 4 100 15 0.169655
4 4 100 15 0.345465
5 4 100 15 0.0344517
6 4 100 15 0.0327513
7 4 100 15 4.41527e-05
8 4 100 15 0.000178331
9 4 100 15 0.0327325
10 4 100 15 0.0261196
12 4 100 15 0.000244369
14 4 100 15 0.0327299
15 4 100 15 0.0327293
1 5 100 15 0.0413552
2 5 100 15 0.0413552
3 5 100 15 0.103428
4 5 100 15 0.190612
5 5 100 15 0.224637
6 5 100 15 0.0620333
7 5 100 15 0.08677
8 5 100 15 0.0620534
9 5 100 15 0.0626674
10 5 100 15 0.0425496
11 5 100 15 0.0413552
12 5 100 15 0.0205024
13 5 100 15 3.98239e-06
14 5 100 15 0.0206763
15 5 100 15 7.19865e-07
1 6 100 15 0.0304744
2 6 100 15 0.0229916
3 6 100 15 0.0304639
4 6 100 15 0.0304694
5 6 100 15 0.243418
6 6 100 15 0.245511
7 6 100 15 0.0609614
8 6 100 15 0.122398
9 6 100 15 0.0609373
10 6 100 15 0.0609373
13 6 100 15 0.0609694
14 6 100 15 0.0304686
1 7 100 15 0.0236161
3 7 100 15 2.93033e-06
4 7 100 15 0.0998638
5 7 100 15 0.169746
6 7 100 15 0.169652
7 7 100 15 0.197363
8 7 100 15 0.0969262
9 7 100 15 0.000461048
10 7 100 15 0.0274658
11 7 100 15 0.0484724
12 7 100 15 0.0484724
13 7 100 15 0.0452077
14 7 100 15 0.0485147
15 7 100 15 0.0242362
1 8 100 15 4.89146e-06
2 8 100 15 0.0155138
3 8 100 15 0.0310373
4 8 100 15 0.0553511
5 8 100 15 0.121757
6 8 100 15 0.138951
7 8 100 15 0.109144
8 8 100 15 0.139057
9 8 100 15 0.0617543
10 8 100 15 0.0930801
11 8 100 15 0.0469827
12 8 100 15 0.0464257
13 8 100 15 0.0155138
14 8 100 15 0.0480163
15 8 100 15 0.0774105
4 9 100 15 2.45842e-07
5 9 100 15 0.08984
6 9 100 15 0.0766198
7 9 100 15 0.114826
8 9 100 15 0.134675
9 9 100 15 0.0713686
10 9 100 15 0.157981
11 9 100 15 0.0447288
12 9 100 15 0.0673375
13 9 100 15 0.112236
14 9 100 15 0.0448916
15 9 100 15 0.0854955
2 10 100 15 9.21391e-06
3 10 100 15 1.60589e-05
4 10 100 15 0.0586019
5 10 100 15 0.0300608
6 10 100 15 0.0586558
7 10 100 15 0.170606
8 10 100 15 0.117235
9 10 100 15 0.0540481
10 10 100 15 0.0924761
11 10 100 15 0.175806
12 10 100 15 0.00101532
13 10 100 15 0.0586019
14 10 100 15 0.0952798
15 10 100 15 0.0875883
1 11 100 15 2.54229e-07
3 11 100 15 4.07156e-06
5 11 100 15 0.0760408
6 11 100 15 0.0964755
7 11 100 15 0.134245
8 11 100 15 0.119784
9 11 100 15 0.0916068
10 11 100 15 0.144715
11 11 100 15 0.0482404
12 11 100 15 0.095735
13 11 100 15 0.0723126
14 11 100 15 0.0964809
15 11 100 15 0.0243604
1 12 100 15 0.017284
3 12 100 15 0.0691358
4 12 100 15 0.0692793
5 12 100 15 0.0353401
6 12 100 15 0.0518985
7 12 100 15 0.0228666
8 12 100 15 0.103451
9 12 100 15 0.0684579
10 12 100 15 0.0661716
11 12 100 15 0.120992
12 12 100 15 0.138603
13 12 100 15 0.0866967
14 12 100 15 0.0848038
15 12 100 15 0.0650193
1 13 100 15 0.0704558
2 13 100 15 0.0234881
3 13 100 15 0.0304343
4 13 100 15 0.00108308
5 13 100 15 0.0250144
6 13 100 15 0.0605506
7 13 100 15 0.0236505
8 13 100 15 0.023487
9 13 100 15 0.16411
10 13 100 15 0.140832
11 13 100 15 0.0704468
12 13 100 15 0.0702928
13 13 100 15 0.117423
14 13 100 15 0.1174
15 13 100 15 0.0613309
1 14 100 15 0.0236539
2 14 100 15 0.0473857
3 14 100 15 0.0473078
4 14 100 15 0.0480308
5 14 100 15 0.0236539
6 14 100 15 0.0946078
7 14 100 15 0.0236506
8 14 100 15 0.0470682
9 14 100 15 0.165754
10 14 100 15 0.14184
11 14 100 15 0.0469157
12 14 100 15 0.0469332
13 14 100 15 0.0232375
14 14 100 15 0.0473078
15 14 100 15 0.172653
1 15 100 15 0.0315494
2 15 100 15 5.65074e-06
4 15 100 15 0.0258672
5 15 100 15 0.0517337
6 15 100 15 0.000592242
7 15 100 15 0.0258672
8 15 100 15 0.0511464
9 15 100 15 0.110306
10 15 100 15 0.129401
11 15 100 15 0.154474
12 15 100 15 0.134047
13 15 100 15 0.103497
14 15 100 15 0.0776016
15 15 100 15 0.103912
2 16 100 15 0.0330914
3 16 100 15 0.0165445
4 16 100 15 2.69605e-07
5 16 100 15 2.69909e-07
6 16 100 15 0.0165446
7 16 100 15 0.00392739
8 16 100 15 0.0499475
9 16 100 15 0.0814785
10 16 100 15 0.0823481
11 16 100 15 0.18145
12 16 100 15 0.11586
13 16 100 15 0.132382
14 16 100 15 0.117327
15 16 100 15 0.169098
1 17 100 15 0.000290576
2 17 100 15 1.24616e-05
3 17 100 15 0.023932
4 17 100 15 0.0230218
5 17 100 15 6.83702e-05
6 17 100 15 0.00109476
7 17 100 15 0.0688083
8 17 100 15 0.0489027
9 17 100 15 0.0472963
10 17 100 15 0.0712439
11 17 100 15 0.0478842
12 17 100 15 0.151967
13 17 100 15 0.161078
14 17 100 15 0.140418
15 17 100 15 0.213982
1 18 100 15 0.0394032
2 18 100 15 0.0394144
3 18 100 15 2.29786e-05
4 18 100 15 0.0398796
5 18 100 15 0.0596207
6 18 100 15 0.000787058
7 18 100 15 7.11679e-05
8 18 100 15 0.000118492
9 18 100 15 0.000689043
10 18 100 15 0.0384352
11 18 100 15 0.0885199
12 18 100 15 0.275041
13 18 100 15 0.251875
14 18 100 15 0.0794762
15 18 100 15 0.0866467
2 19 100 15 4.69429e-07
5 19 100 15 1.05849e-07
6 19 100 15 1.56754e-05
7 19 100 15 7.36051e-06
8 19 100 15 0.0098453
9 19 100 15 1.1628e-05
10 19 100 15 0.00116484
11 19 100 15 0.198658
12 19 100 15 0.0690154
13 19 100 15 0.322715
14 19 100 15 0.197962
15 19 100 15 0.200604
1 20 100 15 4.24715e-07
2 20 100 15 6.22321e-06
3 20 100 15 2.56819e-07
4 20 100 15 1.83827e-07
5 20 100 15 1.22644e-05
6 20 100 15 0.000457572
7 20 100 15 0.0990831
8 20 100 15 0.204781
9 20 100 15 0.00108943
10 20 100 15 0.120219
11 20 100 15 0.116059
12 20 100 15 8.42418e-05
13 20 100 15 0.00581484
14 20 100 15 0.117624
15 20 100 15 0.334768
4 21 100 15 0.0810727
5 21 100 15 0.0817693
6 21 100 15 0.0817914
7 21 100 15 0.0826126
8 21 100 15 0.0773808
9 21 100 15 0.104651
10 21 100 15 0.0807723
11 21 100 15 0.146836
12 21 100 15 0.0139599
13 21 100 15 0.0864076
14 21 100 15 0.0817845
15 21 100 15 0.0809618
2 22 100 15 6.91851e-06
3 22 100 15 0.000325015
4 22 100 15 1.16476e-06
5 22 100 15 0.292649
6 22 100 15 0.284117
7 22 100 15 0.000229943
8 22 100 15 0.00441389
9 22 100 15 0.0173635
10 22 100 15 0.000523441
11 22 100 15 0.000107075
12 22 100 15 0.105065
13 22 100 15 6.06164e-06
14 22 100 15 9.91841e-07
15 22 100 15 0.29519
1 23 100 15 5.1634e-05
4 23 100 15 0.000141599
5 23 100 15 7.02247e-06
6 23 100 15 7.86259e-07
7 23 100 15 6.74683e-06
8 23 100 15 0.00168895
9 23 100 15 0.219373
10 23 100 15 0.332112
11 23 100 15 0.124982
12 23 100 15 0.00147635
13 23 100 15 0.318864
14 23 100 15 0.00128617
15 23 100 15 9.40015e-06
4 24 100 15 3.66603e-05
5 24 100 15 2.76149e-06
6 24 100 15 0.00972675
7 24 100 15 4.97844e-05
8 24 100 15 3.42317e-05
9 24 100 15 7.97596e-05
10 24 100 15 5.72302e-05
11 24 100 15 0.390447
12 24 100 15 0.000579787
13 24 100 15 0.00343292
14 24 100 15 0.297235
15 24 100 15 0.298318
2 25 100 15 1.23373e-07
6 25 100 15 3.79746e-07
7 25 100 15 0.108705
8 25 100 15 0.107903
9 25 100 15 0.000144601
10 25 100 15 3.65269e-05
11 25 100 15 0.000665898
12 25 100 15 0.283846
13 25 100 15 0.183428
14 25 100 15 0.108909
15 25 100 15 0.20636
4 26 100 15 8.60917e-05
5 26 100 15 0.167011
6 26 100 15 0.16699
7 26 100 15 0.168821
8 26 100 15 0.168818
9 26 100 15 0.160006
10 26 100 15 2.17522e-06
11 26 100 15 4.21601e-06
12 26 100 15 8.84561e-07
13 26 100 15 1.81241e-05
14 26 100 15 0.168241
15 26 100 15 6.68459e-07
2 27 100 15 0.0101569
9 27 100 15 0.989843
6 28 100 15 1.18041e-05
8 28 100 15 7.93108e-07
9 28 100 15 1.50458e-05
10 28 100 15 0.436027
11 28 100 15 0.10987
12 28 100 15 9.69441e-07
13 28 100 15 1.19621e-05
14 28 100 15 0.000818825
15 28 100 15 0.453244
6 29 100 15 0.0653969
7 29 100 15 0.933785
11 29 100 15 0.000818325
6 31 100 15 0.701006
11 31 100 15 0.298994
14 32 100 15 1
6 33 100 15 0.687332
11 33 100 15 0.312668
6 34 100 15 0.000135658
11 34 100 15 0.999864
6 35 100 15 1
6 36 100 15 0.686774
11 36 100 15 0.313226
15 37 100 15 1
1 45 100 15 0.333333
3 45 100 15 0.333333
4 45 100 15 0.333333
15 45 100 15 1.39877e-06
5 46 100 15 0.109907
6 46 100 15 0.109754
8 46 100 15 0.109907
9 46 100 15 0.109907
10 46 100 15 0.109907
11 46 100 15 0.0109932
12 46 100 15 0.109907
13 46 100 15 0.109907
14 46 100 15 0.109907
15 46 100 15 0.109906
1 0 100 16 0.000136928
2 0 100 16 0.0844163
3 0 100 16 0.0368523
4 0 100 16 0.0971689
5 0 100 16 0.0303334
6 0 100 16 0.116124
7 0 100 16 0.0546456
8 0 100 16 0.0732951
9 0 100 16 0.0819897
10 0 100 16 0.0963891
11 0 100 16 0.0789703
12 0 100 16 0.0601816
13 0 100 16 0.0272196
14 0 100 16 0.0909407
15 0 100 16 0.0614631
16 0 100 16 0.00987357
1 1 100 16 0.600129
2 1 100 16 0.109731
3 1 100 16 0.0181383
4 1 100 16 0.072518
5 1 100 16 0.0544133
6 1 100 16 0.0181374
7 1 100 16 0.0362324
8 1 100 16 0.0181492
9 1 100 16 0.0181378
10 1 100 16 0.0181378
11 1 100 16 0.0181378
12 1 100 16 0.0181378
14 1 100 16 4.42939e-07
1 2 100 16 0.213881
2 2 100 16 0.326625
3 2 100 16 0.141514
4 2 100 16 0.0965506
5 2 100 16 0.0587134
6 2 100 16 0.0194864
7 2 100 16 0.0389562
8 2 100 16 0.00680199
9 2 100 16 0.0194792
10 2 100 16 0.0389559
11 2 100 16 0.0194781
12 2 100 16 0.0194781
13 2 100 16 6.89579e-05
14 2 100 16 1.07327e-05
1 3 100 16 0.111067
2 3 100 16 0.179182
3 3 100 16 0.293931
4 3 100 16 0.133343
5 3 100 16 0.0387298
6 3 100 16 0.0660025
7 3 100 16 1.0255e-06
8 3 100 16 9.08954e-06
10 3 100 16 0.0222133
11 3 100 16 0.0444266
12 3 100 16 0.0444269
13 3 100 16 0.0444266
14 3 100 16 0.0222415
1 4 100 16 0.0899431
2 4 100 16 0.128948
3 4 100 16 0.211748
4 4 100 16 0.0907444
5 4 100 16 0.143285
6 4 100 16 0.0294582
7 4 100 16 0.0719545
8 4 100 16 0.0359772
9 4 100 16 0.0359772
10 4 100 16 0.0359648
12 4 100 16 0.0539718
13 4 100 16 0.0180613
14 4 100 16 0.0179884
15 4 100 16 0.0179886
16 4 100 16 0.0179886
2 5 100 16 0.0430688
3 5 100 16 0.0769526
4 5 100 16 0.231018
5 5 100 16 0.180007
6 5 100 16 0.0513269
7 5 100 16 0.0836004
8 5 100 16 0.0769971
9 5 100 16 0.0773118
10 5 100 16 0.0512463
13 5 100 16 0.0513263
14 5 100 16 0.0256631
15 5 100 16 0.0256631
16 5 100 16 0.0258191
1 6 100 16 0.0352803
2 6 100 16 0.0350844
3 6 100 16 0.0697687
4 6 100 16 0.0907765
5 6 100 16 0.198876
6 6 100 16 0.0876467
7 6 100 16 0.0349835
8 6 100 16 0.105173
9 6 100 16 0.069966
10 6 100 16 0.0444291
11 6 100 16 0.0349826
12 6 100 16 0.0355241
13 6 100 16 0.0175927
14 6 100 16 0.0174898
15 6 100 16 0.0699568
16 6 100 16 0.0524693
1 7 100 16 0.013485
2 7 100 16 0.0572315
3 7 100 16 0.0753492
4 7 100 16 0.0907347
5 7 100 16 0.0697271
6 7 100 16 0.150954
7 7 100 16 0.165768
8 7 100 16 0.105506
9 7 100 16 0.0301463
10 7 100 16 0.0601784
11 7 100 16 0.0451742
12 7 100 16 0.0150698
13 7 100 16 0.0452095
14 7 100 16 0.0301285
15 7 100 16 0.0301397
16 7 100 16 0.0151983
2 8 100 16 0.0764157
3 8 100 16 0.0246785
5 8 100 16 0.192316
6 8 100 16 0.172484
7 8 100 16 0.0987588
8 8 100 16 0.0653475
9 8 100 16 0.0740282
10 8 100 16 0.0495947
11 8 100 16 0.0734083
12 8 100 16 0.000231599
13 8 100 16 0.024675
14 8 100 16 0.0493551
15 8 100 16 0.024675
16 8 100 16 0.074031
1 9 100 16 0.0195321
2 9 100 16 2.07689e-06
3 9 100 16 0.0847405
4 9 100 16 0.0386523
5 9 100 16 0.0397406
6 9 100 16 0.0869984
7 9 100 16 0.0669532
8 9 100 16 0.097171
9 9 100 16 0.0390973
10 9 100 16 0.0607244
11 9 100 16 0.0815394
12 9 100 16 0.0591546
13 9 100 16 0.0585967
14 9 100 16 0.097665
15 9 100 16 0.0976615
16 9 100 16 0.0717708
1 10 100 16 0.045241
2 10 100 16 0.0603173
3 10 100 16 0.0303384
5 10 100 16 0.0438988
6 10 100 16 0.028936
7 10 100 16 0.0992355
8 10 100 16 0.111363
9 10 100 16 0.149892
10 10 100 16 0.0754222
11 10 100 16 0.0576754
12 10 100 16 0.045241
13 10 100 16 0.0714788
14 10 100 16 0.0452465
15 10 100 16 0.0452327
16 10 100 16 0.090482
1 11 100 16 2.30247e-06
2 11 100 16 2.40357e-05
3 11 100 16 0.0373059
4 11 100 16 0.0284202
5 11 100 16 0.0761989
6 11 100 16 0.0557964
7 11 100 16 0.109824
8 11 100 16 0.0593247
9 11 100 16 0.144945
10 11 100 16 0.165779
11 11 100 16 0.0937473
12 11 100 16 0.0559686
13 11 100 16 0.037306
14 11 100 16 0.0361741
15 11 100 16 0.0559689
16 11 100 16 0.0432145
1 12 100 16 0.0906208
2 12 100 16 0.0226563
3 12 100 16 0.0453104
4 12 100 16 0.0228833
6 12 100 16 0.0455077
7 12 100 16 0.104846
8 12 100 16 0.0908042
9 12 100 16 0.0689673
10 12 100 16 0.0639252
11 12 100 16 0.0453359
12 12 100 16 0.158559
13 12 100 16 0.113565
14 12 100 16 0.0590537
15 12 100 16 0.0679655
2 13 100 16 0.000312817
3 13 100 16 0.0214472
4 13 100 16 0.0668671
5 13 100 16 0.0644308
6 13 100 16 0.064317
7 13 100 16 0.0857565
8 13 100 16 0.129146
9 13 100 16 0.150073
10 13 100 16 0.0467644
11 13 100 16 0.0214395
12 13 100 16 0.0429216
13 13 100 16 0.133938
14 13 100 16 0.0439473
15 13 100 16 0.0428813
16 13 100 16 0.0857579
1 14 100 16 0.0224686
2 14 100 16 0.0223705
3 14 100 16 0.0448985
4 14 100 16 0.0881822
5 14 100 16 0.0447544
6 14 100 16 0.0449374
7 14 100 16 0.0460969
8 14 100 16 0.104536
9 14 100 16 0.0439349
10 14 100 16 0.0898749
11 14 100 16 0.142204
12 14 100 16 0.124548
13 14 100 16 0.0898559
14 14 100 16 0.0687679
15 14 100 16 0.000101269
16 14 100 16 0.0224691
1 15 100 16 0.0356782
2 15 100 16 0.0535173
3 15 100 16 0.0356936
4 15 100 16 0.000479243
5 15 100 16 0.0178391
6 15 100 16 0.0356776
7 15 100 16 0.071357
8 15 100 16 0.0178391
9 15 100 16 0.0178397
10 15 100 16 0.0356782
11 15 100 16 0.162576
12 15 100 16 0.135723
13 15 100 16 0.112525
14 15 100 16 0.0713481
15 15 100 16 0.0535173
16 15 100 16 0.142712
2 16 100 16 0.00288385
3 16 100 16 6.66747e-07
4 16 100 16 0.0280794
5 16 100 16 0.0280794
6 16 100 16 0.0280812
7 16 100 16 0.0593104
8 16 100 16 0.0928583
9 16 100 16 0.0860707
10 16 100 16 0.0842389
11 16 100 16 0.0561587
12 16 100 16 0.141138
13 16 100 16 0.0842298
14 16 100 16 0.0561528
15 16 100 16 0.140401
16 16 100 16 0.112317
1 17 100 16 0.0300788
2 17 100 16 0.0150394
3 17 100 16 0.0451183
4 17 100 16 0.0748453
5 17 100 16 0.0601567
6 17 100 16 0.0451182
7 17 100 16 0.0363292
8 17 100 16 0.0686466
9 17 100 16 0.105269
10 17 100 16 0.0751971
11 17 100 16 0.0902365
12 17 100 16 0.0890524
13 17 100 16 0.130735
14 17 100 16 0.0462416
15 17 100 16 0.0475405
16 17 100 16 0.040395
1 18 100 16 0.0316586
2 18 100 16 0.0318667
3 18 100 16 0.0313939
4 18 100 16 0.00026425
5 18 100 16 0.0532922
6 18 100 16 0.0946246
7 18 100 16 0.0413796
8 18 100 16 0.00243667
9 18 100 16 0.0420534
10 18 100 16 0.0866216
11 18 100 16 0.059211
12 18 100 16 0.0781666
13 18 100 16 0.0314811
14 18 100 16 0.150728
15 18 100 16 0.148944
16 18 100 16 0.115878
1 19 100 16 0.0530602
2 19 100 16 0.0274873
3 19 100 16 0.0503974
4 19 100 16 0.03406
5 19 100 16 1.16519e-05
6 19 100 16 0.0277556
7 19 100 16 0.0360642
8 19 100 16 0.0271985
9 19 100 16 0.0298712
10 19 100 16 0.0297675
11 19 100 16 0.0702915
12 19 100 16 0.0544174
13 19 100 16 0.164117
14 19 100 16 0.109544
15 19 100 16 0.147303
16 19 100 16 0.138654
1 20 100 16 0.0301215
2 20 100 16 0.0304029
3 20 100 16 0.0301215
4 20 100 16 0.0324547
5 20 100 16 0.0602363
6 20 100 16 2.87482e-05
7 20 100 16 0.00359444
8 20 100 16 1.92838e-05
9 20 100 16 0.030157
10 20 100 16 0.0609846
11 20 100 16 0.0877545
12 20 100 16 0.0906331
13 20 100 16 0.0917346
14 20 100 16 0.120468
15 20 100 16 0.119521
16 20 100 16 0.211768
1 21 100 16 3.28357e-05
2 21 100 16 6.6037e-06
3 21 100 16 0.041031
4 21 100 16 0.0749758
5 21 100 16 0.0136228
6 21 100 16 0.0410344
7 21 100 16 0.0410329
8 21 100 16 0.0402249
9 21 100 16 0.00113477
10 21 100 16 5.50861e-05
11 21 100 16 0.0398735
12 21 100 16 0.159887
13 21 100 16 0.145115
14 21 100 16 0.121557
15 21 100 16 0.15042
16 21 100 16 0.129997
2 22 100 16 1.7979e-05
3 22 100 16 1.2067e-06
4 22 100 16 0.00113866
5 22 100 16 4.21032e-07
8 22 100 16 7.23856e-05
9 22 100 16 0.0006281
10 22 100 16 1.75426e-05
11 22 100 16 0.00160686
12 22 100 16 0.000140849
13 22 100 16 0.189707
14 22 100 16 0.416717
15 22 100 16 0.389947
16 22 100 16 4.32879e-06
1 23 100 16 1.74639e-06
2 23 100 16 8.98332e-06
5 23 100 16 6.31955e-07
6 23 100 16 0.000436245
8 23 100 16 5.00135e-07
9 23 100 16 0.000170225
10 23 100 16 0.000136262
11 23 100 16 0.00162103
12 23 100 16 5.2633e-06
13 23 100 16 0.000703972
14 23 100 16 0.116754
15 23 100 16 0.229679
16 23 100 16 0.650482
2 24 100 16 0.00163687
3 24 100 16 4.10872e-05
4 24 100 16 0.00357531
5 24 100 16 3.79076e-05
6 24 100 16 0.000168224
9 24 100 16 1.76526e-05
10 24 100 16 0.00313655
11 24 100 16 0.00117743
12 24 100 16 7.5121e-05
13 24 100 16 0.000437622
14 24 100 16 0.0910299
15 24 100 16 0.153418
16 24 100 16 0.745248
1 25 100 16 0.0736826
2 25 100 16 0.0776296
3 25 100 16 0.0735915
4 25 100 16 0.0014417
5 25 100 16 0.0736831
6 25 100 16 0.0736837
7 25 100 16 0.0737345
8 25 100 16 0.0736866
9 25 100 16 2.58737e-05
10 25 100 16 0.0816082
11 25 100 16 0.0734084
12 25 100 16 0.0739594
13 25 100 16 0.0737163
14 25 100 16 0.0754869
15 25 100 16 0.0459018
16 25 100 16 0.05476
4 26 100 16 2.27887e-05
5 26 100 16 1.11075e-05
6 26 100 16 0.000307475
8 26 100 16 7.52092e-05
9 26 100 16 1.05252e-05
10 26 100 16 4.86576e-06
11 26 100 16 7.16553e-06
13 26 100 16 2.60084e-05
14 26 100 16 0.270971
15 26 100 16 0.455329
16 26 100 16 0.273235
1 27 100 16 2.48192e-06
2 27 100 16 9.09678e-05
4 27 100 16 2.32205e-07
9 27 100 16 0.175191
10 27 100 16 0.0178116
11 27 100 16 4.15581e-05
13 27 100 16 0.202633
14 27 100 16 7.86596e-06
15 27 100 16 0.402058
16 27 100 16 0.202164
2 28 100 16 2.12489e-06
4 28 100 16 1.13629e-05
8 28 100 16 1.12455e-05
9 28 100 16 0.000167081
10 28 100 16 0.0408087
11 28 100 16 0.191928
12 28 100 16 0.191801
13 28 100 16 0.191938
14 28 100 16 0.374645
15 28 100 16 0.00868693
1 29 100 16 0.0946206
2 29 100 16 0.0946206
3 29 100 16 8.27612e-05
5 29 100 16 8.34423e-07
7 29 100 16 7.76341e-07
8 29 100 16 0.0939211
9 29 100 16 0.0946229
10 29 100 16 0.0981994
11 29 100 16 0.0817717
12 29 100 16 0.0946257
13 29 100 16 6.60786e-06
14 29 100 16 0.146216
15 29 100 16 0.0120776
16 29 100 16 0.189233
8 30 100 16 0.00114127
10 30 100 16 0.142498
11 30 100 16 0.0576665
12 30 100 16 0.149504
13 30 100 16 0.149502
14 30 100 16 0.146357
15 30 100 16 0.0543076
16 30 100 16 0.299024
6 31 100 16 0.5
9 31 100 16 0.5
11 32 100 16 0.967337
14 32 100 16 0.029743
15 32 100 16 0.00292013
1 33 100 16 2.74213e-05
13 33 100 16 0.0104855
14 33 100 16 0.181133
15 33 100 16 0.402345
16 33 100 16 0.406009
15 37 100 16 1
9 38 100 16 1.40298e-06
15 38 100 16 0.999999
3 39 100 16 1.24767e-06
14 39 100 16 5.12737e-05
15 39 100 16 0.0383045
16 39 100 16 0.961643
1 0 100 17 0.0157582
2 0 100 17 0.0491527
3 0 100 17 0.0637768
4 0 100 17 0.0630842
5 0 100 17 0.0788569
6 0 100 17 0.0695305
7 0 100 17 0.0427612
8 0 100 17 0.0538458
9 0 100 17 0.0459158
10 0 100 17 0.1142
11 0 100 17 0.0384311
12 0 100 17 0.117002
13 0 100 17 0.0584319
14 0 100 17 0.0386531
15 0 100 17 0.0530955
16 0 100 17 0.0847881
17 0 100 17 0.0127159
1 1 100 17 0.799838
2 1 100 17 0.0723041
3 1 100 17 0.0240106
4 1 100 17 0.0498558
5 1 100 17 0.0480077
7 1 100 17 0.00592585
8 1 100 17 3.00845e-07
9 1 100 17 4.01184e-05
14 1 100 17 1.10543e-06
16 1 100 17 1.65496e-05
1 2 100 17 0.191896
2 2 100 17 0.442857
3 2 100 17 0.127701
4 2 100 17 0.0558895
5 2 100 17 0.0419257
6 2 100 17 0.0419173
7 2 100 17 0.0139725
8 2 100 17 0.0279467
9 2 100 17 0.0139725
10 2 100 17 0.027946
11 2 100 17 0.0139726
12 2 100 17 2.80023e-06
17 2 100 17 6.59489e-07
1 3 100 17 0.154028
2 3 100 17 0.186333
3 3 100 17 0.360062
4 3 100 17 0.146129
5 3 100 17 0.101734
6 3 100 17 0.0172131
7 3 100 17 0.0171151
8 3 100 17 5.61633e-05
9 3 100 17 0.000202149
13 3 100 17 1.1595e-05
14 3 100 17 7.36791e-07
15 3 100 17 0.0171151
17 3 100 17 1.37391e-06
1 4 100 17 0.158941
2 4 100 17 0.125765
3 4 100 17 0.173791
4 4 100 17 0.20773
5 4 100 17 0.119835
6 4 100 17 0.0883063
7 4 100 17 0.0706354
8 4 100 17 0.0355922
9 4 100 17 0.0176602
15 4 100 17 3.4717e-07
17 4 100 17 0.00174333
1 5 100 17 0.037347
2 5 100 17 0.073629
3 5 100 17 0.090836
4 5 100 17 0.0732183
5 5 100 17 0.171743
6 5 100 17 0.0549184
7 5 100 17 0.128075
8 5 100 17 0.0549216
9 5 100 17 0.0233315
10 5 100 17 0.054228
11 5 100 17 0.0366117
12 5 100 17 1.12216e-05
13 5 100 17 0.0183059
14 5 100 17 0.0730166
15 5 100 17 0.0366118
16 5 100 17 0.0365838
17 5 100 17 0.0366118
1 6 100 17 0.0751077
2 6 100 17 0.0376794
3 6 100 17 0.0752949
4 6 100 17 0.15702
5 6 100 17 0.0981694
6 6 100 17 0.131641
7 6 100 17 0.124019
8 6 100 17 0.0752939
9 6 100 17 0.0750971
11 6 100 17 0.0564705
12 6 100 17 0.000100604
13 6 100 17 0.0188439
14 6 100 17 0.0188261
15 6 100 17 0.0376124
16 6 100 17 0.0188235
17 6 100 17 1.347e-06
1 7 100 17 1.20684e-05
2 7 100 17 0.0221786
3 7 100 17 0.122513
4 7 100 17 0.121723
5 7 100 17 0.0642494
6 7 100 17 0.101334
7 7 100 17 0.121717
8 7 100 17 0.121717
9 7 100 17 0.0608551
10 7 100 17 0.0608616
11 7 100 17 0.0202865
12 7 100 17 0.0405723
13 7 100 17 0.040548
14 7 100 17 0.0405735
15 7 100 17 0.0405722
16 7 100 17 0.0202875
1 8 100 17 0.0763497
2 8 100 17 0.0760024
3 8 100 17 0.0387
4 8 100 17 0.152944
5 8 100 17 0.103068
6 8 100 17 0.103148
7 8 100 17 0.0643449
8 8 100 17 0.101086
9 8 100 17 0.106814
10 8 100 17 0.0616513
11 8 100 17 0.0128652
12 8 100 17 0.0256405
14 8 100 17 0.0130144
15 8 100 17 0.02576
16 8 100 17 0.0257381
17 8 100 17 0.0128735
1 9 100 17 4.08184e-06
2 9 100 17 9.23043e-05
3 9 100 17 0.00163826
4 9 100 17 0.0310515
5 9 100 17 0.1671
6 9 100 17 0.0779972
7 9 100 17 0.191284
8 9 100 17 0.0972449
9 9 100 17 0.155588
10 9 100 17 0.114766
11 9 100 17 0.0585121
12 9 100 17 9.10809e-07
13 9 100 17 0.0389011
14 9 100 17 0.00743922
15 9 100 17 0.0388981
16 9 100 17 3.42387e-05
17 9 100 17 0.0194487
1 10 100 17 0.0143247
2 10 100 17 0.0716215
3 10 100 17 0.0842201
4 10 100 17 0.0572989
5 10 100 17 0.042975
6 10 100 17 0.148088
7 10 100 17 0.0766405
8 10 100 17 0.0716317
9 10 100 17 0.0429571
10 10 100 17 0.0858704
11 10 100 17 0.0716226
12 10 100 17 0.0430052
13 10 100 17 0.0321706
14 10 100 17 0.057299
16 10 100 17 0.057299
17 10 100 17 0.0429761
4 11 100 17 0.0421807
5 11 100 17 0.01406
6 11 100 17 0.11219
7 11 100 17 0.144423
8 11 100 17 0.139541
9 11 100 17 0.0961014
10 11 100 17 0.0422083
11 11 100 17 0.142167
12 11 100 17 0.112446
13 11 100 17 0.0562411
14 11 100 17 0.014078
15 11 100 17 0.0281218
16 11 100 17 0.0421811
17 11 100 17 0.0140604
1 12 100 17 0.0283254
2 12 100 17 0.0141627
3 12 100 17 0.0141544
4 12 100 17 0.040056
5 12 100 17 0.0283254
6 12 100 17 0.0801867
7 12 100 17 0.0709785
8 12 100 17 0.128763
9 12 100 17 0.172286
10 12 100 17 0.0430309
11 12 100 17 0.0983326
12 12 100 17 0.0992736
13 12 100 17 0.0283254
14 12 100 17 0.0707759
15 12 100 17 0.0141626
16 12 100 17 0.0141764
17 12 100 17 0.0546837
1 13 100 17 9.57327e-06
2 13 100 17 1.61961e-06
3 13 100 17 0.020574
5 13 100 17 0.0205741
6 13 100 17 1.16283e-05
7 13 100 17 0.0359872
8 13 100 17 0.0825798
9 13 100 17 0.102871
10 13 100 17 0.183068
11 13 100 17 0.122665
12 13 100 17 0.0822964
13 13 100 17 0.0822965
14 13 100 17 0.123044
15 13 100 17 0.102874
16 13 100 17 0.0411476
17 13 100 17 3.01825e-07
3 14 100 17 0.0425517
4 14 100 17 0.0212853
5 14 100 17 0.021276
6 14 100 17 0.0425615
7 14 100 17 0.0215506
8 14 100 17 0.0204955
9 14 100 17 0.0816608
10 14 100 17 0.0405071
11 14 100 17 0.0638313
12 14 100 17 0.0638281
13 14 100 17 0.0884947
14 14 100 17 0.140989
15 14 100 17 0.145199
16 14 100 17 0.12094
17 14 100 17 0.0848296
3 15 100 17 2.79371e-07
4 15 100 17 0.0188043
5 15 100 17 0.0188125
6 15 100 17 0.0376631
7 15 100 17 0.0188125
8 15 100 17 0.0188282
9 15 100 17 0.0565848
10 15 100 17 0.152231
11 15 100 17 0.167967
12 15 100 17 0.149654
13 15 100 17 0.075261
14 15 100 17 0.0938616
15 15 100 17 0.0564376
16 15 100 17 0.0570811
17 15 100 17 0.0780002
1 16 100 17 2.0537e-07
3 16 100 17 0.0149277
4 16 100 17 0.0149277
5 16 100 17 0.0597109
6 16 100 17 0.0301352
7 16 100 17 0.059965
8 16 100 17 0.0447842
9 16 100 17 0.0885906
10 16 100 17 0.0447903
11 16 100 17 0.0884488
12 16 100 17 0.0746392
13 16 100 17 0.131341
14 16 100 17 0.0797368
15 16 100 17 0.104494
16 16 100 17 0.0895796
17 16 100 17 0.0739288
1 17 100 17 1.83392e-05
2 17 100 17 8.04529e-06
4 17 100 17 0.00307239
6 17 100 17 6.5255e-07
8 17 100 17 0.0329166
9 17 100 17 0.0658279
10 17 100 17 0.0636265
11 17 100 17 0.0681491
12 17 100 17 0.0331611
13 17 100 17 0.264477
14 17 100 17 0.152676
15 17 100 17 0.131963
16 17 100 17 0.0658721
17 17 100 17 0.118231
2 18 100 17 0.0316248
3 18 100 17 0.0158147
4 18 100 17 0.0316294
5 18 100 17 0.0474441
6 18 100 17 6.7738e-07
7 18 100 17 0.0453902
8 18 100 17 0.0316294
9 18 100 17 0.0158147
10 18 100 17 0.0316294
11 18 100 17 0.023264
12 18 100 17 0.0948802
13 18 100 17 0.063285
14 18 100 17 0.110621
15 18 100 17 0.158159
16 18 100 17 0.0948934
17 18 100 17 0.20392
1 19 100 17 5.21879e-07
2 19 100 17 9.64225e-06
3 19 100 17 3.36054e-05
4 19 100 17 1.83757e-05
5 19 100 17 0.0192312
6 19 100 17 0.0404653
7 19 100 17 0.0269554
8 19 100 17 0.046094
9 19 100 17 0.000126542
10 19 100 17 0.0453737
11 19 100 17 0.0989321
12 19 100 17 0.0470391
13 19 100 17 0.140395
14 19 100 17 0.154067
15 19 100 17 0.100359
16 19 100 17 0.163741
17 19 100 17 0.117159
1 20 100 17 6.99724e-05
2 20 100 17 3.48133e-05
3 20 100 17 8.45274e-06
4 20 100 17 1.66728e-06
5 20 100 17 8.51999e-05
6 20 100 17 2.33348e-05
7 20 100 17 4.2615e-05
8 20 100 17 1.19783e-06
9 20 100 17 0.0581077
10 20 100 17 0.0190356
11 20 100 17 0.0554363
12 20 100 17 0.0901209
13 20 100 17 0.139501
14 20 100 17 0.086418
15 20 100 17 0.131638
16 20 100 17 0.151386
17 20 100 17 0.268089
1 21 100 17 2.97717e-06
2 21 100 17 1.23561e-05
3 21 100 17 1.62924e-05
4 21 100 17 2.01194e-05
5 21 100 17 0.000103355
6 21 100 17 0.00037098
7 21 100 17 3.90909e-05
8 21 100 17 4.84902e-05
9 21 100 17 0.00157748
10 21 100 17 0.00669069
11 21 100 17 0.0785347
12 21 100 17 0.0695945
13 21 100 17 0.123721
14 21 100 17 0.0617023
15 21 100 17 0.127088
16 21 100 17 0.155757
17 21 100 17 0.374721
1 22 100 17 2.5207e-05
2 22 100 17 1.60368e-05
3 22 100 17 6.18933e-05
4 22 100 17 7.02251e-05
5 22 100 17 0.0046924
6 22 100 17 0.0779017
7 22 100 17 0.0408032
8 22 100 17 0.0369834
9 22 100 17 0.0118698
10 22 100 17 5.31561e-05
11 22 100 17 0.143652
12 22 100 17 0.0441701
13 22 100 17 0.084892
14 22 100 17 0.161914
15 22 100 17 0.0833684
16 22 100 17 0.160853
17 22 100 17 0.148673
3 23 100 17 7.83387e-05
5 23 100 17 4.58126e-05
6 23 100 17 0.0002153
7 23 100 17 4.93791e-07
8 23 100 17 7.43628e-07
9 23 100 17 0.000288326
10 23 100 17 0.000143211
11 23 100 17 0.00222612
12 23 100 17 0.0950119
13 23 100 17 0.152618
14 23 100 17 0.187307
15 23 100 17 0.11427
16 23 100 17 0.254845
17 23 100 17 0.192949
1 24 100 17 2.20123e-06
2 24 100 17 6.88967e-06
3 24 100 17 2.77145e-06
4 24 100 17 7.57012e-05
5 24 100 17 1.13761e-05
6 24 100 17 6.98737e-05
7 24 100 17 0.0796262
8 24 100 17 0.120124
9 24 100 17 0.0818387
10 24 100 17 0.0821458
11 24 100 17 0.0800128
12 24 100 17 0.0796827
13 24 100 17 0.079814
14 24 100 17 0.0795825
15 24 100 17 0.14441
16 24 100 17 0.0221481
17 24 100 17 0.150446
1 25 100 17 0.0823488
2 25 100 17 0.0823376
3 25 100 17 0.0823526
4 25 100 17 0.0273973
5 25 100 17 0.0804238
6 25 100 17 0.086856
7 25 100 17 0.0824959
8 25 100 17 0.164606
9 25 100 17 0.161817
10 25 100 17 0.0178748
11 25 100 17 0.0484325
12 25 100 17 0.000628621
13 25 100 17 0.0823488
14 25 100 17 7.18787e-06
15 25 100 17 2.89125e-05
16 25 100 17 4.21471e-05
17 25 100 17 2.16538e-06
1 26 100 17 0.0472926
2 26 100 17 0.0473235
3 26 100 17 0.0469773
4 26 100 17 0.00523899
5 26 100 17 0.0270565
6 26 100 17 0.0374835
7 26 100 17 8.01356e-07
8 26 100 17 0.0696149
9 26 100 17 0.0473415
10 26 100 17 0.0473301
11 26 100 17 0.0473267
12 26 100 17 0.0920827
13 26 100 17 0.0643444
14 26 100 17 0.0929124
15 26 100 17 0.147592
16 26 100 17 0.0498185
17 26 100 17 0.130263
2 27 100 17 4.06308e-06
4 27 100 17 4.80796e-07
7 27 100 17 0.000159273
9 27 100 17 0.19426
11 27 100 17 0.199018
12 27 100 17 0.00274202
13 27 100 17 9.98772e-05
14 27 100 17 6.14081e-05
15 27 100 17 3.93062e-05
16 27 100 17 0.20125
17 27 100 17 0.402366
1 28 100 17 9.43619e-05
2 28 100 17 2.63696e-05
3 28 100 17 1.74477e-05
4 28 100 17 0.000110705
5 28 100 17 6.37691e-07
7 28 100 17 6.8942e-07
8 28 100 17 3.60606e-06
9 28 100 17 0.00606304
10 28 100 17 0.16762
11 28 100 17 0.17326
12 28 100 17 0.16923
13 28 100 17 0.34339
14 28 100 17 0.137197
15 28 100 17 0.00294174
16 28 100 17 4.49799e-05
10 29 100 17 8.87394e-06
12 29 100 17 1.2061e-05
15 29 100 17 0.998658
16 29 100 17 1.77431e-05
17 29 100 17 0.00130311
6 30 100 17 6.86857e-05
7 30 100 17 0.1101
8 30 100 17 0.109472
9 30 100 17 0.0548393
10 30 100 17 0.110726
11 30 100 17 0.106549
12 30 100 17 0.111757
13 30 100 17 0.10412
14 30 100 17 0.292369
4 31 100 17 8.4867e-07
6 31 100 17 1.78939e-06
7 31 100 17 5.149e-05
8 31 100 17 7.16533e-05
9 31 100 17 7.71294e-05
10 31 100 17 7.0441e-05
11 31 100 17 7.76721e-05
12 31 100 17 7.19795e-05
13 31 100 17 0.0810073
14 31 100 17 0.0910737
15 31 100 17 0.266269
16 31 100 17 0.293759
17 31 100 17 0.267468
9 32 100 17 3.60227e-06
12 32 100 17 0.000293296
14 32 100 17 9.92076e-06
15 32 100 17 0.00122338
16 32 100 17 3.88996e-06
17 32 100 17 0.998466
12 33 100 17 0.00715708
13 33 100 17 0.992843
9 34 100 17 0.59267
12 34 100 17 0.000357611
14 34 100 17 0.406871
17 34 100 17 0.000102236
13 35 100 17 1
12 37 100 17 1
1 38 100 17 1
12 39 100 17 1
12 40 100 17 1
12 41 100 17 1
3 42 100 17 1
2 43 100 17 0.999997
12 43 100 17 2.89611e-06
9 44 100 17 0.00758212
12 44 100 17 0.992418
10 45 100 17 1
8 46 100 17 1
9 47 100 17 0.47039
12 47 100 17 0.52961
9 48 100 17 0.0130926
12 48 100 17 0.986907
3 49 100 17 5.88002e-06
4 49 100 17 0.999994
5 50 100 17 1
2 51 100 17 2.9715e-06
3 51 100 17 0.330153
4 51 100 17 3.17316e-06
5 51 100 17 1.68721e-06
6 51 100 17 0.336868
7 51 100 17 0.332665
8 51 100 17 0.000305266
11 51 100 17 9.17086e-07
2 52 100 17 1.89531e-05
3 52 100 17 0.00776811
4 52 100 17 9.87664e-07
7 52 100 17 0.0101887
8 52 100 17 0.0832826
10 52 100 17 0.0823032
11 52 100 17 0.816437
9 53 100 17 0.0209021
12 53 100 17 0.979098
9 54 100 17 0.0332518
12 54 100 17 0.966748
4 55 100 17 1
9 57 100 17 0.229423
12 57 100 17 0.765892
14 57 100 17 0.00468542
13 58 100 17 1
12 59 100 17 1
17 60 100 17 1
9 61 100 17 0.00263262
12 61 100 17 0.996022
14 61 100 17 0.00134579
1 0 100 18 0.00336736
2 0 100 18 0.0223542
3 0 100 18 0.0732388
4 0 100 18 0.0640105
5 0 100 18 0.0848762
6 0 100 18 0.0873055
7 0 100 18 0.0593478
8 0 100 18 0.0319541
9 0 100 18 0.0729452
10 0 100 18 0.0763305
11 0 100 18 0.0730344
12 0 100 18 0.045401
13 0 100 18 0.0591682
14 0 100 18 0.0425764
15 0 100 18 0.076449
16 0 100 18 0.0409106
17 0 100 18 0.0821572
18 0 100 18 0.00457299
1 1 100 18 0.777799
2 1 100 18 0.111948
3 1 100 18 0.0460042
5 1 100 18 2.31485e-06
6 1 100 18 0.0230647
7 1 100 18 3.42156e-06
8 1 100 18 3.8587e-07
9 1 100 18 8.66784e-06
10 1 100 18 0.0181369
11 1 100 18 2.56956e-06
12 1 100 18 0.0230019
13 1 100 18 9.70566e-07
15 1 100 18 2.6922e-05
1 2 100 18 0.261889
2 2 100 18 0.279998
3 2 100 18 0.117018
4 2 100 18 0.130119
5 2 100 18 0.0578307
6 2 100 18 0.0212417
7 2 100 18 0.0144577
8 2 100 18 0.0144587
11 2 100 18 0.0144577
12 2 100 18 0.0144577
13 2 100 18 0.0289153
14 2 100 18 0.0144577
15 2 100 18 0.0144577
16 2 100 18 0.0144584
17 2 100 18 1.31264e-05
18 2 100 18 0.00176959
1 3 100 18 0.110575
2 3 100 18 0.173542
3 3 100 18 0.150253
4 3 100 18 0.115665
5 3 100 18 0.116397
6 3 100 18 0.0400996
7 3 100 18 0.0931118
8 3 100 18 0.0698506
9 3 100 18 0.0349207
10 3 100 18 0.0141029
11 3 100 18 0.0116403
12 3 100 18 0.0116412
13 3 100 18 0.0116408
15 3 100 18 0.0116403
16 3 100 18 0.0116403
17 3 100 18 0.0116403
18 3 100 18 0.0116403
1 4 100 18 0.0814888
2 4 100 18 0.126114
3 4 100 18 0.14898
4 4 100 18 0.195123
5 4 100 18 0.114009
6 4 100 18 0.0904625
7 4 100 18 0.0988725
8 4 100 18 0.0325712
9 4 100 18 0.016286
10 4 100 18 2.54431e-07
11 4 100 18 4.19e-05
12 4 100 18 0.0162877
13 4 100 18 0.0162928
14 4 100 18 0.0162858
15 4 100 18 1.85533e-07
16 4 100 18 4.6758e-06
17 4 100 18 0.0308935
18 4 100 18 0.0162861
1 5 100 18 0.087706
2 5 100 18 0.109183
3 5 100 18 0.0911323
4 5 100 18 0.154549
5 5 100 18 0.14072
6 5 100 18 0.109504
7 5 100 18 0.0429934
8 5 100 18 0.0657696
9 5 100 18 0.021924
10 5 100 18 0.021937
11 5 100 18 0.00111161
14 5 100 18 0.0438538
15 5 100 18 0.0876926
16 5 100 18 5.36188e-07
17 5 100 18 0.0219232
1 6 100 18 0.0326113
2 6 100 18 0.0856004
3 6 100 18 0.114521
4 6 100 18 0.08236
5 6 100 18 0.128099
6 6 100 18 0.144918
7 6 100 18 0.113707
8 6 100 18 0.0489635
9 6 100 18 0.0348341
10 6 100 18 0.0489642
11 6 100 18 0.0491433
12 6 100 18 0.0326423
13 6 100 18 0.0163212
14 6 100 18 5.1372e-05
15 6 100 18 0.0326423
16 6 100 18 0.0183007
18 6 100 18 0.0163212
1 7 100 18 0.0614824
2 7 100 18 0.0819278
3 7 100 18 0.0815562
4 7 100 18 0.142178
5 7 100 18 0.0614501
6 7 100 18 0.124393
7 7 100 18 0.0819233
8 7 100 18 0.0409638
9 7 100 18 0.0614119
10 7 100 18 0.0377251
11 7 100 18 0.0204674
12 7 100 18 0.0409467
13 7 100 18 0.0406882
14 7 100 18 0.0409624
15 7 100 18 0.0204819
16 7 100 18 0.0409624
18 7 100 18 0.0204799
1 8 100 18 0.0636033
2 8 100 18 0.0807703
3 8 100 18 0.0155458
4 8 100 18 0.0475776
5 8 100 18 0.0932402
6 8 100 18 0.0316669
7 8 100 18 0.110334
8 8 100 18 0.142514
9 8 100 18 0.142496
10 8 100 18 0.126614
11 8 100 18 0.0949997
12 8 100 18 0.029438
13 8 100 18 0.000211995
14 8 100 18 5.72461e-07
15 8 100 18 0.0158333
16 8 100 18 0.0051535
17 8 100 18 6.712e-07
1 9 100 18 0.041312
2 9 100 18 0.0137708
4 9 100 18 0.029013
5 9 100 18 0.0415067
6 9 100 18 0.0792483
7 9 100 18 0.120126
8 9 100 18 0.110166
9 9 100 18 0.110151
10 9 100 18 0.123949
11 9 100 18 0.0550831
12 9 100 18 0.0689072
13 9 100 18 0.0690851
14 9 100 18 0.0550873
15 9 100 18 6.2034e-06
16 9 100 18 0.0275415
17 9 100 18 0.0137708
18 9 100 18 0.0412763
2 10 100 18 0.091879
3 10 100 18 0.0459414
4 10 100 18 0.0229694
5 10 100 18 0.0292949
6 10 100 18 0.0953046
7 10 100 18 0.0689087
8 10 100 18 0.0689083
9 10 100 18 0.084859
10 10 100 18 0.114848
11 10 100 18 0.0689265
12 10 100 18 0.113329
13 10 100 18 0.0228793
14 10 100 18 0.0316094
15 10 100 18 0.0489085
16 10 100 18 0.0229694
17 10 100 18 0.045014
18 10 100 18 0.0234511
1 11 100 18 0.0133729
2 11 100 18 0.0267509
3 11 100 18 0.0668734
4 11 100 18 0.0668727
5 11 100 18 0.0504318
6 11 100 18 0.0669461
7 11 100 18 0.0974726
8 11 100 18 0.200604
9 11 100 18 0.082458
10 11 100 18 0.0422407
11 11 100 18 0.0133818
12 11 100 18 0.0401263
13 11 100 18 0.0267511
14 11 100 18 0.040127
15 11 100 18 0.0360979
16 11 100 18 0.049148
17 11 100 18 0.0402117
18 11 100 18 0.0401329
3 12 100 18 0.0474774
4 12 100 18 0.0316529
5 12 100 18 0.0798619
6 12 100 18 0.0476322
7 12 100 18 0.110783
8 12 100 18 0.0949595
9 12 100 18 0.0791315
10 12 100 18 0.0474786
11 12 100 18 0.0633061
12 12 100 18 0.0791001
13 12 100 18 0.0317304
14 12 100 18 0.0477326
15 12 100 18 0.0493551
16 12 100 18 0.031653
17 12 100 18 0.0790151
18 12 100 18 0.0791303
3 13 100 18 0.017479
4 13 100 18 0.017479
5 13 100 18 0.017489
6 13 100 18 0.0700537
7 13 100 18 0.017873
8 13 100 18 0.0699112
9 13 100 18 0.139944
10 13 100 18 0.161986
11 13 100 18 0.121746
12 13 100 18 0.0530034
13 13 100 18 0.0738758
14 13 100 18 0.063417
15 13 100 18 0.0176416
16 13 100 18 0.104866
17 13 100 18 0.0181814
18 13 100 18 0.0350534
1 14 100 18 0.0248336
2 14 100 18 0.0176401
3 14 100 18 0.033248
4 14 100 18 0.0498508
5 14 100 18 0.0498294
6 14 100 18 0.0829566
7 14 100 18 0.0498476
8 14 100 18 0.0359836
9 14 100 18 0.0498502
10 14 100 18 0.0830851
11 14 100 18 0.132097
12 14 100 18 0.0691806
13 14 100 18 0.0556348
14 14 100 18 0.0830869
15 14 100 18 0.0664669
16 14 100 18 0.0332406
17 14 100 18 0.0498509
18 14 100 18 0.0333173
1 15 100 18 9.57961e-05
2 15 100 18 0.0147277
4 15 100 18 0.0194259
5 15 100 18 0.0337324
6 15 100 18 0.037076
7 15 100 18 0.0147277
8 15 100 18 0.085979
9 15 100 18 0.0294568
10 15 100 18 0.0441835
11 15 100 18 0.161993
12 15 100 18 0.0893146
13 15 100 18 0.153746
14 15 100 18 0.0638042
15 15 100 18 0.0448771
16 15 100 18 0.0590216
17 15 100 18 0.0594363
18 15 100 18 0.088402
1 16 100 18 0.0135185
2 16 100 18 0.0540977
3 16 100 18 0.0454618
4 16 100 18 0.0270361
5 16 100 18 0.0405605
6 16 100 18 0.0405766
7 16 100 18 0.0270353
8 16 100 18 0.0675873
9 16 100 18 0.108463
10 16 100 18 0.0717847
11 16 100 18 2.91423e-05
12 16 100 18 0.10815
13 16 100 18 0.0939514
14 16 100 18 0.081123
15 16 100 18 0.0844957
16 16 100 18 0.0405555
17 16 100 18 0.0280171
18 16 100 18 0.0675572
1 17 100 18 0.0184162
2 17 100 18 0.00920809
4 17 100 18 0.0368324
5 17 100 18 0.0371557
6 17 100 18 0.027626
7 17 100 18 0.0368336
8 17 100 18 0.0460405
9 17 100 18 0.0303429
10 17 100 18 0.0343641
11 17 100 18 0.0830605
12 17 100 18 0.110497
13 17 100 18 0.128828
14 17 100 18 0.120794
15 17 100 18 0.0606324
16 17 100 18 0.099656
17 17 100 18 0.0644566
18 17 100 18 0.0552558
3 18 100 18 0.0136721
4 18 100 18 0.0140093
6 18 100 18 0.0136724
7 18 100 18 0.0683599
8 18 100 18 0.0273045
9 18 100 18 0.0776903
10 18 100 18 0.109377
11 18 100 18 0.040966
12 18 100 18 0.0138966
13 18 100 18 0.0418849
14 18 100 18 0.0691716
15 18 100 18 0.113911
16 18 100 18 0.150075
17 18 100 18 0.123038
18 18 100 18 0.122972
2 19 100 18 1.15726e-06
3 19 100 18 0.0169792
4 19 100 18 0.0340711
5 19 100 18 0.030895
6 19 100 18 0.0169792
9 19 100 18 0.0173501
10 19 100 18 0.0205
11 19 100 18 0.0679713
12 19 100 18 0.135555
13 19 100 18 0.10188
14 19 100 18 0.0622087
15 19 100 18 0.067878
16 19 100 18 0.144552
17 19 100 18 0.166885
18 19 100 18 0.116294
1 20 100 18 0.0578115
2 20 100 18 0.0233945
3 20 100 18 0.0439999
4 20 100 18 0.00037814
5 20 100 18 8.91953e-05
6 20 100 18 2.33142e-05
7 20 100 18 4.37147e-05
8 20 100 18 4.7972e-05
9 20 100 18 9.60589e-05
10 20 100 18 0.0192396
11 20 100 18 0.0576394
12 20 100 18 0.0543081
13 20 100 18 0.0654248
14 20 100 18 0.170478
15 20 100 18 0.152069
16 20 100 18 0.0763878
17 20 100 18 0.112065
18 20 100 18 0.166504
1 21 100 18 0.0326416
2 21 100 18 0.0665048
3 21 100 18 0.0614512
4 21 100 18 0.00294611
5 21 100 18 0.00321497
6 21 100 18 1.11719e-05
7 21 100 18 8.93741e-06
8 21 100 18 0.0294134
9 21 100 18 0.0622341
10 21 100 18 0.0150528
11 21 100 18 0.00018103
12 21 100 18 0.108562
13 21 100 18 0.108587
14 21 100 18 0.0717195
15 21 100 18 0.0665352
16 21 100 18 0.107801
17 21 100 18 0.123377
18 21 100 18 0.139758
2 22 100 18 0.0691336
3 22 100 18 0.000411111
4 22 100 18 0.0392351
5 22 100 18 1.36434e-05
6 22 100 18 0.00306082
7 22 100 18 1.99338e-05
8 22 100 18 8.45911e-06
9 22 100 18 0.000141632
10 22 100 18 0.0401333
11 22 100 18 4.54292e-05
12 22 100 18 0.0401577
13 22 100 18 0.00182998
14 22 100 18 0.200724
15 22 100 18 0.20612
16 22 100 18 0.158683
17 22 100 18 0.043135
18 22 100 18 0.197148
1 23 100 18 0.0253726
2 23 100 18 0.0490416
3 23 100 18 0.129918
4 23 100 18 0.0436705
5 23 100 18 0.0505751
6 23 100 18 0.0505944
7 23 100 18 0.0508741
8 23 100 18 0.075721
9 23 100 18 0.0507706
10 23 100 18 0.0393173
11 23 100 18 0.0920649
12 23 100 18 0.034967
13 23 100 18 0.0345311
14 23 100 18 9.34896e-05
15 23 100 18 0.000909371
16 23 100 18 0.0752419
17 23 100 18 0.0811477
18 23 100 18 0.11519
1 24 100 18 0.0164562
2 24 100 18 0.00362356
3 24 100 18 0.000169204
4 24 100 18 0.000221655
5 24 100 18 6.49171e-07
6 24 100 18 0.000328562
7 24 100 18 7.98361e-05
8 24 100 18 0.000192719
9 24 100 18 1.92031e-05
10 24 100 18 0.0425266
11 24 100 18 0.104147
12 24 100 18 0.0943438
13 24 100 18 0.12481
14 24 100 18 0.11556
15 24 100 18 0.178474
16 24 100 18 0.0851129
17 24 100 18 0.0835826
18 24 100 18 0.150352
2 25 100 18 1.53242e-06
3 25 100 18 0.0262288
4 25 100 18 1.22021e-06
5 25 100 18 0.0636422
6 25 100 18 0.063554
7 25 100 18 0.0635931
8 25 100 18 0.0644276
9 25 100 18 0.0638352
10 25 100 18 0.000157507
11 25 100 18 0.0640952
12 25 100 18 0.130605
13 25 100 18 0.0727422
14 25 100 18 0.07069
15 25 100 18 0.0635156
16 25 100 18 0.057433
17 25 100 18 0.0634219
18 25 100 18 0.132056
1 26 100 18 0.0378726
2 26 100 18 0.0012011
3 26 100 18 7.74134e-06
4 26 100 18 0.0376381
5 26 100 18 0.0380405
6 26 100 18 0.0379017
7 26 100 18 0.0378242
8 26 100 18 0.0239763
9 26 100 18 0.0379185
10 26 100 18 0.040635
11 26 100 18 1.24151e-07
12 26 100 18 0.00307852
13 26 100 18 0.0704568
14 26 100 18 0.102071
15 26 100 18 0.0833283
16 26 100 18 0.120517
17 26 100 18 0.147189
18 26 100 18 0.180343
1 27 100 18 0.000440483
2 27 100 18 1.07666e-06
3 27 100 18 0.0203568
4 27 100 18 2.3924e-05
5 27 100 18 2.06798e-05
6 27 100 18 1.00361e-05
7 27 100 18 6.05974e-07
9 27 100 18 0.000971733
10 27 100 18 0.0306264
11 27 100 18 4.8442e-05
12 27 100 18 0.0914817
13 27 100 18 0.0931692
14 27 100 18 0.115367
15 27 100 18 0.0892783
16 27 100 18 0.278728
17 27 100 18 0.0929357
18 27 100 18 0.18654
1 28 100 18 5.45389e-07
2 28 100 18 0.170117
3 28 100 18 0.00103487
4 28 100 18 2.63765e-07
5 28 100 18 1.71372e-05
6 28 100 18 5.3385e-05
7 28 100 18 0.000126063
8 28 100 18 5.52155e-07
9 28 100 18 1.21002e-07
10 28 100 18 6.48669e-05
11 28 100 18 7.38302e-06
12 28 100 18 0.00156899
13 28 100 18 0.00122042
14 28 100 18 0.104803
15 28 100 18 0.117251
16 28 100 18 0.120766
17 28 100 18 0.241437
18 28 100 18 0.241532
2 29 100 18 0.000142733
3 29 100 18 0.0838214
4 29 100 18 0.0836648
5 29 100 18 7.85732e-06
6 29 100 18 0.08447
7 29 100 18 0.0942571
11 29 100 18 0.0845413
12 29 100 18 0.084566
13 29 100 18 0.0877305
14 29 100 18 0.0845454
15 29 100 18 0.1097
16 29 100 18 0.0845411
17 29 100 18 3.00845e-06
18 29 100 18 0.118009
2 30 100 18 4.9056e-06
3 30 100 18 4.42843e-07
5 30 100 18 5.62677e-07
6 30 100 18 1.10233e-06
11 30 100 18 2.55142e-05
12 30 100 18 0.000121876
13 30 100 18 0.166132
14 30 100 18 0.166344
15 30 100 18 0.166316
16 30 100 18 0.166138
17 30 100 18 0.168573
18 30 100 18 0.166342
2 31 100 18 0.000637809
3 31 100 18 5.87242e-06
5 31 100 18 9.09262e-06
6 31 100 18 0.000104745
9 31 100 18 4.00674e-05
11 31 100 18 0.139746
12 31 100 18 6.8842e-05
14 31 100 18 7.48954e-05
15 31 100 18 1.28229e-05
17 31 100 18 4.01716e-05
18 31 100 18 0.85926
3 32 100 18 0.000347298
4 32 100 18 4.01339e-06
10 32 100 18 3.42815e-05
14 32 100 18 1.64967e-05
16 32 100 18 0.00302166
17 32 100 18 0.996516
18 32 100 18 6.06382e-05
2 33 100 18 3.96414e-06
3 33 100 18 2.17942e-06
4 33 100 18 5.49144e-06
9 33 100 18 2.09567e-05
11 33 100 18 0.000823074
14 33 100 18 4.54269e-05
17 33 100 18 3.04443e-05
18 33 100 18 0.999068
11 34 100 18 0.999999
17 34 100 18 1.44926e-06
3 35 100 18 1.27611e-06
9 35 100 18 1.25323e-05
10 35 100 18 0.999949
12 35 100 18 4.04135e-06
14 35 100 18 3.27271e-05
1 0 100 19 0.000148211
2 0 100 19 0.0451986
3 0 100 19 0.0749296
4 0 100 19 0.0439747
5 0 100 19 0.0633183
6 0 100 19 0.0804457
7 0 100 19 0.0588674
8 0 100 19 0.0547906
9 0 100 19 0.0660845
10 0 100 19 0.0691763
11 0 100 19 0.0457083
12 0 100 19 0.0588265
13 0 100 19 0.0571485
14 0 100 19 0.0586438
15 0 100 19 0.0579236
16 0 100 19 0.046358
17 0 100 19 0.0365432
18 0 100 19 0.0758781
19 0 100 19 0.00603604
1 1 100 19 0.812754
2 1 100 19 0.0922012
3 1 100 19 0.0307414
4 1 100 19 4.23224e-07
5 1 100 19 2.48168e-07
6 1 100 19 3.67226e-05
7 1 100 19 0.0029319
8 1 100 19 0.0153322
9 1 100 19 7.48591e-07
10 1 100 19 0.015332
11 1 100 19 0.0306639
12 1 100 19 2.86841e-07
16 1 100 19 5.13019e-07
17 1 100 19 2.20033e-06
18 1 100 19 1.47663e-06
19 1 100 19 8.86267e-07
1 2 100 19 0.181627
2 2 100 19 0.312543
3 2 100 19 0.150893
4 2 100 19 0.0808968
5 2 100 19 0.0641656
6 2 100 19 0.0403781
7 2 100 19 0.0484903
9 2 100 19 0.0100837
10 2 100 19 0.0100837
11 2 100 19 0.0201674
12 2 100 19 0.0201675
13 2 100 19 0.0100837
15 2 100 19 0.0201674
16 2 100 19 0.0100841
17 2 100 19 0.0100837
18 2 100 19 0.0100839
19 2 100 19 4.77268e-07
1 3 100 19 0.0717857
2 3 100 19 0.159936
3 3 100 19 0.291768
4 3 100 19 0.145206
5 3 100 19 0.117932
6 3 100 19 0.0534099
8 3 100 19 0.0177718
9 3 100 19 0.017805
10 3 100 19 0.0355411
11 3 100 19 0.0177706
12 3 100 19 0.0355376
13 3 100 19 0.0177657
18 3 100 19 2.96534e-07
19 3 100 19 0.0177708
1 4 100 19 0.104332
2 4 100 19 0.133347
3 4 100 19 0.180624
4 4 100 19 0.238103
5 4 100 19 0.0954595
6 4 100 19 0.0860021
7 4 100 19 0.0381402
8 4 100 19 0.0381409
9 4 100 19 0.0190973
11 4 100 19 0.00953525
12 4 100 19 0.0190704
13 4 100 19 0.00953525
16 4 100 19 2.23969e-07
17 4 100 19 0.00953745
18 4 100 19 0.00953997
19 4 100 19 0.00953559
1 5 100 19 0.0573845
2 5 100 19 0.116133
3 5 100 19 0.0725763
4 5 100 19 0.15962
5 5 100 19 0.129683
6 5 100 19 0.0871
7 5 100 19 0.116139
8 5 100 19 0.0725798
9 5 100 19 0.0436155
10 5 100 19 0.04355
11 5 100 19 0.0290332
12 5 100 19 0.0290812
13 5 100 19 0.0145166
14 5 100 19 0.0289854
16 5 100 19 1.24037e-06
18 5 100 19 2.24247e-07
19 5 100 19 2.06496e-06
1 6 100 19 0.0348313
2 6 100 19 0.139494
3 6 100 19 0.0405814
4 6 100 19 0.171574
5 6 100 19 0.167647
6 6 100 19 0.138977
7 6 100 19 0.104576
8 6 100 19 0.0870826
9 6 100 19 0.0613304
11 6 100 19 0.019069
13 6 100 19 0.0174158
14 6 100 19 0.0174157
18 6 100 19 1.99947e-07
19 6 100 19 5.77971e-06
1 7 100 19 0.0700765
2 7 100 19 0.0233874
3 7 100 19 0.12743
4 7 100 19 0.0953591
5 7 100 19 0.151984
6 7 100 19 0.137125
7 7 100 19 0.113254
8 7 100 19 0.1144
9 7 100 19 0.046718
10 7 100 19 0.0733161
13 7 100 19 8.25863e-06
15 7 100 19 6.13989e-07
17 7 100 19 2.18757e-06
18 7 100 19 0.0235796
19 7 100 19 0.0233588
1 8 100 19 0.0222575
2 8 100 19 0.0111138
3 8 100 19 0.0475023
4 8 100 19 0.0769062
5 8 100 19 0.117647
6 8 100 19 0.144487
7 8 100 19 0.101217
8 8 100 19 0.112249
9 8 100 19 0.0888186
10 8 100 19 0.102707
11 8 100 19 0.0634957
12 8 100 19 0.0444551
13 8 100 19 0.0222275
14 8 100 19 0.0111138
15 8 100 19 0.0222389
16 8 100 19 0.0111138
18 8 100 19 7.30516e-07
19 8 100 19 0.000448478
2 9 100 19 0.0313807
3 9 100 19 0.0175145
4 9 100 19 0.0373885
5 9 100 19 0.0749922
6 9 100 19 0.111187
7 9 100 19 0.11249
8 9 100 19 0.0750034
9 9 100 19 0.126043
10 9 100 19 0.16898
11 9 100 19 0.0575131
12 9 100 19 0.112505
15 9 100 19 0.0375013
16 9 100 19 0.0375016
1 10 100 19 0.0296625
2 10 100 19 4.04979e-06
3 10 100 19 0.0148312
4 10 100 19 0.0593442
5 10 100 19 0.0303641
6 10 100 19 0.0593216
7 10 100 19 0.133497
8 10 100 19 0.176593
9 10 100 19 0.0960375
10 10 100 19 0.0148345
11 10 100 19 0.103904
12 10 100 19 0.0444937
13 10 100 19 0.0148333
14 10 100 19 0.0444933
15 10 100 19 0.0148463
16 10 100 19 0.0887679
17 10 100 19 0.0296625
18 10 100 19 0.0296625
19 10 100 19 0.0148463
1 11 100 19 0.0140352
2 11 100 19 0.0421095
3 11 100 19 0.0195085
4 11 100 19 1.76712e-06
5 11 100 19 0.0280515
6 11 100 19 0.0559612
7 11 100 19 0.0707258
8 11 100 19 0.0570523
9 11 100 19 0.0566549
10 11 100 19 0.0982555
11 11 100 19 0.0842238
12 11 100 19 0.0842358
13 11 100 19 0.0842206
14 11 100 19 0.055984
15 11 100 19 0.0421147
16 11 100 19 0.0573074
17 11 100 19 0.0701815
18 11 100 19 0.0512989
19 11 100 19 0.028077
1 12 100 19 0.011336
2 12 100 19 0.0113642
3 12 100 19 0.0180157
4 12 100 19 0.0114052
5 12 100 19 0.0227291
6 12 100 19 0.0455068
7 12 100 19 0.0674218
8 12 100 19 0.101946
9 12 100 19 0.121755
10 12 100 19 0.0914627
11 12 100 19 0.086382
12 12 100 19 0.0807311
13 12 100 19 0.113008
14 12 100 19 0.0906527
15 12 100 19 0.045302
16 12 100 19 0.0113365
17 12 100 19 0.0340081
18 12 100 19 0.000267635
19 12 100 19 0.0353699
2 13 100 19 0.0163197
3 13 100 19 0.065271
4 13 100 19 0.03264
5 13 100 19 6.77983e-06
6 13 100 19 0.0183166
7 13 100 19 0.0653739
8 13 100 19 0.0653429
9 13 100 19 0.100026
10 13 100 19 0.0677796
11 13 100 19 0.0584583
12 13 100 19 0.0815833
13 13 100 19 0.0658849
14 13 100 19 0.0195246
15 13 100 19 0.0482526
16 13 100 19 0.081779
17 13 100 19 0.0828864
18 13 100 19 0.0652755
19 13 100 19 0.0652784
1 14 100 19 0.0125905
2 14 100 19 0.0377715
3 14 100 19 0.000675146
4 14 100 19 0.0251627
5 14 100 19 0.0159174
6 14 100 19 0.0125905
7 14 100 19 0.0251817
8 14 100 19 0.0503011
9 14 100 19 0.050709
10 14 100 19 0.0509682
11 14 100 19 0.0755458
12 14 100 19 0.0873723
13 14 100 19 0.0649456
14 14 100 19 0.0994145
15 14 100 19 0.0759729
16 14 100 19 0.0755875
17 14 100 19 0.0755427
18 14 100 19 0.0504496
19 14 100 19 0.113302
1 15 100 19 2.73876e-07
3 15 100 19 0.0119803
5 15 100 19 0.0479389
6 15 100 19 0.0119818
7 15 100 19 0.0239627
8 15 100 19 0.0579262
9 15 100 19 0.0838057
10 15 100 19 0.0718788
11 15 100 19 0.0838214
12 15 100 19 0.0605414
13 15 100 19 0.0890118
14 15 100 19 0.0830221
15 15 100 19 0.0958292
16 15 100 19 0.0718903
17 15 100 19 0.0598992
18 15 100 19 0.0402222
19 15 100 19 0.106288
2 16 100 19 1.04357e-06
3 16 100 19 0.0473254
5 16 100 19 0.0320177
6 16 100 19 0.082322
7 16 100 19 0.0410379
8 16 100 19 0.0410221
9 16 100 19 0.0597965
10 16 100 19 3.987e-06
11 16 100 19 0.122234
12 16 100 19 0.0410299
13 16 100 19 0.0614399
14 16 100 19 0.0810357
15 16 100 19 0.082063
16 16 100 19 0.144293
17 16 100 19 0.0410202
18 16 100 19 0.041045
19 16 100 19 0.0823123
1 17 100 19 2.73806e-06
3 17 100 19 3.28885e-05
4 17 100 19 0.0413197
5 17 100 19 0.0431909
6 17 100 19 0.0137754
8 17 100 19 0.0137733
9 17 100 19 0.0282771
10 17 100 19 0.0381335
11 17 100 19 0.0826362
12 17 100 19 0.0688666
13 17 100 19 0.0688648
14 17 100 19 0.0963752
15 17 100 19 0.0676365
16 17 100 19 0.110146
17 17 100 19 0.142521
18 17 100 19 0.10148
19 17 100 19 0.0829682
2 18 100 19 1.52688e-06
3 18 100 19 3.38544e-07
5 18 100 19 0.0163146
6 18 100 19 0.033728
7 18 100 19 2.33398e-06
8 18 100 19 0.0163146
9 18 100 19 2.6179e-06
10 18 100 19 0.0326293
11 18 100 19 0.0489439
12 18 100 19 0.0521674
13 18 100 19 0.0812472
14 18 100 19 0.147566
15 18 100 19 0.0992679
16 18 100 19 0.102141
17 18 100 19 0.060712
18 18 100 19 0.162518
19 18 100 19 0.146443
3 19 100 19 7.38948e-07
4 19 100 19 3.05785e-07
5 19 100 19 2.02008e-06
6 19 100 19 0.0495015
7 19 100 19 0.0247507
9 19 100 19 2.80543e-07
10 19 100 19 0.0495026
11 19 100 19 0.0119366
12 19 100 19 0.123753
13 19 100 19 0.135114
14 19 100 19 0.123949
15 19 100 19 0.148492
16 19 100 19 0.115544
17 19 100 19 0.0495022
18 19 100 19 0.0691439
19 19 100 19 0.0988074
2 20 100 19 0.011938
3 20 100 19 4.04382e-06
4 20 100 19 0.0138176
5 20 100 19 0.0406694
6 20 100 19 0.0138742
7 20 100 19 0.0967231
8 20 100 19 0.0713606
9 20 100 19 0.0553141
10 20 100 19 0.0552697
11 20 100 19 0.0552704
12 20 100 19 0.0753381
13 20 100 19 0.110177
14 20 100 19 0.110432
15 20 100 19 0.0829056
16 20 100 19 0.059658
17 20 100 19 0.0918319
18 20 100 19 0.0276356
19 20 100 19 0.0277801
1 21 100 19 1.23714e-06
2 21 100 19 0.00744238
3 21 100 19 0.0189107
4 21 100 19 0.00261306
5 21 100 19 4.6341e-05
6 21 100 19 0.0183872
7 21 100 19 0.0361023
8 21 100 19 0.0182567
9 21 100 19 0.0606412
10 21 100 19 0.0183855
11 21 100 19 0.00614856
12 21 100 19 0.0525254
13 21 100 19 0.0342904
14 21 100 19 0.0694999
15 21 100 19 0.0765304
16 21 100 19 0.0897053
17 21 100 19 0.17625
18 21 100 19 0.187228
19 21 100 19 0.127036
1 22 100 19 0.00336459
2 22 100 19 0.0292342
3 22 100 19 0.0222527
4 22 100 19 0.0173226
5 22 100 19 0.0273985
6 22 100 19 0.0339926
7 22 100 19 0.0173648
8 22 100 19 0.00684582
9 22 100 19 0.0181503
10 22 100 19 0.0807226
11 22 100 19 0.0512288
12 22 100 19 0.0360128
13 22 100 19 0.0748057
14 22 100 19 0.0930426
15 22 100 19 0.120417
16 22 100 19 0.0930215
17 22 100 19 0.135214
18 22 100 19 0.0701142
19 22 100 19 0.0694939
1 23 100 19 1.0471e-07
2 23 100 19 3.00526e-06
3 23 100 19 3.82247e-06
4 23 100 19 3.45425e-06
5 23 100 19 2.56946e-05
6 23 100 19 1.05956e-05
7 23 100 19 9.24491e-05
8 23 100 19 0.000779945
9 23 100 19 0.070913
10 23 100 19 0.0556324
11 23 100 19 0.133876
12 23 100 19 0.0921824
13 23 100 19 0.153737
14 23 100 19 0.122126
15 23 100 19 0.103742
16 23 100 19 0.103474
17 23 100 19 0.000481806
18 23 100 19 0.0486273
19 23 100 19 0.114289
1 24 100 19 0.0474645
2 24 100 19 0.000406209
3 24 100 19 2.3802e-05
4 24 100 19 1.19673e-05
5 24 100 19 0.000107861
6 24 100 19 0.000118946
7 24 100 19 2.59435e-05
8 24 100 19 0.0968563
9 24 100 19 0.0986037
10 24 100 19 0.0477397
11 24 100 19 0.0686525
12 24 100 19 1.23904e-05
13 24 100 19 0.000104228
14 24 100 19 0.00373234
15 24 100 19 0.0963494
16 24 100 19 0.119899
17 24 100 19 0.225315
18 24 100 19 0.049527
19 24 100 19 0.145049
1 25 100 19 0.000291376
2 25 100 19 0.0230536
3 25 100 19 0.000128209
4 25 100 19 3.72445e-05
5 25 100 19 1.14163e-06
6 25 100 19 1.83642e-05
7 25 100 19 0.0219061
8 25 100 19 0.00887136
9 25 100 19 0.00274829
10 25 100 19 0.0475385
11 25 100 19 0.0825485
12 25 100 19 0.0717794
13 25 100 19 0.0936329
14 25 100 19 0.0557778
15 25 100 19 0.0967084
16 25 100 19 0.145329
17 25 100 19 0.0942274
18 25 100 19 0.14162
19 25 100 19 0.113782
1 26 100 19 1.20157e-07
2 26 100 19 1.00791e-05
3 26 100 19 1.62e-05
4 26 100 19 0.0746898
5 26 100 19 0.072847
6 26 100 19 2.07386e-06
7 26 100 19 0.0358623
8 26 100 19 2.17275e-06
9 26 100 19 0.000249152
10 26 100 19 9.66203e-05
11 26 100 19 0.0371065
12 26 100 19 0.0371259
13 26 100 19 0.0379109
14 26 100 19 0.0748038
15 26 100 19 0.092879
16 26 100 19 0.057564
17 26 100 19 0.146077
18 26 100 19 0.111243
19 26 100 19 0.221514
2 27 100 19 4.31696e-07
3 27 100 19 1.99875e-06
4 27 100 19 2.33394e-06
5 27 100 19 1.03294e-07
6 27 100 19 1.1451e-05
7 27 100 19 1.01604e-05
8 27 100 19 0.0861956
9 27 100 19 2.81099e-06
10 27 100 19 6.30945e-05
11 27 100 19 9.67133e-05
12 27 100 19 0.0731021
13 27 100 19 0.0733555
14 27 100 19 0.000717991
15 27 100 19 2.36019e-05
16 27 100 19 0.139347
17 27 100 19 0.292408
18 27 100 19 0.0985278
19 27 100 19 0.236134
2 28 100 19 1.98995e-06
3 28 100 19 5.19103e-05
4 28 100 19 7.49392e-06
5 28 100 19 2.30145e-05
6 28 100 19 2.5847e-06
7 28 100 19 0.00147745
8 28 100 19 5.00241e-05
9 28 100 19 0.104232
10 28 100 19 0.174031
11 28 100 19 6.89617e-05
12 28 100 19 0.000423628
13 28 100 19 0.175847
14 28 100 19 0.000142934
15 28 100 19 1.32277e-05
16 28 100 19 0.000223677
17 28 100 19 1.37821e-05
18 28 100 19 0.365716
19 28 100 19 0.177674
2 29 100 19 3.61201e-07
3 29 100 19 0.000108735
4 29 100 19 1.93609e-05
7 29 100 19 5.78994e-07
8 29 100 19 4.80176e-07
9 29 100 19 5.9892e-05
11 29 100 19 1.57149e-06
12 29 100 19 1.44248e-06
13 29 100 19 5.61141e-05
14 29 100 19 0.0622292
15 29 100 19 0.0992037
16 29 100 19 0.0677064
17 29 100 19 0.132416
18 29 100 19 0.190374
19 29 100 19 0.447822
5 30 100 19 1.06666e-05
6 30 100 19 2.07599e-07
7 30 100 19 0.068005
8 30 100 19 0.0848964
9 30 100 19 0.0848983
10 30 100 19 0.127345
11 30 100 19 0.0929843
12 30 100 19 0.0782783
13 30 100 19 0.0848981
14 30 100 19 0.000605317
15 30 100 19 0.0762961
16 30 100 19 0.0424609
17 30 100 19 0.0444369
18 30 100 19 0.127368
19 30 100 19 0.0875165
1 31 100 19 9.6084e-07
3 31 100 19 2.78585e-05
4 31 100 19 4.63664e-06
7 31 100 19 5.90451e-06
8 31 100 19 2.66153e-06
9 31 100 19 1.55605e-06
11 31 100 19 1.37743e-06
12 31 100 19 1.81663e-06
13 31 100 19 0.00114014
14 31 100 19 0.187525
15 31 100 19 0.155516
16 31 100 19 0.107448
17 31 100 19 0.219017
18 31 100 19 0.107365
19 31 100 19 0.221942
2 32 100 19 4.06143e-05
3 32 100 19 7.05285e-05
4 32 100 19 8.31445e-06
5 32 100 19 4.52035e-07
6 32 100 19 1.01717e-06
12 32 100 19 1.07089e-06
14 32 100 19 0.000802496
15 32 100 19 0.0127448
16 32 100 19 0.212499
17 32 100 19 0.261462
18 32 100 19 0.261519
19 32 100 19 0.250852
1 33 100 19 1.17998e-06
2 33 100 19 2.69231e-07
3 33 100 19 0.000133079
6 33 100 19 3.93728e-07
9 33 100 19 0.000136652
14 33 100 19 4.26054e-05
15 33 100 19 0.381817
16 33 100 19 0.211466
17 33 100 19 0.197232
18 33 100 19 0.209171
19 33 100 19 2.38837e-07
2 34 100 19 1.17536e-06
9 34 100 19 5.96902e-06
16 34 100 19 2.22264e-05
17 34 100 19 2.91405e-05
19 34 100 19 0.999941
1 35 100 19 0.0108818
2 35 100 19 0.0938074
3 35 100 19 0.735922
12 35 100 19 0.0533604
15 35 100 19 0.106029
3 36 100 19 0.998665
9 36 100 19 3.02916e-06
15 36 100 19 0.00132425
16 36 100 19 7.73129e-06
2 37 100 19 0.991651
3 37 100 19 0.00299906
6 37 100 19 0.0036625
9 37 100 19 0.00109606
12 37 100 19 0.000413341
14 37 100 19 0.000127678
16 37 100 19 4.99362e-05
3 38 100 19 0.735017
6 38 100 19 0.0094796
12 38 100 19 0.231328
15 38 100 19 0.024175
11 39 100 19 1
1 0 100 20 0.00867169
2 0 100 20 0.0275699
3 0 100 20 0.0424936
4 0 100 20 0.0703842
5 0 100 20 0.0455664
6 0 100 20 0.045547
7 0 100 20 0.0693221
8 0 100 20 0.0592503
9 0 100 20 0.0738313
10 0 100 20 0.0591894
11 0 100 20 0.0453914
12 0 100 20 0.0591962
13 0 100 20 0.0728838
14 0 100 20 0.072763
15 0 100 20 0.0410108
16 0 100 20 0.0455397
17 0 100 20 0.0501081
18 0 100 20 0.0364503
19 0 100 20 0.0637918
20 0 100 20 0.0110392
1 1 100 20 0.770994
2 1 100 20 0.0786004
3 1 100 20 0.0198048
5 1 100 20 0.035315
7 1 100 20 0.0380535
8 1 100 20 0.0190772
10 1 100 20 0.0190339
12 1 100 20 0.0190758
15 1 100 20 4.46037e-05
16 1 100 20 4.24706e-07
1 2 100 20 0.152121
2 2 100 20 0.365511
3 2 100 20 0.190261
4 2 100 20 0.0730282
5 2 100 20 0.043816
6 2 100 20 0.0292077
8 2 100 20 0.0292106
9 2 100 20 1.48348e-06
10 2 100 20 2.33322e-07
13 2 100 20 0.0146057
14 2 100 20 0.0146054
15 2 100 20 0.0146054
16 2 100 20 0.0292107
18 2 100 20 0.0146054
19 2 100 20 0.0146054
20 2 100 20 0.0146054
1 3 100 20 0.153306
2 3 100 20 0.182604
3 3 100 20 0.275591
4 3 100 20 0.0930404
5 3 100 20 0.0984631
6 3 100 20 0.0844008
7 3 100 20 0.0281326
8 3 100 20 0.0281326
9 3 100 20 0.0140663
10 3 100 20 0.0140976
11 3 100 20 0.0140663
13 3 100 20 3.35788e-07
14 3 100 20 0.0140663
18 3 100 20 2.5465e-06
20 3 100 20 2.98934e-05
1 4 100 20 0.0894441
2 4 100 20 0.145289
3 4 100 20 0.165911
4 4 100 20 0.223587
5 4 100 20 0.0210152
6 4 100 20 0.0207395
7 4 100 20 0.0424114
9 4 100 20 0.0207407
10 4 100 20 0.0207436
12 4 100 20 0.082958
13 4 100 20 0.0427259
14 4 100 20 0.0207395
15 4 100 20 0.0414306
16 4 100 20 0.0207433
17 4 100 20 0.0207395
18 4 100 20 0.0207411
19 4 100 20 2.6119e-05
20 4 100 20 1.49374e-05
1 5 100 20 0.0989031
2 5 100 20 0.078699
3 5 100 20 0.140325
4 5 100 20 0.200246
5 5 100 20 0.240295
6 5 100 20 0.120457
7 5 100 20 0.0202527
8 5 100 20 0.040049
9 5 100 20 2.53465e-07
10 5 100 20 0.0200248
11 5 100 20 4.66022e-06
12 5 100 20 7.81169e-06
13 5 100 20 3.4563e-06
14 5 100 20 7.48378e-07
16 5 100 20 4.81022e-07
17 5 100 20 3.21323e-07
18 5 100 20 0.0200246
19 5 100 20 0.0200246
20 5 100 20 0.000682898
1 6 100 20 0.046249
2 6 100 20 0.152228
3 6 100 20 0.0910058
4 6 100 20 0.0941638
5 6 100 20 0.129396
6 6 100 20 0.137062
7 6 100 20 0.10643
8 6 100 20 0.0759285
9 6 100 20 0.0913774
10 6 100 20 0.0304583
11 6 100 20 6.37218e-06
12 6 100 20 0.0152295
16 6 100 20 0.0152294
19 6 100 20 0.0152362
3 7 100 20 0.0537732
4 7 100 20 0.105666
5 7 100 20 0.10748
6 7 100 20 0.232711
7 7 100 20 0.142728
8 7 100 20 0.126285
9 7 100 20 0.0378005
10 7 100 20 0.0361806
12 7 100 20 0.017901
13 7 100 20 0.0179012
14 7 100 20 4.02201e-06
15 7 100 20 0.0179012
17 7 100 20 0.0358024
18 7 100 20 0.017901
19 7 100 20 0.0179011
20 7 100 20 0.032064
1 8 100 20 0.0205224
2 8 100 20 0.0387266
3 8 100 20 0.0193633
4 8 100 20 0.0407889
5 8 100 20 0.183552
6 8 100 20 0.154597
7 8 100 20 0.136043
8 8 100 20 0.135542
9 8 100 20 0.115004
10 8 100 20 0.0776472
11 8 100 20 0.0199627
12 8 100 20 2.34459e-06
13 8 100 20 4.64431e-07
14 8 100 20 0.000131205
15 8 100 20 0.0193633
17 8 100 20 3.67405e-06
18 8 100 20 0.0193637
19 8 100 20 0.019385
20 8 100 20 1.13921e-06
1 9 100 20 0.016301
2 9 100 20 0.0489839
3 9 100 20 0.0814814
4 9 100 20 0.0326042
5 9 100 20 0.0327282
6 9 100 20 0.100015
7 9 100 20 0.146705
8 9 100 20 0.0815074
9 9 100 20 0.124603
10 9 100 20 0.123038
11 9 100 20 0.11416
12 9 100 20 0.0489031
13 9 100 20 0.016301
16 9 100 20 0.0163588
18 9 100 20 0.0163028
19 9 100 20 1.91864e-06
20 9 100 20 4.12189e-06
1 10 100 20 8.17803e-05
2 10 100 20 3.54886e-06
3 10 100 20 0.0184143
4 10 100 20 0.0727422
5 10 100 20 0.0734114
6 10 100 20 0.0709359
7 10 100 20 0.0734213
8 10 100 20 0.0925028
9 10 100 20 0.0752498
10 10 100 20 0.11841
11 10 100 20 0.129376
12 10 100 20 0.0550586
13 10 100 20 0.03681
14 10 100 20 0.0551124
15 10 100 20 0.0183531
17 10 100 20 0.0367237
18 10 100 20 0.0183518
19 10 100 20 0.0183529
20 10 100 20 0.0366888
1 11 100 20 5.40273e-07
2 11 100 20 0.0190149
3 11 100 20 0.0190158
4 11 100 20 0.0380299
5 11 100 20 0.0760592
6 11 100 20 0.0190923
7 11 100 20 0.107223
8 11 100 20 0.151467
9 11 100 20 0.0979369
10 11 100 20 0.0950678
11 11 100 20 0.16443
12 11 100 20 0.0570656
13 11 100 20 0.0795339
14 11 100 20 0.0190149
15 11 100 20 0.0380299
17 11 100 20 9.75757e-07
18 11 100 20 0.0190149
19 11 100 20 8.09032e-07
20 11 100 20 1.70926e-06
1 12 100 20 0.000167881
2 12 100 20 0.0290035
3 12 100 20 3.52943e-06
4 12 100 20 7.93565e-05
5 12 100 20 0.0154179
6 12 100 20 0.0462238
7 12 100 20 0.0616342
8 12 100 20 0.0607908
9 12 100 20 0.128131
10 12 100 20 0.0658275
11 12 100 20 0.0669875
12 12 100 20 0.123264
13 12 100 20 0.0604002
14 12 100 20 0.123254
15 12 100 20 0.0770367
16 12 100 20 0.0770365
17 12 100 20 0.0461198
18 12 100 20 2.51084e-07
19 12 100 20 0.0154073
20 12 100 20 0.0032141
3 13 100 20 6.61846e-06
4 13 100 20 0.0318071
5 13 100 20 0.0477083
6 13 100 20 0.0159028
7 13 100 20 0.0477027
8 13 100 20 0.127221
9 13 100 20 0.107729
10 13 100 20 0.126928
11 13 100 20 0.13226
12 13 100 20 0.0636251
13 13 100 20 0.0619722
14 13 100 20 0.0795156
15 13 100 20 0.0477114
16 13 100 20 0.0321932
17 13 100 20 0.0299833
19 13 100 20 0.0159269
20 13 100 20 0.0318072
1 14 100 20 0.0170479
2 14 100 20 4.36338e-05
3 14 100 20 1.77879e-06
4 14 100 20 0.0170465
5 14 100 20 0.0511363
6 14 100 20 0.0511108
7 14 100 20 0.0187578
8 14 100 20 0.0170454
9 14 100 20 0.0511361
10 14 100 20 0.0635363
11 14 100 20 0.0852475
12 14 100 20 0.0853557
13 14 100 20 0.0842183
14 14 100 20 0.0853219
15 14 100 20 0.119317
16 14 100 20 0.0336764
17 14 100 20 0.0340907
18 14 100 20 0.100879
19 14 100 20 0.068421
20 14 100 20 0.0166095
2 15 100 20 0.0204729
4 15 100 20 4.46137e-06
6 15 100 20 2.31032e-07
8 15 100 20 6.24634e-06
9 15 100 20 0.0626044
10 15 100 20 0.122736
11 15 100 20 0.0207911
12 15 100 20 0.0409785
13 15 100 20 0.122838
14 15 100 20 0.0409465
15 15 100 20 0.143299
16 15 100 20 0.10244
17 15 100 20 0.0614167
18 15 100 20 0.0569645
19 15 100 20 0.0816642
20 15 100 20 0.122838
1 16 100 20 0.015905
2 16 100 20 0.0318101
3 16 100 20 0.03181
4 16 100 20 0.0465878
5 16 100 20 0.015905
6 16 100 20 0.03181
7 16 100 20 0.0159053
8 16 100 20 0.0477223
9 16 100 20 0.0282049
10 16 100 20 0.0318105
11 16 100 20 0.0642305
12 16 100 20 0.0636113
13 16 100 20 0.0954529
14 16 100 20 0.0794208
15 16 100 20 0.12724
16 16 100 20 0.0794756
17 16 100 20 0.0782253
18 16 100 20 0.0671601
19 16 100 20 0.0318179
20 16 100 20 0.0158948
3 17 100 20 0.0355843
4 17 100 20 0.0177962
5 17 100 20 0.0533839
