18 August 1.06663e-06
奥运会 Athens 2.70731e-08
熬夜 day 4.56842e-06
熬夜 next 5.20437e-06
熬夜 sports 8.84737e-06
熬夜 all 4.70114e-06
熬夜 occasionally 9.49616e-07
每天 you 2.35815e-05
每天 stay 2.02018e-05
最高 beings 1.35354e-06
选手 Mustafina 5.99457e-07
选手 medalist 3.71209e-07
选手 NULL 0.000326205
日 18 2.29997e-05
预测 model 1.28634e-05
我们 securing 5.42101e-07
是 count 1.58058e-08
名 jail 8.03919e-05
和 aerodynamic 1.50777e-07
我国 Long 1.73623e-05
、 clarity 2.54654e-08
迈克尔 Phelps 2.88978e-05
Frank KGO 6.92271e-06
哀悼 difficult 0.000328869
哀悼 friends 0.000129923
当 as 8.50381e-05
是 completely 1.55379e-06
使用 via 0.000223888
。 Pompeo 3.25081e-07
为 101.0 1.50177e-06
日 Xia 0.000388218
日 after 0.000507937
我们 management 0.000371333
附随 organizations 0.0212318
目标 landing 0.00219396
日 NULL 6.85635e-05
说 parents 3.49417e-05
70 City 0.566565
余地 every 0.00716978
180 Center 9.2121e-05
制造 AstraZeneca 0.000890993
最 perhaps 0.000401387
再次 talking 6.995e-05
帮助 astronomers 0.0167164
而言 economy 0.112001
北海 regional 2.44008e-06
也 they 2.10441e-06
较慢 spun 0.00733526
不 motorists 6.84916e-07
案件 judged 2.99265e-06
驾驶员 some 0.00252849
巨大 success 0.0264033
本地 local 0.00196316
。 earnings 0.000489185
詹姆斯 signed 0.0178226
8 points 0.00130654
24 points 0.0046091
、 departments 4.77736e-07
我们 appalled 0.00111505
” shocked 6.04358e-06
均 saying 0.0965442
席位 final 0.786535
席位 coupon 3.92685e-05
、 friends 5.439e-07
朋友 colleagues 0.000384286
、 colleagues 0.000225011
处理 handle 0.0570903
司机 hampered 2.96737e-05
这一 event 0.00171503
和 communication 0.0005082
日 28 0.00676741
这 write 8.34128e-09
浇 ingredient 0.883177
体现 message 0.445053
虽然 filter 0.0326168
12 NULL 0.000114417
我 stressed 0.00286824
不过 now 0.171978
激烈 tight 0.000171605
配合 interplay 0.00635075
据介绍 this 0.932788
据介绍 reports 0.0442331
据介绍 according 0.00100924
球 81st 0.0805005
” robbery 1.96576e-05
1 cm 0.00913082
” preparatory 1.76788e-07
是 Monetary 6.17039e-05
出门 limitations 0.593407
8 Qilu 0.00610222
济宁 are 0.000970994
相应 supporting 0.201734
0.2% CPI 0.298149
昨日 report 0.000884372
夜间 training 0.00426839
了 decoration 2.44055e-06
是 changes 8.67079e-09
” Cafe 0.000502747
脏床 bedrooms 0.00223403
家庭 notorious 0.0302533
。 should 1.33151e-06
比 Douglas 0.00109819
比 Gabby 0.000301015
她们 they 0.570482
这支 features 0.00306972
一段 part 0.000226584
一段 build 0.000462397
俄罗斯电视台 station 0.684936
职务 Sergei 0.030438
。 NULL 1.91288e-06
再次 least 0.00268292
上 mainly 0.00495459
是 reconciliation 0.000123232
： generator 6.99821e-08
任何 found 0.000771403
不是 England 0.0333814
它 thorough 0.0130583
坚持 stuck 0.253695
23 needs 0.203809
可行 perform 1
一次 disaster 0.0629988
目前 but 5.79003e-07
Leonardo Brady 1
不断 NULL 0.0422638
未 suites 0.00812523
住房贷款 suites 1
一套 suites 1
套房 suites 1
两 suites 0.0390984
有 suites 0.000477211
名下 Hefei 1
对于 lending 0.00491065
已经 Hefei 0.020617
南京 Nanjing 1
合肥 Hefei 1
楼市 tier 1
二线 tier 1
重启 restriction 0.136976
第一个 restriction 0.0155136
苏州 Suzhou 1
出台 regulation 0.40093
新政 restriction 1
调控 restriction 0.391304
调控 tier 0.608696
此项 restriction 1
更 dependent 0.00309904
要 dependent 0.00329008
情况 generalized 0.0089679
之后 listed 0.0879984
出现 brokers 0.0198804
回归 flatness 0.155889
证券市场 flatness 1
系 CITIC 0.280305
所长 inherent 0.428571
东证 inherent 1
才 Orient 0.0152219
旗下 Orient 0.453781
不算 Orient 1
挂牌 listed 1
。 response 0.00154909
发售 Everbright 1
光大 Everbright 1
从业者 practitioners 1
改变 aspects 0.014367
以往 aspects 0.124559
较 aspects 0.016634
都 aspects 3.14215e-08
媒体 aspect 1.6916e-06
来看 aspect 0.224065
传播 strategy 0.337672
制定 establishing 0.11688
２ establishing 0.0578099
用 association 0.108334
年度 municipal 1
社团 association 0.61497
市 municipal 0.155749
两种 inspection 0.723414
重点 spot 0.256663
和 categories 0.00012032
收据 receipts 0.630899
收据 unified 0.369101
会费 receipts 0.630888
会费 unified 0.369112
社会 unified 0.0106846
菲律宾 Zhenlong 1
传播 communication 0.243342
引入 introducing 0.500086
观点 mainstream 1
学界 introduced 1
这一 potatoes 0.0249085
何时 potatoes 0.750006
番薯 sweet 1
导致 plotting 0.0301732
背后 plotting 0.302702
私心 selfish 1
自己 spaces 0.00520814
影响 spaces 0.0113996
做会 spaces 1
这样 spaces 0.0236813
业主 spaces 1
个别 spaces 1
生态 leisure 0.159169
人文 ecology 0.29931
和 marine 0.000837282
自然生态 Tau 0.976228
游玩 safely 1
安全 safely 0.00860138
湖上 lake 1
救生衣 jackets 1
穿 wear 0.453822
平淡 response 0.83778
划船 jackets 1
广大 jackets 0.349311
但 professional 0.00716226
虽说 Nanhu 0.000173929
超过 deepest 0.132429
最深处 deepest 0.0202479
最深处 Area 0.97952
南湖 Nanhu 0.999969
介绍 Jianjun 0.0901998
南湖公园 Section 1
上 Journal 0.0010007
《 Astronomical 0.0114557
不久 Journal 0.0434757
对昂宿 papers 1
论文 Journal 0.0353925
论文 papers 0.127428
许多 dance 0.0635514
收起 dance 1
并且 hang 0.00790461
以及 hang 0.0129674
关于 why 0.308671
基础 directions 0.140654
奠定 theoretical 0.0512922
旋转 theoretical 0.333312
双向 rotation 0.900504
与 stellar 0.00145527
作为 compare 0.0029455
因此 ideal 0.0665621
是 tend 0.00010766
速度 fastest 0.0382486
表演 ballet 0.0949549
时 pirouetting 0.00281505
旋转 pirouetting 0.222273
比作 dancers 0.220648
速度慢 slowly 0.701868
质量 slowly 0.161144
速度 sunspots 0.0286811
测量 tracking 0.225996
时间 starspots 0.00155987
出现 starspots 0.0142003
太阳黑子 starspots 1
黑子 starspots 1
恒星 sunspots 1.22145e-05
可 recognizable 0.013037
追踪 recognizable 1
通过 recognizable 0.00355652
速度 begins 0.0286659
增加 ages 0.0117767
随着 ages 0.0166515
作用 fields 0.0682351
穿过 winds 0.128973
恒星 winds 0.0159218
当 winds 0.00806874
射 amounts 1
恒星 stellar 0.11425
成熟 maturing 0.750872
自转 spinning 0.00767999
中 spinning 0.000816885
成年期 125 1
目前 roughly 0.00125366
1.25 125 1
诞生 roughly 1
恒星 roughly 1.8761e-06
中 reaching 0.00430159
445 situated 0.00106998
了解 clusters 0.00779938
星团 clusters 0.0228666
其他 clusters 0.0031122
与 clusters 0.00040425
上 Pasadena 0.00199988
布尔 Rebull 0.847012
· Luisa 0.00357355
卢萨 Luisa 1
处理 Analysis 0.0475752
红外 Processing 1
帕萨迪纳 Infrared 1
星球 formation 0.315177
与 relate 0.00118862
周期 relate 1
完整 collect 0.76889
了 collect 9.90134e-07
采集 collect 1
天文学家 collect 0.475626
天文学家 astronomers 0.524374
望远镜 telescope 1
太空 telescope 0.249896
自 cluste 0.0114573
测量 Kepler 0.504785
而 1.4 0.000904182
亿美元 1.4 0.0184673
14 1.4 0.00951776
不 1.4 0.000617714
预计 1.4 0.0622516
支出 spending 0.636366
支出 1.4 0.363634
纠纷 Anderson 0.0301644
劳动 Anderson 0.0610474
这 Anderson 0.000272866
探讨 Dave 0.5
共同 Dave 0.127934
会面 Parliament 0.518382
· Member 0.00214413
戴夫 Member 0.178047
议会 Member 0.444445
压力 Union 0.0171334
脱欧 compounded 0.0957833
以及 compounded 0.00721147
来自 compounded 0.00648211
面临 compounded 0.00928198
正在 compounded 0.0111267
业务 mega 0.022879
达到 spinning 0.00184491
需要 merger 0.00293072
是因为 merger 0.0444344
设备 mega 0.33334
关停 plans 1
。 directions 3.24361e-07
裁减 trimmed 1
难关 downturn 0.189992
萧条 downturn 0.182781
市场 downturn 0.00788792
度过 downturn 0.412278
帮助 give 0.0506679
10% onshore 0.0222005
此次 onshore 0.0176079
9% pressures 1
而 pressures 0.00105492
因 pressures 0.00871746
首次 unions 0.0176015
以来 unions 0.0149072
采取 unions 0.01199
多场 starting 0.428571
未来 weeks 0.0599342
早些时候 starting 0.0144928
进程 read 0.237077
确认 confirm 0.287471
工会 unions 0.0369775
RMT RMT 1
根据 Unite 0.00963179
Group sporadically 0.0603456
服务公司 sporadically 1
针对 sporadically 0.018245
出现 platforms 0.019734
壳牌 Shell 0.584109
皇家 Shell 0.0090352
新一轮 sit 0.53839
开始 sit 0.00419333
各方 sit 0.199994
谈 Strik 1
继续 Strik 0.0232372
罢工 suspend 0.0610981
油田 Sea 0.981963
北海 Sea 0.00186762
北海 North 0.99813
获得 apiece 0.0031046
各 apiece 0.0318437
时 apiece 0.00337707
效力 apiece 1
加拿大人 Canadiens 1
蒙特利尔 Montreal 0.72259
杯 Cups 1
斯坦利 goaltender 0.332347
罗伊共 Fame 1
守门员 Hall 1
名人堂 Hall 1
联盟 Wild 0.0241433
大 Wild 0.00694254
以 shy 0.0178317
负 mark 1
平 mark 1
失之交臂 postseason 1
与 postseason 0.00040358
年均 postseason 0.0526735
两 postseason 0.0586674
最近 postseason 0.0408452
所 Minnesota 0.00259767
季后赛 Minnesota 0.0830619
第一 upset 0.00852415
区 upset 0.189545
中 112 0.00322619
获得 club 0.0116995
奖 Award 1
为 Adams 0.00037796
首个 rookie 0.188199
同意 resolution 1
执教 rookie 0.216435
一帆风顺 future 1
希望 wish 0.0281958
作出 luck 0.0126828
俱乐部 luck 0.0544683
贡献 thanked 0.322579
做出 contributions 0.266287
萨奇斯于 Sakic 1
决策 decisions 0.361556
表现 decisions 0.0136243
必需 perfectly 0.346955
目标 perfectly 0.0554569
主教练 vision 0.0323263
这位 vision 0.032095
实力 depth 0.151951
更上一层楼 depth 1
具备 depth 0.278704
使 depth 0.142286
这支 improve 0.00276881
认真思考 summer 1
职责 operations 1
履行 determination 0.14151
怀着 duties 0.818182
罗伊在 passion 0.333333
主教练 immediately 0.0693006
达到 peak 0.0145669
并且 search 0.00439677
组成 formation 0.181091
一 search 0.00565282
确认 Sakic 0.317414
· Joe 0.00214413
乔 Joe 0.278717
总经理 Joe 0.161475
发言权 citing 0.468907
副总裁 hockey 0.203124
兼 operations 0.401817
冰球队 vice 1
辞去 resigned 0.456369
结果 Letters 0.0351362
模拟 Letters 0.15794
中 Geophysical 0.00107387
期刊 Geophysical 0.499644
地球物理 journal 0.999996
人员 shared 0.114211
气体 greenhouse 1
致命 deathly 1
较厚 dioxide 0.469633
只有 escaped 0.0628745
留下 escaped 0.0426727
所 escaped 0.00788718
的 hydrogen 3.12154e-09
随着 hydrogen 0.0222019
也 burned 0.000938853
蒸发 burned 0.445138
海洋 burned 1
上 oceans 0.00300203
星球 oceans 0.480796
温度 ultraviolet 0.488021
中 habitable 0.00213604
但 habitable 0.00237091
存在 habitable 0.0221809
曾经 habitable 0.00125826
之前 planetary 0.0111618
金星 hypothesized 0.0154616
模拟 hypothesized 0.0631554
所 hypothesized 0.00467586
低 cooler 0.0258587
还 cooler 0.00109992
温度 temperatures 0.33869
金星 temperatures 0.0254211
是 temperatures 5.84898e-06
模拟 result 0.505234
大部分 heating 0.0134477
地面 heating 0.263155
一样 heating 0.0136657
雨水 clouds 1
形成 clouds 0.0230591
能够 clouds 0.0145299
变暖 warms 1
这使 warms 1
缓慢 exposes 0.272728
说 Genio 0.00559879
尼奥 Genio 1
德尔 Anthony 1
资格 Conference 0.181845
太空 GISS 0.500069
30% dimmer 0.0211707
暗 dimmer 1
地球 dimmer 0.00866698
照射 early 1
并且 rapid 0.000408985
生命 rapid 0.190459
地理 guard 1
水 variability 0.0538107
早期 topography 0.0514738
金星 topography 0.0153581
还 topography 1.39967e-08
较慢 slowly 0.107615
自转 slowly 0.0194676
当时 spun 0.00493047
有 boasted 0.000715444
曾经 boasted 0.0305781
表明 suggests 0.208159
模拟 simulation 0.210514
较厚 atmosphere 0.428266
认为 suggested 0.0133781
曾经 chocked 0.0131061
是否 chocked 0.00943764
二氧化碳 chocked 0.222289
十分 algorithms 0.171504
情况 Studies 0.0269016
探索 Space 0.2
可 Space 0.0163662
一个 Space 0.000249916
开发 Space 0.0202649
太空 Goddard 0.250034
戈达德 Goddard 0.333333
居住 projections 0.0136533
根据 NASA 0.0355069
气候 climate 1
拨打 021 0.125392
这起 Morges 1
有关 644 0.0822346
提供 644 0.0120068
任何 644 0.0195758
电话 justified 0.0207717
事后 justified 0.234412
预料 unpredictable 1
俱乐部 search 0.029997
出现 emergency 0.016567
男子 emergency 0.0185018
而 emergency 0.00105488
合法 emergency 0.0702629
驾驶 responding 0.608696
女警察 policewoman 0.727271
这名 policewoman 0.0424858
调查 judge 0.0637409
公路 drinking 0.0248083
22 drinking 0.0147317
并且 Paynerne 0.0065872
男子 Paynerne 0.0185018
内容 killed 0.207019
死亡 Paynerne 0.016367
因 negligence 0.00871713
被 acquitted 0.00157456
一名 Paynerne 0.00947653
预料到 pedestrian 1
可能 pedestrian 0.00467328
驾驶员 motorists 0.106108
判决 judged 0.107251
。 judged 0.000544574
引起 motorway 0.0793523
走上 dark 0.557522
有人 dark 0.0900185
是因为 dark 0.159977
该报 pedestrian 0.705883
案件 suggest 0.0118728
类似 suggest 0.0281029
另 suggest 0.0108838
检察官 prosecutor 1
将 prosecutor 0.00030185
这 prosecutor 0.000218288
而 reports 0.0109406
有 possible 0.00429494
有 involved 0.00574148
是否 remains 0.0220126
知晓 remains 1
事件 Tribune 0.0101989
这是 Le 0.0140236
已 logical 0.000712003
日内瓦 Tribune 1
· Gilles 0.00536031
勒斯 lawyer 1
前来 unidentified 0.11976
事故 unidentified 0.17911
正在 unidentified 0.0142911
调查 interviewed 0.0626353
驾驶员 involved 0.045934
涉事 else 1
多名 else 0.199496
透露 else 0.208586
死亡 scene 0.107298
女性 scene 0.0840468
一辆 lorry 0.147369
她 lorry 0.000470513
意图 lorry 0.055075
带有 lorry 0.0790354
为 kill 0.00188972
公路 desperate 0.275428
公路 road 0.699764
躺 lay 0.272913
上 A1 0.00300203
凌晨 canton 0.0566609
周四 canton 1.99132e-05
寻找 suicide 0.210566
警方 suicide 0.00226389
作为 Hall 0.00589112
。 suicide 0.00016681
车 act 0.163686
多辆 act 0.159169
多辆 several 0.840831
辗过 act 0.421122
清晨 suicide 1
周四 suicide 0.00411559
午夜 motorway 0.267455
辗身 suicid 1
自杀 suicid 0.152543
上 suicid 0.00120082
上 motorway 6.26695e-08
高速公路 apparent 0.488225
参 Treasur 1
商务 Treasur 1
财政部 Treasur 1
英国 Commercial 0.0217322
勋爵 Lord 1
戴顿 Lord 1
使全 legacy 1
天然气 BG 0.571165
保驾护航 creating 1
就 securing 0.000995648
正是 securing 0.0670968
现在 securing 0.00251237
巨大 confident 1.9957e-07
取得 confident 0.00606116
机场 confident 0.0296467
希思罗 confident 0.0211757
跑道 runway 0.749999
第三条 runway 1
建设 runway 0.0202228
亿英镑 deliver 0.336163
160 deliver 0.847525
准备 deliver 0.0326807
之间 runways 0.00462498
两条 runways 0.0847608
繁忙 runways 0.250001
由 stories 0.00182417
机场 T2 0.044474
机场 Heathrow 0.213767
110 11bn 1
完成 budget 0.0240082
内 budget 0.0197256
范围 budget 0.0490821
准时 programme 1
团队 11bn 0.0100842
而言 regional 0.000116627
财富 legacy 1
与 legacy 0.00132301
一笔 legacy 0.766008
2110 211bn 1
18 211bn 0.0291337
多达 211bn 0.269173
开展 few 0.0884695
人而非 few 1
大多数 few 0.8275
如同 like 0.000923021
面临 question 0.0968085
一个 answering 0.000486923
每 answering 0.0455348
需要 obstacles 0.010048
出现 obstacles 0.0567953
虽然 obstacles 0.0310673
质疑 wrong 0.294289
面前 stage 0.587564
全世界 stage 0.420563
并且 ready 0.0231028
告知 embarrassed 1
扩建工程 expansion 0.667785
扩建工程 challenge 0.332215
希思罗 expansion 2.5852e-05
正如 ahead 0.527926
周围 airport 0.464267
岗位 apprenticeships 1
学徒 apprenticeships 1
项目 Heathrow 0.0513893
将 create 0.00123898
本地 &apos;ll 0.998037
就 alone 0.00348456
造福 firms 1
机会 firms 0.0371987
受益匪浅 End 1
东区 End 0.906908
德 Stratford 0.0496073
获益 benefited 1
正如 attraction 0.0935238
所在 attraction 0.111666
魅力 attraction 0.37452
繁荣 regeneration 1
活力 regeneration 0.2
以及 prosperity 0.032419
高等法院 Mecklenburg 1
- CS 0.00113937
并且 payroll 0.0131743
来电 Consulting 1
未 Innovative 0.0228778
Services Innovative 1
Innovative Innovative 0.00104664
近期 affiliate 0.0671908
报道 affiliate 0.00498849
WCCB affiliate 1
新闻社 affiliate 1
一家 affiliate 0.024937
据 WCCB 0.0121419
菲利普 unsuccessful 0.0364958
联系 attempts 0.233721
无法 attempts 0.040892
希克斯 Hicks 1
殴打 battery 1
袭击 battery 0.03392
菲利普 battery 0.0209489
上 habitabl 0.00119996
疏于 negligent 1
曾 habitabl 0.00638355
要求 seeks 2.26026e-06
发言 judges 0.262838
这一 judges 0.00593071
爱好者 gets 0.230769
也 Second 0.00234343
修正案 Amendment 1
第二 Amendment 0.00759788
那么 Carolina 0.502944
法官 judges 0.0276576
挑选 gets 0.545455
对手 rival 0.204431
烧尽 evaporated 1
这位 Republican 0.0474006
发生 suit 0.0210572
案件 suit 0.0296819
该 suit 0.0059678
中 complaint 0.00711847
经历 filing 0.0535131
四个 filing 1
地区 regional 0.0749465
膝盖骨 knee 0.99972
星团 Pleiades 0.397147
板 finger 1
业务 Orient 0.00814563
食指 finger 1
右手 finger 1
。 complaint 0.00114203
手枪 pistol 1
一把 pistol 0.512195
一代人 Anderson 1
厄尔 Earl 1
描述 Earl 0.0433964
博迪尼 Earl 0.0368866
根据 Earl 0.00687986
意识 waited 0.162881
后 realising 0.0009644
后 Bordini 0.00503412
在 internally 0.000142816
之前 waited 0.00640339
博迪尼 Bordini 0.898561
事件 lawsuit 0.00764919
夏洛特 Charlotte 0.984814
文森特 Vincent 1
培训师 software 1
软件 software 1
该州 lawsuit 1
不 allegedly 0.00492898
时 Jeep 0.00241219
吉普车 Jeep 1
一辆 Jeep 0.189474
驾驶 Jeep 0.0869566
因其北 Jeep 1
被 gu 0.000524868
工作人员 gu 0.0128872
团队 campaign 0.156445
中 invest 0.0010754
这项 invest 0.025626
投入 invest 0.131013
对应 client 1
及其 client 0.089975
关注 client 0.0344832
必须 invest 0.0145659
必须 client 0.0218498
中 ballet 0.00129048
布兰迪斯 Brandis 1
司法部长 Attorney 1
对 navigate 4.84561e-05
情况 navigate 0.0133147
违规 safely 0.130436
该 dimensions 0.00298394
并且 dimensions 0.00988087
着 sacked 0.0185289
都 sacked 0.00291973
人群 unfairly 0.280773
被 debts 0.00052513
家庭 debts 0.0128309
分崩离析 debts 1
面临 sacked 0.0278169
面临 crippling 0.0834522
偿还 unmanageable 0.222197
无法 unmanageable 0.0116817
、 unmanageable 4.92176e-05
远离 violent 1
所 underfunded 0.00292278
获得 underfunded 0.00194065
无法 chronically 0.0272614
将 chronically 0.000503082
数千 underfunded 0.054933
意味着 thousands 3.18836e-06
这 underfunded 0.000136452
处于 underfunded 0.116893
只会 worse 0.285715
联邦政府 reversal 0.0576774
如果 reversal 0.000930808
数千 thousands 0.320466
协会 Community 0.107581
根据 Farrell 0.024079
中心 Legal 0.0333097
社区 Community 0.0624034
30% cent 0.20379
减少 cent 0.108053
将 cent 1.43611e-06
为 slated 0.000144882
起 cent 0.0911646
自 slated 0.00423168
超过 limits 0.0246513
等 representation 0.00663178
受害人 violence 0.142857
拒 advice 0.545455
三个 evictions 0.0342155
人中 unfair 1
五个 unfair 0.685393
每 unfair 0.0225734
昆士兰 Queensland 0.552203
削减 cuts 0.646816
一名 officer 0.113719
现在 stretched 0.00865716
资金 cuts 0.0640495
拒之门外 away 1
万 160,000 0.231347
16 yea 0.0306791
16 160,000 0.0442152
每年 yea 0.00835982
一个 generator 0.00012519
作为 generator 0.00109084
会 &#91; 0.00393426
需求量 &#91; 1
600 megawatts 0.00138667
用电量 annually 0.374485
森 Mikkelsen 1
米克尔 Mikkelsen 1
主管 annually 0.248295
评论 addressing 0.0533013
分析师 addressing 0.0736838
针对 addressing 0.0273141
《 journal 0.0114558
而 economics 0.00105488
行业 Newcastle 0.0162316
戈 Tomago 1
托马 Tomago 1
位于 wary 0.0338045
解释 explain 0.0436742
为期 commence 0.262292
其 2010 0.00294662
还 roughly 0.00124698
美国公司 entered 1
这家 entered 0.434291
” secure 0.000586537
能力 secure 0.0303668
电力供应 secure 1
价值 187 0.152187
1.87 187 1
减记 anticipation 1
预期 anticipation 0.0186797
乐观 outlook 0.000172841
批发 FY18 1
任何 earnings 0.0131058
财年 FY18 0.333333
产生 earnings 0.0359251
财年 fiscal 0.666668
2017 fiscal 0.0649996
将 contribute 0.000475594
预测 contribute 0.0726407
仍 contribute 0.0114362
电力公司 fiscal 0.378245
对冲 hedging 1
起 hedging 0.0221907
需求 electricity 0.132004
这座 facility 0.2
也就是说 facility 0.0328957
运营 facility 0.122415
将 facility 2.44558e-08
工厂 facility 0.0290509
合资 expects 0.66666
少量 Corp 1
株式会社 Corp 1
中信集团 CITIC 1
副总裁 operations 0.380751
合资 Alumina 0.33334
氧化铝 Alumina 1
公司 Alumina 0.00835792
股东 venture 0.999775
股东 owned 0.000225455
最大 owned 0.0673365
三名 Valley 0.15982
公司 expects 0.0111442
大型 aluminium 0.285711
这座 aluminium 0.199996
杨 Valley 0.1109
杨 Loy 0.8891
老埃 Loy 0.888793
罗布 Valley 1
AGL AGL 1
则 moves 0.018047
最近 moves 0.0544466
最初 speculation 0.571317
之后 speculation 0.0123542
质量 tend 0.0514012
几年 speculation 0.105263
此举 moves 0.338299
并且 losing 0.0158092
亏损 losing 0.333333
目前 losing 0.00250739
发电厂 Anglesea 0.198268
安格尔 Anglesea 1
汉瑞角 Henry 1
了 Point 0.0012375
产生 electricity 0.06707
产生 effects 0.035771
因此 effects 0.0147949
输出 consumes 1
占 knock 0.0848953
工厂 knock 0.0166008
失业 indirect 0.0759595
或 indirect 0.0026672
人 indirect 0.00102638
工厂 closure 0.0870462
一旦 closure 0.465869
失业 jobs 0.747049
工人 2000 0.0424804
年 expires 0.00128615
这笔 expires 0.0963203
该 model 0.0403972
保证 extend 0.0316454
发放 extend 0.013267
在 follows 1.51383e-07
发生 extend 0.00701906
举措 extend 0.333258
面临 jobs 0.117329
以及 smelter 0.117885
铝 aluminium 1
位于 axed 0.0207057
失效 axed 1
使 axed 0.0534377
终止 contracts 0.199781
将 terminate 0.00110797
为 aluminium 7.16953e-08
确定 contrac 0.037491
不 doubt 0.00576519
取消 axing 0.2
因 axing 0.0130757
冶炼厂 smelter 1
波特兰 Portland 1
C C 0.506911
Type Type 1
对称 symmetrical 1
金属 metal 0.99996
为 metal 3.9901e-05
为 frame 0.000934513
中框 frame 1
小红圈 red 1
是 classic 3.42019e-05
依旧 classic 0.489886
下方 classic 1
正面 classic 1
1080P screen 4.69235e-05
1080P 1080p 0.999953
一块 uses 0.486879
采用 nubiaZ11mini 0.222221
方面 nubiaZ11mini 0.0235381
1299 1299 1
元降 decreasing 1
1499 decreasing 1
从 decreasing 0.0013854
即 1499 0.210911
元 1499 0.0084123
小屏 Z11mini 1
上市 listed 0.94326
上市 Z11mini 0.0567401
刚刚 Z11mini 0.0364828
旗下 Z11mini 0.546219
nubia Z11mini 1
指纹识别 fingerprint 1
后置 portable 1
5.0 5.0 1
握持 5.0 1
易 photographed 1
更 photographed 0.00247089
单手 photographed 1
精简 merger 1
券商 CITIC 0.322582
一贯 consistent 0.285719
nubiaZ11mini NubiaZ11mini 0.333394
作品 Z11 0.100978
首款 Z11 1
Z11 Z11 1
之后 iPhoneSE 0.0741253
亮相 debut 0.545447
都 James 2.9149e-05
开始 kicks 0.0041933
时候 kicks 0.0214249
什么 kicks 0.0221202
- 2017 2.56568e-08
2017 matter 0.0368557
出众 superior 1
年期 Cavaliers 1
3 Cavaliers 0.00695454
一份 Cavaliers 0.0222216
已经 renewed 0.0343617
来说 James 0.192242
对于 James 0.00828474
将会 fall 0.496885
如何 boss 0.00770138
关于 boss 0.102891
之间 boss 0.0138749
以及 attributed 0.00926239
协议 attributed 0.0429749
新 attributed 0.00187628
感谢 attributed 0.0648958
提升 attributed 2.93614e-07
收入 substantial 0.0378444
鉴于 substantial 0.145924
前线 union 1
身处 forefront 1
工会 labor 0.946589
这份 forefront 0.0158162
现今 forefront 1
随着 labor 0.106571
两份 signed 1
骑士队 Cavaliers 1
重返 Cavaliers 0.385506
自从 signed 0.0804621
堪称 full 0.855397
里场 backboards 1
场 obtained 0.325547
屈指可数 block 1
球员 block 0.0162981
内线 block 0.350228
错误 wrong 0.248848
做到 block 0.222222
上能 block 1
当今 insiders 0.750002
长传 pass 1
到 launching 0.0102821
盖帽 block 1
不 equipped 0.00360238
并 equipped 0.0291948
但是 packed 1.29135e-06
内线 packed 0.649772
投篮 roll 1
之后 roll 0.0134774
队友 roll 0.0729783
拉开 drawing 1
场上 drawing 1
次 assists 0.202613
篮板 rebounds 0.386444
篮板 points 0.613556
个 rebounds 0.00737487
个 points 0.0117086
谨慎 economics 1
期待 gift 0.41007
充满 gift 0.100167
对 expectations 5.34956e-05
天赋 gift 0.248875
影子 Saric 1
这名 justified 0.0318634
努 Manu 1
这位 shadow 0.00802696
高 shadow 0.0358252
奇 Saric 0.173599
萨里 Saric 0.170644
给予 Brett 0.0967808
加时 drag 1
拖入 drag 1
加索尔 Gasol 1
掉 Salici 0.996982
成功 Spain 0.0256365
奇 Croatian 0.076725
萨里 Croatian 0.0765569
比赛 drag 0.00381243
比赛 Croatian 0.00635344
险胜 margin 0.193474
一场 narrow 0.0485534
一事 shelved 1
深 impressed 0.231043
相信 Salic 0.266935
很 impressed 0.00999263
不是 impressed 0.0155901
一个 player 0.00199877
屏机 screen 1
人队 76ers 0.58027
76 76ers 0.0547315
城 76ers 1
加盟费 76ers 1
并 76ers 0.00350411
萨里 Salic 0.752799
新秀 No.12 1
号 No.12 0.0806455
首轮 No.12 1
20 extended 1.00133e-05
比赛 Bournemouth 0.00251659
迎战 Bournemouth 1
日 extended 4.19521e-05
日 Bournemouth 0.00125914
如此一来 Bournemouth 1
禁赛 passes 0.378664
累计 Cup 0.803565
仍然 Cup 0.555455
英足 Challenge 1
但是 Challenge 0.00657608
去年 Anglesea 0.00405833
英超 Premiership 0.0667223
转会 Premiership 1
已经 Premiership 0.00859308
协议 forefront 0.0668383
中 cards 0.000921763
中 Pogba 0.00258095
意大利杯 cards 1
触犯 discipline 1
违反 dining 0.0454692
所 Ziliang 0.0116895
表示 search 0.000696154
等 Cheng 0.0124346
通报 Inspection 0.753575
纪委 Discipline 1
承担 borne 0.368423
刘 borne 1
由黎友 wine 1
饮用 red 1
之内 kicks 1
级 probation 0.100078
副厅长 probation 1
球员 agent 0.0570434
室主任 supervision 1
上班 reporting 1
省纪委 reporting 1
到 reporting 0.0102886
陈阳霞 Yangxia 1
定南 Ganzhou 1
原 Ganzhou 0.00113561
超范围 prohibit 0.444902
收费 fees 0.63728
要 strictly 0.0131603
社区服务 commissioned 1
受 commissioned 0.16558
派出所 resolutely 0.210526
首次 stipulate 0.0080959
均 stipulate 0.0309335
且 application 0.472603
规定 stipulates 0.0506565
规定 Jiangxi 1.27779e-05
应自 documents 1
派出所 documents 0.789474
公安 documents 0.789474
意见 region 0.105578
版 region 0.180844
受理 date 0.729199
应当 date 0.649146
持有人 holders 0.612915
一次 holders 0.0131333
范围 convenience 0.0347384
扩大 expand 0.0622566
明确要求 places 1
前 H 0.00168813
多 places 0.0180478
便利 entrance 0.470011
中 attend 0.0129045
可 examination 0.0320257
下 examination 0.0153226
相关 examination 0.0019098
便利 conveniences 0.310373
公共服务 public 0.99359
注意 journalist 0.0698535
需 applying 0.179418
出台 issuing 0.178191
省市 issuing 1
个 issuing 0.0049166
并 expand 0.00786683
福建 Fujian 0.763237
福建 Gansu 0.236762
甘肃 Gansu 1
江西 Jiangxi 1
中新网 ChinaNews 0.888893
放在 finger 1
给 interactions 0.00998194
良好 interactions 0.0532198
游客 interactions 0.016783
以及 recruiting 0.010888
配备 recruiting 0.456176
装备 recruiting 1
人员 officers 0.114406
起 slated 0.0245878
安全感 tourism 0.89893
终止 expires 0.0595081
对方 sense 0.377382
到 sense 0.0107181
可能 realising 0.0019472
公民 sense 0.806464
受害者 victim 0.358937
俄中 believes 1
启发 inspire 0.254617
三亚 inspire 0.0409275
状况 underfunded 0.27272
组建 inception 0.4
说 Lysakov 3.42042e-07
外语 laws 1
法律法规 laws 1
招式 defense 1
次课 languages 1
每周 foreign 1
德语 German 1
都 policemen 0.0029197
警察 policemen 0.0113966
疏导 diverting 1
保卫 diverting 1
景点 diverting 1
各大 diverting 1
工厂 plants 0.0193674
增加 attracting 0.0942139
日益 ambience 1
吸引力 ambience 0.272396
外国游客 ambience 0.36
氛围 ambience 1
萨科夫 Sakov 0.200061
非常高兴 happen 1
作出 speculation 0.0211379
驻地 communicate 1
大队 brigade 0.798698
莫斯科市 brigade 1
到 brigade 0.00425224
来 ability 0.0255768
自身 ability 0.65303
如同 Olympics 0.454193
重视 paying 0.666564
非常 languages 0.0206905
以上 policeman 0.0349727
会 policeman 0.00393426
有 speak 0.00285445
掌握外语 language 1
人 master 0.00717665
深刻印象 Bing 0.0857237
王冰 Bing 1
给 Bing 0.00483294
给 impressed 0.0154757
讲解 Bing 1
时 consultation 0.00675397
美铝 venture 0.0750607
交流 counterparts 0.119153
进行 counterparts 0.0268976
不时 observed 0.416727
亿年 125 1
仔细观察 carefully 1
蒙特利尔 Canadiens 0.27741
西班牙语 proficient 0.444376
20 Xinie 3.83924e-05
今年 Xinie 0.000388457
柳希涅 Xinie 1
一个多 lasted 1
岗 study 0.8387
跟 study 0.112457
跟 Store 0.021628
分成 divided 0.857078
地 Nicolieski 0.0102484
古姆 Gu 0.99919
古姆 Nicolieski 0.000810428
利斯基 Gu 1
旅游 duty 0.0195092
首支 professional 1
得知 drinking 0.130424
枪支 Amendment 0.25
当地人 waved 1
怀着 waved 0.181818
莫斯科红场 Red 1
任务 resolving 0.0168544
目标 resolving 0.04608
亿吨 resolving 0.0908653
~ objective 1
粗钢 objective 0.515896
5 ensuring 0.00971607
确保 ensuring 2.90692e-06
对 impressed 0.00190231
要 cutting 0.00877356
公平 fair 0.699705
做好 ins 0.152549
一样 dilemma 0.011957
导致 loss 0.0362079
建立 establishment 0.178361
妨碍 hindering 0.138166
成本 hindering 0.10898
增加 increased 0.112284
降低 thereby 0.188208
了 hindering 0.000504063
面临 bracing 0.0277362
类 existence 0.281087
这 existence 0.000426996
僵尸 zombie 1
市场化 brink 0.375
同行 inspire 0.0815288
以 brink 0.0089157
成员 Member 0.0118056
制约 brink 0.333333
受 restrained 0.132464
难以为继 sustain 1
适应 meet 0.862495
减弱 weakened 1
英寸 screen 0.947368
下行 downward 0.899997
介绍 charge 0.264509
尽管 though 0.071238
改造 shelved 0.0288153
可能 disposed 0.00292057
不当 disposed 0.0859793
一些 involve 0.00199088
今年以来 flatness 0.545454
规模 involve 0.0256236
资产 involve 0.0320942
由于 involve 0.00199262
过剩 properly 0.0330373
该 person 0.0635552
钢铁产业 steel 1
无助于 trade 1
保护措施 trade 1
后 merger 0.00096432
自主 independent 0.583341
考虑 considering 0.0510511
消费者 considering 0.203957
需求 importing 0.0351977
负责人 charge 0.0282544
这位 charge 0.270118
这位 person 0.00999348
切实 practical 1
各地 resolutely 0.150746
我国 exports 0.0559711
这一 attach 0.0415173
负责人 pointed 0.0555285
逐步 emerging 0.0273426
成效 emerging 0.7062
而且 emerging 0.0831377
事情 handled 0.133876
化解 resolve 0.358249
坚决 resolute 0.237468
钢铁 steel 6.0526e-05
钢铁 iron 0.999939
指出 Coordination 0.0156484
天赋 gifted 0.500789
回到 Premiership 0.028293
今天 Coordination 0.00619895
产业 Coordination 0.0189077
委 Industrial 1
用于 commercial 0.0609997
任何人 permission 0.625
看 dependent 0.0118124
知识产权 emblem 1
标志 emblem 0.0980294
继承 inherited 1
残奥会 Paralympic 1
冬 Winter 1
冬奥会 Paralympic 1
获悉 2022 1
蛋鸡 layers 0.285801
团体 unified 0.0959427
降低 contractors 0.0627361
沭阳县 County 1
被 laying 0.00105017
团体 receipts 0.0490485
将 permission 0.000503082
许可 privately 0.352941
许可 permission 0.117646
变卖 transferred 0.500066
扣押 sold 0.500041
扣押 hens 0.124892
予以 sold 0.552932
内 farm 0.0236708
养殖场 laying 0.281724
超过 160,000 0.0475366
作出 civil 0.0013344
· trainer 0.00536032
强制执行 fulfill 0.400002
履行 fulfill 0.165096
因 verdict 0.0314372
后 verdict 0.00344709
变卖 By 0.499934
场主 Detained 1
法院 Checked 0.0600186
2000 Because 0.122402
2000 Was 0.110303
一 Farm 0.0508645
博迪尼 v 0.0645522
当局 deceived 0.0426889
被 deceived 0.000851865
竞争 deceived 0.0615702
违法 unrestrained 0.0126066
却 unrestrained 0.020693
说 Jianjun 1.94445e-05
等 Driver 0.00184216
已 Driver 0.000474668
们 Taipei 0.0218672
才 Lijia 0.016032
月底 Lijia 0.0145281
这 Lijia 0.000136433
年 Lijia 0.000646513
却 Driver 0.00920033
现象 paralysis 0.414033
金星 featured 0.0257706
惊喜 waved 0.666667
周边 resulted 1
休闲 leisure 0.502394
不小 industry 0.853857
进入 Uber 0.0459321
Uber Uber 0.941176
共计 530,000 0.0801401
死亡 funeral 0.00947539
韩某 compensation 0.0823268
被害人 compensate 1
一把 pile 0.146342
从 pile 0.000622059
就 pile 0.000995713
打 stabbed 0.313644
两人 disputes 0.146445
一起 disputes 0.0598681
被 disputes 0.00104973
多米 apart 1
20 apart 5.70621e-06
相距 Dongcheng 1
两人 Dongcheng 0.146445
内 lane 0.0197257
称 Han 0.11945
死 knife 0.142468
其 knife 0.00589325
发生争执 alcohol 0.79993
酒后 Xiao 1
肖某 stabbed 0.00725331
肖某 Xiao 0.992747
韩某 Han 0.917673
获得 freedom 0.00596595
获得 relaxed 1.1791e-07
重新 relaxed 0.162267
感觉 relaxed 0.0698187
被 freedom 0.000245148
被 trapped 0.000897259
那个 freedom 0.656822
那个 trapped 0.000885438
一旦 freedom 0.119514
而 freedom 0.00243257
煎熬 torment 1
那 torment 0.0816327
去 torment 0.00649558
平静下来 torment 1
自己 torment 0.00173551
放松 breathe 0.555556
一个 exercise 0.00249916
着 torment 0.00617626
服从 corrections 1
不 corrections 0.000864804
其 corrections 0.00176797
个体 behavioral 0.731701
为 disobedience 0.00188968
把 impedance 0.0205831
心理学家 psychologists 1
行为主义 behaviorist 1
也 behaviorist 0.00156229
与 threatening 0.000404246
目的 esteem 0.0495865
红酒 wine 1
暴露 resistance 0.0656959
自我 resistance 1
对于 resistance 0.00196426
个体 resistance 0.14634
痛苦 painful 1
就 painful 0.00139399
时候 pressing 0.0963318
要素 establishment 1
并 modular 0.00438018
都 learns 0.00437956
基本上 learns 1
学习 decentralized 0.00882263
来 decentralized 0.00451762
分散 decentralized 1
。 usually 1.26327e-05
久 accompanied 1
学习 works 0.0522918
小小的 secret 0.445545
一个 secret 0.000428428
有 secret 0.000920338
心里 secret 0.346146
好 adapts 0.000140071
活泼 outgoing 0.178571
一个 smart 0.000399848
更加 excellent 0.597402
良好 excellent 0.184747
塑造 excellent 0.806436
优秀品格 characters 1
培养 cultivate 0.393443
需要 regulate 0.0058594
面前 regulate 0.156697
就 father 0.0041815
就是 deeds 0.0123241
自己 imitate 0.00312393
模仿 imitate 1
沃州 canton 0.108389
孩子 imitate 2.3564e-07
会 imitate 0.00236046
文明 teach 0.292766
养成 teach 1
教 accompany 0.453842
另外 patiently 0.0647502
照顾 patiently 1
孩子 teach 0.00806253
陪伴 accompany 0.212276
经常 accompany 0.0395856
良好 means 0.000476114
体现 grow 0.147075
对 educating 0.000798131
孩子 educating 0.00806267
教育 educating 0.0280402
照看 educating 1
来 educating 0.00451762
新爸 dad 1
时候 dad 0.0321374
就是 Zhenlong 0.0110633
也 shortcomings 0.000520781
再 shortcomings 0.0248387
即使 shortcomings 0.061079
子女 education 0.566709
平时 usually 0.523898
在于 Mom 0.0247816
不仅仅 Mom 0.0506586
就要 Dad 1
较近 cosmic 1
之后 Mom 0.00823615
生命 baby 0.514533
巅峰状态 legendary 1
关键时刻 peaking 1
上演 peaking 0.115381
足以 peaking 0.287665
比赛 peaking 0.00238254
退役 Pendleton 0.0209059
传奇人物 Pendleton 1
等 Pendleton 0.00331589
指控 bullying 0.227642
因 Sutton 0.0130757
萨顿 Sutton 1
· Sutton 0.00536032
肖恩 Shane 1
系 shadow 0.140149
四月 resignation 1
表示 logical 0.00104297
略感 showings 1
大家 showings 0.0297516
自行车队 exceptional 0.727943
英国 exceptional 0.0142095
展现 utter 0.453993
多枚 squad 1
囊 squad 1
并且 squad 0.00790461
占据主动 squad 1
奥运会 mighty 0.00263689
其 mighty 6.35446e-08
强大 mighty 0.301832
世界纪录 13.260 0.179476
以新 13.260 1
阿奇博尔德 13.260 1
凯特 Archibald 0.405396
来自 milngavie 0.0582792
巴克 Elinor 0.303939
生命 responsible 0.150055
尚德 Shand 1
安娜 Rowsell 0.142888
乔 Joanna 0.721283
、 Joanna 0.000166218
特 Trott 0.588898
· Rowsell 0.00714621
人 filing 0.00239221
比赛 resumes 0.00635343
女子组 resumes 1
身高 height 0.545455
测量 height 0.269219
当时 commissaires 0.00438662
比赛 commissaires 0.00423563
与 commissaires 0.0002695
并且 creating 0.0395225
无疑 Wiggins 0.0909091
举行 Wiggins 0.016657
10 10.42pm 0.00348386
晚上 10.42pm 0.0262318
是 51.659 1.60523e-09
世界纪录 51.659 0.179551
获得者 51.659 0.230844
金牌 51.659 0.00467622
而 51.659 0.00126452
成绩 51.943 0.0234351
团体 pursuit 0.0327931
全球 T2 0.0124555
四人 pursuit 0.0909091
史蒂文 Steven 1
克兰西 Clancy 1
艾德 Ed 0.991295
、 Burke 0.000344545
、 Clancy 3.96995e-05
爵士 Clancy 0.0439143
斯 Wiggins 0.291092
· Steven 0.00536031
布拉德利 Bradley 1
好消息 Britain 0.649998
压榨 debts 1
奖牌 event 0.159333
产生 event 0.0866653
爵士 knighthood 0.0167102
42 10.42pm 0.2
授予 knighthood 1
居住 applying 0.0272766
会 knighthood 0.00196713
那么 wins 0.100588
夺得 wins 0.015689
孤独 honest 0.299608
有点 honest 0.0508487
5 shy 0.011961
获胜 honest 0.255381
比赛 mates 0.00317684
队友 mates 0.0668991
棒 best 0.406342
赛 event 0.483943
比赛 enjoying 0.00317672
会 enjoying 0.00196713
其 lorry 0.000982209
人类 habitabl 0.0164527
这位 28 0.0374853
竞速赛 plays 0.0636567
三天 plays 1
、 plays 0.00019175
开始 begins 0.0251658
将 competes 0.000377312
H股 Securities 1
接下来 competes 0.322599
1 Roger 0.00899222
拥有 tally 0.174861
特 Bannister 0.242845
班 Bannister 1
罗杰 Roger 1
莫 Mo 0.571425
格雷夫 Redgrave 1
雷德 Redgrave 1
· Roger 0.00357357
· Farah 0.00536027
似乎 sacred 0.0203856
这 birthday 0.000311846
同样 sacred 0.0341814
并且 sacred 0.00439145
12 sacred 0.00516675
年轻 sacred 0.00514452
这样的话 sacred 0.307678
一届 repeating 0.250003
霍伊在 repeating 1
没有 repeating 0.00125776
他 realms 0.00275536
状态 demonstrated 0.0371974
展现 demonstrated 0.113498
根据 demonstrated 0.0120397
取得成功 awaits 1
馆 velodrome 0.264741
未来 awaits 0.0149838
那么 barometer 0.0577148
五个 barometer 0.314607
着 barometer 0.00637875
象征 barometer 1
一场 medal 0.011824
金牌 titles 0.0233791
场地 track 0.761445
块 track 0.553716
卫冕 amazing 0.245358
能够 amazing 0.0213011
世界冠军 titles 4.98092e-05
已经 &apos;ve 0.0481517
前 together 0.0201946
是 stand 0.000344207
都 stand 0.00701133
就 felt 6.45284e-05
任何 supreme 0.00674365
无法 rivals 0.0272614
们 rivals 0.0291564
而 appeal 0.00362947
他 retracted 0.000736123
摔落 triumphing 1
下 triumphing 0.0062643
情况 triumphing 0.00538033
不佳 triumphing 0.107143
夺得 deliberately 0.0784444
均 backboards 0.0349178
上 alongside 0.00300106
难以置信 incredible 1
令人 incredible 0.334762
这太 incredible 0.668454
并且 beat 0.017323
扬名立万 myself 1
自己 myself 0.00261025
我 flattering 0.00418664
这 flattering 1.51659e-05
他 podium 0.000786911
时 podium 0.00482201
观看 caught 0.160093
身份 caught 0.254
上 scientist 0.00300206
位居 112 0.635897
较慢 slow 0.88505
飞轮 gear 1
较大 gear 0.0156266
巨额 unmanageable 1
关键 gear 0.266667
取得 lap 0.00454588
落后 narrowly 1.37124e-06
有 narrowly 0.000916891
这项 enjoying 0.0256259
夺得 duel 0.00980556
最终 duel 0.0137035
自行车赛 duel 0.0531323
三位 duel 1
这 duel 0.000136433
而 duel 0.000791162
超越 overtaken 1
新西兰队 overtaken 0.104114
被 overtaken 0.000438683
第一轮 overtaken 0.00295015
成绩 overtaken 0.0111416
成绩 Hoy 0.0731881
一 overtaken 0.00708994
金牌 qualifying 0.00389772
夺得 qualifying 0.0130741
一同 qualifying 0.306665
不负众望 realised 1
最终 stuck 0.027407
后 stuck 0.0014466
这个 Crampton 0.0104644
一轮 challenges 1
奇恩 Emadi 1
而 void 0.00158255
一个 void 0.000249809
留下 created 0.00904209
这么 emerged 0.044299
德斯 Hindes 0.964014
辛 Hindes 1
· Staff 0.00357355
杰米 Staff 1
第一圈 starter 1
在于 specialist 0.0743448
问题 specialist 0.00674418
国情 exports 1
到 replacing 0.00263907
奥运会 replacing 0.00436485
预测 projections 0.0353894
辉煌 lowly 1
再创 lowly 1
第六 Track 1
转移 transferred 1
名列 Track 1
锦标赛 Track 0.0755246
场地 Track 0.0843286
三月 trick 1
英国队 repeated 0.0860984
第五块 golds 1
夺得 golds 0.0294176
夺得 claimed 0.0655933
传奇 legend 0.159496
就 snatch 0.00139583
并 snatch 0.00350871
热门 outfit 1
夺冠 outfit 1
当 anchor 0.0129163
成为 Chris 0.0179248
— stormed 0.0327097
继续 awaits 0.0116474
越来越 ambience 0.0839051
格拉斯哥 Glaswegian 0.374999
者 wrong 0.126973
这位 Glaswegian 0.00963228
金牌 defended 0.00333863
卫冕 defended 0.167249
成功 defended 0.0146429
组继 defended 1
竞速赛 sprint 0.936343
赛场 sprint 0.0905194
而 cycling 0.000962211
而 Brits 0.000811173
后 Brits 0.00100996
金牌 Brits 0.00408187
夺得 cycling 3.06256e-05
夺得 Brits 0.0136727
斯金纳 Skinner 0.958085
· Callum 0.00428673
卡尔 Callum 1
该 expects 0.00795708
弹劾 Rousseff 1
被 Dilma 0.00104975
街头 masse 0.0527517
走上 masse 0.154867
几天 masse 0.137062
前 masse 0.0016881
一次 streets 0.0207357
外卡 Wild 1
不满 Temer 0.143736
的 suspended 5.92926e-09
参加 Temer 0.0103927
公立学校 300,000 1
Unite Unite 1
计划 Alckmin 0.083184
奥克 Geraldo 1
资金 proposals 0.0171422
为了 proposals 0.023691
方案 dismay 1
这些 dismay 0.00342243
表达 demonstration 0.243314
了 demonstration 0.000905147
因此 disperse 0.00739744
驱散 disperse 1
部门 officers 9.80799e-06
事件 trouble 0.0203978
抗议者 protesters 0.999995
驱逐 protesters 0.108511
冲突 demonstrate 0.125378
了 demonstrate 0.00024406
中 reforms 0.00110412
过程 reforms 0.00842186
改革 reforms 0.034861
体系 reforms 0.139604
教育 reforms 0.028763
巴西 clashed 0.0173773
周四 clashed 0.00999445
抗议 protesting 0.109396
驱逐 bullets 5.5594e-06
催泪瓦斯 gas 0.0371152
列表 adds 0.0980436
加入 adds 0.124046
还 adds 3.20597e-08
删除 fast 0.235014
快速 fast 0.579908
从 fast 0.00580557
过 include 0.0267721
下达 include 1
没有 include 0.00377327
利用效率 establishment 1
兆瓦 megawatts 1
歉意 oversight 1
并且 oversight 0.00511463
7 nation 1.02653e-05
声称 brush 0.0454137
予以 brush 0.0394954
所有 brush 0.00214787
周刊 Spiegel 1
据 Der 0.00424361
一座 noble 0.199989
达姆 synagogue 1
库 synagogue 1
这家 synagogue 0.0930623
不要脸 pointing 1
帖子 pointing 1
卑躬屈膝 caved 1
是 demands 0.000143749
简直 alleged 0.50785
认为 alleged 0.0357875
有人 alleged 0.200042
一桩 scandal 1
都 scandal 0.00218993
大家 scandal 0.0297536
热议 scandal 1
引发 calling 0.508573
得出 conclusions 0.599759
该 expect 0.0195045
任何 explanation 0.0167785
丢人现眼 disgrace 1
更是 disgrace 0.0367799
那家 disgrace 1
发生 disgrace 0.00602557
耻辱 shame 1
感到 appalled 0.00823851
这一 appalled 0.00744243
得知 appalled 0.0775515
事 shame 0.204952
这件 shame 0.398725
汉德 Handelsman 1
哈达 Hadas 1
· Hadas 0.00357355
公司 consulting 0.00557401
雅科夫 Hadas 1
大使 Hadas 0.0608732
驻 Germany 0.157595
港 Orient 0.0666149
以色列 Handelsman 0.0442624
《 Zeitung 0.0114557
根据 Israeli 0.0481589
客人 Arabs 0.120631
员工 deleted 0.00956636
这名 deleted 0.0254916
愤怒 filmmaker 0.560709
感到 filmmaker 0.0277404
于 affiliate 0.000903107
更是 outrage 0.0854146
” deliberate 0.00175925
决定 decision 0.507599
作出 deliberate 0.0317135
人员 clerk 0.114344
酒店 clerk 1.36912e-05
自行车 Callum 0.0634583
命令 order 1
回答 shocked 0.999954
回答 wrote 4.57739e-05
前台 wrote 0.578081
了 addressed 0.00123241
这位 filmmaker 0.0385288
这场 canton 0.0286373
呼叫 offers 1
通过 instead 3.34606e-07
是 instead 0.000573625
首都 eradicated 0.0294627
居然 eradicated 1
以色列 eradicated 3.93219e-07
通话 states 1
客人 mentioned 0.237632
以色列 mentioned 0.0656368
列表 codes 0.117653
代码 codes 0.0588235
期间 codes 0.0124688
入住 codes 1
一封 FAZ 0.127707
发表 FAZ 0.0256057
上 FAZ 0.00100459
· author 0.0107206
克劳德 Shoah 1
浩劫 Shoah 1
论坛报 Tribune 1
《 outlet 0.00763713
大屠杀 Holocaust 1
犹太人 Claude 1
哗然 requests 1
一片 requests 1
舆论 requests 1
元 1299 0.00848802
、 transferred 0.000344363
并且 Bristol 0.0393906
以色列 list 0.00570195
制片人 unleashed 0.178554
法国电影 unleashed 1
克兰 Matt 1
血统 origin 1
有着 Jewish 0.215144
新 removing 0.00328361
— removing 0.0245318
以色列 Israel 0.778168
删除 Israel 0.200914
客户 Arab 0.0571419
阿拉伯 Arab 0.4
按照 Arab 0.0877607
批评 slams 0.196945
制片人 filmmaker 0.642875
电影 filmmaker 0.915253
奥迪 Jonathan 0.999987
美元 109,000 0.0941167
109 109,000 1
为 interest 0.00248737
共同 index 0.255714
美元 wages 0.233738
只有 wages 0.117823
工资收入 wages 1
他们 wages 4.88864e-06
不同 wages 0.0220818
希望 waited 0.00805595
40.5% 40.5 1
32% approximately 0.0769396
平均 40.5 0.0732197
所 combined 0.023379
2007 Chappaqua 0.250014
查 Chappaqua 0.409092
而是 afraid 0.411979
税务机关 afraid 0.862605
价格 doubted 0.0192237
自由 freedom 0.242585
IRS audit 1
接受 audit 0.0921696
交换 challenged 0.83326
见面 conglomerate 0.488066
居住地 documents 1
特朗普 Hathaway 0.00012538
要求 Berkshire 0.0180687
会上 Berkshire 1
希尔 Omaha 1
伯克 Omaha 0.444444
这项 proposal 0.0768141
支持 backs 0.0440726
超过 investor 0.0690725
保证 rule 0.113922
被 advice 0.00125967
名字 Buffett 0.111866
巴菲特 Buffett 0.5
· Buffett 0.00536032
投资 billionaire 0.0239378
等 perspective 3.79906e-06
亿万 endorsed 1
身价 endorsed 1
用 endorsed 0.0451391
竞选 election 0.0710859
已 rates 0.00534002
时间 dayside 0.00270475
均 accountants 0.000243917
的话 saying 0.313714
的话 quoted 0.210722
税务 lawyers 1
多位 lawyers 0.454547
这 mega 0.000363812
专栏作家 columnist 1
纽约时报 columnist 0.0972663
税 columnist 0.00733914
一分钱 lawyers 1
过 lawyers 0.0178477
两年 taxes 0.197736
迎接 challenges 0.724474
新闻网 politico 1
政客 politico 1
智力 civilized 1
众人 crowd 1
问题 Michigan 0.00291281
提出 Michigan 0.0119845
演讲 Michigan 0.365416
政策 Michigan 0.0103083
密歇根州 Michigan 1
纷纷 waved 0.347827
敦促 urging 1
网络 highlighting 0.0168796
一段 highlighting 0.0469267
了 highlighting 2.09522e-07
发布 highlighting 0.0102078
房贷 mortgage 1
问题 pounced 0.00404651
抓住 pounced 0.615382
认为 scandal 0.00671059
资本 raises 0.176008
引发 raises 0.0242242
父母 example 0.180661
申报单 raises 0.0214854
两块 wins 1
· Mitt 0.00536032
米特 Mitt 1
事业 shortcomings 0.400047
批评 Trump 0.186013
申报单 audits 0.0265886
不会 allow 0.00343784
表示 Cohen 0.00208593
向 Cohen 0.0103318
科恩 counsel 1
链接 returns 0.00157301
链接 linking 0.998427
了 linking 1.18866e-05
并且 linking 0.0130521
做主 Sams 1
由 Sams 0.00273625
表示 Sams 0.00156436
不禁 waved 0.307702
最 union 0.0385621
伊恩 Ian 1
纳税 refusal 0.0418875
拒绝 refusal 0.292215
将 cited 0.000503082
律师 lawyers 0.399982
招股 H 1
以及 businessman 0.0324035
特朗普 refusal 0.0238365
平淡 flatness 0.16222
作为 Revenue 0.000760199
应 candidates 0.0312294
候选人 candidates 0.0283396
惯例 customary 0.340053
按照 customary 0.018842
法律 customary 0.00849365
虽然 customary 0.00773194
纳税 release 0.185135
公布 release 0.31684
作出 promises 0.0317069
所 promises 0.0116895
并且 backtracking 0.00988075
掩盖 backtracking 0.6
理由 returns 0.240509
虚假 hiding 1
以 hiding 0.0148595
标杆 transparency 1
透明 transparency 0.636326
财务 transparency 1
挥手致意 waved 1
体型 pirouetting 1
助手 aide 0.833746
税 20.3 0.0145229
20.3% 20.3 1
了 20.3 3.38882e-06
安妮 Holton 9.45366e-05
安妮 Anne 0.999905
和 Tim 8.62408e-08
凯恩 Kaine 0.500409
· Holton 0.00356036
罗伊于 resigned 1
— mate 0.0245325
竞选 mate 0.0266572
获得 Schuster 0.00310461
那里 Schuster 0.271438
整个 summer 0.0361381
出版商 publisher 1
国务院 tenure 0.0186916
则 &#93; 0.0812043
费 5.3 0.428582
万美元 speaking 0.153356
易用 portable 1
是因为 explained 0.266628
金额 charitable 0.705882
慈善 charitable 0.636941
对方 Spanish 0.283002
并且 10.75 0.00988175
这位 Democratic 0.0481615
申报单 showed 0.334937
申报单 returns 0.616989
纳税 returns 0.500269
其他 Britain 0.0173394
过于 challenge 0.833535
了 34.2 0.00052021
缴纳 paid 0.818407
1075 10.75 1
为 10.75 0.000944565
年收入 10.75 0.333356
和 sexism 0.000377548
克林顿 Clintons 0.153257
。 operations 0.00713637
现在 fully 0.0290894
曼比季 fully 0.65064
激进分子 Sharfan 0.457304
被 militants 0.00592873
000 freed 0.0334219
, freed 0.00612808
已 freed 0.00170881
达尔维 allied 1
委员会 allied 0.00572873
曼比季 allied 0.0486126
同盟 allied 0.507257
扫荡 sweeping 1
全城 departure 1
对 departure 0.000598451
正在 departure 0.0125052
现在 holed 0.0175878
力量 SDF 0.381938
民主 SDF 0.666667
离开 departure 0.00493606
激进分子 militants 0.110648
激进分子 departure 0.117834
内 departure 0.00493159
进城 departure 1
曼比季 Manbij 0.300747
全部 U.S.-backed 0.026856
残留 inside 1
城内 inside 1
夺回 Stat 0.428572
手中 Stat 0.163043
国 Stat 0.00872332
已 seized 0.00426714
宣布 Manbij 0.050033
支持 seized 0.0220861
科学家 Luisa 0.0557596
索非布 sofosbuvir 0.444445
中 underlying 0.00645238
是 ownership 0.000431242
自己 ownership 0.0156201
双方 sued 0.0819716
起诉 sued 0.331657
追溯到 dates 1
最早 dates 0.00869521
肝炎 liver 1
中期 mighty 0.0436335
90% liver 0.121238
提高 aid 0.0501243
市场 drugs 0.00888633
药物 drugs 0.194884
丙型肝炎 dominates 0.130642
费用 incurred 0.069815
辩护 Freeman 1
因 Freeman 0.0130757
承担 Labson 0.36842
发生 realising 0.00701907
赔偿款 damages 1
2 damages 0.00887948
而 patents 0.00210976
专利 patents 0.248219
需要 properly 0.00251219
改进 might 1
而 Alumina 0.00105491
因 blockbuster 0.0174343
支付 blockbuster 0.0412838
吉列 oath 0.108018
吉列 drugs 0.520689
之后 oath 0.0148251
不 oath 0.000864803
作伪证 oath 1
默克 Harvoni 0.176882
平台 platforms 0.0162747
律师费 drugmaker 1
所 incurred 0.0133596
中 incurred 0.00184359
诉讼 entitled 0.538459
集团 C 0.225758
集团 hepatitis 0.0354623
制药 Inc 1
获得 Inc 0.00580732
公司 Inc 0.0187611
科学 Sciences 0.138278
就 stories 0.00116169
吉列 attorney 0.371293
根据 Sciences 0.0240795
律师 Merc 0.149993
获得 Merc 0.00388076
之争 Merc 1
默克 hepatitis 0.292105
在 attorney 0.000112348
德 Gilead 0.629465
吉利 Gilead 1
意识 participation 0.380162
了 aroused 9.2693e-07
了 claimed 0.0010137
进行 participation 0.00688828
使用 efficiency 0.0118904
使用 improve 0.0151361
尽量 openness 0.250593
距离 serves 0.0814522
应 openness 0.0156149
单位 openness 0.0694446
体育场馆 venues 0.714938
建成 venues 0.506986
前往 exceptional 0.165344
一名 cited 0.0189532
布局 planning 0.68174
到 planning 0.0055106
短板 short 1
这块 fill 0.422736
补齐 fill 0.50017
群众体育 Program 1
将 Program 0.000301669
- Fitness 0.000571885
《 Fitness 0.00572786
印发 Fitness 1
强国 power 1
于 far 0.0108372
落后 far 0.218753
倍 150 0.326147
时 150 0.0225138
体育场地 capita 1
最高 spinning 0.0144909
归时 snatch 1
晋级 13.260 0.0476191
良好 profound 0.118057
选手 professional 0.0725653
选手 selecting 7.99352e-06
为 selecting 0.000377858
基础 selecting 0.0281345
群众 selecting 0.166656
全球性 global 0.555595
名将 champions 1
言行举止 teach 1
多名 Military 0.448867
扩建 expand 0.402447
泳坛 Academy 0.380731
陈经纶 Jinglun 1
想起 Jinglun 0.384615
全民 fertile 0.0161498
全民 sports 0.187826
场所 venues 1
向 public 0.0846147
于 opened 0.0108372
并 park 0.0233607
它们 braking 0.0997287
文化公园 park 0.86908
被 proved 0.000859085
以及 Unite 0.0129674
经过 fertile 0.0282327
这里 fertile 0.0140571
和 garbage 0.000418616
建筑 garbage 0.285854
留下 idle 0.0143115
一直 idle 0.00143824
后 idle 0.000642957
关闭 idle 0.00760877
前 idle 0.00112549
十多年 idle 0.357156
煤场 idle 0.250011
是 idle 4.78971e-05
面纱 veil 1
了 veil 0.000243262
揭开 veil 1
体育 mysterious 0.0262639
营 mysterious 1
落马 gate 0.6
南 gate 1
望江 Maying 1
全民 fitness 0.00115781
厂房 spire 1
尖顶 spire 1
红砖 spire 1
足球场 brick 1
黑乎乎 warehouse 1
阐述 detailed 1
公共 facilitie 0.00829723
公共 improvement 6.04122e-05
车辆 entanglement 0.0287613
候选人 nominee 0.340075
、 entanglement 6.89158e-05
、 fortified 0.000344545
防护栏 peripheral 1
外围 peripheral 1
是 gray 0.000143073
作为 Carré 0.000981853
中 Carré 0.000716931
小说 Carré 0.142854
目前 suicide 0.000697182
冷战 Carré 0.0799732
勒卡 le 1
30 300,000 0.0118593
暂行条例 provisional 0.250113
改编自 novels 1
其 self 0.0154731
外观 appearance 1
是 contrast 0.000321895
之 contrast 0.1147
与 contrast 0.00127647
称 article 0.0130306
一组 mansion 0.375038
亮 Cheng 1
《 Financial 0.00763713
过 Promotion 0.0178472
发布 Promotion 0.017452
搁置 shelved 1
日 19 0.0116651
日 Promotion 0.00291699
心性 excellent 1
于 Promotion 0.00180613
纳税 return 3.55433e-05
战略 Strategy 0.105389
、 Gansu 0.000206173
出去 intervene 0.429305
符合 applicants 0.215468
、 resist 5.16944e-05
国家化 nationalization 1
推动 nationalization 0.037223
三点 nationalization 1
周四 resigned 0.0248878
大幅 substantial 0.510636
生效 verdict 0.395999
等 policies 0.0116025
战略 mechanisms 0.0702604
、 operational 0.000105645
法制 operational 1
举措 initiatives 0.666742
领域 initiatives 0.0580791
变化 guard 0.0333161
之 phased 0.0315433
阶段性 phased 0.6
连续 adjustments 0.0527032
领域 adjustments 0.0696713
年 phased 0.00129302
等 relations 0.00828969
对华 military 1
体制 weapons 0.429863
明确 stipulate 0.0282149
章 chapters 1
民间 civilian 0.120619
021 021 1
大臣 Nakatani 0.163585
外务大臣 Kishida 1
克里 Secretary 0.349698
国务卿 Secretary 0.923937
、 Kerry 2.56141e-06
卡特 Carter 1
当日 Carter 0.091104
角色 offensive 0.120197
更具 offensive 1
指针 guidelines 1
防卫 defense 0.75
就 shield 0.00696998
美日 defense 1
新版 version 1
： stories 0.00115429
发表 version 0.153031
纽约 jointly 1.59033e-06
地 observed 0.0256425
质疑 ties 0.392061
略 doubles 1
令 mixed 0.0891948
哪里 monument 0.118893
无法弥补 shortcomings 1
八强 mixed 0.275862
混双 doubles 1
进行 mixed 0.00590261
这 outshone 0.000545732
娃 Safarova 1
萨法洛 Safarova 1
科娃 Safarova 1
斯特里 Safarova 1
尼娜 Stryker 1
等 Nicolieski 0.00331394
维斯 Wisconsin 1
卡洛娃 Makarova 1
冲击 industry 0.403879
对 Kova 0.00478878
对 vs 0.00319252
／ Safarova 0.0107825
／ Makarova 0.0119749
／ Hradeca 0.0548298
是 Hingis 0.000107651
对阵 Hingis 1
比赛 Basinsky 0.00635341
比赛 doubles 0.0211336
女双 Basinsky 1
贝尔 Kobel 1
科 Kobel 0.0474391
部分 hens 0.0145524
另外 coupon 0.0268473
而 coupon 0.00158221
入场券 coupon 0.405271
争夺 Pugue 0.144691
产生 finals 0.147455
全部 finals 0.369277
１ singles 0.0505465
四强 singles 0.428476
女单 singles 1
乌 Tekay 1
特卡 Tekay 1
选手 Tekay 2.95721e-05
罗马尼亚 Romanian 1
洛佩兹 Lopez 0.99492
和 Meggia 1.12414e-08
斩获 gain 0.130838
发生 dramas 0.0105286
情有独钟 preference 1
满贯 slam 1
作为 slam 0.00220941
男双 advanced 0.11111
两盘 opponent 1
具有 Tau 0.0278445
直落 opponent 1
比赛 advanced 0.0285905
当日 Nadal 0.366981
巨星 Nadal 1
男单 singles 0.0666698
男单 men 0.93333
备受 Nadal 0.41704
多 acclaim 0.00240653
率先 restrictions 0.509089
纷纷 acclaim 0.260867
好评 acclaim 1
广泛 acclaim 0.0589217
们 wide 0.0525863
职工 wide 0.154769
受到 Festival 0.299465
又 interesting 0.00865362
平时 chat 0.131281
争执 commissaires 1
警务 recruiting 1
开展 organizes 0.0276635
组织 organizes 0.0219693
精神文明 combines 1
结合 combines 0.444441
丹凤县 Supply 0.75
等 emblem 0.00405733
七夕 Festival 0.0265641
西班牙 margin 0.181823
情满 activity 1
了 Type 1.31058e-06
公司 County 0.144519
商洛 Shangluo 1
古镇 town 0.521711
花 Dihua 0.148327
棣 Dihua 1
丹凤县 Dihua 0.25
给予 handle 0.401394
队 Canadiens 0.0326436
处置 measures 0.822453
将会 handle 0.258128
迎来 ushered 0.857075
车主 obstruction 1
通行 obstruction 0.189432
妨害 obstruction 1
对于 refuse 0.00327376
治安案件 occurrence 1
涉车 reduces 1
中 potato 0.00323682
都 friendly 0.000973167
移车 friendly 1
使 friendly 0.0237503
薄 boasted 1
地 alleviates 0.0170908
只要 citizens 0.48992
全天候 respecting 1
三是 respecting 1
个人隐私 protecting 1
首次 exempted 0.00932622
公民 protecting 0.193536
” anticipation 0.000703015
、 privacy 0.000344545
节省 respecting 0.249998
功能 functions 0.0458713
这个 functions 0.0104644
此类 solve 0.606556
时 unfamiliar 0.00281422
行驶 unfamiliar 0.333333
驾驶 unfamiliar 0.101449
先天不足 CITIC 1
日常生活 launching 0.799981
日起 Xi 0.688897
要求 customary 0.00549333
不能 generalized 0.0364703
困扰 vehicle 0.655343
解决 solve 0.361823
挪车 moving 0.86271
挪车 WeChat 0.13729
真 pointing 0.330003
联系 strange 0.350583
天气预报 forecast 1
关切 concern 1
一项 combat 0.222029
从此 stronger 1
后果 consequence 0.250007
太阳风暴 consequence 0.0329848
一份 Meteorological 0.106264
气象 summarized 1
航空 summarized 1
汇总 summarized 1
军事冲突 conflict 1
潜在 conflict 1
及其 interference 0.216226
50 1950s 0.0100965
从 interference 0.00261615
下令 readiness 0.212108
干扰 culprit 0.600816
指挥官 commanders 0.244913
美军 commanders 1
天上 sky 1
飞在 sky 1
战机 sky 0.0522643
核弹头 sky 1
工作岗位 apprenticeships 0.124537
发动 launching 0.176294
俱乐部 perfectly 0.0546266
文献 confidential 1
美军方 reviewed 1
参与 forecasting 0.0133505
房间 states 0.194068
了 forecasting 1.26112e-08
将 egg 0.000377311
发现 rotators 0.0615114
科罗拉多 written 0.0625319
美国 written 0.00374922
这篇 written 0.100052
导弹 missiles 0.250003
用于 monitoring 0.0181207
不会 CNN 0.0479107
预警系统 radars 1
弹道导弹 radars 1
美国 radars 0.00225625
雷达 radars 0.545497
干扰 Arctic 0.399184
与 Arctic 0.000404251
雷达 Arctic 0.454503
北极 radar 1
速度慢 pirouetting 0.298132
顺延 passes 0.99984
不是 framework 0.00778904
由 researchers 0.00397891
首次 researchers 0.0255958
日才 researchers 1
购房者 mortgage 1
这一 incident 0.155596
向 Tribune 0.00516588
险些 Cold 0.714688
曾 Cold 0.0133273
也 Cold 0.00195717
强烈 solar 0.944353
一场 strong 0.387724
同样 Cold 0.128463
基金 index 0.404128
顶峰 pinnacle 1
冷战 pinnacle 0.181092
被 pinnacle 9.58001e-08
这一 pinnacle 0.010178
核战争 nuclear 0.0374851
发生 Cuba 0.00701906
美苏 Cuba 1
像是 umbrella 0.2134
冷战 War 0.50166
冷战 Cold 0.237274
训练 Celsius 0.014122
命名 rule 1
将 embarrassed 0.000438739
将 trigger 0.00150925
凯斯 compete 1
团队 allegedly 0.0260647
狙击手 snipers 1
特战 snipers 1
烟台 Yantai 1
总队 Corps 1
山东 Corps 0.248645
身临其境 immersive 0.00127888
都 impeccable 0.00175168
一个 impeccable 0.000199917
每 impeccable 7.19603e-06
前台 reception 0.421919
团队 edition 0.0101015
高 movie 0.0429735
过程 movie 1.91749e-05
拍摄 movie 0.152387
： crowd 0.00462304
而 immersion 0.00210775
感 immersion 0.333122
· Ian 0.00267963
独一无二 unique 1
互动 Plateau 0.794786
与 Tibet 0.00210789
藏地 tradition 1
全新 Tibetan 0.0949468
以 Tibetan 0.0111446
作品 Tibetan 0.100981
大型 Tibetan 0.142858
青藏高原 pole 1
第三极 pole 1
地球 pole 0.0117312
聚焦 pole 1
一部 pole 0.214286
》 Polar 0.0189203
极地 Polar 1
” pointing 0.00140769
VR panoramic 0.000916448
VR VR 0.986731
推出 version 0.150797
首次 launched 0.105594
首播 Letv 1
乐视 Letv 1
中央电视台 CCTV 1
预计 film 0.108941
比赛 bronze 0.014848
207 207 1
杜丽以 207 1
赛事 207 0.0155066
气步枪 207 0.142277
日 scored 0.0349979
参赛 eligibility 0.693378
奥运会 eligibility 0.00265671
气步枪 eligibility 0.178747
再次 lapse 0.0118832
8 lapse 0.000150275
时隔 lapse 1
结束 lapse 0.0121592
选拔赛 lapse 0.381299
奥运 Olympics 0.0352055
备战 prepare 1
申请 ISSF 0.0598857
位于 lawsuit 0.0103529
有权 Inc 0.651634
了 Steel 0.000341716
杜丽向 Stainless 1
后 Stainless 0.00289148
金牌 positions 0.000250397
纪录 record 0.952939
环破 690.3 1
中以 690.3 0.160001
三姿 690.3 0.192297
停摆 boss 1
首金 Athens 1
夺得 Athens 0.0196108
雅典 Athens 1
代表队 Athens 0.147351
年 2004 0.00114936
以 504.9 0.0148595
金牌 m 0.0213365
米 m 0.0273423
世界杯 Croatia 0.23316
射击训练 Dewen 1
进行 Dewen 0.00413175
德文 Dewen 1
山东省 Coach 0.299013
不禁 reminds 0.692298
拿下 du 0.135483
共 du 0.0179003
次 du 0.0844219
元老 consequent 1
四朝 consequent 1
艾德 Clancy 0.00870513
杜丽 Du 0.886334
老将 veteran 1
决赛 posture 0.00735213
三种 rifle 1
消息 posture 0.0062693
免疫力 immunity 1
为了 demands 0.0236916
机体 immunity 1
线外 roll 1
、 immunity 1.01278e-08
堵塞 clogging 1
血管 clogging 0.0503257
可 clogging 0.00817989
多 clogging 5.68116e-06
水分 clogging 1
补充 clogging 0.0366617
适时 clogging 0.42835
了 photographed 0.000247613
时 drink 0.025328
重播 rebroadcast 1
等 rebroadcast 0.00236642
项目 rebroadcast 0.00324618
喜欢 rebroadcast 0.0276448
每天 occasionally 0.097942
. stay 0.491457
拍照 consistent 0.0909134
程度 largely 0.0509293
很大 largely 0.143639
接诊 treated 0.500001
科室 treated 0.0344809
其 treated 0.00147332
今年以来 treated 0.454546
介绍 treated 0.00755398
有关 games 0.214992
或 infarction 0.00621654
引发 infarction 0.0484355
国家 Dilma 0.00387487
心肌梗塞 infarction 1
其 myocardial 0.00589325
其 Cup 0.013259
患者 myocardial 0.0523624
多岁 onset 0.0821918
曾 onset 0.00531918
期间 football 0.124688
足球赛 football 1
世界杯 World 0.76684
史 disease 0.407608
看 watch 0.0651011
不要 stay 0.352266
不要 suggested 0.150855
尽量 suggested 0.749407
建议 suggested 0.000617772
建议 Zhiyuan 0.0972711
肿瘤 gastrointestinal 1
内分泌 neuroendocrine 1
神经 neuroendocrine 1
免疫系统 neuroendocrine 1
、 neuroendocrine 9.82784e-05
胃肠功能 neuroendocrine 1
而且 neuroendocrine 0.0296662
联合声明 Unite 1
长期 stay 0.0948953
数年 adjustments 1
更 staying 0.0059375
全景 Panorama 0.743287
群体 disease 0.13739
危险 suffer 0.252147
等 lipids 0.00331587
经过 seed 0.0564653
家族 lipids 1
纠纷 read 3.758e-05
吸烟 lipids 1
高血压 blood 1
升高 excitement 1
血压 excitement 1
收缩 vasoconstriction 1
血管 vasoconstriction 0.0447515
引起 thus 0.456679
容易 easily 0.520262
状态 vasoconstriction 0.0165322
兴奋 vasoconstriction 1
文章 article 0.182513
处于 vasoconstriction 0.10389
司 Coordination 0.499989
性格外向 outgoing 1
持续 vasoconstriction 0.0155603
体会 vasoconstriction 1
人 vasoconstriction 0.000797406
分泌 secretion 1
让 showings 0.00401848
仍会 secretion 0.666667
该 hormone 0.00596781
卖掉 hens 1
拨号 fast 1
提议 proposal 0.0998524
有 disease 0.00221655
有 cardiovascular 9.10405e-05
存在 late 0.125657
观看 watch 0.399644
熬夜 stay 0.578795
市民 up 0.739146
Consulting Innovative 1
国内 midnight 0.130639
播出 swing 0.273504
即便 swing 0.0293131
进行 swing 0.00459092
如火如荼 swing 0.399933
赛事 swing 0.0344591
心 easil 0.699985
损伤 easil 1
容易 easil 0.113065
容易 staying 0.155011
赛事 easil 5.78255e-06
熬夜 late 0.153993
熬夜 staying 0.134714
慢慢 endure 1
寂寞 concentrated 1
住 concentrated 0.00893745
耐得 concentrated 1
下心 concentrated 0.222222
明显 lorry 0.148233
带来 regeneration 0.0187235
馆 Lynx 0.0735391
医药 Lynx 0.224868
是 Pharmacy 8.61983e-05
分别 Pharmacy 0.0465169
三块 Pharmacy 0.347853
布局 Pharmacy 0.31826
从而 greenhouse 0.0702828
太阳系 Caltech 1
统一 entry 0.304071
小组 groups 0.267739
不到 entry 0.399995
达 entry 0.419866
都 unity 0.00175182
方法 unity 0.107278
而且 spun 0.0259171
书写 unity 0.142858
词条 professionalism 1
在 professionalism 3.67407e-05
专业性 professionalism 1
民主党人 urging 0.498168
王磊 Lei 0.999864
王磊 Wang 0.000135686
内容 patient 0.0937356
法律援助 personal 0.545459
推特上 Ian 0.0740582
需要 personal 0.00703445
所 personal 0.0093518
生活 personal 0.0283417
之间 patient 0.0208123
综合 considering 0.0418761
这 search 0.000121421
在线 learning 0.774168
抵抗 self 1
这项 telescope 0.0512236
板块 client 1
三个 client 0.00855379
开设 client 1
精力 educating 0.200006
端 client 0.0280445
医生 communication 0.0335414
限制 peer 0.199777
4 Lijia 0.00318612
病例 discussion 1
、 discussion 0.00024947
讲座 lecture 1
感觉 painful 0.0349093
在线 lecture 0.225832
基层 grassroots 1
采取 geographical 0.0239802
影响 decisions 0.0124789
· Lord 0.00268016
深耕 vertical 1
领域 obstetrics 0.0217818
垂直 obstetrics 0.272823
于 obstetrics 0.000675176
就 obstetrics 0.000871645
最初 obstetrics 0.428683
从 obstetrics 0.000544558
iBaby iBaby 1
头号 mixed 1
与 unlike 0.00484974
契机 seek 1
进一步 clusters 0.00952819
先进 chain 1
帮助 helping 0.0842269
瞄准 Jiuzhoutong 1
其 raises 0.00147136
此次 Yuyue 0.0364174
医院 levels 0.0265433
孩子 Mom 0.00537511
供应链 electronic 0.00231539
、 electronic 0.000344022
电子化 electronic 1
方面 providing 0.0313848
信息化 providing 1
60% registered 1.12618e-05
开始 search 0.00279892
1800.00 invested 1
公司 invested 0.00626864
通 Jiuzhoutong 0.36364
40% accounting 0.344226
注册资本 registered 0.700822
注册资本 accounting 0.299178
占 registered 0.434698
占 accounting 0.204343
万元 invested 0.279592
鱼跃 Yuyue 1
专 profound 1
下心 profound 0.777778
市场需求 swarm 0.499999
看准 swarm 1
一窝蜂 swarm 1
不可 swarm 1
断 swarm 0.529331
看来 seems 0.391298
捧 touted 1
资本 touted 0.435767
领先 sub 0.30917
美国 Inc 0.00430019
领域 sub 0.13954
路上 B 0.875213
20% ceased 0.272729
能够 draws 0.20339
死亡 ceased 0.0196407
大量 ceased 0.0107489
强化 resist 0.17766
彼 Hospital 1
艾力 Pi 1
香港 Pi 0.0348045
期 homogeneity 6.12116e-06
进入 homogeneity 0.00770353
热潮 boom 0.904428
热潮 homogeneity 0.0955721
同质化 homogeneity 1
医药 medicine 0.775132
大规模 disclosure 0.352936
资本 homogeneity 0.177071
资本 disclosure 0.211154
专项 Traditional 0.140018
部分 Medicine 0.00485784
对 Medicine 0.000798538
组织 Medicine 0.00732685
国家中医药管理局 Medicine 1
作为 punished 1.80115e-05
医疗机构 punished 1
既往 advertising 0.000981762
集中 advertising 0.16148
医疗广告 focusing 1
发布 focusing 0.0174519
违规 focusing 0.217385
将 focusing 5.24978e-08
将 localities 0.000751998
一次 staged 0.0276476
上演 staged 0.615364
这个 confidence 0.0104643
信心 confidence 1
对 confidence 0.00119719
可能性 low 0.826411
试图 trying 0.175838
认为 possibility 0.0178937
人们 possibility 0.0202048
称 possibility 0.0217176
） Eugen 0.00410885
Weinberg Eugen 1
Eugen Weinberg 1
温伯格 Weinberg 1
主管 Weinberg 0.362892
发证 limit 1
德国 Eugen 0.021164
而 moves 0.00140663
印象 impression 0.309245
到 lap 0.00160759
镜子 mirror 1
与 mirror 0.00121275
视线 smoke 0.500182
引开 smoke 1
合并 merger 0.0999927
像是 smoke 0.091524
就 smoke 0.000996439
手段 smoke 0.109672
手段 means 0.890328
这个 smoke 0.00598403
情绪 signals 0.188627
改变 strategy 0.0740819
信号 sentiment 0.14782
协议 sentiment 0.0146419
促成 sentiment 1
通过 signals 0.00892951
Croft Croft 1
（ Croft 0.00290946
坚决 prohibit 0.28549
大宗 Helima 0.833333
比 cooler 0.0017913
水蒸汽 burned 1
会议 excessively 3.26382e-06
根据 handle 0.0288954
将 excessively 0.000377289
对 excessively 0.00119714
不满 dismay 0.144028
人员 reviewed 0.0228736
病史 lipids 1
Emma BMIResearch 1
（ BMIResearch 0.00290978
分析师 BMIResearch 0.0421092
天然气 BMIResearch 0.0816038
上次 producing 0.50679
必要 frozen 0.4
谈判 unnecessary 0.0264201
冻产 unnecessary 1
新一轮 unnecessary 0.46161
没有 unnecessary 0.00107838
下 unnecessary 0.00447247
诺瓦克 Novak 1
一家 venture 0.0377106
年收入 billionaire 0.666644
这项 launching 0.122991
万桶 3.85 0.333245
385 3.85 1
产量 3.85 0.0467004
日 daily 0.0218748
称 Iranian 0.0325765
石油部长 Zanganeh 1
星团 cluster 0.579987
伊朗 Zanganeh 0.0631664
人气 sentiment 0.163291
打压 suppress 0.857166
署 tighten 0.665419
信息 tighten 0.038433
美国能源 unlikely 1
收紧 unlikely 1
艾米 painful 9.17478e-07
供应 unlikely 6.41386e-06
令 unlikely 0.062432
丙型肝炎 patent 0.645108
会议 producing 0.000343111
2.07% Brent 1
10 fell 0.0291866
下跌 2.07 1
也 potential 0.00605289
价格 2.07 0.0096126
问诊 counseling 0.599999
连续 inventories 0.0219598
油价 inventories 0.327077
国际 inventories 0.00511908
增加 inventories 0.00785091
意外 inventories 0.198678
库存 inventories 1
上调 coupled 1
美国 coupled 0.00281984
加上 coupled 0.186344
传递 expand 0.55421
就 Minnesota 0.000774446
过剩 excess 0.44965
了 increasing 1.31299e-05
从而 increasing 1.4072e-05
从而 thus 0.493426
达到 legendary 0.00971129
精炼 refined 1
中 adds 0.00107539
油田 sporadically 0.0180374
炼油 refiners 0.6
价格低廉 prompted 1
原油 prompted 0.0129582
3311 33.11 1
日 33.11 0.00291432
上升 barrels 0.899722
2.48% 2.07 1
导致 Cuba 0.0150866
加蓬 Gabon 1
公布 Wednesday 0.0321323
期间 informal 0.0207813
全天 starting 1
内容 content 0.1541
卡塔尔 Qatar 1
兼 Qatar 0.0421972
主席 Qatar 0.0335809
轮值 Qatar 1
本周一 Monday 1
荆棘 thorns 1
油价 bristled 0.392491
怀疑 bristled 0.134832
产生 bristled 0.0107313
信誉 bristled 1
对 doubting 0.00239439
禁令 doubting 1
创下 Saudi 1
距离 situated 0.0814086
产量 Saudi 0.111962
快速 evaporation 0.108606
OPEC OPEC 0.999999
可惜 unfortunately 0.750073
。 walnuts 6.24575e-07
好吃 walnuts 1
更 walnuts 0.0061955
甜点 budgeter 1
实惠 budgeter 0.384273
结清 suites 1
一道 budgeter 0.5
、 thirds 4.91318e-05
匙 thirds 1
又 thirds 0.00741962
不错 bad 0.11936
味道 surprisingly 0.156346
甜品 surprisingly 0.181992
暨 ancient 1
在 Ian 3.67166e-08
将 viscous 1.87802e-06
面粉 sugar 1
一点 flour 0.359051
中 cinnamon 0.00161311
甜品 cinnamon 0.204593
惯用 snazzy 1
是 snazzy 9.94612e-09
起 modest 0.016643
一道 modest 0.5
为 modest 0.000236213
道 modest 0.0294293
叫作 whip 1
吃 ate 0.208275
就是 dessert 0.0415774
这 prune 0.00115081
甜品 dessert 0.613415
在家 prepared 1
拿出 pulled 1
限贷 lending 1
正在 suicide 0.0111263
撤掉 plates 1
芙 puff 1
泡 puff 1
奶油 puff 0.0307636
“ puff 0.000206563
过 puff 0.00594925
曾经 puff 0.01019
人 sick 0.00179412
浪费 waste 1
非常 waste 0.0344842
丢弃 instance 1
如何 couldn 0.0299351
进一步 gained 0.171507
应用 cooking 0.221973
将 cooking 0.000501123
关注 nutrition 0.0689651
卡路里 calories 0.20002
所 calories 0.00584474
摒弃 feet 1
这点 block 1
烹饪 abandoned 0.271256
许多 abandoned 0.0847334
一 feet 0.00635808
烹饪 dismally 0.0678152
更是 dismally 0.0427075
难吃 dismally 0.1
不仅 Washington 0.00755497
食物 dreariest 0.0641728
白宫 flavor 0.167833
因此 flavor 0.00596771
毫无 housekeeper 0.374984
管家 housekeeper 1
业绩 brokers 1
聘用 housekeeper 1
言 Mrs 1
所 Mrs 0.00668024
本书 Mrs 0.0454139
相同 committed 0.02926
犯 committed 0.306257
榜样 Eleanor 1
有所 conveniences 0.0946256
人民 fabulously 0.366836
了 fabulously 1.75992e-06
显然 fabulously 0.106532
一间 jacket 0.134574
在 ate 9.21957e-05
券商 brokers 0.193547
穿着 plated 1
吃 Continental 0.138989
却 dined 0.0276013
饮食 dined 0.165979
但 Iowa 4.23362e-08
赞扬 simple 0.999946
赞扬 praised 5.359e-05
” cake 0.00234344
管不了 cake 1
可 cake 0.0435935
事 Hoover 0.0996525
“ Herbert 0.000309843
· Herbert 0.00178677
辞职 retirements 0.126589
民众 citizenry 0.0872959
发电厂 supplies 0.801732
饥饿 hungry 0.600556
玩味 savory 1
值得 savory 0.5
烟雾 mirror 1
” tidbits 0.00175877
一顿 feast 1
美食 dishes 0.664942
变成 dishes 0.0509187
糟糕 tasty 0.098044
等 tasty 0.00552648
面配 carrots 1
意大利 carrots 1
将 spaghetti 0.00150925
勇于 glop 0.666617
精打细算 budgeteers 1
食谱 newspapers 0.792005
诠释 continuously 1
绝无仅有 drove 1
于 concludes 0.00270929
等 Stanley 0.0110514
路易斯 Louise 1
担任 Economics 0.0239703
1943 Home 0.950932
这个 1943 0.0104644
着 1943 0.0138966
影响 1943 0.00858811
们 1943 0.0218672
经济 recipes 0.0161354
家庭 recipes 0.0515968
许多 recipes 0.0852172
这是 recipes 0.0181588
根本无法 baked 0.879561
常见 table 0.833407
不 table 0.00431711
并 table 0.0175299
洋葱 butter 0.927864
洋葱 baked 0.0721357
塞满 stuffed 1
了 stuffed 0.000297509
制作 stuffed 0.0199996
能够 handled 0.0508546
中 researching 0.00107564
冒 snipers 1
各种 researching 0.0174262
研究 researching 0.00818462
市场供应 increasing 1
生动 continuously 1
加重 increasing 1
味道 precedent 0.703045
卡路里 nutritional 0.79998
考虑 nutritional 1.86703e-05
考虑 caloric 0.153153
考虑 mashups 0.000142074
大杂烩 mashups 1
奇怪 mashups 0.460758
奢侈品 apportioned 5.34685e-05
稀有 apportioned 1
一种 sparingly 0.0514649
肉 apportioned 1
主角 apportioned 1
一直 meat 0.00862895
来 meat 0.0180705
多年 meat 0.158704
干果 dried 1
食材 sauce 1
奶油 coating 0.0461458
是因为 unappetizing 0.088876
至 33.11 0.0111634
二是 respecting 0.181819
剩菜 repurpose 1
最佳 leftovers 0.119271
出生 birthday 0.371406
交易 dealings 0.0425595
迷 casseroles 1
通晓 plus 1
杭州 Jinglun 0.249999
炖菜 casseroles 0.285662
是 casserole 0.000215572
愉快 equally 1
主要 write 0.0126563
造成 Arctic 0.0119351
令 fraught 0.312175
已 became 0.00692267
： wife 0.00432899
本书 write 0.0795132
科学家 scientist 0.0836392
解释 explaining 0.217503
之地 plenty 1
OPEC confidence 8.0735e-07
富足 plenty 1
Group wood 0.000623301
欧洲人 Europeans 1
了 Europeans 2.86485e-06
一战 starving 1
上 largely 0.00200136
早餐 pie 1
烧饭 farmworkers 1
工人 farmworkers 0.0212678
一群 cooked 0.23559
留下 Kian 0.128796
尤其 eat 0.153024
是 eat 0.00067049
都 eat 0.00681339
不过 mixed 0.0353379
勇于 transforming 0.333383
肯定 stomach 0.11115
胃里 stomach 1
“ sat 4.96513e-08
怪相 grimaced 1
个 grimaced 0.00370823
扮 grimaced 1
都 dinner 9.72862e-05
想象 imagine 0.921117
制成 cheap 1
浇头 cheap 1
便宜 cheap 0.624999
上 ingredient 0.00200837
浇 stretches 0.116823
能够 ingredient 0.0340766
用 ingredient 0.0453702
都 ingredient 0.00293465
它们 stretches 0.191009
肝脏 bean 1
面包 bean 0.078238
面包 loaf 0.437353
花生 loaf 0.645827
有 loaf 0.00130441
非常 popular 0.0584482
非常 loaves 0.00231847
面包 loaves 0.484409
当时 loaves 0.0257299
看 late 0.312587
讨论 discussion 0.362632
适合 fitting 0.0998234
菜 fitting 0.482748
这些 fitting 0.00342243
认为 fitting 0.00671015
一份 meatloaf 5.44421e-06
拼盘 medley 1
火鸡 turkey 1
57 sandwich 0.428572
配碎 olive 1
芝士 olive 1
奶油 cheese 0.276875
奶油 cream 0.415487
岁 54 0.00601846
54 54 0.5
营业 1929 1
经济 1929 0.00343758
1929 district 0.999805
1929 Flatiron 0.000194712
公正 representation 0.204774
柜台 Flatiron 1
简单 frills 0.14699
此次 unhealed 0.0140863
区 frills 0.142158
熨斗 counter 1
位于 counter 0.0414114
。 frills 0.000374954
记者 Sandwich 0.00997736
一名 Sandwich 0.00949865
遇到 Sandwich 0.0782302
店中 Sandwich 1
森博格 Shop 0.858568
森博格 Sandwich 0.141432
共同 solidarity 0.0852895
方面 solidarity 0.0156924
留下 impressed 0.0515583
资管 Orient 1
来 pile 0.00387225
是 Great 0.000107768
本书 Great 0.0795241
这 Great 0.000272905
出版 Harper 1
出版社 Harper 1
由 Harper 0.00229277
中将 Square 1
新书 collaborative 0.28571
共同 collaborative 0.0852893
故事 Side 0.0298448
贫民区 Side 1
讲述 Side 0.295564
果园 97 0.666666
女士 Ziegelman 0.191057
齐格曼 Ms 0.251006
美国 Suey 0.00161146
关于 Suey 0.0440993
》 tenement 0.0237211
》 Suey 0.00338899
菜 Suey 0.275877
炒 Chop 1
《 Chop 1.31131e-06
科 CoE 0.894146
历史学家 historians 1
食品 historians 0.0602477
均 historians 0.0261879
高地 Brooklyn 1
公共服务 services 1.33609e-05
居住 live 0.272621
体现 Andrew 0.0401807
工作人员 staffer 0.0309299
橡胶 rubber 1
· Coe 0.00178678
丈夫 husband 0.555521
上 stand 0.00480603
与 suffering 2.81702e-05
上 solidarity 0.00200133
上 act 0.00545912
使用 tools 0.0170301
食物 culinary 0.128346
这是 Jane 0.00701286
齐格曼 Ziegelman 0.748994
· Jane 0.00268016
珍 Jane 1
离开 U.S.-backed 0.00789194
和 mashed 6.45989e-08
土豆泥 mashed 1
、 mashed 0.000252234
蛋 tomato 0.5
番茄酱 deviled 1
： prune 0.00449501
菜单 menu 1
他 menu 0.000551139
那天 menu 1
炖 terrapin 1
马里兰 Maryland 0.99998
和 gras 0.000645548
肝酱 gras 0.186324
肝酱 Pâté 1.93575e-05
至 until 0.170802
比如 Avenue 0.0356906
美食 Avenue 0.335058
第五 Avenue 1
喜欢 Fifth 0.193545
美食家 gourmand 1
作为 gourmand 0.00294556
享用 Oval 1
办公室 Oval 0.000362244
罗斯福 Roosevelt 0.97222
于 enjoying 0.000903097
于 competes 0.00135464
· Delano 0.00714709
富兰克林 Franklin 1
当选 shortly 0.0476048
刚刚 shortly 0.0851244
年 1933 0.00258605
1933 1933 0.714285
食 Food 1
酒店 Bristol 0.08938
时期 Food 0.0694207
萧条 Food 0.106588
中 depressing 0.00645238
》 Meal 0.0265209
大餐 Square 0.462724
丰盛 Meal 0.560506
《 Meal 0.00761518
还要 depend 0.252749
好 Parnham 0.0104618
状态 Parnham 0.0370169
也 Bam 0.00351582
这次 roll 0.0109284
球 victories 0.257603
各 Briggs 0.0318538
三场 Briggs 1
前 Jackie 0.00332325
对手 Briggs 0.0408346
零封 Jackie 1
本届 shutout 0.0395007
球 midway 0.107334
射入 midway 1
中期 midway 0.0297599
冈萨雷斯 Gonzalez 1
· Gonzalez 0.00357355
利萨 Gonzalez 1
抽射 curled 0.333262
中路 curled 0.111112
内切 curled 1
奔袭 ball 0.556953
南湖 Water 3.13012e-05
爆发 took 0.795938
这时 Bam 1
第三节 third 1
并且 proved 0.0215634
斗志 proved 1
间谍 Carré 1
惊人 proved 0.352905
出 proved 0.0393439
胜果 surprisingly 0.571607
未尝 surprisingly 0.160098
还 surprisingly 0.00277318
本届 tournament 0.0362689
的 surprisingly 6.72212e-09
了 turnaround 0.000199633
目前 rate 0.038881
达到 rate 0.0903612
未 rate 0.453582
当时 didn 0.0886719
。 physical 0.0017145
心态 change 1
这是 mental 0.0561029
发生 began 0.077163
主教练 Englishman 0.00692984
帕纳姆 Englishman 0.36476
帕纳姆 Parnham 0.63524
· Englishman 0.00153152
克雷格 Englishman 1
未 met 0.146254
英国人 Englishman 0.333334
看好 teammates 0.375004
被 teammates 0.000629849
雷 Rebull 0.271485
队友 teammates 0.080277
年 2008 0.0103442
2008 2008 0.666318
名单 roster 0.54545
最终 roster 0.0219256
入选 roster 0.642854
未能 roster 0.0711094
由于 roster 0.00319246
成员 sisters 0.0196755
年轻 player 7.22654e-05
最 player 4.46913e-06
更 Saudi 0.00248098
国家队 Drexel 0.051318
国家队 sisters 0.0855406
16 Drexel 0.0256979
而 realised 0.000703264
从事 Blue 0.142859
通过 opportunities 0.0165815
塞尔 Blue 1
（ Pa 0.00339437
棍 Pa 0.25
曲棍球 Pa 0.189189
岁 stick 0.012037
布 Bell 1
宾夕法尼亚州 Bell 1
于 grew 0.00108372
那支 BAM 1
当时 BAM 0.00986991
巴姆 BAM 0.0504983
垫底 teams 1
工作 works 0.0354171
支 teams 1
新潮 snazzy 1
知道 stir 0.0126403
参与 awareness 0.186761
要 stir 0.00164528
。 stir 0.000187503
奇迹 stir 1
创造 stir 0.0255936
表现 stir 0.00461848
惊人 stir 0.161731
以 stir 0.00556678
中 surprising 0.00645238
一 bracket 0.0138753
另 bracket 0.0148448
更 Dutch 0.00275471
得 Dutch 0.0250781
强大 Dutch 0.274483
遇到 avoid 0.457394
身份 bracket 0.346441
小组第一 bracket 0.74122
决定 decide 0.0370125
比赛 second 0.070289
这场 finishes 0.057678
以 bracket 0.0242909
两队 finishes 1
小组第一 unbeaten 0.25878
日本队 remained 0.593278
nubiaZ11mini nubiaZ11mini 0.666606
中 remained 0.00431382
小组 remained 0.0746455
原油价格 compounded 1
所 know 0.052242
几个 keeps 0.0791165
过 keeps 0.00669291
进 keeps 0.384616
自己 keeps 0.00195243
记住 keeps 0.101286
会 keeps 0.00147535
不是 &apos;m 0.0283131
。 clue 0.000498861
表现 thing 0.0629066
出色 thing 0.57036
如此 thing 0.328098
自己 done 0.0778145
却 Bam 6.0669e-06
四座 feat 0.405829
进球 feat 1
以 Americans 0.0541789
帮助 goals 0.0195545
里 openness 0.00401083
队 goals 0.109803
巴姆 scored 1.15142e-05
巴姆 Bam 0.908896
巴姆 Katie 0.000195221
· Katie 0.00643156
三元 Katie 1
战胜 0 0.273561
转速 cluste 1
战胜 victory 0.651827
而是 swarm 0.0652806
一 Britai 0.0189863
一 Showdown 0.0142561
与 Up 0.0024255
与 Setting 1.04417e-07
连胜 Hockey 0.205882
获得 Hockey 0.00517435
曲棍球赛 Wins 1
点 10.42pm 0.0261616
怀疑 selfish 0.224719
他 L 0.00137786
接替 L 0.555555
特点 recipes 0.176117
于 Austin 0.00541858
将军 votel 1.37316e-05
将军 General 0.999986
奥斯汀 General 0.722058
饱受 J 0.444472
三世 J 1
产生 produces 0.053656
奥斯汀 Austin 0.277942
抽查 spot 0.627637
劳埃德 commander 0.492978
指挥官 commander 0.755087
一般 sophisticate 0.0808532
后 testimony 0.0028932
一 With 5.25267e-05
遇到 Spanish 0.29267
执勤 duty 0.799883
审阅 III 1
律师 III 0.149993
多名 III 0.0374056
报道 reported 0.0463042
时代周刊 Times 1
其 unions 0.00220996
发言 Zanganeh 0.367974
而 refineries 0.00210973
这是 Arabic 0.0140257
出售 refineries 0.399996
上 refineries 0.00200132
黑市 refineries 1
恐怖组织 airstrikes 0.0833334
炼油厂 refineries 0.120225
针对 concluded 0.0273141
结论 concluded 0.181781
所 concluded 0.00584474
究竟 Parnham 1
比赛 Katie 0.011432
扮演 insurrection 0.110573
活动 insurrection 0.00656911
关于 insurrection 0.0385839
后 follow 0.0019288
没有 invasion 0.00188661
几乎 invasion 0.022599
并且 invasion 0.00988075
伊拉克 thinking 0.130714
前往 advocated 0.25288
派遣 objections 0.444466
坚持 objections 0.202956
众多 Bush 0.404437
英文版 version 1
基础 Orient 0.00710944
第四次 version 1
指出 W 0.0182564
要 industries 0.0197398
文中 W 1
文章 W 0.0760472
研究 W 0.00818278
一篇 W 0.205885
· Gregory 0.00536032
2000 Punished 0.122504
出 critiques 0.028845
令人 critiques 0.0807211
C Type 0.493089
评估 spots 0.13792
所 assessments 0.0233699
都 reluctantly 0.00875911
上 Libya 0.00120081
自行车 velodrome 0.285156
才 wine 0.0320638
质疑 allegations 0.313649
先后 Promotion 0.190362
公众 allegations 0.0606296
使 allegations 0.0855004
这些 allegations 0.00547588
这一 question 0.0481616
成功 repercussions 0.017095
声称 repercussions 0.0529824
所 Iraq 1.51542e-05
多 assertion 0.00721911
取得 succeeding 0.00909431
是否 succeeding 0.0164956
行动 succeeding 0.0121862
重新 starting 0.0507086
领导 bombing 0.47118
超过 repercussions 0.0230234
已 repercussions 0.000712002
害怕 afraid 0.541976
此次 repercussions 0.0117386
流程 Geneve 0.416667
就 welcome 0.00348499
鼓励 welcome 0.105184
前 decrease 0.00506439
情报机构 disagree 0.189903
尔 Hofstetter 1
对 complex 0.00679029
会 sometimes 0.0118027
评论 Cmdr 0.0710666
前 LT 0.00337626
结束 LT 0.0162919
在 existence 2.27395e-05
了 existence 0.000385311
》 Times 0.000190717
一名 gourmand 0.0189532
《 Times 0.0548768
八月 York 7.07108e-05
报导 Beast 0.338301
》 Beast 0.00474371
日报 Beast 0.285728
野兽 Beast 1
预设 preset 1
与 significantly 0.00121275
符合 narrative 8.31324e-05
符合 conclusions 0.0537782
中 jacket 0.00129047
时 fit 0.0225138
进攻 drag 0.176763
力量 Forces 5.65077e-06
施加压力 fit 0.786882
给 tried 0.115979
试图 tried 0.791196
白宫 White 0.832167
劳资 forefront 1
任何 evidence 5.89799e-06
民主党人 Democrats 0.501832
味道 housekeeper 0.140609
接受 accommodated 0.0277655
士气 accommodated 1
分析员 accommodated 0.0245286
降低 insufficiently 0.0313681
手 legend 0.0653724
发布 morale 0.026125
萨奇斯 Sakic 1
该 stalled 0.00596781
流程 insular 0.166667
狭隘 insular 1
维和部队 Iraqi 1
孩子 father 0.0290254
谢 Schiff 1
代表 Democrat 0.0416541
民主党 Democrat 0.047619
助攻 assists 0.935065
结论 conclusions 0.818219
部分 conclusions 0.0109133
对 iron 0.00478891
地球物理 Geophysical 4.05926e-06
调查结果 findings 0.560816
其 findings 0.00864891
尼斯 Bannister 1
小组 2007 0.041865
进行 general 0.0619674
英国 trio 0.0651966
有 extensive 0.000613579
会 extensive 0.00337153
将 extensive 0.000431228
其 utter 0.00883987
后 extensive 0.00165331
这篇 followed 0.899948
另外 Valley 0.0134272
继续 continues 0.0310595
成立 manipulated 0.0264385
后 manipulated 2.98005e-05
有关 manipulated 0.0466495
得知 manipulated 0.121982
站台 stand 0.444578
伊拉克 downplay 0.0326697
操控 manipulated 1
明显 Pompeo 0.166736
已 Pompeo 0.000533918
结果 Pompeo 0.00878568
这一 Pompeo 0.00518856
调查 Pompeo 0.00638601
数月 Pompeo 0.180698
多 Libya 0.00288765
之下 control 0.850606
仍 remains 0.0111321
目前 remains 0.00417898
伊拉克 Mosul 0.0522797
我 cake 1.94606e-05
紧张 vasoconstriction 0.144226
大型 publicly 0.190477
月 April 0.0163103
最早 back 0.939129
表示 Mosul 0.00250319
洲 Jeep 0.3
比如 example 0.263127
西班牙语 Spanish 0.555624
实际 actual 0.859596
比 testimonies 0.00507751
证言 testimonies 1
紫外线 ultraviolet 0.153133
声明 statements 0.334195
许多 releases 0.125413
报告 throughout 0.0114495
该 throughout 0.00420269
更 posed 0.00309903
690.3 690.3 1
) ISIL 0.00270424
ISIL ISIL 1
国 ISIL 0.0139574
尼科 Gu 1
描述 doctored 0.033753
已 adds 0.000711999
根据 doctored 0.00535105
这名 scene 0.13926
下令 ordered 0.787892
赔偿 infliction 0.371628
镀金 jacket 1
妥善处理 properly 1
机构 failures 0.0146851
该 failures 0.00170509
延伸 failures 1
舞鞋 shoes 1
则 Calvert 0.0270681
另一边 Calvert 1
明年初 film 1
战士 Ken 1
该片 film 1
饱受 controversial 0.333317
接受 unacceptable 0.0230442
行为 unacceptable 0.00792194
： Representative 0.0066133
表示 Representative 0.00321264
代表 Representative 0.0850755
共和党 Representative 0.056317
。 release 0.00232985
规定 provisional 0.016875
情报机构 elements 0.810097
乐观 positive 0.483643
更 consistently 0.0123962
一份 stuffed 0.0269056
姆 Callum 1
行动 antiterrorism 0.0121828
领导者 typically 0.0952235
经过 senior 0.282322
关于 depiction 0.0590877
一份 depiction 0.0203416
根据 depiction 0.00921888
总部 Middle 0.400127
公开 publicly 0.0717939
军事 Middle 0.0105507
中亚地区 Middle 1
是 Tampa 0.000107793
) Tampa 0.00169027
Centcom Tampa 1
未 found 0.140517
这道 surprisingly 0.470767
中央 CENTCOM 0.169745
评估 assessments 0.275902
与 doctoring 0.000606371
威金 Wiggins 1
正在 doctoring 0.0250095
上级 superiors 1
亿美元 damages 0.0323172
83 83 1
每年 uses 0.186184
小组 force 0.297735
专项 force 0.373382
可 unfamiliar 0.0109108
此类 Tribune 0.13479
委员会 Intelligence 0.0674929
引发 improperly 0.0484381
事情 filing 0.0892507
触动 languages 1
像 stomach 1.01312e-07
实际 warranted 0.140404
描述 warranted 0.0992354
对抗 picture 0.334353
公司 explain 0.00335651
总需求 demand 1
司令部 Command 0.592451
中 portray 0.00322619
报告 optimistic 0.0673775
小组 panel 0.111651
无水 CO2 1
ISIS ISIS 1
扭曲 distorted 1
官员 Officials 0.0691635
军事 Officials 5.18299e-05
小组 Panel 0.0506815
国会 Congressional 0.176213
用户 O.K 0.0147843
反对 O.K 0.0565223
这样 O.K 0.014205
是否 actually 0.0770159
从根本上 trade 0.647122
关闭 closed 0.205427
比例 populations 0.237004
内部 internally 0.130599
内部 inclusion 0.122876
招聘 recruiter 0.528696
近期 hired 0.428885
但 internally 0.00291743
年里 posture 0.297873
拒绝 declined 0.372517
是 noting 0.000107416
自己 noting 0.0039097
数据 figures 0.0169608
多样性 figures 0.0954834
员工 figures 0.0135933
发布 figures 0.014973
Snapchat unanswered 0.015155
被 unanswered 0.0006301
分享 observers 0.0721433
畅所欲言 speak 1
无法 &apos;re 0.523505
职位 &apos;re 0.338663
有色人种 safe 0.166953
决定 comfortable 0.02115
这样 comfortable 0.020292
作出 comfortable 0.0181182
所以 diverse 0.00953425
决定 Brandis 0.0370109
宇宙 qualities 1
要么 positions 1
人 representation 0.00287066
自行车 Brits 0.0275523
华裔 comfortable 1
一名 comfortable 0.0162456
时段 protecting 1
作为 comfortable 0.00252477
男队 realised 0.0780604
文章 hashtag 0.057038
并且 hashtag 0.00494069
男性 hashtag 0.189883
领导层 leadership 1
为 hashtag 0.000472339
县委书记 Dingnan 0.813823
缺乏 hiring 0.615545
过程 hiring 0.014062
招聘 hiring 0.471304
反映 hiring 0.383701
方面 reflected 0.0470772
自己 lack 0.0281116
中 hiring 0.00184352
只会 contrary 0.714285
一篇 essay 0.617638
赛场 insiders 0.178155
这么 others 0.260041
鼓励 encouraged 0.473311
并且 account 0.0788539
他 lack 0.00165376
兹曼 Lanzmann 0.916796
担任 Medium 0.0968321
Medium Medium 1
视线 unnoticed 0.499818
人们 unnoticed 0.00432961
难逃 unnoticed 1
便捷 conveniently 0.142857
更 unnoticed 0.00177088
事物 unnoticed 0.202567
表现 proved 0.0100778
警官 acquitted 1
以前 harder 0.100839
音译 harder 1
凯蒂 harder 0.217454
产生 creates 0.107312
VR Panorama 0.012353
滤镜 lenses 0.129104
一个 lenses 0.000901845
敏感 sensitivity 0.163197
沃伦 Warren 1
发布 restrictions 0.0523576
注重 sensitivity 1
更加 sensitivity 0.107567
比 sensitivity 0.00126909
年轻 younger 2.50451e-06
庞大 huge 0.666343
与 endless 0.00050622
多样性 endless 0.0696898
一直 endless 0.0027014
设备 boardrooms 0.333324
以及 devices 0.0648367
杭州 Nanluo 0.750001
触及 tripwires 1
唯一 tripwires 0.0225346
不是 tripwires 0.00650167
被 derogatory 0.00314909
只是 yellowface 0.147715
。 effects 0.000999871
与 filter 4.85402e-07
与 gross 0.0024255
很难 argue 0.277761
” uncomfortable 0.000503041
不适 uncomfortable 1
和 uncomfortable 0.000119682
难受 uncomfortable 1
感到 uncomfortable 0.00991323
是 uncomfortable 6.13914e-05
争议 hiring 0.149544
广泛 Sparapani 0.117844
被 Sparapani 0.00104972
持有人 Amendment 0.387085
形象 comparison 0.682735
坚决 roundly 0.239574
印象 stereotypes 0.103083
刻板 stereotypes 1
伤害性 stereotypes 1
了 hurtful 1.45454e-08
想起 hurtful 0.384615
观察者 racism 0.000990548
过 racism 0.035473
对于 experienced 0.00979985
而 homage 0.00100879
致敬 homage 1
角色 homage 0.0472481
动漫 homage 0.0383108
对 homage 0.000763257
是 homage 1.88593e-05
是 lens 6.7727e-08
该 lens 0.0204598
引发 Motherboard 0.0207582
Motherboard Motherboard 1
功能 dismantled 0.0367015
该 dismantled 0.00238741
存在 diversity 0.0837181
上 diversity 0.00749702
多样性 diversity 0.834827
在 diversity 3.18387e-07
是否 controversies 0.0330378
他们 hurtful 0.000883891
讽刺 caricature 0.818403
种族 racist 0.124113
对 caricature 0.00359159
称为 racist 0.103332
并 m 0.00836118
效果 puffy 0.0775285
和 puffy 0.00020932
团体 membership 0.0437233
将 include 0.000754586
创造 teeth 0.0511795
了 distorted 0.00158231
提供 distorted 0.0103341
美 ideal 0.000470625
美 blackface 0.999529
为 ideal 3.39774e-07
皮肤 tones 0.000505073
以 whitened 0.0222892
同行 counterparts 0.778975
或者 encouraging 0.125654
鼓动 encouraging 1
该 app 0.0040095
注意 record 6.5827e-05
公众 quickly 0.107141
被 quickly 0.00225137
会 quickly 4.53312e-05
会 missteps 0.00392014
都 missteps 0.00292494
失误 missteps 1
修饰 selfies 1
经过 selfies 0.0188218
超过 1.4 0.0197343
特征 selfies 0.0359223
标志 commercial 0.45582
、 warping 0.000344545
钝化 blunt 1
具有 blunt 0.037851
速度 spun 0.0071651
这些 blunt 0.00372549
角色 painting 0.363901
角色 Lichtenstein 0.00175857
画中 Lichtenstein 1
· Lichtenstein 0.00263563
罗伊 befitting 0.0608046
游行 demonstration 1
狗 dog 1
一只 dog 0.222369
一颗 dog 1
变成 pineapple 0.101837
把 yourself 0.0617494
滑稽可笑 absurd 1
速度 spinning 0.00726632
将 identity 0.00075443
滤镜 lens 0.61331
用户 tool 0.0123224
日常 tool 0.0624998
分享 Sparapani 0.12038
、 Nicolieski 1.71218e-08
认为 insensitive 5.6484e-07
滤镜 filter 0.257586
激情 determination 1
亚洲 Caricatur 0.0625046
被 Criticized 4.71395e-06
动漫 Anime 0.240422
教育 education 0.538334
通信 fuels 1
天然气 communications 0.347231
扩 Heathro 1
电 communications 0.378084
克罗地亚 Croatia 0.75
中心 centres 0.208306
上 remained 0.0039458
与 remained 0.0032432
0.5% maintenance 0.249924
维护 maintenance 1
运营 annually 0.0418793
、 furnishings 0.00014538
) 0.1 0.00222354
多达 indirect 0.192481
( 0.1 0.00316674
( maintenance 0.0062849
鞋类 footwear 1
粉脸 puffy 1
与 footwear 0.000606373
服装 footwear 0.636297
有 footwear 0.000536864
0.3% 0.3 1
其他 miscellaneous 0.0186733
酒店 hotels 0.0197959
6.3% 6.3 1
与 hotels 0.0008085
与 recreation 0.00121199
娱乐 recreation 1
1.7% 1.7 1
上涨 1.7 0.0530275
消费品 1.7 1
下列 1.7 1
月 beverages 0.00212403
都 teammates 0.00175171
。 -0.2 0.000599922
这些 contracts 0.0342524
0.2% -0.2 0.477642
- -0.2 0.00183003
1.0% 1.0 1
101.0% 101.0 1
为 1.0 0.000945161
消费者 101.0 0.203757
衡量 measured 1
本来 entered 0.584269
消费者 measured 0.0874136
以 measured 0.0063686
自行 conveniently 1
出租车 taxies 0.0186458
几天 seed 0.274126
（ measured 0.00581832
青年 wide 0.28436
习惯 lipids 0.114908
零点 posted 1
突破 posted 0.190863
之后 0.2 0.0277914
通货膨胀率 0.2 0.123335
） 0.2 0.00770255
起 June 0.116899
几年 posted 0.421053
这是 posted 0.018701
1% Bulgaria 0.842105
通货膨胀率 basis 0.219225
膨 Month 1
通货 Month 1
首次 1st 0.0704062
月 Inflation 0.00324951
新书 90th 6.35428e-05
以及 90th 0.021573
周年 90th 0.499545
家电 furnishings 1
所 luck 0.00467573
庆祝 celebrating 0.8
改造 makeove 0.0360999
一次 cozy 0.0207202
了 makeove 1.38216e-07
了 DTLA 1.49249e-05
进行 DTLA 0.0203042
阁楼 makeove 2.02709e-05
阁楼 DTLA 0.00515357
阁楼 loft 0.994826
产生 damages 0.013414
工厂 makeove 0.014386
工厂 loft 0.000682607
开放式 makeove 1
的 makeove 1.61786e-07
25 25 1
为 supplies 0.0028345
非会员 SCC 1
美元 SCC 0.107523
： SCC 0.00197824
会员 SCC 0.000823488
会员 SAH 0.999177
两起 judged 0.153678
SAHSCC SAH 1
； SCC 0.0093964
订票 advance 0.999842
和 Room 0.000279051
休息室 Room 1
展室 Lounge 1
时代 Cactus 0.246491
、 Lounge 0.000166781
、 Cactus 8.15581e-05
参加者 attendees 1
Blvd Blvd 1
了 amazing 0.000142458
3050 3050 1
) Wilshire 0.00323497
法律援助 aid 0.454541
Wilshire Wilshire 1
前 formerly 0.0101288
Law Blvd 1
of Blvd 0.600003
Southwestern 3050 1
Art 3050 1
地点 Salle 0.8
点 p.m. 2.76357e-05
阳光 dimmer 0.046941
21 p.m. 0.0529353
月 p.m. 0.00210711
： p.m. 0.00197916
过剩 increasing 0.0533975
时间 salon 0.00727884
寒酸 Food 0.333335
与 Associates 0.00121275
哈迪 Holzman 1
1933 Pfeiffer 0.285715
以及 Pfeiffer 0.0129674
图片 Pfeiffer 0.284872
古德西 Goodhue 1
报道 distributed 0.0224494
年 Pfeiffer 0.00103441
正在 answering 0.0504499
年 1926 0.00172361
1926 1926 1
价格指数 measured 0.300155
曼将 scheduled 0.250017
瓦茨 scheduled 0.399819
对手 duel 0.0255539
对手 Jackie 0.0672083
比赛 tournament 0.0165622
公安机关 date 0.494699
了解 Society 0.0116991
进一步 Society 0.0142923
此次 hosts 0.0234725
通过 hosts 0.00595359
油品 refined 0.17278
可 hosts 0.0218238
观众们 Chapter 0.210526
沙龙 salon 0.571404
一场 Southern 0.0242767
大气层 spun 0.0246983
： write 0.00173158
曼 Schwartzman 0.133318
瓦茨 Schwartzman 0.600181
周二 Beast 0.0411003
而 framework 0.00126586
历史 History 0.0116279
本质 essentially 1
艺术 History 0.0909754
《 book 0.0801635
分会 Chapter 1
南加利福尼亚 Historians 1
学会 Architectural 0.368421
金融时报 Financial 1
建筑 History 0.114339
建筑 Architectural 0.142924
第三 thirds 0.109121
为 architecture 0.00188918
先睹 Librar 1
结构 Librar 0.142674
结构 architecture 0.000118668
惊艳 Librar 0.000641348
惊艳 stunning 0.726672
比赛 Saturday 2.27009e-06
中央 Central 0.584433
感觉 feels 0.120713
我 feels 0.00523784
已 took 1.22274e-06
感到 stressed 0.0358154
而 stressed 0.00326863
全新 stressed 0.196133
有 gifted 0.000715814
意识 realise 0.228917
我用 took 1
带来 meant 0.029958
我 meant 0.00339634
一场 race 0.0647385
赛区 Wild 1
· Steve 0.0160789
电视 wedding 0.0943389
与 wedding 0.00060637
下个月 wedding 1
未来 futures 0.0359598
自己 futures 0.00937145
决定 futures 0.0444135
时间 futures 0.00655139
了 futures 1.25678e-07
做到 row 0.777778
这场 win 0.760077
每 looking 0.120391
食物 dismally 0.0213908
划好 looking 1
只是 looking 0.262603
荣耀 fireworks 0.333332
想 fireworks 0.040946
好的开始 start 1
0.1% 0.1 1
非常 really 0.310357
所 carried 0.0467576
所 get 0.179994
对手 carried 0.408864
节奏 process&apos; 1
保持 process&apos; 0.0290238
着 process&apos; 0.0069639
它们 termination 0.0856127
叫 calling 0.913043
惊心动魄 moment 1
仍 reserve 0.0070234
开始 Denmark 0.012576
丹麦队 Denmark 1
向 convenience 0.0109686
和 crews 4.88576e-07
米 500 1.86781e-06
无法比拟 rhythm 1
力度 punishing 0.166284
惩罚 punishing 0.571421
设置 punishing 0.749994
所 rhythm 0.0116883
组合 pair 0.236973
对 pair 0.00684156
败绩 haven 0.666667
棒 better 0.262436
不 couldn 0.000489035
最棒 nobody 0.142857
全世界 nobody 0.0560751
决赛 finishes 0.0202863
非常感谢 nobody 1
无名小卒 nobody 1
回报 Robin 1
数千 Queenslanders 0.184704
、 Robin 0.000114596
多 worked 0.0165272
继续 extend 0.00776488
自行车 Glaswegian 0.0316839
有 much 0.0164271
年迈 stellar 1
我 much 0.00682508
非凡 regiment 0.499999
意义 regiment 0.0340789
金牌 regiment 0.00467727
很 wreck 0.00312034
这周 wreck 1
这是 stressed 0.0121242
阿富汗 Artillery 0.200123
前往 Artillery 0.0422933
伤害 infliction 0.0471359
之后 Artillery 0.0123972
斯坦宁 Artillery 0.0516234
分享 1926 0.120394
炮兵团 Artillery 1
焦虑 anxieties 1
一些 attempt 0.00199801
比 attempt 0.00123583
比 victory 0.0253455
更长 bigger 1
变得 bigger 0.196441
而 bigger 0.00301721
旅程 makes 0.583376
50 20ft 0.00818103
30 20ft 0.00593123
20 20ft 0.00611356
走上 ward 0.132743
国务院 implement 0.0841114
绕 ward 0.300001
中银国际 Securities 1
太阳活动 reviewed 0.166667
但 ward 0.00102312
数月 realising 0.24097
就 50ft 0.00348499
激励 incentive 0.288163
是 incentive 7.13181e-05
来说 incentive 0.0376733
我 incentive 0.00141179
对 incentive 0.000796201
这 incentive 3.61146e-06
因此 needed 0.00737028
为 Spanish 0.00118102
并 circumstances 0.00584018
可能 expression 0.00195423
说 expression 0.00187301
下 expression 0.00523911
这种 expression 0.00373647
最低 fortunate 0.299939
影响 fortunate 0.00490878
将 fortunate 0.000215663
中心 Centres 0.000160053
年初 begin 0.458619
是 fortunate 6.15109e-05
略微 alters 0.726525
这会 alters 0.249999
多 bad 0.0180465
得 bad 0.141054
会 bad 0.0147524
罗伊在 Jack 0.666667
我 bladder 0.00108605
到来 touch 0.250485
随时 touch 1
死亡 touch 0.0654688
所说 touch 1
正如 touch 0.311742
能否 instrumental 0.142857
既往 repeatedly 0.999018
自己 instrumental 0.00520653
最大 incremental 0.0134681
了 contributing 0.00123729
不断 incremental 0.0260211
他们 incremental 0.000530339
不 esteem 0.001081
正是 incremental 0.0939419
餐厅 jacket 0.375
神圣 birthday 1
岁 sacred 0.00133744
不是 triumph 0.00561546
优雅 elegance 1
水面 elegance 0.25
两名 skating 0.0180728
不 inflict 0.000141604
这 triumph 0.000157374
这 skating 0.000272587
优势 unprecedented 0.0795772
绝对 unprecedented 0.199279
具有 unprecedented 0.0231041
不败 outing 1
全国 restriction 0.0124812
了 unprecedented 4.2799e-06
了 39th 7.86845e-08
她们 unprecedented 0.0292909
组合 height 0.0663483
赛艇 height 0.146787
高度 annals 0.262603
扩大 conveniences 0.0693231
这一 annals 0.00704004
对 annals 0.000812075
首 females 1
英国 annals 0.00330564
桨 successive 1
女子 height 0.010819
第二块 successive 1
陪伴着 echo 1
知道 wonder 0.0505538
一直 echo 0.00143816
、 sugar 0.000436976
领导者 leaders 0.476227
还有 pulling 0.0533832
走 intervene 0.0274777
她们 oars 0.0293873
非凡 Lagoa 0.500001
划桨 oars 0.250002
期间 War 0.0717896
保持 unprecedented 0.0192413
更 Lagoa 0.00247924
Lagoa estacio 1
da estacio 1
会 staying 0.0056529
Estacio estacio 1
人们 impressed 0.0121322
她们 punishing 0.0587777
而 Lagoa 0.00126587
训练 Lagoa 0.0141243
拉举 da 1
有 beverages 0.000623277
惩罚性 da 1
次 da 0.0241206
220 estacio 0.5
接受 estacio 0.0230441
已 estacio 0.000712003
现在 heaves 0.00586261
划桨 220 0.749998
一块 emotive 0.0695542
最让人 emotive 1
这是 emotive 0.00400735
地说 emotive 0.151428
夸张 emotive 1
毫不 emotive 1
赛艇 battl 0.0733914
新闻 depiction 0.0207086
斯坦宁受 battl 1
格拉芙 Glover 1
海伦 Helen 1
英国队 ultimately 0.00248601
精彩 Watson 0.0577962
法雷尔 Farrell 1
安东尼 Anthony 0.6136
安东尼 Marcus 0.3864
英格兰队 Marcus 0.943671
英格兰队 tackle 0.0563289
之后 tackle 0.146055
已经 resolute 0.0114539
得分 posts 0.0386255
脚法 posts 1
出色 posts 0.0558263
凭借 posts 0.0836347
下半场 posts 0.173889
诺顿 footwork 0.271918
但丹 footwork 1
领先 footwork 0.048241
时 eject 0.0168853
南非队 footwork 0.0825339
帮助 footwork 0.00342217
· footwork 0.00267988
制定者 makers 1
凯尔 Dan 0.904469
凯尔 Kyle 0.0955306
上半场 Kyle 0.0869024
对决 semi 1
激烈 semi 0.603545
私自 egg 1
击败 edged 0.0359899
都 deeds 0.00194652
州政府 delivered 1
退场 turf 0.834076
遗憾 thoroughly 0.240437
遗憾 turf 0.00251878
只能 thoroughly 0.696535
完败 embraced 1
》 allowing 0.0237194
体制 institutional 0.427623
终场哨 whistle 1
无所谓 moments 1
一次 moments 0.0105198
最后 icing 0.0071147
威廉 iced 0.454806
威廉 Viliame 0.545194
· Viliame 0.00489024
· Mata 0.00488651
马塔 Mata 1
拍手称快 approach 1
表现 admire 0.036937
精彩 admire 6.95303e-05
载歌载舞 danced 1
旗帜 danced 1
挥舞 danced 1
、 danced 0.000114823
歌唱 danced 1
站台 stands 0.416572
本案 v 1
球迷 sang 0.149822
掌控 Islanders 1
岛国 Islanders 1
汇报 outlet 0.666416
德 infringing 0.0744126
早已 Islanders 0.115831
行政 respecting 1
36 36 1
更 touching 0.00177088
比分 touching 0.0199554
触地 touching 0.222911
左角 touching 1
发生 demonstrate 0.00845223
效果 selfies 0.0344571
创造 dan 0.10236
诺顿 grabbed 0.728082
· Norton 0.0107213
丹 dan 1
得分 interplay 0.028429
瓦 interplay 1
埃索 interplay 1
图 interplay 1
· Fijian 0.00821252
乔舒亚 interplay 1
由 interplay 0.00134242
打出 interplay 0.246465
之后 brilliant 0.0371138
但 brilliant 0.00358022
亿美元 187 0.0323182
分红 dividend 1
这一 Tuisova 0.00830299
斐济 Fijian 0.0806428
着 Tuisova 0.0111173
冲击 Tuisova 0.0497708
人文 leisure 0.70069
烘肉 meatloaf 1
四分钟 dam 0.555556
整整 dam 1
军方 interference 0.234457
该 lawsuit 0.00149195
并且 dam 0.00988075
在历史上 economists 1
球队 citing 0.0893811
国家队 begin 0.0331423
这样 pretty 0.106505
就是 pretty 0.0415908
情况 pretty 0.0201919
初出茅庐 trade 0.99948
人制 7s 1
打 born 0.316084
就是 born 0.0554928
生来 born 1
受苦 suffering 1
是 conversion 0.000430954
已经 conversion 0.0343857
比分 break 0.174603
时 break 0.021106
休息 break 0.833329
中场 break 0.789472
线 tackling 1
直达 tackling 1
防守 tackling 0.153844
英国队 tackling 5.67828e-07
英国队 limp 3.79573e-05
” puff 0.000391026
· Watson 0.00134008
拉 limp 0.360538
· stormed 0.00357368
莫 Ravouvou 0.285719
瓦特 Ravouvou 0.999909
然后 Vatemo 0.138349
剩 restart 0.541509
还 restart 0.00467648
上半场 half 0.840224
上半场 restart 0.0728735
而 clock 0.000672663
一分 Nakarawa 1
得 Nakarawa 0.037617
雪上加霜 bad 0.99999
。 Veremalua 0.000249969
触地 Veremalua 0.260062
右角 Veremalua 1
卫莱马鲁在 Veremalua 1
· Veremalua 0.00178677
亚萨 Veremalua 1
延缓 delaying 1
受到 drawn 0.0502145
是 delaying 0.000258292
第三次 mountain 1
这段 bigger 0.165706
卡拉瓦 Nakarawa 1
那 Nakarawa 0.489796
饥饿 Europeans 0.399444
• Leone 1
巨人 superb 1
阻截 superb 1
强力 superb 1
没有 touched 0.0100533
触地 converted 0.517027
右翼 converted 1
在 converted 1.09268e-06
又 converted 4.2375e-07
· Tuwai 0.00214413
过 Tuwai 0.0107086
比分 corner 0.154129
客人 instead 0.641737
为了 suggested 0.0354254
以 Kolinisau 0.0111446
已经 osea 0.0343617
球队 dived 0.0297937
系列赛 dived 1
世界 dived 0.0026341
区时 dived 1
冲入 dived 1
尼索 dived 1
科林 Kolinisau 1
欧西 Kolinisau 1
夏洛特 WCCB 0.0151864
。 went 0.0189979
公共汽车 Series 1
行驶 Series 0.666667
正在 Series 0.033346
一连串 Tom 0.399888
了 corner 0.00221912
了 champions 2.08474e-08
上 Tom 0.00200136
而言 co 0.0344969
队友 co 0.133793
他 co 0.000918576
米切尔 Mitchell 0.833333
租客 Side 0.0949025
汤姆 running 1
对于 running 0.0147239
招架之力 fun 1
有些 doubles 0.153366
毫无 fun 0.625016
使 tackles 0.212478
推特 Grace 0.00163775
优势 tackles 0.00285238
优势 bouncing 0.159052
占据 bouncing 0.323022
就 bouncing 0.00232788
就 magnificently 4.50669e-07
惊人 startling 0.323651
十分 startling 0.0858152
至关重要 economy 1
了 startling 0.000308856
受到 hammering 0.0168593
他们 hammering 0.000445148
仅 lost 0.387192
冠军 lost 0.181413
而 here 0.0142791
上 Sevens 0.00100068
国际 Sevens 0.00511905
得 Adelaide 0.0564256
阿德莱 Adelaide 1
执教 Ryan 0.432837
不易 journey 1
实属 journey 1
成绩 journey 0.039966
今天 journey 0.0216963
能 journey 0.0370326
担任 neck 0.0484195
签署 commence 0.0909091
· Ben 0.00536032
意外 surprisingly 0.265095
本 Ben 0.214925
是 mainly 0.000446391
这 writing 0.00163719
这个 Briton 0.00597967
也 probably 0.00468685
英国队 neck 0.0123066
英国队 medal 0.0626627
约 ceased 0.00180196
戴 Briton 0.146341
英国人 Briton 0.666666
长期 ongoing 0.0526349
自卫 defense 1
15 fiddle 2.57449e-07
一支 fiddle 0.0777589
击败 fiddle 0.0479721
足以 fiddle 0.383575
日子 birthday 0.127137
无论如何 regardless 1
状态 bite 0.0742527
影响 bite 0.017209
指出 portray 0.0547693
南非队 semi 0.586776
南非队 Boks 0.33069
NASA NASA 1
险胜 semi 0.515791
5 Boks 0.0148726
7 beating 0.00621889
英国队 beating 0.00923127
早些时候 bruising 0.057971
当天 bruising 0.0352144
阿根廷 Argentina 1
了 beat 0.00100051
博迪尼于 trainer 1
由 borne 0.0021889
首次 inaugural 0.0352031
： proud 0.00519478
0.5% 0.5 0.750076
那么 successful 1.3922e-05
橄榄球队 Argentina 1
了 club 0.000905211
成绩 Argentina 0.0114189
这一 Argentina 0.00593073
。 defeat 0.000562418
第三块 defeat 1
获得 shabby 0.00258717
代表团 shabby 1
英国 Argentina 0.00310454
英国 Britain 0.12108
安慰 consolation 0.689638
算是 shabby 1
而言 consolation 0.0459954
英国队 consolation 0.0164116
击败 defeat 0.10797
这项 stretched 0.0770363
该国 colour 0.23305
郊区 buffet 0.501331
加利福尼亚 Jeep 1
夺得 brute 0.0126161
分析 Analysis 0.04878
表现 brute 0.0077503
无懈可击 brute 1
。 caught 0.000599928
跑动 lines 1
配合 lines 0.113071
布鲁克林 Brooklyn 1
世上 Mom 0.164979
、 lines 0.000573201
控球 loading 0.799851
控球 handling 0.000186347
打击 hammering 0.0248192
击败 beaten 0.390123
才能 comfortable 0.106671
多罗 Stadium 1
约蒂奥 Stadium 1
里 Deodoro 0.0240647
7 7s 0.010661
比 43 0.00507751
恒星 clusters 0.0105786
队以 43 0.323296
取得 unbeaten 0.0103906
出色 hurdle 0.0669899
延续 hurdle 0.230307
队 beaten 0.188071
发布公告 notice 1
英国队 crashing 0.0184625
周四 Rugby 0.0186668
金 gol 0.0620543
金 sees 0.091358
石油 Emma 0.00749287
夺得 gol 0.000738463
夺得 sees 0.040126
队 masterclass 0.100496
队 Fiji 0.133169
斐济 Fiji 0.860394
获得 settle 1.04973e-07
中 settle 0.0018002
橄榄球赛 settle 0.214151
英国队 Britain 0.171437
最新消息 hopes 1
联赛 hopes 0.220463
并且 index 0.0396182
该 hopes 0.00132618
并且 act 0.0179678
获取 hopes 1
广泛 extensive 0.101013
中国 hopes 0.00100931
方面 hopes 0.0052308
庞大 challenge 0.333657
中文平台 German 1
优酷 Youku 1
上线 Youku 1
德甲 Youku 0.0233443
配合 Youku 0.0566282
可谓 Ram 0.142857
格策 Goetze 1
拉姆 Muller 1
穆勒 Muller 1
球星 Thomas 0.4
多特蒙德 Dortmund 1
、 Dortmund 0.000164517
慕尼黑 Munich 1
拜仁 Munich 1
资金不足 underfunded 1
观战 spectators 1
观众 13.3 0.0103627
万名 13.3 0.363637
1330 13.3 1
所有人 owners 0.944263
为了 attempt 0.0089178
全球 13.3 0.00711679
赛事 kingdom 0.0193823
旗舰 kingdom 0.200002
球队 contributions 0.201108
当仁不让 kingdom 1
体育界 kingdom 0.466671
德国 Germany 0.42328
王国 Ligue 1
足球 Ligue 0.599595
200 1499 0.117863
) Ligue 0.0011275
法甲 Ligue 1
西甲 Serie 1
、 Liga 0.000344545
英超 FA 0.801412
联赛 leagues 0.496085
五大 leagues 1
欧洲 leagues 0.0967424
这名 appealing 0.0637276
被誉为 leagues 1
预热 preheating 1
2 freed 0.0142072
为 preheating 0.000236211
们 preheating 0.0109336
各地 preheating 0.0942162
布雷特 Brett 1
四座 continents 0.32416
主帅 Brett 0.178308
大洲 continents 1
两个 continents 8.55338e-05
两个 cover 0.0216205
横跨 cover 1
前哨 outpost 1
打响 outpost 1
开幕 outpost 1
将 touching 0.000215607
17 17 0.999997
高声 stands 1
传奇 legendary 0.637893
展开 outpost 0.200029
显得 CITIC 1
威廉姆斯 voices 0.307692
美洲 outpost 1
哪些 stories 0.454289
竭尽全力 enormous 1
各种 fan 0.104534
美国 Internal 0.0112794
到 aid 0.00428691
我们 ancient 0.00676125
届时 Lyman 0.25641
位 scoreboard 0.19611
积分榜 scoreboard 1
暂居 scoreboard 1
27 scores 0.0368137
达到 scores 0.00364174
积分 scores 1
将 pressures 0.000251548
分 scores 0.0432679
3 obtained 0.0508904
州 lawsuit 1
这 scoreboard 0.000182165
面前 hurdle 0.0940103
拿下 taking 0.00677266
安 defeated 0.381918
战胜国 defeated 1
于 defeated 0.00430791
终场 defeated 1
将 kept 0.00452774
4.6 46,000 1
职位 votel 0.105811
将球 Sergeyev 1
精彩 Sergeyev 0.115593
以 chesting 0.00892442
再次 chesting 0.00956278
施射 chesting 1
顺势 chesting 0.643082
停球 looped 1
胸部 looped 0.655991
一把 umbrella 0.341463
传中 86th 0.283468
出 86th 0.0206015
与 perfectly 0.000479457
精神 expand 0.17572
倒地 Yurong 1
下 Yurong 0.00522025
为 tones 0.00187792
动作 Yurong 0.103959
拦截 Yurong 0.571428
伸腿 Yurong 1
》 provisional 0.00790982
突破 restricted 0.05726
强行 restricted 0.150945
线内 restricted 1
( Tampa 0.00471302
禁区 restricted 0.0204069
马兹 restricted 0.142845
报 monthly 0.738024
追防 fouled 1
能力 capability 0.546602
展示 range 0.427337
门外 Wangjiang 1
再度 range 0.352607
耶里 Palmieri 1
非常 Krimets 0.0251562
动作 Krimets 0.303351
对 dissatisfied 0.000957751
撞 dissatisfied 0.123709
直接 dissatisfied 0.0137289
被 knocked 0.000786857
奔袭 knocked 0.0886227
右路 range 0.832075
2018 FY18 1
63 63rd 0.333334
不是 wife 0.0243405
相继 Dong 1
激动 Dong 0.0858642
梅茨 Krimets 0.999582
克里 Krimets 0.0693569
抢 intruded 1
铲 intruded 1
凶狠 intruded 0.00552472
前 tackled 0.00508553
攻门 curling 0.4
其 curling 0.00294662
几类 1.7 1
” staples 0.000880698
传递 Xizhe 0.308589
与 dribble 9.93783e-05
切中 transfer 0.00276965
内 dribble 0.0126102
56 56th 1
第 56th 0.0738962
犯规 fouled 1
杜丽 Li 0.00287416
前 alternative 0.0101288
彭欣力 Peng 1
替补 Peng 1
领到 yellow 0.921053
还 policeman 0.00207837
拖延时间 Xinli 1
被 Xiaofei 0.00377477
商品 commodity 0.21871
攻门 angle 0.6
比 36 0.00507751
令人 uncomfortable 0.0576918
右侧 lobbed 1
就 pity 0.000870648
下半场 pity 0.130427
领先 0 0.404293
足以 Argentina 0.328761
入球 leads 1
取得 leads 0.0121223
就 leads 0.00232333
赛事 League 0.387665
破门 rid 0.123076
推射 rid 1
顺势 rid 0.356918
低平 rid 1
分球 rid 1
前 rid 0.00112542
反戈 Chiming 1
登场 Chiming 1
下场 Xiaobin 1
张晓彬 Xiaobin 1
调整 Xiaobin 0.041966
进行 Xiaobin 0.00344319
毕竟 confidence 0.0576305
暂时 enjoying 0.25
37 37th 0.341801
第 37th 0.0739217
的话 everywhere 0.0563339
黄牌 yellow 1
出示 Tenglong 0.131286
判定 referee 0.526138
放 Tenglong 0.444444
动作 Tenglong 0.124751
腾龙 Tenglong 1
雷 sentenced 0.000130225
时 Tenglong 0.00337706
接应 Tenglong 1
卡尔德 Alan 0.666537
突然 flipped 0.0636473
而 snatch 0.00125921
机制 institutional 0.142857
一对 flipped 0.125099
运用 operational 0.409465
联系 44 0.233216
将 Xiaofang 0.000754619
门将 goalkeeper 0.857143
力帆 Lifang 0.197065
部位 unkicked 0.375001
正 unkicked 0.161113
踢 unkicked 1
未能 member 0.39557
军事行动 Middle 0.111162
未 unkicked 0.0146254
扫射 unkicked 1
中路 strafed 0.666666
大宝 Yu 0.63529
于 Dabao 0.00532964
传中 crossed 0.496061
插 crossed 0.555555
1 minute 0.0423157
种族 hiring 0.0709214
抢先 defensive 1
即日起 Office 1
种族 racial 0.248225
发现 distributed 0.0231362
刘宇 defensive 0.0649019
禁区 Yu 0.367255
禁区 penalty 0.612198
直冲 midfield 1
挑传 flip 0.699995
直线 flip 1
中场 flip 0.210528
冲击 echo 0.0276504
第 15th 0.0729765
底线 volley 0.287827
和 End 1.44506e-06
德甲 Bundesliga 0.976656
被 fended 0.00104803
被 hit 0.000253703
打破 peer 0.428571
角度 angle 1
同行 peer 0.139496
近距离 backhand 0.444444
进行 went 0.130837
一 81st 0.00635807
扳回 81st 1
81 81st 1
首球 81st 1
收获 81st 0.0222773
助攻 81st 0.0649351
费尔南多 Fernando 0.975609
克 Kardec 1
卡尔德 Kardec 0.333463
39 39th 0.769225
破门 29th 0.138463
巡逻 Store 0.555555
王栋 29th 0.237898
29 29th 0.0216885
第 minute 0.118974
第 29th 0.055443
北京国安 Club 1
集中 concentrate 0.0762868
重庆力帆 Football 1
称 Inspection 0.0337393
比赛 Talent 0.00476415
一场 Talent 0.0121387
开打 Talent 1
22 Football 0.158957
第 Football 0.14412
持平 beverages 0.240689
分 Football 0.168709
好时机 securing 1
点 22nd 0.0784845
下去 Russians 0.0247963
传播 Russians 0.0441038
中间 Russians 1
进攻 moments 0.224167
中华 Russians 0.437383
把 Russians 0.00686105
定要 Russians 1
回俄后 Russians 1
那延伟 Russians 0.357141
庭 Mecklenburg 1
重任 communicator 1
” communicator 0.000359954
传播者 communicator 1
全球 runways 0.00553529
中华文化 overseas 0.738153
到 responsibility 0.0073494
感受 responsibility 0.837217
同时 responsibility 0.0123641
非常 teachers 0.0147853
帮助 teachers 0.0078243
老师 teachers 1
培训班 teachers 0.101389
那延伟 Yanwei 0.642859
秘书长 Yanwei 0.0575695
促进会 Yanwei 0.374991
中华文化 Yanwei 0.142826
这一 Na 0.0415149
吉和斯 scheduled 1
作出 promotion 0.0317072
传播 contribution 0.0661556
中华文化 contribution 0.119021
青年 Seventh 0.237686
为 skills 0.00377942
司机 Taipei 0.163444
知识 knowledge 0.918089
所学 contribution 0.571429
自己 promotion 0.00780958
写出 write 1
球 Xiaofang 0.322003
下手 painting 1
哪里 painting 0.747507
原油 output 5.17386e-06
军事行动 spots 0.666631
培训班 course 0.354731
得主 slam 0.217251
参加 participating 0.0328045
” Jinan 0.00351923
将 yea 0.000360371
工作 ensuring 0.00582472
烟草 tobacco 1
海外华人 hosted 1
暨南大学 hosted 1
法律 legal 0.897415
细分 sub 1
侨务办公室 Overseas 1
美欧 higher 1
能够 Dutch 0.0226021
国内 participated 0.147065
几家 sub 1
换掉 starter 1
说道 Chinanews.com 0.042863
激动 Chinanews.com 0.0536163
水底 Water 1
中新网 Chinanews.com 0.111107
阻止 ultimately 0.237712
主席 chairman 0.47462
华人 Jing 0.0550345
居住证 acceptance 0.137936
想起 critiques 0.23077
开来 apply 0.935047
轻松 bear 0.499987
承担 Owen 0.263157
员工 safe 0.0239174
主教练 head 0.776111
欧文 Owen 0.299998
分给 Owen 1
重担 Owen 1
他会 Owen 1
旧主 Chiming 1
就是 education 0.0709821
数据 capability 0.0593086
包括 resignation 0.0108739
里 regular 0.0180485
限购 restriction 1
做好 playoffs 0.100142
季后赛 playoffs 0.792306
为 playoffs 0.0013631
保证 conserve 0.0632907
群体 suffer 0.133116
《 Tribune 0.00381857
于 suicide 0.000602658
奖杯 trophy 1
第一座 52 1
年里 52 0.446809
52 52 1
为 Cleveland 0.0006299
哦 OH 1
FMVP FMVP 1
斐济 beaten 4.69734e-06
一个 FMVP 0.000166648
长期存在 page 1
军事实力 military 1
赢得 Russell 0.0320284
詹姆斯 James 0.982177
比 FMVP 0.00169093
戈达德 GISS 0.666667
乔丹 Jordan 1
此前 Youku 0.012817
只有 Jabbar 0.0271101
之后 Jabbar 0.0105893
第三枚 Jabbar 1
柏林 furor 0.0735369
多少 much 0.937419
油箱 tank 1
跑车 tank 1
年轻 youngest 0.0233997
人里 youngest 1
为 2007 0.000708569
进入 readiness 0.000458433
到 GDP 0.00964355
早已 limits 0.12402
也 GDP 1.56791e-07
组合 GDP 5.01816e-05
一年 battles 0.0303022
2013 Adams 0.031097
邓肯 Duncan 1
马刺队 Spurs 1
一言一行 word 0.580824
化学反应 Aldrich 1
里奇 reaction 1
对手 punishing 8.54655e-07
和 chemical 0.000837282
。 anchor 0.000601996
篮下 basket 1
他 better 0.00545895
开辟 fertile 0.0769228
公共 reforms 0.0195596
是因为 basket 0.177752
反映 reaction 0.447651
数据 reaction 0.0197695
得 Parker 0.0564256
； respecting 0.014622
拿下 scoreboard 0.0448458
做出 sacrifice 0.0710188
整体 sacrifice 0.28578
相近 planetary 1
汤神 mean 0.923077
意味着 mean 0.19234
就是 probably 0.0554686
小 massive 0.0728842
严重 Warriors 0.0171149
数据 Warriors 0.00988477
卫生 Health 0.375455
他 opponent 0.000787364
对 opponent 0.00136808
对手 opponent 0.11682
方面 holding 0.017654
